#Layer 1 Weights:
0.580357193946838379 0.733716607093811035 -2.009639978408813477 -0.387362003326416016 -0.148509398102760315 3.685567855834960938 0.284341067075729370 -0.276520699262619019 1.520125508308410645 0.051464673131704330 1.870447158813476562 17.383579254150390625 0.922994077205657959 0.574281811714172363 1.021723747253417969 -0.724084913730621338 -2.628378391265869141 0.941320240497589111 -0.202098116278648376 0.551134347915649414
-1.294115781784057617 -1.481451630592346191 0.185909479856491089 -0.595153748989105225 -0.426197499036788940 -2.548806905746459961 -4.201648712158203125 -0.622299015522003174 -1.818458437919616699 -0.645829677581787109 -0.955883264541625977 -2.814364671707153320 -1.540235161781311035 -0.720056056976318359 -6.922608852386474609 -0.055038962513208389 0.972064495086669922 -0.739827632904052734 -0.099068991839885712 -1.194848418235778809
1.111092686653137207 8.025045394897460938 -0.813082993030548096 0.951266169548034668 0.936908304691314697 22.115932464599609375 0.785562455654144287 1.178216457366943359 19.660114288330078125 0.270598828792572021 0.053632736206054688 8.671219825744628906 2.408946037292480469 0.673417687416076660 8.095907211303710938 -0.503758907318115234 -1.390826106071472168 16.381647109985351562 -2.825883626937866211 1.011818766593933105
-0.684104561805725098 0.412782013416290283 -1.476874232292175293 0.015773916617035866 -0.601799309253692627 0.106559060513973236 0.508622169494628906 -0.617283046245574951 -0.096012391149997711 -0.875903248786926270 1.506132960319519043 -3.752198219299316406 -0.542716801166534424 -0.732844412326812744 -0.243311926722526550 -1.159499049186706543 1.468646883964538574 0.008163577876985073 -0.181861266493797302 -0.701114177703857422
-0.483291059732437134 0.308960199356079102 -1.694128394126892090 -0.139699429273605347 -0.437654435634613037 2.370277404785156250 -1.078733921051025391 -0.288197368383407593 -0.525279223918914795 -0.418735504150390625 0.476134836673736572 11.644372940063476562 -0.588160216808319092 -0.396291077136993408 -0.122207909822463989 -0.401019871234893799 -1.312493443489074707 -0.192013680934906006 -0.535889923572540283 -0.660573422908782959
-0.780626893043518066 -0.817694425582885742 -0.828519225120544434 -0.565879166126251221 -0.117883615195751190 -0.206807807087898254 -0.315613716840744019 -0.241143554449081421 -0.799183011054992676 -0.543696165084838867 0.165322050452232361 -0.552002966403961182 -0.452778935432434082 -0.068011008203029633 -0.558201014995574951 -0.907854974269866943 -1.190861701965332031 -0.277497470378875732 -0.469435930252075195 -0.151339635252952576
2.223385334014892578 7.541396617889404297 -4.546594142913818359 0.812781214714050293 0.216081231832504272 19.351207733154296875 3.201711177825927734 4.578425884246826172 6.039669513702392578 -0.204508274793624878 -0.802520453929901123 16.086225509643554688 8.794759750366210938 2.352817535400390625 17.360525131225585938 -1.803605318069458008 -1.013112664222717285 5.844255924224853516 -1.979137659072875977 2.212545871734619141
-0.333402484655380249 0.767526388168334961 -3.248310565948486328 -0.675909936428070068 -0.671291530132293701 16.443714141845703125 -0.184013098478317261 -0.426789909601211548 -0.228091239929199219 -0.216132014989852905 0.220941945910453796 30.286468505859375000 -0.193537220358848572 -0.187502905726432800 1.752087950706481934 -1.241756081581115723 -0.754727840423583984 -0.508448779582977295 -0.647105276584625244 -0.540129065513610840
-1.116070985794067383 0.348913311958312988 -1.229775786399841309 -0.542864441871643066 -0.774285495281219482 0.115548580884933472 -0.544362068176269531 -1.200029611587524414 -0.754677653312683105 -1.085359334945678711 1.026065230369567871 -4.263982772827148438 -0.786460816860198975 -1.168682336807250977 -1.284150481224060059 -1.240139603614807129 -0.239987090229988098 -0.447813063859939575 0.241717040538787842 -0.265490293502807617
-0.779436409473419189 -0.609045982360839844 -1.042509317398071289 0.002684745471924543 -0.369905203580856323 -0.604864835739135742 -0.053517349064350128 -0.797384381294250488 -0.532466232776641846 -0.927153348922729492 -0.085017941892147064 0.430039584636688232 -0.448237627744674683 -0.868028342723846436 -0.980741739273071289 -0.194495037198066711 0.704297065734863281 -0.518319845199584961 -0.515673279762268066 -0.741295576095581055
-0.096051409840583801 1.925782680511474609 -0.998339951038360596 -0.007401853799819946 -0.094502657651901245 9.428326606750488281 0.402001708745956421 -0.478831857442855835 -0.163423314690589905 -0.507316291332244873 0.894973099231719971 -0.151359736919403076 -0.098285667598247528 -0.026500483974814415 5.361210823059082031 -0.433003515005111694 -1.667509555816650391 -0.769211411476135254 -0.849982976913452148 -0.711234211921691895
0.064250133931636810 1.095457196235656738 -0.921614348888397217 -0.218251749873161316 -0.357172697782516479 15.894428253173828125 -0.482064425945281982 -0.089252196252346039 -0.537045300006866455 -0.402896434068679810 0.195303291082382202 21.474315643310546875 -0.155326038599014282 -0.491088420152664185 1.573328614234924316 -0.729642808437347412 -1.410638332366943359 -0.526149630546569824 -0.680793523788452148 -0.046581793576478958
-0.159608036279678345 -0.045255165547132492 -0.220747902989387512 -0.276293098926544189 -0.364084571599960327 -1.229139328002929688 -0.891675651073455811 -0.463660895824432373 -0.242660716176033020 -0.095249801874160767 0.106013491749763489 -2.249462366104125977 -0.127346113324165344 -0.578582644462585449 -1.617082118988037109 -0.219884842634201050 -0.795913279056549072 -0.484234273433685303 -0.535055041313171387 -0.217293366789817810
-0.128738909959793091 -0.580697774887084961 -1.096226096153259277 -0.455792874097824097 -0.809245526790618896 -0.628887712955474854 -1.021363019943237305 -0.510009407997131348 -0.551389276981353760 -0.330939918756484985 0.057226203382015228 -0.799473106861114502 -0.799727261066436768 -0.113094143569469452 -0.372219920158386230 -0.484525769948959351 -0.202805489301681519 -0.793795764446258545 -0.625488221645355225 -0.125032022595405579
3.429298400878906250 1.815828561782836914 -2.009077787399291992 0.716010093688964844 -0.886933386325836182 8.850893020629882812 6.862901687622070312 -0.066493853926658630 11.415656089782714844 0.035641636699438095 0.174987018108367920 17.302562713623046875 3.332285642623901367 0.350994080305099487 8.223385810852050781 -1.912649154663085938 -2.230283975601196289 0.584986686706542969 -2.228103637695312500 1.867634534835815430
-0.548474252223968506 1.386239290237426758 -0.455693483352661133 -0.195857778191566467 0.023152070119976997 10.297149658203125000 -0.856079757213592529 -0.647013187408447266 -0.785423696041107178 -0.433078825473785400 -0.348184764385223389 -0.416367620229721069 -0.110516697168350220 -0.180169045925140381 0.938725888729095459 -0.507073938846588135 -1.835388064384460449 -0.732142448425292969 -0.308167874813079834 -0.084672525525093079
-0.197972193360328674 0.011192898266017437 -0.880443751811981201 -0.682675302028656006 -0.586964488029479980 -0.317898988723754883 -0.322819679975509644 -0.108253322541713715 -0.141895100474357605 -0.238096788525581360 0.614921569824218750 -0.494739800691604614 -0.808003485202789307 -0.703126192092895508 -0.411979973316192627 -0.781381607055664062 0.272960066795349121 -0.322868257761001587 -0.707103312015533447 -0.560104250907897949
-0.612781703472137451 0.308903634548187256 -0.682479083538055420 -0.334770709276199341 -0.344842135906219482 6.098849296569824219 -0.556784391403198242 0.094824805855751038 -0.322689771652221680 0.067200325429439545 0.125416412949562073 9.719515800476074219 -0.377654671669006348 -0.682629942893981934 -0.523837924003601074 -0.984597742557525635 -0.175866276025772095 -0.676199376583099365 -0.341748028993606567 -0.507867574691772461
-0.117071971297264099 -0.830649495124816895 -0.560741126537322998 -0.036997288465499878 -0.311160504817962646 -2.156291246414184570 -0.590397298336029053 -0.729424357414245605 -0.752646386623382568 -0.191180810332298279 -0.700088202953338623 -0.656906545162200928 -0.700341343879699707 -0.536507666110992432 -1.118540525436401367 -0.625729143619537354 -0.995026826858520508 -0.404045253992080688 -0.245329976081848145 -0.243202567100524902
0.560879111289978027 0.956694960594177246 -2.137230396270751953 -0.109863489866256714 0.171979129314422607 3.196953296661376953 0.461415380239486694 -0.394345968961715698 2.069660663604736328 0.120984770357608795 2.078540325164794922 20.159387588500976562 1.189335584640502930 0.401283383369445801 1.376791596412658691 -0.873107433319091797 -2.774416446685791016 1.461146354675292969 -0.861683070659637451 0.785230696201324463
