#Layer 7 Biases:
-0.009538819082081318 0.008720253594219685 -0.005206179805099964 0.002228047000244260 -0.004685674328356981 -0.011016701348125935 -0.000920564052648842 -0.001702290493994951 -0.002959010656923056 0.008283094502985477 0.010081547312438488 -0.026567943394184113 -0.005263144150376320 -0.006600913591682911 0.006130239926278591 -0.000186154953553341 0.006532212719321251 -0.000971275905612856 -0.006133157294243574 0.010047995485365391 -0.012845021672546864 -0.012371231801807880 0.007607451174408197 -0.001484204898588359 -0.000453187210951000 -0.000166097001056187 0.009853887371718884 0.000882441818248481 -0.012376698665320873 0.007475199643522501 -0.021583389490842819 0.015542845241725445 0.010480469092726707 -0.015555346384644508 -0.008510151877999306 0.016195619478821754 -0.012067277915775776 -0.008147105574607849 0.002861149841919541 0.010496558621525764 0.028196178376674652 -0.003212397685274482 -0.015932539477944374 0.008562793955206871 -0.006994074210524559 -0.001985349692404270 0.009819875471293926 -0.006082773674279451 0.021362109109759331 0.007001606747508049 -0.011968020349740982 0.007978496141731739 0.001555417082272470 -0.007617539260536432 0.007405344396829605 0.008671854622662067 0.010479166172444820 -0.021039770916104317 -0.013633740134537220 0.014530152082443237 -0.011676901951432228 -0.008391997776925564 -0.024998210370540619 0.016624594107270241 0.001858368865214288 0.005488540045917034 0.004532006103545427 -0.006875610910356045 -0.000188021003850736 -0.000003923192707589 -0.000922223611269146 0.006081780418753624 0.006223493255674839 0.019932799041271210 -0.002414578106254339 0.031556528061628342 -0.014360302127897739 0.011810003779828548 -0.011125804856419563 0.005444516893476248 0.016122667118906975 -0.001932636369019747 0.003012400818988681 -0.011048458516597748 -0.005974197294563055 0.006469017826020718 0.007053860928863287 0.013325479812920094 0.005965678021311760 0.016801776364445686 0.029162282124161720 0.008748009800910950 0.029935479164123535 -0.007634066045284271 -0.004669034853577614 0.001551802968606353 0.006169473286718130 -0.004864785820245743 0.008281217887997627 0.006669986993074417
