#Layer 0 Biases:
0.057345852255821228 -0.064301140606403351 -0.000054191419621930 0.003764731576666236 0.039006333798170090 0.092144899070262909 0.043177306652069092 0.090525031089782715 0.008448289707303047 0.071535356342792511 0.059458509087562561 -0.002365100197494030 -0.080361686646938324 0.035375963896512985 -0.157629847526550293 -0.051233302801847458 -0.057934980839490891 0.020163722336292267 0.058777589350938797 -0.082327693700790405 0.091985844075679779 -0.080397672951221466 -0.085812360048294067 -0.044094812124967575 -0.051721118390560150 0.031313177198171616 -0.013137918896973133 -0.128255665302276611 0.050503626465797424 -0.042659677565097809 0.004163546953350306 -0.014300196431577206 0.000374104187358171 -0.007312474306672812 -0.035687319934368134 -0.012109449133276939 0.041187163442373276 0.108462199568748474 -0.142981395125389099 -0.052661981433629990 -0.087335601449012756 -0.101208887994289398 0.040455527603626251 -0.133498981595039368 0.089653536677360535 0.090307593345642090 -0.013807144016027451 0.046658877283334732 -0.015814637765288353 -0.001853616326116025 0.003999479115009308 -0.021547311916947365 0.052893016487360001 0.014362981542944908 -0.048128202557563782 -0.078900083899497986 0.057670880109071732 0.067967779934406281 0.040518276393413544 -0.040307156741619110 0.068486146628856659 -0.027975721284747124 0.011679793708026409 0.035915687680244446 -0.035520378500223160 -0.065669745206832886 0.044187232851982117 0.056229542940855026 -0.057794161140918732 0.002937025157734752 0.053559511899948120 0.004685790278017521 -0.008209615945816040 -0.073560029268264771 0.097125448286533356 -0.044497720897197723 -0.040689919143915176 -0.046404819935560226 -0.066052958369255066 -0.101119704544544220 0.000117852097901050 0.054333548992872238 0.087860681116580963 0.005259970203042030 -0.002322379965335131 -0.072251826524734497 -0.088467836380004883 -0.047341663390398026 -0.002520381473004818 0.043539453297853470 -0.028038242831826210 -0.072588913142681122 0.038627915084362030 0.081666082143783569 0.014068556949496269 -0.009175779297947884 -0.008167711086571217 0.017673820257186890 -0.060417991131544113 -0.060934182256460190
