#Layer 5 Biases:
0.035323511809110641 -0.011705243028700352 -0.006318029016256332 0.004129089880734682 0.008185805752873421 -0.002461954019963741 -0.001973617356270552 -0.002147396793588996 -0.007137508131563663 0.009603212587535381 0.013962533324956894 -0.008166209794580936 0.011835344135761261 -0.067359700798988342 0.000488563498947769 0.021699290722608566 0.011029038578271866 0.009574511088430882 -0.002215766813606024 -0.019973319023847580 -0.016435053199529648 -0.027244590222835541 -0.000450211373390630 -0.022190673276782036 -0.025167664512991905 -0.010424113832414150 0.022474402561783791 -0.008401542901992798 -0.006920597981661558 -0.024845544248819351 0.028906553983688354 0.019305551424622536 0.006550458725541830 0.006267696153372526 -0.004430322907865047 -0.012701603583991528 -0.030840551480650902 -0.016288971528410912 0.003862503450363874 -0.001849957276135683 -0.008317889645695686 0.003521809820085764 0.083618268370628357 0.000189984508324414 0.041488252580165863 -0.025572950020432472 0.030628237873315811 -0.030797349289059639 0.011121149174869061 0.017539588734507561 0.012873421423137188 -0.001158941537141800 0.013057913631200790 -0.000266517774434760 0.006147333886474371 0.020447973161935806 -0.010146575048565865 -0.011130631901323795 -0.002795806387439370 -0.004213901702314615 -0.009901140816509724 -0.004140265751630068 0.004544964525848627 0.001137257902882993 0.012504555284976959 -0.001406692084856331 -0.005462485831230879 -0.010485053062438965 0.022912977263331413 -0.008017516694962978 0.006911200471222401 0.014130522496998310 -0.011385235004127026 0.003724292851984501 0.009943555109202862 -0.007356562651693821 -0.008869772776961327 0.001494919531978667 0.016975210979580879 0.013959759846329689 -0.015802914276719093 -0.012459699995815754 -0.001723256078548729 0.064229324460029602 -0.027431454509496689 -0.027854148298501968 0.007277102209627628 -0.006482122000306845 -0.005647133570164442 -0.010984976775944233 -0.009146805852651596 -0.005987350363284349 0.007561012171208858 -0.000768901431001723 0.000067636879975908 0.008875842206180096 0.030225435271859169 -0.016774462535977364 -0.005072834901511669 -0.013505484908819199
