#Layer 3 Biases:
0.031889546662569046 0.018811905756592751 -0.011549551039934158 -0.089563973248004913 0.000993393361568451 -0.024961564689874649 -0.005508461967110634 0.046682815998792648 -0.071074955165386200 0.000251943827606738 -0.013712294399738312 -0.031497359275817871 0.008844522759318352 -0.007444726303219795 -0.069980911910533905 0.011264415457844734 -0.018719080835580826 -0.022583499550819397 0.032769192010164261 0.004282034933567047 0.015659920871257782 0.053224790841341019 -0.067174464464187622 -0.011886949650943279 -0.005436432082206011 -0.011148151010274887 0.015656119212508202 -0.008219800889492035 -0.006894889753311872 0.024019800126552582 0.029779838398098946 0.002704461105167866 0.052660495042800903 -0.004682070575654507 0.034673977643251419 -0.004580196458846331 -0.129761934280395508 0.004885457456111908 -0.020530868321657181 0.006801694631576538 -0.026208164170384407 -0.012018102221190929 -0.036259956657886505 0.004561843350529671 0.014403931796550751 0.001512176473625004 0.033442325890064240 -0.004418355412781239 -0.004001476801931858 0.056509356945753098 -0.012458942830562592 -0.041584350168704987 -0.027210013940930367 0.055950008332729340 -0.008596011437475681 -0.003239601152017713 0.051851768046617508 -0.020655496045947075 0.021438552066683769 0.027965050190687180 0.023117236793041229 -0.030379477888345718 0.005171684548258781 0.003099459921941161 0.073538646101951599 -0.024275057017803192 0.000160524621605873 -0.008542837575078011 -0.021009633317589760 0.026303924620151520 -0.034018300473690033 0.025304660201072693 0.037791393697261810 -0.019126685336232185 0.031223382800817490 -0.033646658062934875 -0.025818269699811935 0.024946084246039391 -0.022434882819652557 -0.072177648544311523 0.068936683237552643 0.044480562210083008 0.062082320451736450 -0.019251227378845215 0.062497012317180634 -0.015324857085943222 -0.033724330365657806 0.013348935171961784 0.001161528402008116 -0.000037050536775496 -0.012386590242385864 -0.049443498253822327 -0.026667006313800812 0.011791314929723740 -0.094640254974365234 -0.018654584884643555 0.012127262540161610 0.004485911689698696 -0.003597969887778163 0.011785861104726791
