#Layer 2 Biases:
-0.006206748075783253 -0.041747521609067917 0.057008851319551468 0.001397470245137811 -0.011885261163115501 -0.011619661934673786 -0.034839473664760590 -0.003540334524586797 0.015706779435276985 0.008845385164022446 0.039478976279497147 0.058887418359518051 -0.053734954446554184 -0.050605766475200653 -0.035906750708818436 -0.032292075455188751 0.011580080725252628 -0.031778585165739059 -0.000274636986432597 -0.015531546436250210 0.016295798122882843 -0.030263997614383698 0.000495503540150821 0.046347618103027344 0.034487903118133545 0.033572256565093994 0.004255464300513268 -0.043380256742238998 0.005357351619750261 0.024112844839692116 0.073591433465480804 -0.000915927812457085 -0.068027630448341370 -0.037459280341863632 0.004922836553305387 -0.007561893202364445 0.065266117453575134 0.012151020579040051 -0.030924536287784576 -0.047317627817392349 0.056371413171291351 -0.024617535993456841 0.001297864131629467 -0.003990146331489086 -0.059035860002040863 0.063240312039852142 0.043077223002910614 -0.041729293763637543 -0.024763185530900955 -0.009697671979665756 -0.026788810268044472 -0.027106886729598045 -0.015674659982323647 -0.024902418255805969 0.037892986088991165 -0.144658729434013367 -0.012676804326474667 0.045222938060760498 -0.022351549938321114 -0.014060826040804386 -0.006560265552252531 0.001567865023389459 -0.032223094254732132 -0.065689720213413239 0.077989794313907623 0.038746945559978485 0.041125211864709854 -0.078518807888031006 0.073317155241966248 0.008934435434639454 -0.095168113708496094 -0.023646332323551178 -0.007816095836460590 -0.003104487434029579 0.005415008869022131 0.045066449791193008 -0.021939598023891449 0.102839730679988861 0.011239629238843918 -0.023671764880418777 -0.031338397413492203 -0.015045988373458385 0.016112171113491058 -0.028370881453156471 -0.015074262395501137 -0.014107085764408112 -0.008949246257543564 -0.014675752259790897 -0.003210305934771895 0.050759766250848770 -0.001754452008754015 0.060119513422250748 0.014319536276161671 0.034985713660717010 -0.032888770103454590 -0.032633665949106216 0.004344528075307608 0.000150937703438103 0.055732682347297668 0.035451129078865051
