#Layer 1 Biases:
0.074771739542484283 -0.037715654820203781 0.028873736038804054 -0.044891886413097382 0.003876098198816180 -0.027072735130786896 0.013030208647251129 -0.079073905944824219 0.029106862843036652 0.037413336336612701 -0.040560331195592880 0.042237982153892517 0.018107203766703606 0.049073927104473114 0.019476700574159622 0.027092365548014641 -0.031418211758136749 0.055466521531343460 0.021059829741716385 -0.039982635527849197 -0.005859449505805969 -0.015572528354823589 0.046429719775915146 0.097049340605735779 0.031823437660932541 0.000788499775808305 -0.063185356557369232 -0.039496794342994690 -0.034704603254795074 0.061258930712938309 -0.072574347257614136 0.044902659952640533 0.006110691931098700 -0.090079501271247864 0.017697738483548164 -0.008935087360441685 -0.052375722676515579 0.017943639308214188 -0.033144205808639526 0.059232462197542191 0.072442196309566498 -0.094092853367328644 -0.033745374530553818 0.006403673905879259 0.020238671451807022 -0.034894865006208420 0.024786263704299927 0.007153060287237167 0.028679769486188889 0.049425102770328522 0.002971466165035963 0.044294282793998718 0.010722014121711254 0.003939576912671328 -0.051710717380046844 0.010566316545009613 -0.046629488468170166 -0.064536817371845245 0.034232206642627716 0.024808457121253014 -0.009206254966557026 -0.026164548471570015 -0.010250898078083992 -0.024720573797821999 -0.048444472253322601 0.035889096558094025 -0.003641503630205989 -0.004311019089072943 0.000165956953424029 0.022277472540736198 -0.078606992959976196 0.000640786369331181 -0.016581058502197266 -0.036020904779434204 -0.013798587024211884 0.050042577087879181 0.052383568137884140 -0.018381129950284958 -0.051331490278244019 -0.006460332311689854 0.059880364686250687 0.049608524888753891 -0.038667231798171997 -0.043877419084310532 -0.051948674023151398 0.009360420517623425 -0.033683344721794128 -0.043089013546705246 -0.036709330976009369 0.064967244863510132 -0.048196617513895035 -0.108279809355735779 0.008582160808146000 -0.023886485025286674 0.024783354252576828 0.061214808374643326 0.030089847743511200 0.022692857310175896 0.066726587712764740 0.023994263261556625
