#Layer 8 Weights:
-0.126860752701759338
0.190499097108840942
0.001319068018347025
0.125008791685104370
-0.141636461019515991
-0.156689479947090149
-0.117011256515979767
-0.204265892505645752
-0.000477982452139258
0.094254545867443085
0.031238161027431488
0.001125303679145873
-0.159837946295738220
-0.050707556307315826
0.075905777513980865
0.001438446342945099
0.174136117100715637
-0.067529313266277313
-0.218058034777641296
0.111115463078022003
-0.199352189898490906
-0.121797181665897369
0.074682146310806274
0.128534555435180664
0.176332965493202209
-0.156479656696319580
0.095827445387840271
0.041170287877321243
-0.040920551866292953
0.181752473115921021
0.000628133653663099
0.003993184771388769
0.025211855769157410
-0.092187240719795227
-0.079136960208415985
0.000986992265097797
-0.012924895621836185
-0.105568915605545044
0.194236889481544495
0.026485033333301544
0.152890443801879883
0.140860572457313538
-0.184517651796340942
0.198946133255958557
-0.127989590167999268
-0.123230166733264923
0.159125417470932007
-0.071377448737621307
-0.000590749899856746
0.178089261054992676
-0.051408886909484863
0.055766530334949493
-0.213002204895019531
-0.086185596883296967
0.141066178679466248
0.173213496804237366
0.027714813128113747
-0.168865978717803955
-0.117209710180759430
0.197761535644531250
-0.153979480266571045
-0.097732476890087128
-0.000378629134502262
0.010722622275352478
0.131341472268104553
0.190703228116035461
0.063285790383815765
-0.104922436177730560
0.157414227724075317
0.052985522896051407
-0.084750324487686157
0.000229535813559778
0.072754174470901489
0.081019774079322815
-0.140569180250167847
0.198752284049987793
-0.000140415708301589
0.121588341891765594
-0.147144913673400879
0.057860367000102997
0.017722478136420250
-0.207118347287178040
-0.200413271784782410
-0.070755422115325928
-0.030716540291905403
0.161900043487548828
0.116053983569145203
0.013336904346942902
0.122993551194667816
0.001693863654509187
0.168172553181648254
0.216853395104408264
0.000403708399971947
0.000298356229905039
-0.059071596711874008
-0.170963287353515625
0.076380126178264618
-0.038868714123964310
0.163766384124755859
0.086323022842407227
