#Layer 1 Weights:
-0.499488025903701782 -0.429697990417480469 1.251241326332092285 -0.314408183097839355 -0.904305279254913330 0.858401775360107422 0.091589987277984619 0.387214750051498413 0.979076981544494629 0.743377804756164551 -0.792651832103729248 -1.232345819473266602 0.852308690547943115 0.028554754331707954 -0.753169953823089600 0.419897466897964478 0.190205857157707214 -1.016562938690185547 0.808011949062347412 -0.164781600236892700
2.035729169845581055 4.007782936096191406 3.638877153396606445 -6.017881393432617188 -2.228450059890747070 -2.985517024993896484 4.575728893280029297 0.554534792900085449 1.582553863525390625 -0.187077701091766357 3.675442457199096680 -1.147648930549621582 2.798067092895507812 3.541379690170288086 -0.176649883389472961 3.767617225646972656 3.279241800308227539 3.668624162673950195 3.348914861679077148 3.359533786773681641
-1.606083750724792480 -1.196445584297180176 -0.459282249212265015 -1.052664518356323242 -0.573044121265411377 -0.876035153865814209 -1.190265536308288574 0.335177719593048096 -0.845492243766784668 -0.011627416126430035 -0.504512369632720947 -0.285929352045059204 -0.619347929954528809 -0.965384483337402344 0.018486008048057556 -0.874648511409759521 1.073916792869567871 -0.375935971736907959 -0.516916692256927490 -1.130805730819702148
-0.809648215770721436 -0.726035356521606445 -0.607676804065704346 -1.081180095672607422 0.251615017652511597 -0.518163979053497314 -0.527382493019104004 -0.246683076024055481 -0.355024576187133789 0.235558211803436279 -0.078350424766540527 0.226606711745262146 -0.861901223659515381 -0.407065153121948242 -0.090207055211067200 -0.584742009639739990 0.869082450866699219 0.037176463752985001 0.790099799633026123 -0.380953282117843628
0.296630769968032837 0.770413219928741455 1.334895133972167969 0.337356716394424438 -2.016628503799438477 0.287129402160644531 1.364855051040649414 -1.062210083007812500 0.097181819379329681 0.012417325749993324 -0.386543869972229004 -1.663416862487792969 2.067834854125976562 0.092929221689701080 -1.396884560585021973 0.722017467021942139 1.166656970977783203 -1.564763784408569336 0.980671346187591553 0.888840675354003906
-1.065536141395568848 -0.039895497262477875 -0.973636925220489502 -2.572203159332275391 -1.637641310691833496 -0.634742498397827148 -3.043134450912475586 -0.147445097565650940 -0.981699764728546143 -0.639012038707733154 -0.694611072540283203 -0.886385142803192139 -0.872834503650665283 -0.115673296153545380 -1.803133130073547363 -1.062967300415039062 -0.864771008491516113 0.625973224639892578 -0.163797080516815186 -1.751249432563781738
-1.010296702384948730 -1.143941044807434082 -0.310301035642623901 -1.463811516761779785 0.055045403540134430 -0.319607526063919067 -0.252333730459213257 -0.046136412769556046 -0.631907224655151367 0.163129746913909912 -0.299321085214614868 0.113475620746612549 -0.663068354129791260 -0.535903513431549072 -0.082740463316440582 -0.551226794719696045 0.221555173397064209 -0.030774982646107674 -0.088004373013973236 -0.331971913576126099
-0.922796666622161865 -0.567356348037719727 0.815363466739654541 -0.574708700180053711 -0.989638447761535645 0.959212064743041992 0.279260724782943726 -0.327297449111938477 0.213552936911582947 0.337562024593353271 -0.545615315437316895 -1.238620877265930176 0.219816908240318298 0.391203254461288452 -1.015585422515869141 0.176806628704071045 0.845882952213287354 -1.374826669692993164 1.008784770965576172 -0.358364760875701904
-0.290751218795776367 -0.607783496379852295 0.053006239235401154 -0.692542672157287598 -0.360699176788330078 1.349487066268920898 -0.294736981391906738 1.145892858505249023 0.571239888668060303 -0.806664764881134033 -0.973694860935211182 -0.413050502538681030 -0.112254023551940918 0.100563660264015198 -0.457836896181106567 0.148168444633483887 -0.421591490507125854 -0.643075168132781982 -0.210244923830032349 -0.046575620770454407
-1.490199327468872070 -0.213315472006797791 -2.868071317672729492 -0.233977288007736206 1.240366458892822266 1.986620545387268066 -7.268462181091308594 -2.521465301513671875 -0.394311785697937012 -0.253944039344787598 -1.875205636024475098 0.560580193996429443 -0.555356442928314209 -2.822311639785766602 1.265259385108947754 -5.322109222412109375 -1.843392491340637207 -0.200508803129196167 -2.086942911148071289 -2.249608993530273438
-3.080137729644775391 -2.845000982284545898 -1.135248899459838867 0.766503691673278809 0.657690167427062988 -0.570599913597106934 -1.669255971908569336 -0.862018406391143799 -0.830231010913848877 0.221483469009399414 -0.333752930164337158 0.322552978992462158 -0.985535442829132080 -0.455274879932403564 -2.936987161636352539 -0.832927286624908447 -0.790440201759338379 0.002516056643798947 -0.591127634048461914 -3.027929067611694336
0.617846131324768066 -0.499804615974426270 -0.057961739599704742 0.099220611155033112 0.033296782523393631 -4.428590297698974609 -1.755372285842895508 -2.131358861923217773 -0.081937231123447418 0.019876137375831604 -1.241942405700683594 -0.425929754972457886 0.181946426630020142 0.365657776594161987 0.038903027772903442 -0.229895159602165222 0.431313335895538330 -0.814441204071044922 0.110691435635089874 0.405541896820068359
-1.009585022926330566 0.721624553203582764 0.721556723117828369 0.101074330508708954 -0.666554749011993408 1.323500037193298340 0.568230688571929932 0.226506799459457397 0.301958233118057251 0.773273289203643799 -0.794907569885253906 -0.792871057987213135 0.657807230949401855 0.275388896465301514 -0.367722332477569580 0.774020075798034668 0.675543367862701416 -0.502731680870056152 0.547888100147247314 0.332387417554855347
0.197410106658935547 0.970922231674194336 -1.905449628829956055 -0.063481986522674561 -0.018734734505414963 6.199584484100341797 -2.047819137573242188 -0.899842619895935059 1.028185248374938965 0.255808740854263306 -1.704430580139160156 0.624230384826660156 1.292936205863952637 -2.675873041152954102 -0.054813239723443985 -1.519917726516723633 -1.524548530578613281 -1.924535393714904785 -2.950626611709594727 -0.096040636301040649
-1.175760388374328613 -0.770497858524322510 -1.964650392532348633 0.305495798587799072 -0.217346236109733582 -1.451451659202575684 -4.037091732025146484 0.133773401379585266 -0.940238058567047119 0.061802875250577927 -0.866051435470581055 -0.160422578454017639 -0.306263506412506104 -0.396820992231369019 -1.764988422393798828 -2.513329505920410156 -0.523799121379852295 -0.250652968883514404 -1.062369227409362793 -2.699687480926513672
-0.546814799308776855 -0.336823284626007080 0.174842536449432373 -1.307363033294677734 -0.218573957681655884 3.696231126785278320 -0.289834648370742798 0.975796282291412354 -0.689843714237213135 0.088914766907691956 -0.912247776985168457 -0.330229699611663818 -0.173351287841796875 -0.777972698211669922 -0.184940963983535767 0.337697982788085938 0.261558383703231812 -0.791220724582672119 0.190163016319274902 -0.457480907440185547
2.010492324829101562 -0.270346045494079590 2.277610063552856445 -0.048521362245082855 -1.004297494888305664 -1.630152463912963867 -0.882192552089691162 1.448016524314880371 -0.218189716339111328 -0.519976973533630371 1.444852113723754883 -1.271062970161437988 0.202258422970771790 2.050813198089599609 -0.227202787995338440 2.160640954971313477 2.684716701507568359 1.054657936096191406 1.679616689682006836 1.619515657424926758
-0.393601596355438232 0.067066416144371033 -0.804011940956115723 -0.757586121559143066 0.500955343246459961 0.127440750598907471 -0.927503347396850586 -1.789563775062561035 -1.106169104576110840 -0.631156563758850098 -0.513965606689453125 0.238583043217658997 -0.565936923027038574 -0.335629820823669434 -0.052378002554178238 -0.869944632053375244 -0.388375610113143921 -0.100823141634464264 -0.123961769044399261 -0.611140847206115723
0.500033438205718994 1.074309349060058594 -0.167136013507843018 2.184377193450927734 -0.218693211674690247 6.592551231384277344 -0.232472330331802368 0.330273091793060303 0.840663433074951172 -0.158649206161499023 -1.255743026733398438 -0.284825772047042847 0.359447300434112549 -1.168014764785766602 1.001502394676208496 -0.078033819794654846 1.226739406585693359 -0.296447455883026123 -0.169014170765876770 -2.351299762725830078
-1.339342236518859863 -0.945390999317169189 0.623203337192535400 -0.131595909595489502 -0.562659502029418945 0.336321532726287842 0.167747825384140015 0.448716312646865845 0.630991756916046143 0.674009859561920166 0.670831799507141113 -0.641565740108489990 0.401923686265945435 1.296123147010803223 -0.698068976402282715 0.446491688489913940 0.853610217571258545 0.094107247889041901 0.192494481801986694 0.573952913284301758
