#Layer 7 Biases:
0.057356178760528564 0.010104487650096416 -0.048339225351810455 -0.024126546457409859 -0.031389590352773666 -0.054662819951772690 -0.055524468421936035 0.063597857952117920 -0.053819093853235245 0.053399156779050827 -0.054737634956836700 -0.029262105002999306 0.075943268835544586 -0.059120390564203262 0.055808607488870621 -0.095236420631408691 0.020563283935189247 0.012132906354963779 0.068039856851100922 -0.090988516807556152 0.066329158842563629 0.013288156129419804 -0.074358075857162476 0.069518774747848511 0.032927285879850388 0.009260000661015511 -0.089291065931320190 -0.069859646260738373 -0.100816950201988220 0.070998057723045349 -0.049229919910430908 -0.095919638872146606 0.002920922823250294 -0.073920190334320068 -0.034837864339351654 -0.038922637701034546 0.013024881482124329 -0.000321002124110237 -0.067285530269145966 0.040660034865140915 -0.096969999372959137 -0.054787676781415939 -0.054072089493274689 0.117640435695648193 -0.104224726557731628 0.088840395212173462 -0.091404967010021210 -0.051907081156969070 -0.059846598654985428 -0.033270053565502167 0.068963654339313507 -0.079007379710674286 -0.045941017568111420 0.072778210043907166 0.037249226123094559 0.108298204839229584 0.075924254953861237 0.032818257808685303 0.093450330197811127 -0.028340775519609451 0.052376214414834976 0.014702807180583477 -0.006508518941700459 -0.050147410482168198 -0.040518824011087418 0.055810060352087021 -0.073797531425952911 0.064330741763114929 0.070189580321311951 0.001469789538532495 -0.047247491776943207 -0.057194847613573074 -0.026222402229905128 -0.030039815232157707 0.068815305829048157 0.063278168439865112 0.070153787732124329 -0.001512650400400162 0.070773452520370483 -0.020346583798527718 0.062026012688875198 0.036324847489595413 -0.011018407531082630 0.021050870418548584 0.101431384682655334 0.038643989711999893 -0.060456618666648865 0.014596240594983101 -0.087046444416046143 -0.028623128309845924 0.032610084861516953 -0.003518343437463045 0.018024690449237823 -0.027383223176002502 -0.007431200239807367 -0.030088584870100021 -0.067878134548664093 -0.005746232345700264 0.035273898392915726 0.033425621688365936
