#Layer 5 Biases:
-0.011251991614699364 -0.001333914464339614 -0.012793841771781445 0.031180631369352341 0.015196639113128185 0.032946322113275528 0.009991057217121124 0.058702517300844193 -0.007349097169935703 -0.002548720454797149 0.044686026871204376 -0.005739253014326096 -0.031767021864652634 -0.010116668418049812 0.002312322147190571 -0.022841054946184158 0.062981359660625458 -0.040057126432657242 0.122188292443752289 0.071850337088108063 -0.003694248385727406 0.063196569681167603 -0.053358018398284912 0.034925058484077454 0.075957611203193665 -0.061150610446929932 -0.020670356228947639 -0.037918344140052795 -0.003012250177562237 0.027315258979797363 -0.062650881707668304 0.007539311423897743 -0.061471965163946152 -0.013505148701369762 -0.013364660553634167 -0.065694428980350494 -0.051663253456354141 -0.025630198419094086 -0.018399683758616447 -0.060804467648267746 0.019536912441253662 0.016316687688231468 0.014743546023964882 0.017508024349808693 0.019475838169455528 0.013676992617547512 -0.042201671749353409 -0.039511445909738541 0.048546433448791504 -0.064586505293846130 0.030190080404281616 -0.046113312244415283 -0.000610366871114820 0.044988803565502167 0.006686954293400049 -0.049517288804054260 -0.020162647590041161 -0.090189792215824127 0.043067656457424164 0.045895483344793320 0.062665089964866638 0.051950380206108093 0.029939124360680580 0.031699649989604950 -0.004397031385451555 -0.014418603852391243 -0.011198535561561584 -0.063377201557159424 0.000889643328264356 0.039004903286695480 -0.016171494498848915 0.022626437246799469 -0.013962415978312492 0.038076955825090408 0.064839102327823639 0.070611044764518738 -0.007159897591918707 0.007283414714038372 0.046672206372022629 -0.000965911603998393 -0.050080727785825729 -0.032778248190879822 0.024023588746786118 0.027844825759530067 0.005668700207024813 -0.010473413392901421 -0.060773570090532303 -0.027464382350444794 -0.019870199263095856 0.013999585993587971 -0.045065406709909439 -0.063989862799644470 0.021434064954519272 -0.081651076674461365 -0.052389599382877350 0.006802006158977747 0.065729074180126190 0.015763908624649048 0.031255051493644714 -0.000719823932740837
