#Layer 6 Biases:
0.014813257381320000 0.007600571028888226 -0.094669342041015625 -0.007073082495480776 -0.047286741435527802 0.108801044523715973 0.017536908388137817 -0.062346260994672775 -0.019636984914541245 0.077756367623806000 -0.024359745904803276 -0.002128089545294642 0.084394842386245728 -0.043848827481269836 0.022469725459814072 0.041044495999813080 -0.040663421154022217 -0.050083160400390625 -0.007403695024549961 0.056065160781145096 0.024600313976407051 -0.032606050372123718 0.010419813916087151 -0.032073922455310822 0.040874999016523361 0.037488274276256561 0.017244201153516769 0.077903203666210175 -0.031599488109350204 0.094786904752254486 -0.088849134743213654 -0.055385816842317581 -0.074665471911430359 0.036735277622938156 0.010302138514816761 0.005718524102121592 -0.019879706203937531 -0.045345872640609741 0.049974430352449417 -0.020337633788585663 -0.046748124063014984 0.019699880853295326 0.057111054658889771 0.078978829085826874 -0.021352244541049004 -0.028649071231484413 0.012227810919284821 -0.051968928426504135 0.002779823495075107 -0.045226670801639557 -0.034252926707267761 0.001314895809628069 -0.138805255293846130 0.026933012530207634 -0.020731028169393539 0.002492933766916394 -0.002410402521491051 0.015199319459497929 -0.026523493230342865 -0.029338566586375237 0.059202112257480621 0.032490849494934082 -0.049826044589281082 0.059972308576107025 0.032579097896814346 -0.044609420001506805 -0.058862235397100449 -0.038116063922643661 0.008947704918682575 0.090871840715408325 0.025868101045489311 0.010304593481123447 0.014134283177554607 0.012463101185858250 0.011371447704732418 0.042117901146411896 -0.072736106812953949 -0.054655190557241440 0.004762154072523117 0.048972766846418381 -0.008853490464389324 -0.011475418694317341 0.055198844522237778 0.079425096511840820 0.090661287307739258 0.001244709943421185 -0.001028149970807135 -0.002684064907953143 -0.085245035588741302 0.056833282113075256 -0.029370252043008804 0.032311528921127319 0.028997790068387985 -0.034701876342296600 0.032135598361492157 0.026773963123559952 0.022754326462745667 0.012649418786168098 -0.068143606185913086 0.017978435382246971
