#Layer 4 Biases:
0.026484655216336250 0.000574139296077192 -0.040364384651184082 0.024977050721645355 -0.009095481596887112 0.020144060254096985 0.064538203179836273 -0.055035967379808426 -0.039587907493114471 -0.020930770784616470 -0.027142470702528954 0.002291476819664240 0.066559769213199615 -0.052101574838161469 0.093678139150142670 0.030615596100687981 -0.065979689359664917 -0.033666435629129410 0.077162593603134155 0.027734719216823578 0.015975894406437874 -0.006886885967105627 -0.127497285604476929 -0.079786285758018494 -0.060713611543178558 0.039417464286088943 0.039454713463783264 -0.039542742073535919 -0.103497251868247986 -0.004611209966242313 0.058318533003330231 -0.018675195053219795 -0.005969660822302103 -0.073817230761051178 0.089589923620223999 0.027382638305425644 0.030364230275154114 0.069189466536045074 0.044219281524419785 -0.058793555945158005 -0.012222651392221451 0.029977397993206978 0.018877912312746048 -0.052412625402212143 0.039003267884254456 0.029317950829863548 0.011758310720324516 0.003032147418707609 0.048137068748474121 -0.016020406037569046 0.039444036781787872 0.058228012174367905 0.043165344744920731 0.019816791638731956 -0.029974620789289474 -0.080501563847064972 -0.017899464815855026 -0.100997187197208405 -0.027324501425027847 0.030316559597849846 -0.007521859370172024 -0.025030400604009628 -0.010234606452286243 -0.060230910778045654 0.003390091005712748 -0.090861260890960693 0.016045261174440384 0.003276993986219168 0.020958628505468369 -0.005017377901822329 0.019633227959275246 -0.067625693976879120 0.014979799278080463 -0.001898039132356644 -0.031674284487962723 -0.016822071745991707 -0.035264182835817337 0.006218280177563429 0.033881075680255890 0.025110559538006783 -0.005473325960338116 -0.044052898883819580 -0.012041465379297733 -0.056654717773199081 -0.057370800524950027 -0.084524296224117279 0.010070259682834148 0.006974974647164345 0.015857998281717300 0.120648309588432312 -0.020350700244307518 0.002747291699051857 0.019254887476563454 -0.007814372889697552 0.026360694319009781 -0.019288014620542526 0.080970935523509979 -0.018076296895742416 0.007176851388067007 -0.021660264581441879
