#Layer 1 Biases:
-0.029825486242771149 -0.313122808933258057 0.066882468760013580 0.001211914583109319 0.103972762823104858 -0.104755483567714691 -0.100120998919010162 0.054912578314542770 0.041319992393255234 -0.004611412528902292 0.003176428843289614 -0.051128398627042770 -0.062465380877256393 0.044154882431030273 -0.086066193878650665 0.014588331803679466 -0.042015723884105682 -0.011476492509245872 -0.026912363246083260 -0.011692394502460957 -0.035282492637634277 -0.020242229104042053 -0.098781600594520569 0.096345171332359314 -0.135511770844459534 0.088788442313671112 0.096701920032501221 0.018182577565312386 -0.069538056850433350 0.062837339937686920 -0.052459578961133957 0.035498108714818954 0.124751076102256775 0.132843732833862305 -0.126611351966857910 0.064338199794292450 0.173349604010581970 -0.081381008028984070 -0.047407083213329315 0.036620058119297028 -0.102070793509483337 0.040287707000970840 -0.061978660523891449 -0.015730727463960648 0.050058998167514801 0.065619602799415588 0.076046735048294067 -0.022397246211767197 0.140721470117568970 -0.057123828679323196 0.054924286901950836 -0.060621567070484161 0.109193190932273865 -0.036970015615224838 0.085037380456924438 -0.029539359733462334 0.142701968550682068 0.056373596191406250 -0.025915432721376419 0.091308899223804474 -0.048165239393711090 0.101335421204566956 0.143211513757705688 0.123575866222381592 -0.037925753742456436 -0.120740056037902832 0.113443650305271149 0.098918572068214417 -0.028189703822135925 -0.024790437892079353 -0.014992226846516132 0.059376556426286697 -0.112998135387897491 0.171868816018104553 0.081969067454338074 0.046002410352230072 -0.017333930358290672 -0.063645213842391968 0.063440419733524323 0.036800157278776169 -0.053001713007688522 0.030303070321679115 0.068399652838706970 -0.044704828411340714 0.051383774727582932 -0.038561031222343445 -0.116249941289424896 -0.041194174438714981 0.048015382140874863 -0.033071782439947128 -0.015612030401825905 -0.070162676274776459 -0.091922186315059662 0.027321167290210724 -0.114804200828075409 0.031657487154006958 0.069258421659469604 -0.050868574529886246 -0.070581354200839996 -0.030590787529945374
