#Layer 3 Biases:
-0.045464467257261276 -0.057850252836942673 -0.021303633227944374 0.051643110811710358 -0.024342725053429604 -0.082321815192699432 -0.070132635533809662 -0.078096374869346619 0.026037732139229774 -0.078156054019927979 0.087742708623409271 -0.056549496948719025 -0.068631701171398163 -0.068371564149856567 0.060497060418128967 -0.081133581697940826 -0.018835520371794701 -0.065905533730983734 -0.035903196781873703 -0.031483802944421768 -0.047891981899738312 0.018218105658888817 -0.088914692401885986 0.115154482424259186 -0.025627305731177330 -0.023198645561933517 0.062749110162258148 -0.095619961619377136 0.028836492449045181 0.070664390921592712 -0.027297319844365120 -0.077487297356128693 0.057754140347242355 -0.052776228636503220 -0.028295110911130905 -0.038001261651515961 0.038879998028278351 0.091367788612842560 -0.008176371455192566 -0.001025513513013721 -0.017536593601107597 0.044188417494297028 -0.022940870374441147 -0.065627664327621460 -0.016343265771865845 0.009187290444970131 0.022560385987162590 -0.023144895210862160 0.001162827596999705 0.055489864200353622 -0.035381693392992020 -0.085198506712913513 0.038054358214139938 0.026796851307153702 -0.051321201026439667 0.082359060645103455 0.036854855716228485 -0.074085108935832977 -0.027154181152582169 -0.040341287851333618 -0.036024093627929688 -0.008932489901781082 0.089104920625686646 -0.040983907878398895 0.073341451585292816 0.048086166381835938 0.002122658304870129 -0.037035536020994186 0.029422698542475700 0.025395860895514488 0.011176443658769131 -0.005447965115308762 -0.068004615604877472 -0.006184441968798637 0.048466764390468597 -0.033558126538991928 -0.016647512093186378 0.066865816712379456 0.075372196733951569 -0.062150228768587112 0.042560975998640060 0.076921306550502777 -0.070683799684047699 -0.030854117125272751 -0.024985764175653458 0.059538610279560089 -0.004072258248925209 0.052536267787218094 0.070358037948608398 -0.068926416337490082 0.062704414129257202 -0.018406344577670097 -0.062009375542402267 -0.028872903436422348 -0.011215392500162125 -0.081167012453079224 -0.021388988941907883 0.054042484611272812 0.063202120363712311 -0.072254307568073273
