#Layer 2 Biases:
0.044520933181047440 0.072685465216636658 -0.094527460634708405 -0.086603529751300812 0.061200637370347977 0.063666537404060364 0.037457555532455444 0.055576957762241364 -0.105625785887241364 0.011887698434293270 0.072074316442012787 0.032316274940967560 -0.057423487305641174 0.082778841257095337 -0.045235484838485718 -0.144188478589057922 -0.017614059150218964 0.035804558545351028 -0.055437598377466202 -0.106336489319801331 -0.103062890470027924 -0.056119870394468307 -0.013905406929552555 -0.054563727229833603 0.029154591262340546 -0.066773265600204468 0.016338061541318893 0.022722423076629639 0.104111559689044952 0.019985206425189972 0.012650704942643642 -0.101146541535854340 0.114738285541534424 -0.160600602626800537 -0.092541381716728210 -0.051345620304346085 0.053845893591642380 0.037213139235973358 0.029055580496788025 0.036357339471578598 0.049570433795452118 -0.038986980915069580 -0.032733883708715439 0.073266357183456421 -0.046594437211751938 -0.075928062200546265 0.012167583219707012 -0.035349261015653610 0.037184350192546844 0.066249452531337738 -0.031286969780921936 -0.075409390032291412 -0.037806343287229538 -0.015572188422083855 -0.039840959012508392 -0.060164567083120346 0.044325936585664749 -0.070665240287780762 -0.100838147103786469 -0.038722530007362366 -0.091465324163436890 -0.067978233098983765 -0.086801208555698395 0.027100417762994766 -0.072182707488536835 -0.053805984556674957 0.023747360333800316 0.087257787585258484 -0.004106305539608002 0.030648991465568542 -0.043852191418409348 0.069706536829471588 0.095680505037307739 -0.074685037136077881 -0.050898771733045578 0.103127814829349518 0.058059729635715485 -0.053758237510919571 -0.079529032111167908 0.040917094796895981 0.022415084764361382 -0.055778607726097107 0.090322487056255341 -0.019536267966032028 0.035342670977115631 0.010949923656880856 0.082839749753475189 0.049505416303873062 0.083744823932647705 -0.033997397869825363 0.054767169058322906 -0.051563147455453873 -0.037100665271282196 0.050888683646917343 0.061445172876119614 0.109313085675239563 -0.077169694006443024 0.092365451157093048 -0.091647140681743622 0.069122612476348877
