#Layer 0 Weights:
0.132217794656753540 0.106361754238605499 -0.036449339240789413 -0.257261782884597778 -0.286249071359634399 -0.340848833322525024 -0.194942533969879150 0.162997350096702576 -0.094630680978298187 0.131489381194114685 0.096569508314132690 0.132220685482025146 0.135109990835189819 -0.181229308247566223 0.182144582271575928 0.002070009009912610 -0.030423860996961594 0.120131887495517731 0.000661289319396019 -0.324113696813583374 0.040539994835853577 -0.389651954174041748 0.094925418496131897 0.112255021929740906 0.141157433390617371 0.235427409410476685 -0.158944532275199890 -0.082398362457752228 -0.043425917625427246 0.040273699909448624 -0.052291765809059143 -0.326290339231491089 -0.051053497940301895 -0.301604509353637695 -0.051579441875219345 -0.311231493949890137 0.121478386223316193 0.294482290744781494 -0.197196409106254578 0.275174289941787720 -0.110781341791152954 -0.111319094896316528 -0.245223656296730042 0.162014469504356384 -0.195736438035964966 0.220410212874412537 -0.481365710496902466 0.012356633320450783 0.030658079311251640 -0.376609623432159424 0.198370739817619324 -0.249246433377265930 -0.155140161514282227 0.145415201783180237 0.312214523553848267 0.061349522322416306 -0.076591856777667999 0.105158865451812744 0.308117806911468506 0.113409340381622314 -0.019750947132706642 -0.171295836567878723 0.177005469799041748 -0.223567813634872437 -0.335585176944732666 0.219878792762756348 0.010680516250431538 0.035463329404592514 0.335935235023498535 0.189160048961639404 -0.186093956232070923 -0.107963360846042633 -0.109784305095672607 -0.058002158999443054 0.163009017705917358 0.168606340885162354 0.102166935801506042 0.006280991714447737 0.316361159086227417 -0.125408098101615906 0.232747837901115417 0.029990628361701965 0.287271350622177124 0.074183270335197449 0.284562975168228149 0.250326603651046753 -0.113824374973773956 -0.358514577150344849 -0.041472438722848892 -0.237298995256423950 0.426631838083267212 0.302589952945709229 -0.044381976127624512 -0.302682638168334961 0.004225148819386959 -0.155515849590301514 -0.333790540695190430 -0.155548050999641418 0.056505132466554642 0.114917971193790436
-0.194408938288688660 -0.208739235997200012 -0.149875819683074951 0.272601276636123657 0.192045390605926514 -0.020317459478974342 -0.217291533946990967 -0.053964100778102875 -0.024958333000540733 0.320276021957397461 -0.277117788791656494 -0.205010458827018738 0.087749682366847992 0.006012735422700644 -0.264090478420257568 -0.228539302945137024 0.261164158582687378 0.060126841068267822 0.188216403126716614 0.426303297281265259 0.049800459295511246 0.148271441459655762 -0.245885401964187622 0.083472386002540588 -0.228535532951354980 -0.009169659577310085 0.096681676805019379 -0.027970325201749802 -0.085801906883716583 0.177917063236236572 -0.033246073871850967 0.167930230498313904 0.247574418783187866 0.184462994337081909 -0.128918424248695374 0.085355214774608612 -0.127094939351081848 0.256867647171020508 -0.026568809524178505 -0.259873837232589722 -0.193917334079742432 -0.141033127903938293 0.084417901933193207 -0.031528629362583160 0.238279759883880615 -0.280876129865646362 0.121473297476768494 -0.307412624359130859 -0.095205977559089661 0.066671051084995270 -0.276878207921981812 -0.022082459181547165 0.189922809600830078 -0.269323348999023438 -0.343513250350952148 0.108154676854610443 0.232515156269073486 0.025263508781790733 -0.080825321376323700 -0.169808924198150635 0.048875249922275543 0.037671934813261032 0.207473888993263245 -0.404731214046478271 0.375004559755325317 -0.047604553401470184 -0.173844739794731140 0.063452355563640594 -0.260565698146820068 0.000926365784835070 -0.146016955375671387 -0.103450313210487366 -0.084972105920314789 -0.026003999635577202 0.144723221659660339 -0.017769178375601768 -0.140565410256385803 0.102427840232849121 -0.401023656129837036 -0.075104974210262299 0.028148721903562546 0.075166217982769012 -0.153413236141204834 -0.130883708596229553 0.032914411276578903 0.200222581624984741 -0.072177998721599579 0.087087161839008331 0.278189688920974731 0.039285406470298767 -0.267398297786712646 -0.118715271353721619 -0.178369760513305664 0.324330508708953857 -0.135173305869102478 0.374175161123275757 0.175173655152320862 0.180737167596817017 -0.016206920146942139 -0.215575277805328369
