#Layer 8 Weights:
-0.074202045798301697
-0.048434048891067505
-0.061275437474250793
-0.118252366781234741
-0.126782745122909546
-0.048697892576456070
0.030227312818169594
0.185278251767158508
-0.120452821254730225
0.110044904053211212
0.022949453443288803
0.026064682751893997
0.117085099220275879
-0.041333686560392380
0.149343699216842651
-0.063569001853466034
0.017917718738317490
0.053507596254348755
0.134176954627037048
-0.153352364897727966
0.048379700630903244
-0.192278325557708740
0.015612825751304626
0.113178156316280365
0.024185815826058388
0.165898531675338745
-0.052293468266725540
-0.078981153666973114
-0.069680400192737579
0.022142447531223297
0.021105054765939713
-0.297933191061019897
0.025802206248044968
-0.214548572897911072
-0.082721292972564697
-0.203629925847053528
0.074011012911796570
0.216571629047393799
-0.110902279615402222
0.103404507040977478
-0.091722115874290466
-0.054296214133501053
-0.141483947634696960
0.157345056533813477
-0.086685545742511749
0.064359903335571289
-0.132163807749748230
-0.018152430653572083
0.034000173211097717
-0.167100995779037476
0.082172259688377380
-0.242440015077590942
-0.056521330028772354
0.163034886121749878
0.127661764621734619
0.029781891033053398
0.071761533617973328
0.050390832126140594
0.172037020325660706
0.077955499291419983
-0.021972473710775375
-0.167086318135261536
-0.034469082951545715
-0.198874935507774353
-0.218949273228645325
0.187834993004798889
-0.153039172291755676
0.095631487667560577
0.104744002223014832
0.207811683416366577
-0.189084693789482117
-0.055101905018091202
-0.070347368717193604
-0.117326118052005768
0.107295148074626923
-0.078486248850822449
0.086365960538387299
0.045475978404283524
0.259535580873489380
-0.141181483864784241
0.140885591506958008
0.066956549882888794
0.133734822273254395
-0.023383513092994690
0.160515010356903076
0.230424910783767700
-0.109375037252902985
-0.197057157754898071
0.004759910516440868
-0.206804126501083374
0.189514160156250000
0.188400372862815857
-0.025715779513120651
-0.127291083335876465
-0.102217659354209900
-0.100232981145381927
-0.079043842852115631
-0.132470682263374329
0.031886313110589981
0.031094796955585480
