#Layer 1 Weights:
0.487760603427886963 -0.346302926540374756 1.555526256561279297 0.502915263175964355 0.384142458438873291 0.496516764163970947 2.127640247344970703 -0.219124495983123779 0.403756767511367798 -0.385038733482360840 0.939430117607116699 0.539166331291198730 -0.351722151041030884 2.552349090576171875 -0.366122722625732422 0.448083549737930298 -0.166459426283836365 -0.405074685811996460 -0.594201624393463135 0.240056335926055908
-5.218133926391601562 -3.982044219970703125 0.582521975040435791 -0.451049983501434326 -0.795484304428100586 -0.546922922134399414 1.295158863067626953 0.213182508945465088 -1.206370949745178223 1.990255594253540039 0.031510367989540100 0.179186761379241943 0.932826399803161621 12.821372985839843750 5.177347183227539062 -0.893202722072601318 0.104202762246131897 2.360200166702270508 -1.357801556587219238 -0.865933597087860107
-2.020685911178588867 -0.905464529991149902 -0.343407928943634033 -0.153506383299827576 -0.955444574356079102 -0.544804453849792480 -0.507293879985809326 0.426156729459762573 -0.958687424659729004 1.180224776268005371 -0.562631130218505859 -0.975920379161834717 0.746452093124389648 7.134094238281250000 0.043743744492530823 0.879199326038360596 1.239918231964111328 0.021936051547527313 0.018662361428141594 -1.078354835510253906
0.011735643260180950 -0.457848638296127319 -0.427414745092391968 -0.690704703330993652 -0.628598213195800781 0.093521595001220703 -0.371722161769866943 -0.479325443506240845 -0.006267630495131016 0.204823359847068787 -0.519863247871398926 -0.196945801377296448 -0.744800865650177002 -0.488553553819656372 -0.502726197242736816 1.105127334594726562 -0.282376796007156372 -0.655037999153137207 0.199341639876365662 -0.382764905691146851
-2.769840002059936523 1.088524818420410156 -0.551268100738525391 -0.444619715213775635 -0.110371291637420654 0.056574262678623199 -1.185486197471618652 -0.933259487152099609 -0.344983786344528198 -0.189670771360397339 -0.334804296493530273 -0.025161502882838249 -0.823803305625915527 -2.374884605407714844 -0.916128516197204590 -0.331140726804733276 -0.511152267456054688 -1.274532198905944824 1.900797963142395020 -0.233658164739608765
-0.209372058510780334 -0.610967040061950684 -0.726849973201751709 -0.195883780717849731 -0.123382978141307831 0.100190266966819763 0.031212834641337395 -0.430798411369323730 -0.237279683351516724 0.034975782036781311 -0.091623336076736450 -0.116719536483287811 -0.333710372447967529 -0.474218577146530151 -0.837602674961090088 0.461656063795089722 -0.143754526972770691 -0.449163734912872314 -0.024271311238408089 0.412628471851348877
-6.585023880004882812 -3.468844413757324219 10.045848846435546875 3.139817237854003906 -0.059447191655635834 -0.091567076742649078 4.260534286499023438 0.214242100715637207 -1.072491407394409180 2.024009704589843750 -3.456280469894409180 -1.456005692481994629 4.730199813842773438 14.571935653686523438 3.324440479278564453 3.605531215667724609 -0.541653156280517578 4.020530700683593750 1.311205506324768066 -0.954375445842742920
-6.707035541534423828 -0.586088061332702637 0.503838181495666504 -0.209727302193641663 -0.267421513795852661 -0.812897264957427979 0.647554516792297363 -0.968784391880035400 -1.375392913818359375 0.429410129785537720 -0.969865143299102783 -0.848411142826080322 0.465462297201156616 1.691788077354431152 1.030095815658569336 -1.166709303855895996 -3.275815486907958984 0.492864549160003662 1.396500825881958008 -1.469752669334411621
-0.906090021133422852 -0.820853292942047119 -0.970212161540985107 -0.535532355308532715 -0.135313212871551514 -0.727605402469635010 -0.185741156339645386 0.512418568134307861 -1.324301004409790039 0.949486076831817627 -2.023620843887329102 -1.528840422630310059 0.449278682470321655 -1.832955718040466309 0.128193378448486328 -0.137254133820533752 1.641239523887634277 0.493036240339279175 0.218968167901039124 -1.380124449729919434
-0.483338505029678345 -0.365904510021209717 -0.373340934514999390 -0.861529648303985596 -0.704386115074157715 0.324623167514801025 0.708707749843597412 -0.478532552719116211 0.284916698932647705 -0.335971295833587646 0.699422240257263184 0.961021363735198975 -0.195886790752410889 9.479029655456542969 -0.523519158363342285 0.279267817735671997 -0.460020065307617188 -0.439803212881088257 -0.564912140369415283 -0.468293309211730957
-7.447361469268798828 -3.525544166564941406 15.104515075683593750 6.141716957092285156 0.174687787890434265 -0.154810994863510132 2.494892597198486328 0.413064152002334595 -2.101561307907104492 1.258026003837585449 -4.546003341674804688 -2.400434494018554688 3.771139621734619141 15.669307708740234375 0.972197413444519043 7.575867652893066406 0.783922135829925537 1.608173847198486328 -1.361354470252990723 -0.235947072505950928
-2.719678878784179688 -1.172945141792297363 -0.728278100490570068 -0.860563039779663086 -0.369282901287078857 -0.480912178754806519 -0.085438661277294159 0.218466624617576599 -0.596737504005432129 0.486548185348510742 -0.785735309123992920 -0.517755746841430664 0.015044096857309341 1.338923573493957520 -0.605115652084350586 -0.330487281084060669 0.051934421062469482 -0.171656236052513123 0.052520688623189926 -0.338850736618041992
-1.521929621696472168 -1.220338582992553711 0.789579927921295166 -0.981366038322448730 -0.586954414844512939 -0.302959263324737549 0.768327295780181885 -0.239250004291534424 0.373128294944763184 -0.180584192276000977 0.679747998714447021 0.590334951877593994 0.453098356723785400 12.036122322082519531 3.509619235992431641 0.039822481572628021 -0.697797417640686035 -0.347713917493820190 -0.248343378305435181 -1.109787702560424805
-6.691589355468750000 -3.145906448364257812 9.060005187988281250 2.374780893325805664 -0.778282046318054199 -0.551884710788726807 2.532460927963256836 0.640390694141387939 -0.541281163692474365 0.781632542610168457 -2.407193183898925781 -1.339230179786682129 0.896022975444793701 14.223621368408203125 0.958427906036376953 4.975817203521728516 0.233373790979385376 1.115436315536499023 0.104670770466327667 -0.761687159538269043
-0.086084254086017609 -1.808916211128234863 -0.200608029961585999 -0.502723574638366699 -0.643324196338653564 -0.449421077966690063 0.726121902465820312 0.559386372566223145 -0.627566516399383545 1.395049452781677246 0.804904341697692871 0.394242942333221436 0.803555190563201904 8.819858551025390625 2.845730304718017578 -0.454388558864593506 0.411694526672363281 0.767276942729949951 0.305318593978881836 -0.833710193634033203
-5.078244686126708984 -2.850380182266235352 7.482220649719238281 1.261108994483947754 -0.541807770729064941 -0.322667360305786133 3.065018892288208008 0.724092006683349609 -0.605068325996398926 0.474131882190704346 -1.841033935546875000 -1.639266133308410645 0.889497697353363037 13.216271400451660156 0.682835638523101807 3.538666725158691406 0.651536166667938232 1.042324662208557129 0.220637738704681396 -0.703504264354705811
-1.173490524291992188 -0.780828595161437988 6.227425575256347656 1.164538145065307617 1.080724000930786133 0.514942348003387451 3.569355010986328125 -0.335009634494781494 0.406859934329986572 -0.408224582672119141 -0.005573219154030085 0.669214129447937012 -0.772413492202758789 12.252175331115722656 -0.301290035247802734 1.153188943862915039 -0.514729022979736328 -0.623098611831665039 -0.748058140277862549 0.561044394969940186
0.687286913394927979 1.115302920341491699 -0.787331461906433105 -0.556082665920257568 -0.702957808971405029 0.061291359364986420 -0.699185132980346680 -0.698765993118286133 0.228964790701866150 -0.585383474826812744 0.205590814352035522 -0.064067736268043518 -1.274091243743896484 -0.816142022609710693 -0.970425486564636230 -0.291434884071350098 -0.857132494449615479 -0.907430946826934814 -0.044005177915096283 0.178589001297950745
-3.688632726669311523 -3.394251346588134766 10.625736236572265625 0.074446588754653931 -0.686195194721221924 -1.181852936744689941 1.719516515731811523 -0.175363257527351379 -0.818646013736724854 1.566828727722167969 -1.164496541023254395 -0.281868398189544678 1.075166702270507812 13.667970657348632812 6.394886970520019531 -0.656396627426147461 0.573704242706298828 1.385189890861511230 0.012131232768297195 -0.271412968635559082
-0.372598737478256226 -0.565185546875000000 -0.597606480121612549 -0.560684800148010254 -0.370233386754989624 0.092054359614849091 0.061507832258939743 -0.481766194105148315 -0.312268108129501343 0.320682406425476074 -0.203107565641403198 0.149554312229156494 -0.353912413120269775 -0.360912203788757324 -0.381356894969940186 0.715982139110565186 -0.190295085310935974 -0.686063170433044434 -0.025191560387611389 0.195989757776260376
