#Layer 6 Biases:
0.063934326171875000 -0.014488882385194302 -0.019820755347609520 -0.038966383785009384 0.050693836063146591 -0.048651210963726044 0.012354039587080479 0.017431525513529778 -0.045760627835988998 0.045231051743030548 0.016171503812074661 -0.031021038070321083 0.061417385935783386 -0.030221121385693550 -0.001011764397844672 0.017978558316826820 -0.077039271593093872 -0.055462833493947983 0.020237911492586136 -0.001831607660278678 -0.031186822801828384 0.014535976573824883 -0.008406426757574081 -0.046412751078605652 -0.006437629461288452 -0.017452953383326530 0.021743118762969971 0.030321529135107994 0.002271524164825678 0.000960575125645846 -0.017666112631559372 -0.047680024057626724 0.010908699594438076 -0.034772392362356186 -0.019611777737736702 -0.076706185936927795 0.032180003821849823 -0.042668983340263367 -0.021415201947093010 0.007465950679033995 0.014535952359437943 0.061811383813619614 0.057187642902135849 -0.067402355372905731 0.025784309953451157 0.038982685655355453 -0.001502749393694103 -0.022838585078716278 0.012858204543590546 -0.010137206874787807 0.010566310025751591 -0.059877086430788040 0.002183066681027412 0.039070498198270798 -0.027504820376634598 0.010326324962079525 0.052720610052347183 -0.030245689675211906 -0.010504599660634995 0.024544075131416321 -0.013698694296181202 -0.050206068903207779 0.006888856645673513 0.009386035613715649 0.059432316571474075 0.025997459888458252 -0.031242923811078072 -0.029414378106594086 0.006002093665301800 -0.039191119372844696 -0.071601517498493195 -0.005777248647063971 0.027386724948883057 0.041694734245538712 0.034383121877908707 0.007288171909749508 0.013740600086748600 -0.001963067799806595 0.000293609075015411 0.012382178567349911 0.005382296163588762 0.025923712179064751 0.028369326144456863 0.032105002552270889 0.049958351999521255 -0.052356880158185959 0.012132350355386734 0.004084620159119368 -0.004201503004878759 -0.046575464308261871 -0.023581376299262047 -0.002475271234288812 0.008327835239470005 0.004767482634633780 -0.015556786209344864 0.037852209061384201 -0.004397190175950527 -0.014860551804304123 -0.037241470068693161 0.087972871959209442
