#Layer 7 Biases:
0.031176961958408356 0.026324948295950890 -0.017666909843683243 0.011303151026368141 0.018252262845635414 -0.008922073058784008 0.041762288659811020 -0.031401466578245163 -0.012654178775846958 0.025388399139046669 0.030354248359799385 -0.026699693873524666 0.006421879865229130 -0.060408454388380051 0.015334999188780785 -0.012007024139165878 -0.032154954969882965 0.026636822149157524 -0.002893283264711499 0.024785339832305908 -0.018514638766646385 -0.053472697734832764 -0.028044782578945160 0.044120237231254578 0.001600814517587423 0.021399242803454399 -0.026962371543049812 -0.038997899740934372 -0.034415282309055328 -0.048865873366594315 -0.045611064881086349 0.032014116644859314 0.016551099717617035 0.000605255889240652 0.007517611142247915 -0.031672041863203049 -0.037179518491029739 0.043294861912727356 0.051370613276958466 -0.000299544248264283 0.043408527970314026 -0.025281831622123718 -0.026110328733921051 -0.031129743903875351 0.007807089015841484 -0.025366717949509621 0.005857065785676241 0.009893348440527916 -0.000735525100026280 0.050277385860681534 -0.017776073887944221 0.012622123584151268 0.000913080002646893 0.000107756495708600 -0.035114746540784836 0.044181339442729950 0.048279065638780594 0.025335079059004784 -0.018910434097051620 -0.008555566892027855 0.045194558799266815 -0.037870448082685471 0.007645650301128626 0.025734832510352135 0.048008166253566742 -0.059966597706079483 -0.032972212880849838 -0.039230752736330032 0.022209875285625458 0.036551177501678467 0.031182214617729187 0.009850627742707729 0.014750198461115360 -0.016788026317954063 -0.028944373130798340 0.036561105400323868 0.037931464612483978 -0.005543403327465057 0.016992704942822456 0.011872512288391590 -0.040863633155822754 0.019021715968847275 0.027012992650270462 0.011751418001949787 -0.021560315042734146 -0.031570497900247574 0.001085796626284719 -0.025080397725105286 0.018082901835441589 -0.056354116648435593 -0.065227657556533813 -0.016849912703037262 -0.052790053188800812 -0.003267702180892229 0.014063048176467419 -0.003076748456805944 0.046204663813114166 -0.005249612964689732 0.020525807514786720 0.012325434014201164
