#Layer 5 Biases:
-0.024387659505009651 0.045328442007303238 -0.054539784789085388 -0.089594766497612000 -0.013446084223687649 0.089100532233715057 0.077409878373146057 0.034079823642969131 0.036524958908557892 -0.093891613185405731 -0.028364574536681175 -0.066873125731945038 -0.012753254733979702 -0.098269231617450714 -0.042203161865472794 0.016311330720782280 -0.021476276218891144 0.003581529483199120 -0.059250175952911377 -0.028399797156453133 0.010270211845636368 -0.086611568927764893 -0.051946002990007401 -0.057031527161598206 0.072723411023616791 0.084591560065746307 0.103746347129344940 0.000236686901189387 0.089353136718273163 0.110951207578182220 0.036816287785768509 -0.011457412503659725 -0.077872656285762787 -0.031744569540023804 -0.030902249738574028 0.048657905310392380 0.059073727577924728 0.077084735035896301 0.041249226778745651 -0.018049381673336029 0.032447475939989090 0.018066586926579475 -0.040805317461490631 0.121318519115447998 -0.011966339312493801 -0.027155619114637375 -0.057621501386165619 0.024598348885774612 0.028951933607459068 -0.023406239226460457 0.020961666479706764 -0.021436860784888268 0.010865932330489159 0.015647731721401215 0.002756478264927864 -0.053111508488655090 0.005039959680289030 0.051564577966928482 -0.022293429821729660 0.015425324440002441 0.023104457184672356 -0.018590807914733887 -0.083879537880420685 -0.076400876045227051 -0.040469728410243988 -0.002952752867713571 -0.004943621810525656 0.016914609819650650 -0.052996993064880371 0.066836282610893250 -0.043703179806470871 -0.019686132669448853 0.016526240855455399 0.041311699897050858 -0.047631889581680298 0.075598023831844330 -0.056103866547346115 -0.104225255548954010 0.023979458957910538 0.005914578214287758 0.055678959935903549 0.009785488247871399 -0.022884463891386986 0.020803090184926987 0.033613629639148712 -0.074458003044128418 -0.042043119668960571 -0.027449585497379303 0.029937066137790680 0.022142579779028893 -0.036531869322061539 -0.096913218498229980 -0.080071538686752319 -0.033728946000337601 -0.016494017094373703 -0.001435906277038157 -0.016053147614002228 -0.078464411199092865 0.045179363340139389 0.004156490787863731
