#Layer 3 Biases:
0.047229547053575516 0.038909673690795898 0.032100535929203033 -0.058591339737176895 -0.042434550821781158 0.042019866406917572 -0.011677893809974194 -0.025360796600580215 0.008598377928137779 0.074496507644653320 0.062198616564273834 -0.049567721784114838 -0.004726116545498371 0.032254200428724289 -0.001203264226205647 -0.034524351358413696 -0.006148095242679119 -0.018351791426539421 -0.025364378467202187 -0.056888844817876816 -0.068800956010818481 0.037899076938629150 0.050875056535005569 0.034958701580762863 0.049956440925598145 -0.117095947265625000 0.020113153383135796 0.022607240825891495 0.036555130034685135 -0.015740556642413139 0.033735461533069611 -0.077008768916130066 0.024748846888542175 -0.023622488602995872 -0.047949913889169693 0.046785708516836166 0.047478444874286652 -0.037130467593669891 -0.044198043644428253 -0.115943357348442078 0.098814211785793304 0.030036699026823044 0.042108323425054550 0.033220246434211731 -0.050337452441453934 -0.039715562015771866 0.037324018776416779 0.009950312785804272 -0.028286390006542206 0.064261257648468018 0.000878452905453742 -0.058664940297603607 -0.015184251591563225 0.000920690363273025 -0.039435315877199173 -0.019306108355522156 0.043924443423748016 -0.103218898177146912 -0.025124520063400269 -0.114295184612274170 0.035712808370590210 -0.036037962883710861 0.001439943560399115 0.028485516086220741 0.020866617560386658 -0.010129948146641254 -0.025458812713623047 0.033503267914056778 0.043374978005886078 0.000962702266406268 -0.004089167807251215 0.020670047029852867 -0.003308230079710484 0.017178418114781380 -0.075595065951347351 -0.031239828094840050 -0.073123417794704437 -0.043202247470617294 -0.031785145401954651 0.024412993341684341 0.101619318127632141 0.057566285133361816 -0.004211939871311188 0.067536219954490662 -0.061973612755537033 -0.041873905807733536 0.024578381329774857 0.043289970606565475 0.022300399839878082 0.027333954349160194 0.046780284494161606 0.047159541398286819 0.043218053877353668 -0.047440629452466965 0.043565347790718079 0.038765665143728256 -0.000466369965579361 -0.061373505741357803 0.048669431358575821 -0.022071840241551399
