#Layer 8 Weights:
0.035047799348831177
0.174778223037719727
-0.098232738673686981
0.117318235337734222
0.050431139767169952
-0.010144903324544430
0.133356377482414246
-0.113052628934383392
-0.034229312092065811
0.061530597507953644
0.202112689614295959
0.010029462166130543
-0.208006337285041809
-0.041419938206672668
0.034566313028335571
-0.052476719021797180
-0.020339505746960640
0.136569559574127197
0.127962633967399597
0.028077892959117889
-0.051503520458936691
-0.190807476639747620
-0.008325962349772453
0.065736137330532074
0.143648386001586914
0.082696765661239624
-0.023423094302415848
-0.241979926824569702
-0.043780986219644547
-0.126111790537834167
-0.111769072711467743
0.091866545379161835
0.187839254736900330
-0.046592053025960922
-0.024008326232433319
-0.207126855850219727
-0.135456427931785583
0.243100941181182861
0.180852174758911133
0.194485694169998169
0.141647055745124817
-0.078706346452236176
-0.001623182557523251
0.091373205184936523
0.190505027770996094
-0.015277779661118984
-0.047100648283958435
0.081737138330936432
-0.061732869595289230
0.054658956825733185
-0.104421153664588928
0.114150784909725189
-0.112534165382385254
0.204506263136863708
-0.012706565670669079
-0.048364389687776566
0.157147735357284546
0.022071314975619316
-0.160320669412612915
-0.089039944112300873
0.218909859657287598
-0.020184274762868881
0.081690616905689240
0.249429568648338318
0.113886773586273193
-0.150575786828994751
0.042610209435224533
-0.113288566470146179
0.117180831730365753
0.171880617737770081
0.166486620903015137
0.206273421645164490
0.095372594892978668
0.009416565299034119
-0.095155350863933563
0.212061405181884766
0.179000005125999451
-0.155140981078147888
0.165878355503082275
-0.037800341844558716
-0.203666612505912781
0.089248143136501312
-0.044187858700752258
0.070016965270042419
-0.116849645972251892
-0.205642417073249817
-0.243849843740463257
-0.168333157896995544
0.170697316527366638
-0.048488251864910126
-0.078958377242088318
-0.069436728954315186
-0.101458430290222168
-0.236382022500038147
0.136194914579391479
-0.181265801191329956
0.162979692220687866
-0.238419368863105774
0.031485289335250854
0.115726403892040253
