#Layer 6 Weights:
0.040393419563770294 0.144214570522308350 -0.048667293041944504 0.100410893559455872 0.023857001215219498 0.003326534293591976 0.250233620405197144 -0.057825226336717606 -0.024273617193102837 0.074914149940013885 0.123519755899906158 -0.050004381686449051 -0.144306451082229614 -0.085147000849246979 -0.004521395079791546 -0.064446121454238892 -0.039891351014375687 0.013892049901187420 0.109833955764770508 0.047235433012247086 0.033300906419754028 -0.064602956175804138 -0.026291085407137871 0.128129318356513977 0.080595888197422028 0.217937186360359192 -0.082478463649749756 -0.159711405634880066 -0.046210236847400665 -0.068296790122985840 -0.072974696755409241 0.018843544647097588 0.169484823942184448 -0.014117190614342690 -0.045157790184020996 -0.152925133705139160 -0.174087360501289368 0.206152394413948059 0.161856546998023987 0.131552726030349731 0.076674945652484894 -0.063478976488113403 -0.078759223222732544 -0.024518027901649475 0.121422857046127319 -0.028503751382231712 -0.097387738525867462 0.141885280609130859 0.049590412527322769 0.090601161122322083 -0.114473998546600342 0.056166756898164749 -0.116256512701511383 0.070699095726013184 -0.039487071335315704 0.039859350770711899 0.091111168265342712 0.017348216846585274 -0.134500324726104736 -0.070719957351684570 0.162996962666511536 0.041300814598798752 0.139857262372970581 0.146101266145706177 0.062106445431709290 -0.189230188727378845 -0.029115019366145134 -0.078865461051464081 0.115945309400558472 0.142030864953994751 0.089841634035110474 0.185651734471321106 0.182071238756179810 -0.100618928670883179 -0.055703524500131607 0.114368461072444916 0.120793342590332031 -0.074219472706317902 0.137161418795585632 0.003326293313875794 -0.308626919984817505 0.083475410938262939 -0.050068795680999756 0.039769440889358521 -0.181878760457038879 -0.140401378273963928 -0.153987795114517212 -0.118813149631023407 0.141646534204483032 -0.045836124569177628 -0.070017114281654358 -0.069326430559158325 -0.131442517042160034 -0.227310359477996826 0.050418175756931305 -0.098567590117454529 0.185011342167854309 -0.141373842954635620 0.112010553479194641 0.041804049164056778
0.065548419952392578 -0.204432293772697449 0.025557825341820717 -0.187719538807868958 0.115645781159400940 -0.132986381649971008 0.009377387352287769 0.094634599983692169 0.112153135240077972 -0.019882025197148323 -0.141877189278602600 0.073033846914768219 0.134073227643966675 0.197025507688522339 0.215467542409896851 -0.079036980867385864 0.037583224475383759 0.135282918810844421 0.032585859298706055 0.023491971194744110 -0.181324854493141174 -0.059319458901882172 0.079468920826911926 0.044062104076147079 0.082116842269897461 -0.091175511479377747 -0.100888639688491821 -0.075869627296924591 -0.020852142944931984 0.052921842783689499 0.134060263633728027 0.086141645908355713 0.026661237701773643 -0.115796715021133423 -0.113001815974712372 -0.136351451277732849 0.127037674188613892 0.000334153010044247 -0.046609591692686081 0.037965741008520126 0.090262420475482941 -0.024322684854269028 0.010087531991302967 0.048918742686510086 -0.050354234874248505 0.190969944000244141 -0.160132586956024170 0.083682581782341003 0.095467008650302887 -0.205179452896118164 0.177325516939163208 -0.155419766902923584 -0.001948387129232287 -0.101869098842144012 0.062474824488162994 0.089886993169784546 0.027338823303580284 0.012842647731304169 0.107040174305438995 -0.074745871126651764 -0.052247840911149979 0.173311725258827209 -0.147643059492111206 -0.147534862160682678 -0.326311200857162476 -0.004421403631567955 -0.062214594334363937 -0.125598862767219543 -0.022244084626436234 -0.047375775873661041 0.104539819061756134 -0.153316468000411987 -0.048869386315345764 0.215211838483810425 0.094171561300754547 0.153186321258544922 -0.026569979265332222 0.161152660846710205 -0.002594223245978355 -0.113393560051918030 0.209153056144714355 -0.060581814497709274 0.015171853825449944 -0.135753378272056580 0.097791120409965515 -0.001359426649287343 0.049344081431627274 -0.122878305613994598 -0.127789303660392761 -0.136363849043846130 -0.138225942850112915 0.142435744404792786 -0.081738896667957306 -0.069184079766273499 -0.134305506944656372 -0.012443357147276402 -0.102696374058723450 0.079397790133953094 0.052112609148025513 0.095986470580101013
-0.074969671666622162 0.020289599895477295 0.056818641722202301 0.075533427298069000 -0.000215658772503957 -0.145218506455421448 -0.095470525324344635 0.104595892131328583 0.326553344726562500 0.134192839264869690 0.180801138281822205 -0.076473712921142578 0.130655318498611450 0.108736641705036163 0.019334038719534874 0.161460191011428833 0.568726539611816406 0.106571659445762634 0.124712482094764709 -0.015935478731989861 0.057882513850927353 0.107468441128730774 0.209676146507263184 -0.153298914432525635 0.057308290153741837 -0.052798852324485779 0.120400100946426392 0.018345840275287628 -0.135649397969245911 0.070219077169895172 -0.081828042864799500 0.133279591798782349 -0.087634839117527008 0.046672321856021881 0.067318774759769440 0.181024312973022461 -0.165000781416893005 0.144102811813354492 -0.146682724356651306 -0.142732366919517517 -0.044822011142969131 0.074511490762233734 0.069158896803855896 0.161629378795623779 0.248491525650024414 0.062466077506542206 0.210518121719360352 -0.066800072789192200 0.068498969078063965 -0.136595651507377625 0.070523321628570557 -0.168125629425048828 -0.365644186735153198 0.031591076403856277 0.146685451269149780 -0.055161077529191971 -0.058660537004470825 0.054095435887575150 0.047839295119047165 -0.092082023620605469 0.075097329914569855 -0.162105172872543335 -0.082286655902862549 -0.048714399337768555 0.089691452682018280 -0.154497042298316956 0.105971127748489380 -0.157521650195121765 -0.135339543223381042 0.090509630739688873 -0.023368468508124352 -0.045864280313253403 -0.139401987195014954 -0.094892658293247223 -0.026775062084197998 -0.053478218615055084 0.117704555392265320 0.150954082608222961 -0.189232319593429565 -0.186607614159584045 0.075051583349704742 0.074476987123489380 -0.219110503792762756 0.025263296440243721 0.138727471232414246 -0.070878423750400543 -0.031723167747259140 -0.041795484721660614 0.245814040303230286 0.024602621793746948 0.115074783563613892 -0.425687253475189209 0.126209318637847900 0.101057566702365875 -0.140200167894363403 -0.103613607585430145 -0.098142363131046295 -0.018447225913405418 0.149419873952865601 -0.097836114466190338
-0.158822149038314819 0.144658774137496948 -0.061957564204931259 0.021190712228417397 0.022724697366356850 0.133560523390769958 0.110244795680046082 0.150639593601226807 0.458319932222366333 -0.109508104622364044 0.001585251884534955 0.154026985168457031 0.070845417678356171 0.084785796701908112 0.036148615181446075 -0.036912083625793457 -0.147540315985679626 -0.008562920615077019 0.095286920666694641 0.157052725553512573 0.163215026259422302 -0.016381500288844109 -0.038860574364662170 -0.078549891710281372 0.172891736030578613 -0.008670521900057793 0.077125690877437592 -0.085389770567417145 0.034412417560815811 0.008676608093082905 -0.070620164275169373 0.112593188881874084 0.127885088324546814 -0.085980519652366638 -0.137700289487838745 0.055213782936334610 0.102909959852695465 0.076992429792881012 0.050971582531929016 0.082244180142879486 -0.023688886314630508 -0.152426645159721375 -0.182805418968200684 -0.048928309231996536 -0.087647847831249237 -0.094285011291503906 -0.077047996222972870 0.040649361908435822 -0.010218655690550804 -0.128070220351219177 0.141781032085418701 -0.115824759006500244 0.089092150330543518 0.198543503880500793 -0.096242263913154602 0.042582251131534576 -0.009139514528214931 -0.020666904747486115 0.128559410572052002 0.075160287320613861 0.180635169148445129 -0.084179826080799103 -0.147083461284637451 -0.059576641768217087 -0.125209569931030273 -0.219945058226585388 0.029062703251838684 0.159250333905220032 -0.119355425238609314 0.011323629878461361 -0.081915736198425293 -0.163723170757293701 -0.180210128426551819 -0.067718982696533203 0.135149940848350525 -0.119211226701736450 -0.075805343687534332 -0.179530188441276550 0.030115853995084763 -0.151014134287834167 0.082598350942134857 0.042917385697364807 -0.164728417992591858 0.117178194224834442 0.132253661751747131 -0.013091058470308781 0.057601794600486755 0.028450597077608109 0.022897699847817421 -0.152000367641448975 0.052231371402740479 0.043944615870714188 -0.087187036871910095 0.131645187735557556 0.078725874423980713 -0.092221453785896301 0.096874773502349854 -0.044091776013374329 -0.033648859709501266 -0.047343015670776367
-0.124527975916862488 -0.103295043110847473 -0.176049813628196716 -0.182548701763153076 -0.140043750405311584 -0.023921156302094460 -0.046488236635923386 -0.057390607893466949 -0.244453355669975281 0.052248157560825348 -0.023671422153711319 0.111520983278751373 0.149098679423332214 0.140137135982513428 -0.110732048749923706 0.101191826164722443 -0.073521748185157776 -0.064892768859863281 -0.092983469367027283 -0.055994529277086258 -0.018069539219141006 -0.054005101323127747 -0.058101113885641098 0.054422516375780106 0.089119389653205872 0.041756018996238708 0.085623867809772491 -0.078207753598690033 0.103814668953418732 -0.071671359241008759 -0.143561929464340210 -0.081162072718143463 0.130159988999366760 -0.097253859043121338 0.071584977209568024 -0.050013430416584015 -0.189060270786285400 -0.037283714860677719 0.106523327529430389 0.043228976428508759 -0.054144486784934998 -0.105469867587089539 0.190219253301620483 -0.094567395746707916 0.089529953896999359 -0.062395460903644562 0.010676126927137375 0.056054163724184036 -0.142572075128555298 -0.118427060544490814 0.158582985401153564 -0.145256891846656799 0.087908424437046051 -0.159565836191177368 -0.029765456914901733 0.068431645631790161 0.024037042632699013 0.071241669356822968 -0.143639639019966125 -0.186084419488906860 0.004969839006662369 -0.119661867618560791 -0.009166963398456573 -0.159491106867790222 0.008431528694927692 -0.031843185424804688 0.161615774035453796 0.138987660408020020 0.118743762373924255 0.088673487305641174 -0.083195216953754425 0.139661654829978943 0.270933359861373901 0.090881757438182831 -0.080425135791301727 0.123918324708938599 0.147433057427406311 -0.002283391775563359 -0.111051023006439209 0.188712224364280701 0.081140875816345215 0.104928702116012573 0.066416300833225250 -0.001411548932082951 0.093639262020587921 -0.132021516561508179 -0.022999558597803116 -0.195942848920822144 -0.032037381082773209 -0.186539381742477417 0.058709099888801575 -0.110590584576129913 -0.124506846070289612 -0.061247140169143677 0.057691831141710281 0.034883916378021240 0.044971641153097153 0.024502350017428398 -0.292675048112869263 0.125464469194412231
0.136403724551200867 0.115769475698471069 0.013061995618045330 0.125176012516021729 0.082706481218338013 0.011499162763357162 0.047514747828245163 -0.088077366352081299 -0.156449690461158752 0.071459420025348663 0.179700747132301331 -0.020275294780731201 -0.147351801395416260 0.187728971242904663 0.106040559709072113 0.180021658539772034 0.103150293231010437 0.094711184501647949 0.166697621345520020 0.210540741682052612 0.013792245648801327 -0.178626775741577148 0.077624179422855377 -0.200063809752464294 -0.089556969702243805 -0.229860454797744751 -0.127089738845825195 -0.126516357064247131 -0.171789079904556274 0.071217320859432220 -0.085975877940654755 -0.073294617235660553 -0.174536794424057007 -0.163710966706275940 0.122084267437458038 0.007372398860752583 0.187746524810791016 -0.191682413220405579 -0.135126441717147827 0.047841291874647141 0.150649175047874451 0.177423819899559021 0.110449671745300293 -0.010075232945382595 0.046577777713537216 -0.064970187842845917 -0.146459251642227173 -0.129847392439842224 -0.092650346457958221 -0.099909760057926178 -0.126958772540092468 0.032766595482826233 0.045212946832180023 0.132115930318832397 -0.145898774266242981 0.046100344508886337 0.193719640374183655 0.123619079589843750 -0.106868177652359009 -0.021936450153589249 -0.017088200896978378 0.008216309361159801 0.029575530439615250 0.115189656615257263 -0.109704621136188507 0.282881468534469604 0.138342410326004028 -0.064619868993759155 -0.012067141942679882 -0.199837774038314819 -0.080827124416828156 -0.104502484202384949 0.155601277947425842 -0.019038645550608635 -0.116626858711242676 -0.144849732518196106 -0.151033133268356323 0.030880935490131378 0.143991783261299133 -0.079734839498996735 0.119332410395145416 -0.004501292482018471 -0.053752034902572632 0.106220223009586334 0.124360688030719757 -0.181099921464920044 0.032002925872802734 0.056276597082614899 0.127092450857162476 -0.044679049402475357 0.137295097112655640 -0.075151942670345306 0.020183639600872993 -0.007928586564958096 0.049961324781179428 -0.090878836810588837 -0.163518443703651428 -0.171865746378898621 -0.022854799404740334 0.033565126359462738
0.158709332346916199 0.164122998714447021 -0.119219549000263214 0.111498534679412842 0.057094484567642212 -0.061793342232704163 -0.004952050279825926 -0.014264210127294064 -0.019230823963880539 0.103071495890617371 0.048459772020578384 0.117314100265502930 0.082579448819160461 0.037696801126003265 -0.041918411850929260 0.134460791945457458 -0.203247934579849243 -0.055285684764385223 -0.116484791040420532 -0.004048586357384920 -0.057004503905773163 -0.064986944198608398 0.074818022549152374 -0.167808070778846741 0.041060406714677811 0.095416381955146790 -0.001696123392321169 -0.046697057783603668 0.083192624151706696 0.121751889586448669 -0.202682837843894958 -0.220499739050865173 -0.053876828402280807 0.134454548358917236 -0.001307367347180843 0.062728025019168854 -0.099161557853221893 -0.160623833537101746 -0.125931978225708008 -0.079496107995510101 -0.032074946910142899 0.001848034444265068 0.059754393994808197 0.059921950101852417 -0.043007403612136841 0.167229145765304565 -0.085784085094928741 0.148338377475738525 -0.128432050347328186 0.064220055937767029 0.088906325399875641 -0.083193264901638031 0.054794739931821823 0.140318676829338074 0.154606595635414124 0.013938929885625839 0.099265612661838531 0.026440888643264771 0.157088443636894226 0.145866006612777710 -0.141894921660423279 -0.164001509547233582 0.054261978715658188 0.146501198410987854 0.007587525062263012 -0.067475229501724243 0.074258379638195038 0.092283360660076141 -0.161290407180786133 0.121235370635986328 -0.137688294053077698 -0.185306534171104431 -0.073569484055042267 0.043854512274265289 -0.013840665109455585 -0.018594421446323395 0.006375473923981190 0.051308996975421906 -0.007182035129517317 0.130993187427520752 -0.091883465647697449 -0.042976859956979752 0.094983674585819244 0.145418658852577209 0.048420209437608719 -0.215226694941520691 -0.196061223745346069 -0.039975732564926147 -0.043541885912418365 -0.165317386388778687 -0.052038189023733139 -0.107263647019863129 0.113112345337867737 -0.032938249409198761 0.118466146290302277 0.186904296278953552 -0.072391420602798462 0.026325864717364311 0.062802985310554504 0.132142916321754456
0.158010393381118774 -0.010811626911163330 -0.168596103787422180 -0.234754964709281921 0.034349218010902405 0.112740144133567810 0.188033461570739746 0.137085855007171631 0.205215200781822205 -0.067967802286148071 -0.022341975942254066 0.118916988372802734 -0.119026347994804382 0.069137208163738251 0.125601977109909058 -0.054317433387041092 -0.061144683510065079 0.041276313364505768 -0.045962322503328323 -0.048202667385339737 -0.105450086295604706 -0.012763458304107189 -0.025201043114066124 -0.006572877988219261 0.028278257697820663 0.173628047108650208 -0.132657185196876526 -0.033827085047960281 0.149838313460350037 -0.040011063218116760 -0.167534232139587402 -0.110009141266345978 0.166522830724716187 -0.089996621012687683 -0.062882058322429657 -0.014871950261294842 0.036582734435796738 0.009409813210368156 0.119785450398921967 0.151272043585777283 0.038023229688405991 0.167418077588081360 -0.136711046099662781 0.065428048372268677 -0.048750154674053192 -0.113727308809757233 0.099175997078418732 -0.092165045440196991 -0.124002337455749512 0.037400234490633011 0.007335850968956947 0.022400967776775360 0.020873997360467911 -0.021310457959771156 -0.023276688531041145 0.111257635056972504 0.128633603453636169 -0.056523729115724564 0.078766331076622009 -0.132281064987182617 -0.160997241735458374 -0.059984907507896423 -0.014226463623344898 -0.077195711433887482 -0.136228621006011963 0.059430237859487534 0.087887920439243317 -0.033779107034206390 -0.163963541388511658 -0.081055425107479095 0.163206666707992554 -0.154520884156227112 0.169772058725357056 0.029016133397817612 -0.011940170079469681 0.012970230542123318 -0.079804331064224243 -0.019430635496973991 -0.045560110360383987 -0.128764584660530090 -0.085361398756504059 -0.158230721950531006 -0.034031085669994354 0.085889667272567749 0.127284482121467590 -0.093826502561569214 0.013671623542904854 -0.127091586589813232 -0.233144804835319519 -0.098962381482124329 -0.116382300853729248 0.299459546804428101 -0.217748865485191345 -0.141351595520973206 0.021395411342382431 0.076152294874191284 0.028275238350033760 -0.153552696108818054 -0.089468322694301605 -0.055253449827432632
-0.059896554797887802 -0.068663336336612701 0.024462867528200150 0.070659063756465912 0.017118154093623161 -0.135294973850250244 0.007021623197942972 0.063793674111366272 -0.225100249052047729 -0.103231959044933319 0.087054811418056488 0.050215784460306168 0.009805557318031788 0.084520839154720306 -0.079449810087680817 -0.056983202695846558 -0.106358192861080170 -0.181330278515815735 -0.086567349731922150 -0.051041714847087860 -0.169732600450515747 -0.117687277495861053 0.093163363635540009 -0.020466264337301254 -0.145769387483596802 -0.182620272040367126 -0.082802347838878632 -0.153282120823860168 -0.032674338668584824 0.135060399770736694 0.018497224897146225 0.012161506339907646 -0.150507614016532898 -0.105838626623153687 0.042633742094039917 -0.017839616164565086 -0.001995711820200086 -0.001618937356397510 -0.191985949873924255 0.062333144247531891 0.212209314107894897 -0.068368501961231232 -0.021378399804234505 -0.019759058952331543 -0.092805296182632446 0.214956983923912048 0.011508277617394924 -0.088330715894699097 -0.082578100264072418 0.024857584387063980 0.088001281023025513 -0.141106054186820984 0.055520173162221909 0.053768523037433624 -0.082062698900699615 0.074991844594478607 -0.105933554470539093 0.126556798815727234 0.021916849538683891 -0.060049671679735184 -0.183292806148529053 -0.081600025296211243 -0.028304090723395348 0.172716289758682251 -0.093580715358257294 0.172404557466506958 0.009206695482134819 -0.171460375189781189 -0.076417140662670135 0.114058598875999451 0.145926788449287415 0.123047515749931335 -0.054391957819461823 -0.115150690078735352 0.044100306928157806 0.175709038972854614 0.116970241069793701 -0.029519006609916687 -0.140507146716117859 -0.156805336475372314 -0.111115112900733948 -0.005177498329430819 -0.096734181046485901 -0.018803657963871956 0.007004087790846825 -0.035115718841552734 0.033988781273365021 -0.036086909472942352 -0.058254372328519821 0.203729584813117981 0.066116876900196075 -0.135592818260192871 0.020956158638000488 0.076068855822086334 0.104921914637088776 -0.062853135168552399 -0.198793187737464905 -0.164124384522438049 0.069982580840587616 0.183729439973831177
-0.085430271923542023 0.004057755693793297 -0.078752867877483368 -0.121047310531139374 -0.045304689556360245 0.127159386873245239 -0.105591468513011932 0.026304678991436958 -0.119718499481678009 -0.139861658215522766 0.020837467163801193 0.045664310455322266 0.092038027942180634 -0.154339864850044250 -0.048590160906314850 0.003910177387297153 0.044201962649822235 -0.072487555444240570 0.137646198272705078 0.082271970808506012 0.051274172961711884 -0.072184264659881592 -0.122523263096809387 -0.050176613032817841 0.193346396088600159 0.169835403561592102 0.117886535823345184 -0.016553390771150589 0.041128627955913544 0.000179254566319287 -0.017425516620278358 0.148186519742012024 0.180184602737426758 0.029345208778977394 0.086350269615650177 0.143377408385276794 -0.222359031438827515 0.121237456798553467 0.091385357081890106 -0.029870262369513512 -0.152976259589195251 0.089194260537624359 -0.057959634810686111 0.045127712190151215 -0.135893046855926514 -0.191359847784042358 0.101123951375484467 -0.105619117617607117 -0.127031430602073669 0.101325474679470062 -0.198912277817726135 -0.174241647124290466 0.129964470863342285 0.070665590465068817 -0.119269870221614838 0.175924047827720642 -0.003799843369051814 -0.132637798786163330 0.149534583091735840 0.113390490412712097 0.141685262322425842 0.039976175874471664 -0.028225202113389969 -0.130330353975296021 -0.009401148185133934 -0.008743821643292904 -0.131248787045478821 0.025987191125750542 0.034954737871885300 0.064025893807411194 -0.122368723154067993 -0.144738987088203430 -0.021821277216076851 -0.087186589837074280 -0.029513720422983170 0.206084623932838440 -0.027275566011667252 -0.037579759955406189 0.062743946909904480 0.115729995071887970 -0.050059266388416290 -0.018238274380564690 -0.070343583822250366 -0.045977901667356491 -0.115575440227985382 -0.001121690380387008 -0.031158190220594406 0.034439414739608765 -0.152810886502265930 0.064713381230831146 -0.088718645274639130 -0.006940055638551712 -0.098280526697635651 0.025200309231877327 -0.126025572419166565 0.164693161845207214 0.181909620761871338 0.234639972448348999 -0.080459468066692352 -0.027128605172038078
-0.064008563756942749 0.041523687541484833 -0.038357615470886230 0.064059846103191376 -0.108152925968170166 -0.074616834521293640 0.179800555109977722 0.090162128210067749 0.153231590986251831 -0.224635824561119080 0.119520202279090881 -0.159855678677558899 0.107473067939281464 0.081896014511585236 0.099766395986080170 0.092390514910221100 -0.206637680530548096 0.133873194456100464 0.065773628652095795 0.087422996759414673 0.012316015549004078 0.151214092969894409 0.053204052150249481 0.026624457910656929 -0.108405426144599915 0.263256609439849854 -0.109141685068607330 -0.028451768681406975 -0.002966880798339844 0.203845396637916565 0.157019630074501038 0.168798476457595825 -0.079191796481609344 0.080291680991649628 0.115763798356056213 0.181448712944984436 -0.082661919295787811 0.084669046103954315 0.082311123609542847 -0.017620507627725601 -0.044221024960279465 0.103826008737087250 0.010022439062595367 0.048863843083381653 0.088454127311706543 -0.028192432597279549 0.076760210096836090 -0.141680002212524414 0.048602741211652756 0.022735064849257469 0.036545071750879288 -0.198684126138687134 0.047376938164234161 -0.039921801537275314 -0.149659618735313416 0.093002066016197205 0.012912448495626450 0.012163368985056877 -0.261445403099060059 0.105063930153846741 0.120964847505092621 0.167655169963836670 0.122608184814453125 0.078822150826454163 -0.055339358747005463 0.079600661993026733 0.124112032353878021 -0.144012063741683960 0.222127020359039307 -0.019123610109090805 -0.010238853283226490 0.084853708744049072 0.030046403408050537 -0.159543097019195557 -0.045401036739349365 0.010882396250963211 -0.052106328308582306 0.192040726542472839 -0.105625689029693604 0.016343872994184494 0.060491293668746948 -0.020213093608617783 0.016079131513834000 -0.044629376381635666 0.129855215549468994 0.041820790618658066 0.095084175467491150 0.088286027312278748 0.140798002481460571 0.013992846943438053 -0.055691834539175034 0.125997781753540039 0.139101207256317139 -0.093215741217136383 -0.048336591571569443 -0.110670357942581177 0.223473519086837769 0.194957926869392395 0.132253259420394897 -0.078945234417915344
-0.004052876494824886 0.174939215183258057 -0.115016222000122070 0.157651081681251526 -0.116690292954444885 0.134873300790786743 -0.381638407707214355 0.029502945020794868 0.021362124010920525 -0.162053897976875305 -0.079281844198703766 -0.143785580992698669 0.137426719069480896 0.155742511153221130 -0.020387059077620506 -0.198215648531913757 -0.138731151819229126 -0.184756666421890259 -0.134544938802719116 0.057261299341917038 -0.149386137723922729 -0.149516627192497253 -0.102032244205474854 0.057533171027898788 0.157811194658279419 -0.070053376257419586 -0.012504113838076591 0.134753227233886719 -0.100647725164890289 0.132212415337562561 -0.072645753622055054 0.157095521688461304 -0.057198815047740936 0.147537067532539368 -0.031385820358991623 -0.175750210881233215 -0.138092473149299622 -0.109570734202861786 -0.079474799335002899 0.059670355170965195 -0.018895972520112991 -0.069339975714683533 -0.125099852681159973 -0.054589908570051193 0.013407297432422638 0.042309165000915527 -0.007560343481600285 -0.033811133354902267 0.108562514185905457 0.102538645267486572 0.073467046022415161 0.136099964380264282 0.016881378367543221 -0.104147784411907196 -0.120723217725753784 0.097772054374217987 0.115646146237850189 0.094787210226058960 0.093745879828929901 0.112565703690052032 0.078991159796714783 0.072332374751567841 -0.109331466257572174 -0.077537238597869873 -0.067399315536022186 0.111552707850933075 -0.098032474517822266 -0.177017286419868469 0.013544738292694092 0.053496103733778000 -0.103941805660724640 -0.135769531130790710 -0.324340790510177612 0.057902205735445023 -0.156019732356071472 -0.153888076543807983 0.094037473201751709 0.073012240231037140 -0.188090801239013672 -0.229814037680625916 0.292674601078033447 0.079594381153583527 0.177889302372932434 -0.135959744453430176 0.027169845998287201 0.109317086637020111 -0.014697452075779438 0.215407386422157288 0.130368843674659729 0.058277301490306854 -0.060770384967327118 -0.268849849700927734 0.154363542795181274 -0.027961021289229393 -0.117943555116653442 0.065989062190055847 -0.082107365131378174 -0.093176327645778656 0.095234036445617676 0.125101089477539062
0.143550187349319458 0.031624808907508850 0.090132035315036774 -0.155213102698326111 -0.155016675591468811 -0.161692798137664795 0.268217653036117554 0.071157909929752350 -0.356228232383728027 0.150811001658439636 -0.005335323512554169 -0.101180478930473328 0.011062092147767544 -0.055555846542119980 0.125996127724647522 0.166673123836517334 -0.197139590978622437 -0.114749185740947723 -0.200026780366897583 -0.103083513677120209 -0.094643145799636841 -0.066842161118984222 -0.181673347949981689 0.029877103865146637 0.040269088000059128 0.123609572649002075 -0.152825474739074707 -0.224876329302787781 -0.018685527145862579 0.156880468130111694 0.155814766883850098 0.100797608494758606 -0.073786780238151550 0.121951386332511902 0.151766210794448853 -0.085031487047672272 -0.138518512248992920 0.025092944502830505 0.144700899720191956 0.015488233417272568 -0.074475318193435669 -0.184294641017913818 0.026781771332025528 0.150596529245376587 0.020728360861539841 -0.089113309979438782 0.117718338966369629 -0.110472157597541809 0.149570211768150330 -0.121493555605411530 -0.105038866400718689 -0.127185642719268799 0.095289319753646851 0.098357744514942169 0.061974748969078064 -0.088072046637535095 0.125422477722167969 -0.173095673322677612 -0.226863056421279907 -0.054098904132843018 0.077092744410037994 0.063402391970157623 0.288417458534240723 0.154816776514053345 -0.137860208749771118 0.007917439565062523 0.032053820788860321 -0.260714679956436157 0.216075271368026733 -0.187545701861381531 0.202593356370925903 0.236169263720512390 0.054206613451242447 -0.145826280117034912 0.015575761906802654 0.217106521129608154 0.004326138645410538 0.149868682026863098 -0.028248265385627747 0.217107504606246948 -0.170894250273704529 -0.225023269653320312 0.081812940537929535 -0.037023771554231644 -0.110353857278823853 0.176582947373390198 0.190797299146652222 -0.122124083340167999 0.143721580505371094 0.112411856651306152 -0.153445646166801453 0.224464923143386841 -0.125678867101669312 -0.150341272354125977 -0.032636664807796478 -0.021320832893252373 0.146343290805816650 -0.080293618142604828 0.114510126411914825 -0.105240263044834137
-0.129126638174057007 -0.111574627459049225 -0.144458368420600891 0.094907648861408234 0.122635558247566223 0.005931860767304897 -0.093469031155109406 0.122168764472007751 -0.065868966281414032 -0.165656358003616333 -0.042597472667694092 -0.136122778058052063 0.113158687949180603 -0.171111717820167542 -0.152450710535049438 -0.093070432543754578 0.076733261346817017 0.110387235879898071 -0.034730654209852219 0.064785510301589966 0.164656355977058411 -0.032878614962100983 0.180895671248435974 0.012769446708261967 0.061576779931783676 0.277591764926910400 -0.059445664286613464 0.112687155604362488 0.074080720543861389 -0.091421410441398621 -0.010625833645462990 0.138787344098091125 -0.131218403577804565 -0.076858617365360260 0.108953759074211121 -0.025078665465116501 -0.000894386088475585 -0.070322543382644653 0.120740696787834167 0.031492020934820175 -0.052230287343263626 -0.108113974332809448 -0.134509310126304626 0.156781733036041260 0.081826448440551758 -0.094664081931114197 0.037922941148281097 -0.134238302707672119 0.008950515650212765 0.201868981122970581 -0.092044316232204437 -0.150994628667831421 0.013298067264258862 0.062055516988039017 0.130511716008186340 -0.014036588370800018 -0.283550828695297241 0.134769216179847717 0.064663887023925781 0.078870132565498352 -0.001232867129147053 0.125096440315246582 -0.081245988607406616 0.018463013693690300 0.086658604443073273 -0.032237000763416290 -0.018515884876251221 -0.076102815568447113 -0.035857278853654861 -0.077128410339355469 0.170282304286956787 0.191589936614036560 -0.115372143685817719 -0.140173941850662231 0.100382320582866669 0.009423285722732544 -0.004298754967749119 0.117543295025825500 0.091775357723236084 -0.026046985760331154 -0.149067759513854980 -0.126975759863853455 -0.044124133884906769 -0.162851199507713318 -0.148073345422744751 0.017589109018445015 0.062363363802433014 -0.069922372698783875 -0.172821715474128723 -0.102040693163871765 0.053848706185817719 -0.122721835970878601 -0.090992912650108337 0.125011667609214783 0.146081611514091492 -0.110804177820682526 -0.104881525039672852 0.100554533302783966 0.130793377757072449 -0.012934982776641846
-0.120145440101623535 -0.114242091774940491 0.042889770120382309 -0.242466136813163757 -0.127495527267456055 0.008180995471775532 -0.075652413070201874 -0.224563419818878174 -0.146387606859207153 0.085244402289390564 0.083319202065467834 0.032810512930154800 0.044148750603199005 0.153455197811126709 -0.025888895615935326 0.227957993745803833 0.047763284295797348 0.173463419079780579 -0.202955409884452820 -0.030867796391248703 0.180057346820831299 -0.168820768594741821 0.034277956932783127 -0.101673349738121033 0.010145733132958412 0.255907237529754639 -0.046408690512180328 -0.079247534275054932 -0.032228060066699982 0.178550899028778076 -0.133510500192642212 0.056868966668844223 -0.081951908767223358 -0.148127928376197815 -0.133881404995918274 -0.031462702900171280 -0.022365421056747437 -0.058938141912221909 0.043934307992458344 0.022482898086309433 0.141074672341346741 -0.071769259870052338 -0.067302599549293518 0.130264520645141602 0.058225147426128387 0.031700678169727325 -0.097544796764850616 0.119569689035415649 -0.112876668572425842 -0.104704417288303375 0.206253677606582642 -0.086125783622264862 0.181973800063133240 0.082460619509220123 0.137465581297874451 0.098994843661785126 -0.089902803301811218 0.062052022665739059 0.109011754393577576 0.131181523203849792 -0.051661845296621323 0.131090536713600159 -0.011425405740737915 -0.148306548595428467 -0.207789167761802673 -0.122047223150730133 0.012248074635863304 -0.141630381345748901 0.078035585582256317 -0.082606762647628784 0.002678440418094397 -0.013024737127125263 0.218129143118858337 0.120486967265605927 0.218400821089744568 0.063226066529750824 0.057990934699773788 0.104491882026195526 -0.014295442961156368 -0.139462858438491821 -0.007838843390345573 0.040770869702100754 0.034856740385293961 0.150558635592460632 -0.090036667883396149 0.065093018114566803 0.163501322269439697 -0.004323732573539019 -0.112840235233306885 0.122449792921543121 -0.151600539684295654 -0.018795600160956383 -0.167799219489097595 0.051280423998832703 0.038408607244491577 0.155825451016426086 -0.087397366762161255 -0.080419242382049561 -0.015480413101613522 0.141956061124801636
0.003099590772762895 -0.110765509307384491 -0.089178532361984253 -0.044714152812957764 0.060672380030155182 -0.171250715851783752 0.171159803867340088 -0.186406999826431274 0.080148264765739441 -0.175101608037948608 0.051003009080886841 -0.143229782581329346 0.105749070644378662 -0.038037061691284180 0.123084463179111481 0.085000224411487579 -0.102872334420681000 0.049191333353519440 -0.116866670548915863 -0.112179912626743317 -0.108508899807929993 -0.113522633910179138 -0.021848186850547791 -0.191482245922088623 0.032509081065654755 0.022363534197211266 -0.040182687342166901 0.207267791032791138 0.013065265491604805 0.107990629971027374 -0.130764394998550415 0.130089357495307922 -0.135079577565193176 0.005905062425881624 -0.069447502493858337 -0.039620168507099152 0.055292177945375443 -0.166226401925086975 0.050803769379854202 0.069839373230934143 0.157122403383255005 0.084681302309036255 -0.024463113397359848 -0.072800643742084503 0.200567170977592468 -0.072502858936786652 0.057253174483776093 0.117930509150028229 0.040061324834823608 -0.041647773236036301 -0.082471340894699097 0.011551478877663612 -0.180375754833221436 0.069166809320449829 0.116888396441936493 0.147026866674423218 0.080163657665252686 0.040777910500764847 0.022299995645880699 -0.041908007115125656 0.102984748780727386 0.097100146114826202 -0.147281214594841003 0.103702135384082794 0.191398397088050842 -0.003377547953277826 0.070568345487117767 -0.136252284049987793 -0.074294596910476685 0.229494199156761169 -0.008159662596881390 -0.008013037964701653 0.019225805997848511 -0.107014656066894531 -0.077286392450332642 -0.228463217616081238 -0.081016644835472107 0.114518828690052032 0.127262979745864868 -0.033169936388731003 -0.021950399503111839 0.129931300878524780 0.100693106651306152 -0.110727295279502869 0.057881847023963928 0.019623300060629845 -0.056240215897560120 -0.160279750823974609 0.158993571996688843 -0.059081614017486572 -0.071071662008762360 -0.164120092988014221 -0.081549257040023804 0.256238162517547607 0.091267041862010956 -0.050087075680494308 -0.064461462199687958 -0.033848714083433151 -0.184092685580253601 -0.096114329993724823
0.001370144891552627 -0.093626163899898529 0.015209580771625042 -0.192818850278854370 0.085121944546699524 0.273292273283004761 0.210712552070617676 -0.005366344936192036 0.152213633060455322 -0.014354534447193146 -0.082028336822986603 -0.104405775666236877 0.105945788323879242 -0.014626552350819111 -0.065517112612724304 -0.132052481174468994 0.164766132831573486 0.157447442412376404 0.072500668466091156 -0.027690468356013298 0.237325385212898254 -0.106947317719459534 0.138028234243392944 -0.033666998147964478 -0.067452862858772278 0.477224379777908325 -0.026280509307980537 -0.097438208758831024 0.172662898898124695 0.037249632179737091 -0.041889112442731857 0.123744979500770569 0.160584166646003723 0.178132206201553345 -0.014054498635232449 0.130567386746406555 0.115149833261966705 0.221077591180801392 0.066503606736660004 0.095831282436847687 -0.236479252576828003 0.003785213921219110 -0.116538673639297485 0.072899676859378815 0.137088716030120850 0.119118586182594299 0.151754513382911682 -0.178878396749496460 0.073246724903583527 0.079737186431884766 -0.175904497504234314 0.043096832931041718 -0.164939627051353455 -0.063818283379077911 0.164400294423103333 -0.177499145269393921 -0.132078871130943298 -0.092296801507472992 0.060479246079921722 -0.063934706151485443 -0.011117299087345600 0.075940482318401337 0.131685569882392883 0.025272641330957413 -0.130750924348831177 0.008155646733939648 -0.186370372772216797 0.014684701338410378 -0.061561584472656250 0.113689363002777100 -0.072607658803462982 0.151871353387832642 -0.128494992852210999 0.026123907417058945 0.213040024042129517 0.063809297978878021 0.158962085843086243 0.099165670573711395 0.076443240046501160 0.153756171464920044 -0.108658358454704285 -0.116509869694709778 -0.037915654480457306 0.096024103462696075 -0.022981859743595123 -0.012398346327245235 0.065624922513961792 0.009350506588816643 0.025411840528249741 -0.076097369194030762 0.096370443701744080 0.107760772109031677 0.005986903328448534 0.155875280499458313 -0.106452912092208862 -0.153518453240394592 0.268108099699020386 0.093751914799213409 -0.031317263841629028 -0.133502170443534851
0.189147368073463440 0.153527647256851196 0.083853378891944885 -0.040227886289358139 -0.011343738064169884 0.052769545465707779 -0.008574073202908039 -0.155421763658523560 -0.441023677587509155 0.142455369234085083 0.133834943175315857 -0.128445252776145935 0.077240526676177979 -0.142501592636108398 -0.097081243991851807 -0.083765983581542969 -0.139953374862670898 0.097170472145080566 -0.013913112692534924 -0.036397032439708710 -0.060535416007041931 -0.048098742961883545 -0.123882196843624115 0.132484868168830872 0.083136893808841705 -0.229868993163108826 -0.007295503746718168 -0.063423536717891693 0.102875523269176483 -0.020703610032796860 -0.048419561237096786 0.038108978420495987 -0.068163491785526276 0.118984706699848175 0.010885876603424549 0.131536513566970825 0.167921766638755798 -0.032174091786146164 -0.143051534891128540 0.101962782442569733 0.054715454578399658 0.003251420799642801 0.208765521645545959 -0.091127149760723114 -0.125145643949508667 -0.046082012355327606 0.004811343271285295 0.036575928330421448 -0.199912577867507935 0.124832637608051300 0.162051290273666382 -0.006822027266025543 -0.008602926507592201 0.018578656017780304 0.277509480714797974 0.140019997954368591 -0.043839331716299057 -0.058398570865392685 -0.121541023254394531 -0.083010293543338776 -0.159465059638023376 -0.189704775810241699 -0.122134901583194733 0.018145609647035599 -0.176239937543869019 0.148707717657089233 -0.044440031051635742 0.059890836477279663 0.106182128190994263 -0.136778727173805237 0.093713827431201935 -0.183797284960746765 -0.010148560628294945 -0.006853361148387194 0.152026847004890442 -0.122731991112232208 -0.232891201972961426 -0.127390816807746887 -0.196964383125305176 -0.060581661760807037 0.089155733585357666 -0.147644892334938049 0.167858973145484924 -0.104279242455959320 -0.139399856328964233 -0.063657201826572418 0.171835303306579590 0.108913265168666840 -0.143833950161933899 0.204417079687118530 -0.135296031832695007 0.271095991134643555 0.118160828948020935 -0.222653552889823914 -0.130597755312919617 0.083923555910587311 0.035580594092607498 -0.263854473829269409 -0.265989005565643311 0.161996752023696899
-0.172716870903968811 -0.046388685703277588 -0.081686310470104218 -0.084696501493453979 -0.170431450009346008 0.082236737012863159 0.093114115297794342 0.026121214032173157 0.053640153259038925 -0.077863425016403198 0.005311546847224236 -0.101122096180915833 0.083767957985401154 -0.165544137358665466 -0.013209906406700611 0.042675200849771500 -0.038325399160385132 -0.039342656731605530 0.056445367634296417 -0.151636317372322083 -0.061777163296937943 -0.027192503213882446 0.103735327720642090 0.235251784324645996 0.179619118571281433 -0.104985967278480530 0.102030418813228607 -0.071946062147617340 -0.078708969056606293 0.217537716031074524 -0.024946887046098709 -0.061160098761320114 -0.100118339061737061 0.102883823215961456 0.151622980833053589 0.047670084983110428 0.105765402317047119 0.018874494358897209 -0.122049838304519653 -0.170904055237770081 -0.031704805791378021 -0.069894850254058838 -0.161957845091819763 0.182783663272857666 -0.147695526480674744 0.096566997468471527 -0.143659546971321106 -0.174422070384025574 -0.024211056530475616 0.094377785921096802 -0.168170884251594543 0.090547271072864532 0.108455762267112732 -0.132113561034202576 0.070505246520042419 0.071841068565845490 -0.171676948666572571 0.124710313975811005 -0.146357104182243347 0.141204550862312317 0.121478982269763947 -0.052140682935714722 0.057948499917984009 0.097469031810760498 -0.088946618139743805 -0.062077835202217102 0.064161032438278198 -0.029098527505993843 0.147925004363059998 0.158605620265007019 -0.088581986725330353 -0.080934479832649231 -0.149420201778411865 -0.175026491284370422 0.006945639383047819 -0.075608380138874054 0.025163603946566582 0.017198193818330765 0.012376726604998112 -0.119802907109260559 0.163474440574645996 0.169444799423217773 -0.128343522548675537 -0.052592217922210693 -0.115700058639049530 0.176688864827156067 -0.045737963169813156 -0.042350098490715027 0.059663977473974228 0.120630696415901184 -0.082861401140689850 0.033534523099660873 -0.008183974772691727 0.220758974552154541 0.176808610558509827 0.001131255878135562 0.144992545247077942 0.050368208438158035 -0.046284310519695282 0.004263268783688545
-0.098560206592082977 -0.007831951603293419 0.025854445993900299 -0.004606319125741720 -0.043781083077192307 -0.038527764379978180 -0.263190209865570068 -0.142372667789459229 0.288560032844543457 0.027578404173254967 -0.075786039233207703 -0.168555438518524170 0.014746836386620998 0.111616864800453186 -0.092259347438812256 0.122695259749889374 0.044174145907163620 0.034824501723051071 -0.064507789909839630 0.155297353863716125 0.054731763899326324 -0.133650913834571838 0.120124787092208862 -0.228376671671867371 0.125640586018562317 -0.212725698947906494 0.193205192685127258 -0.068593837320804596 0.110302962362766266 -0.179136008024215698 -0.155647158622741699 -0.089277245104312897 -0.121328234672546387 0.011305397376418114 0.004665636457502842 0.101211652159690857 0.121956542134284973 0.010717946104705334 -0.079514630138874054 -0.152191206812858582 -0.106128089129924774 -0.065132841467857361 0.118444800376892090 0.030463524162769318 -0.002333108102902770 0.152679532766342163 -0.028823500499129295 0.192899629473686218 0.167555913329124451 -0.012807534076273441 -0.087777286767959595 0.057098742574453354 0.037203766405582428 0.111809618771076202 0.126528948545455933 -0.095072403550148010 0.158732742071151733 -0.092674590647220612 0.176855534315109253 0.077868379652500153 0.034432217478752136 -0.029396023601293564 -0.219556495547294617 -0.044504757970571518 0.078606598079204559 -0.058783613145351410 -0.195208624005317688 0.050332266837358475 -0.228953272104263306 0.032647188752889633 -0.211460724472999573 0.085839815437793732 0.039425730705261230 0.164162307977676392 0.147906765341758728 -0.079252921044826508 0.019941620528697968 0.121682845056056976 -0.026345873251557350 0.002065059263259172 0.064371868968009949 0.122553043067455292 -0.100125744938850403 -0.117683418095111847 -0.010374980047345161 0.007260301150381565 -0.056859552860260010 0.148792251944541931 0.058824948966503143 -0.010328243486583233 0.171121850609779358 0.115155458450317383 0.019802510738372803 0.038198731839656830 0.125766426324844360 -0.071935169398784637 -0.177904531359672546 -0.065375767648220062 0.215144470334053040 -0.073186405003070831
-0.043121047317981720 -0.166863530874252319 -0.082161903381347656 -0.002334869699552655 0.146223321557044983 -0.143942639231681824 -0.068057753145694733 -0.066171891987323761 -0.072487480938434601 -0.010801373049616814 0.005247596651315689 -0.158365443348884583 -0.051497150212526321 0.013228075578808784 0.031332921236753464 0.041836194694042206 -0.186510309576988220 0.007734699174761772 0.174061521887779236 0.034352574497461319 -0.053727697581052780 -0.035358708351850510 -0.020326612517237663 -0.121941670775413513 0.120586529374122620 -0.183671817183494568 -0.079039566218852997 -0.094648256897926331 -0.017135683447122574 0.008640876971185207 0.090436704456806183 0.011919037438929081 -0.086306273937225342 0.033580001443624496 -0.122240655124187469 0.019925821572542191 -0.038519468158483505 -0.029618669301271439 -0.163330510258674622 0.027802005410194397 0.151390194892883301 -0.081196628510951996 0.018908010795712471 0.006391981616616249 0.043577793985605240 -0.115338906645774841 0.005439262371510267 -0.126790568232536316 0.103131175041198730 -0.249331027269363403 -0.054551705718040466 -0.109150253236293793 0.023738356307148933 -0.071734130382537842 0.187060743570327759 -0.143146380782127380 0.174529165029525757 0.058005459606647491 -0.102359771728515625 -0.155799522995948792 -0.011868367902934551 -0.167954906821250916 -0.065044425427913666 0.165979638695716858 -0.134117320179939270 0.227048531174659729 0.011566257104277611 0.030453909188508987 0.064850710332393646 -0.179715514183044434 -0.056050669401884079 -0.081498362123966217 0.066229358315467834 0.181269466876983643 -0.126466050744056702 -0.190273284912109375 0.053465381264686584 -0.120915390551090240 0.011268693022429943 0.104236908257007599 0.025922078639268875 0.155075028538703918 0.044149097055196762 0.149101555347442627 0.110469490289688110 -0.219213724136352539 -0.151157945394515991 -0.121359415352344513 -0.132153421640396118 0.033312994986772537 -0.156599387526512146 0.136625349521636963 0.170010820031166077 -0.099973045289516449 0.122576490044593811 0.184347525238990784 -0.232734367251396179 -0.139898389577865601 -0.022354103624820709 0.158143728971481323
-0.175913900136947632 -0.151527643203735352 -0.025766903534531593 0.033269774168729782 -0.221006229519844055 0.078647941350936890 0.018913825973868370 -0.034006997942924500 0.188898146152496338 -0.435578286647796631 -0.009020125493407249 -0.101435810327529907 -0.127398237586021423 -0.040671601891517639 -0.163950949907302856 0.067310012876987457 0.109820708632469177 0.027051821351051331 0.026310540735721588 -0.027891416102647781 -0.003515414195135236 -0.085494846105575562 0.148057967424392700 0.039058886468410492 0.172855898737907410 0.035621277987957001 -0.084209986031055450 0.132991164922714233 -0.040177170187234879 -0.040359441190958023 -0.150501042604446411 0.152970746159553528 0.020601382479071617 0.015972476452589035 -0.060324467718601227 0.185892060399055481 -0.085635595023632050 0.235659018158912659 0.161417469382286072 -0.059205695986747742 0.058892805129289627 -0.016734899953007698 -0.075516067445278168 0.321749359369277954 -0.173964172601699829 -0.165504410862922668 -0.043943554162979126 0.045855022966861725 -0.164927795529365540 -0.044129412621259689 0.019239170476794243 0.092681154608726501 -0.091095454990863800 -0.014331967569887638 0.068319194018840790 -0.060831274837255478 -0.041649997234344482 -0.143267706036567688 -0.146853685379028320 -0.176642805337905884 0.167294204235076904 -0.090406753122806549 -0.150448828935623169 0.058256685733795166 -0.139036267995834351 -0.249619305133819580 -0.388714492321014404 -0.019573537632822990 -0.127755537629127502 0.215393945574760437 0.065994083881378174 0.082618422806262970 -0.061714101582765579 -0.170563101768493652 0.161335483193397522 0.114400237798690796 0.087108157575130463 0.098480544984340668 0.176223292946815491 -0.075858294963836670 0.009142655879259109 0.083375908434391022 0.084496654570102692 0.105306237936019897 -0.166153863072395325 0.259985476732254028 -0.074771553277969360 -0.028278365731239319 -0.100341796875000000 0.090524800121784210 0.130226880311965942 0.175108909606933594 0.076714165508747101 -0.058126725256443024 -0.044784165918827057 -0.197203397750854492 -0.082241103053092957 0.118273340165615082 -0.095268353819847107 -0.114175356924533844
-0.040224425494670868 -0.236733630299568176 -0.140588998794555664 -0.090692892670631409 -0.077360302209854126 0.067147038877010345 0.182650923728942871 -0.026003168895840645 -0.106164224445819855 -0.064369797706604004 0.013773309998214245 -0.113944694399833679 0.167726248502731323 0.089508183300495148 -0.018726855516433716 -0.008750971406698227 -0.016766097396612167 0.132722571492195129 -0.088373817503452301 0.083091251552104950 -0.029872024431824684 0.085442319512367249 0.000127356703160331 0.151941180229187012 -0.081351198256015778 0.006582135800272226 -0.079235456883907318 -0.120475634932518005 0.100723579525947571 0.048643037676811218 -0.037067554891109467 -0.011025028303265572 -0.054896637797355652 0.182358130812644958 0.160226002335548401 0.095536664128303528 -0.191231384873390198 -0.126013040542602539 -0.092635214328765869 0.040634822100400925 0.017193181440234184 0.072014622390270233 -0.058911211788654327 -0.010953866876661777 0.126451507210731506 0.102620989084243774 0.006022768095135689 -0.167576730251312256 0.078607268631458282 -0.095099925994873047 0.097527898848056793 -0.176271989941596985 0.134513422846794128 0.036154679954051971 0.123610131442546844 -0.153378322720527649 -0.011670316569507122 0.112085767090320587 -0.183672025799751282 -0.137514606118202209 0.010103331878781319 -0.091825678944587708 0.130412444472312927 0.044211052358150482 -0.018181709572672844 -0.132506355643272400 0.020980698987841606 0.046314731240272522 -0.035300381481647491 -0.176027268171310425 -0.060659524053335190 0.067155100405216217 0.531256377696990967 -0.058702327311038971 -0.032162949442863464 0.027413081377744675 -0.040267068892717361 -0.087616123259067535 0.114644169807434082 0.027672223746776581 -0.143915712833404541 -0.184070289134979248 -0.121391184628009796 -0.116453237831592560 -0.142132952809333801 0.014437688514590263 -0.150188922882080078 -0.111591272056102753 -0.122036106884479523 -0.147272706031799316 -0.038657568395137787 0.170549154281616211 -0.111262120306491852 0.013186073862016201 0.085965387523174286 0.035957451909780502 -0.015136577188968658 -0.083089739084243774 -0.114373572170734406 -0.081517592072486877
-0.110927291214466095 -0.124526552855968475 0.126940026879310608 -0.003309429856017232 0.156054317951202393 0.045990336686372757 -0.014575894922018051 -0.093680784106254578 0.116555899381637573 -0.099191874265670776 0.000461560819530860 0.145266592502593994 -0.054426103830337524 -0.123664870858192444 -0.034698460251092911 0.149653941392898560 -0.153068035840988159 -0.000538858235813677 0.205367580056190491 -0.078146174550056458 -0.014861884526908398 -0.054664187133312225 -0.009042541496455669 0.169859856367111206 -0.040159903466701508 -0.278440177440643311 0.018015228211879730 -0.208882719278335571 -0.012662610970437527 -0.159061089158058167 0.168292924761772156 -0.004663809202611446 -0.164714053273200989 -0.074838750064373016 -0.124129913747310638 -0.048435483127832413 -0.113199822604656219 -0.087086707353591919 0.144105494022369385 -0.044450238347053528 0.089233100414276123 0.082494921982288361 -0.002774212509393692 -0.004417222458869219 -0.058200031518936157 -0.006505103781819344 -0.074387446045875549 0.033186562359333038 0.173436716198921204 -0.109588101506233215 -0.124356329441070557 0.235213816165924072 -0.081831261515617371 0.151872009038925171 0.092604614794254303 -0.012821198441088200 0.034306496381759644 0.089451082050800323 0.072134226560592651 0.161694616079330444 0.163638874888420105 -0.050360456109046936 0.180421099066734314 0.068320915102958679 0.048661757260560989 0.203711524605751038 -0.062185909599065781 -0.038817595690488815 0.089532889425754547 -0.094819031655788422 -0.060840457677841187 0.080640517175197601 0.176043063402175903 -0.014219495467841625 0.064456187188625336 -0.174564018845558167 -0.104825600981712341 -0.163018956780433655 0.114292800426483154 0.167539447546005249 0.179231405258178711 -0.177927151322364807 0.159246593713760376 0.011824817396700382 -0.114726476371288300 0.026841102167963982 -0.040880087763071060 0.083594299852848053 -0.230507478117942810 0.003257049713283777 0.001035072258673608 0.252516120672225952 -0.140040501952171326 -0.177898943424224854 0.069033339619636536 -0.003336075460538268 0.032083485275506973 -0.065387301146984100 -0.004238633438944817 -0.041385032236576080
0.145743831992149353 0.034847613424062729 -0.032952312380075455 0.121581427752971649 0.162123873829841614 -0.007055386435240507 -0.091486930847167969 0.109323248267173767 -0.112692601978778839 0.151991069316864014 -0.037352547049522400 -0.111950293183326721 0.098972357809543610 0.108636252582073212 0.129518359899520874 -0.175320625305175781 -0.002256511477753520 0.129438519477844238 0.101705744862556458 -0.052616856992244720 -0.069475799798965454 -0.122240379452705383 0.194611236453056335 -0.040328688919544220 0.099433906376361847 -0.040038499981164932 0.053903140127658844 -0.078267641365528107 0.028303476050496101 0.068150945007801056 0.086023233830928802 0.056870762258768082 -0.031936898827552795 -0.010874283500015736 -0.017795534804463387 -0.106480069458484650 0.178183451294898987 0.058573123067617416 0.024102319031953812 -0.088659979403018951 0.065183408558368683 0.105530254542827606 0.135325208306312561 -0.006293280981481075 0.190139502286911011 0.111950971186161041 -0.086030691862106323 -0.043305974453687668 0.090594924986362457 -0.236189767718315125 0.032582599669694901 -0.026103474199771881 -0.196473076939582825 0.075381115078926086 0.088451266288757324 -0.173823088407516479 0.087033279240131378 0.093896985054016113 0.176361545920372009 -0.092147491872310638 0.020798852667212486 -0.118187040090560913 0.004178257659077644 0.004420067183673382 -0.135688468813896179 0.187021508812904358 0.034356370568275452 -0.029056042432785034 -0.018197106197476387 -0.147605568170547485 -0.031023656949400902 -0.143513992428779602 0.090243235230445862 0.122212707996368408 0.089261546730995178 -0.091280013322830200 -0.026099141687154770 -0.028181530535221100 -0.100002549588680267 -0.135856911540031433 -0.012301127426326275 -0.024797497317194939 0.040904868394136429 0.083006426692008972 0.070011094212532043 -0.191164612770080566 -0.034445513039827347 -0.118064448237419128 0.166202768683433533 -0.146691858768463135 -0.103031620383262634 -0.201704636216163635 -0.144685775041580200 0.023144965991377831 0.111754097044467926 -0.067459389567375183 0.114491216838359833 -0.031521063297986984 -0.024012506008148193 0.131470635533332825
0.146232292056083679 -0.176021248102188110 -0.039674457162618637 -0.073139227926731110 0.119385600090026855 -0.216683626174926758 -0.001175774610601366 0.059963725507259369 0.046071849763393402 0.045910585671663284 0.129166409373283386 -0.130151316523551941 0.166644945740699768 0.171531930565834045 0.005179604515433311 0.147431492805480957 -0.033207397907972336 0.029109483584761620 0.121053077280521393 -0.003511995775625110 -0.107427261769771576 -0.072347447276115417 -0.083699114620685577 -0.174818873405456543 0.103163056075572968 -0.028705116361379623 -0.125428676605224609 -0.061241388320922852 0.062837578356266022 0.000670890149194747 0.087719291448593140 0.073983043432235718 0.037873603403568268 0.043668594211339951 -0.127048447728157043 0.083309352397918701 0.183433860540390015 -0.197063431143760681 -0.022187037393450737 0.052407853305339813 -0.039277698844671249 -0.094149976968765259 -0.066673003137111664 -0.102234721183776855 0.086120493710041046 -0.059220071882009506 -0.170427486300468445 0.031516291201114655 0.009797073900699615 0.113409139215946198 0.057230457663536072 -0.009836667217314243 0.070758111774921417 0.147712916135787964 -0.108169212937355042 -0.055663667619228363 0.049467489123344421 0.080342389643192291 0.068072088062763214 -0.020542878657579422 0.039011161774396896 -0.050362449139356613 0.016139803454279900 0.134637475013732910 0.009103415533900261 0.229940637946128845 -0.027036860585212708 -0.006611459888517857 0.057229641824960709 -0.137450531125068665 -0.145391821861267090 0.027294108644127846 0.128711119294166565 0.199861198663711548 0.075968548655509949 0.089078091084957123 -0.167962446808815002 -0.027577662840485573 0.054242022335529327 -0.060221049934625626 -0.091080434620380402 0.081847555935382843 0.036126710474491119 -0.010193418711423874 -0.086880676448345184 -0.041550368070602417 -0.047478593885898590 -0.155295550823211670 -0.126676276326179504 0.107325583696365356 0.029049810022115707 -0.036715473979711533 0.036795660853385925 -0.101938255131244659 -0.070189900696277618 0.013760788366198540 -0.111250005662441254 0.085189640522003174 -0.115287259221076965 0.069043345749378204
-0.016320660710334778 -0.033653121441602707 -0.070001132786273956 -0.028659548610448837 -0.126110121607780457 -0.257205814123153687 0.066125266253948212 -0.091567881405353546 0.004813418723642826 0.178492277860641479 -0.167397037148475647 0.093992985785007477 0.073851406574249268 0.192156508564949036 0.165027365088462830 -0.091586478054523468 0.144385918974876404 -0.181743368506431580 0.171302631497383118 0.209524765610694885 -0.284613013267517090 -0.037017278373241425 -0.054373845458030701 -0.055585630238056183 -0.084085747599601746 -0.300097167491912842 0.150722846388816833 0.180671587586402893 -0.133105397224426270 -0.177602320909500122 -0.070829391479492188 0.035321623086929321 -0.026338461786508560 -0.053546674549579620 -0.021715009585022926 -0.138581484556198120 -0.092225834727287292 -0.286442339420318604 -0.180051997303962708 0.043380070477724075 -0.062500521540641785 -0.034400597214698792 0.189513310790061951 -0.213105082511901855 0.049591846764087677 0.181215196847915649 -0.217286854982376099 -0.081504739820957184 -0.050655845552682877 -0.121352449059486389 0.022850880399346352 -0.051818765699863434 0.005709075368940830 -0.075704693794250488 0.021699678152799606 0.068694889545440674 0.221820294857025146 -0.156973749399185181 -0.089437372982501984 -0.010467816144227982 0.088803417980670929 -0.183092787861824036 0.122969090938568115 -0.108001038432121277 0.167923212051391602 0.267375379800796509 0.049046739935874939 0.114365138113498688 0.114328078925609589 0.024384323507547379 -0.001539612538181245 0.074136309325695038 -0.074720948934555054 -0.038275271654129028 0.071047112345695496 -0.172180503606796265 0.069956548511981964 -0.115828365087509155 0.149507105350494385 -0.106888495385646820 -0.123140841722488403 -0.089102089405059814 -0.132512167096138000 0.164151161909103394 0.033052109181880951 -0.139910861849784851 0.150318905711174011 0.205261230468750000 0.039338201284408569 -0.127289578318595886 0.125332355499267578 0.122025966644287109 -0.087746843695640564 -0.012202691286802292 0.189992725849151611 0.156257003545761108 -0.178168460726737976 -0.223324671387672424 -0.078514732420444489 0.002499568276107311
0.158723399043083191 0.087302520871162415 -0.168067619204521179 -0.172099009156227112 0.093860611319541931 -0.173748210072517395 0.057961419224739075 0.110588513314723969 -0.267004728317260742 0.286385178565979004 -0.084225535392761230 -0.020382689312100410 -0.118096247315406799 0.184741586446762085 0.086372591555118561 -0.033295344561338425 -0.064290046691894531 -0.207483649253845215 -0.049547839909791946 0.077847920358181000 -0.124846078455448151 0.052954994142055511 -0.048531576991081238 -0.137449622154235840 -0.132265642285346985 -0.027950456365942955 -0.099178209900856018 -0.026415532454848289 -0.146243408322334290 -0.093213722109794617 0.108299821615219116 -0.145091921091079712 -0.022740269079804420 -0.046558275818824768 -0.054702561348676682 -0.038525566458702087 -0.064666673541069031 -0.248342722654342651 -0.024835215881466866 0.126669168472290039 0.136762231588363647 0.121646195650100708 -0.034256592392921448 -0.125411525368690491 -0.139206320047378540 0.135538250207901001 -0.137846112251281738 -0.182007223367691040 0.086668953299522400 0.018588673323392868 0.089052505791187286 -0.044034160673618317 -0.064359724521636963 0.055693123489618301 0.106620319187641144 -0.000416222610510886 0.133454546332359314 0.141783073544502258 0.028966194018721581 -0.048138245940208435 -0.144723117351531982 -0.107219122350215912 0.073775991797447205 -0.095161169767379761 0.094297908246517181 0.198931008577346802 -0.026571547612547874 0.099148884415626526 0.037435490638017654 -0.091483876109123230 -0.070156373083591461 -0.074020847678184509 -0.123845897614955902 -0.007643373683094978 0.069740928709506989 -0.012393018230795860 -0.147324815392494202 0.069187641143798828 0.131850227713584900 -0.129155740141868591 -0.025048559531569481 0.045359089970588684 0.009698108769953251 0.121578298509120941 0.160146594047546387 -0.142697304487228394 -0.046419538557529449 0.070885680615901947 0.109543778002262115 0.175239607691764832 0.062866345047950745 -0.050843503326177597 -0.100916102528572083 -0.086710371077060699 -0.006474582944065332 0.064982771873474121 -0.164393186569213867 -0.126658275723457336 -0.241580024361610413 0.173369884490966797
0.017791058868169785 0.038474071770906448 -0.149662390351295471 0.143406808376312256 -0.041822560131549835 0.064585596323013306 -0.009701300412416458 0.087490707635879517 -0.199083253741264343 0.043032046407461166 -0.083659268915653229 -0.116800487041473389 -0.089934810996055603 0.116301938891410828 0.004848203621804714 -0.119372785091400146 0.106598682701587677 -0.184342458844184875 0.144746452569961548 -0.009867987595498562 0.054576013237237930 0.169933512806892395 0.086111322045326233 0.082167744636535645 -0.166532546281814575 -0.207295045256614685 0.171185612678527832 -0.040202926844358444 0.048251189291477203 -0.133675649762153625 -0.144738852977752686 0.041933488100767136 -0.115587174892425537 -0.070626072585582733 -0.050171203911304474 -0.223493903875350952 -0.072981968522071838 -0.149867907166481018 -0.173882126808166504 -0.009554944001138210 -0.022629488259553909 -0.058165106922388077 -0.068079501390457153 -0.147413834929466248 -0.019739771261811256 0.190023660659790039 0.097668834030628204 -0.107179343700408936 -0.049188647419214249 -0.109806701540946960 0.145393893122673035 -0.098007053136825562 0.137801811099052429 -0.061448525637388229 -0.032681107521057129 0.037660837173461914 0.008101733401417732 0.089773945510387421 -0.050619293004274368 -0.066879712045192719 0.020291784778237343 -0.139896377921104431 0.179537057876586914 0.175474688410758972 -0.048956766724586487 0.047118671238422394 0.144174441695213318 -0.164843067526817322 0.031756874173879623 -0.081578917801380157 -0.225909382104873657 0.114622578024864197 0.126397371292114258 -0.074781693518161774 0.049796894192695618 -0.037723828107118607 0.005566687323153019 -0.134791895747184753 -0.053865600377321243 0.035231318324804306 0.026964465156197548 -0.016948569566011429 0.089748285710811615 0.209850087761878967 0.161144167184829712 -0.249799370765686035 -0.083810418844223022 0.134960696101188660 -0.001581235555931926 -0.072663247585296631 -0.102988921105861664 -0.136391028761863708 0.082826048135757446 0.035006783902645111 0.057686403393745422 0.172147542238235474 -0.117481566965579987 0.069652527570724487 0.083677567541599274 0.068410538136959076
0.154835626482963562 -0.023498397320508957 -0.083609946072101593 -0.157530292868614197 0.146309420466423035 -0.215759336948394775 0.152283981442451477 0.096108324825763702 -0.417706817388534546 0.128515988588333130 -0.007792712654918432 0.001459506107494235 -0.096801660954952240 -0.093504615128040314 0.185718387365341187 -0.103489771485328674 -0.129700213670730591 -0.175937712192535400 0.024792591109871864 0.119954593479633331 -0.122867226600646973 -0.142733991146087646 0.073465839028358459 -0.133890897035598755 -0.051781047135591507 -0.080251798033714294 0.040064789354801178 -0.069606319069862366 -0.096032679080963135 -0.010251308791339397 -0.018663605675101280 -0.011852446943521500 -0.038984011858701706 -0.060516104102134705 0.020984541624784470 0.137423470616340637 0.060707058757543564 0.053019352257251740 0.071476615965366364 0.106124058365821838 -0.027838386595249176 -0.111941643059253693 -0.076894059777259827 -0.154902756214141846 -0.105792351067066193 0.167906790971755981 0.099953219294548035 0.061654295772314072 0.078733444213867188 -0.140500977635383606 0.034895561635494232 -0.232386693358421326 0.194657996296882629 0.103888981044292450 0.054217983037233353 0.149002522230148315 -0.104502029716968536 0.008251850493252277 0.031592700630426407 -0.037401635199785233 -0.120267875492572784 0.058175224810838699 0.035833239555358887 0.094314783811569214 -0.108357362449169159 -0.024441383779048920 0.117510162293910980 -0.012407288886606693 0.036878690123558044 0.187323123216629028 -0.025195378810167313 0.199353948235511780 -0.092046909034252167 -0.051449224352836609 0.097996152937412262 -0.065257690846920013 -0.179146155714988708 0.042269296944141388 0.071100257337093353 0.175291955471038818 -0.066278643906116486 0.098255194723606110 0.061142552644014359 0.193532228469848633 -0.075049616396427155 -0.145403712987899780 -0.090853661298751831 -0.015760799869894981 0.141200155019760132 0.024957843124866486 0.104918494820594788 0.030871868133544922 0.037900276482105255 -0.086627162992954254 0.160924434661865234 0.094571046531200409 -0.116402566432952881 -0.121442750096321106 -0.139195576310157776 0.083916924893856049
0.064196422696113586 -0.103863477706909180 0.112664662301540375 0.074228428304195404 -0.033982671797275543 0.016251839697360992 -0.148376494646072388 -0.098424397408962250 0.248910456895828247 -0.010493548586964607 -0.056896634399890900 0.183490470051765442 -0.143530786037445068 0.015879895538091660 -0.007514471188187599 -0.045092988759279251 0.151091024279594421 -0.051703911274671555 -0.242648318409919739 0.141488671302795410 0.175720408558845520 0.138723880052566528 0.160978570580482483 0.073698893189430237 0.101800747215747833 -0.036052957177162170 0.153952464461326599 -0.073750436305999756 0.135162875056266785 -0.052431248128414154 0.049492895603179932 -0.112525291740894318 -0.171741217374801636 -0.033113602548837662 -0.024942981079220772 -0.059766422957181931 0.111137300729751587 0.137461513280868530 0.121685117483139038 -0.004073569085448980 -0.023794194683432579 -0.206255361437797546 -0.084220699965953827 0.141770049929618835 0.113473981618881226 0.003114171791821718 0.123612985014915466 0.000074390474765096 -0.120966725051403046 -0.032523561269044876 -0.120089851319789886 -0.022749554365873337 -0.007356887683272362 0.118315666913986206 0.193609207868576050 -0.018238313496112823 -0.100668922066688538 0.091770857572555542 0.001346702105365694 -0.035423770546913147 0.049762208014726639 0.082386374473571777 0.150627538561820984 0.043664272874593735 -0.029855784028768539 -0.288710683584213257 -0.198841869831085205 -0.094165578484535217 -0.003123669885098934 0.114658437669277191 0.103394679725170135 0.023775804787874222 -0.098130688071250916 -0.090699099004268646 0.086624689400196075 0.204763218760490417 -0.127790316939353943 0.162340685725212097 0.125624909996986389 -0.167884483933448792 0.132083579897880554 0.034846331924200058 0.025153869763016701 0.089452333748340607 -0.187064215540885925 0.117657825350761414 -0.070655182003974915 -0.152163237333297729 -0.075259797275066376 0.065564207732677460 -0.066563405096530914 -0.100488118827342987 0.120326250791549683 -0.001851653447374701 -0.110886789858341217 0.162532866001129150 0.023791521787643433 0.088126912713050842 0.141367763280868530 -0.036557894200086594
-0.087099939584732056 0.095474623143672943 -0.138178229331970215 -0.059895399957895279 -0.136512354016304016 0.140771403908729553 -0.069942653179168701 0.017593681812286377 0.343555957078933716 0.104150407016277313 0.165306881070137024 0.098608553409576416 0.109526149928569794 -0.121483594179153442 -0.241038933396339417 -0.007085937075316906 0.047284975647926331 0.120256446301937103 0.055525023490190506 0.070015996694564819 0.044730700552463531 0.248977765440940857 0.143524572253227234 0.050343088805675507 -0.138906374573707581 0.094210155308246613 -0.032166846096515656 0.042411163449287415 -0.107819087803363800 0.162343233823776245 0.214243501424789429 0.181669279932975769 0.069701030850410461 0.128329917788505554 0.176534295082092285 0.176448807120323181 0.060505989938974380 0.015563995577394962 -0.134876847267150879 -0.028342930600047112 0.075067825615406036 -0.118359871208667755 0.047772780060768127 0.015828998759388924 -0.038932148367166519 -0.071534715592861176 -0.066183738410472870 0.170639336109161377 -0.006258382927626371 0.033018693327903748 -0.019124533981084824 -0.143104434013366699 -0.039309833198785782 -0.240994438529014587 -0.098680846393108368 0.096943460404872894 -0.141999617218971252 -0.159448310732841492 -0.103320077061653137 0.029130754992365837 -0.081882335245609283 -0.088133990764617920 -0.039094720035791397 -0.202254667878150940 0.054562728852033615 -0.166727527976036072 -0.183249786496162415 0.078469857573509216 0.220387801527976990 -0.175594568252563477 -0.016083799302577972 -0.154791444540023804 0.122533492743968964 -0.113938294351100922 0.036022592335939407 0.157567948102951050 0.034724332392215729 0.142375841736793518 0.257289350032806396 0.066952548921108246 0.091407299041748047 -0.145140185952186584 -0.213750392198562622 0.002625270513817668 -0.046077616512775421 0.176624074578285217 0.178756684064865112 -0.153278663754463196 -0.056664254516363144 0.105863250792026520 0.122534222900867462 -0.116374358534812927 -0.092091083526611328 -0.141026616096496582 -0.171292901039123535 0.045252420008182526 -0.046237893402576447 0.108549945056438446 -0.077604994177818298 -0.112982966005802155
-0.095358967781066895 -0.065674379467964172 0.104187309741973877 -0.029343444854021072 -0.076737433671951294 -0.017088886350393295 0.086893469095230103 0.161027282476425171 -0.249269604682922363 0.038056284189224243 -0.007807345129549503 -0.159932658076286316 -0.015861071646213531 -0.043233431875705719 -0.093846753239631653 -0.084233283996582031 0.067878156900405884 0.147069483995437622 0.024496937170624733 0.094269879162311554 0.078445635735988617 -0.095603719353675842 -0.061486262828111649 0.101262047886848450 -0.020556367933750153 0.113496363162994385 0.081990443170070648 0.005712083540856838 0.026210637763142586 0.080427259206771851 -0.194697171449661255 -0.128937080502510071 0.153920158743858337 0.166714340448379517 0.104097314178943634 -0.147375702857971191 0.011581325903534889 -0.037440836429595947 0.027582669630646706 0.132805407047271729 -0.113840132951736450 0.110536538064479828 -0.275571465492248535 -0.206611052155494690 0.071637533605098724 0.089942589402198792 0.211876064538955688 -0.119059488177299500 -0.157652601599693298 -0.212776392698287964 0.131817668676376343 0.041205421090126038 0.037767980247735977 0.106317043304443359 0.104323484003543854 -0.115936793386936188 -0.023345213383436203 0.052197862416505814 0.125100836157798767 -0.108659356832504272 0.013067114166915417 0.069239169359207153 0.022840378805994987 0.059526134282350540 0.130588680505752563 0.089754365384578705 0.151250720024108887 0.042528823018074036 0.214177668094635010 0.195115208625793457 -0.057193439453840256 0.109749883413314819 0.107960604131221771 -0.050196252763271332 -0.080272361636161804 -0.346334934234619141 -0.121477782726287842 0.190488263964653015 0.114488586783409119 0.097098164260387421 0.098873540759086609 0.056033808737993240 0.056820396333932877 -0.007829971611499786 -0.039545152336359024 -0.123009048402309418 0.104367956519126892 -0.051285192370414734 0.139701634645462036 0.078057803213596344 0.138122960925102234 -0.091489411890506744 0.131702348589897156 0.132253080606460571 0.082415647804737091 0.017988439649343491 -0.104352340102195740 0.148561120033264160 -0.102560564875602722 0.009141237474977970
-0.174255326390266418 0.050286538898944855 -0.148975759744644165 0.009726534597575665 -0.034334104508161545 -0.027289507910609245 -0.088442891836166382 0.110553510487079620 0.260669708251953125 -0.235580772161483765 0.161143824458122253 -0.074469767510890961 0.112880691885948181 0.021410880610346794 -0.028823219239711761 -0.013616696000099182 -0.030084049329161644 0.018786611035466194 0.055138304829597473 -0.007927577942609787 0.036076739430427551 -0.007008817978203297 -0.058579172939062119 0.131790265440940857 0.063222236931324005 -0.150122582912445068 -0.106186792254447937 0.046960372477769852 -0.088969923555850983 0.051357034593820572 0.095728978514671326 0.202850878238677979 -0.052567712962627411 0.059696141630411148 -0.085874639451503754 0.156656920909881592 -0.052462074905633926 0.120201252400875092 0.035749461501836777 -0.077160201966762543 -0.071782425045967102 -0.206214204430580139 0.035545080900192261 0.031620308756828308 0.135372564196586609 0.104942314326763153 0.141125649213790894 0.142120286822319031 0.112275965511798859 -0.058789853006601334 -0.104583851993083954 -0.116038955748081207 -0.148463502526283264 -0.019943529739975929 -0.051728419959545135 -0.002163142431527376 0.048740006983280182 -0.181497082114219666 0.037813417613506317 -0.107062079012393951 0.242100358009338379 0.002898084698244929 0.137126624584197998 0.139012977480888367 0.029787020757794380 -0.264437943696975708 -0.131137281656265259 0.056075967848300934 0.140936523675918579 -0.308856040239334106 -0.123805917799472809 0.128834798932075500 -0.207051798701286316 0.079594105482101440 -0.056606803089380264 0.175048902630805969 0.013488894328474998 0.029013030230998993 -0.096773050725460052 -0.214823901653289795 0.277488648891448975 -0.124825179576873779 0.085745394229888916 -0.129086866974830627 -0.052688922733068466 0.142200708389282227 0.100646428763866425 -0.134450882673263550 -0.145137771964073181 0.128674447536468506 0.179090201854705811 0.117588266730308533 0.016990758478641510 0.063344657421112061 -0.007374919485300779 -0.097134158015251160 0.023829448968172073 0.047474540770053864 -0.005508918315172195 0.076681837439537048
-0.059642922133207321 -0.049474790692329407 0.060474481433629990 -0.057858616113662720 -0.213134914636611938 0.083414100110530853 0.025662463158369064 0.056828323751688004 0.454349577426910400 0.005494706798344851 0.119191624224185944 0.012340222485363483 0.071874558925628662 -0.080059155821800232 -0.170262098312377930 -0.075235240161418915 0.144939333200454712 0.124238975346088409 -0.102108612656593323 -0.053790491074323654 0.053895503282546997 0.097942285239696503 -0.050600964576005936 -0.071645908057689667 0.191121801733970642 -0.002638756297528744 0.146274521946907043 -0.131231680512428284 -0.017416937276721001 -0.053161241114139557 0.170136988162994385 0.220588728785514832 -0.173149719834327698 0.001561788492836058 0.032226007431745529 0.245752543210983276 -0.027666650712490082 0.001094561303034425 0.038824249058961868 -0.130466267466545105 -0.072461701929569244 -0.100629419088363647 -0.211850836873054504 -0.111840017139911652 0.114553712308406830 -0.005247284658253193 -0.042664762586355209 0.179334491491317749 -0.099098637700080872 0.052859697490930557 -0.221897408366203308 -0.159669294953346252 -0.109393917024135590 -0.130054011940956116 -0.076548643410205841 -0.098098218441009521 -0.087404958903789520 0.062612548470497131 0.034330673515796661 0.084437564015388489 -0.061985984444618225 0.155126214027404785 -0.131956145167350769 -0.017239430919289589 -0.090663485229015350 -0.236713513731956482 -0.072139337658882141 0.025022387504577637 -0.064490363001823425 -0.042484179139137268 0.150764867663383484 -0.043316718190908432 -0.122196905314922333 0.122324742376804352 0.138872429728507996 0.020759569481015205 0.127952575683593750 0.068384453654289246 -0.023078836500644684 -0.157415464520454407 0.069709114730358124 0.105505868792533875 -0.206001281738281250 -0.066726692020893097 -0.106707096099853516 0.158328205347061157 0.027423495426774025 0.140236511826515198 0.112625084817409515 0.183420330286026001 -0.142579525709152222 -0.118561983108520508 -0.112080298364162445 0.136937886476516724 -0.002850726712495089 0.071666069328784943 0.159862533211708069 0.166624501347541809 0.228650078177452087 -0.095416843891143799
0.090765215456485748 0.102399311959743500 -0.167293876409530640 0.021157816052436829 -0.200198650360107422 -0.075629904866218567 -0.086824901401996613 0.069575652480125427 -0.125615045428276062 0.170568451285362244 0.074987336993217468 0.151585653424263000 -0.141857028007507324 -0.071247212588787079 -0.001990308053791523 -0.071726649999618530 0.064872652292251587 0.066225931048393250 -0.034312333911657333 -0.078083716332912445 -0.008978622965514660 0.094898842275142670 0.019414195790886879 0.074770830571651459 0.127940595149993896 -0.134174719452857971 -0.103625372052192688 -0.001903167809359729 0.163382157683372498 -0.130424603819847107 0.058336734771728516 0.112160600721836090 0.151878729462623596 0.109312184154987335 -0.090577520430088043 0.100839912891387939 -0.059557214379310608 -0.076902173459529877 -0.100812539458274841 -0.090501978993415833 -0.032333686947822571 0.198406025767326355 0.201762229204177856 -0.122220717370510101 -0.126908883452415466 0.007499830797314644 0.126506641507148743 -0.289003312587738037 0.017042884603142738 0.224144592881202698 -0.078552380204200745 0.061879858374595642 0.051834255456924438 0.117764532566070557 -0.166042685508728027 -0.058912385255098343 -0.110509924590587616 -0.076080732047557831 -0.297095507383346558 0.063594207167625427 -0.158856377005577087 -0.086575798690319061 0.274299472570419312 -0.146980956196784973 -0.117971435189247131 -0.122537404298782349 -0.081548869609832764 0.196146100759506226 -0.079812102019786835 0.010338239371776581 -0.012806313112378120 -0.058384779840707779 0.402375936508178711 0.072258241474628448 -0.047434337437152863 0.177329584956169128 -0.050875551998615265 -0.117757864296436310 0.097237743437290192 0.098422370851039886 0.052822079509496689 0.044826332479715347 0.148947969079017639 0.098693154752254486 0.023020152002573013 -0.164407461881637573 0.210144698619842529 -0.185205847024917603 -0.127740547060966492 0.217464223504066467 0.040726475417613983 0.057641237974166870 0.105694726109504700 -0.071100547909736633 0.106653913855552673 -0.106622539460659027 0.078719332814216614 -0.019417708739638329 -0.229325190186500549 -0.034745439887046814
0.041390638798475266 0.074919022619724274 0.067089401185512543 0.120194144546985626 -0.133278414607048035 -0.003390000667423010 -0.184982404112815857 -0.032272882759571075 0.245576098561286926 0.017563279718160629 0.079772032797336578 -0.068507172167301178 0.142012178897857666 -0.154852151870727539 0.093541532754898071 0.008835350163280964 0.004162302240729332 0.054337710142135620 0.059383537620306015 0.135632097721099854 0.083940155804157257 -0.227622851729393005 -0.035662103444337845 -0.056729190051555634 -0.185333713889122009 0.086155414581298828 0.020592145621776581 0.173516795039176941 -0.094599314033985138 -0.113375410437583923 0.109163299202919006 0.116617374122142792 -0.084820881485939026 0.017144996672868729 0.166973367333412170 -0.041230432689189911 -0.032546572387218475 -0.049708921462297440 -0.012173866853117943 0.096413806080818176 -0.029923994094133377 0.149028256535530090 0.059978093951940536 -0.087416648864746094 -0.042032394558191299 0.110719628632068634 0.068831466138362885 -0.007548107765614986 0.181910023093223572 0.020944789052009583 0.044242884963750839 -0.201848700642585754 -0.139491677284240723 0.028912939131259918 0.041107092052698135 -0.080123208463191986 0.072450369596481323 -0.072400480508804321 0.049144994467496872 0.101073704659938812 -0.139291942119598389 -0.090832918882369995 -0.131899535655975342 -0.004406324122101068 0.036032415926456451 -0.044141661375761032 0.091109663248062134 0.101692676544189453 -0.124180749058723450 -0.160095855593681335 -0.174155101180076599 0.068230442702770233 -0.058109171688556671 0.146027222275733948 0.105776414275169373 -0.142268046736717224 0.116711474955081940 0.012942839413881302 -0.133281841874122620 -0.003116423962637782 0.086942374706268311 0.032247498631477356 0.046423524618148804 0.158519640564918518 0.083354249596595764 -0.175081193447113037 -0.101330548524856567 0.036311794072389603 0.100500166416168213 -0.135025039315223694 0.016029428690671921 0.039100099354982376 0.081252835690975189 0.014494127593934536 0.013403142802417278 0.162873432040214539 -0.078420072793960571 0.089129127562046051 -0.033459383994340897 0.042674586176872253
0.153734132647514343 0.062667585909366608 -0.096723884344100952 0.067128404974937439 -0.047966953366994858 0.048833075910806656 -0.019233992323279381 0.106809809803962708 0.027001855894923210 -0.056782133877277374 0.026359571143984795 -0.128936961293220520 0.158566981554031372 0.132741257548332214 -0.014192834496498108 0.142540484666824341 -0.094996325671672821 -0.036601763218641281 0.104744687676429749 0.144663065671920776 0.027826201170682907 0.048356611281633377 0.125147029757499695 0.080448970198631287 0.108792699873447418 -0.039597462862730026 -0.027474755421280861 -0.100676700472831726 -0.144610896706581116 -0.114730298519134521 -0.158918574452400208 0.051973942667245865 -0.061890438199043274 -0.139460459351539612 -0.039474856108427048 0.110214069485664368 0.163493663072586060 -0.226332604885101318 0.143457129597663879 -0.089902535080909729 0.043484073132276535 0.174173861742019653 0.075016438961029053 -0.168873041868209839 -0.092571653425693512 0.018881812691688538 -0.110816620290279388 -0.004631913732737303 0.119924396276473999 -0.206372633576393127 0.026612665504217148 0.000218873319681734 0.080637864768505096 0.119762949645519257 0.143877118825912476 0.135388568043708801 0.224191352725028992 -0.177443623542785645 -0.187133371829986572 -0.092497192323207855 -0.094956584274768829 0.056322101503610611 0.069110035896301270 0.061569653451442719 -0.144273340702056885 0.247305437922477722 -0.143748432397842407 0.091787464916706085 -0.042059112340211868 -0.125654578208923340 -0.073375597596168518 -0.145504608750343323 0.168194264173507690 0.142249345779418945 0.154723063111305237 0.051522158086299896 0.007037737406790257 -0.131714418530464172 -0.080900594592094421 -0.092263489961624146 -0.053455039858818054 -0.176096409559249878 0.164906442165374756 0.099986560642719269 0.024893267080187798 -0.047001939266920090 -0.009501910768449306 0.079680837690830231 0.115603111684322357 0.081671580672264099 -0.021221045404672623 0.142138257622718811 0.021304685622453690 -0.078619882464408875 0.140427485108375549 0.206479594111442566 -0.065350584685802460 -0.059447742998600006 -0.085849039256572723 0.221357017755508423
-0.076820693910121918 0.107037685811519623 -0.070211954414844513 0.115724161267280579 -0.059102654457092285 0.165020138025283813 -0.058852139860391617 0.085938349366188049 0.063816547393798828 -0.077484712004661560 0.072870746254920959 -0.059373721480369568 0.125253498554229736 -0.047809123992919922 -0.057446885854005814 -0.018679691478610039 0.140382826328277588 -0.033712759613990784 -0.242600321769714355 -0.033835466951131821 -0.135101616382598877 0.106713622808456421 0.197785049676895142 0.093488238751888275 -0.003925404045730829 -0.196590572595596313 0.063188888132572174 -0.023621007800102234 -0.045879289507865906 0.075809217989444733 0.083077803254127502 -0.136634752154350281 -0.129582181572914124 -0.026497818529605865 -0.022297747433185577 0.167242288589477539 0.079026415944099426 0.066475540399551392 -0.156256273388862610 -0.065346248447895050 -0.017675925046205521 -0.020501868799328804 -0.174611985683441162 -0.076894067227840424 0.069825172424316406 -0.082117930054664612 0.006051226053386927 -0.075318627059459686 -0.037358369678258896 0.019209144636988640 -0.035940665751695633 0.017041871324181557 -0.177665159106254578 0.134574010968208313 -0.003224112093448639 -0.126903206110000610 -0.141739621758460999 0.077934980392456055 0.028412211686372757 0.100272789597511292 0.008805900812149048 0.148521006107330322 0.055541176348924637 -0.130760848522186279 -0.145014986395835876 0.019028108566999435 -0.075428910553455353 -0.031180808320641518 -0.070002809166908264 -0.162040203809738159 0.086887493729591370 -0.073175393044948578 -0.296351373195648193 -0.079331792891025543 0.133087381720542908 -0.134962290525436401 -0.097295217216014862 0.111193396151065826 0.033894583582878113 -0.104563951492309570 0.268956691026687622 -0.104973964393138885 -0.158486723899841309 -0.037396188825368881 -0.044165685772895813 0.143326997756958008 0.105494827032089233 0.117500603199005127 -0.058744747191667557 0.065447792410850525 0.102810814976692200 0.041582576930522919 0.092510201036930084 0.007721279282122850 -0.030752021819353104 -0.023188959807157516 -0.172719225287437439 0.224981322884559631 0.100587174296379089 0.123532481491565704
-0.097983606159687042 -0.048159494996070862 0.045494526624679565 -0.003466261783614755 -0.014325867407023907 -0.175983622670173645 -0.233535453677177429 -0.141675338149070740 0.169829621911048889 0.106087751686573029 -0.051590219140052795 -0.131702408194541931 0.022548101842403412 -0.018042042851448059 -0.230107530951499939 0.086301520466804504 -0.092371128499507904 0.048416309058666229 -0.213936164975166321 0.064217314124107361 0.087349899113178253 -0.028756037354469299 -0.075453631579875946 0.006001618225127459 -0.083409875631332397 0.091852501034736633 0.032547295093536377 0.127660915255546570 0.044518824666738510 -0.127315446734428406 -0.079412572085857391 0.104135550558567047 -0.083577342331409454 0.058253593742847443 -0.125542849302291870 0.026306282728910446 0.155376046895980835 0.016409145668148994 -0.046694479882717133 -0.117305189371109009 0.023487083613872528 -0.004519659560173750 -0.152989327907562256 0.117429979145526886 0.217762932181358337 0.016186485067009926 -0.057384904474020004 -0.032727051526308060 0.055289931595325470 -0.017509326338768005 -0.066888779401779175 -0.089145228266716003 0.010539697483181953 -0.193880602717399597 -0.016878161579370499 -0.091708280146121979 0.024772489443421364 -0.104861676692962646 0.111980304121971130 0.141889035701751709 0.057236753404140472 -0.188915863633155823 -0.072327919304370880 -0.008657036349177361 -0.027747914195060730 -0.022478582337498665 -0.022086154669523239 0.011461079120635986 0.078613087534904480 -0.056118469685316086 0.106435731053352356 -0.029124906286597252 0.239567518234252930 -0.030362723395228386 0.037755567580461502 -0.068587012588977814 -0.059039920568466187 -0.142624318599700928 -0.069488883018493652 0.105663888156414032 0.000053648454922950 -0.071530207991600037 -0.049070540815591812 -0.110790185630321503 0.070042654871940613 0.107210204005241394 0.052585847675800323 0.231121852993965149 0.199693500995635986 -0.068423271179199219 0.114018782973289490 0.165322944521903992 0.202592432498931885 0.025424811989068985 -0.067039526998996735 0.126697942614555359 0.041430626064538956 0.121782556176185608 -0.102962538599967957 -0.175499424338340759
0.076263196766376495 -0.102660916745662689 -0.018504908308386803 0.079331494867801666 0.079223245382308960 0.132635653018951416 0.094731129705905914 0.100129127502441406 -0.054640855640172958 0.130851060152053833 -0.015919921919703484 0.157820865511894226 -0.077239781618118286 -0.023753417655825615 -0.096365705132484436 0.003414314938709140 0.125251457095146179 0.104786872863769531 0.132844731211662292 -0.194843858480453491 0.165952965617179871 0.116363577544689178 0.035834573209285736 -0.018835239112377167 -0.097580999135971069 0.204724252223968506 -0.182177141308784485 -0.082354754209518433 -0.038741819560527802 -0.092997230589389801 0.110923871397972107 0.162623241543769836 -0.101589739322662354 -0.115904435515403748 -0.131377831101417542 -0.117032967507839203 -0.206071808934211731 0.050318449735641479 0.148941218852996826 -0.086625911295413971 -0.223678618669509888 -0.086684986948966980 -0.055189006030559540 -0.029682705178856850 -0.210919827222824097 -0.024832248687744141 -0.069457054138183594 -0.049248501658439636 -0.073104470968246460 0.090272083878517151 0.016433024778962135 -0.106178365647792816 0.005204640794545412 -0.107131540775299072 -0.069487079977989197 0.153135657310485840 0.083908028900623322 0.032053507864475250 -0.014954011887311935 0.105705060064792633 0.078640185296535492 0.110114410519599915 0.182154700160026550 -0.224957272410392761 0.102498218417167664 0.076887153089046478 0.112579070031642914 0.204003974795341492 0.113969631493091583 -0.153521120548248291 0.088224917650222778 -0.168892785906791687 0.165701195597648621 0.008661352097988129 -0.112706132233142853 0.081663712859153748 -0.154571682214736938 0.208963260054588318 0.055569015443325043 0.053926028311252594 -0.144734308123588562 0.108633689582347870 -0.083663932979106903 -0.054832365363836288 -0.097791403532028198 -0.015265749767422676 0.023723084479570389 -0.132475748658180237 0.120644755661487579 -0.146514683961868286 -0.059480141848325729 0.069143310189247131 -0.080805912613868713 0.015273807570338249 -0.050673048943281174 -0.047574415802955627 0.104491956532001495 -0.094761706888675690 -0.059916503727436066 -0.084476478397846222
0.052848342806100845 0.191493958234786987 0.144864246249198914 0.137975767254829407 -0.076803073287010193 -0.122313261032104492 -0.035542756319046021 0.068666331470012665 0.122114531695842743 0.080192387104034424 -0.102839969098567963 0.155369475483894348 0.133629605174064636 0.112777896225452423 -0.097632966935634613 -0.085428379476070404 0.211638107895851135 0.082446560263633728 -0.071821160614490509 -0.020952282473444939 -0.096445538103580475 -0.123915024101734161 0.020818313583731651 0.135787904262542725 0.038287516683340073 -0.216836988925933838 0.190746292471885681 -0.022019002586603165 0.121828921139240265 0.138930305838584900 0.038907796144485474 0.055536448955535889 -0.044804748147726059 0.145853057503700256 -0.122048571705818176 0.153937235474586487 -0.099592335522174835 -0.035903483629226685 -0.052821431308984756 0.114785611629486084 0.154984042048454285 0.117654897272586823 0.113027662038803101 -0.105926856398582458 -0.014598945155739784 0.097956173121929169 0.125616416335105896 0.136406183242797852 -0.010014807805418968 0.055578261613845825 0.031638141721487045 0.062502399086952209 -0.249072805047035217 0.083926625549793243 -0.009104412049055099 -0.086737602949142456 -0.123164497315883636 0.122952446341514587 0.012851531617343426 -0.165118947625160217 0.068418703973293304 0.125158548355102539 0.166551366448402405 0.048887193202972412 0.102921932935714722 0.092560924589633942 -0.044158279895782471 0.052374199032783508 -0.103853709995746613 0.162078499794006348 -0.088075295090675354 -0.129350766539573669 -0.303757816553115845 -0.087134115397930145 -0.175711512565612793 -0.150409206748008728 0.170742899179458618 -0.107523061335086823 0.071275889873504639 -0.161426112055778503 0.118564441800117493 0.069383218884468079 -0.144756540656089783 -0.013960730284452438 -0.080850750207901001 -0.136166587471961975 -0.086437240242958069 0.033899009227752686 0.093572430312633514 -0.084067575633525848 -0.006199582014232874 -0.121931917965412140 -0.020422851666808128 -0.026878258213400841 0.040430173277854919 -0.088152207434177399 -0.203867122530937195 0.033935155719518661 0.140554770827293396 0.136099681258201599
-0.151605576276779175 0.014120327308773994 0.134062960743904114 -0.003088437486439943 0.041637629270553589 0.148691058158874512 -0.232521533966064453 0.046437576413154602 -0.236174926161766052 -0.099483601748943329 0.060649730265140533 -0.111130185425281525 -0.121954448521137238 -0.137792766094207764 0.008107651025056839 0.117544509470462799 0.311520487070083618 0.116297781467437744 -0.192364230751991272 0.155422642827033997 -0.020236846059560776 0.034664880484342575 0.170656666159629822 0.033074200153350830 0.022783322259783745 0.192660406231880188 -0.031773772090673447 0.117197468876838684 0.075230129063129425 -0.103040769696235657 -0.143514543771743774 -0.168130367994308472 0.109192118048667908 0.030999677255749702 -0.146187067031860352 -0.094121567904949188 0.152038663625717163 0.218425020575523376 0.073298402130603790 0.108536764979362488 -0.060392770916223526 0.184242025017738342 0.146771341562271118 -0.077043548226356506 -0.173099562525749207 -0.095997221767902374 -0.076673708856105804 -0.033368531614542007 0.119341589510440826 -0.077333353459835052 0.143590286374092102 -0.101547695696353912 -0.224113777279853821 -0.004951484501361847 -0.032300587743520737 -0.010140323080122471 -0.131315588951110840 -0.014733498916029930 -0.054404508322477341 0.108691923320293427 0.059107568114995956 0.020204175263643265 -0.200058877468109131 -0.143848001956939697 0.058192841708660126 -0.089993812143802643 -0.178345471620559692 -0.060601633042097092 0.003833269234746695 -0.034830946475267410 0.127322256565093994 -0.082540549337863922 0.102200150489807129 0.029774505645036697 0.043706685304641724 0.087729774415493011 0.188446283340454102 0.075393900275230408 0.070369787514209747 0.006844697054475546 0.127364113926887512 -0.082257777452468872 -0.136956557631492615 -0.079583145678043365 -0.015654077753424644 -0.095132224261760712 -0.053003322333097458 0.115775339305400848 0.071802027523517609 -0.205422371625900269 0.004917060956358910 -0.103751830756664276 0.047887153923511505 0.055088106542825699 -0.021426461637020111 -0.049020670354366302 0.228208988904953003 -0.032662447541952133 0.241909891366958618 0.001622295938432217
0.060574404895305634 -0.133861765265464783 0.035164762288331985 0.048485197126865387 0.124286986887454987 -0.157984256744384766 -0.082138776779174805 0.043621640652418137 -0.148706093430519104 -0.060225613415241241 0.170892000198364258 -0.179381787776947021 0.032850652933120728 0.176185786724090576 -0.072062350809574127 0.149211302399635315 0.184766247868537903 0.003337962087243795 0.005531124770641327 0.150718346238136292 -0.141225561499595642 -0.129099443554878235 -0.129357367753982544 0.086790867149829865 -0.147105082869529724 0.057580769062042236 0.036650922149419785 0.069989427924156189 0.027324330061674118 -0.164997413754463196 0.115833751857280731 0.025229385122656822 -0.038794122636318207 -0.075561240315437317 -0.063498131930828094 -0.190228104591369629 0.096837982535362244 -0.188638985157012939 -0.000938299519475549 -0.040921751409769058 -0.036824222654104233 -0.007176199927926064 0.158776789903640747 -0.077847510576248169 0.231620177626609802 -0.044410478323698044 -0.107505924999713898 0.089866481721401215 -0.189252585172653198 0.037916637957096100 -0.113184623420238495 0.126969605684280396 0.167588621377944946 0.057838976383209229 0.070789366960525513 0.128000169992446899 -0.074056454002857208 -0.006263974588364363 0.246759161353111267 0.022493258118629456 -0.148846209049224854 -0.018345993012189865 -0.182160124182701111 -0.043027490377426147 0.043699927628040314 0.076211124658584595 0.173270717263221741 0.127308592200279236 -0.042186833918094635 -0.134845271706581116 -0.112847425043582916 -0.162006050348281860 0.067853271961212158 0.059347260743379593 -0.117064483463764191 -0.071709007024765015 0.038635190576314926 0.097978740930557251 0.037845470011234283 0.114977277815341949 0.111611090600490570 0.062336198985576630 0.127500697970390320 -0.011608874425292015 0.030035780742764473 -0.052898813039064407 0.045952729880809784 0.046586163341999054 -0.067956402897834778 -0.148703038692474365 -0.162867188453674316 0.099100977182388306 0.092993006110191345 0.024261722341179848 0.146694883704185486 -0.000022641435862170 -0.260807722806930542 -0.016692800447344780 -0.131770148873329163 0.095188304781913757
-0.093057125806808472 -0.116227596998214722 -0.080719776451587677 0.117554388940334320 0.169805750250816345 0.027199661359190941 0.252747207880020142 -0.185217604041099548 -0.185285612940788269 -0.023821586742997169 -0.041966076940298080 -0.044929854571819305 -0.095104105770587921 0.146737813949584961 -0.162096858024597168 -0.040182370692491531 0.029225030913949013 -0.192545920610427856 0.152989655733108521 -0.065979957580566406 0.090711005032062531 -0.217496559023857117 -0.099421076476573944 0.091288626194000244 -0.211953192949295044 0.150237262248992920 0.009663232602179050 -0.039285138249397278 -0.044019833207130432 -0.001562055549584329 -0.080598130822181702 0.060727152973413467 -0.110229246318340302 -0.001858891453593969 0.104368135333061218 0.007261408958584070 0.193819060921669006 -0.087328650057315826 -0.065685622394084930 0.089361615478992462 -0.156646564602851868 -0.107844196259975433 0.041928235441446304 -0.191879957914352417 0.149089485406875610 -0.076653666794300079 -0.203309863805770874 0.207391425967216492 0.129091992974281311 0.015048648230731487 0.032101396471261978 0.092220291495323181 -0.066537573933601379 -0.014267648570239544 0.134315893054008484 0.093989476561546326 0.001167402020655572 0.034968297928571701 0.231647312641143799 0.022766044363379478 -0.061520941555500031 0.102609150111675262 0.108172707259654999 -0.018785862252116203 0.035580530762672424 -0.048947907984256744 -0.074479654431343079 -0.145050987601280212 0.121251612901687622 -0.118053838610649109 -0.221937134861946106 0.141123816370964050 -0.102401353418827057 -0.011854734271764755 0.148847818374633789 -0.092206321656703949 -0.086500719189643860 0.133415073156356812 -0.094997115433216095 0.025973556563258171 -0.059766218066215515 -0.053310878574848175 -0.165963172912597656 -0.066979266703128815 0.110284142196178436 -0.053696513175964355 -0.013503486290574074 0.096226327121257782 0.123006671667098999 0.103925593197345734 -0.199422106146812439 0.103107966482639313 -0.038768712431192398 -0.087484605610370636 -0.148970082402229309 0.023902298882603645 -0.098772086203098297 0.076728552579879761 0.060812622308731079 -0.110979236662387848
-0.141267299652099609 0.105097964406013489 -0.036937192082405090 0.106767371296882629 0.125905081629753113 -0.075208500027656555 -0.093576759099960327 0.082423590123653412 0.110235333442687988 0.035100873559713364 0.078280866146087646 -0.020346073433756828 0.182443723082542419 0.142134487628936768 0.192437663674354553 0.117782741785049438 -0.139937490224838257 -0.120694264769554138 -0.150491639971733093 0.143388286232948303 0.040537618100643158 -0.099685989320278168 0.202560469508171082 -0.148462876677513123 -0.090046875178813934 0.086083866655826569 0.228451609611511230 0.135194480419158936 0.099499292671680450 0.086860403418540955 -0.094875440001487732 -0.003692106343805790 -0.124516189098358154 -0.122005544602870941 -0.064720749855041504 -0.073287576436996460 -0.136645570397377014 0.106536626815795898 0.092449054121971130 -0.147452592849731445 -0.063654221594333649 -0.144214689731597900 -0.110353305935859680 -0.022155132144689560 0.033050000667572021 -0.066594578325748444 -0.062608726322650909 0.149441525340080261 0.020943418145179749 0.007376931607723236 0.109929703176021576 0.130786344408988953 0.083374671638011932 -0.062042731791734695 -0.155309781432151794 0.098131947219371796 0.153458192944526672 -0.139525353908538818 0.290396064519882202 0.053716264665126801 -0.055344473570585251 -0.124983802437782288 -0.191121160984039307 -0.075651958584785461 -0.116471201181411743 -0.058000274002552032 -0.038441609591245651 -0.023992067202925682 -0.110779315233230591 0.035258319228887558 -0.110143862664699554 -0.093517795205116272 -0.281998068094253540 0.124984189867973328 -0.012506841681897640 -0.014641497284173965 -0.032280270010232925 -0.017553241923451424 0.099446587264537811 0.077830202877521515 -0.144971340894699097 -0.023285962641239166 -0.107812039554119110 -0.082377612590789795 -0.136783108115196228 0.001101879286579788 -0.063492640852928162 -0.160507842898368835 -0.149160966277122498 -0.019309289753437042 0.027969136834144592 -0.067800179123878479 0.221428006887435913 0.034004226326942444 0.012681608088314533 0.189707756042480469 -0.054006990045309067 0.143810048699378967 0.094274371862411499 -0.025026217103004456
