#Layer 0 Weights:
-0.017892697826027870 0.246068447828292847 -0.147937044501304626 0.192774564027786255 0.008134209550917149 0.009744602255523205 0.226627588272094727 -0.188622742891311646 -0.135973960161209106 0.145118191838264465 0.221190452575683594 0.030304331332445145 -0.295883297920227051 -0.174596175551414490 0.002538915025070310 0.104776985943317413 -0.064017601311206818 -0.016764126718044281 0.123196281492710114 0.125156670808792114 -0.004655287601053715 -0.178527280688285828 -0.103483274579048157 0.026900058612227440 0.191893160343170166 0.138316929340362549 -0.015919776633381844 -0.036078814417123795 -0.128922402858734131 -0.223416134715080261 -0.167456075549125671 0.031407311558723450 0.134624436497688293 0.016763549298048019 0.058977030217647552 -0.155684202909469604 -0.263298034667968750 0.258161514997482300 0.188855215907096863 0.170944035053253174 0.121963433921337128 -0.130821973085403442 -0.105188153684139252 -0.110821507871150970 0.169701457023620605 -0.080259017646312714 -0.079635873436927795 0.146436914801597595 -0.070459894835948944 0.131085664033889771 -0.191228225827217102 0.169359773397445679 -0.134358614683151245 0.183053046464920044 -0.059501621872186661 0.058791399002075195 0.243954911828041077 0.004120456054806709 -0.220552995800971985 -0.080553710460662842 0.256814241409301758 -0.087472282350063324 0.210675030946731567 0.349784255027770996 0.188040450215339661 -0.169930860400199890 0.015814514830708504 -0.073705956339836121 0.145533636212348938 0.263920247554779053 0.098950639367103577 0.238781929016113281 0.116576522588729858 -0.163871988654136658 -0.182029470801353455 0.177507996559143066 0.207972288131713867 -0.213756233453750610 0.201479658484458923 0.049178592860698700 -0.239664569497108459 0.123546108603477478 -0.097779124975204468 0.177847489714622498 -0.183713778853416443 -0.217149570584297180 -0.265714079141616821 -0.043920796364545822 0.357005536556243896 0.022454557940363884 -0.050089932978153229 -0.137086451053619385 -0.162522807717323303 -0.180109739303588867 0.204181760549545288 -0.139951214194297791 0.209320709109306335 -0.238690197467803955 0.082105733454227448 0.039014495909214020
0.084896743297576904 -0.344101369380950928 0.050530027598142624 -0.177494868636131287 0.167428210377693176 -0.089817300438880920 -0.054465364664793015 0.175661653280258179 0.147936195135116577 -0.008873977698385715 -0.331061959266662598 0.129934430122375488 0.237163797020912170 0.233982458710670471 0.112312011420726776 -0.001984301954507828 -0.001145158894360065 0.124691486358642578 0.090988330543041229 -0.054884843528270721 -0.033915802836418152 0.081649675965309143 0.182741001248359680 0.141096130013465881 -0.014486199244856834 -0.141831144690513611 -0.142440408468246460 -0.054726429283618927 0.100779905915260315 0.184106022119522095 0.216574311256408691 0.082604750990867615 -0.102970108389854431 -0.095916092395782471 -0.207867994904518127 -0.057987462729215622 0.218455046415328979 -0.013352538459002972 -0.122381366789340973 -0.070235811173915863 0.006701602134853601 0.050417348742485046 0.004301514010876417 0.137779861688613892 -0.222159758210182190 0.230505347251892090 0.038369007408618927 0.019083812832832336 0.180128976702690125 -0.225505143404006958 0.193443506956100464 -0.234525203704833984 0.032763406634330750 -0.205465495586395264 0.066754847764968872 0.107054762542247772 -0.021148709580302238 0.099850438535213470 0.176910459995269775 -0.020757492631673813 -0.199724704027175903 0.238512739539146423 -0.250748962163925171 -0.258559465408325195 -0.199186280369758606 -0.024615023285150528 -0.043715544044971466 -0.062810592353343964 -0.089254699647426605 -0.100541591644287109 0.103801131248474121 -0.131236165761947632 -0.042548421770334244 0.222356408834457397 0.166783452033996582 0.122381716966629028 -0.066010884940624237 0.246583506464958191 -0.102068044245243073 -0.149932458996772766 0.196174129843711853 -0.153531000018119812 -0.136063635349273682 -0.196289703249931335 0.168629854917526245 0.023056859150528908 0.187934234738349915 -0.107389338314533234 -0.244104951620101929 -0.116222195327281952 -0.064858786761760712 0.225580230355262756 -0.034846600145101547 -0.069870226085186005 -0.293061733245849609 0.002418912947177887 -0.083110950887203217 0.139583915472030640 0.110988013446331024 0.005544039886444807
