#Layer 4 Biases:
0.010242574848234653 -0.020459905266761780 0.016300542280077934 0.008434767834842205 -0.017928237095475197 0.025334201753139496 0.000983100733719766 0.023217469453811646 -0.000739953422453254 0.017454721033573151 -0.008523998782038689 -0.018652804195880890 -0.012584635987877846 -0.014965284615755081 0.025691565126180649 -0.003667083801701665 -0.015771772712469101 -0.006338964682072401 -0.011648836545646191 0.036303438246250153 -0.001143215107731521 0.013993384316563606 0.020455883815884590 -0.006232831161469221 0.003657954977825284 -0.026620142161846161 0.004065196029841900 -0.000669030181597918 -0.027364864945411682 0.015132862143218517 -0.005169345531612635 -0.109266117215156555 -0.017348380759358406 -0.017840744927525520 -0.007281459402292967 -0.013296453282237053 -0.037333082407712936 0.027159895747900009 0.010456052608788013 0.046776823699474335 -0.013573258183896542 0.009306908585131168 0.003385552205145359 0.017685905098915100 0.058639589697122574 -0.001174094155430794 -0.001427617273293436 0.007788879331201315 -0.031252250075340271 0.015724547207355499 0.025982318446040154 0.018198402598500252 0.018918583169579506 -0.003535510739311576 -0.020785937085747719 -0.001138693187385798 -0.024156631901860237 -0.028460184112191200 -0.030053963884711266 0.065385781228542328 -0.018674720078706741 -0.027363512665033340 0.035397466272115707 -0.002075251657515764 -0.010961904190480709 0.011662013828754425 0.013218567706644535 0.023771319538354874 0.003358915681019425 0.050612583756446838 -0.019138868898153305 -0.007385444361716509 -0.069678857922554016 0.005529157817363739 0.037147052586078644 0.022154770791530609 -0.012646667659282684 0.009428999386727810 0.011579129844903946 0.016250753775238991 -0.042642641812562943 -0.001949847908690572 0.013126325793564320 -0.037140652537345886 -0.005356314592063427 -0.019988449290394783 -0.027237551286816597 -0.007480821106582880 -0.003366482909768820 -0.094330750405788422 0.040637083351612091 0.070469170808792114 0.018652629107236862 0.007210216019302607 -0.053858205676078796 0.002849149983376265 0.032427888363599777 -0.029940774664282799 -0.011432223953306675 -0.056874584406614304
