#Layer 3 Biases:
-0.018493341282010078 0.028441684320569038 0.002504716627299786 -0.014997605234384537 0.003716234350576997 0.010926217772066593 0.010543202050030231 0.112651929259300232 -0.053506571799516678 0.010829782113432884 0.033056687563657761 0.039591155946254730 -0.026948641985654831 0.020244797691702843 -0.050757676362991333 -0.033378697931766510 0.000482663512229919 -0.018342178314924240 0.027095874771475792 0.000877059006597847 0.009934842586517334 -0.008911107666790485 0.007590831257402897 0.013200347311794758 0.012135591357946396 -0.016631545498967171 0.010309880599379539 -0.013819384388625622 0.003943039104342461 -0.009498223662376404 -0.054772369563579559 0.095739662647247314 -0.002494125161319971 0.012952120043337345 -0.079489350318908691 -0.012530031614005566 0.037177979946136475 -0.010968742892146111 -0.018050771206617355 -0.004332072567194700 -0.000686348066665232 0.055389869958162308 0.045970011502504349 0.008980868384242058 0.004871442448347807 0.012838175520300865 -0.020804708823561668 -0.000583834131248295 0.013265120796859264 0.012527725659310818 -0.047775372862815857 -0.027839394286274910 0.000653842755127698 0.036300554871559143 -0.028797565028071404 0.026130253449082375 -0.000405026687076315 0.038458667695522308 0.028210418298840523 0.005325848236680031 0.018128581345081329 -0.015407944098114967 -0.051619447767734528 0.010536972433328629 -0.027011530473828316 -0.021945552900433540 -0.000068230321630836 0.030019482597708702 -0.019806919619441032 -0.066251426935195923 -0.022394357249140739 -0.015132660046219826 -0.007132112048566341 -0.023413490504026413 0.002503575989976525 0.026568830013275146 -0.023699546232819557 -0.027009775862097740 -0.050989225506782532 -0.009101263247430325 0.005108870565891266 -0.005706463940441608 -0.064153373241424561 -0.076566912233829498 0.027473988011479378 0.039065070450305939 0.043774284422397614 -0.054365228861570358 0.011973523534834385 -0.035963639616966248 -0.028073674067854881 -0.019131561741232872 -0.002993282163515687 -0.005194517318159342 -0.003614628687500954 -0.021805347874760628 -0.017670942470431328 -0.013127345591783524 -0.028176816180348396 0.046902492642402649
