#Layer 1 Biases:
-0.060349304229021072 0.059770617634057999 0.024571664631366730 0.057014267891645432 -0.033480104058980942 -0.014011229388415813 0.073648184537887573 0.066932655870914459 0.017278889194130898 -0.046869650483131409 0.068819105625152588 0.034102935343980789 -0.041083298623561859 0.004673074930906296 -0.057077828794717789 -0.100839547812938690 0.013077083043754101 -0.025528578087687492 0.049483247101306915 -0.042028181254863739 0.032793924212455750 0.047414001077413559 0.042616382241249084 0.022098256275057793 -0.047170009464025497 -0.015714073553681374 -0.052988268435001373 -0.055752497166395187 0.041207794100046158 0.053396843373775482 -0.003481353167444468 0.060993421822786331 0.002277629449963570 -0.043919045478105545 -0.033804893493652344 0.013051150366663933 0.055147849023342133 -0.046944744884967804 0.028550837188959122 -0.000459680595668033 -0.067522414028644562 -0.067369922995567322 -0.045630887150764465 0.017807949334383011 0.031830891966819763 -0.016972979530692101 0.009597719646990299 0.028511987999081612 -0.024170100688934326 -0.014404561370611191 0.020080065354704857 0.010112337768077850 0.043798465281724930 0.054042704403400421 -0.043600153177976608 0.014534145593643188 -0.021261394023895264 0.050423629581928253 -0.058002684265375137 0.007456528488546610 -0.008537122979760170 -0.057602953165769577 -0.014799947850406170 -0.005047949496656656 0.075090862810611725 0.039044190198183060 -0.015765752643346786 -0.058452125638723373 0.101713515818119049 0.003190991701558232 -0.017248626798391342 0.068610593676567078 -0.058064773678779602 -0.050018277019262314 -0.052969384938478470 0.001224719337187707 0.058477707207202911 0.055649813264608383 -0.082470066845417023 -0.006897097919136286 0.095660403370857239 0.009460879489779472 -0.113882116973400116 -0.025289569050073624 0.047979041934013367 -0.061563648283481598 0.054003607481718063 0.050992574542760849 0.088355034589767456 -0.036457266658544540 0.058954183012247086 -0.022529244422912598 0.072655983269214630 0.011419090442359447 -0.037995792925357819 -0.077757738530635834 0.035097990185022354 -0.034093555063009262 0.052842251956462860 -0.019279768690466881
