#Layer 0 Biases:
0.065957747399806976 -0.087797716259956360 0.095687158405780792 -0.074885897338390350 -0.017898114398121834 0.067029364407062531 -0.089997015893459320 -0.014644487760961056 -0.007365537341684103 0.006266935262829065 0.061695672571659088 -0.030871313065290451 0.013936019502580166 0.094724684953689575 -0.035191453993320465 -0.062567062675952911 -0.012184715829789639 0.014832966960966587 0.070825375616550446 0.075651504099369049 -0.023720560595393181 -0.061161570250988007 -0.066497847437858582 0.073778115212917328 0.080518580973148346 -0.017163516953587532 0.045413803309202194 0.037159223109483719 0.009773287922143936 0.033602192997932434 -0.008665623143315315 -0.068739272654056549 -0.023506604135036469 -0.007075381930917501 0.090862974524497986 0.045289289206266403 0.071421116590499878 -0.081960983574390411 -0.059172976762056351 -0.075108230113983154 -0.064525768160820007 0.055476635694503784 0.059989873319864273 -0.001713692443445325 0.016263557597994804 0.100376859307289124 -0.050792422145605087 -0.009622131474316120 0.003219085279852152 -0.015322025865316391 -0.041034530848264694 -0.063177123665809631 0.007190358359366655 -0.066720567643642426 -0.033934429287910461 0.058540958911180496 -0.066575273871421814 0.073491111397743225 0.087968342006206512 -0.048872377723455429 0.060218665748834610 0.080181129276752472 -0.033929456025362015 -0.056034609675407410 -0.043428033590316772 0.025409890338778496 0.052699219435453415 0.004472436383366585 -0.078421071171760559 0.070326380431652069 -0.038298320025205612 0.050451871007680893 -0.034224186092615128 -0.079068586230278015 0.086557827889919281 0.047813083976507187 0.063465721905231476 -0.068768322467803955 -0.071973912417888641 0.062576547265052795 -0.083701297640800476 -0.061188802123069763 0.088401593267917633 0.063037291169166565 0.006085705943405628 0.047233916819095612 -0.001028948696330190 0.011485524475574493 0.044596642255783081 0.023094171658158302 -0.074613898992538452 -0.060456104576587677 -0.011461609974503517 -0.111174970865249634 0.053765609860420227 0.071436591446399689 -0.093781448900699615 0.055321045219898224 0.021475123241543770 0.099270708858966827
