#Layer 5 Biases:
-0.007721399888396263 0.026275573298335075 0.000229316356126219 -0.000633793591987342 0.007898549549281597 0.006208093836903572 0.003219793317839503 -0.028638165444135666 -0.011125218123197556 0.012478859163820744 -0.016716826707124710 -0.030593676492571831 0.004644426517188549 0.007353414315730333 -0.060038603842258453 0.009243063628673553 0.013655868358910084 0.018529480323195457 0.004186282865703106 -0.055066987872123718 0.024077642709016800 -0.009348865598440170 0.001363527262583375 -0.012341315858066082 0.008226065896451473 -0.015723204240202904 0.017544869333505630 -0.007690805941820145 -0.009565294720232487 -0.002712301909923553 -0.000074566967668943 -0.014158683829009533 -0.031105887144804001 -0.015630928799510002 -0.001000260701403022 -0.013595961034297943 -0.020259870216250420 0.006782371085137129 0.024616269394755363 -0.015952445566654205 -0.025243889540433884 0.023404521867632866 -0.016079911962151527 0.008794752880930901 0.000176982008269988 -0.003217968624085188 -0.038482330739498138 0.032804962247610092 0.013652015477418900 -0.028900684788823128 0.005448694340884686 0.012546713463962078 0.005893555935472250 -0.004463172052055597 -0.009185734204947948 0.031313702464103699 -0.027393553406000137 0.013187051750719547 0.000759797520004213 -0.048819247633218765 0.007182898465543985 0.003240756690502167 0.010447338223457336 -0.000758881273213774 -0.009406341239809990 -0.007482846733182669 -0.000571457203477621 -0.008554838597774506 0.008252741768956184 -0.040784310549497604 -0.015706529840826988 0.020621467381715775 0.011768551543354988 -0.000212074068258516 0.008828473277390003 0.015075305476784706 -0.007351714652031660 -0.005162711720913649 0.000866324466187507 0.006420849822461605 0.008127813227474689 -0.002476305700838566 -0.005342191085219383 -0.034015115350484848 -0.028093382716178894 0.010021480731666088 -0.017371103167533875 -0.003825318068265915 0.014111947268247604 -0.003851106623187661 -0.025256456807255745 -0.008735179901123047 0.007758909370750189 0.012014450505375862 0.007226681802421808 0.004202912095934153 0.019531644880771637 0.005489725153893232 -0.030495699495077133 -0.002435436239466071
