#Layer 2 Biases:
0.007476580329239368 -0.003292741952463984 -0.022227639332413673 0.018303588032722473 0.007112833205610514 -0.007792092859745026 -0.038482476025819778 -0.047165654599666595 0.041656468063592911 0.019707420840859413 -0.031092481687664986 -0.043100379407405853 0.074957720935344696 -0.018670175224542618 -0.004297398962080479 -0.015687227249145508 -0.016373308375477791 0.040966574102640152 0.060765668749809265 0.001296848291531205 -0.042959094047546387 -0.049698829650878906 0.012079576961696148 -0.015729054808616638 0.055882871150970459 -0.018499990925192833 -0.015310146845877171 0.000295946869300678 -0.021532908082008362 0.030246105045080185 0.009159246459603310 -0.046555195003747940 -0.018402483314275742 -0.003307139035314322 0.062303081154823303 0.014152367599308491 0.054271757602691650 0.027222365140914917 0.015274252742528915 0.018514689058065414 0.064602777361869812 0.075786069035530090 0.051076363772153854 -0.000820947811007500 -0.000496580905746669 -0.010567019693553448 -0.049750130623579025 0.015018877573311329 -0.043228302150964737 -0.044887829571962357 0.042506136000156403 -0.014941141009330750 -0.026911564171314240 -0.098400965332984924 0.017146481201052666 0.041582442820072174 -0.016737407073378563 -0.022108623757958412 0.004957159049808979 0.110252730548381805 -0.024549739435315132 0.043683115392923355 0.007417170796543360 -0.048393681645393372 0.000505748845171183 0.019704027101397514 -0.003733094083145261 0.002999019809067249 -0.065428413450717926 -0.038861680775880814 0.017023531720042229 0.014004243537783623 0.010932777076959610 0.006542332004755735 -0.000303590117255226 0.000043996456952300 -0.027903074398636818 0.003537554759532213 0.072235926985740662 0.055031210184097290 -0.077739700675010681 0.047315992414951324 0.045121666043996811 0.013432315550744534 -0.004636893980205059 -0.097796447575092316 -0.008977320045232773 0.050702240318059921 -0.028404772281646729 -0.053048081696033478 -0.010307366959750652 0.065746322274208069 -0.033326536417007446 0.047298498451709747 0.018075356259942055 0.029205970466136932 -0.028140652924776077 0.085119336843490601 -0.025982225313782692 -0.041553217917680740
