#Layer 8 Weights:
-0.147434353828430176
0.132628872990608215
-0.211081072688102722
0.016657236963510513
0.158936753869056702
-0.057201690971851349
0.193190857768058777
0.047898899763822556
-0.208663403987884521
-0.101136818528175354
-0.017005598172545433
0.044009279459714890
-0.223014026880264282
-0.087415657937526703
-0.155131250619888306
0.000306791946059093
0.040126435458660126
0.210302829742431641
-0.032716117799282074
-0.193306162953376770
0.056895025074481964
0.134407833218574524
0.196968629956245422
-0.223858207464218140
-0.159286588430404663
0.047578282654285431
0.000267861352767795
-0.052528552711009979
0.000050103542889701
-0.186472639441490173
-0.147552534937858582
0.137761875987052917
0.150345802307128906
0.108162403106689453
-0.030225791037082672
-0.002944281790405512
-0.073182731866836548
0.135969355702400208
0.232232838869094849
0.020489737391471863
0.000064343839767389
-0.131737276911735535
-0.175154343247413635
0.120043329894542694
-0.090217240154743195
-0.162309005856513977
0.128559753298759460
-0.080455161631107330
-0.169400021433830261
0.052712596952915192
-0.108166143298149109
0.153432294726371765
0.008740678429603577
0.092049561440944672
0.035702779889106750
-0.144345164299011230
0.124776534736156464
-0.075112327933311462
-0.178043916821479797
-0.111618600785732269
-0.085781276226043701
-0.082854136824607849
0.104797519743442535
0.056941710412502289
-0.000265590730123222
-0.039623122662305832
-0.063896022737026215
-0.000782378308940679
0.106581993401050568
-0.146149665117263794
0.000429818435804918
-0.073045060038566589
-0.118219599127769470
0.151661902666091919
-0.080350883305072784
-0.191344708204269409
-0.082376249134540558
0.100754067301750183
0.155335977673530579
-0.185682862997055054
0.080336593091487885
0.072092682123184204
-0.020581176504492760
-0.140938818454742432
0.243546664714813232
-0.050963886082172394
-0.047989483922719955
-0.053404182195663452
-0.120191596448421478
-0.138957813382148743
0.034174501895904541
0.013757597655057907
-0.141749367117881775
0.185598179697990417
0.104537986218929291
-0.111493788659572601
0.201518461108207703
-0.023828722536563873
-0.159432500600814819
-0.210699975490570068
