#Layer 0 Weights:
-0.243015676736831665 0.177706018090248108 -0.261801749467849731 0.072503395378589630 0.220491945743560791 -0.121302232146263123 0.276534557342529297 0.123441435396671295 -0.176122874021530151 -0.179457426071166992 -0.077728688716888428 0.071834705770015717 -0.279769688844680786 -0.136036023497581482 -0.133319675922393799 0.099736705422401428 0.009933300316333771 0.156917259097099304 -0.103257037699222565 -0.260249942541122437 0.068172715604305267 0.161292701959609985 0.270329326391220093 -0.279969692230224609 -0.207786142826080322 0.111817963421344757 -0.057085890322923660 -0.063734635710716248 0.023708947002887726 -0.257499992847442627 -0.100313685834407806 0.224370136857032776 0.183250516653060913 0.038743309676647186 -0.095031470060348511 -0.103741146624088287 -0.153543636202812195 0.190363094210624695 0.280382841825485229 0.117076024413108826 0.072325900197029114 -0.214733704924583435 -0.244788616895675659 0.120050065219402313 -0.151721820235252380 -0.221257671713829041 0.236526340246200562 -0.069168195128440857 -0.184386774897575378 0.068574540317058563 -0.100560896098613739 0.220576614141464233 0.028376692906022072 0.171323746442794800 0.091750241816043854 -0.204003676772117615 0.215691715478897095 -0.145996898412704468 -0.261413991451263428 -0.103811971843242645 -0.129213705658912659 -0.145902618765830994 0.111119501292705536 0.121257849037647247 0.007879111915826797 0.002654338022693992 -0.142190635204315186 0.002973793772980571 0.177547276020050049 -0.156683474779129028 0.032935645431280136 -0.111717976629734039 -0.089790455996990204 0.209610655903816223 -0.208875298500061035 -0.225195020437240601 -0.146590203046798706 0.168480724096298218 0.203858375549316406 -0.253141939640045166 0.147820323705673218 0.118506915867328644 -0.142592176795005798 -0.167364180088043213 0.269801020622253418 -0.118336491286754608 -0.000633031711913645 -0.127941697835922241 -0.203201517462730408 -0.154855996370315552 0.101508170366287231 0.079588890075683594 -0.081561900675296783 0.219867840409278870 0.071788810193538666 -0.147440835833549500 0.259683459997177124 -0.062290750443935394 -0.036724459379911423 -0.253122717142105103
0.166161671280860901 -0.068015687167644501 -0.167205080389976501 -0.099886804819107056 -0.270677208900451660 -0.064092054963111877 -0.105619475245475769 -0.096430107951164246 0.055457599461078644 0.064184419810771942 -0.057523816823959351 0.026217285543680191 0.102401368319988251 -0.009730328805744648 0.188336789608001709 0.007157317362725735 0.027056882157921791 0.044691242277622223 -0.160382807254791260 -0.218381226062774658 -0.089191168546676636 0.137339025735855103 -0.149212896823883057 0.008168389089405537 0.020664785057306290 0.215228497982025146 -0.167679697275161743 -0.019527180120348930 -0.131756946444511414 0.062130853533744812 -0.178316861391067505 -0.086022049188613892 -0.115073829889297485 -0.012103066779673100 0.220375165343284607 0.115830287337303162 0.135531410574913025 0.239348888397216797 0.003052825108170509 -0.029605656862258911 0.155647009611129761 0.179470166563987732 0.144292891025543213 -0.062328238040208817 0.186850041151046753 -0.134953483939170837 -0.128822520375251770 0.038332872092723846 0.109428979456424713 0.210803806781768799 -0.159112885594367981 -0.180732950568199158 -0.117158599197864532 -0.092640101909637451 -0.224475264549255371 -0.111858330667018890 -0.101169526576995850 0.107317917048931122 -0.056534241884946823 0.006619754247367382 -0.103289306163787842 -0.182903200387954712 -0.188366606831550598 0.109117574989795685 0.197287783026695251 -0.094989828765392303 -0.166553869843482971 0.000426099344622344 -0.106883525848388672 -0.167409956455230713 0.056632880121469498 -0.223312541842460632 0.013726691715419292 -0.218651697039604187 0.212905153632164001 -0.145161047577857971 -0.206671446561813354 0.021734533831477165 0.149748742580413818 0.161024525761604309 -0.060000397264957428 0.010767807252705097 0.021417988464236259 -0.103867083787918091 -0.173613965511322021 -0.053049191832542419 -0.000110661661892664 0.181829214096069336 0.099514693021774292 0.199040815234184265 -0.111728586256504059 0.084178052842617035 -0.022902311757206917 0.135879531502723694 -0.207256793975830078 -0.118500933051109314 0.212570726871490479 -0.236451432108879089 -0.000819396926090121 -0.099254027009010315
