#Layer 2 Biases:
0.020776871591806412 0.036704529076814651 -0.026576491072773933 -0.004629397299140692 -0.024460103362798691 -0.013180961832404137 0.012784764170646667 0.017305348068475723 -0.016373701393604279 -0.060924112796783447 -0.044546343386173248 -0.025820273905992508 -0.022821316495537758 -0.034946151077747345 0.022013081237673759 0.024020465090870857 0.007426296826452017 -0.051334537565708160 0.045694801956415176 0.035236038267612457 -0.016795622184872627 -0.023533219471573830 -0.039703574031591415 -0.031663686037063599 0.033477466553449631 0.034074921160936356 0.002154096495360136 0.005147065035998821 -0.041518263518810272 0.015824817121028900 0.072192065417766571 0.010215192101895809 0.012326690368354321 0.045472003519535065 0.070274621248245239 -0.040534023195505142 -0.023746883496642113 0.010287588462233543 -0.038801301270723343 -0.090906344354152679 0.035012982785701752 0.050157580524682999 -0.010082836262881756 0.009578937664628029 0.025532696396112442 -0.025913920253515244 -0.012293503619730473 -0.044511586427688599 -0.021463263779878616 0.038235906511545181 0.063735984265804291 -0.042443290352821350 0.022557320073246956 -0.008715210482478142 0.004340903367847204 0.070499114692211151 -0.010214140638709068 -0.003893872722983360 -0.039223499596118927 -0.044281870126724243 -0.062273390591144562 -0.007436518557369709 -0.046612642705440521 -0.000024305774786626 -0.022311614826321602 0.040623791515827179 0.018122613430023193 0.081669859588146210 -0.069069691002368927 -0.007131088059395552 -0.047364532947540283 0.028356136754155159 -0.042226977646350861 0.036820024251937866 0.018004609271883965 -0.037628293037414551 0.043944314122200012 -0.038223888725042343 0.051083017140626907 -0.018644044175744057 0.046408977359533310 0.013637770898640156 0.033176064491271973 0.003767698071897030 0.024149665609002113 -0.035039171576499939 0.041784588247537613 -0.076419278979301453 -0.012809709645807743 -0.046182326972484589 0.014784813858568668 -0.008026293478906155 0.019690088927745819 0.021729685366153717 0.067663043737411499 0.076875589787960052 -0.082651741802692413 -0.042508628219366074 -0.044814962893724442 -0.003681583330035210
