#Layer 0 Biases:
-0.094264134764671326 -0.107937328517436981 -0.117568731307983398 -0.173340171575546265 0.143096670508384705 -0.118871375918388367 -0.032749172300100327 0.224732473492622375 0.069965548813343048 -0.154141291975975037 -0.071706399321556091 0.115090221166610718 -0.114343173801898956 0.121747165918350220 -0.117269642651081085 -0.082282446324825287 -0.060370367020368576 0.120485030114650726 -0.156372442841529846 -0.403880059719085693 0.068467125296592712 -0.136560872197151184 -0.038061216473579407 -0.103585496544837952 0.063665002584457397 0.221253126859664917 -0.168732106685638428 -0.085194326937198639 -0.139457270503044128 0.034780807793140411 0.025434222072362900 0.114765889942646027 -0.139537319540977478 -0.222392469644546509 -0.082060128450393677 0.123036518692970276 -0.033587060868740082 0.061462521553039551 -0.150521144270896912 0.165594369173049927 -0.333852678537368774 0.140674069523811340 -0.154183059930801392 -0.118642285466194153 0.117384687066078186 0.116446867585182190 0.084813870489597321 -0.015344362705945969 0.212674811482429504 0.189124211668968201 -0.155434414744377136 -0.261233836412429810 -0.072543106973171234 -0.272285819053649902 -0.114237837493419647 0.154583916068077087 -0.219020694494247437 0.125017434358596802 -0.086442813277244568 -0.029247399419546127 -0.024801775813102722 -0.044944316148757935 0.128591611981391907 0.045973636209964752 -0.174790680408477783 0.220665737986564636 -0.145704060792922974 -0.049676448106765747 0.014576563611626625 0.174620836973190308 0.017500938847661018 -0.079145409166812897 0.177258864045143127 0.156078889966011047 0.178996160626411438 0.043486926704645157 0.106130115687847137 -0.230212002992630005 -0.233561664819717407 0.281229645013809204 -0.077714562416076660 0.063950695097446442 0.139558315277099609 -0.136826902627944946 0.151824727654457092 0.130881488323211670 -0.052185412496328354 0.029800940304994583 -0.317250847816467285 -0.075980268418788910 0.012162368744611740 0.123598575592041016 0.144116893410682678 -0.183174416422843933 0.215219140052795410 -0.276484221220016479 0.062808237969875336 0.114349804818630219 0.176753327250480652 0.170574307441711426
