#Layer 3 Biases:
0.021909330040216446 -0.009996742010116577 0.041982628405094147 -0.002343866741284728 -0.048484355211257935 -0.001330934581346810 -0.016986193135380745 -0.025707377120852470 0.029110928997397423 0.027651362121105194 -0.015269358642399311 -0.024793788790702820 0.138164535164833069 -0.008981471881270409 0.030240848660469055 0.021384233608841896 0.059060093015432358 0.035980351269245148 0.025075171142816544 0.007042275276035070 0.008898260071873665 -0.022342301905155182 -0.058791976422071457 0.010906077921390533 0.011815399862825871 0.028323104605078697 0.036392923444509506 -0.021341640502214432 0.001356215332634747 -0.045324560254812241 0.025466144084930420 -0.058770194649696350 0.020339399576187134 0.023824211210012436 0.045262746512889862 0.002525604562833905 -0.015266832895576954 0.010504987090826035 0.038527637720108032 -0.030830908566713333 0.002649061847478151 -0.031231451779603958 -0.060947682708501816 -0.011570364236831665 -0.041163444519042969 0.056481756269931793 -0.014685180038213730 0.051569718867540359 0.000842991983518004 -0.005844250321388245 0.027815921232104301 -0.006791233550757170 0.022551232948899269 0.001168890041299164 0.051866404712200165 0.016363924369215965 -0.037747297435998917 0.010892083868384361 -0.044868070632219315 -0.007977521978318691 -0.010848179459571838 0.009377214126288891 0.020612314343452454 -0.007576050236821175 0.027408234775066376 0.030233340337872505 -0.005191960837692022 0.070945560932159424 0.056750185787677765 -0.033328723162412643 -0.024707160890102386 -0.013720031827688217 0.013876141048967838 0.030077733099460602 -0.045379579067230225 0.029577212408185005 0.010963616892695427 -0.061520867049694061 -0.005706345662474632 0.020788734778761864 -0.017493575811386108 0.037578169256448746 0.018261579796671867 -0.009301380254328251 -0.003625400830060244 0.029494727030396461 0.017986949533224106 0.026474334299564362 0.002538769738748670 -0.041549216955900192 -0.025300601497292519 0.037404857575893402 -0.008961266838014126 0.004681141581386328 0.046092387288808823 0.029513411223888397 -0.064746752381324768 0.007494157645851374 -0.022841513156890869 -0.000629629299510270
