#Layer 6 Biases:
0.046676989644765854 -0.092022307217121124 0.059672232717275620 -0.191285938024520874 -0.028948379680514336 -0.058578539639711380 -0.028139632195234299 -0.008998707868158817 -0.013944512233138084 0.023262165486812592 -0.152638390660285950 0.000106347331893630 0.038302153348922729 0.028537062928080559 0.063711144030094147 -0.029027128592133522 -0.013912082649767399 -0.063927352428436279 -0.028737669810652733 -0.006482976954430342 -0.015073953196406364 -0.006854282226413488 0.014253312721848488 -0.046545263379812241 0.009675714187324047 -0.012005844153463840 -0.008886028081178665 0.126930117607116699 -0.000498694949783385 -0.110331289470195770 0.124290123581886292 -0.083426497876644135 0.041850920766592026 0.136442944407463074 -0.047238446772098541 -0.018869977444410324 -0.002243945142254233 0.030919032171368599 0.021593000739812851 -0.058016993105411530 -0.073173947632312775 0.018478188663721085 0.027233660221099854 -0.002525233896449208 0.019951021298766136 -0.030853558331727982 0.055818311870098114 -0.008820839226245880 -0.148238018155097961 0.034381166100502014 -0.054376319050788879 -0.004139626864343882 0.007919888943433762 0.045111443847417831 -0.008870621211826801 -0.093155279755592346 0.064512215554714203 -0.007685477379709482 -0.064800754189491272 -0.027626601979136467 -0.005921999923884869 -0.146921664476394653 -0.024740291759371758 -0.003055757144466043 0.079895868897438049 0.100967653095722198 -0.132364928722381592 0.162043422460556030 -0.125748232007026672 -0.043185412883758545 -0.020951345562934875 -0.005256919655948877 0.042088218033313751 -0.007260039914399385 0.017238073050975800 0.003096449421718717 0.033739812672138214 0.035788714885711670 0.012213556095957756 -0.010887328535318375 -0.031339451670646667 -0.106970332562923431 -0.075850747525691986 0.004196098074316978 -0.073305763304233551 -0.069157652556896210 0.034182384610176086 0.030100259929895401 0.136051088571548462 0.066890664398670197 0.030989632010459900 0.008142797276377678 -0.126292794942855835 0.057382985949516296 0.001708380295895040 -0.055927481502294540 0.002132729627192020 0.094503358006477356 0.074346646666526794 0.119904890656471252
