#Layer 1 Biases:
-0.092402897775173187 -0.040376268327236176 -0.102513305842876434 0.110551327466964722 -0.073235616087913513 0.057710148394107819 0.043274942785501480 -0.144356235861778259 0.127963215112686157 -0.011625772342085838 0.188025951385498047 -0.005483490880578756 0.133810296654701233 0.130462348461151123 -0.070973075926303864 0.069458298385143280 0.024823214858770370 -0.088008739054203033 0.114632032811641693 -0.122733116149902344 -0.012784286402165890 0.027723079547286034 0.123741611838340759 -0.096896544098854065 -0.062465269118547440 0.053873460739850998 -0.157049641013145447 0.010882246308028698 0.184606358408927917 -0.089792378246784210 -0.069340497255325317 0.095878683030605316 -0.000302719156024978 0.138967499136924744 0.096845991909503937 0.027998674660921097 -0.055901903659105301 -0.080899767577648163 -0.078412063419818878 -0.043678436428308487 -0.038721434772014618 0.081711508333683014 -0.026850687339901924 -0.053915046155452728 0.134460330009460449 0.034717530012130737 -0.027337273582816124 -0.163543552160263062 0.021409865468740463 -0.018494082614779472 0.099570550024509430 -0.140843689441680908 0.124052435159683228 0.000009509180927125 0.041305441409349442 -0.004571354482322931 -0.010595587082207203 0.063560120761394501 0.001376429223455489 0.079427585005760193 -0.048747058957815170 0.114325329661369324 -0.086134724318981171 -0.062051441520452499 0.083564415574073792 0.048349663615226746 0.152419939637184143 -0.009309524670243263 0.078336045145988464 -0.076639555394649506 -0.034599512815475464 0.052083298563957214 0.151382282376289368 -0.019210714846849442 -0.108300209045410156 -0.102463930845260620 0.105635166168212891 0.020862843841314316 -0.082735151052474976 0.048709128051996231 0.064093478024005890 -0.125833898782730103 -0.009562687948346138 0.008517167530953884 -0.032481815665960312 0.032480541616678238 0.113794267177581787 0.080079093575477600 0.089941076934337616 -0.141572177410125732 -0.099855042994022369 0.027062535285949707 0.116610497236251831 0.007799186743795872 -0.122488088905811310 -0.041781257838010788 -0.072480477392673492 -0.017465570941567421 -0.131871223449707031 0.093647144734859467
