#Layer 4 Biases:
0.011882719583809376 0.008521384559571743 -0.003818431636318564 -0.026318790391087532 -0.018401367589831352 -0.008129166439175606 -0.017828131094574928 -0.072833999991416931 -0.006970448419451714 -0.004098267760127783 -0.012834515422582626 -0.012718397192656994 -0.007905414327979088 0.009802203625440598 -0.029269823804497719 -0.005526215303689241 -0.008380198851227760 0.030008697882294655 -0.124124154448509216 0.041039358824491501 -0.071577079594135284 0.014331333339214325 -0.015852499753236771 -0.001965111354365945 0.036670014262199402 0.033494625240564346 0.010924587026238441 -0.029195485636591911 -0.047907333821058273 0.062013242393732071 0.016411771997809410 -0.024487359449267387 0.000834352686069906 0.046986196190118790 -0.015290084294974804 0.007159953936934471 0.034112833440303802 0.058846745640039444 -0.040394339710474014 0.008567458949983120 0.035724211484193802 0.021566217765212059 0.058683414012193680 -0.080533251166343689 0.034250739961862564 -0.039311293512582779 0.013088277541100979 0.016340438276529312 -0.044053178280591965 0.011623851954936981 0.021512119099497795 0.043857000768184662 0.018952846527099609 -0.012961980886757374 0.049418833106756210 0.024878403171896935 0.010136558674275875 0.039476502686738968 0.021238185465335846 0.127867624163627625 0.032248899340629578 -0.088126018643379211 0.028582323342561722 0.034117981791496277 0.040584936738014221 -0.040687542408704758 -0.112984836101531982 0.090842537581920624 -0.008210701867938042 0.004891188815236092 0.050389982759952545 -0.007729494944214821 0.029724888503551483 -0.093742042779922485 -0.007116123102605343 0.010846763849258423 -0.029864989221096039 0.026352806016802788 0.008769446983933449 0.001269823987968266 -0.042598906904459000 0.043268751353025436 0.010815851390361786 0.009616960771381855 -0.024496972560882568 0.000919463054742664 0.032373387366533279 0.021683769300580025 0.030331626534461975 0.012005928903818130 0.016462581232190132 -0.043273832648992538 0.085131071507930756 -0.034006569534540176 0.051392681896686554 -0.059954166412353516 -0.012161428108811378 -0.015667473897337914 -0.041219465434551239 -0.030153589323163033
