#Layer 7 Biases:
0.049954790621995926 0.036602966487407684 0.010565438307821751 -0.003386936616152525 0.015258647501468658 -0.001454351935535669 0.038024246692657471 0.046789914369583130 -0.053539592772722244 0.055879823863506317 0.026702195405960083 0.010173104703426361 -0.067506246268749237 0.014431734569370747 -0.006090829148888588 -0.056176062673330307 -0.046028897166252136 -0.017377153038978577 0.011858498677611351 0.004025968257337809 0.036958895623683929 0.009474095888435841 0.070265337824821472 -0.000854550686199218 -0.001138079212978482 -0.012314157560467720 0.079505652189254761 0.006003116723150015 0.019604485481977463 -0.002629751106724143 0.034543700516223907 0.012211198918521404 -0.042317908257246017 0.050562582910060883 -0.048486635088920593 0.007630508393049240 -0.073413290083408356 0.040283806622028351 0.073203727602958679 0.067051090300083160 -0.049449671059846878 0.071274966001510620 0.004128083586692810 0.045822363346815109 0.071920029819011688 -0.048147816210985184 -0.049666408449411392 0.060063946992158890 -0.070200197398662567 0.057164356112480164 -0.000021479085262399 -0.021155951544642448 0.031468164175748825 -0.019684726372361183 0.058449111878871918 0.040492869913578033 -0.013695570640265942 0.009957423433661461 0.057108130306005478 -0.007588456850498915 -0.034749004989862442 0.047261346131563187 0.045472912490367889 0.017408240586519241 0.023733489215373993 0.049907516688108444 -0.068856097757816315 -0.055413141846656799 -0.064576894044876099 -0.016863532364368439 0.001148177077993751 0.073760256171226501 -0.063482597470283508 0.077524557709693909 0.045448221266269684 0.009649542160332203 0.009397646412253380 0.002725786063820124 0.056892652064561844 -0.055284783244132996 0.062488362193107605 0.002581148641183972 -0.053763858973979950 0.006755867507308722 -0.053445316851139069 0.005814511794596910 -0.051191814243793488 0.027099030092358589 0.021303670480847359 0.047226652503013611 0.039503533393144608 -0.005325340665876865 0.075374588370323181 0.046918459236621857 -0.070040114223957062 -0.018108941614627838 -0.072334207594394684 -0.057117789983749390 -0.064023166894912720 -0.021353241056203842
