#Layer 0 Weights:
1.605845689773559570 0.608246505260467529 0.999381005764007568 0.927605092525482178 -0.205217003822326660 0.478085458278656006 -1.053252577781677246 -1.340668082237243652 -0.533276200294494629 0.796567142009735107 -0.969270229339599609 1.342235088348388672 1.165865421295166016 0.401837199926376343 -1.861922383308410645 -0.911112487316131592 0.031883724033832550 -0.499387860298156738 -1.720033049583435059 1.436462044715881348 1.100261926651000977 -0.210925444960594177 0.310150265693664551 -0.581021428108215332 0.289035767316818237 -0.948426663875579834 0.616301178932189941 -1.771375298500061035 -1.831052422523498535 1.665929794311523438 0.393000096082687378 -0.970977246761322021 0.526335239410400391 1.338805079460144043 -0.799886107444763184 -0.729656457901000977 -0.083311319351196289 -0.690381944179534912 -0.968467473983764648 -0.310182780027389526 1.488909125328063965 -0.333769738674163818 0.694596946239471436 0.232066601514816284 -0.637253701686859131 1.276467084884643555 -0.195714190602302551 -1.690358400344848633 -1.432680130004882812 -0.765395224094390869 0.787660539150238037 1.326924204826354980 -0.246736720204353333 1.295227169990539551 0.280711352825164795 -0.342970788478851318 1.044455647468566895 1.610344052314758301 -0.930658876895904541 -0.069490641355514526 -0.247135415673255920 1.241184234619140625 0.833275675773620605 0.375827550888061523 1.245494484901428223 -1.101161003112792969 0.521178662776947021 0.478796303272247314 0.317833423614501953 -1.268299102783203125 -1.140874385833740234 0.951391637325286865 -0.762132227420806885 -0.976614117622375488 1.870811939239501953 -1.250299215316772461 -1.297652602195739746 1.508541822433471680 1.012155294418334961 -1.602405548095703125 1.463188648223876953 -0.576198756694793701 -0.437175363302230835 0.356521487236022949 1.848622798919677734 -0.242021828889846802 -0.790132403373718262 1.361466050148010254 1.236717343330383301 1.320044636726379395 0.367865085601806641 -0.105213001370429993 -0.811225771903991699 0.677332341670989990 -1.172811627388000488 0.989031195640563965 -0.238442033529281616 0.663348615169525146 -0.723938226699829102 -1.111459851264953613
-0.899068951606750488 -0.380138933658599854 -0.646979331970214844 -0.527860701084136963 -0.165984854102134705 0.623907804489135742 1.000671029090881348 0.644095718860626221 -1.295369505882263184 -0.707667112350463867 0.606205284595489502 1.827362656593322754 -0.592521846294403076 1.218504071235656738 -1.750438690185546875 -0.882134199142456055 1.448407649993896484 0.189710751175880432 -0.417547643184661865 0.178590387105941772 -0.626007020473480225 0.466683000326156616 -1.600007772445678711 -1.422556161880493164 1.537508726119995117 0.300940990447998047 0.244280800223350525 -0.168544262647628784 -1.427479982376098633 0.500420153141021729 -0.965445637702941895 1.195699334144592285 0.569179832935333252 -0.937999129295349121 1.164663314819335938 -0.193705424666404724 0.334376096725463867 -1.278188109397888184 1.209963679313659668 -0.457104414701461792 -0.627925693988800049 -0.367408692836761475 0.311835646629333496 -1.514199495315551758 -1.162737965583801270 1.205016970634460449 -0.832227230072021484 1.123467087745666504 0.541505694389343262 0.047625005245208740 0.448547571897506714 -0.444947600364685059 1.296178340911865234 0.166367396712303162 0.565227270126342773 -0.779942512512207031 0.028394721448421478 0.697232544422149658 -1.021362781524658203 -1.124631643295288086 -1.245212316513061523 -0.875842332839965820 1.428665518760681152 1.136132717132568359 -0.713826358318328857 0.228452086448669434 0.557463467121124268 0.645337820053100586 1.243557214736938477 0.738426744937896729 0.904684185981750488 -1.551384806632995605 1.682434082031250000 -0.430777221918106079 1.589921593666076660 0.808747887611389160 0.638364613056182861 -0.326496392488479614 -0.293874889612197876 0.536992907524108887 -1.404518008232116699 -0.320907384157180786 -0.209209516644477844 -1.135542035102844238 0.955981433391571045 1.135849833488464355 -1.034205675125122070 -0.715211689472198486 -0.530200898647308350 0.080357022583484650 -1.352752566337585449 -0.054587189108133316 0.263808965682983398 0.409048259258270264 0.148826971650123596 0.234694540500640869 1.430438280105590820 1.527094721794128418 -0.033342756330966949 1.239309310913085938
