#Layer 8 Weights:
-0.108992211520671844
-0.109273672103881836
0.000065747131884564
-0.101396262645721436
-0.011271616443991661
0.003996385727077723
-0.169214531779289246
0.176121696829795837
-0.155762493610382080
0.185447186231613159
-0.004407611675560474
0.024291522800922394
-0.098699875175952911
0.000527382653672248
0.024945491924881935
0.136333912611007690
-0.172927841544151306
-0.059537801891565323
0.111684225499629974
0.000899399223271757
0.181419879198074341
-0.082699820399284363
0.120261445641517639
-0.005261870101094246
-0.005533851683139801
0.000814087397884578
-0.198882550001144409
-0.121648684144020081
-0.005137588828802109
0.039374742656946182
0.207355722784996033
0.141156896948814392
-0.106079891324043274
-0.200023695826530457
-0.109057791531085968
0.006122143473476171
-0.170067176222801208
0.123548753559589386
0.081238232553005219
0.228307321667671204
0.144008293747901917
0.240189895033836365
-0.226907044649124146
-0.161467656493186951
-0.156683042645454407
0.037439420819282532
0.063849240541458130
-0.148513972759246826
-0.166807070374488831
0.170667126774787903
0.002228453988209367
-0.053980953991413116
-0.053247451782226562
0.136994004249572754
0.100377418100833893
-0.229806259274482727
0.002670471789315343
0.150915622711181641
0.212484151124954224
-0.000860730418935418
-0.043192908167839050
-0.218057066202163696
-0.130776748061180115
-0.000043416366679594
-0.108276247978210449
0.053559646010398865
0.218554541468620300
0.126767769455909729
-0.177175387740135193
-0.001277181785553694
-0.051111329346895218
0.102369129657745361
0.129549399018287659
-0.153784126043319702
-0.236421063542366028
0.009717871434986591
0.076842881739139557
-0.067178837954998016
-0.139467537403106689
0.211431100964546204
0.166046962141990662
0.000665569677948952
0.031565550714731216
0.002949301386252046
0.084227278828620911
-0.105137445032596588
0.123320937156677246
-0.037597957998514175
0.109869085252285004
-0.008811141364276409
0.044367950409650803
-0.021330989897251129
-0.201578989624977112
0.042943529784679413
-0.108420886099338531
-0.077868409454822540
-0.179653242230415344
-0.205588370561599731
-0.088273577392101288
0.190844729542732239
