#Layer 4 Biases:
0.018102549016475677 0.002071616239845753 -0.098238050937652588 -0.030811294913291931 -0.006994296330958605 0.035688430070877075 -0.014372842386364937 0.139938175678253174 0.089202933013439178 -0.113198995590209961 0.013526136055588722 0.001783724059350789 -0.049273230135440826 -0.004577505402266979 -0.031702637672424316 0.025624671950936317 0.171444937586784363 0.001982559682801366 0.013349588960409164 0.040280550718307495 -0.010436903685331345 0.003657310735434294 -0.005434410646557808 -0.033222854137420654 -0.111922316253185272 0.027686635032296181 -0.015108452178537846 0.028784910216927528 0.021954648196697235 -0.000486946373712271 0.025328379124403000 -0.039762750267982483 -0.007142164744436741 -0.018089422956109047 -0.008782790042459965 -0.061372101306915283 0.182543203234672546 -0.014229257591068745 -0.028667528182268143 0.018908398225903511 -0.075857333838939667 0.048513948917388916 -0.002970785135403275 -0.012375234626233578 0.001339646056294441 -0.002731101121753454 0.087489984929561615 0.017999870702624321 0.081368252635002136 0.146089956164360046 0.048726823180913925 -0.031478486955165863 -0.004663941450417042 0.068318091332912445 0.049494661390781403 0.082548476755619049 0.087773211300373077 -0.045394029468297958 -0.066871620714664459 -0.035002846270799637 0.039299335330724716 -0.007062301971018314 -0.005474544595927000 -0.094219893217086792 -0.073027744889259338 0.050272397696971893 -0.114550322294235229 -0.017793662846088409 -0.178989738225936890 0.059038739651441574 -0.001170416478998959 0.020016863942146301 -0.024562694132328033 -0.023874567821621895 -0.056755397468805313 0.010987729765474796 0.019123315811157227 -0.005470071453601122 0.037959706038236618 0.049120642244815826 -0.011755882762372494 -0.078849270939826965 -0.085340254008769989 0.044413384050130844 -0.048410076647996902 -0.000003285305410827 -0.063996449112892151 0.065871238708496094 0.134345203638076782 -0.060568418353796005 0.020066108554601669 0.024669641628861427 -0.001201686915010214 0.038194417953491211 -0.045470286160707474 -0.026582714170217514 -0.029111515730619431 0.023144893348217010 -0.074244439601898193 -0.031624104827642441
