#Layer 7 Biases:
0.019973585382103920 0.015409999527037144 -0.015313030220568180 0.020893875509500504 -0.002682358957827091 0.015620369464159012 0.024671012535691261 -0.019925795495510101 -0.007071917876601219 0.004919406957924366 -0.019815126433968544 -0.011514276266098022 0.005092229228466749 -0.027368454262614250 0.002495516091585159 -0.004226022865623236 0.018858760595321655 0.018117351457476616 0.024388385936617851 -0.003693874459713697 -0.025433667004108429 -0.009732861071825027 -0.016179708763957024 -0.011489281430840492 0.034313894808292389 -0.004463790915906429 -0.021674340590834618 -0.017335962504148483 0.001042541116476059 0.054049767553806305 0.046581488102674484 -0.027850696817040443 -0.034057274460792542 0.026895053684711456 -0.021643346175551414 -0.008326678536832333 -0.020244264975190163 0.016341803595423698 -0.006621979642659426 -0.018873570486903191 -0.002607407746836543 0.028424164280295372 -0.005929159000515938 -0.029852977022528648 -0.003634165273979306 0.016695581376552582 -0.002665220759809017 0.030412521213293076 -0.002672572620213032 0.033834271132946014 -0.010912133380770683 -0.024365991353988647 0.006693811621516943 0.022946704179048538 0.021594887599349022 0.012752830982208252 -0.045688487589359283 0.021014729514718056 -0.016394862905144691 0.010424064472317696 0.043562967330217361 -0.014389907941222191 0.009170580655336380 0.023328989744186401 0.003293004818260670 -0.018188912421464920 -0.017730344086885452 0.002968657994642854 -0.012517775408923626 0.008635035715997219 0.003212142037227750 -0.012261430732905865 0.006493717432022095 -0.014046245254576206 -0.024440221488475800 -0.020205453038215637 -0.026538824662566185 -0.030801773071289062 0.019821872934699059 -0.043827939778566360 0.001731219235807657 0.021943183615803719 -0.003228072077035904 -0.013467180542647839 -0.005699954461306334 -0.024389453232288361 0.010172194801270962 -0.017910389229655266 0.029665315523743629 0.027221441268920898 -0.036909166723489761 -0.034159503877162933 0.010888420045375824 -0.026477731764316559 0.023453896865248680 -0.008523227646946907 -0.029061131179332733 -0.017353558912873268 0.028196318075060844 -0.001724065630696714
