#Layer 3 Biases:
0.024655567482113838 0.064457431435585022 0.003753395285457373 0.000521887734066695 0.052551280707120895 -0.021486615762114525 0.085211724042892456 0.024790873751044273 0.027523718774318695 0.036281444132328033 -0.041723653674125671 0.068975090980529785 -0.063396312296390533 -0.061293665319681168 -0.022247720509767532 -0.074010960757732391 0.075798340141773224 -0.012463955208659172 0.068439289927482605 -0.014662582427263260 0.006867388263344765 0.060860302299261093 -0.124659046530723572 -0.013018094934523106 0.015780666843056679 0.016246583312749863 0.060360074043273926 -0.054783795028924942 -0.073250338435173035 0.220738708972930908 -0.021449707448482513 -0.026483589783310890 -0.081400915980339050 -0.012482835911214352 0.013089357875287533 0.024103706702589989 0.069710098206996918 0.007343288976699114 0.135292261838912964 -0.008022013120353222 0.070981465280056000 -0.026135604828596115 0.031026961281895638 0.039700936526060104 -0.138090416789054871 -0.051189027726650238 0.078397631645202637 0.002609007759019732 0.010182303376495838 0.040137361735105515 0.043061308562755585 -0.016376007348299026 0.018511049449443817 -0.044306010007858276 -0.055199455469846725 0.049541361629962921 0.015656596049666405 0.005610180553048849 0.015526529401540756 0.049953807145357132 -0.058102231472730637 0.017986997961997986 0.008464601822197437 -0.006205321755260229 0.052798163145780563 -0.034893155097961426 0.057249866425991058 -0.033357240259647369 -0.060266993939876556 0.033148493617773056 0.032791100442409515 -0.030110726132988930 0.024078238755464554 -0.004698768723756075 -0.006217936985194683 -0.048485592007637024 0.080599449574947357 -0.080094851553440094 0.011081246659159660 -0.013115765526890755 0.023851349949836731 -0.019871568307280540 0.109415560960769653 -0.072930291295051575 -0.049873009324073792 -0.028082797303795815 0.034639198333024979 0.006987949367612600 0.046468220651149750 -0.015796434134244919 0.021392168477177620 0.060340486466884613 -0.022091947495937347 0.054575048387050629 -0.047582868486642838 0.025169163942337036 0.019656470045447350 -0.007422299124300480 -0.020290978252887726 0.053045973181724548
