#Layer 2 Biases:
0.026810422539710999 0.104591988027095795 -0.097476206719875336 0.064113393425941467 0.015457237139344215 0.052057974040508270 0.005679850932210684 0.074780181050300598 -0.011072320863604546 -0.134519711136817932 -0.058857277035713196 0.066463328897953033 -0.084089249372482300 0.061951432377099991 0.052702873945236206 0.055260840803384781 -0.045237224549055099 0.001011164858937263 -0.061465959995985031 -0.046791721135377884 -0.041902188211679459 -0.079749912023544312 -0.121614962816238403 0.035601977258920670 0.015134447254240513 -0.001732611563056707 0.013871750794351101 0.014308017678558826 0.007390448357909918 0.107665076851844788 0.015201065689325333 0.032169189304113388 0.002948299283161759 0.110025838017463684 -0.065701559185981750 0.025872642174363136 -0.062373608350753784 -0.092614270746707916 0.009091805666685104 -0.020049266517162323 0.004526320844888687 0.080553345382213593 0.063086338341236115 -0.007020363584160805 0.007413145154714584 -0.020852958783507347 0.094372659921646118 0.106608726084232330 0.037969950586557388 -0.045479174703359604 0.010963632725179195 -0.012389238923788071 0.025612829253077507 -0.057168640196323395 0.048072990030050278 0.011069595813751221 0.094071410596370697 -0.037713095545768738 0.021631876006722450 -0.068342968821525574 0.001019530231133103 0.081389978528022766 -0.004991521127521992 0.071068584918975830 0.073322013020515442 0.084828913211822510 -0.011354165151715279 -0.043393839150667191 -0.046677052974700928 0.029797691851854324 -0.066242702305316925 -0.055148746818304062 -0.053889635950326920 -0.005165592301636934 0.083273328840732574 -0.037199068814516068 0.027581168338656425 0.012123239226639271 -0.043031178414821625 0.052890308201313019 0.042709011584520340 -0.035202883183956146 0.036738559603691101 -0.006929507944732904 0.044024206697940826 0.063656561076641083 0.027171025052666664 0.043031908571720123 0.125983983278274536 0.048868063837289810 -0.066543467342853546 -0.086174190044403076 0.063418991863727570 -0.040034350007772446 -0.072412773966789246 0.061314601451158524 0.002274538855999708 -0.030249692499637604 -0.017385412007570267 -0.018105326220393181
