#Layer 0 Biases:
-0.074191823601722717 -0.070764005184173584 0.123523250222206116 0.067092552781105042 -0.178541392087936401 -0.063628107309341431 0.021769782528281212 0.078922331333160400 -0.027112411335110664 0.016805754974484444 -0.018332637846469879 0.086117208003997803 0.077566012740135193 -0.081373617053031921 0.118033103644847870 0.065764509141445160 0.116086162626743317 -0.082663461565971375 -0.018401740118861198 -0.075743936002254486 0.043134301900863647 0.036492280662059784 -0.041774891316890717 -0.096931144595146179 0.023316282778978348 0.047343697398900986 0.102446541190147400 -0.073702603578567505 0.079455077648162842 0.031888797879219055 -0.069378711283206940 0.022882126271724701 0.027934664860367775 0.034170154482126236 0.115013368427753448 0.028427781537175179 -0.073126420378684998 -0.081785410642623901 0.056049108505249023 0.007206428796052933 0.028564048931002617 -0.180003628134727478 -0.024951530620455742 0.112665377557277679 -0.061132036149501801 -0.107153922319412231 0.069134324789047241 -0.195553496479988098 0.009110849350690842 -0.098677068948745728 -0.089638121426105499 0.174108579754829407 -0.037707280367612839 -0.157452553510665894 -0.115185573697090149 -0.167932778596878052 0.085495360195636749 -0.100314415991306305 0.088164247572422028 0.195206031203269958 -0.034184668213129044 0.040261492133140564 0.072610236704349518 0.085303112864494324 -0.035142157226800919 -0.130098968744277954 0.062944047152996063 -0.059951007366180420 0.195819780230522156 -0.119776852428913116 0.116486802697181702 0.017445432022213936 0.071084275841712952 -0.073381453752517700 0.056270793080329895 -0.122559666633605957 0.101468145847320557 0.108551494777202606 0.156116411089897156 0.085603602230548859 -0.088488020002841949 -0.219842672348022461 0.165198415517807007 -0.136551260948181152 0.097684338688850403 -0.098398417234420776 0.085895448923110962 0.024199640378355980 -0.127252176403999329 -0.130506619811058044 0.103594817221164703 0.159328863024711609 -0.055367406457662582 0.022175487130880356 -0.118144407868385315 -0.149999484419822693 0.086119547486305237 0.129273965954780579 -0.036650843918323517 0.104262113571166992
