#Layer 5 Biases:
0.042542945593595505 0.092197030782699585 -0.013713881373405457 0.062504626810550690 0.077344954013824463 0.052536200731992722 0.090509824454784393 -0.010967644862830639 0.016979018226265907 -0.018841352313756943 0.012821988202631474 0.001571278204210103 0.028258478268980980 0.028585458174347878 0.051496863365173340 -0.031191589310765266 0.115744233131408691 0.019870543852448463 0.082387484610080719 0.029986899346113205 -0.012372394092381001 -0.010845886543393135 -0.025069465860724449 0.006211573258042336 -0.100261256098747253 0.039982374757528305 0.000350444257492200 0.077356822788715363 0.007155710365623236 -0.170732989907264709 -0.057697214186191559 0.007339578587561846 -0.004097169265151024 -0.095782242715358734 -0.022378325462341309 -0.026362592354416847 -0.020124031230807304 0.019507076591253281 0.039430271834135056 0.029028095304965973 -0.079548589885234833 0.067596919834613800 0.096761576831340790 -0.087846018373966217 0.013979927636682987 -0.139659792184829712 0.070845268666744232 -0.032497212290763855 -0.028266308829188347 0.029362816363573074 0.034594375640153885 -0.090754531323909760 0.016519419848918915 0.012022755108773708 0.071772173047065735 0.003377887420356274 0.004678606055676937 0.090012773871421814 0.054760612547397614 -0.063227355480194092 -0.007543805055320263 -0.006734198424965143 0.018768286332488060 0.019757613539695740 0.011628046631813049 0.040845490992069244 0.001508917659521103 -0.045180458575487137 -0.057967364788055420 0.046300198882818222 -0.090774200856685638 0.069126553833484650 0.019241996109485626 -0.020305499434471130 0.012620590627193451 0.058481365442276001 -0.001319496659561992 0.010536237619817257 -0.044200167059898376 -0.016905378550291061 0.023982180282473564 -0.024428727105259895 0.006632188800722361 -0.025701303035020828 -0.000259874621406198 0.006104893516749144 -0.019804708659648895 0.016569077968597412 -0.015519886277616024 0.027892790734767914 -0.081186033785343170 -0.141000136733055115 -0.063574150204658508 0.035600624978542328 -0.094268895685672760 0.043927356600761414 0.015535333193838596 -0.005356104578822851 0.020593805238604546 -0.060117982327938080
