#Layer 8 Weights:
0.121925346553325653
0.044541034847497940
-0.191708892583847046
-0.028780298307538033
0.191276863217353821
-0.047405630350112915
-0.150662630796432495
-0.107537746429443359
0.031993728131055832
-0.023871816694736481
0.018413554877042770
-0.118865482509136200
-0.136631146073341370
0.061094764620065689
-0.033679325133562088
-0.014900371432304382
-0.184481114149093628
0.190296813845634460
0.188778951764106750
0.099824942648410797
-0.106896951794624329
-0.031474545598030090
-0.007033948320895433
0.119906999170780182
0.175233215093612671
-0.258336544036865234
-0.174218758940696716
0.007631800603121519
-0.210678189992904663
0.172199591994285583
0.170076072216033936
-0.137646168470382690
-0.072087049484252930
0.031037200242280960
-0.199347510933876038
-0.153020232915878296
0.103822566568851471
0.012065152637660503
-0.083436354994773865
0.001710525713860989
-0.217534780502319336
-0.007240748032927513
0.155567273497581482
-0.170472353696823120
0.193893224000930786
0.006063987035304308
-0.125575065612792969
0.104418799281120300
-0.099613249301910400
0.184294313192367554
0.174657255411148071
-0.195850312709808350
0.167321309447288513
0.114716641604900360
0.135411351919174194
-0.012927541509270668
-0.203389987349510193
0.160306230187416077
-0.094607822597026825
-0.014043262228369713
0.113664142787456512
-0.134280815720558167
0.066322334110736847
-0.187705442309379578
-0.010147386230528355
-0.091897577047348022
-0.113715410232543945
0.203890830278396606
-0.152785167098045349
-0.003908561542630196
-0.190030932426452637
-0.121129475533962250
-0.179906815290451050
0.002913218224421144
0.183470934629440308
-0.038813993334770203
-0.185062170028686523
-0.016996296122670174
0.019866256043314934
-0.176812693476676941
0.130028516054153442
0.089767642319202423
-0.117958568036556244
-0.143502250313758850
-0.089311756193637848
-0.188032925128936768
-0.169775873422622681
0.185268461704254150
0.054477684199810028
0.135169386863708496
-0.117323860526084900
-0.055113188922405243
0.038604237139225006
-0.053269103169441223
0.091773435473442078
0.174046963453292847
-0.203374832868576050
-0.238355323672294617
0.119074597954750061
0.016120109707117081
