#Layer 0 Weights:
0.005967943929135799 0.119059473276138306 -0.214090943336486816 0.118191041052341461 0.067701019346714020 -0.034329097718000412 -0.220284834504127502 -0.245720967650413513 0.077749729156494141 -0.085469380021095276 0.083833657205104828 -0.163910597562789917 -0.189581379294395447 0.034097053110599518 -0.074240311980247498 -0.095523908734321594 -0.206848725676536560 0.242838785052299500 0.137906476855278015 0.210651829838752747 -0.261271476745605469 -0.107823997735977173 -0.100127995014190674 0.160986632108688354 0.221370488405227661 -0.201584100723266602 -0.249549850821495056 -0.123446799814701080 -0.268114596605300903 0.229949176311492920 0.242620274424552917 -0.172020405530929565 -0.152034968137741089 0.090753361582756042 -0.170888125896453857 -0.247199639678001404 0.175900310277938843 -0.038227558135986328 -0.116687320172786713 -0.131199613213539124 -0.149046272039413452 -0.047549571841955185 0.052284821867942810 -0.203172490000724792 0.037474777549505234 0.007240082137286663 -0.086171172559261322 0.056917373090982437 -0.205540388822555542 0.114832326769828796 0.235578536987304688 -0.252713561058044434 0.147087812423706055 0.084392458200454712 0.193112745881080627 -0.068959690630435944 -0.260608345270156860 0.023373834788799286 -0.002988342661410570 0.084352985024452209 0.242381632328033447 -0.291626513004302979 0.148383870720863342 -0.202469587326049805 -0.123597972095012665 -0.148343086242675781 0.005504260305315256 0.284427851438522339 -0.094603598117828369 0.093844152987003326 -0.209951072931289673 -0.123160436749458313 -0.221564859151840210 0.006314469501376152 0.196234047412872314 -0.166175767779350281 -0.189603149890899658 -0.090045325458049774 0.102747380733489990 -0.303491920232772827 0.258576989173889160 0.037122599780559540 -0.152866229414939880 -0.124804340302944183 -0.158936485648155212 -0.184532999992370605 -0.214975431561470032 0.149770438671112061 -0.031008809804916382 0.095571123063564301 -0.210918083786964417 -0.124683238565921783 0.076729260385036469 -0.042870663106441498 0.153925552964210510 0.148991256952285767 -0.299922615289688110 -0.253978699445724487 0.121269263327121735 -0.027483597397804260
0.059292148798704147 -0.059264928102493286 -0.075282417237758636 -0.132769942283630371 0.046074219048023224 0.071292348206043243 0.120117247104644775 0.166685432195663452 -0.057296767830848694 0.174453169107437134 -0.117580838501453400 0.060344565659761429 0.119372770190238953 -0.038843162357807159 -0.038403727114200592 -0.002660607686266303 0.084891632199287415 -0.180965423583984375 -0.135577678680419922 -0.123255670070648193 0.199930459260940552 0.089795112609863281 0.052889920771121979 -0.072787910699844360 -0.273518055677413940 -0.047247122973203659 0.075168572366237640 0.180965766310691833 0.066934429109096527 -0.324656248092651367 -0.174386382102966309 0.151704341173171997 0.128431424498558044 -0.048441108316183090 -0.048089072108268738 0.225117176771163940 -0.117741458117961884 0.089847154915332794 0.061716847121715546 0.167940333485603333 -0.115542210638523102 0.153632089495658875 0.169843360781669617 0.086341969668865204 0.006007418502122164 0.034567449241876602 0.035554483532905579 0.089455217123031616 0.172829702496528625 -0.078116402029991150 -0.129606232047080994 0.040907822549343109 -0.067203812301158905 0.059977836906909943 -0.026968108490109444 0.140186890959739685 0.081112571060657501 -0.039033923298120499 -0.124292314052581787 -0.144300416111946106 -0.225154325366020203 0.242167592048645020 -0.219419598579406738 -0.029284598305821419 0.076643295586109161 0.252380490303039551 -0.045840051025152206 -0.225330859422683716 -0.092533372342586517 0.056417260318994522 0.033980123698711395 0.124807134270668030 0.133004993200302124 -0.011227992363274097 0.069448240101337433 0.275294721126556396 -0.056006293743848801 -0.040682204067707062 -0.223209351301193237 0.247325196862220764 -0.180045887827873230 0.119697339832782745 -0.050874829292297363 0.166408360004425049 0.091104276478290558 -0.270319938659667969 0.090653143823146820 -0.091169796884059906 0.082737155258655548 0.004049710463732481 0.087737053632736206 -0.139002561569213867 -0.052198678255081177 0.026954514905810356 -0.014401030726730824 0.015992032364010811 0.206466898322105408 0.023083968088030815 0.002763854339718819 -0.026524623855948448
