#Layer 7 Biases:
-0.006481559947133064 -0.017752358689904213 -0.030206024646759033 0.003781481878831983 0.011227888055145741 -0.001413603196851909 -0.006603894289582968 0.002331489697098732 -0.002426814753562212 -0.002776885405182838 -0.012330172583460808 -0.002407289342954755 -0.014645368792116642 0.002931076800450683 0.001920650131069124 -0.008105244487524033 -0.004067140165716410 -0.010768977925181389 0.016064550727605820 0.004491531755775213 -0.015761543065309525 -0.002545573981478810 -0.020978463813662529 -0.019438140094280243 -0.000297501508612186 -0.007756821345537901 -0.002473530592396855 -0.011032772250473499 0.018784338608384132 0.003177364356815815 -0.009874001145362854 -0.001835001516155899 -0.000361622456694022 -0.009549146518111229 -0.008233183063566685 0.009752899408340454 -0.011158929206430912 0.000588973169215024 -0.007958897389471531 -0.002282308181747794 0.000535637664142996 0.005640272516757250 -0.002968848682940006 0.002444935962557793 0.014826349914073944 -0.004618901293724775 0.004583130590617657 0.005684323608875275 0.006287559401243925 0.001254047849215567 0.002569268923252821 0.003449575742706656 -0.004445048514753580 -0.001506326952949166 0.016951303929090500 0.008477956056594849 0.000261385896010324 -0.003654654137790203 -0.019717117771506310 0.025878472253680229 -0.031290806829929352 0.020671138539910316 0.015879016369581223 -0.015147680416703224 -0.000547966221347451 -0.008392665535211563 -0.005049479659646749 -0.005669547244906425 0.003333392087370157 0.001727124210447073 -0.004805827047675848 -0.007430362980812788 0.000321636878652498 -0.014069448225200176 -0.000708951964043081 -0.024183433502912521 -0.027688609436154366 -0.001349902595393360 -0.000015242560039042 -0.007232705596834421 0.001526923268102109 0.000186645964276977 0.003632735926657915 0.009428451769053936 -0.004260165616869926 -0.009954182431101799 -0.031615115702152252 0.000132498986204155 0.007860594429075718 0.001862558186985552 0.014942537061870098 -0.009227621369063854 -0.003690801095217466 0.001149028423242271 -0.015737785026431084 -0.009063873440027237 0.006635533645749092 0.014130144380033016 0.005925479810684919 -0.017255418002605438
