#Layer 1 Biases:
-0.034852892160415649 -0.006939994636923075 0.036386858671903610 -0.051690064370632172 0.028191482648253441 0.046341422945261002 -0.049160633236169815 -0.018587172031402588 0.000221294409129769 -0.116648845374584198 -0.014554247260093689 -0.044443197548389435 -0.066741213202476501 -0.044507440179586411 0.059096254408359528 0.095432929694652557 0.073325037956237793 0.013781773857772350 -0.054274193942546844 0.043063405901193619 -0.007128029596060514 -0.034996382892131805 0.063877403736114502 -0.072484306991100311 0.058308936655521393 -0.047831632196903229 0.011685741133987904 -0.012508283369243145 0.041793487966060638 0.000712670735083520 0.040375754237174988 -0.060641836374998093 0.013561423867940903 0.042955782264471054 0.033482577651739120 -0.045980729162693024 0.016343180090188980 -0.033489119261503220 -0.051604289561510086 -0.045394774526357651 0.050650253891944885 0.030764779075980186 -0.024876056239008904 -0.053340673446655273 -0.037529166787862778 0.045264609158039093 0.023250333964824677 -0.054835971444845200 0.048784878104925156 -0.013272999785840511 -0.008054066449403763 -0.046928033232688904 -0.027435209602117538 0.009258170612156391 -0.003886015852913260 -0.056664831936359406 -0.004772561602294445 -0.039169624447822571 -0.043444607406854630 0.013956439681351185 -0.029597897082567215 0.011766382493078709 0.059958774596452713 -0.047658205032348633 -0.048237901180982590 0.061980683356523514 -0.006035542581230402 0.017552442848682404 0.015193440951406956 0.012102012522518635 0.040862329304218292 -0.021151604130864143 0.038808833807706833 0.023162359371781349 0.002461310941725969 0.006913677323609591 -0.006939122918993235 0.034442115575075150 -0.050748627632856369 -0.084800049662590027 -0.006212074309587479 0.013964404352009296 0.042061004787683487 -0.061939757317304611 -0.057858724147081375 0.029290776699781418 -0.012778820469975471 -0.030395705252885818 -0.065395027399063110 0.060411486774682999 -0.015525317750871181 0.069583877921104431 -0.032681781798601151 0.038687780499458313 -0.044709615409374237 0.049334898591041565 0.076182834804058075 0.072392836213111877 -0.045348521322011948 0.032931972295045853
