#Layer 5 Biases:
0.006251477170735598 0.035227011889219284 0.007563850842416286 0.019974881783127785 0.002925928682088852 -0.011070751585066319 -0.005187381990253925 0.006676173303276300 0.007013111375272274 -0.002388528315350413 -0.007959781214594841 -0.005059873685240746 -0.008704683743417263 -0.006883195135742426 -0.040895733982324600 0.016361584886908531 -0.005670618731528521 0.015148944221436977 0.009081163443624973 -0.001012739376164973 -0.003045061836019158 0.005007280502468348 0.033025205135345459 -0.004996617324650288 -0.014061243273317814 0.047532521188259125 0.019713792949914932 -0.001949678640812635 -0.001730773714371026 -0.001981445821002126 -0.026720242574810982 0.008310193195939064 0.059458669275045395 0.001293680514208972 0.029699267819523811 -0.008998219855129719 -0.007490124087780714 0.010547933168709278 -0.014957571402192116 -0.046020269393920898 -0.004364000633358955 0.010442252270877361 0.009624833241105080 -0.009176624007523060 -0.098478682339191437 0.006871287245303392 0.010578677989542484 -0.010047183372080326 0.030898818746209145 0.042547073215246201 -0.009688688442111015 -0.006285451352596283 -0.016839426010847092 -0.006876480765640736 0.015338769182562828 -0.008326112292706966 -0.008795633912086487 -0.003447788767516613 0.032497748732566833 0.003859449177980423 -0.051041465252637863 -0.001112082507461309 -0.001086178235709667 -0.027155848219990730 0.117519475519657135 0.027715690433979034 0.007231199182569981 -0.008532725274562836 -0.029463991522789001 -0.015016852878034115 -0.000196292152395472 -0.035318475216627121 0.008374496363103390 0.040734730660915375 0.006315941456705332 0.015296484343707561 0.004822236485779285 -0.030939133837819099 -0.093739196658134460 -0.001711125136353076 -0.001401488669216633 0.009409487247467041 0.012054285965859890 -0.060108657926321030 0.006548473611474037 0.001550385961309075 -0.001753872027620673 -0.005699001252651215 -0.017705872654914856 0.001982748508453369 -0.007520975545048714 -0.008578533306717873 0.011248979717493057 -0.002049018396064639 -0.033716049045324326 0.013961671851575375 0.032859258353710175 -0.038379453122615814 0.004338181577622890 -0.012423110194504261
