#Layer 3 Biases:
-0.031321614980697632 0.034245681017637253 0.006258230656385422 0.023574348539113998 0.033362176269292831 -0.037154581397771835 -0.012763023376464844 0.007947210222482681 0.018162999302148819 -0.042310968041419983 0.028981059789657593 0.005269068758934736 -0.064390718936920166 -0.043563630431890488 0.038233455270528793 0.028659073635935783 -0.094795189797878265 0.013555485755205154 0.005801848601549864 -0.009193509817123413 -0.001463089487515390 -0.007065767422318459 0.058152008801698685 0.018063254654407501 0.021990612149238586 0.018178569152951241 -0.041755836457014084 0.094452187418937683 -0.008679024875164032 -0.000889493152499199 0.032000564038753510 -0.012357420288026333 -0.057864386588335037 0.007029954809695482 0.006052374839782715 -0.013142409734427929 0.017243860289454460 -0.000359332480002195 -0.002903952263295650 -0.003146207192912698 -0.032045397907495499 -0.047446392476558685 0.010200604796409607 -0.027841541916131973 -0.099471420049667358 -0.024353427812457085 -0.086682967841625214 -0.082352153956890106 0.035457521677017212 -0.049852717667818069 0.025585466995835304 -0.015227430500090122 0.015191424638032913 -0.072220392525196075 0.004995952360332012 0.021603791043162346 0.083468839526176453 0.036919936537742615 0.051916517317295074 -0.019269049167633057 0.002170467749238014 -0.036016672849655151 0.062484618276357651 0.011664022691547871 0.008848043158650398 0.085813015699386597 -0.091345511376857758 -0.081508345901966095 0.019555401057004929 0.006861463654786348 -0.050107218325138092 -0.007723171729594469 -0.053527094423770905 0.051231063902378082 0.010472752153873444 0.018673889338970184 0.035771053284406662 -0.026269128546118736 0.039920438081026077 -0.008638014085590839 0.029908848926424980 -0.065360471606254578 0.021999184042215347 0.011702186428010464 0.007943103089928627 0.071780338883399963 -0.013676590286195278 -0.083264172077178955 0.002982579171657562 0.031084369868040085 -0.003805174492299557 0.021537685766816139 -0.021489325910806656 -0.045466568320989609 -0.000649390392936766 -0.043374001979827881 0.013107576407492161 0.017923766747117043 -0.001784716849215329 -0.013173101469874382
