#Layer 4 Biases:
0.028793942183256149 -0.000955780618824065 0.004204520490020514 -0.006618100684136152 0.011989170685410500 -0.026646779850125313 -0.027660399675369263 -0.007442302070558071 0.015422933734953403 0.002320043742656708 -0.021157898008823395 -0.010670584626495838 0.046697288751602173 -0.037955220788717270 -0.014202890917658806 0.065710015594959259 0.040707509964704514 -0.015989765524864197 -0.006051345728337765 -0.016360512003302574 0.006044679321348667 0.059500709176063538 0.040855329483747482 0.032869335263967514 -0.059005610644817352 -0.015854060649871826 -0.019082473590970039 -0.032581571489572525 -0.059366080909967422 0.045307599008083344 0.035077143460512161 0.021774409338831902 0.002728441962972283 0.011029873043298721 -0.035853698849678040 0.000203642528504133 0.006543329451233149 -0.004015600774437189 0.042395696043968201 -0.014917001128196716 -0.011187122203409672 -0.018021708354353905 0.013492587022483349 -0.007714014034718275 -0.033404033631086349 0.028199480846524239 -0.033126931637525558 0.045368175953626633 0.022298742085695267 0.007080210372805595 -0.070501744747161865 0.055980842560529709 -0.006573902908712626 -0.017984114587306976 -0.022838918492197990 0.020017361268401146 -0.003171699121594429 -0.043628379702568054 0.004921135026961565 -0.073008775711059570 0.024299873039126396 0.006192436441779137 -0.012325451709330082 0.009398533031344414 0.024104308336973190 0.003469281597062945 -0.004305005539208651 -0.008703947067260742 -0.046317677944898605 -0.031021920964121819 -0.016969032585620880 0.034205980598926544 0.047738358378410339 -0.013989521190524101 -0.012404127046465874 0.011941998265683651 0.017405947670340538 -0.018888197839260101 -0.011530642397701740 0.016194770112633705 0.007726071402430534 0.009341144934296608 0.003865508595481515 -0.021863289177417755 -0.064504690468311310 0.007255109027028084 -0.169627651572227478 -0.014325479045510292 0.002039810875430703 -0.003515747375786304 0.004198513459414244 0.051387179642915726 -0.011272214353084564 0.012859397567808628 0.018769016489386559 -0.001205080188810825 0.010139899328351021 -0.015051875263452530 0.003788718488067389 0.015872873365879059
