#Layer 0 Biases:
0.085859917104244232 -0.083437442779541016 -0.081033878028392792 0.048655137419700623 0.007543767336755991 0.055741045624017715 -0.020073859021067619 -0.053046863526105881 -0.078027859330177307 -0.094123251736164093 -0.038545500487089157 -0.003149431431666017 -0.064800649881362915 0.089466325938701630 -0.056866485625505447 -0.011264787055552006 0.029070599004626274 0.061380170285701752 0.033701542764902115 0.032986499369144440 -0.057259421795606613 0.009488090872764587 0.082330986857414246 0.047369692474603653 0.001819825149141252 0.067370176315307617 -0.032997302711009979 0.065513193607330322 -0.073506742715835571 0.057099390774965286 0.072633415460586548 0.040614660829305649 0.079674586653709412 -0.047691754996776581 -0.011909961700439453 -0.061143606901168823 -0.024069275707006454 0.047006886452436447 -0.072329841554164886 -0.088494397699832916 -0.009334845468401909 -0.037617549300193787 0.009108775295317173 -0.052869647741317749 -0.077167928218841553 0.065414413809776306 0.048151671886444092 0.055661119520664215 0.041746109724044800 0.005154148209840059 -0.052518520504236221 -0.058099616318941116 0.029238358139991760 0.061707332730293274 -0.085114873945713043 -0.043008256703615189 -0.076668679714202881 0.042326249182224274 -0.072667494416236877 -0.002127267885953188 0.060690630227327347 -0.056325901299715042 0.100718826055526733 -0.014020740985870361 -0.024289375171065331 -0.028073884546756744 0.069593764841556549 -0.038207683712244034 -0.029365997761487961 -0.056363511830568314 0.054585874080657959 0.000862143759150058 -0.010387493297457695 0.071945227682590485 -0.053557664155960083 0.079401947557926178 -0.072352848947048187 -0.051162034273147583 -0.056594431400299072 -0.003664527554064989 -0.056864593178033829 -0.043146006762981415 -0.077228412032127380 0.007362699136137962 0.016311137005686760 -0.045149944722652435 0.047259639948606491 -0.011310787871479988 -0.074097357690334320 0.043512672185897827 0.037792760878801346 0.027156291529536247 0.076995499432086945 -0.068868845701217651 0.074969962239265442 0.054179493337869644 -0.002798097440972924 0.070637054741382599 -0.074648506939411163 0.055048771202564240
