#Layer 3 Weights:
-0.164062470197677612 0.124542117118835449 0.171328395605087280 -0.047969516366720200 0.026930250227451324 -0.055393807590007782 -0.009462863206863403 0.036998409777879715 0.130165070295333862 -0.003006162820383906 0.096168957650661469 0.023790493607521057 0.101519130170345306 -0.128303810954093933 0.080590315163135529 0.131652608513832092 -0.119759522378444672 -0.095319800078868866 0.156829267740249634 -0.150854110717773438 0.091361254453659058 -0.195510163903236389 -0.057816039770841599 -0.088641859591007233 -0.017218934372067451 -0.101422108709812164 0.006664569489657879 -0.074631124734878540 0.103138528764247894 -0.057493098080158234 -0.104916587471961975 -0.067153856158256531 -0.141939908266067505 0.054753609001636505 0.075492583215236664 0.094982355833053589 0.126071169972419739 -0.021850559860467911 0.089724138379096985 0.106950230896472931 0.110734097659587860 0.054379921406507492 -0.073217242956161499 0.120444871485233307 0.083837151527404785 -0.031724188476800919 -0.114097110927104950 -0.139160424470901489 -0.048707734793424606 -0.011671915650367737 0.099250398576259613 0.145454496145248413 0.068441040813922882 -0.002050383482128382 0.116401053965091705 -0.066754527390003204 0.086768679320812225 -0.097110435366630554 0.001748180016875267 0.002697672927752137 -0.132593125104904175 0.138762250542640686 -0.152044668793678284 -0.113643981516361237 -0.128565639257431030 0.198661789298057556 -0.107651658356189728 -0.036187514662742615 0.138021960854530334 0.048095382750034332 -0.045545864850282669 0.004089002497494221 0.005003510974347591 -0.073344819247722626 0.092381656169891357 -0.112811237573623657 0.116905912756919861 0.106159269809722900 0.030126743018627167 -0.272817760705947876 0.117638587951660156 -0.041225455701351166 0.146734312176704407 -0.085027799010276794 -0.054953072220087051 0.080791793763637543 -0.274833619594573975 0.107908830046653748 0.055022869259119034 -0.047607861459255219 -0.105972699820995331 0.053388871252536774 -0.033925764262676239 0.031754076480865479 -0.143465578556060791 -0.005051025655120611 0.104224354028701782 0.041950471699237823 0.101320378482341766 -0.077867344021797180
0.163049548864364624 0.106670342385768890 -0.022351574152708054 0.130568236112594604 0.095380887389183044 0.147576004266738892 0.015580858103930950 -0.122899420559406281 0.123064033687114716 0.147481352090835571 -0.106402270495891571 0.054865911602973938 0.177457302808761597 -0.115578606724739075 0.060367088764905930 -0.055642917752265930 0.029504084959626198 0.188577309250831604 0.180396065115928650 0.041035030037164688 -0.098450429737567902 0.031346675008535385 -0.198735386133193970 -0.047742728143930435 0.032450642436742783 -0.146133825182914734 -0.024895815178751945 -0.017096815630793571 -0.012247879058122635 -0.077150695025920868 -0.095554962754249573 0.073295474052429199 -0.102750517427921295 0.027340874075889587 -0.000795121944975108 -0.168672978878021240 -0.030626781284809113 -0.062377188354730606 0.155980110168457031 -0.025999521836638451 -0.077714465558528900 -0.078831896185874939 0.119058139622211456 0.059111390262842178 -0.076280131936073303 -0.075224116444587708 0.084297746419906616 -0.157022163271903992 0.061756879091262817 -0.192141413688659668 -0.115568183362483978 -0.046258464455604553 -0.069248415529727936 -0.173252999782562256 0.129436880350112915 0.190003573894500732 0.080430120229721069 0.086178801953792572 0.068241693079471588 -0.096975207328796387 -0.133899092674255371 -0.023854093626141548 -0.084155976772308350 -0.079978346824645996 0.162679240107536316 -0.072049073874950409 -0.173777505755424500 -0.154879167675971985 0.095638178288936615 0.086746849119663239 0.029100231826305389 0.055402718484401703 -0.104082904756069183 -0.171766445040702820 -0.115690730512142181 -0.180955410003662109 0.149992868304252625 0.017163077369332314 -0.017194379121065140 0.074100404977798462 -0.033076878637075424 0.121836937963962555 0.104479618370532990 -0.147550120949745178 -0.151171430945396423 -0.117743320763111115 0.146631181240081787 -0.183318257331848145 -0.064213544130325317 -0.002523977542296052 0.123721428215503693 -0.119661197066307068 0.005129867698997259 -0.075050175189971924 0.044239260256290436 -0.160379394888877869 0.177196592092514038 -0.166451156139373779 0.100681230425834656 0.063456997275352478
0.157525897026062012 -0.021491967141628265 0.118921428918838501 -0.026413619518280029 0.029552429914474487 0.024646686390042305 -0.028015950694680214 0.050254710018634796 -0.026464527472853661 -0.079319626092910767 0.024820566177368164 0.113741375505924225 -0.015459487214684486 -0.060972250998020172 -0.233606576919555664 0.080646783113479614 -0.009839531965553761 -0.096924059092998505 -0.102124810218811035 0.069944366812705994 -0.034644450992345810 0.107606172561645508 0.073929741978645325 0.101960659027099609 0.090777024626731873 0.060330823063850403 0.040190882980823517 0.062740951776504517 0.015263173729181290 -0.111491300165653229 -0.145291447639465332 -0.070121869444847107 0.161540493369102478 0.022438285872340202 0.090594761073589325 0.020627044141292572 -0.066619694232940674 0.081098735332489014 -0.138079255819320679 0.114719964563846588 -0.149824291467666626 0.163030087947845459 0.126466944813728333 0.052637495100498199 -0.119801454246044159 -0.022433632984757423 -0.034906499087810516 0.146548166871070862 0.012544366531074047 0.098843291401863098 0.086230650544166565 0.000108063628431410 0.131060153245925903 0.176493778824806213 -0.058919839560985565 0.168699219822883606 -0.122579351067543030 0.048460412770509720 -0.011136427521705627 -0.152010515332221985 -0.041057020425796509 -0.049330517649650574 0.257373929023742676 -0.031319867819547653 0.124352619051933289 -0.020848643034696579 0.160692304372787476 0.143984764814376831 0.070816159248352051 -0.084198303520679474 -0.106445230543613434 -0.047796417027711868 -0.044903777539730072 0.133481085300445557 -0.148735344409942627 0.010212677530944347 -0.127740517258644104 0.009064568206667900 0.151993423700332642 0.515655994415283203 0.170550391077995300 -0.049562476575374603 0.064182333648204803 -0.054503031075000763 -0.151829972863197327 0.011633672751486301 0.160680890083312988 -0.018544500693678856 0.045405361801385880 -0.167864978313446045 -0.113268375396728516 -0.111921973526477814 -0.003541312413290143 0.149987637996673584 0.161238238215446472 -0.081446975469589233 0.027437644079327583 -0.002658487530425191 0.098445296287536621 0.088040471076965332
-0.066742122173309326 -0.077575229108333588 -0.119940012693405151 0.172066360712051392 0.121561363339424133 -0.143222734332084656 0.094434209167957306 -0.028425958007574081 0.058769769966602325 0.016380487009882927 -0.128795593976974487 -0.047692913562059402 0.125624015927314758 0.145055532455444336 0.201827794313430786 0.068718232214450836 0.040513988584280014 0.154892757534980774 0.144921064376831055 -0.056488461792469025 0.066062271595001221 0.151524662971496582 0.088287860155105591 0.155945286154747009 -0.069755822420120239 0.002511462429538369 -0.139665469527244568 -0.050156772136688232 0.060819655656814575 0.111556500196456909 -0.032640174031257629 -0.024939930066466331 -0.151252597570419312 -0.118599139153957367 -0.046465583145618439 0.133688524365425110 0.041160613298416138 -0.080654792487621307 0.126787289977073669 0.143100038170814514 0.177473053336143494 -0.024770926684141159 -0.092206865549087524 0.034837372601032257 -0.028127608820796013 0.120367974042892456 0.043752774596214294 0.091602966189384460 -0.160730138421058655 0.016560191288590431 -0.132756680250167847 -0.143309056758880615 -0.119053095579147339 -0.212563931941986084 0.131436422467231750 -0.103462666273117065 -0.114409841597080231 -0.115986771881580353 0.142922192811965942 -0.003270415123552084 -0.146648958325386047 -0.061391349881887436 -0.226571112871170044 0.091042481362819672 0.037447202950716019 -0.110343374311923981 -0.114143766462802887 -0.099894143640995026 0.076115556061267853 -0.174378082156181335 -0.059182997792959213 -0.016018522903323174 -0.004762047436088324 0.036770638078451157 0.154371723532676697 0.003586624050512910 -0.080629259347915649 0.061520550400018692 -0.110052295029163361 -0.093426063656806946 0.093844644725322723 0.123508572578430176 -0.018795248121023178 0.143663629889488220 -0.145065128803253174 -0.087654463946819305 0.189138218760490417 -0.087467335164546967 -0.129547253251075745 0.156635135412216187 -0.039451196789741516 0.040482390671968460 0.109219804406166077 0.140147238969802856 0.035142909735441208 0.126419752836227417 0.162528634071350098 -0.020973147824406624 -0.090692058205604553 -0.058982960879802704
0.008057037368416786 -0.014361109584569931 -0.152970463037490845 0.154185593128204346 -0.085471294820308685 -0.031692728400230408 -0.080597944557666779 0.161325678229331970 -0.029709929600358009 -0.030631911009550095 -0.117548845708370209 0.041494164615869522 0.110645376145839691 0.008440139703452587 0.003935802727937698 0.079228676855564117 0.203508466482162476 0.021796876564621925 -0.118848986923694611 0.142473280429840088 -0.117549821734428406 -0.039761375635862350 0.133219301700592041 -0.020756002515554428 0.036860782653093338 0.068794272840023041 -0.159567907452583313 0.001477919402532279 0.119158543646335602 0.193915754556655884 -0.050743814557790756 0.012060872279107571 0.195205822587013245 0.032199241220951080 0.169017761945724487 -0.103195749223232269 -0.158673420548439026 0.016019858419895172 -0.116067618131637573 0.085706844925880432 -0.050778724253177643 -0.136404782533645630 0.050737433135509491 -0.041843354701995850 -0.031360782682895660 0.038853622972965240 -0.102891996502876282 0.011805815622210503 0.005814941134303808 0.304373979568481445 -0.105790205299854279 0.127703472971916199 -0.107353359460830688 0.249329775571823120 -0.268838286399841309 0.179314970970153809 -0.087592951953411102 -0.111774481832981110 0.009753397665917873 0.107003122568130493 0.057316485792398453 0.128921449184417725 0.117721751332283020 -0.113739110529422760 -0.181567490100860596 -0.053462617099285126 0.034796293824911118 0.058204703032970428 -0.023636374622583389 0.099632553756237030 0.050880096852779388 0.055594563484191895 0.192860156297683716 -0.162540078163146973 -0.188932806253433228 -0.107721127569675446 -0.050808101892471313 0.134457826614379883 -0.074909940361976624 0.200290724635124207 -0.085327826440334320 0.062713280320167542 -0.063330382108688354 -0.179052919149398804 -0.138837710022926331 0.028401244431734085 -0.092891342937946320 -0.021858107298612595 -0.015444623306393623 0.008994081988930702 -0.214253276586532593 0.116561226546764374 -0.089040189981460571 0.149625539779663086 0.035247761756181717 0.133048996329307556 -0.129044383764266968 -0.078763805329799652 0.138860151171684265 -0.115206561982631683
0.037743251770734787 -0.144805073738098145 0.119793444871902466 -0.047877386212348938 -0.102730102837085724 0.081320911645889282 0.153738886117935181 0.007601813878864050 -0.098704211413860321 -0.166372790932655334 0.146743372082710266 -0.074433393776416779 0.037963531911373138 -0.105638757348060608 -0.072889640927314758 0.196619063615798950 0.050597470253705978 -0.081999637186527252 0.027534876018762589 0.059813402593135834 0.121328666806221008 0.117889277637004852 -0.148966014385223389 -0.086429141461849213 0.144927009940147400 0.026055477559566498 0.076313421130180359 -0.103806987404823303 -0.068228565156459808 -0.063391655683517456 0.009368282742798328 0.014697323553264141 -0.097726769745349884 -0.121342264115810394 -0.005826354026794434 -0.115220643579959869 0.139232963323593140 0.087091431021690369 -0.156745091080665588 -0.045225497335195541 -0.004839121364057064 0.006056341342628002 0.040697459131479263 -0.128887638449668884 0.110795050859451294 0.025119518861174583 -0.106744751334190369 0.085644803941249847 0.135121926665306091 0.104012914001941681 0.128696218132972717 -0.005789378192275763 0.046617630869150162 -0.103712514042854309 0.118113078176975250 0.172670781612396240 -0.022058023139834404 -0.039815012365579605 -0.184490323066711426 -0.158590719103813171 -0.015968099236488342 0.126698255538940430 0.133984431624412537 -0.004780724178999662 -0.040445655584335327 -0.041146572679281235 -0.070156976580619812 0.072981849312782288 -0.147461995482444763 0.137242704629898071 0.097778551280498505 -0.149212583899497986 -0.030898179858922958 0.041569400578737259 -0.091980725526809692 -0.045390702784061432 0.029813628643751144 0.179797276854515076 0.141445085406303406 -0.017314432188868523 0.080695003271102905 0.182937785983085632 -0.057593338191509247 -0.102710485458374023 -0.120164871215820312 0.086629696190357208 0.185515329241752625 0.087525919079780579 0.131342500448226929 0.055363830178976059 -0.144901841878890991 -0.028699429705739021 0.129369959235191345 -0.037026990205049515 -0.146044984459877014 0.101568996906280518 0.018961045891046524 -0.035873375833034515 0.050995472818613052 -0.160021111369132996
-0.052332244813442230 0.114902175962924957 0.010273627005517483 -0.009536621160805225 -0.070785149931907654 0.068373896181583405 -0.063697293400764465 -0.057570766657590866 -0.100942723453044891 -0.040336392819881439 -0.022965474054217339 0.011421248316764832 0.074436187744140625 0.008560635149478912 -0.050713140517473221 -0.027639318257570267 0.140739694237709045 -0.058217942714691162 -0.049418542534112930 -0.083374388515949249 0.000274205784080550 -0.105034515261650085 -0.000364549079677090 -0.031686976552009583 0.029393855482339859 0.006407087668776512 -0.094424918293952942 -0.054200690239667892 -0.046042710542678833 -0.157796338200569153 0.148749321699142456 -0.113684028387069702 -0.050344370305538177 -0.045560631901025772 -0.042767062783241272 0.125496223568916321 -0.057141136378049850 0.154063299298286438 0.003966366872191429 0.045608479529619217 0.082954406738281250 0.117694944143295288 0.027651363983750343 -0.069290645420551300 0.044960044324398041 0.119701094925403595 0.072540946304798126 0.010244214907288551 -0.046433601528406143 0.077312737703323364 -0.040188375860452652 0.125971600413322449 0.043226111680269241 0.013130044564604759 0.027514323592185974 -0.016142589971423149 0.074541591107845306 0.145788565278053284 0.005933537613600492 0.073919385671615601 -0.100471213459968567 0.055235214531421661 -0.037307441234588623 -0.043238196521997452 -0.012739430181682110 -0.113921374082565308 0.124286398291587830 0.012354310601949692 -0.052581097930669785 -0.124788075685501099 -0.134420648217201233 0.002632923657074571 -0.085265308618545532 -0.091431550681591034 -0.068291887640953064 -0.091075614094734192 0.114827133715152740 -0.004297464620321989 -0.034658264368772507 -0.010711104609072208 0.129743009805679321 -0.120584554970264435 -0.057440631091594696 0.003263388993218541 0.070913642644882202 -0.026623101904988289 -0.074725463986396790 -0.125167459249496460 -0.005788953974843025 -0.137576863169670105 0.145528912544250488 -0.038558218628168106 -0.079655863344669342 0.144543364644050598 0.155210405588150024 -0.028821928426623344 0.116559788584709167 -0.066795922815799713 -0.019714646041393280 -0.117261767387390137
-0.065700367093086243 0.088781967759132385 0.071671821177005768 0.140958234667778015 -0.119902029633522034 0.115128345787525177 0.080844365060329437 0.138354450464248657 -0.041704587638378143 -0.017250305041670799 0.039240203797817230 0.040088802576065063 0.132705703377723694 0.017650760710239410 -0.036972321569919586 -0.042033921927213669 0.125830456614494324 -0.014114730060100555 0.046670906245708466 0.006307449657469988 -0.119263492524623871 0.051303572952747345 -0.132450029253959656 0.052533376961946487 -0.141481623053550720 -0.025467060506343842 0.098001502454280853 0.181009590625762939 -0.133551955223083496 -0.088929437100887299 0.027145372703671455 0.008914246223866940 0.068952128291130066 -0.115553006529808044 0.109927654266357422 0.116613350808620453 0.110673666000366211 -0.113162696361541748 0.103564940392971039 0.077531486749649048 0.123448260128498077 -0.074852071702480316 0.154552638530731201 -0.069131322205066681 -0.091817431151866913 -0.065000474452972412 -0.006239797454327345 -0.059320542961359024 0.062622204422950745 -0.045032713562250137 0.171536222100257874 -0.036570034921169281 -0.077437117695808411 0.262213736772537231 -0.379945874214172363 0.049346808344125748 -0.113289445638656616 0.048008497804403305 0.088254936039447784 -0.016187896952033043 0.046438969671726227 0.112079292535781860 0.144430711865425110 0.011151040904223919 -0.117642648518085480 -0.019201872870326042 -0.025031296536326408 -0.181711480021476746 -0.152541860938072205 0.162330418825149536 -0.111800655722618103 0.015726877376437187 -0.018699396401643753 -0.043408308178186417 -0.035574529320001602 0.076664797961711884 -0.010315580293536186 -0.018572535365819931 0.066780112683773041 0.117526240646839142 -0.145018577575683594 -0.076460041105747223 -0.149121791124343872 0.004932922776788473 0.061349097639322281 -0.103662058711051941 0.137165755033493042 0.099351704120635986 -0.188761025667190552 0.077058009803295135 -0.019272686913609505 0.104296468198299408 0.155623063445091248 -0.146320611238479614 0.038034610450267792 -0.065159007906913757 0.038742713630199432 -0.107374414801597595 0.136636838316917419 -0.130427747964859009
0.088384076952934265 0.097556501626968384 0.048335451632738113 -0.089596711099147797 -0.030278725549578667 0.117160245776176453 -0.083188548684120178 0.165746048092842102 0.125234499573707581 0.143017336726188660 0.096199899911880493 0.164486750960350037 -0.069632530212402344 -0.134834080934524536 0.022128487005829811 0.147253915667533875 -0.019629834219813347 -0.016302103176712990 0.020873868837952614 -0.176155492663383484 0.141496628522872925 -0.039632994681596756 0.082790687680244446 -0.049462463706731796 0.064698517322540283 0.146053850650787354 0.095547862350940704 0.201387673616409302 0.059805937111377716 0.118194311857223511 -0.161621928215026855 -0.040770187973976135 -0.100581705570220947 0.107008337974548340 0.057665769010782242 -0.190470084547996521 -0.144263148307800293 0.031669031828641891 0.053610377013683319 -0.171725735068321228 -0.152857169508934021 -0.005826420616358519 0.105302557349205017 0.034927204251289368 -0.188496321439743042 -0.194707125425338745 0.086949549615383148 0.112591668963432312 0.076768971979618073 0.039796389639377594 -0.045608311891555786 -0.053537577390670776 0.137057140469551086 -0.047206092625856400 0.070219956338405609 0.102519966661930084 0.006468934006989002 -0.001839179079979658 0.183282896876335144 -0.156570449471473694 0.130294874310493469 0.126915916800498962 0.118713840842247009 -0.112967103719711304 0.046272423118352890 -0.028502136468887329 -0.138818249106407166 -0.168077960610389709 -0.085066325962543488 -0.161379426717758179 0.133750647306442261 -0.099741838872432709 0.068562552332878113 -0.009059606119990349 0.048542674630880356 0.005243932362645864 0.127233877778053284 -0.207377806305885315 -0.072756409645080566 0.084582611918449402 0.128097325563430786 0.066031232476234436 0.107993341982364655 -0.096460789442062378 -0.072035878896713257 -0.018641391769051552 0.122063003480434418 -0.020644493401050568 0.151822850108146667 0.082161672413349152 0.144400998950004578 0.127297267317771912 0.043379832059144974 0.132598668336868286 0.150899052619934082 -0.181704252958297729 0.051007922738790512 -0.167690962553024292 0.114234834909439087 -0.005281465593725443
-0.067805632948875427 0.017042275518178940 -0.060051586478948593 0.082447305321693420 0.146003052592277527 0.165898919105529785 0.029703149572014809 -0.112189896404743195 -0.115063555538654327 0.176560983061790466 0.048726350069046021 0.071291729807853699 -0.145535022020339966 0.146702498197555542 0.000711076310835779 -0.024399010464549065 0.044531531631946564 0.088774144649505615 0.066780768334865570 0.056297227740287781 -0.018212797120213509 -0.154523506760597229 0.149200394749641418 0.089307405054569244 0.001665470772422850 -0.072267249226570129 0.162377804517745972 -0.094803057610988617 0.060528121888637543 0.006293719634413719 0.025191174820065498 0.141735002398490906 -0.091280080378055573 0.104879260063171387 0.153633520007133484 -0.093849927186965942 -0.142757445573806763 0.057001039385795593 0.131186068058013916 0.031485732644796371 0.149174466729164124 0.117959149181842804 -0.190028071403503418 0.138192310929298401 0.028522485867142677 -0.132354825735092163 -0.032559309154748917 0.076505683362483978 -0.104382731020450592 -0.159298062324523926 0.047815330326557159 0.018434107303619385 -0.014696444384753704 -0.167770385742187500 0.262563169002532959 0.081085741519927979 -0.004537565633654594 0.045877743512392044 0.039036557078361511 -0.054344389587640762 0.145273298025131226 -0.160910636186599731 -0.054540809243917465 -0.034895107150077820 0.081311538815498352 -0.086989052593708038 0.009400439448654652 0.166436463594436646 -0.049887616187334061 0.045570295304059982 -0.004277104511857033 0.083234891295433044 -0.112138874828815460 -0.042779151350259781 -0.080542676150798798 0.041954517364501953 0.109604924917221069 -0.073285840451717377 -0.075428947806358337 -0.081953503191471100 -0.045590307563543320 0.169408053159713745 -0.070129901170730591 -0.121127463877201080 0.110669836401939392 -0.126495018601417542 0.131757870316505432 0.026130061596632004 0.072975873947143555 0.036587715148925781 0.029635872691869736 -0.118454389274120331 0.137129947543144226 0.023098897188901901 0.102418377995491028 -0.084377206861972809 0.141730591654777527 -0.139724150300025940 0.050899691879749298 -0.108614414930343628
-0.061286527663469315 -0.118522442877292633 -0.012686748988926411 0.087023936212062836 0.101685516536235809 -0.060956213623285294 0.082431852817535400 -0.039053354412317276 -0.157730475068092346 -0.020485043525695801 -0.044905364513397217 -0.015346355736255646 0.013894217088818550 -0.013497796840965748 -0.191798090934753418 0.071595162153244019 -0.033156782388687134 -0.035533338785171509 0.066895812749862671 -0.189459711313247681 0.084672302007675171 -0.075380384922027588 0.028759315609931946 -0.115118503570556641 -0.106486618518829346 -0.053522530943155289 0.097685948014259338 -0.147484153509140015 -0.148903191089630127 0.053141701966524124 0.137614473700523376 -0.040588345378637314 -0.147126510739326477 0.174484550952911377 0.105280891060829163 0.021284172311425209 0.102355197072029114 -0.076699055731296539 0.174075856804847717 -0.070807687938213348 -0.088969387114048004 -0.143965959548950195 0.106698364019393921 0.073241166770458221 0.098360851407051086 0.092373527586460114 0.068280883133411407 0.016377896070480347 0.039234079420566559 0.070664741098880768 -0.080069221556186676 -0.007903677411377430 -0.163454771041870117 -0.007409789599478245 -0.231512278318405151 0.001699218177236617 0.151278093457221985 -0.023033656179904938 0.166846513748168945 0.130140796303749084 0.111622236669063568 -0.033409297466278076 0.057591799646615982 0.001913582207635045 -0.142794713377952576 0.141777917742729187 0.014817164279520512 0.027884105220437050 -0.090820766985416412 -0.118642605841159821 0.028059257194399834 0.104576230049133301 -0.090764686465263367 -0.001880594994872808 0.042938526719808578 0.021804714575409889 -0.049073744565248489 -0.023430764675140381 -0.026730241253972054 0.255016505718231201 -0.038423113524913788 -0.132594913244247437 -0.146358519792556763 -0.158400177955627441 0.151770353317260742 0.059066031128168106 -0.036512527614831924 0.134526029229164124 -0.120246328413486481 -0.109506689012050629 -0.144179478287696838 -0.006387602072209120 -0.005765497684478760 -0.048773039132356644 0.115331202745437622 -0.099558718502521515 -0.141605556011199951 -0.037913475185632706 -0.160143896937370300 0.137248471379280090
-0.052621301263570786 0.019347403198480606 -0.004561334848403931 -0.058561179786920547 0.023254433646798134 -0.134310364723205566 0.031595185399055481 -0.132807284593582153 0.041075523942708969 0.078761212527751923 0.153365105390548706 -0.068963557481765747 -0.056470926851034164 -0.031464617699384689 -0.053063433617353439 -0.086108691990375519 0.122194088995456696 0.030395433306694031 -0.126795411109924316 -0.146778911352157593 0.104738660156726837 0.039363350719213486 -0.177563473582267761 -0.151673346757888794 0.132053807377815247 -0.110069081187248230 -0.061272535473108292 -0.000516277970746160 0.129994213581085205 0.014919908717274666 0.112180575728416443 0.008244988508522511 -0.073075793683528900 0.101984038949012756 0.073417268693447113 -0.119886822998523712 -0.027086379006505013 0.048788677901029587 0.009065154939889908 0.086776047945022583 0.074396766722202301 0.037878703325986862 0.080711863934993744 0.042394187301397324 0.175901368260383606 -0.068356171250343323 -0.042675215750932693 0.048191968351602554 0.114399231970310211 0.177414208650588989 0.105875343084335327 -0.039913635700941086 -0.009283787570893764 0.157013490796089172 -0.029829218983650208 0.109458737075328827 0.103057384490966797 0.042691372334957123 -0.064469680190086365 0.013355559669435024 -0.001684958813712001 0.133192509412765503 -0.162745133042335510 -0.017840253189206123 -0.012643050402402878 -0.020641561597585678 -0.098172135651111603 0.128881573677062988 -0.017606467008590698 0.075126469135284424 0.089845515787601471 0.026515673846006393 0.138737529516220093 -0.132698297500610352 0.133113279938697815 -0.144619822502136230 0.104479365050792694 -0.184886112809181213 -0.073004752397537231 -0.003926854580640793 -0.133259594440460205 0.010857971385121346 0.056384883821010590 0.131449297070503235 -0.135814294219017029 0.100432284176349640 -0.000587896502111107 0.065799675881862640 -0.061288632452487946 0.028918264433741570 0.043664272874593735 -0.124713309109210968 0.117269039154052734 0.024002945050597191 0.021108733490109444 0.012026594951748848 -0.131303295493125916 -0.043444328010082245 0.136137694120407104 -0.066692076623439789
-0.003593484871089458 0.015074646100401878 -0.021110789850354195 0.106809549033641815 0.113038532435894012 0.032507400959730148 -0.044608075171709061 -0.060043279081583023 -0.080146864056587219 0.085952892899513245 -0.123420909047126770 0.157935932278633118 -0.036030542105436325 -0.160778820514678955 -0.169065371155738831 -0.112630605697631836 -0.060292944312095642 -0.035202804952859879 0.121732398867607117 -0.076975092291831970 0.138564109802246094 -0.174049600958824158 -0.020288225263357162 -0.181866481900215149 0.027045827358961105 -0.109832063317298889 -0.100708425045013428 0.013869742862880230 -0.210589945316314697 0.019298944622278214 -0.000658549601212144 0.071623660624027252 0.194697186350822449 -0.092038214206695557 0.130858227610588074 0.178334087133407593 0.175442025065422058 -0.136775568127632141 0.022577088326215744 0.007354322355240583 -0.112314976751804352 0.101257100701332092 -0.076523520052433014 0.083099603652954102 0.154021322727203369 0.114904157817363739 0.015782251954078674 0.146796166896820068 0.117149055004119873 0.131409481167793274 0.165453314781188965 0.162070348858833313 0.053256586194038391 0.030047785490751266 0.077773705124855042 -0.027294917032122612 -0.061919461935758591 -0.111156955361366272 0.072608038783073425 -0.137784481048583984 0.053439315408468246 0.084672138094902039 -0.042553994804620743 -0.093701638281345367 0.005767412949353456 0.161567896604537964 -0.106261111795902252 0.093995094299316406 -0.161412835121154785 0.057725567370653152 -0.005743386223912239 -0.019776361063122749 0.061139702796936035 -0.031117830425500870 0.138263002038002014 0.156068176031112671 0.028610209003090858 -0.125439137220382690 0.078277021646499634 0.009018819779157639 0.168316304683685303 -0.025391930714249611 0.036965318024158478 0.011823183856904507 0.089722879230976105 -0.055086176842451096 -0.143033757805824280 0.111181624233722687 0.154361009597778320 -0.031567893922328949 0.111136786639690399 -0.069796882569789886 0.092705585062503815 -0.182058542966842651 -0.142709538340568542 0.059035174548625946 -0.134139716625213623 0.074493989348411560 0.006878164131194353 -0.072360962629318237
-0.068870134651660919 -0.215766623616218567 0.083975493907928467 -0.158094018697738647 0.025541592389345169 -0.072983518242835999 0.175639912486076355 -0.149413183331489563 -0.022996144369244576 -0.129908293485641479 0.092209093272686005 -0.068161249160766602 0.131936192512512207 0.170489966869354248 -0.161104664206504822 -0.133474841713905334 -0.122728124260902405 0.074077434837818146 -0.141623660922050476 -0.022189481183886528 -0.018133973702788353 -0.084186568856239319 -0.044726435095071793 -0.059538673609495163 -0.149909764528274536 -0.092636510729789734 0.064931809902191162 -0.099653191864490509 0.272704899311065674 -0.165852203965187073 0.111407086253166199 0.105650231242179871 0.051214907318353653 -0.138546884059906006 0.083796113729476929 -0.119897484779357910 -0.023394851014018059 0.140827983617782593 0.158587321639060974 -0.097857758402824402 0.057742893695831299 0.228571385145187378 0.027014914900064468 -0.021057603880763054 0.060141481459140778 -0.026757599785923958 0.262382447719573975 0.162235140800476074 0.128361314535140991 0.075742863118648529 0.007875011302530766 -0.009664689190685749 0.124068960547447205 -0.117495916783809662 -0.011809114366769791 0.028443392366170883 0.041769266128540039 0.080109231173992157 0.094783082604408264 0.036005109548568726 -0.126828894019126892 -0.069108709692955017 -0.186011657118797302 0.250406414270401001 -0.130405351519584656 -0.081353977322578430 -0.012281271629035473 0.206926763057708740 -0.049746196717023849 -0.003534466959536076 0.133875474333763123 0.020144008100032806 0.130623102188110352 -0.211958140134811401 0.162081494927406311 0.058629512786865234 0.028367755934596062 0.007608609739691019 -0.078979618847370148 -0.137451946735382080 -0.033697102218866348 0.217197313904762268 -0.107923410832881927 0.125894159078598022 0.055143781006336212 0.033618237823247910 0.385378807783126831 0.179566919803619385 0.056665509939193726 -0.180274292826652527 0.067487753927707672 -0.125838741660118103 -0.079476751387119293 0.024237211793661118 0.170328319072723389 0.016038019210100174 0.033407013863325119 -0.114365659654140472 0.004972973838448524 0.185993507504463196
-0.126636177301406860 0.163571357727050781 0.049114380031824112 -0.103076569736003876 0.104718074202537537 -0.129706189036369324 0.157031431794166565 0.105380728840827942 -0.033104401081800461 -0.118726931512355804 0.062459360808134079 -0.029593808576464653 -0.064090065658092499 0.010871692560613155 0.014531703665852547 -0.070772610604763031 -0.023836046457290649 -0.156928613781929016 0.069499865174293518 -0.097994066774845123 0.113841213285923004 0.055104557424783707 0.175904944539070129 -0.142715245485305786 -0.091691985726356506 0.184769228100776672 -0.161929517984390259 0.170256659388542175 -0.092111103236675262 0.075067982077598572 0.083315819501876831 0.031690724194049835 0.069793246686458588 -0.068386338651180267 -0.002250211313366890 -0.035751368850469589 0.169907763600349426 -0.013050527311861515 0.074200965464115143 -0.071176409721374512 -0.088029660284519196 0.062594443559646606 -0.091725885868072510 -0.001233458751812577 0.002137232339009643 -0.054498702287673950 -0.174166053533554077 0.061505720019340515 0.138600230216979980 -0.173308297991752625 -0.074168585240840912 0.075825519859790802 0.146218702197074890 0.106474682688713074 0.186789110302925110 -0.139873236417770386 0.089241094887256622 0.103717289865016937 -0.169050827622413635 0.035471294075250626 -0.044045928865671158 0.159761771559715271 -0.086499318480491638 0.047738142311573029 -0.072894319891929626 0.098675899207592010 -0.061679773032665253 -0.083603769540786743 0.038638252764940262 -0.078551352024078369 -0.059836182743310928 0.118914030492305756 -0.028940297663211823 0.210729256272315979 -0.033448696136474609 -0.124614417552947998 0.039201617240905762 0.175088778138160706 0.053689882159233093 -0.019819011911749840 0.135947063565254211 0.136363014578819275 0.025667710229754448 0.105143651366233826 0.145875111222267151 0.000949777429923415 -0.255084395408630371 -0.097759917378425598 0.132771909236907959 -0.040577188134193420 0.112995147705078125 -0.005240264814347029 0.024213343858718872 -0.135560572147369385 0.075205303728580475 -0.132484167814254761 -0.092148855328559875 0.204048261046409607 -0.059078328311443329 -0.153144821524620056
0.103262960910797119 -0.012789364904165268 -0.062059488147497177 0.018975112587213516 -0.042090911418199539 0.013754156418144703 0.156476303935050964 0.064796499907970428 -0.018001332879066467 -0.108792364597320557 0.049468595534563065 -0.115842029452323914 0.000954198825638741 -0.002697386313229799 -0.111697733402252197 -0.095765300095081329 0.008700381033122540 -0.147162690758705139 -0.146185487508773804 0.099105969071388245 0.136154219508171082 -0.115482874214649200 0.002426520222797990 0.033257920295000076 -0.026834027841687202 0.147053584456443787 -0.120416015386581421 -0.050086423754692078 -0.069981291890144348 0.111099652945995331 0.052784517407417297 -0.152554854750633240 0.068361371755599976 0.143784001469612122 -0.103238701820373535 0.075690478086471558 -0.002525424584746361 -0.110841676592826843 -0.027658911421895027 0.001542248530313373 -0.154567599296569824 0.051426324993371964 -0.161560282111167908 -0.065722092986106873 -0.100001893937587738 0.081703297793865204 -0.014413803815841675 0.089229039847850800 0.038593936711549759 0.064616136252880096 0.058243092149496078 -0.003665365977212787 0.111308187246322632 -0.070544213056564331 0.083199642598628998 0.098133921623229980 -0.170754730701446533 -0.026046091690659523 0.022206600755453110 -0.120415292680263519 0.175936177372932434 -0.068302556872367859 0.051900468766689301 0.117309734225273132 -0.097785480320453644 0.138274669647216797 -0.062717013061046600 0.085578307509422302 0.054964479058980942 -0.177411988377571106 0.068092592060565948 -0.155959576368331909 0.043715476989746094 0.005153486970812082 -0.025895206257700920 0.107667587697505951 -0.091463655233383179 -0.101770542562007904 -0.126994267106056213 -0.010973453521728516 0.007614195346832275 0.020220579579472542 0.068930797278881073 -0.042251925915479660 -0.135525763034820557 -0.084095709025859833 0.083022728562355042 -0.060067676007747650 -0.022578364238142967 -0.031006382778286934 0.098202519118785858 0.157130062580108643 0.166067987680435181 0.175731554627418518 0.155726373195648193 0.123789042234420776 -0.015289811417460442 0.020877620205283165 0.168196439743041992 -0.046709127724170685
0.112263448536396027 0.077839456498622894 0.007259527221322060 0.071069434285163879 -0.124372556805610657 0.022080970928072929 -0.147914960980415344 -0.070992477238178253 0.068520374596118927 0.111140742897987366 -0.080288805067539215 -0.101436294615268707 0.132717147469520569 0.149016484618186951 -0.121786244213581085 0.013052365742623806 -0.136809110641479492 -0.037722039967775345 -0.102381587028503418 0.081278748810291290 0.017823111265897751 -0.122420229017734528 0.132438167929649353 -0.098519727587699890 0.085267126560211182 -0.147371381521224976 0.127698227763175964 -0.113901525735855103 0.031928118318319321 0.085337668657302856 0.001792560098692775 0.183557271957397461 0.015148528851568699 0.051788587123155594 0.142385005950927734 0.000616074423305690 0.145582646131515503 0.078951537609100342 -0.079414874315261841 0.140514642000198364 -0.103636786341667175 0.109891481697559357 -0.010806311853230000 0.029518513008952141 0.160491928458213806 -0.139648512005805969 -0.078767701983451843 -0.103770956397056580 0.137748032808303833 0.079528748989105225 0.161707818508148193 -0.044193938374519348 -0.064012102782726288 -0.002411263529211283 -0.124213561415672302 -0.040415950119495392 0.018399020656943321 0.054232902824878693 0.078194871544837952 0.169223174452781677 0.043132442981004715 0.077409677207469940 0.085781067609786987 -0.058895744383335114 0.028309462592005730 0.136108234524726868 -0.099495045840740204 -0.058328531682491302 0.100002013146877289 -0.052718672901391983 0.040378656238317490 -0.155012950301170349 -0.010859098285436630 -0.151047170162200928 -0.072204671800136566 -0.149094864726066589 -0.105480231344699860 0.007462660782039165 0.014868355356156826 0.260153859853744507 -0.137893289327621460 -0.134897604584693909 -0.039510738104581833 0.051678132265806198 0.130384892225265503 -0.077345535159111023 0.182812154293060303 0.063091397285461426 0.048662312328815460 -0.073711961507797241 0.083423264324665070 0.065958291292190552 -0.115760847926139832 0.194010168313980103 0.119764149188995361 0.009702955372631550 -0.062212791293859482 -0.106905713677406311 0.078399725258350372 -0.017439948394894600
0.137644559144973755 -0.156900063157081604 -0.056587785482406616 0.023245975375175476 -0.188571721315383911 -0.022723834961652756 0.102053016424179077 -0.073800586163997650 -0.135378792881965637 -0.077359087765216827 -0.123585790395736694 0.027122836560010910 0.013881953433156013 0.059621095657348633 0.136547222733497620 0.124198839068412781 0.078278310596942902 -0.020423239096999168 0.106959946453571320 -0.062793217599391937 -0.079117245972156525 -0.132371753454208374 -0.052326846867799759 -0.189275905489921570 -0.017732642590999603 -0.145159661769866943 -0.021728929132223129 -0.002777619520202279 0.096103616058826447 -0.078310921788215637 0.122363194823265076 0.002695607021450996 -0.101974837481975555 0.000279462983598933 -0.161516904830932617 -0.142221435904502869 0.050593458116054535 0.053537894040346146 0.033572528511285782 0.096095651388168335 0.097544260323047638 0.157135426998138428 -0.045137487351894379 -0.164799824357032776 -0.010591941885650158 -0.075374580919742584 -0.088218808174133301 0.123750105500221252 0.162579625844955444 0.118824474513530731 -0.214566245675086975 0.025865931063890457 0.038387507200241089 0.085465781390666962 0.249375358223915100 0.028178298845887184 0.104688674211502075 -0.031838182359933853 0.006329334340989590 -0.125296175479888916 0.144865900278091431 0.080378703773021698 -0.207358092069625854 0.105324387550354004 -0.009485378861427307 -0.148869201540946960 -0.048183783888816833 0.154549852013587952 -0.153792634606361389 0.040309373289346695 -0.042563464492559433 -0.131378903985023499 0.079606935381889343 -0.114793315529823303 -0.093997381627559662 -0.084400154650211334 -0.133426815271377563 -0.029449507594108582 -0.124912939965724945 -0.204261109232902527 -0.097248271107673645 0.189281046390533447 -0.112704627215862274 -0.057604864239692688 -0.124494448304176331 -0.028072282671928406 0.028870962560176849 0.137018501758575439 0.154847458004951477 -0.086173944175243378 -0.011909150518476963 -0.034640464931726456 0.150612473487854004 0.025072047486901283 0.065528683364391327 -0.109403796494007111 0.164949089288711548 0.041680883616209030 0.042950145900249481 0.052374437451362610
-0.023695906624197960 -0.175994887948036194 -0.133378610014915466 -0.073214828968048096 -0.182981729507446289 0.036026485264301300 0.056706368923187256 0.074066258966922760 -0.135585516691207886 -0.050839517265558243 0.058786559849977493 0.014679243788123131 0.017897363752126694 0.044666703790426254 -0.017970498651266098 -0.019435100257396698 0.007756916340440512 0.091893211007118225 -0.062671869993209839 0.111153177917003632 0.085103183984756470 -0.064126893877983093 -0.136330142617225647 -0.074978716671466827 0.013625973835587502 -0.146605163812637329 0.009943465702235699 -0.093715131282806396 0.160936653614044189 -0.166135489940643311 0.130157798528671265 0.034529466181993484 0.062098149210214615 -0.099076643586158752 0.133671104907989502 0.098539419472217560 -0.065232045948505402 0.132189765572547913 -0.073789596557617188 -0.144195228815078735 0.113165155053138733 0.151488035917282104 0.004020004533231258 -0.066025346517562866 0.112191542983055115 0.156532436609268188 -0.079750895500183105 0.189754724502563477 0.126438513398170471 -0.083645448088645935 -0.168731406331062317 -0.053760301321744919 0.177808359265327454 -0.065659537911415100 0.022927107289433479 0.121165342628955841 -0.029127588495612144 -0.062228664755821228 0.076191969215869904 -0.091294191777706146 -0.130013316869735718 -0.077199928462505341 -0.047613799571990967 0.096308231353759766 0.110071390867233276 0.006328598596155643 0.188048377633094788 -0.038890663534402847 -0.141447931528091431 -0.092543624341487885 0.166790306568145752 0.012703724205493927 0.160631403326988220 0.033479478210210800 0.066147327423095703 -0.136397898197174072 -0.025598799809813499 -0.035486064851284027 0.120685942471027374 -0.107135564088821411 -0.189387738704681396 -0.099175930023193359 -0.057710275053977966 -0.163333475589752197 0.046204291284084320 -0.041913427412509918 0.054479457437992096 -0.016541691496968269 -0.120865270495414734 -0.167989477515220642 -0.076739221811294556 0.081146992743015289 -0.083318233489990234 0.070227384567260742 -0.090267978608608246 0.102323673665523529 -0.086340755224227905 -0.182732135057449341 -0.007725096307694912 0.181354641914367676
0.151502177119255066 -0.110617086291313171 -0.156873390078544617 -0.047643948346376419 0.057415708899497986 0.033158939331769943 -0.107786506414413452 -0.150778546929359436 0.101089745759963989 0.039653923362493515 -0.166051849722862244 0.044544946402311325 -0.056090623140335083 -0.136442586779594421 0.034309748560190201 -0.096517942845821381 -0.137643709778785706 -0.007075611036270857 -0.071105800569057465 0.128348678350448608 -0.028347983956336975 -0.135745361447334290 0.023938076570630074 0.066152080893516541 -0.084199868142604828 -0.025138787925243378 -0.127816960215568542 0.089295014739036560 -0.082498461008071899 -0.056668832898139954 0.167753100395202637 0.020418651401996613 -0.283120870590209961 -0.084575392305850983 -0.134411484003067017 -0.208515658974647522 0.071839116513729095 0.128649443387985229 0.080058746039867401 -0.109748922288417816 -0.064990662038326263 -0.098341561853885651 0.109624162316322327 0.023647008463740349 0.131271734833717346 -0.142804548144340515 -0.028334774076938629 -0.036611039191484451 0.023896358907222748 -0.109082922339439392 0.056621778756380081 -0.004823142662644386 0.120506756007671356 -0.046575687825679779 0.075854018330574036 0.089776210486888885 0.019344944506883621 0.017684636637568474 0.019771734252572060 0.108076021075248718 -0.062493234872817993 -0.157270744442939758 0.055472992360591888 -0.032732393592596054 -0.101426132023334503 -0.075614891946315765 0.039020784199237823 -0.133399486541748047 0.121257036924362183 -0.131042525172233582 -0.158823207020759583 -0.156760022044181824 -0.059167996048927307 -0.038447309285402298 -0.150976836681365967 -0.102974139153957367 0.002408766420558095 -0.210281074047088623 0.063394427299499512 -0.008239800110459328 -0.072182551026344299 0.091321475803852081 0.084779165685176849 -0.057850707322359085 0.048193655908107758 0.110626325011253357 0.191922917962074280 -0.231624409556388855 -0.092421472072601318 0.061354100704193115 0.040459051728248596 -0.168757230043411255 0.146369338035583496 0.097863234579563141 0.193207308650016785 -0.215805426239967346 -0.040302071720361710 -0.127440646290779114 0.013829897157847881 -0.071622163057327271
0.155922502279281616 -0.029204368591308594 -0.073821730911731720 0.090989924967288971 0.003680333262309432 0.116599783301353455 0.072772860527038574 0.020184937864542007 -0.000397045980207622 -0.014693997800350189 0.162371486425399780 0.131115704774856567 0.110968515276908875 0.031946081668138504 -0.120017513632774353 -0.017162181437015533 0.124889902770519257 0.075938887894153595 0.177420049905776978 -0.086717329919338226 -0.063029780983924866 0.213974386453628540 -0.026827501133084297 0.104351915419101715 0.109843231737613678 0.077944435179233551 -0.087020143866539001 0.137623250484466553 0.035573195666074753 0.096516624093055725 -0.105279669165611267 -0.149996802210807800 -0.110694527626037598 -0.057805098593235016 -0.158882647752761841 0.139876618981361389 -0.066514194011688232 0.103241480886936188 -0.033939603716135025 -0.055940892547369003 -0.233587667346000671 -0.052449941635131836 0.166696324944496155 0.049441050738096237 -0.105735249817371368 -0.086036615073680878 -0.123504407703876495 0.097205676138401031 0.098948694765567780 0.306762725114822388 0.171917796134948730 -0.100171029567718506 0.140061751008033752 0.238514095544815063 -0.206163287162780762 -0.040189705789089203 -0.108237095177173615 0.043671935796737671 -0.115696817636489868 -0.143942773342132568 -0.138929128646850586 0.022439159452915192 0.078716464340686798 -0.091534197330474854 -0.022965434938669205 -0.123187482357025146 0.024694189429283142 0.066560849547386169 0.078507170081138611 -0.155540093779563904 -0.117071136832237244 0.100097388029098511 0.018984628841280937 0.035051666200160980 0.139896452426910400 0.026810672134160995 -0.134887099266052246 0.020663293078541756 0.000093272654339671 0.426152676343917847 -0.038485009223222733 -0.041373230516910553 -0.075426720082759857 0.110456459224224091 0.069662779569625854 -0.097521603107452393 0.217003822326660156 -0.087205052375793457 0.030026890337467194 0.086603485047817230 -0.068267010152339935 -0.125136584043502808 0.014148316346108913 0.168264850974082947 0.170334786176681519 -0.194027051329612732 0.052979137748479843 -0.082392387092113495 -0.021981107071042061 -0.080949135124683380
-0.049726888537406921 0.033158194273710251 -0.043591849505901337 -0.047677353024482727 -0.065002031624317169 -0.145487740635871887 -0.138925492763519287 0.153995797038078308 -0.083056271076202393 0.077505007386207581 0.037168812006711960 0.003613819368183613 0.175352320075035095 0.139445379376411438 -0.077421158552169800 -0.003529854351654649 0.006908962037414312 0.097463101148605347 -0.044170338660478592 -0.073377072811126709 0.018321674317121506 0.169639155268669128 -0.055497623980045319 0.074567683041095734 -0.167983233928680420 0.097240835428237915 0.061385400593280792 -0.054467756301164627 -0.099082835018634796 -0.174031913280487061 -0.014639506116509438 0.006569419987499714 0.025471463799476624 -0.108597368001937866 -0.049501676112413406 -0.022832227870821953 -0.020439276471734047 -0.137524142861366272 0.061185535043478012 -0.025338113307952881 -0.177356526255607605 -0.057414911687374115 0.083410099148750305 0.137587204575538635 0.133446872234344482 -0.073218777775764465 0.020518474280834198 -0.066351950168609619 0.071749091148376465 0.117482721805572510 0.126388877630233765 -0.140038251876831055 0.098842673003673553 0.081068426370620728 -0.114648796617984772 -0.037119783461093903 -0.136909514665603638 0.052009616047143936 0.142061889171600342 -0.015234649181365967 0.058968342840671539 -0.171341195702552795 -0.076132789254188538 -0.113107278943061829 -0.036443199962377548 0.134428739547729492 -0.102628186345100403 0.080350480973720551 -0.175204023718833923 0.134253919124603271 0.088080041110515594 0.032821424305438995 0.023833345621824265 0.133384689688682556 0.068238727748394012 0.017435230314731598 -0.083549275994300842 -0.087906487286090851 0.033115316182374954 0.104681342840194702 -0.049258742481470108 0.116304986178874969 0.015559122897684574 -0.055018112063407898 0.049462605267763138 -0.130872473120689392 -0.032473746687173843 0.039544973522424698 -0.123511306941509247 -0.064905911684036255 -0.024231126531958580 -0.005357141140848398 0.111854337155818939 -0.021385846659541130 0.132725119590759277 -0.195287734270095825 -0.039835993200540543 -0.116806685924530029 0.107548765838146210 -0.146717295050621033
0.141788139939308167 0.034512281417846680 -0.048968989402055740 -0.142555892467498779 0.072327941656112671 -0.123194575309753418 0.093503549695014954 0.104567989706993103 0.040874637663364410 -0.170069575309753418 -0.160643801093101501 0.009511974640190601 0.076909981667995453 -0.172326982021331787 0.065414570271968842 -0.075899511575698853 0.088038757443428040 0.094096310436725616 -0.160764470696449280 0.034273397177457809 0.095191322267055511 -0.035417813807725906 0.075007818639278412 -0.110607206821441650 -0.044164288789033890 -0.046296935528516769 0.127538487315177917 0.069663979113101959 0.081835985183715820 -0.106105543673038483 0.117391757667064667 -0.121114246547222137 0.175024420022964478 -0.107870966196060181 0.173610448837280273 -0.094982005655765533 0.092538088560104370 -0.098021537065505981 0.161320760846138000 -0.116522431373596191 0.086902037262916565 0.093037433922290802 -0.176007717847824097 -0.025579489767551422 -0.185133114457130432 0.178307071328163147 0.155811429023742676 0.117741703987121582 0.005791005212813616 -0.075062349438667297 -0.099718675017356873 0.099941737949848175 -0.101887740194797516 -0.000955202383920550 0.162935167551040649 -0.032318156212568283 0.162405312061309814 -0.171711355447769165 -0.072815291583538055 -0.111539177596569061 0.063794478774070740 0.177610725164413452 -0.062579318881034851 -0.048830430954694748 0.013946646824479103 0.108247876167297363 -0.156325459480285645 -0.032989911735057831 0.081208586692810059 0.068068355321884155 -0.038280893117189407 0.133902162313461304 -0.022344326600432396 0.090139903128147125 0.014447781257331371 0.038307551294565201 -0.157033681869506836 -0.082526497542858124 -0.079008907079696655 -0.079005226492881775 -0.019977264106273651 -0.089553996920585632 -0.120596244931221008 -0.060527309775352478 0.002602883847430348 -0.111870393157005310 0.056005720049142838 -0.066403828561306000 0.123260438442230225 0.109763391315937042 -0.002405308652669191 -0.005470731295645237 0.098169766366481781 -0.048320185393095016 0.129693493247032166 0.155218049883842468 0.046755921095609665 -0.094087876379489899 0.072974845767021179 0.107830449938774109
-0.098722614347934723 0.035389717668294907 0.106523014605045319 0.050023712217807770 -0.120700173079967499 0.023216066882014275 0.138941183686256409 0.023796707391738892 -0.188225597143173218 0.182952702045440674 0.098694235086441040 0.027011549100279808 0.166209876537322998 0.059904806315898895 -0.085965678095817566 0.036206983029842377 -0.186549127101898193 0.136145740747451782 -0.050782676786184311 0.088407546281814575 0.059779960662126541 0.167014315724372864 -0.141979828476905823 0.110249944031238556 0.105488553643226624 0.078394748270511627 0.047434147447347641 -0.114626891911029816 0.023678999394178391 -0.158438384532928467 0.068791702389717102 0.180869027972221375 0.087512038648128510 -0.114201016724109650 0.069156438112258911 -0.091587252914905548 0.087505914270877838 -0.150638908147811890 -0.022422846406698227 0.161968708038330078 0.031836524605751038 0.215482816100120544 -0.069120019674301147 0.070128224790096283 -0.021034684032201767 0.113395638763904572 0.215148225426673889 0.050391662865877151 -0.033808328211307526 0.172242343425750732 -0.156215026974678040 0.195161685347557068 -0.009435405023396015 0.175699532032012939 0.004490670282393694 0.153307259082794189 0.019154652953147888 0.136488512158393860 -0.090806990861892700 0.070133045315742493 -0.188734292984008789 -0.045149311423301697 -0.074152171611785889 -0.105620808899402618 -0.033121798187494278 0.092134840786457062 -0.160286545753479004 0.085101328790187836 -0.155569434165954590 0.040756996721029282 0.019229222089052200 -0.040640015155076981 -0.055828344076871872 -0.081692241132259369 0.011980825103819370 -0.030408268794417381 0.062717661261558533 -0.162764444947242737 -0.064735807478427887 0.183877557516098022 -0.088652253150939941 -0.065918855369091034 0.116527937352657318 -0.122727937996387482 0.069164179265499115 -0.208161979913711548 0.149078458547592163 -0.179258733987808228 -0.172940224409103394 0.062937803566455841 0.005198890343308449 -0.037099387496709824 -0.013460434041917324 0.111944533884525299 0.175021559000015259 -0.157073587179183960 0.115482658147811890 -0.197544738650321960 0.114611253142356873 0.037188630551099777
-0.158302769064903259 -0.159744575619697571 0.101188272237777710 0.014144075103104115 0.103325225412845612 -0.103788256645202637 -0.038102522492408752 0.084841646254062653 0.138891473412513733 0.028907751664519310 -0.001679438981227577 0.141454502940177917 0.070186384022235870 0.161119908094406128 -0.174438491463661194 -0.168915390968322754 0.119896665215492249 0.069263957440853119 0.006928386632353067 -0.132891908288002014 0.127757623791694641 0.052326384931802750 0.056631334125995636 -0.039383467286825180 -0.132368832826614380 -0.104559578001499176 0.149167820811271667 0.075133398175239563 -0.151511043310165405 0.091129444539546967 0.076789170503616333 -0.010908483527600765 -0.087932989001274109 0.096754230558872223 0.008536900393664837 0.006680708378553391 0.019617557525634766 0.088243953883647919 0.107981272041797638 -0.196397081017494202 0.114842943847179413 -0.001909622922539711 0.078851006925106049 -0.052918437868356705 0.107092097401618958 0.022956851869821548 0.040795791894197464 -0.133703410625457764 -0.035626310855150223 0.015299863182008266 -0.031654592603445053 -0.113089300692081451 0.141289696097373962 0.228494822978973389 -0.103876404464244843 -0.138864412903785706 0.146552965044975281 0.131715029478073120 -0.021305968984961510 0.033507447689771652 -0.000850730051752180 0.103671647608280182 0.002473832806572318 0.111899450421333313 -0.094448961317539215 0.050944786518812180 -0.003649599617347121 0.153219923377037048 -0.001212880830280483 -0.100666910409927368 -0.088771536946296692 0.014244810678064823 0.061991691589355469 -0.112805515527725220 -0.083252266049385071 -0.121775843203067780 -0.032685801386833191 0.120484538376331329 0.189721167087554932 0.171860426664352417 0.061388142406940460 0.107916332781314850 0.119327396154403687 0.060912519693374634 0.002564470749348402 0.062087811529636383 0.031360022723674774 0.138522401452064514 -0.132928639650344849 -0.174305126070976257 -0.020072486251592636 0.009051620028913021 0.013930091634392738 -0.072227112948894501 -0.020058000460267067 -0.018773585557937622 -0.101559922099113464 -0.149204224348068237 -0.123157165944576263 0.105827726423740387
0.013284371234476566 0.055395044386386871 0.063547655940055847 -0.042472928762435913 -0.085334837436676025 0.093876920640468597 -0.058789592236280441 -0.094832815229892731 -0.022624181583523750 -0.120504446327686310 -0.011044944636523724 0.178409427404403687 0.043321870267391205 0.048488304018974304 -0.189068406820297241 0.018127692863345146 0.056237246841192245 0.122891798615455627 -0.048846658319234848 0.186762139201164246 -0.017340986058115959 0.074521154165267944 0.141898304224014282 -0.123377226293087006 -0.125841587781906128 0.098864942789077759 -0.116647332906723022 0.066212765872478485 0.128174677491188049 -0.116329915821552277 0.078468181192874908 -0.143348619341850281 -0.003481758758425713 -0.087735556066036224 -0.097442738711833954 -0.027220597490668297 0.115058779716491699 -0.039688117802143097 -0.102058932185173035 0.098188258707523346 0.005349426064640284 0.152171105146408081 -0.138919696211814880 -0.055759802460670471 -0.053026992827653885 0.127111509442329407 -0.049487844109535217 -0.180698499083518982 -0.019067794084548950 0.221192389726638794 0.139765366911888123 0.013310237787663937 -0.095241621136665344 0.072968892753124237 -0.338221698999404907 0.156526327133178711 -0.077231861650943756 0.059926915913820267 -0.072115473449230194 -0.052314512431621552 0.087908610701560974 -0.069079346954822540 -0.022998489439487457 0.046196252107620239 -0.131103187799453735 -0.015713216736912727 0.042192608118057251 -0.191824138164520264 0.043784517794847488 -0.078745551407337189 -0.172971919178962708 -0.043426863849163055 -0.027079964056611061 -0.028448142111301422 0.107613332569599152 0.166705712676048279 0.139387264847755432 0.096560195088386536 0.046612177044153214 0.339851170778274536 -0.089580744504928589 -0.091604731976985931 0.056424114853143692 -0.182254061102867126 0.007444568444043398 0.162561923265457153 -0.009045421145856380 -0.056274730712175369 -0.108272217214107513 0.054421938955783844 -0.056469343602657318 0.147821098566055298 -0.070756725966930389 -0.004716237075626850 0.115688294172286987 -0.076122514903545380 0.144344612956047058 -0.018273357301950455 -0.011662037111818790 0.070022664964199066
0.115543402731418610 0.172499790787696838 -0.136341214179992676 -0.048184894025325775 0.001550779328681529 -0.133660569787025452 -0.081637099385261536 0.171749219298362732 0.071094162762165070 -0.012717024423182011 0.189119055867195129 0.092673167586326599 -0.023148545995354652 0.060871507972478867 -0.192750617861747742 0.020266547799110413 0.107841856777667999 0.108340725302696228 0.004631994757801294 0.102661281824111938 -0.135844424366950989 -0.101911865174770355 -0.128021508455276489 -0.033072553575038910 0.101430669426918030 -0.089975520968437195 0.015571111813187599 -0.128863364458084106 -0.103885933756828308 -0.074241824448108673 -0.019223682582378387 -0.123356066644191742 0.026876717805862427 0.061760742217302322 -0.043755002319812775 0.004173024091869593 -0.007004820741713047 -0.185634821653366089 -0.034132283180952072 0.018871892243623734 -0.091305300593376160 -0.021563634276390076 0.025274638086557388 0.159088537096977234 -0.080745384097099304 0.062928877770900726 0.181552618741989136 0.036190751940011978 -0.106479734182357788 0.130015507340431213 0.002962065860629082 0.002732758177444339 0.034093767404556274 0.121485233306884766 0.002907125977799296 -0.134519502520561218 -0.049476742744445801 -0.060714609920978546 -0.118500798940658569 -0.064833410084247589 0.138437807559967041 -0.153422355651855469 0.082788452506065369 0.101677872240543365 0.064494334161281586 0.064820766448974609 0.004208819475024939 0.126647025346755981 0.152758002281188965 0.039036393165588379 -0.179859295487403870 -0.081738062202930450 0.061289716511964798 0.118212796747684479 0.120243549346923828 -0.024727039039134979 -0.074084423482418060 0.026344720274209976 -0.023595539852976799 0.127206444740295410 -0.022616783156991005 0.088207706809043884 -0.114581204950809479 -0.019074212759733200 0.186598479747772217 -0.180615305900573730 0.197122752666473389 0.213621690869331360 0.022432802245020866 0.160820841789245605 -0.033526901155710220 -0.118984505534172058 0.000340719503583387 0.082526877522468567 0.012884268537163734 -0.110988408327102661 0.061435408890247345 0.044029481709003448 -0.165919989347457886 -0.050685636699199677
0.086752258241176605 0.100004032254219055 0.043700624257326126 -0.059418529272079468 -0.023218799382448196 -0.064562231302261353 -0.020658314228057861 0.121607571840286255 0.160716056823730469 -0.138672471046447754 0.008526793681085110 0.092338196933269501 -0.175457030534744263 -0.038027625530958176 0.031853158026933670 -0.001005038619041443 0.108191706240177155 -0.074269890785217285 -0.123420476913452148 0.060362119227647781 -0.152335762977600098 0.064731381833553314 -0.138682603836059570 0.091871075332164764 -0.003933341242372990 -0.115921393036842346 -0.010299238376319408 -0.139233574271202087 -0.035132132470607758 0.081712402403354645 0.137867420911788940 -0.084224097430706024 0.025503359735012054 0.016231745481491089 -0.161612629890441895 0.003340547904372215 0.016798680648207664 0.063758887350559235 -0.117316320538520813 0.062066920101642609 -0.155383914709091187 -0.099028326570987701 -0.129463285207748413 -0.083651319146156311 0.033602822571992874 0.143593877553939819 -0.188450112938880920 -0.048634596168994904 -0.089676700532436371 0.144377976655960083 0.011123218573629856 -0.177511915564537048 0.027482513338327408 0.128953203558921814 -0.262238979339599609 -0.004660596139729023 -0.076337918639183044 -0.020017154514789581 -0.070944435894489288 -0.138825654983520508 -0.018438661471009254 -0.142058640718460083 0.043893091380596161 -0.187336176633834839 -0.035339117050170898 0.147673979401588440 -0.182515680789947510 -0.078272923827171326 0.001759220263920724 0.008253021165728569 -0.093347206711769104 0.037290088832378387 0.109896957874298096 -0.094451278448104858 0.000418414711020887 -0.088574767112731934 0.034684997051954269 -0.012813224457204342 0.130511298775672913 0.225110441446304321 0.067515298724174500 0.036898046731948853 -0.021387549117207527 -0.075068809092044830 -0.105386495590209961 0.067820519208908081 -0.159400835633277893 0.166822329163551331 0.137209087610244751 -0.008763181976974010 -0.172337010502815247 0.103097222745418549 -0.115143254399299622 -0.107187673449516296 0.034288309514522552 -0.094483293592929840 -0.094841554760932922 0.050899326801300049 -0.147566780447959900 -0.071511566638946533
-0.097800523042678833 -0.076360516250133514 0.063362181186676025 -0.070275917649269104 -0.118045702576637268 -0.066660620272159576 -0.087682850658893585 0.161102712154388428 0.154187470674514771 0.067436628043651581 0.033761497586965561 0.117212928831577301 0.017759140580892563 0.053899861872196198 -0.157753065228462219 -0.062236085534095764 -0.011956593021750450 -0.054821703583002090 -0.081130288541316986 0.100070022046566010 0.115727595984935760 -0.030152304098010063 -0.164270848035812378 -0.135400280356407166 0.103261433541774750 0.137960880994796753 0.085865102708339691 0.132645472884178162 -0.026322187855839729 0.132344365119934082 0.001049885177053511 -0.041121404618024826 0.171422004699707031 -0.072658807039260864 -0.157325491309165955 0.044886130839586258 0.004504189826548100 0.018092308193445206 -0.106328681111335754 -0.024053571745753288 -0.099164292216300964 0.034971233457326889 -0.105981521308422089 -0.080606050789356232 0.128916352987289429 0.141351595520973206 0.004322926513850689 -0.056353148072957993 -0.103286445140838623 0.155977264046669006 -0.033640272915363312 0.129245325922966003 0.162554800510406494 -0.130005568265914917 -0.053212288767099380 0.025564750656485558 -0.156071662902832031 -0.018958657979965210 -0.019820405170321465 0.095983557403087616 0.181644350290298462 0.125857263803482056 0.027408329769968987 0.092026986181735992 0.153389722108840942 0.046695966273546219 0.042500797659158707 0.104290626943111420 0.007643516175448895 -0.167695850133895874 -0.123883947730064392 -0.090875372290611267 -0.077911958098411560 -0.059942539781332016 0.036614406853914261 0.070998311042785645 -0.067417874932289124 -0.084863528609275818 -0.009110191836953163 0.094271741807460785 0.020173400640487671 0.058705370873212814 0.080229863524436951 0.105002820491790771 -0.027069164440035820 -0.096378967165946960 -0.006568023469299078 -0.103057973086833954 0.142598405480384827 0.128573134541511536 0.124393865466117859 -0.041221268475055695 0.152516335248947144 -0.008164109662175179 0.017949379980564117 -0.115787200629711151 0.122841469943523407 0.101359158754348755 -0.094743862748146057 0.055856373161077499
-0.065850168466567993 -0.075376741588115692 -0.018155658617615700 0.063764289021492004 0.002886105794459581 -0.100464820861816406 -0.014399053528904915 -0.015658464282751083 -0.165326908230781555 0.086450353264808655 -0.132846832275390625 0.019023915752768517 -0.082019656896591187 0.015054992400109768 0.071585297584533691 -0.102797679603099823 -0.071569830179214478 0.183572351932525635 0.043715815991163254 -0.059857241809368134 0.148477017879486084 0.023016169667243958 0.090558357536792755 0.048431053757667542 -0.081728629767894745 0.161190837621688843 -0.054519012570381165 0.024908958002924919 -0.160687297582626343 0.143898487091064453 -0.009236423298716545 -0.125516846776008606 0.146467626094818115 0.014281093142926693 -0.069603510200977325 0.013709917664527893 0.040664274245500565 -0.110769212245941162 0.108632050454616547 -0.081647925078868866 -0.001810564892366529 0.082557231187820435 -0.040518622845411301 -0.087674602866172791 -0.018467798829078674 -0.020127391442656517 -0.127826809883117676 -0.124305501580238342 0.039565391838550568 -0.039907921105623245 0.118071310222148895 -0.133298695087432861 0.027803162112832069 -0.134971916675567627 0.184556007385253906 -0.088838569819927216 -0.142747014760971069 0.097186699509620667 0.131318822503089905 0.163539707660675049 0.019833635538816452 0.091285340487957001 -0.165319368243217468 -0.059114750474691391 0.055222850292921066 0.156728848814964294 -0.198421671986579895 -0.049676962196826935 -0.026132060214877129 -0.001222256338223815 -0.093357466161251068 0.037165973335504532 -0.051662247627973557 0.045907635241746902 -0.012022932991385460 -0.106094695627689362 -0.064533106982707977 0.007829952985048294 -0.120170250535011292 0.043161477893590927 0.020875385031104088 -0.048981938511133194 -0.049068342894315720 -0.022988723590970039 0.001732055214233696 0.055544521659612656 0.059588368982076645 -0.094518825411796570 -0.109250068664550781 0.006075059995055199 0.023039720952510834 0.129036650061607361 -0.005003768019378185 -0.020800460129976273 -0.013955838978290558 -0.087512716650962830 0.042079601436853409 0.080191768705844879 0.132364749908447266 0.099754288792610168
-0.160605266690254211 0.089001372456550598 0.028477825224399567 0.064617790281772614 -0.033764373511075974 -0.044328194111585617 -0.114074900746345520 -0.030282061547040939 0.115343511104583740 -0.122075669467449188 0.007026036735624075 -0.120553873479366302 -0.177563726902008057 0.158190608024597168 -0.117690734565258026 -0.010535424575209618 0.037082541733980179 -0.056922502815723419 0.046289235353469849 -0.150163456797599792 -0.040507458150386810 -0.038007427006959915 0.159229353070259094 0.059329751878976822 -0.016007717698812485 0.071296773850917816 0.054350789636373520 0.022111415863037109 -0.203459829092025757 0.136864677071571350 0.170491844415664673 0.064042113721370697 0.172329246997833252 0.105744495987892151 0.024017700925469398 -0.101108133792877197 0.129276007413864136 -0.159816697239875793 -0.069301486015319824 -0.090362079441547394 -0.087414108216762543 -0.057221978902816772 -0.014602015726268291 -0.022964647039771080 -0.078372098505496979 0.174914762377738953 0.080284617841243744 -0.134969815611839294 0.005105722229927778 0.168281793594360352 -0.084571428596973419 -0.096232362091541290 -0.039435788989067078 0.138233527541160583 -0.104246057569980621 0.090330220758914948 0.034244861453771591 -0.111493550240993500 -0.168246343731880188 -0.030222082510590553 0.082443110644817352 0.020420398563146591 0.187512174248695374 -0.163482218980789185 -0.059309612959623337 -0.043861940503120422 0.040954191237688065 -0.059054497629404068 -0.114645697176456451 -0.031955510377883911 -0.024092756211757660 -0.141058146953582764 0.144308492541313171 0.152863591909408569 0.083757668733596802 0.106968738138675690 -0.019092740491032600 -0.099650256335735321 0.036948982626199722 0.089962780475616455 0.115486979484558105 0.057234209030866623 -0.077393941581249237 -0.038254350423812866 0.167114436626434326 0.136225447058677673 -0.157179355621337891 0.028226479887962341 0.112758062779903412 -0.025788098573684692 -0.115370713174343109 0.163355916738510132 -0.103368043899536133 -0.052594169974327087 -0.066862493753433228 -0.065055392682552338 0.018221346661448479 0.062287908047437668 0.090205594897270203 -0.089120224118232727
0.017458274960517883 -0.006704018451273441 0.194249436259269714 0.044105160981416702 -0.099896632134914398 0.006546730641275644 0.170166611671447754 -0.045276612043380737 0.097451314330101013 0.069180227816104889 -0.088446982204914093 0.172472596168518066 0.181678041815757751 0.139563247561454773 -0.080508619546890259 -0.079269982874393463 -0.073562920093536377 0.028623271733522415 0.051746953278779984 -0.094795033335685730 -0.025090610608458519 0.088466450572013855 -0.203307256102561951 -0.078159928321838379 -0.024250591173768044 -0.135764494538307190 0.192419975996017456 -0.259646713733673096 0.000679072807542980 -0.029776426032185555 -0.117267578840255737 0.107804983854293823 0.175161793828010559 0.127575203776359558 0.029341230168938637 0.098409742116928101 0.080715104937553406 -0.066864982247352600 0.004543973598629236 -0.156489938497543335 -0.081997722387313843 -0.047657605260610580 -0.072214946150779724 0.011516645550727844 -0.023291636258363724 -0.087413288652896881 0.063931666314601898 0.137060031294822693 0.149634569883346558 0.050555068999528885 -0.125892475247383118 0.165151804685592651 -0.143411219120025635 -0.110149249434471130 0.064547255635261536 -0.078177094459533691 -0.026675505563616753 0.039504285901784897 -0.185171768069267273 0.157396271824836731 0.007586795371025801 0.064743950963020325 -0.258843541145324707 -0.079911127686500549 -0.145780876278877258 -0.081005543470382690 0.079974099993705750 0.040954161435365677 0.156378194689750671 0.083772405982017517 0.168285071849822998 0.076106764376163483 -0.088892333209514618 0.060949843376874924 0.082006439566612244 0.001171104959212244 -0.090280964970588684 -0.081745468080043793 0.133328378200531006 -0.201759353280067444 0.064642645418643951 0.165894746780395508 0.078502953052520752 -0.069060705602169037 -0.159280732274055481 -0.067235134541988373 0.013041703961789608 0.158682018518447876 -0.032475166022777557 0.152713164687156677 0.187874808907508850 0.085680179297924042 -0.033691965043544769 0.039616625756025314 0.081150226294994354 0.156962886452674866 0.039673615247011185 -0.061457619071006775 0.021702285856008530 0.064372636377811432
0.074315421283245087 -0.139059498906135559 -0.047247108072042465 -0.046862408518791199 0.034119218587875366 0.130524769425392151 -0.070936471223831177 -0.036330938339233398 -0.067959293723106384 -0.156627923250198364 -0.021744798868894577 -0.130623385310173035 0.018744237720966339 0.137465655803680420 -0.046775005757808685 0.104641996324062347 0.044211339205503464 0.041284654289484024 0.037608902901411057 0.011705423705279827 0.084391914308071136 -0.029291508719325066 -0.144300311803817749 0.163157925009727478 -0.029382796958088875 -0.151694878935813904 -0.050021115690469742 -0.107663117349147797 0.051788367331027985 -0.134830668568611145 -0.047287311404943466 -0.038478441536426544 -0.140908911824226379 -0.010269170626997948 0.074789136648178101 -0.086847350001335144 -0.042506817728281021 0.074170015752315521 0.142144307494163513 -0.109497822821140289 0.099989116191864014 -0.072845160961151123 -0.026797963306307793 -0.085927963256835938 -0.125349625945091248 0.024308122694492340 -0.161831423640251160 -0.079627014696598053 0.093313358724117279 0.068066671490669250 0.150345608592033386 -0.135893315076828003 0.079999469220638275 -0.035242225974798203 -0.091137617826461792 0.106157958507537842 0.017181269824504852 0.134129777550697327 -0.005686031188815832 -0.152754202485084534 -0.153827250003814697 0.026614364236593246 0.054681323468685150 -0.004676259122788906 -0.009258248843252659 0.124635457992553711 -0.155982524156570435 -0.010723538696765900 0.064095534384250641 -0.000088152679381892 -0.063283003866672516 -0.123146586120128632 0.056531779468059540 0.133096888661384583 -0.079391509294509888 0.125527516007423401 -0.192068338394165039 0.145633399486541748 0.046468075364828110 0.104953639209270477 0.110537260770797729 0.107768416404724121 0.082938387989997864 -0.160146251320838928 0.003059709677472711 0.065564125776290894 0.070093318819999695 0.125370681285858154 -0.034238949418067932 -0.100180506706237793 -0.031748622655868530 0.166041806340217590 0.027728268876671791 -0.048218790441751480 0.128140836954116821 0.148766040802001953 0.130209282040596008 0.047811105847358704 -0.034116648137569427 0.003189523937180638
-0.055004917085170746 0.059760078787803650 -0.021789088845252991 0.053172789514064789 -0.036086548119783401 -0.010932228527963161 -0.211211517453193665 0.074416548013687134 0.110268078744411469 0.000775474938564003 -0.030628172680735588 -0.152655437588691711 0.115258745849132538 -0.049511313438415527 0.119253918528556824 0.055291704833507538 -0.152653202414512634 0.088270388543605804 -0.002057393081486225 -0.131576061248779297 0.172805711627006531 -0.102084301412105560 -0.087352521717548370 -0.138869270682334900 -0.140269666910171509 0.147265538573265076 -0.150785028934478760 0.133363112807273865 -0.046990532428026199 0.034522637724876404 -0.060975272208452225 0.040365554392337799 -0.162116482853889465 0.010764308273792267 0.064344532787799835 -0.048871841281652451 -0.090543545782566071 -0.105481930077075958 -0.108662106096744537 -0.131534337997436523 -0.114191174507141113 -0.208103671669960022 0.089407168328762054 -0.129461377859115601 -0.188825488090515137 -0.060483302921056747 -0.248521551489830017 0.010126969777047634 -0.114303745329380035 0.063261136412620544 0.158224210143089294 0.009061713702976704 0.067887939512729645 -0.023589517921209335 -0.205474659800529480 -0.035528313368558884 0.133732691407203674 0.080621965229511261 -0.012611321173608303 0.134400829672813416 -0.087550528347492218 -0.021612973883748055 -0.033985737711191177 -0.036707177758216858 0.046043440699577332 -0.068849846720695496 -0.182051330804824829 0.124304100871086121 0.063704580068588257 -0.061558477580547333 -0.067966565489768982 0.158069223165512085 -0.007170526310801506 -0.003850832115858793 -0.033217810094356537 -0.100986585021018982 0.104971960186958313 -0.034787904471158981 0.040709931403398514 -0.018040193244814873 0.075452387332916260 -0.019711188971996307 -0.158656746149063110 0.017813900485634804 -0.099786579608917236 0.043029423803091049 0.015585601329803467 -0.145202368497848511 -0.112179830670356750 0.022922554984688759 0.026651378720998764 0.178768575191497803 -0.094913527369499207 -0.092908464372158051 -0.115517139434814453 -0.011393577791750431 0.142606079578399658 0.070719279348850250 0.121536500751972198 -0.031454719603061676
0.063710227608680725 -0.040140658617019653 0.017347810789942741 -0.186988174915313721 -0.096073575317859650 -0.035032775253057480 -0.009143856354057789 -0.062641851603984833 -0.104920312762260437 -0.044017389416694641 -0.102052852511405945 0.009830617345869541 0.124613508582115173 0.169210717082023621 0.042016617953777313 0.084404416382312775 0.134382367134094238 -0.130636766552925110 0.142061561346054077 -0.113527715206146240 -0.136701613664627075 0.080628268420696259 -0.019159968942403793 -0.106067828834056854 -0.011556040495634079 -0.051504604518413544 0.023775715380907059 -0.136059612035751343 0.068221457302570343 -0.072500161826610565 0.163459882140159607 0.092253908514976501 0.012727252207696438 -0.144773244857788086 -0.099673740565776825 0.182441726326942444 -0.050053402781486511 0.082344688475131989 0.022190669551491737 -0.053854063153266907 0.134587496519088745 -0.025093747302889824 0.114679321646690369 0.006281145382672548 -0.040794633328914642 0.105083383619785309 -0.107594415545463562 0.047769360244274139 -0.041013907641172409 0.199880361557006836 0.077953338623046875 -0.116012975573539734 0.008297666907310486 0.165415227413177490 0.037946254014968872 -0.092264369130134583 -0.165776267647743225 -0.030239712446928024 -0.096074670553207397 -0.069478206336498260 0.150720849633216858 -0.035176247358322144 0.145720675587654114 0.034509751945734024 0.069328546524047852 -0.029148753732442856 0.145183295011520386 -0.013474585488438606 0.048205967992544174 0.036584008485078812 0.132922723889350891 -0.057987775653600693 0.131851717829704285 -0.010034121572971344 -0.009140348061919212 -0.093409247696399689 -0.117250815033912659 0.143262892961502075 0.011402389034628868 0.003497039899230003 -0.045214697718620300 -0.038164589554071426 0.161191314458847046 0.061139542609453201 0.041682772338390350 -0.129634276032447815 -0.001440372434444726 0.064914330840110779 -0.142968133091926575 -0.077792845666408539 0.130628570914268494 0.026960924267768860 -0.168777540326118469 0.026580233126878738 -0.128871440887451172 0.002877383958548307 0.122206203639507294 0.086150944232940674 -0.113649241626262665 0.128722995519638062
-0.089372999966144562 0.100651815533638000 0.149713099002838135 -0.053470980376005173 0.107281439006328583 0.110996954143047333 0.093849204480648041 -0.137138918042182922 0.108433328568935394 -0.126462429761886597 0.008948610164225101 0.084856986999511719 0.180224373936653137 0.075403682887554169 0.040534187108278275 0.014273217879235744 0.027964103966951370 0.035090178251266479 0.132602900266647339 -0.042390536516904831 0.036278467625379562 0.090677991509437561 -0.108801752328872681 0.076512366533279419 -0.090124420821666718 0.096342705190181732 -0.046507887542247772 0.099382437765598297 0.021089786663651466 -0.087808251380920410 0.039132293313741684 -0.092107035219669342 -0.207903042435646057 0.089807331562042236 -0.104856573045253754 0.064646840095520020 0.147643655538558960 -0.150062337517738342 0.041001774370670319 -0.173694148659706116 -0.162927433848381042 -0.074495546519756317 -0.104238040745258331 0.105993732810020447 -0.093223527073860168 0.007319178432226181 -0.034417577087879181 -0.183338701725006104 -0.115868717432022095 -0.158315747976303101 0.131984800100326538 0.073066860437393188 0.170847475528717041 0.113006524741649628 0.050099927932024002 -0.047111973166465759 -0.016828019171953201 0.166202276945114136 0.130576103925704956 -0.139029517769813538 -0.133189588785171509 -0.095757529139518738 -0.142777070403099060 0.106242313981056213 0.058741282671689987 -0.001233317772857845 -0.086665727198123932 -0.156727492809295654 0.087265431880950928 -0.110433399677276611 0.146184250712394714 -0.114961080253124237 -0.052859753370285034 0.161121577024459839 -0.120040819048881531 -0.176453247666358948 0.033822249621152878 0.066880211234092712 0.150371566414833069 0.097946263849735260 0.107177451252937317 0.160127773880958557 -0.171527653932571411 0.147729381918907166 -0.021048918366432190 0.142541244626045227 -0.066848643124103546 -0.170778319239616394 0.150782346725463867 -0.153155788779258728 0.056603748351335526 -0.115742601454257965 -0.013829089701175690 0.001880484516732395 0.122040122747421265 0.096902318298816681 -0.120951481163501740 -0.201727688312530518 0.176794350147247314 -0.073910281062126160
-0.162178933620452881 -0.045787744224071503 0.056163311004638672 0.066746197640895844 -0.048933584243059158 -0.037828668951988220 -0.141111388802528381 0.006147685460746288 -0.133305311203002930 0.101691864430904388 0.125997588038444519 -0.130746588110923767 0.098764926195144653 0.010227284394204617 -0.130500525236129761 0.005600643809884787 0.205271601676940918 0.133425503969192505 -0.006239073351025581 0.139537662267684937 0.068341553211212158 -0.122769907116889954 0.133209198713302612 -0.167024925351142883 -0.100781418383121490 -0.023021729663014412 -0.017424477264285088 0.058939509093761444 -0.138137131929397583 0.015484793111681938 0.023224540054798126 0.051279913634061813 0.152197793126106262 -0.030630346387624741 -0.107003793120384216 0.067515619099140167 -0.028708273544907570 -0.059356939047574997 -0.093136958777904510 -0.080470420420169830 -0.047224670648574829 -0.076705969870090485 0.113314636051654816 -0.081221893429756165 0.185142636299133301 0.134445741772651672 -0.123084366321563721 0.090853355824947357 0.135372206568717957 0.181300476193428040 0.144861012697219849 -0.077407263219356537 0.005901195108890533 0.152141317725181580 -0.046907823532819748 0.062399096786975861 -0.101793751120567322 -0.187891632318496704 -0.087596423923969269 -0.028951577842235565 -0.086329720914363861 0.079278141260147095 0.140695348381996155 0.024692982435226440 0.135415837168693542 -0.078423753380775452 0.138937577605247498 -0.074144154787063599 0.121790163218975067 0.021278334781527519 0.058667384088039398 -0.145613193511962891 0.137691050767898560 0.102275647222995758 -0.010244471020996571 0.132645562291145325 0.122613370418548584 0.118923231959342957 -0.174531191587448120 -0.131291806697845459 -0.150013387203216553 0.156266897916793823 0.034354891628026962 0.032861337065696716 -0.152695849537849426 -0.045865755528211594 -0.089308701455593109 -0.018177686259150505 0.031806476414203644 -0.009754819795489311 -0.150383666157722473 -0.077322006225585938 -0.175474420189857483 -0.103175424039363861 -0.182344108819961548 0.038126643747091293 -0.156884238123893738 0.044680241495370865 -0.159877836704254150 -0.179982408881187439
-0.062315221875905991 -0.053930487483739853 -0.137842208147048950 -0.170065343379974365 -0.116527847945690155 0.000950318761169910 0.089948609471321106 0.020806185901165009 -0.007775874808430672 -0.125462770462036133 -0.036412127315998077 -0.110485389828681946 0.000448530190624297 -0.055066604167222977 0.268369704484939575 -0.182922363281250000 -0.009440045803785324 0.035439103841781616 0.046785481274127960 -0.131515711545944214 -0.096940062940120697 0.066212132573127747 -0.120180763304233551 -0.083628840744495392 -0.110783003270626068 0.122455954551696777 -0.113289617002010345 0.059343948960304260 -0.111034125089645386 -0.080460906028747559 -0.150790914893150330 0.041892312467098236 0.148860126733779907 -0.158588200807571411 -0.128490552306175232 0.025844072923064232 0.021082095801830292 0.073981411755084991 -0.100343495607376099 -0.047322396188974380 0.207886621356010437 -0.064609311521053314 -0.188500761985778809 -0.045381575822830200 -0.102970063686370850 0.000154824912897311 0.077917799353599548 -0.112239427864551544 0.059713765978813171 -0.062093205749988556 0.066081084311008453 0.062823437154293060 -0.080399900674819946 -0.332126438617706299 0.168261796236038208 0.113040842115879059 -0.108333393931388855 -0.106444589793682098 -0.117388583719730377 -0.145674273371696472 -0.020313655957579613 0.062959909439086914 -0.250642865896224976 0.174313917756080627 -0.114666350185871124 0.095693178474903107 -0.152482211589813232 0.085723124444484711 -0.068711094558238983 0.086468249559402466 0.160841763019561768 -0.073950007557868958 -0.157576084136962891 0.007663464173674583 0.016986429691314697 -0.125836789608001709 0.022656980901956558 -0.082598872482776642 0.086424522101879120 -0.196836918592453003 0.084005191922187805 -0.019080521538853645 -0.002261566231027246 0.022562153637409210 -0.116714969277381897 -0.028640301898121834 -0.175621166825294495 -0.008152581751346588 -0.004014918580651283 0.078250467777252197 0.191350802779197693 -0.064492627978324890 -0.126073479652404785 -0.049789197742938995 -0.200577929615974426 -0.116623610258102417 -0.102529481053352356 -0.069170899689197540 0.112358354032039642 0.046530611813068390
-0.150387987494468689 0.014658640138804913 -0.001488301320932806 0.019675059244036674 -0.049010388553142548 0.139869034290313721 0.011463965289294720 0.072024568915367126 0.168291732668876648 -0.133446633815765381 0.089087650179862976 -0.108356304466724396 0.138611093163490295 -0.111019775271415710 0.019354555755853653 -0.159196391701698303 0.047915909439325333 -0.147129952907562256 0.143302768468856812 -0.101186379790306091 0.062327299267053604 -0.038519244641065598 -0.016273044049739838 -0.088667921721935272 -0.033392194658517838 0.003793414682149887 0.021060936152935028 0.070991449058055878 0.120239831507205963 0.030674219131469727 -0.120164319872856140 0.129437759518623352 0.057895023375749588 -0.090073913335800171 0.066444464027881622 0.054518617689609528 0.140887230634689331 -0.153522908687591553 -0.071819394826889038 -0.018834423273801804 -0.184023842215538025 -0.078032195568084717 0.180705279111862183 0.051230724900960922 -0.110869050025939941 -0.114775381982326508 -0.026484694331884384 0.152508586645126343 -0.106848932802677155 0.189731255173683167 0.118515826761722565 -0.046426031738519669 -0.105673961341381073 0.048044864088296890 -0.183179125189781189 -0.176558613777160645 -0.030497625470161438 -0.124797336757183075 -0.033143579959869385 0.066321991384029388 0.172173991799354553 -0.056565422564744949 0.200404986739158630 0.141136705875396729 -0.156202569603919983 -0.021885473281145096 0.052018791437149048 -0.055701784789562225 -0.162142977118492126 0.048121750354766846 0.074474886059761047 -0.016601929441094398 0.130282476544380188 -0.127568349242210388 -0.162122309207916260 0.135318875312805176 -0.116718962788581848 -0.093542255461215973 -0.130530402064323425 0.204161420464515686 -0.148127749562263489 0.054142005741596222 -0.095593094825744629 -0.160917803645133972 0.179771900177001953 0.115247189998626709 0.100137598812580109 0.175320148468017578 0.138980314135551453 0.079510360956192017 -0.181099131703376770 -0.061455644667148590 0.146281078457832336 0.142581984400749207 0.062864288687705994 -0.033733386546373367 0.078260987997055054 -0.162809789180755615 0.155853956937789917 -0.035572774708271027
-0.037234086543321609 -0.111205838620662689 -0.077006801962852478 -0.135731548070907593 -0.142469570040702820 0.182726114988327026 0.007472957484424114 -0.151317194104194641 -0.095921128988265991 0.064780801534652710 0.011587146669626236 0.054122593253850937 0.059332318603992462 0.006761130876839161 0.164302617311477661 -0.055366683751344681 0.121210329234600067 0.134443864226341248 0.116146847605705261 0.018890080973505974 -0.151272445917129517 0.053405683487653732 -0.226396769285202026 0.149993151426315308 -0.231489285826683044 -0.018069561570882797 -0.067939884960651398 -0.266856163740158081 0.141957700252532959 0.034239239990711212 -0.005471074488013983 0.009588101878762245 -0.162281200289726257 0.090736895799636841 0.106245666742324829 -0.180984079837799072 -0.087709076702594757 -0.052713725715875626 0.108116634190082550 -0.157332360744476318 -0.208612605929374695 -0.065314717590808868 0.118573725223541260 0.130156353116035461 0.183506920933723450 -0.115536451339721680 -0.016672465950250626 0.034949582070112228 -0.148922950029373169 -0.038737569004297256 -0.102315239608287811 0.079496353864669800 0.118909515440464020 0.204100579023361206 -0.110932543873786926 0.067896090447902679 -0.229573890566825867 -0.104634679853916168 -0.152998849749565125 -0.056901931762695312 0.014433480799198151 0.003216789104044437 -0.212937384843826294 -0.069976016879081726 -0.065300427377223969 -0.248752549290657043 0.102353982627391815 -0.064200714230537415 -0.031494315713644028 -0.130046308040618896 -0.060316771268844604 -0.147846117615699768 0.169543251395225525 -0.185918226838111877 0.093402571976184845 0.005405961535871029 0.095453076064586639 0.003786356421187520 0.110465481877326965 0.168366909027099609 -0.151777371764183044 0.091080054640769958 -0.125584706664085388 0.148460566997528076 0.046767711639404297 -0.193750247359275818 0.356700062751770020 0.007748632691800594 0.176213666796684265 -0.215109080076217651 -0.131891995668411255 -0.044917322695255280 -0.141506537795066833 0.145141795277595520 -0.100372686982154846 -0.120524354279041290 -0.092131294310092926 -0.195481330156326294 -0.027002738788723946 0.111481174826622009
-0.017908062785863876 -0.106447488069534302 0.049296479672193527 0.123498268425464630 -0.107290372252464294 -0.109759770333766937 0.008977923542261124 0.026059761643409729 0.083057329058647156 -0.136749178171157837 -0.003512881696224213 -0.104574717581272125 -0.109666287899017334 0.129094123840332031 0.089205086231231689 -0.009333052672445774 -0.059635084122419357 -0.133633792400360107 -0.173749551177024841 -0.031731050461530685 -0.086523346602916718 0.013894796371459961 0.079804509878158569 -0.158564642071723938 -0.098524659872055054 0.115747541189193726 0.045225597918033600 -0.083627812564373016 -0.169208839535713196 0.053734157234430313 -0.021107630804181099 -0.086665503680706024 0.181439369916915894 0.147082000970840454 -0.052043318748474121 -0.013471739366650581 0.093818835914134979 -0.066394820809364319 -0.159011587500572205 -0.083290114998817444 0.042845740914344788 0.099542044103145599 -0.074713952839374542 0.131423354148864746 -0.037494692951440811 -0.091768324375152588 0.015552000142633915 0.185249090194702148 0.081441290676593781 -0.122825756669044495 -0.157126918435096741 -0.057483397424221039 -0.096083365380764008 -0.033900223672389984 0.136046454310417175 -0.180921986699104309 -0.158395886421203613 -0.110085994005203247 0.043443355709314346 0.151515915989875793 -0.105349354445934296 -0.034717720001935959 -0.020128397271037102 0.093218356370925903 -0.166743025183677673 -0.081672511994838715 0.165073230862617493 0.057176180183887482 0.000481183378724381 0.131898909807205200 0.066332414746284485 0.117041364312171936 -0.137816786766052246 0.084931463003158569 -0.168136999011039734 -0.149934604763984680 -0.080461956560611725 0.064544059336185455 -0.093274787068367004 -0.052584227174520493 0.069589361548423767 0.125628367066383362 0.041870221495628357 0.096843093633651733 0.123943917453289032 -0.081014290452003479 -0.030166519805788994 0.040335465222597122 -0.063449546694755554 -0.057333309203386307 0.080589801073074341 0.129213958978652954 0.105407208204269409 -0.094983555376529694 -0.068415366113185883 -0.043499056249856949 -0.001652580918744206 0.069709397852420807 -0.130887448787689209 -0.150588244199752808
0.096483953297138214 0.057054217904806137 -0.146586850285530090 0.129264712333679199 0.151110351085662842 0.092189930379390717 -0.108780086040496826 0.071777395904064178 -0.075947985053062439 -0.098929889500141144 0.106430403888225555 -0.052226752042770386 -0.104193337261676788 0.115927107632160187 0.110183440148830414 -0.156885609030723572 -0.037260558456182480 -0.034446734935045242 0.043346866965293884 -0.098913483321666718 -0.077513560652732849 0.102360367774963379 -0.155929863452911377 0.030815409496426582 0.180808931589126587 0.093962535262107849 -0.042191393673419952 0.090694591403007507 0.037039592862129211 0.079625487327575684 -0.160255834460258484 -0.162192910909652710 -0.013928181491792202 -0.084051094949245453 0.072316780686378479 -0.087224684655666351 -0.076130449771881104 -0.109452746808528900 0.057564157992601395 0.012698645703494549 0.101196385920047760 -0.091574110090732574 0.070847161114215851 0.067070104181766510 0.113866120576858521 -0.172759860754013062 -0.098554708063602448 -0.020084414631128311 0.052756715565919876 0.035194415599107742 0.041304334998130798 0.125380516052246094 -0.022506350651383400 -0.250372469425201416 0.273070991039276123 -0.133330926299095154 -0.037655223160982132 -0.058028787374496460 -0.028479374945163727 -0.036722756922245026 0.037091434001922607 0.012595132924616337 -0.151750147342681885 -0.136364892125129700 0.121959552168846130 0.094776980578899384 0.056318353861570358 -0.122427575290203094 -0.011639308184385300 -0.071204394102096558 0.149726301431655884 0.057174790650606155 -0.155091106891632080 0.142968371510505676 -0.137620612978935242 0.165520682930946350 0.116547465324401855 0.049730423837900162 0.056480400264263153 -0.344773203134536743 -0.120751276612281799 0.119158901274204254 -0.089162021875381470 0.060841049998998642 -0.063969403505325317 -0.059621781110763550 -0.013258456252515316 -0.144864082336425781 0.126106277108192444 -0.096250392496585846 0.057477224618196487 0.093199506402015686 0.068011559545993805 0.161237537860870361 -0.038738895207643509 0.016635609790682793 0.093461632728576660 0.111113086342811584 0.103978857398033142 -0.134251818060874939
-0.049068149179220200 -0.122968882322311401 -0.153726950287818909 0.173207953572273254 0.123715393245220184 0.124412640929222107 -0.107077203691005707 -0.177550941705703735 -0.127316877245903015 0.083441644906997681 0.041499163955450058 0.093991629779338837 -0.047700025141239166 0.133685976266860962 0.058120608329772949 -0.099942281842231750 0.113654494285583496 0.169014886021614075 0.050513558089733124 -0.003010127693414688 -0.174103036522865295 0.067177467048168182 0.116926021873950958 0.143463030457496643 -0.142259180545806885 -0.087625019252300262 -0.178227737545967102 0.152263328433036804 0.022571483626961708 -0.181691855192184448 -0.023950206115841866 0.076845422387123108 -0.112433850765228271 -0.104795448482036591 0.083945348858833313 0.104334913194179535 -0.140740156173706055 -0.027770582586526871 -0.166928663849830627 -0.138194158673286438 -0.192910939455032349 -0.132420957088470459 0.020958341658115387 0.005805832799524069 -0.125008955597877502 -0.158731415867805481 -0.230680942535400391 -0.022463990375399590 0.154050886631011963 0.151344791054725647 -0.032789330929517746 -0.135580167174339294 -0.058991912752389908 0.122338540852069855 -0.096686705946922302 0.094172671437263489 0.159504741430282593 -0.095333985984325409 0.237784668803215027 -0.028587164357304573 0.075891874730587006 -0.000379016826627776 -0.089188300073146820 0.032818026840686798 0.064013190567493439 0.078873090445995331 -0.050109583884477615 0.039652984589338303 0.113832257688045502 0.093937665224075317 -0.024419866502285004 0.041765220463275909 0.144388765096664429 0.153457731008529663 -0.010737604461610317 0.039098881185054779 0.114234991371631622 -0.224852815270423889 0.040806308388710022 -0.045278549194335938 0.137913092970848083 -0.167637035250663757 -0.082432180643081665 -0.002626296365633607 -0.075866125524044037 0.127770900726318359 0.145295515656471252 0.012706998735666275 0.105451948940753937 0.053357094526290894 0.078189596533775330 0.005235475022345781 0.001794126699678600 -0.023387586697936058 0.206802636384963989 0.048623804003000259 0.145648971199989319 0.099569395184516907 0.078354969620704651 0.030665369704365730
-0.126410022377967834 -0.101842433214187622 0.013093419373035431 0.108763039112091064 0.141339763998985291 0.155161455273628235 -0.081139922142028809 0.097715251147747040 -0.130551785230636597 -0.007622430566698313 0.048160087317228317 0.009243053384125233 0.045059509575366974 -0.154734641313552856 -0.120847381651401520 -0.125520378351211548 -0.140982851386070251 -0.087822481989860535 -0.100687883794307709 0.061110299080610275 0.143742009997367859 -0.056879829615354538 0.003389859804883599 0.077289804816246033 0.089356742799282074 0.059002012014389038 -0.127771005034446716 -0.126793578267097473 0.013678828254342079 -0.033663637936115265 -0.068765826523303986 0.115869976580142975 0.088695622980594635 -0.056946508586406708 -0.079127348959445953 -0.177573144435882568 -0.124603599309921265 -0.053404647856950760 0.048103209584951401 -0.061996988952159882 0.005503511521965265 -0.053240798413753510 -0.006950678303837776 -0.088903211057186127 -0.040458481758832932 0.158911064267158508 0.028117181733250618 0.007428904063999653 0.039528738707304001 -0.007292584050446749 -0.024018863216042519 -0.056702874600887299 -0.054436899721622467 0.051108893007040024 0.085716456174850464 -0.019129643216729164 0.140070974826812744 -0.141888275742530823 -0.057668361812829971 0.083712331950664520 0.039174899458885193 -0.156668975949287415 0.025134762749075890 0.050131924450397491 -0.123269855976104736 0.054503969848155975 -0.035004712641239166 -0.149864986538887024 0.080088190734386444 -0.009598688222467899 0.113898999989032745 0.078925967216491699 -0.134900331497192383 0.148316785693168640 0.009715254418551922 -0.013196798972785473 0.101495392620563507 -0.149337217211723328 0.188956722617149353 0.166867986321449280 -0.097847044467926025 -0.055270336568355560 0.124617420136928558 0.161575570702552795 0.159868299961090088 -0.056349236518144608 0.185604497790336609 -0.183113574981689453 -0.088536985218524933 -0.070264242589473724 -0.005239000078290701 -0.121002219617366791 0.041647579520940781 0.045616421848535538 0.130990892648696899 -0.121410362422466278 0.070375248789787292 -0.096101276576519012 -0.104253359138965607 -0.027646562084555626
-0.062777146697044373 0.136584475636482239 -0.008585276082158089 -0.054760418832302094 -0.070378661155700684 0.106033384799957275 0.002505428623408079 -0.127843096852302551 0.031995117664337158 0.088423795998096466 0.008121278136968613 0.127886950969696045 0.145651593804359436 -0.060959190130233765 -0.037282183766365051 0.037728328257799149 -0.102828934788703918 -0.143992334604263306 0.035950887948274612 0.101297341287136078 -0.056040041148662567 0.185253575444221497 -0.194242820143699646 0.079114720225334167 0.090225107967853546 -0.001579275005497038 -0.108478121459484100 -0.017934165894985199 0.084665670990943909 -0.039195224642753601 0.002162605989724398 -0.011532915756106377 0.081280030310153961 -0.041619356721639633 0.030539011582732201 0.127655342221260071 -0.091227211058139801 0.136345699429512024 0.136255159974098206 0.135798275470733643 -0.111359603703022003 -0.095262996852397919 -0.014668649062514305 0.141878962516784668 0.048156686127185822 -0.072771735489368439 0.144868046045303345 -0.056636318564414978 -0.073237702250480652 0.071642979979515076 0.018485931679606438 0.092026554048061371 0.048024602234363556 0.259853452444076538 -0.193630948662757874 -0.044580969959497452 -0.120454140007495880 0.064723573625087738 0.138278841972351074 0.089814811944961548 -0.066761642694473267 -0.079278871417045593 0.102365866303443909 -0.151172921061515808 -0.122973352670669556 -0.188988819718360901 -0.093933112919330597 0.165684700012207031 0.056061465293169022 0.149729311466217041 0.120645634829998016 -0.060143180191516876 0.108932696282863617 -0.020580368116497993 -0.111550524830818176 -0.123446069657802582 -0.097208976745605469 -0.100328274071216583 0.043053682893514633 0.265434801578521729 0.058175180107355118 0.151542305946350098 0.144694820046424866 0.039186201989650726 0.131746038794517517 -0.168519631028175354 0.232350930571556091 -0.167994618415832520 0.138674765825271606 -0.072953820228576660 0.091529846191406250 -0.056283067911863327 -0.122357539832592010 -0.071727029979228973 0.162056013941764832 0.016916641965508461 -0.042030293494462967 -0.022780144587159157 -0.043354302644729614 -0.155362963676452637
0.049700058996677399 0.069182284176349640 -0.154173254966735840 -0.051028057932853699 0.077939011156558990 -0.005973431281745434 -0.018467284739017487 -0.082027167081832886 -0.130122601985931396 -0.141273215413093567 -0.014302823692560196 -0.125508412718772888 0.129337817430496216 0.124683484435081482 -0.008271710947155952 0.007489451207220554 -0.014413055032491684 0.041878469288349152 -0.070473797619342804 0.047804478555917740 0.146320283412933350 -0.096838779747486115 0.101597711443901062 0.089308977127075195 0.163278743624687195 -0.079094789922237396 0.045124135911464691 -0.102980948984622955 -0.151744589209556580 -0.016221109777688980 0.147336766123771667 -0.188586175441741943 0.163095474243164062 0.116007573902606964 0.024720381945371628 -0.046252552419900894 0.098610527813434601 -0.097346715629100800 0.118015900254249573 -0.093287013471126556 -0.095703214406967163 -0.046360410749912262 0.113942652940750122 -0.024275455623865128 0.020088830962777138 -0.011438623070716858 0.112500987946987152 -0.157401263713836670 -0.022823736071586609 0.046143736690282822 0.066443622112274170 -0.069333441555500031 -0.029386382550001144 -0.140361353754997253 0.115469984710216522 -0.124555312097072601 -0.011253921315073967 0.049369491636753082 -0.164768561720848083 -0.089165695011615753 -0.133812919259071350 0.091487273573875427 0.153020456433296204 -0.137807816267013550 0.060123693197965622 0.015296861529350281 -0.166726440191268921 0.032484494149684906 -0.024189364165067673 0.033091470599174500 -0.016001667827367783 -0.078762114048004150 0.107716031372547150 0.123857825994491577 -0.139201790094375610 0.038628455251455307 -0.123874031007289886 0.095733933150768280 0.091478802263736725 -0.100877381861209869 0.082345485687255859 0.155714288353919983 -0.066186480224132538 -0.172483175992965698 -0.008360604755580425 -0.137348875403404236 -0.021035799756646156 0.145921334624290466 -0.106621213257312775 -0.118997953832149506 -0.034981735050678253 0.053119000047445297 -0.116069801151752472 0.022539846599102020 -0.166846349835395813 0.155949711799621582 -0.003924209624528885 0.229193106293678284 -0.078873068094253540 0.059092737734317780
