#Layer 5 Weights:
-0.142348200082778931 0.107134707272052765 0.160016551613807678 -0.052148059010505676 -0.012786712497472763 -0.024083735421299934 -0.026264829561114311 0.040284335613250732 0.113981053233146667 0.011561709456145763 0.050136484205722809 0.027469368651509285 0.129919961094856262 -0.105023920536041260 0.077026799321174622 0.142560079693794250 -0.144104436039924622 -0.118449665606021881 0.108682662248611450 -0.149346053600311279 0.127818867564201355 -0.153245687484741211 -0.116962380707263947 -0.056467372924089432 -0.033653914928436279 -0.102369345724582672 0.048179585486650467 -0.081553958356380463 0.151084020733833313 -0.084925994277000427 -0.104375310242176056 -0.043791029602289200 -0.043677724897861481 0.053181815892457962 0.015669276937842369 0.028811665251851082 0.116212151944637299 -0.048096939921379089 0.076795428991317749 0.072630815207958221 0.092796862125396729 0.073611475527286530 -0.075743623077869415 0.095827579498291016 0.115836545825004578 -0.070782892405986786 -0.067881561815738678 -0.109576314687728882 -0.000549370364751667 0.037480704486370087 0.052519056946039200 0.122194737195968628 0.064131662249565125 0.049170434474945068 0.136668413877487183 -0.035459540784358978 0.026197507977485657 -0.134348779916763306 -0.056963697075843811 0.031099537387490273 -0.131778642535209656 0.160650938749313354 -0.152013301849365234 -0.077431112527847290 -0.124922528862953186 0.156030610203742981 -0.063268139958381653 0.010188991203904152 0.151724606752395630 0.046400777995586395 -0.002324395347386599 0.023732049390673637 0.051101434975862503 -0.100208528339862823 0.058174196630716324 -0.112909331917762756 0.129684433341026306 0.078464947640895844 0.002671262482181191 -0.149682983756065369 0.100761331617832184 -0.054074786603450775 0.119162291288375854 -0.048016186803579330 -0.064498111605644226 0.085983976721763611 -0.129448145627975464 0.073732659220695496 0.085142321884632111 -0.067730836570262909 -0.166130959987640381 0.038287669420242310 -0.021951219066977501 0.094774596393108368 -0.104942917823791504 -0.022255778312683105 0.088890701532363892 -0.013586743734776974 0.111450523138046265 -0.050942420959472656
0.170000866055488586 0.123255185782909393 -0.001754295662976801 0.117361359298229218 0.067827224731445312 0.122772157192230225 0.022097079083323479 -0.076677978038787842 0.118715368211269379 0.106589794158935547 -0.072513297200202942 0.046396609395742416 0.156558483839035034 -0.121945485472679138 0.046429391950368881 -0.034582640975713730 0.073900178074836731 0.202398210763931274 0.191623553633689880 0.067930705845355988 -0.110183879733085632 0.055528186261653900 -0.173293441534042358 -0.087157808244228363 0.035321004688739777 -0.136140644550323486 -0.072473742067813873 -0.003730007680132985 -0.094646848738193512 -0.076707966625690460 -0.086791649460792542 0.042368337512016296 -0.080656960606575012 0.008564727380871773 0.000556907616555691 -0.096096098423004150 -0.052762500941753387 -0.030216904357075691 0.120648533105850220 0.002251552185043693 -0.005375341977924109 -0.105382479727268219 0.133462727069854736 0.048726279288530350 0.012245387770235538 -0.015578719787299633 0.024145487695932388 -0.128096908330917358 -0.033336512744426727 -0.160365805029869080 -0.090732276439666748 -0.099106714129447937 -0.086270831525325775 -0.161732733249664307 0.148952990770339966 0.129175528883934021 0.084459200501441956 0.100997820496559143 0.061615731567144394 -0.119206711649894714 -0.064585924148559570 -0.004783183336257935 -0.103935383260250092 -0.125655293464660645 0.114371396601200104 -0.072804950177669525 -0.137128949165344238 -0.151338636875152588 0.061327520757913589 0.080262556672096252 0.021305516362190247 0.043635025620460510 -0.074766069650650024 -0.191964566707611084 -0.142824798822402954 -0.204254001379013062 0.130414709448814392 0.065430156886577606 0.058966256678104401 0.015127922408282757 -0.019809244200587273 0.093962728977203369 0.074120253324508667 -0.252131104469299316 -0.160745382308959961 -0.116398386657238007 0.020159805193543434 -0.079852186143398285 -0.058583643287420273 0.017539586871862411 0.096942462027072906 -0.118499882519245148 0.012882051989436150 -0.107528187334537506 -0.020862756296992302 -0.117964439094066620 0.155102714896202087 -0.180969804525375366 0.066263034939765930 0.007824243977665901
0.177330970764160156 -0.005969286430627108 0.141354501247406006 -0.029866166412830353 0.043525159358978271 0.012598254717886448 0.026077153161168098 0.033567175269126892 -0.020990293473005295 -0.088138565421104431 0.035748288035392761 0.009208392351865768 -0.043906632810831070 -0.068375639617443085 -0.140550598502159119 0.070606850087642670 0.012505453079938889 -0.016196323558688164 -0.090070307254791260 0.030857555568218231 -0.109476998448371887 0.040386300534009933 0.097493477165699005 0.081059627234935760 0.110718533396720886 0.076404429972171783 0.049428429454565048 0.065555885434150696 0.012241489253938198 -0.138443976640701294 -0.164736226201057434 -0.085336230695247650 0.154849603772163391 0.013002964667975903 0.190764605998992920 0.034807763993740082 -0.057706262916326523 0.120059020817279816 -0.147315025329589844 0.108685009181499481 -0.049322813749313354 0.171802103519439697 0.089420393109321594 0.040359098464250565 -0.194030478596687317 0.029401473701000214 -0.027976369485259056 0.140451252460479736 0.009021069854497910 -0.011809340678155422 0.078069038689136505 0.004449457861483097 0.104536429047584534 0.002513229846954346 0.114519372582435608 0.150325641036033630 -0.151358798146247864 0.063228271901607513 0.055805742740631104 -0.148095116019248962 -0.065583683550357819 -0.052463438361883163 0.195610255002975464 -0.039765693247318268 0.222607731819152832 0.008216856978833675 0.159349083900451660 0.137643843889236450 0.060476697981357574 -0.088220611214637756 -0.091332904994487762 -0.084504216909408569 -0.068993315100669861 0.182358339428901672 -0.139057233929634094 -0.023065451532602310 -0.108320303261280060 -0.003821746911853552 0.059368729591369629 0.142913997173309326 0.151832252740859985 -0.006636111997067928 0.066886149346828461 -0.192593917250633240 -0.163107156753540039 0.010027759708464146 0.052500810474157333 0.010812775231897831 0.015006992034614086 -0.145285502076148987 -0.036055140197277069 -0.129033848643302917 -0.005602287594228983 0.127055794000625610 0.115765713155269623 -0.035140175372362137 0.034797213971614838 0.004393893759697676 0.095963619649410248 0.077619940042495728
-0.071690820157527924 -0.068859830498695374 -0.128374427556991577 0.143323048949241638 0.074981644749641418 -0.241253599524497986 0.040464621037244797 -0.015549852512776852 0.032757349312305450 -0.009270480833947659 -0.123910538852214813 0.045549996197223663 0.084963262081146240 0.117532618343830109 0.086089596152305603 0.045279767364263535 0.016118051484227180 0.115667060017585754 0.046298079192638397 -0.047992262989282608 0.065110988914966583 0.229639321565628052 0.093028597533702850 0.166746929287910461 -0.042960807681083679 0.029888583347201347 -0.123441480100154877 0.012494377791881561 0.050653867423534393 0.128637611865997314 -0.045368283987045288 -0.061981052160263062 -0.060403767973184586 -0.115789197385311127 -0.145689249038696289 0.099077925086021423 0.002535620937123895 -0.091386198997497559 0.109779864549636841 0.114890716969966888 0.190922901034355164 -0.101518005132675171 -0.108710147440433502 0.013886887580156326 0.001751914969645441 0.100177526473999023 -0.036270540207624435 0.044962089508771896 -0.121327877044677734 0.033484861254692078 -0.076973944902420044 -0.155574083328247070 -0.076601311564445496 -0.061424229294061661 -0.016114460304379463 -0.083414204418659210 -0.054918315261602402 -0.121211439371109009 0.095474764704704285 -0.048833124339580536 -0.155090734362602234 -0.017983930185437202 -0.104459419846534729 0.083113715052604675 -0.005201226100325584 -0.106016524136066437 -0.100003734230995178 -0.088542178273200989 0.103374265134334564 -0.161910742521286011 -0.066272094845771790 0.003180613974109292 0.005665085278451443 -0.001912846229970455 0.091387845575809479 0.040226649492979050 -0.095362506806850433 0.019326785579323769 -0.073709607124328613 0.087091930210590363 0.101318053901195526 0.010250139050185680 -0.002695571631193161 0.109768778085708618 -0.181602492928504944 -0.047268569469451904 0.055785529315471649 -0.055811196565628052 -0.129424408078193665 0.096461795270442963 -0.112314663827419281 0.013164879754185677 0.099422112107276917 0.112323157489299774 0.015966212376952171 0.151878729462623596 0.173981919884681702 0.028895333409309387 -0.117594219744205475 -0.037953503429889679
0.019674858078360558 0.057023722678422928 -0.167671129107475281 0.228222236037254333 -0.032801643013954163 -0.063803613185882568 -0.021006571128964424 0.175776317715644836 -0.029059972614049911 -0.030510129407048225 -0.087144821882247925 0.094052329659461975 0.097519211471080780 -0.015433611348271370 0.075664885342121124 0.078322649002075195 0.092112541198730469 0.060074213892221451 -0.110603861510753632 0.070586003363132477 -0.133152157068252563 -0.051676873117685318 0.161365181207656860 -0.025142559781670570 0.095909982919692993 0.055375866591930389 -0.166645675897598267 -0.017560267820954323 0.132689237594604492 0.146265476942062378 -0.041938766837120056 0.018889524042606354 0.116979420185089111 0.037701796740293503 0.095186926424503326 -0.104158759117126465 -0.162266328930854797 0.059670303016901016 -0.123289525508880615 0.086941860616207123 -0.021006923168897629 -0.135572850704193115 0.018563861027359962 -0.053606927394866943 -0.082080312073230743 -0.018770175054669380 -0.114835545420646667 -0.012084631249308586 -0.014956801198422909 0.177166953682899475 -0.128614589571952820 0.167130976915359497 -0.180085048079490662 -0.010805875062942505 -0.082975603640079498 0.151665449142456055 -0.094080097973346710 -0.075321480631828308 0.058461014181375504 0.123140938580036163 0.014604548923671246 0.119731508195400238 0.018550634384155273 -0.108650140464305878 -0.142390161752700806 -0.008539246395230293 0.028255295008420944 0.047222863882780075 -0.057848792523145676 0.126531451940536499 0.023795034736394882 0.041757803410291672 0.123702213168144226 -0.122271940112113953 -0.145366966724395752 -0.114370398223400116 -0.053445234894752502 0.097863256931304932 -0.001069575198926032 0.070833086967468262 -0.092850349843502045 0.047452267259359360 -0.058660268783569336 -0.197311356663703918 -0.139827266335487366 0.082586579024791718 -0.117268502712249756 -0.065301522612571716 -0.026107685640454292 0.025374749675393105 -0.092077709734439850 0.075603984296321869 -0.050434045493602753 0.096016079187393188 -0.014172014780342579 0.115659542381763458 -0.093698613345623016 -0.145175337791442871 0.127992957830429077 -0.136146739125251770
0.017329540103673935 -0.257432371377944946 0.117690540850162506 -0.124237574636936188 -0.084845155477523804 0.064849108457565308 0.149529829621315002 -0.027068072929978371 -0.108292602002620697 -0.165737897157669067 0.158678203821182251 -0.115477681159973145 0.022948909550905228 -0.115304365754127502 -0.074045650660991669 0.177843183279037476 0.079781711101531982 -0.094992898404598236 0.040761541575193405 0.066446177661418915 0.116931580007076263 0.090927168726921082 -0.148565113544464111 -0.088550455868244171 0.153636366128921509 -0.019278183579444885 0.090756356716156006 -0.061400774866342545 -0.088267631828784943 -0.084590390324592590 0.011856027878820896 0.018863849341869354 -0.104409910738468170 -0.145226567983627319 0.070761993527412415 -0.155813232064247131 0.130858361721038818 0.081072054803371429 -0.160323798656463623 -0.048445805907249451 0.035616382956504822 -0.001882194890640676 0.025637043640017509 -0.120224580168724060 0.119647771120071411 0.029673630371689796 -0.149228364229202271 0.076617442071437836 0.167297229170799255 0.062016785144805908 0.140002205967903137 0.002167983446270227 0.101452477276325226 -0.146432712674140930 0.134539678692817688 0.161692798137664795 -0.004950260277837515 -0.071203179657459259 -0.182345360517501831 -0.199411123991012573 -0.028359435498714447 0.153217375278472900 0.194713413715362549 0.041399314999580383 -0.061998080462217331 -0.045917853713035583 -0.105975300073623657 0.075664542615413666 -0.137811914086341858 0.158022135496139526 0.088692270219326019 -0.130276307463645935 -0.046289946883916855 0.063000909984111786 -0.060505185276269913 -0.041932422667741776 0.047399837523698807 0.182453021407127380 0.146840885281562805 -0.030005613341927528 0.078648924827575684 0.157617300748825073 -0.056825175881385803 -0.046233229339122772 -0.137188643217086792 0.090203270316123962 0.133403092622756958 0.055760879069566727 0.177232488989830017 0.076426848769187927 -0.155723020434379578 -0.033350277692079544 0.085511080920696259 -0.069931611418724060 -0.109922662377357483 0.094458907842636108 -0.017085816711187363 0.110002264380455017 0.026153258979320526 -0.137331470847129822
-0.027944605797529221 0.130021855235099792 -0.048525296151638031 0.027784334495663643 -0.096316285431385040 0.051725361496210098 -0.030380846932530403 -0.033408589661121368 -0.137665852904319763 -0.048439286649227142 0.003162670182064176 -0.022162012755870819 0.092198923230171204 0.030563913285732269 -0.047085195779800415 -0.079518124461174011 0.162959352135658264 -0.050065271556377411 0.041316453367471695 -0.090138077735900879 -0.053819164633750916 -0.127713978290557861 0.022191161289811134 -0.063656084239482880 -0.030017081648111343 -0.001785793923772871 -0.110680319368839264 -0.073695614933967590 -0.058965954929590225 -0.147643119096755981 0.145966902375221252 -0.083039909601211548 -0.119393058121204376 -0.107510216534137726 0.028232682496309280 0.160512685775756836 -0.086719796061515808 0.147601947188377380 -0.025468859821557999 0.059757575392723083 0.079198278486728668 0.137207046151161194 -0.018268542364239693 -0.050200264900922775 0.071300923824310303 0.133414089679718018 0.049255572259426117 0.000829999626148492 -0.137359201908111572 0.090252868831157684 -0.030886849388480186 0.130731448531150818 -0.127110451459884644 0.070483639836311340 0.049074910581111908 -0.035204920917749405 0.073154054582118988 0.162963613867759705 0.078318640589714050 0.082554839551448822 -0.133714437484741211 0.111865997314453125 -0.081712201237678528 -0.109130606055259705 -0.040949959307909012 -0.146567955613136292 0.114620514214038849 0.010914289392530918 -0.083266183733940125 -0.052655883133411407 -0.147270888090133667 0.101433157920837402 -0.082114562392234802 -0.118600830435752869 -0.071511976420879364 -0.103943489491939545 0.092886425554752350 -0.021738409996032715 -0.088642150163650513 0.005194641649723053 0.122512631118297577 -0.124815754592418671 -0.110912255942821503 -0.069268167018890381 0.036688704043626785 -0.037125490605831146 -0.144102171063423157 -0.115671038627624512 -0.044629562646150589 -0.151297166943550110 0.165542721748352051 -0.045771356672048569 -0.055056594312191010 0.147737726569175720 0.156966447830200195 -0.027347624301910400 0.047033447772264481 -0.119964346289634705 -0.089141279458999634 -0.140807852149009705
-0.041525755077600479 0.105626210570335388 0.100314788520336151 0.187252506613731384 -0.140195325016975403 0.104820273816585541 0.120669126510620117 0.157128363847732544 -0.049556497484445572 -0.011789092794060707 0.054186780005693436 0.033826675266027451 0.141676858067512512 0.016886197030544281 0.033949065953493118 -0.032938543707132339 0.121845833957195282 0.009231464937329292 0.062899030745029449 -0.007633259985595942 -0.133185833692550659 0.040268741548061371 -0.113465495407581329 0.038710240274667740 -0.120415195822715759 -0.025431793183088303 0.069637879729270935 0.159858927130699158 -0.121996402740478516 -0.088622301816940308 0.022982163354754448 0.025126261636614799 0.040076907724142075 -0.110595889389514923 0.115871325135231018 0.140455201268196106 0.114898905158042908 -0.085876531898975372 0.071660198271274567 0.075726851820945740 0.160588175058364868 -0.075345113873481750 0.136937424540519714 -0.090902812778949738 -0.079886220395565033 -0.054497938603162766 0.012223318219184875 -0.053889080882072449 0.008806996047496796 -0.105040274560451508 0.150497168302536011 -0.027956467121839523 -0.115538097918033600 0.144669160246849060 -0.162394940853118896 0.051555350422859192 -0.142226457595825195 0.055298294872045517 0.102357827126979828 -0.017518334090709686 0.065652951598167419 0.106980979442596436 0.055922221392393112 0.021534239873290062 -0.104250185191631317 -0.024520821869373322 -0.004999753087759018 -0.175495877861976624 -0.165106236934661865 0.159342229366302490 -0.116197161376476288 -0.016234548762440681 -0.019712926819920540 -0.051114842295646667 -0.060015536844730377 0.066321469843387604 0.002760633360594511 -0.020415658131241798 0.104006789624691010 -0.079622812569141388 -0.158385723829269409 -0.059000864624977112 -0.153044968843460083 -0.041163604706525803 0.070377163589000702 -0.101959064602851868 0.167530462145805359 0.115394055843353271 -0.192740589380264282 0.082078121602535248 0.004262917675077915 0.066858924925327301 0.170749381184577942 -0.134369939565658569 0.016489587724208832 -0.059209696948528290 0.040601514279842377 -0.169532537460327148 0.157722145318984985 -0.137715116143226624
0.137079119682312012 0.133795112371444702 0.032294083386659622 -0.110085338354110718 -0.089164264500141144 0.152630552649497986 -0.104316294193267822 0.142472207546234131 0.083583183586597443 0.190615162253379822 0.076338112354278564 0.085897490382194519 -0.091428965330123901 -0.090329729020595551 0.015930142253637314 0.104047320783138275 0.116825550794601440 -0.013398100621998310 -0.086208932101726532 -0.178008362650871277 0.075529724359512329 -0.096637643873691559 0.093098118901252747 -0.052565358579158783 0.021055489778518677 0.196184739470481873 0.153991356492042542 0.104885429143905640 0.078887633979320526 0.142266035079956055 -0.157175436615943909 -0.076088845729827881 0.179717525839805603 0.087438188493251801 0.096588850021362305 -0.185441553592681885 -0.133321866393089294 0.001394816092215478 0.042415849864482880 -0.173420205712318420 -0.084181316196918488 0.003688844619318843 0.047393545508384705 0.112009070813655853 -0.225654184818267822 -0.127038687467575073 0.113097995519638062 0.120079554617404938 0.130013167858123779 0.110768847167491913 -0.065017148852348328 -0.041385523974895477 0.124208047986030579 0.066905379295349121 0.054059002548456192 0.085207700729370117 -0.043808791786432266 -0.055805858224630356 0.100543290376663208 -0.190563514828681946 0.060977648943662643 0.197619527578353882 0.089412666857242584 -0.116771794855594635 0.109034664928913116 -0.071930669248104095 -0.097568437457084656 -0.117943875491619110 -0.053714770823717117 -0.191177740693092346 0.159140735864639282 -0.108540408313274384 0.044982191175222397 0.026890389621257782 0.023160895332694054 -0.033730756491422653 0.081525534391403198 -0.134177669882774353 -0.296800196170806885 0.022279553115367889 0.087701559066772461 0.106202416121959686 0.091746456921100616 -0.097809627652168274 -0.087839365005493164 -0.029828989878296852 0.036353409290313721 0.128937140107154846 0.161522448062896729 0.118698313832283020 0.187953382730484009 0.141547501087188721 0.016983697190880775 0.086929239332675934 0.101692326366901398 -0.107725724577903748 0.049146473407745361 -0.114782020449638367 0.153666853904724121 -0.004418592900037766
-0.062843248248100281 0.065080262720584869 -0.089482739567756653 0.128349438309669495 0.156918242573738098 0.174195617437362671 0.030976735055446625 -0.094496250152587891 -0.122439309954643250 0.164458632469177246 0.040362913161516190 0.205651924014091492 -0.151404902338981628 0.145198643207550049 -0.047470215708017349 -0.037515010684728622 -0.010527772828936577 0.088919185101985931 0.035528156906366348 0.055048812180757523 0.024742348119616508 -0.145164042711257935 0.155996233224868774 0.102882474660873413 0.050646170973777771 -0.070421479642391205 0.157358080148696899 -0.087043918669223785 0.031329967081546783 0.018315611407160759 0.024821126833558083 0.110550597310066223 -0.113326661288738251 0.099417604506015778 0.063151784241199493 -0.095311172306537628 -0.158230885863304138 0.102702438831329346 0.134943559765815735 0.039123781025409698 0.154747977852821350 0.096238046884536743 -0.157191351056098938 0.146702006459236145 0.055874764919281006 -0.167574986815452576 -0.102949693799018860 0.077361136674880981 -0.154195770621299744 -0.105191513895988464 0.061133492738008499 0.005809125024825335 -0.071490392088890076 -0.105587251484394073 0.165088772773742676 0.054803378880023956 0.029404867440462112 0.072763800621032715 0.065341532230377197 -0.011449507437646389 0.133648484945297241 -0.145451530814170837 -0.028397405520081520 -0.043990463018417358 -0.035128075629472733 -0.058469567447900772 0.017971649765968323 0.156395435333251953 -0.085495412349700928 0.079050734639167786 -0.014405497349798679 0.105046853423118591 -0.124624766409397125 -0.072412088513374329 -0.100232414901256561 0.028180092573165894 0.065204851329326630 -0.086849525570869446 -0.005674335639923811 -0.033418912440538406 -0.006383502390235662 0.148483589291572571 -0.091793596744537354 -0.187403693795204163 0.087225705385208130 -0.089577242732048035 0.026648337021470070 0.061805170029401779 0.038565184921026230 0.010581428185105324 0.021770240738987923 -0.140072047710418701 0.136828407645225525 -0.014359731227159500 0.116019755601882935 -0.080055765807628632 0.162447601556777954 -0.164030447602272034 0.017380166798830032 -0.137297227978706360
-0.073212139308452606 -0.092729695141315460 0.026783030480146408 0.079396441578865051 0.043213739991188049 -0.102657556533813477 0.125214144587516785 -0.007473667152225971 -0.137470647692680359 -0.046500302851200104 -0.025285081937909126 -0.037664528936147690 0.059418495744466782 -0.010737597011029720 -0.156230300664901733 0.081479601562023163 -0.015254259109497070 -0.049094621092081070 0.063517935574054718 -0.147321209311485291 0.138234496116638184 -0.066821038722991943 0.043986182659864426 -0.144681304693222046 -0.047850478440523148 -0.059767972677946091 0.050496336072683334 -0.143884226679801941 -0.187027409672737122 0.059394039213657379 0.143275454640388489 -0.018293822184205055 -0.178799286484718323 0.163040071725845337 0.173149764537811279 0.055389191955327988 0.101402997970581055 -0.066435135900974274 0.119852639734745026 -0.073678307235240936 -0.048121206462383270 -0.205365613102912903 0.112326897680759430 0.051767360419034958 0.130921840667724609 0.112515456974506378 0.061490695923566818 0.054265636950731277 -0.029553420841693878 0.021437656134366989 -0.074819080531597137 -0.023970518261194229 -0.132903560996055603 -0.042310029268264771 -0.127692937850952148 -0.049510464072227478 0.151162192225456238 -0.053259778767824173 0.137141168117523193 0.123828597366809845 0.170910403132438660 -0.049377262592315674 -0.042213432490825653 0.006491883192211390 -0.111870095133781433 0.146225795149803162 0.013360519893467426 0.017967347055673599 -0.093381129205226898 -0.108656622469425201 0.005629577208310366 0.060539495199918747 -0.072448343038558960 0.006332833785563707 0.030540952458977699 0.048176702111959457 -0.010645616799592972 0.007477283943444490 -0.011547670699656010 0.097134768962860107 -0.030859163030982018 -0.114400133490562439 -0.158577919006347656 -0.138049378991127014 0.220559850335121155 0.044610757380723953 -0.069187328219413757 0.124472580850124359 -0.117079325020313263 -0.109543763101100922 -0.128688454627990723 -0.003682390786707401 0.021404873579740524 -0.038334872573614120 0.079053230583667755 -0.087607949972152710 -0.139374449849128723 -0.052710201591253281 -0.159192904829978943 0.114421941339969635
-0.057497654110193253 0.028340455144643784 -0.023379512131214142 -0.047802243381738663 0.023355955258011818 -0.111988216638565063 0.046648517251014709 -0.128111943602561951 0.056499894708395004 0.073971211910247803 0.127712085843086243 -0.032343894243240356 -0.042040694504976273 -0.024877013638615608 -0.079990163445472717 -0.107344284653663635 0.134737163782119751 0.026787079870700836 -0.155857563018798828 -0.142624631524085999 0.141950666904449463 -0.005698346998542547 -0.149188742041587830 -0.181789293885231018 0.165507972240447998 -0.083951950073242188 -0.036364674568176270 0.000173672684468329 0.077001541852951050 0.004397021606564522 0.107481680810451508 -0.008594734594225883 -0.041063982993364334 0.099864721298217773 0.028845788910984993 -0.127002269029617310 -0.026582947000861168 0.055191267281770706 0.010783004574477673 0.122336685657501221 0.081191904842853546 0.050666172057390213 0.103724867105484009 0.060876548290252686 0.161138266324996948 -0.079532004892826080 -0.089298024773597717 0.048969864845275879 0.153110429644584656 0.148357793688774109 0.116801016032695770 -0.014609714969992638 -0.035556402057409286 0.146310329437255859 -0.001520281191915274 0.048157390207052231 0.121418118476867676 0.028380742296576500 -0.050467133522033691 0.003336448688060045 -0.035815533250570297 0.136369809508323669 -0.173373982310295105 -0.037645064294338226 -0.020291067659854889 0.009982571005821228 -0.106350965797901154 0.120995253324508667 -0.041261970996856689 0.130121439695358276 0.072355292737483978 0.053928494453430176 0.097097091376781464 -0.094963558018207550 0.138324797153472900 -0.140731513500213623 0.065008103847503662 -0.178138449788093567 -0.056986615061759949 -0.084699541330337524 -0.134665608406066895 -0.015124682337045670 0.030020058155059814 0.074997857213020325 -0.111212305724620819 0.110336415469646454 -0.106894977390766144 0.080307960510253906 -0.066287904977798462 0.031826715916395187 0.073739282786846161 -0.118912123143672943 0.098129838705062866 -0.025763690471649170 0.023445351049304008 0.040889374911785126 -0.082943953573703766 0.023988794535398483 0.098006248474121094 -0.093905240297317505
0.019262108951807022 0.015910526737570763 -0.046417463570833206 0.072778411209583282 0.068345218896865845 0.035070739686489105 -0.048901405185461044 -0.105102412402629852 -0.098993860185146332 0.074399530887603760 -0.082653105258941650 0.098996251821517944 -0.107183739542961121 -0.157335057854652405 -0.098550841212272644 -0.102784790098667145 -0.107296206057071686 -0.012135635130107403 0.113254070281982422 -0.092771306633949280 0.097301118075847626 -0.170983716845512390 -0.004406758118420839 -0.106310009956359863 0.029056828469038010 -0.077878877520561218 -0.047937911003828049 0.017206000164151192 -0.104375213384628296 -0.027173576876521111 -0.006457284092903137 0.108452349901199341 0.167083531618118286 -0.064205534756183624 0.112888246774673462 0.175810337066650391 0.162058770656585693 -0.143526598811149597 0.039573501795530319 0.008648628368973732 -0.066517204046249390 0.039204075932502747 -0.167585685849189758 0.098675191402435303 0.096104733645915985 0.078738495707511902 0.003328258870169520 0.124869786202907562 0.133847340941429138 0.095843538641929626 0.145316258072853088 0.139373049139976501 0.139610588550567627 0.059748038649559021 0.094919897615909576 0.010372114367783070 -0.124112129211425781 -0.182799860835075378 0.047491692006587982 -0.094654805958271027 0.024530045688152313 0.100171372294425964 -0.005740850232541561 -0.085982255637645721 -0.003377147950232029 0.157132461667060852 -0.087438538670539856 0.136659562587738037 -0.098998218774795532 0.040063522756099701 0.000629185582511127 -0.021454650908708572 0.030216427519917488 -0.025494253262877464 0.138211503624916077 0.130455598235130310 0.025109622627496719 -0.072622373700141907 -0.021131243556737900 -0.022441860288381577 0.150991395115852356 -0.081891231238842010 0.039523635059595108 0.030047973617911339 0.060011949390172958 -0.022578267380595207 -0.013359689153730869 0.031145140528678894 0.168339908123016357 -0.016311876475811005 0.086029790341854095 -0.092999577522277832 0.069520927965641022 -0.154175177216529846 -0.132798165082931519 0.107703901827335358 -0.141171351075172424 0.053010713309049606 0.039399091154336929 -0.059723645448684692
-0.131129130721092224 -0.280903607606887817 0.073310002684593201 -0.228150531649589539 0.068853013217449188 -0.124181956052780151 0.126674011349678040 -0.110602438449859619 0.014585977420210838 -0.168550595641136169 0.135631531476974487 -0.066867090761661530 0.083871267735958099 0.134480401873588562 -0.147113800048828125 -0.116784796118736267 -0.133075207471847534 0.016324866563081741 -0.160055086016654968 -0.019919330254197121 0.024242887273430824 -0.079291105270385742 0.006990213878452778 -0.042215071618556976 -0.109432205557823181 -0.075547985732555389 -0.007846054621040821 -0.015895273536443710 0.148076966404914856 -0.162045970559120178 0.171784475445747375 0.049878828227519989 0.037907768040895462 -0.140642210841178894 0.072900064289569855 -0.075436122715473175 -0.002354218158870935 0.114872239530086517 0.190740600228309631 -0.047771897166967392 0.079595066606998444 0.142092421650886536 0.055254615843296051 -0.009471060708165169 0.080878876149654388 -0.008668292313814163 0.124576665461063385 0.119089774787425995 0.102298215031623840 0.047289557754993439 0.081802658736705780 -0.061412848532199860 0.210498049855232239 -0.127232745289802551 -0.073586612939834595 -0.031306587159633636 0.127672299742698669 0.062201987951993942 0.064485907554626465 -0.000218211440369487 -0.022717421874403954 -0.080012589693069458 -0.097315452992916107 0.207185402512550354 -0.245906025171279907 -0.060534060001373291 -0.074130028486251831 0.154024749994277954 0.009132055565714836 0.015363113954663277 0.076883427798748016 0.048362720757722855 0.065229140222072601 -0.164889693260192871 0.165118157863616943 0.111242204904556274 0.019099483266472816 0.022401424124836922 0.054791416972875595 -0.132661908864974976 0.003527000779286027 0.127543941140174866 -0.083897359669208527 0.252095073461532593 0.057673662900924683 0.092787712812423706 0.132801070809364319 0.134300842881202698 0.069376647472381592 -0.142159268260002136 0.070477031171321869 -0.065908864140510559 -0.092192493379116058 -0.035196859389543533 0.162722334265708923 0.000204641328309663 0.033579129725694656 0.115013979375362396 -0.058374401181936264 0.106723286211490631
-0.129173651337623596 0.122762896120548248 0.044879421591758728 -0.131862968206405640 0.100490763783454895 -0.120534248650074005 0.142435163259506226 0.081708431243896484 -0.050036188215017319 -0.089822478592395782 0.068537734448909760 -0.071151547133922577 -0.046888042241334915 0.021136971190571785 -0.013697409071028233 -0.085652664303779602 -0.022768054157495499 -0.155286446213722229 0.119253747165203094 -0.080753356218338013 0.068006910383701324 0.096265077590942383 0.150826781988143921 -0.130256697535514832 -0.132284879684448242 0.150970295071601868 -0.132797360420227051 0.163857772946357727 -0.053746335208415985 0.052648350596427917 0.102728605270385742 0.059626560658216476 0.046542484313249588 -0.062076672911643982 0.057351388037204742 -0.070503935217857361 0.165891915559768677 -0.051153406500816345 0.068979009985923767 -0.083694323897361755 -0.164364278316497803 0.101826287806034088 -0.092147819697856903 -0.013927975669503212 0.019856400787830353 -0.039928942918777466 -0.096875965595245361 0.050382085144519806 0.166241019964218140 -0.129543527960777283 -0.067152686417102814 0.057002995163202286 0.188432976603507996 0.135577961802482605 0.107256770133972168 -0.094167508184909821 0.064866557717323303 0.127749219536781311 -0.153917208313941956 0.027390252798795700 -0.054067797958850861 0.145446002483367920 -0.041853856295347214 0.051263682544231415 -0.006914721336215734 0.073403321206569672 -0.066795736551284790 -0.078820593655109406 0.033314131200313568 -0.106182366609573364 -0.044166211038827896 0.123466551303863525 0.006573077756911516 0.211413577198982239 0.009756405837833881 -0.133593499660491943 0.056037016212940216 0.144841790199279785 0.017937237396836281 0.163011237978935242 0.149311065673828125 0.163996979594230652 0.041747879236936569 0.147558853030204773 0.144382044672966003 -0.051735408604145050 -0.113129973411560059 -0.168288975954055786 0.142170891165733337 -0.037241540849208832 0.078113436698913574 0.016285216435790062 0.020751014351844788 -0.082146570086479187 0.114422805607318878 -0.161592707037925720 -0.100388631224632263 0.179421365261077881 -0.052213974297046661 -0.087398394942283630
0.082060888409614563 -0.022044848650693893 -0.095168493688106537 0.048240266740322113 -0.027717115357518196 0.056902881711721420 0.154504165053367615 0.036843400448560715 -0.030391870066523552 -0.108004033565521240 0.044618587940931320 -0.201396882534027100 -0.034309942275285721 0.012278821319341660 -0.138675659894943237 -0.135269403457641602 0.102756038308143616 -0.112171091139316559 -0.235560804605484009 0.095959357917308807 0.046180203557014465 -0.168960854411125183 -0.008340541273355484 0.040040317922830582 -0.054477173835039139 0.144426241517066956 -0.053916472941637039 -0.041394241154193878 -0.094759240746498108 0.129230782389640808 0.024358171969652176 -0.147645935416221619 0.198937296867370605 0.124611981213092804 -0.004707633052021265 0.002647619228810072 -0.007415197324007750 -0.106493793427944183 -0.019308440387248993 0.000234611245105043 -0.107236109673976898 0.076299794018268585 -0.171630963683128357 -0.032381467521190643 -0.152212738990783691 0.113399378955364227 -0.016810683533549309 0.084374733269214630 0.182082608342170715 0.062865480780601501 0.050605472177267075 0.015120981261134148 0.070113144814968109 -0.064043007791042328 0.089230448007583618 0.056192409247159958 -0.169524148106575012 -0.027358038350939751 0.034301344305276871 -0.154662907123565674 0.080392554402351379 -0.016227366402745247 0.069556295871734619 0.099549852311611176 0.004982562735676765 0.157876193523406982 -0.059271778911352158 0.074222676455974579 0.010052572935819626 -0.201566383242607117 0.105582706630229950 -0.177473470568656921 0.033205047249794006 0.071945033967494965 0.057073328644037247 0.060924798250198364 -0.084706082940101624 -0.136565774679183960 -0.296492218971252441 0.001395034021697938 0.000929733680095524 0.051230635493993759 0.048742543905973434 -0.074415154755115509 -0.161143109202384949 -0.112562417984008789 -0.018303075805306435 0.004684569314122200 -0.024483863264322281 0.001726105809211731 0.151888370513916016 0.161682233214378357 0.130714818835258484 0.123264074325561523 0.162689805030822754 0.152621358633041382 -0.015288213267922401 0.054016746580600739 0.126742586493492126 -0.042060717940330505
0.111172422766685486 0.108905546367168427 0.031830564141273499 0.066393613815307617 -0.104332514107227325 0.041146766394376755 -0.137889206409454346 -0.081374667584896088 0.076076835393905640 0.090356454253196716 -0.051323998719453812 -0.170745372772216797 0.101600393652915955 0.129647523164749146 -0.087069869041442871 0.034040357917547226 -0.065548107028007507 0.027769945561885834 -0.139128506183624268 0.070494860410690308 -0.078112229704856873 -0.190587520599365234 0.162595048546791077 -0.131649360060691833 0.087943226099014282 -0.131596416234970093 0.155772745609283447 -0.131273716688156128 0.004534721374511719 0.081428743898868561 -0.025176046416163445 0.147985547780990601 0.115575395524501801 0.036207076162099838 0.226401403546333313 0.016523361206054688 0.133966371417045593 0.102422893047332764 -0.086294420063495636 0.134568944573402405 0.003487526671960950 0.126369804143905640 -0.037807896733283997 0.024347363039851189 0.067298114299774170 -0.077109567821025848 -0.079684369266033173 -0.086042203009128571 0.178536549210548401 0.025811254978179932 0.148907274007797241 -0.057297803461551666 -0.090153679251670837 -0.081955313682556152 0.024633284658193588 -0.107149861752986908 0.005777711514383554 0.051391474902629852 0.083343498408794403 0.168822631239891052 -0.032171748578548431 0.073232322931289673 0.028426175937056541 -0.068019255995750427 0.125279471278190613 0.184574902057647705 -0.101460598409175873 -0.063262663781642914 0.082658275961875916 -0.073167026042938232 0.060995813459157944 -0.179363846778869629 -0.021260896697640419 -0.089870639145374298 -0.078641735017299652 -0.189062997698783875 -0.090161338448524475 0.029916387051343918 -0.118750236928462982 -0.011831230483949184 -0.155916839838027954 -0.100259944796562195 -0.042488940060138702 -0.044024903327226639 0.138561457395553589 -0.080764688551425934 0.078979097306728363 0.134613662958145142 0.008614378049969673 -0.017650809139013290 0.111621536314487457 0.041576609015464783 -0.141636580228805542 0.153171911835670471 0.069855853915214539 0.077557630836963654 -0.031523648649454117 -0.075843885540962219 0.069359332323074341 -0.040416527539491653
0.095403924584388733 -0.136571511626243591 -0.098735943436622620 0.059328429400920868 -0.136703059077262878 0.006205823272466660 0.080189950764179230 -0.066942654550075531 -0.126777663826942444 -0.108936205506324768 -0.105339787900447845 0.044898346066474915 -0.001034361077472568 0.024629443883895874 0.087804414331912994 0.120391897857189178 0.082872666418552399 -0.007504729554057121 0.001044647535309196 -0.060438677668571472 -0.096122831106185913 -0.095358394086360931 -0.048999298363924026 -0.173019260168075562 -0.006006432697176933 -0.120223626494407654 -0.002527765464037657 0.040424119681119919 0.041642609983682632 -0.064478382468223572 0.104476414620876312 -0.022362044081091881 -0.052565626800060272 0.003011008724570274 -0.173746526241302490 -0.167481750249862671 0.037976738065481186 0.063316106796264648 0.043756250292062759 0.107886843383312225 0.134224206209182739 0.170281127095222473 -0.025310290977358818 -0.153933361172676086 -0.063318073749542236 -0.082363702356815338 -0.153602659702301025 0.120254240930080414 0.189730063080787659 0.122998028993606567 -0.211800277233123779 0.004305479116737843 -0.016612570732831955 0.097687795758247375 0.182490274310112000 -0.025419147685170174 0.157929062843322754 -0.016842450946569443 0.016439568251371384 -0.108985252678394318 0.079308390617370605 0.091784916818141937 -0.146884992718696594 0.066965423524379730 0.043103680014610291 -0.077237933874130249 -0.059780888259410858 0.125244498252868652 -0.164102956652641296 0.033716179430484772 -0.007111846469342709 -0.107006080448627472 0.060623407363891602 -0.077487498521804810 -0.036916371434926987 -0.096564650535583496 -0.110631473362445831 -0.046623889356851578 -0.118571512401103973 -0.219927042722702026 -0.070932388305664062 0.125416576862335205 -0.125068753957748413 -0.093550980091094971 -0.127494871616363525 -0.004547371994704008 -0.071827113628387451 0.167905792593955994 0.152532547712326050 -0.056765519082546234 0.008899371139705181 -0.029701754450798035 0.108913376927375793 -0.004854678642004728 0.060299720615148544 -0.084990575909614563 0.184964954853057861 0.098517842590808868 -0.017009111121296883 0.004420559387654066
0.008566957898437977 -0.199740707874298096 -0.169513717293739319 -0.019590314477682114 -0.143960639834403992 -0.061942674219608307 0.095576636493206024 0.124484904110431671 -0.101627364754676819 -0.024313719943165779 0.045890066772699356 0.061004605144262314 -0.010816852562129498 -0.007416131440550089 -0.042326141148805618 -0.063341930508613586 -0.051035314798355103 0.047208145260810852 -0.049601435661315918 0.084082230925559998 0.029135344550013542 -0.082168094813823700 -0.110282249748706818 -0.032426454126834869 0.036900561302900314 -0.115281097590923309 -0.029629243537783623 -0.037028707563877106 0.115775205194950104 -0.154713168740272522 0.083532974123954773 0.009275319986045361 -0.054978575557470322 -0.052104920148849487 0.096102558076381683 0.101721718907356262 -0.074307993054389954 0.163139075040817261 -0.074050351977348328 -0.140342161059379578 0.079202704131603241 0.104139186441898346 -0.002692539244890213 -0.033191349357366562 0.088559247553348541 0.123921550810337067 -0.199245512485504150 0.134036809206008911 0.092462025582790375 -0.111247755587100983 -0.170232787728309631 -0.018464457243680954 0.179090693593025208 -0.127854511141777039 -0.029570491984486580 0.117043480277061462 0.133105993270874023 0.008124832995235920 0.154315024614334106 -0.096032127737998962 -0.110916845500469208 -0.027824375778436661 0.003333761123940349 0.083805769681930542 0.134264037013053894 0.013538493774831295 0.146698132157325745 -0.036184348165988922 -0.148024633526802063 -0.052874788641929626 0.065914839506149292 0.019422752782702446 0.111724056303501129 0.021657720208168030 0.018760586157441139 -0.124378584325313568 -0.041185837239027023 -0.082894504070281982 0.108234532177448273 -0.054351780563592911 -0.217488095164299011 -0.129255101084709167 -0.045074995607137680 -0.256419807672500610 -0.005020148120820522 0.023131845518946648 -0.094942539930343628 0.041021570563316345 -0.173761442303657532 -0.169765189290046692 -0.073609896004199982 0.089684337377548218 -0.049208346754312515 0.036569695919752121 -0.061485819518566132 0.058455638587474823 -0.122130595147609711 -0.095880173146724701 -0.039113510400056839 0.146571099758148193
0.137219116091728210 -0.055224977433681488 -0.175714418292045593 -0.066414423286914825 0.049008429050445557 0.072539374232292175 -0.102937348186969757 -0.139444485306739807 0.047584503889083862 0.073961995542049408 -0.217927336692810059 0.053907681256532669 -0.049607656896114349 -0.112967461347579956 -0.020376970991492271 -0.078582331538200378 -0.006729065440595150 -0.052425079047679901 -0.073512919247150421 0.151663780212402344 -0.001252490910701454 -0.174094811081886292 -0.007915559224784374 0.036929860711097717 -0.125238090753555298 -0.022728329524397850 -0.086793191730976105 0.074211493134498596 -0.128288567066192627 0.033098898828029633 0.110810190439224243 -0.014332397840917110 -0.061068847775459290 -0.100744761526584625 -0.149597153067588806 -0.205884590744972229 0.067824371159076691 0.099508740007877350 0.071354985237121582 -0.095811158418655396 -0.044050794094800949 -0.061401717364788055 0.102805078029632568 0.030034443363547325 0.059243623167276382 -0.104634724557399750 -0.020781733095645905 0.032281018793582916 0.176642760634422302 -0.092206582427024841 0.006802801508456469 -0.010167397558689117 0.146817609667778015 0.006432242691516876 0.083009682595729828 0.050733596086502075 -0.003439694410189986 -0.027273446321487427 0.011870660819113255 0.094887711107730865 -0.143964946269989014 -0.112573131918907166 0.057019528001546860 -0.086166530847549438 -0.036421533674001694 -0.071640968322753906 0.127924203872680664 -0.101629033684730530 0.114822112023830414 -0.142479881644248962 -0.101035967469215393 -0.114433832466602325 -0.046540226787328720 -0.035829052329063416 -0.137266770005226135 -0.068837068974971771 0.006409898400306702 -0.132336542010307312 -0.038177743554115295 -0.034576267004013062 -0.105283655226230621 0.082768775522708893 0.048532497137784958 -0.057988189160823822 0.082753621041774750 0.115758016705513000 0.069885499775409698 -0.065595440566539764 -0.084368072450160980 0.108039475977420807 0.014343322254717350 -0.137167185544967651 0.090442880988121033 0.097801573574542999 0.079820461571216583 -0.123335286974906921 -0.013089218176901340 -0.100630179047584534 0.041803464293479919 -0.112427964806556702
0.185815542936325073 0.034680318087339401 -0.076044172048568726 0.140988558530807495 0.014071105979382992 0.125860974192619324 0.111025772988796234 0.025917420163750648 -0.014518950134515762 -0.008168650791049004 0.175427332520484924 0.199572592973709106 0.106820225715637207 0.035631600767374039 -0.024015091359615326 -0.031558606773614883 0.121463216841220856 0.090639330446720123 0.163145765662193298 -0.144980669021606445 -0.079954624176025391 0.155953541398048401 -0.010087098926305771 0.094058856368064880 0.164430126547813416 0.101221315562725067 -0.086353562772274017 0.107986815273761749 0.037479154765605927 0.095509782433509827 -0.131881102919578552 -0.160588353872299194 -0.091122902929782867 -0.037056036293506622 -0.252637505531311035 0.167203962802886963 -0.069599762558937073 0.152018174529075623 -0.028007943183183670 -0.068103879690170288 -0.160618498921394348 -0.052875004708766937 0.145724371075630188 0.071366615593433380 -0.161289811134338379 -0.107477545738220215 -0.133372396230697632 0.112224869430065155 0.079738788306713104 0.183895632624626160 0.138625487685203552 -0.065776146948337555 0.054772417992353439 0.131384938955307007 -0.065307393670082092 -0.045040104538202286 -0.121655829250812531 0.032712481915950775 -0.109255954623222351 -0.113587260246276855 -0.189343839883804321 0.021475646644830704 -0.018728161230683327 -0.078525125980377197 -0.096070438623428345 -0.104787759482860565 0.050293933600187302 0.095185883343219757 0.055501267313957214 -0.116448760032653809 -0.102031655609607697 0.084259375929832458 -0.019999116659164429 0.043145533651113510 0.136742517352104187 -0.005348541773855686 -0.169845893979072571 0.043493945151567459 -0.030720923095941544 0.048874944448471069 -0.063636079430580139 -0.003576359013095498 -0.095646440982818604 0.053369913250207901 0.058464132249355316 -0.075932592153549194 0.146113008260726929 -0.025391330942511559 0.012371981516480446 0.071250036358833313 0.024440938606858253 -0.175698757171630859 0.007776207756251097 0.163712948560714722 0.140055492520332336 -0.166967779397964478 0.059262979775667191 -0.125660911202430725 -0.013020976446568966 -0.099965915083885193
-0.064807735383510590 0.062602676451206207 0.002284193178638816 -0.054384060204029083 -0.036024812608957291 -0.125105321407318115 -0.138659298419952393 0.140563592314720154 -0.052866660058498383 0.052293550223112106 0.036658968776464462 -0.153836488723754883 0.138754814863204956 0.132577449083328247 -0.074800342321395874 -0.008764970116317272 0.144836425781250000 0.178668811917304993 -0.135588318109512329 -0.075954467058181763 -0.077195450663566589 0.120204359292984009 -0.027327414602041245 0.042066760361194611 -0.209523439407348633 0.131518676877021790 0.115388736128807068 -0.073540262877941132 -0.126754403114318848 -0.169603481888771057 -0.064670525491237640 -0.020299496129155159 0.163396418094635010 -0.113742157816886902 0.122247733175754547 -0.048189844936132431 -0.002744656521826982 -0.155840739607810974 0.027932390570640564 -0.028423674404621124 -0.061366479843854904 -0.027075296267867088 0.055368747562170029 0.145825639367103577 0.056302499026060104 0.020998207852244377 0.024400694295763969 -0.053455580025911331 0.137553781270980835 0.104520358145236969 0.111406996846199036 -0.154509037733078003 0.072964951395988464 0.034628484398126602 -0.004413504619151354 -0.099369823932647705 -0.150032266974449158 0.064498797059059143 0.184621229767799377 -0.019069552421569824 -0.015254464000463486 -0.176704943180084229 -0.117657050490379333 -0.138916939496994019 0.077106006443500519 0.183035865426063538 -0.109345294535160065 0.059735514223575592 -0.207602530717849731 0.042870149016380310 0.097115740180015564 -0.025698415935039520 0.041407063603401184 0.223866641521453857 0.089753068983554840 -0.018642902374267578 0.010593908838927746 -0.101064100861549377 -0.150063827633857727 -0.065829038619995117 -0.045270279049873352 0.159081280231475830 0.017209384590387344 -0.117200918495655060 0.049733702093362808 -0.153131768107414246 -0.158699572086334229 0.094386778771877289 -0.136497631669044495 -0.024783868342638016 0.014592994935810566 0.017356654629111290 0.089985452592372894 -0.062739133834838867 0.100702159106731415 -0.123153306543827057 -0.000270432472461835 -0.116426661610603333 0.108503416180610657 -0.173326581716537476
0.082611903548240662 0.049456909298896790 -0.020280204713344574 -0.132976382970809937 0.063099935650825500 -0.089459650218486786 0.045286316424608231 0.111616164445877075 0.070394113659858704 -0.189261987805366516 -0.155654251575469971 -0.224759429693222046 0.132495224475860596 -0.155357927083969116 0.086204327642917633 -0.091834917664527893 0.214746370911598206 0.104374468326568604 -0.070389054715633392 0.083643704652786255 0.036296475678682327 0.019620370119810104 0.068533949553966522 -0.111916355788707733 -0.208846867084503174 -0.044913750141859055 0.144479334354400635 0.065892569720745087 0.081830352544784546 -0.084732376039028168 0.048473577946424484 -0.070099823176860809 0.196249067783355713 -0.084775418043136597 0.414564579725265503 -0.094197124242782593 0.084114417433738708 -0.178292721509933472 0.129815474152565002 -0.148386225104331970 0.052245367318391800 0.096055872738361359 -0.159336909651756287 -0.014549771323800087 -0.160270601511001587 0.257705360651016235 0.194267868995666504 0.126843139529228210 0.061870869249105453 -0.046264283359050751 -0.148219808936119080 0.100215464830398560 -0.117932744324207306 0.067847460508346558 0.086796239018440247 -0.034368738532066345 0.114598460495471954 -0.151245906949043274 -0.034726906567811966 -0.127900823950767517 0.031049454584717751 0.159116134047508240 -0.024375172331929207 -0.090435028076171875 0.118023902177810669 0.064632877707481384 -0.146552696824073792 -0.117894127964973450 0.058901842683553696 -0.083580054342746735 -0.050937455147504807 0.079723708331584930 0.043387942016124725 0.174697756767272949 0.094928286969661713 0.042375855147838593 -0.033700563013553619 -0.133205592632293701 -0.224708810448646545 0.079536885023117065 -0.045274067670106888 -0.041804309934377670 -0.103468783199787140 -0.041798043996095657 0.048438273370265961 -0.155321344733238220 0.179711088538169861 -0.111992083489894867 0.142611846327781677 0.117113396525382996 0.006561098620295525 0.021138770505785942 0.137654736638069153 0.027435863390564919 0.152651339769363403 0.149631753563880920 0.000530336285009980 -0.175925225019454956 0.081477507948875427 0.109071232378482819
-0.115762233734130859 0.074535295367240906 0.117975212633609772 0.034180738031864166 -0.130268126726150513 -0.005331142339855433 0.126600071787834167 0.039955187588930130 -0.144163280725479126 0.110974282026290894 0.130119249224662781 -0.090719260275363922 0.098932594060897827 0.020565941929817200 -0.027165187522768974 0.069048538804054260 -0.117546968162059784 0.166042074561119080 -0.171202793717384338 0.110842630267143250 -0.013593371957540512 0.138096123933792114 -0.086377769708633423 0.077470861375331879 0.040328033268451691 0.145472973585128784 0.040388278663158417 -0.062818393111228943 -0.057323638349771500 -0.141053408384323120 0.060739330947399139 0.146246775984764099 0.218055680394172668 -0.131590455770492554 0.226496040821075439 -0.045517187565565109 0.074512451887130737 -0.137810230255126953 -0.011433670297265053 0.179818406701087952 0.161083146929740906 0.182281628251075745 -0.095736488699913025 0.062887780368328094 -0.086255475878715515 0.193467497825622559 0.159492433071136475 0.039899088442325592 -0.026304453611373901 0.154805615544319153 -0.150060832500457764 0.135085389018058777 -0.001597780035808682 0.132578343152999878 0.060654502362012863 0.068789772689342499 0.062772288918495178 0.147136777639389038 -0.101636320352554321 0.027598112821578979 -0.184615463018417358 -0.054785236716270447 -0.077184595167636871 -0.163099125027656555 -0.003965418320149183 0.141540810465812683 -0.174762204289436340 0.040721163153648376 -0.146174103021621704 -0.035827498883008957 0.012670767493546009 -0.075601860880851746 -0.052138559520244598 0.015999186784029007 0.021078655496239662 -0.023544158786535263 0.090956784784793854 -0.136177569627761841 -0.164348110556602478 0.020972810685634613 -0.085181578993797302 -0.109769210219383240 0.105560943484306335 -0.159096002578735352 0.080476827919483185 -0.204816907644271851 -0.011427169665694237 -0.112625069916248322 -0.176948487758636475 0.139498308300971985 0.024529602378606796 -0.013169835321605206 0.011210087686777115 0.053032401949167252 0.068583376705646515 -0.075859770178794861 0.119157254695892334 -0.124913021922111511 0.080741316080093384 -0.042561523616313934
-0.167853564023971558 -0.172999218106269836 0.137698888778686523 0.009124085307121277 0.086882427334785461 -0.119179405272006989 -0.020105123519897461 0.084130704402923584 0.154058724641799927 0.020791178569197655 -0.014658122323453426 0.123126536607742310 0.090381205081939697 0.158424675464630127 -0.143939629197120667 -0.150643199682235718 0.097782917320728302 0.050746235996484756 -0.004748306237161160 -0.137849360704421997 0.180684208869934082 0.021834304556250572 0.060080587863922119 -0.053852338343858719 -0.046636722981929779 -0.113799229264259338 0.143913164734840393 0.091444686055183411 -0.154941514134407043 0.083208061754703522 0.104054071009159088 -0.003852489637210965 -0.136058017611503601 0.101134151220321655 -0.003144430927932262 0.009617968462407589 0.057273752987384796 0.098850980401039124 0.112029887735843658 -0.166151329874992371 0.133798241615295410 -0.019541267305612564 0.083471149206161499 -0.046741794794797897 0.094905428588390350 0.008067500777542591 0.033048663288354874 -0.137839719653129578 -0.070281997323036194 -0.063558921217918396 -0.015036313794553280 -0.071530878543853760 0.164821386337280273 0.098550885915756226 0.031090840697288513 -0.105779759585857391 0.157981961965560913 0.129633247852325439 -0.005600557662546635 0.015493612736463547 0.027094796299934387 0.090196825563907623 -0.050039038062095642 0.167839199304580688 -0.148959130048751831 0.054496239870786667 -0.011601134203374386 0.149310931563377380 0.002375296549871564 -0.049294877797365189 -0.112733215093612671 -0.007931153289973736 0.031243782490491867 -0.094508700072765350 -0.086741022765636444 -0.102067358791828156 -0.041573148220777512 0.148365303874015808 0.229285374283790588 -0.003213740186765790 0.048027228564023972 0.103367395699024200 0.134484514594078064 0.067048601806163788 0.021549038589000702 0.080787189304828644 0.006079347804188728 0.107071906328201294 -0.148920103907585144 -0.188564017415046692 0.037846274673938751 0.028326397761702538 0.016494465991854668 -0.073308348655700684 -0.009312255308032036 -0.030027486383914948 -0.085029914975166321 -0.121312923729419708 -0.101167090237140656 0.113180942833423615
0.023855743929743767 0.028323896229267120 0.108897611498832703 -0.088552370667457581 -0.071639835834503174 0.080145679414272308 -0.002790932776406407 -0.092280618846416473 -0.007316200993955135 -0.102358072996139526 0.042318873107433319 0.047873802483081818 0.017372665926814079 0.056202478706836700 -0.071093723177909851 0.037020679563283920 0.093700513243675232 0.167702481150627136 0.077174551784992218 0.139442682266235352 -0.045522097498178482 0.091696448624134064 0.149126872420310974 -0.137838333845138550 -0.109530970454216003 0.072907812893390656 -0.166093990206718445 0.031675230711698532 0.139046743512153625 -0.119836866855621338 0.090728655457496643 -0.156065776944160461 -0.080417335033416748 -0.107926174998283386 0.055351175367832184 0.055077869445085526 0.146246567368507385 -0.037215702235698700 -0.109154544770717621 0.110896117985248566 0.097263716161251068 0.163380444049835205 -0.153092786669731140 -0.079487085342407227 -0.035092111676931381 0.187284559011459351 -0.012640341185033321 -0.179806381464004517 -0.194236323237419128 0.083044558763504028 0.151463657617568970 0.017571361735463142 -0.069520615041255951 -0.096335284411907196 -0.178276658058166504 0.155423060059547424 -0.144174650311470032 0.043001923710107803 -0.053485698997974396 -0.059250403195619583 0.136047556996345520 -0.095823973417282104 -0.125112637877464294 0.053298689424991608 -0.131978705525398254 -0.041702814400196075 0.012910579331219196 -0.192674860358238220 0.074541755020618439 -0.092056855559349060 -0.154901355504989624 -0.036442935466766357 -0.042038053274154663 -0.037248954176902771 0.102342784404754639 0.162408903241157532 0.166396915912628174 0.122368641197681427 0.030694061890244484 0.048763506114482880 -0.093489333987236023 -0.073646873235702515 0.079808458685874939 -0.149578347802162170 -0.016699258238077164 0.144966334104537964 -0.064034238457679749 -0.015532480552792549 -0.093173965811729431 0.058331713080406189 0.015358764678239822 0.152397558093070984 -0.071267768740653992 -0.001117194537073374 0.090405628085136414 -0.081470005214214325 0.096742391586303711 -0.001087628770619631 0.002204544609412551 0.087397381663322449
0.143252983689308167 0.244582086801528931 -0.150420799851417542 0.039120264351367950 -0.064370222389698029 -0.151765584945678711 -0.052883666008710861 0.177702873945236206 0.035461444407701492 -0.025049794465303421 0.136230304837226868 0.102726750075817108 -0.044056352227926254 0.071520388126373291 -0.146068111062049866 -0.000275920494459569 0.059823121875524521 0.101869501173496246 -0.028156815096735954 0.136464506387710571 -0.105005845427513123 -0.130488023161888123 -0.047379184514284134 -0.016095718368887901 0.133711114525794983 -0.067521646618843079 0.035587184131145477 -0.121478565037250519 -0.109709501266479492 -0.028674952685832977 -0.030751977115869522 -0.097112111747264862 0.023311996832489967 0.074927702546119690 -0.025770468637347221 -0.041202280670404434 -0.021422829478979111 -0.149607643485069275 -0.048912562429904938 -0.016639655455946922 -0.088428847491741180 -0.062009297311306000 -0.011094817891716957 0.161615833640098572 -0.096203573048114777 0.045701935887336731 0.120419837534427643 0.066819302737712860 -0.081210739910602570 0.098315455019474030 -0.053013879805803299 0.019081601873040199 -0.026936758309602737 0.120935566723346710 -0.010131157934665680 -0.108595073223114014 -0.061538357287645340 -0.046817153692245483 -0.088498443365097046 -0.056952945888042450 0.135215982794761658 -0.153293102979660034 0.042434141039848328 0.127440631389617920 -0.035645492374897003 0.065511554479598999 0.008768128231167793 0.093492880463600159 0.151599824428558350 0.049335941672325134 -0.167712405323982239 -0.117431893944740295 0.065516486763954163 0.131119549274444580 0.056275412440299988 -0.020895473659038544 -0.052743043750524521 0.000671867979690433 0.026148583739995956 0.118340253829956055 -0.066158242523670197 0.035314578562974930 -0.141081601381301880 -0.034333910793066025 0.185258015990257263 -0.115885652601718903 0.110905058681964874 0.147667810320854187 0.042932838201522827 0.098793648183345795 -0.051973525434732437 -0.145762622356414795 -0.004497063811868429 0.045831996947526932 0.027999192476272583 -0.141248151659965515 0.061971869319677353 -0.050031136721372604 -0.134686738252639771 -0.082613684237003326
0.110100045800209045 0.065773122012615204 0.073250144720077515 -0.071091465651988983 -0.012383393011987209 -0.062227383255958557 0.030161404982209206 0.086345091462135315 0.177047625184059143 -0.096317857503890991 0.032248329371213913 -0.028819598257541656 -0.183597579598426819 -0.005152385216206312 0.119730927050113678 0.019126616418361664 0.117886103689670563 -0.001436304533854127 0.015019580721855164 0.027827886864542961 -0.196132674813270569 0.045698974281549454 -0.145223706960678101 0.084810145199298859 -0.012212909758090973 -0.138038754463195801 -0.026078706607222557 -0.179314762353897095 -0.000374187249690294 0.059708181768655777 0.129906281828880310 -0.079010732471942902 -0.096093021333217621 -0.001099572051316500 -0.039458502084016800 0.049013521522283554 0.035954453051090240 0.068395614624023438 -0.118137732148170471 0.032963406294584274 -0.125614672899246216 -0.068560630083084106 -0.144920349121093750 -0.092018581926822662 0.048135112971067429 0.156030833721160889 -0.097579635679721832 -0.056096710264682770 -0.180838927626609802 0.082722403109073639 -0.003231345443055034 -0.178009390830993652 0.044638346880674362 0.022965665906667709 -0.062857843935489655 0.017087427899241447 -0.152624800801277161 -0.020091002807021141 -0.021414566785097122 -0.136490538716316223 -0.015567177906632423 -0.153443858027458191 -0.021776830777525902 -0.178017869591712952 0.038693316280841827 0.100944057106971741 -0.173197776079177856 -0.065921790897846222 -0.002073727780953050 -0.003516881959512830 -0.095919676125049591 0.030898220837116241 0.115871056914329529 -0.091606102883815765 0.003622125601395965 -0.113164320588111877 0.054004509001970291 -0.007633178494870663 0.103753186762332916 0.089500293135643005 0.043216660618782043 0.095472410321235657 -0.002532891696318984 -0.089406631886959076 -0.132654234766960144 0.048078216612339020 -0.103599175810813904 0.169420629739761353 0.131034821271896362 0.003956119529902935 -0.124127186834812164 0.102421112358570099 -0.116874203085899353 -0.085232727229595184 0.058247253298759460 -0.116051517426967621 -0.128409773111343384 0.042161710560321808 -0.111328110098838806 -0.045483626425266266
-0.107093408703804016 -0.108083486557006836 0.049951396882534027 -0.094227418303489685 -0.121636338531970978 -0.073164425790309906 -0.080827780067920685 0.160187318921089172 0.121420569717884064 0.084092348814010620 0.009366028942167759 0.127560749650001526 0.018315434455871582 0.052850861102342606 -0.148267805576324463 -0.102132625877857208 -0.028615787625312805 -0.143073961138725281 -0.068331383168697357 0.113213926553726196 0.166523128747940063 -0.068221606314182281 -0.167267233133316040 -0.147006571292877197 0.128566429018974304 0.099857188761234283 0.088297031819820404 0.154231145977973938 -0.034493960440158844 0.153116971254348755 -0.006621188018471003 -0.003394497092813253 0.127560257911682129 -0.087457038462162018 -0.131495460867881775 0.018482226878404617 0.002656947355717421 -0.000986260594800115 -0.139894202351570129 -0.027363631874322891 -0.110533080995082855 0.031022908166050911 -0.116165511310100555 -0.076265685260295868 0.173128321766853333 0.120621867477893829 -0.012234074994921684 -0.078984580934047699 -0.096195116639137268 0.107771545648574829 -0.069253750145435333 0.171073243021965027 0.186807915568351746 -0.144533827900886536 -0.105591356754302979 0.031440988183021545 -0.142504081130027771 -0.067270457744598389 -0.096842952072620392 0.064973272383213043 0.208538502454757690 0.160910531878471375 0.036712683737277985 0.126530930399894714 0.045744325965642929 0.015022771432995796 0.031508211046457291 0.109234668314456940 0.036505579948425293 -0.106453813612461090 -0.116125270724296570 -0.085513398051261902 -0.089221239089965820 -0.065115757286548615 0.047324147075414658 0.135213404893875122 -0.050616085529327393 -0.090769626200199127 0.033910948783159256 0.149648949503898621 0.016725646331906319 0.034918244928121567 0.060287386178970337 0.392512261867523193 -0.018494972959160805 -0.086317099630832672 0.007122483104467392 -0.166414648294448853 0.204161316156387329 0.131935656070709229 0.129503488540649414 -0.031793233007192612 0.148857027292251587 -0.001248538610525429 0.031958173960447311 -0.136731848120689392 0.079458884894847870 0.133818536996841431 -0.114513456821441650 0.061707250773906708
-0.057306978851556778 -0.061375815421342850 -0.004513769410550594 0.031777270138263702 0.008009412325918674 -0.074712529778480530 -0.002929023699834943 0.000134054469526745 -0.159414738416671753 0.074083723127841949 -0.111025691032409668 -0.096860677003860474 -0.070897407829761505 0.021591715514659882 0.070477113127708435 -0.090070776641368866 0.011056580580770969 0.200314015150070190 0.008462822996079922 -0.047207515686750412 0.082870729267597198 0.042064722627401352 0.045250020921230316 0.036024849861860275 -0.147268444299697876 0.182132497429847717 -0.017568709328770638 -0.021727103739976883 -0.121751599013805389 0.156258642673492432 -0.046670235693454742 -0.131628900766372681 0.203145921230316162 0.009047259576618671 0.049245584756135941 0.019952706992626190 0.023109249770641327 -0.121907114982604980 0.083712540566921234 -0.079861119389533997 0.044232048094272614 0.113864816725254059 -0.049500040709972382 -0.102427341043949127 0.022921709343791008 0.037687271833419800 -0.043524485081434250 -0.099185116589069366 0.040967535227537155 0.005537115503102541 0.091562293469905853 -0.167578011751174927 0.003061224706470966 -0.082456149160861969 0.150096669793128967 -0.088003545999526978 -0.183240085840225220 0.101744852960109711 0.127132415771484375 0.163856655359268188 -0.033414065837860107 0.096064001321792603 -0.160052895545959473 -0.103141985833644867 0.142899677157402039 0.139229223132133484 -0.162503078579902649 -0.031548880040645599 -0.032349105924367905 -0.087772160768508911 -0.061084579676389694 0.038040913641452789 0.000835777842439711 0.052214309573173523 0.015829568728804588 -0.124143891036510468 -0.014823664911091328 0.005222661886364222 -0.206963196396827698 0.071870163083076477 0.018856562674045563 -0.032645087689161301 -0.033433385193347931 -0.040326051414012909 -0.006779398769140244 0.004237005021423101 0.162800163030624390 -0.060464106500148773 -0.117895834147930145 0.038363888859748840 0.008208212442696095 0.126295462250709534 -0.023478081449866295 0.034242738038301468 -0.033203210681676865 -0.047846119850873947 0.045700401067733765 0.036576572805643082 0.128973841667175293 0.083331957459449768
-0.190738067030906677 0.093492254614830017 0.064731240272521973 0.071910127997398376 -0.057586323469877243 -0.041219975799322128 -0.116026163101196289 -0.035159897059202194 0.135431021451950073 -0.144313856959342957 0.030456660315394402 -0.337367892265319824 -0.151812121272087097 0.172227546572685242 0.004175564274191856 -0.026471765711903572 0.126569598913192749 -0.037214212119579315 0.093991354107856750 -0.136152103543281555 -0.132065802812576294 -0.015458497218787670 0.161108359694480896 0.047493413090705872 -0.137919992208480835 0.072494119405746460 0.064519688487052917 0.011186051182448864 -0.180613636970520020 0.154629454016685486 0.101115204393863678 0.100775316357612610 0.184535488486289978 0.126717790961265564 0.211781308054924011 -0.079196199774742126 0.130613699555397034 -0.213294103741645813 -0.086057484149932861 -0.111656598746776581 -0.043453119695186615 -0.053873896598815918 -0.035465750843286514 -0.003925338853150606 -0.097950316965579987 0.230511724948883057 0.141178533434867859 -0.122628599405288696 0.036297634243965149 0.096896037459373474 -0.154124557971954346 -0.070225045084953308 -0.045885439962148666 0.038991045206785202 0.044299017637968063 0.104617044329643250 -0.009950378909707069 -0.106547154486179352 -0.152778565883636475 -0.046913061290979385 0.066494360566139221 -0.000317704834742472 0.108874231576919556 -0.166480585932731628 0.028561467304825783 -0.065611109137535095 0.054275594651699066 -0.112668193876743317 -0.109947539865970612 -0.175244837999343872 -0.041102640330791473 -0.202630281448364258 0.176515921950340271 0.254360169172286987 0.138125017285346985 0.105073772370815277 0.103074453771114349 -0.100103795528411865 -0.140349477529525757 -0.004004322923719883 0.066576980054378510 0.105131469666957855 -0.059557795524597168 0.001614015782251954 0.206837505102157593 0.113280706107616425 -0.089874513447284698 0.008717241697013378 0.141747310757637024 -0.017439210787415504 -0.051390286535024643 0.165666073560714722 -0.059177458286285400 -0.018846716731786728 -0.073264092206954956 -0.057715564966201782 -0.020825328305363655 0.014841895550489426 0.124518163502216339 -0.100016325712203979
0.015668759122490883 0.069420024752616882 0.143742814660072327 0.119039699435234070 -0.073654264211654663 -0.027687793597579002 0.151402041316032410 -0.033951334655284882 0.113321550190448761 0.039475575089454651 -0.076079115271568298 0.261057347059249878 0.148160204291343689 0.135325655341148376 -0.075505718588829041 -0.087161332368850708 -0.156481817364692688 0.026764474809169769 0.046371065080165863 -0.094308055937290192 0.003696629311889410 0.085241861641407013 -0.181773453950881958 -0.020342191681265831 0.032125163823366165 -0.084490306675434113 0.164616167545318604 -0.186746552586555481 -0.023340906947851181 0.001741871936246753 -0.121782705187797546 0.083893984556198120 0.121429964900016785 0.132004424929618835 -0.030188955366611481 0.093006052076816559 0.075363613665103912 -0.028703903779387474 0.006605687085539103 -0.163772046566009521 -0.107804559171199799 -0.122072815895080566 -0.052427120506763458 0.016874639317393303 -0.073681294918060303 -0.124451629817485809 -0.052785545587539673 0.094102196395397186 0.134730085730552673 0.082663133740425110 -0.124349676072597504 0.128647282719612122 -0.194413200020790100 -0.076365105807781219 -0.050098869949579239 -0.079373888671398163 0.057166274636983871 0.063269399106502533 -0.121504731476306915 0.190665140748023987 0.015779843553900719 0.084330245852470398 -0.122117750346660614 -0.119706861674785614 -0.284765213727951050 -0.035373136401176453 0.048543967306613922 0.006160542368888855 0.147333189845085144 0.125160932540893555 0.104629226028919220 0.085823781788349152 -0.120568536221981049 0.052053872495889664 0.067646399140357971 -0.008573113940656185 -0.096554867923259735 -0.119523636996746063 0.214130878448486328 -0.146755665540695190 0.103770412504673004 0.097960285842418671 0.058149889111518860 -0.120400570333003998 -0.179721385240554810 0.026424260810017586 -0.043178450316190720 0.109770990908145905 -0.075616516172885895 0.130126133561134338 0.182339549064636230 0.080255582928657532 -0.022908169776201248 0.009052170440554619 0.117225632071495056 0.123175881803035736 0.062877759337425232 -0.113192051649093628 -0.014365841634571552 0.005771955940872431
0.079846337437629700 -0.120674856007099152 0.022978127002716064 -0.018925292417407036 0.043626163154840469 0.133050054311752319 -0.034801490604877472 -0.055537905544042587 -0.060935851186513901 -0.153728440403938293 0.003795817494392395 -0.178941726684570312 0.022766495123505592 0.141177892684936523 -0.044675555080175400 0.145800694823265076 0.046888124197721481 0.135925099253654480 0.052027098834514618 -0.003007360734045506 0.062336329370737076 -0.000817375723272562 -0.151979848742485046 0.149117559194564819 -0.010869444347918034 -0.131904214620590210 -0.039417840540409088 -0.112185440957546234 0.083572387695312500 -0.146447420120239258 -0.072452925145626068 -0.050222720950841904 -0.115368001163005829 0.010033695027232170 0.154900282621383667 -0.092535614967346191 -0.040496293455362320 0.091862596571445465 0.133155599236488342 -0.095235340297222137 0.133342668414115906 -0.066392429172992706 -0.048932529985904694 -0.115499503910541534 -0.174480110406875610 0.058832883834838867 -0.118017375469207764 -0.075953774154186249 0.094732917845249176 0.097069032490253448 0.143437474966049194 -0.163037195801734924 0.066837266087532043 -0.093484938144683838 -0.011496826075017452 0.125013932585716248 -0.013709917664527893 0.171866536140441895 0.053014874458312988 -0.127926617860794067 -0.167593553662300110 -0.007180627435445786 0.043407656252384186 0.006127301603555679 0.085625633597373962 0.148882478475570679 -0.166177093982696533 -0.014748280867934227 0.055062223225831985 -0.052087392657995224 -0.061581857502460480 -0.137154266238212585 0.077523671090602875 0.128345876932144165 -0.124892517924308777 0.068664222955703735 -0.152125567197799683 0.129902198910713196 0.015189350582659245 0.026608835905790329 0.110141284763813019 0.133068963885307312 0.101244285702705383 -0.296862423419952393 -0.000481859926367179 0.058425180613994598 0.137651830911636353 0.114842519164085388 -0.062073342502117157 -0.099111907184123993 -0.029260583221912384 0.134998649358749390 0.017840882763266563 -0.012193788774311543 0.143544837832450867 0.149201482534408569 0.183733001351356506 -0.017415577545762062 0.001142659573815763 0.000097155585535802
-0.060543533414602280 0.059018600732088089 0.019864886999130249 0.037185817956924438 -0.052538771182298660 0.013169689103960991 -0.194278806447982788 0.079430580139160156 0.098257184028625488 0.030678119510412216 -0.037269175052642822 -0.310665994882583618 0.145883664488792419 -0.023202724754810333 0.145625174045562744 0.040545277297496796 -0.043658170849084854 0.105378486216068268 0.106601811945438385 -0.104399375617504120 0.125978544354438782 -0.066825099289417267 -0.091813243925571442 -0.164515554904937744 -0.215064615011215210 0.129673317074775696 -0.120684124529361725 0.065557561814785004 -0.018240654841065407 0.048223145306110382 -0.107458151876926422 0.084837600588798523 -0.122644312679767609 0.030844567343592644 0.301579117774963379 -0.028146104887127876 -0.079232119023799896 -0.171638593077659607 -0.126685306429862976 -0.145934090018272400 -0.087567016482353210 -0.185214474797248840 0.071016751229763031 -0.119846031069755554 -0.150054901838302612 0.029576297849416733 -0.134095743298530579 0.037459127604961395 -0.136195942759513855 0.047656413167715073 0.103426128625869751 0.032536718994379044 0.057591535151004791 -0.036337759345769882 -0.165219694375991821 -0.009802192449569702 0.058957144618034363 0.057628314942121506 -0.041031036525964737 0.123947225511074066 -0.096709035336971283 -0.036242831498384476 -0.108758538961410522 -0.032442253082990646 0.175051033496856689 -0.134524136781692505 -0.164105564355850220 0.106200389564037323 0.053579676896333694 -0.177067235112190247 -0.016398776322603226 0.127702578902244568 0.040470056235790253 0.018897805362939835 -0.067593529820442200 -0.099380083382129669 0.153190240263938904 -0.027883812785148621 -0.123142428696155548 -0.031602900475263596 0.020602779462933540 0.082489982247352600 -0.144509941339492798 0.060754630714654922 -0.069973573088645935 -0.000800253241322935 0.126958310604095459 -0.128623336553573608 -0.062505908310413361 0.011572998017072678 0.046776231378316879 0.178821280598640442 -0.083594948053359985 -0.053206644952297211 -0.136793315410614014 -0.005442839581519365 0.102303206920623779 0.015200594440102577 0.168625518679618835 -0.014098884537816048
0.050844434648752213 -0.032593574374914169 0.019374499097466469 -0.158019959926605225 -0.089762464165687561 -0.078090511262416840 0.044496316462755203 -0.039137400686740875 -0.096302546560764313 -0.068871550261974335 -0.095651306211948395 0.058003794401884079 0.146645650267601013 0.144056007266044617 0.067894652485847473 0.101386882364749908 0.014786205254495144 -0.141700178384780884 0.168989062309265137 -0.098964050412178040 -0.050935868173837662 0.089376300573348999 0.006290696095675230 -0.097798548638820648 0.084813833236694336 -0.067478924989700317 -0.024133190512657166 -0.093951359391212463 0.052679933607578278 -0.069218046963214874 0.145636215806007385 0.110773339867591858 -0.167530760169029236 -0.120009213685989380 -0.165221244096755981 0.148593872785568237 -0.048528183251619339 0.088619925081729889 0.024759355932474136 -0.069476798176765442 0.071618109941482544 -0.057798627763986588 0.128623813390731812 -0.013646276667714119 -0.022538442164659500 0.059147123247385025 -0.137966856360435486 0.049280773848295212 -0.082829430699348450 0.123309172689914703 0.077343329787254333 -0.102919809520244598 0.017112379893660545 0.071947135031223297 0.085846550762653351 -0.068322502076625824 -0.134704604744911194 -0.007371668703854084 -0.042750343680381775 -0.043658223003149033 0.215651392936706543 -0.080513514578342438 0.095341376960277557 0.053198032081127167 -0.005963138770312071 -0.008179979398846626 0.100027978420257568 -0.046609662473201752 0.041554689407348633 0.097972765564918518 0.101359404623508453 -0.071656242012977600 0.138915255665779114 -0.040273103863000870 -0.070529945194721222 -0.049286797642707825 -0.050985116511583328 0.122237831354141235 0.150316193699836731 0.015242298133671284 -0.023396784439682961 -0.074950747191905975 0.161300972104072571 0.078606352210044861 0.075445942580699921 -0.081749349832534790 0.028037635609507561 -0.037176575511693954 -0.151480048894882202 -0.131750538945198059 0.122975625097751617 0.029647978022694588 -0.130951255559921265 0.060916330665349960 -0.109109416604042053 -0.070420727133750916 0.110682763159275055 0.062226209789514542 -0.116054840385913849 0.114736974239349365
-0.110985994338989258 0.078775711357593536 0.167320057749748230 -0.111896082758903503 0.094558291137218475 0.115736886858940125 0.060229808092117310 -0.104406177997589111 0.100005187094211578 -0.137100979685783386 0.018266992643475533 0.037081003189086914 0.151136830449104309 0.075223110616207123 -0.004065514076501131 0.007106568198651075 0.108553379774093628 -0.000377474178094417 0.154265925288200378 -0.025511885061860085 0.081287607550621033 0.107962377369403839 -0.113859385251998901 0.049104258418083191 -0.112271927297115326 0.061475235968828201 -0.055828604847192764 0.120911121368408203 -0.022098431363701820 -0.075579553842544556 0.045090027153491974 -0.086545825004577637 -0.177619591355323792 0.100153088569641113 -0.047769501805305481 0.104639887809753418 0.137704804539680481 -0.189471125602722168 0.045369733124971390 -0.135848268866539001 -0.144875049591064453 -0.098409563302993774 -0.071731574833393097 0.107956789433956146 -0.024186028167605400 0.056917872279882431 -0.056676365435123444 -0.173592001199722290 -0.155114769935607910 -0.146327182650566101 0.168825954198837280 0.060718089342117310 0.218581423163414001 0.144567891955375671 0.031564392149448395 -0.105814382433891296 0.026095360517501831 0.153930112719535828 0.095587961375713348 -0.164387553930282593 -0.080211848020553589 -0.078262798488140106 -0.114292301237583160 0.057013291865587234 0.044027090072631836 -0.028700077906250954 -0.069230623543262482 -0.149338379502296448 0.078826718032360077 -0.129627063870429993 0.119844712316989899 -0.091387204825878143 -0.028002915903925896 0.139459684491157532 -0.102538906037807465 -0.135421112179756165 0.013534951023757458 0.110102050006389618 0.183230817317962646 0.143456861376762390 0.130339339375495911 0.183912917971611023 -0.167077615857124329 0.209431886672973633 0.002216249937191606 0.109151259064674377 -0.126750901341438293 -0.089334160089492798 0.193359106779098511 -0.134356006979942322 0.022695496678352356 -0.087435953319072723 -0.022449791431427002 -0.025714183226227760 0.090804472565650940 0.128562137484550476 -0.153380244970321655 -0.144820198416709900 0.140648230910301208 -0.089925706386566162
-0.176959842443466187 -0.036448180675506592 0.079144172370433807 0.055153161287307739 -0.021665936335921288 -0.048745498061180115 -0.136604920029640198 -0.002514530904591084 -0.124370276927947998 0.125115737318992615 0.119888976216316223 -0.304110646247863770 0.113089859485626221 -0.003390818834304810 -0.084447540342807770 0.003629098413512111 0.195760071277618408 0.156100034713745117 0.054534249007701874 0.138612627983093262 0.017131634056568146 -0.135021045804023743 0.182588130235671997 -0.152897730469703674 -0.141689062118530273 -0.004114097449928522 0.003350957529619336 0.032672274857759476 -0.105691544711589813 0.014020081609487534 0.000584605033509433 0.087274022400379181 0.083657719194889069 -0.008417104370892048 0.024538408964872360 0.040570486336946487 0.010839680209755898 -0.125448569655418396 -0.085361339151859283 -0.107026226818561554 -0.069302730262279510 -0.072474136948585510 0.086848556995391846 -0.051196213811635971 0.122469611465930939 0.162446275353431702 -0.057811580598354340 0.054870091378688812 0.180528089404106140 0.110382162034511566 0.119830824434757233 -0.042868517339229584 0.043240886181592941 0.072943322360515594 -0.023792410269379616 0.108420282602310181 -0.128641545772552490 -0.178580373525619507 -0.052154172211885452 -0.042867641896009445 -0.114822819828987122 0.035437501966953278 0.122451901435852051 0.014359326101839542 0.335736960172653198 -0.077237151563167572 0.096247464418411255 -0.099251851439476013 0.141103014349937439 -0.026172135025262833 0.073356792330741882 -0.182993412017822266 0.111623011529445648 0.166523531079292297 0.026253037154674530 0.162352606654167175 0.173411697149276733 0.098175704479217529 -0.281249344348907471 -0.124857746064662933 -0.175282582640647888 0.185915976762771606 0.063870497047901154 0.109714820981025696 -0.105842933058738708 -0.047386161983013153 -0.043779425323009491 -0.124553650617599487 0.044252395629882812 -0.020419251173734665 -0.107712849974632263 -0.033746410161256790 -0.174573495984077454 -0.091647133231163025 -0.196261495351791382 0.014206702820956707 -0.165072485804557800 0.033776916563510895 -0.117593057453632355 -0.160900652408599854
-0.071070000529289246 -0.087803237140178680 -0.139665007591247559 -0.154906451702117920 -0.078153908252716064 0.000248346041189507 0.046393360942602158 0.006729685235768557 -0.004347871523350477 -0.128604725003242493 -0.078239217400550842 -0.005416075233370066 -0.010051527991890907 -0.053532063961029053 0.118917085230350494 -0.119120158255100250 -0.072917886078357697 0.049124043434858322 0.109008163213729858 -0.091427601873874664 -0.038001339882612228 0.029855394735932350 -0.092911824584007263 -0.090565487742424011 -0.106432534754276276 0.124248005449771881 -0.136807173490524292 0.084700606763362885 -0.110040016472339630 -0.135323926806449890 -0.148803234100341797 0.024964071810245514 0.124147281050682068 -0.153314247727394104 -0.264331609010696411 0.038771595805883408 0.021234612911939621 0.088171288371086121 -0.096337713301181793 -0.047343466430902481 0.100288324058055878 -0.079297199845314026 -0.111567601561546326 -0.032786007970571518 -0.062504567205905914 -0.027121482416987419 0.054538004100322723 -0.115047402679920197 0.061308752745389938 0.080892190337181091 0.086939401924610138 0.003393116407096386 -0.012523838318884373 -0.096485354006290436 -0.030847722664475441 0.106927983462810516 -0.118409760296344757 -0.107491150498390198 -0.082766108214855194 -0.087441988289356232 0.032856326550245285 0.044578116387128830 -0.153423175215721130 0.158995613455772400 -0.204093813896179199 0.128092035651206970 -0.154395818710327148 0.061567965894937515 -0.063137829303741455 0.133134275674819946 0.143688678741455078 -0.088453471660614014 -0.118878558278083801 -0.040978737175464630 -0.042865827679634094 -0.124642997980117798 -0.009240332990884781 -0.124874919652938843 0.263064473867416382 0.078783772885799408 0.139652580022811890 -0.034783553332090378 0.013465118594467640 -0.060727123171091080 -0.109949715435504913 -0.003295156173408031 -0.104114435613155365 -0.062153965234756470 -0.084374442696571350 0.060275811702013016 0.067783981561660767 -0.057375412434339523 -0.168806493282318115 -0.028102241456508636 -0.127024307847023010 -0.105230048298835754 -0.065444916486740112 -0.016736978664994240 0.110508665442466736 0.045854933559894562
-0.170894712209701538 0.019826261326670647 0.035601161420345306 0.046918328851461411 -0.049184102565050125 0.141129821538925171 0.020362364128232002 0.049666605889797211 0.168534278869628906 -0.140705883502960205 0.102338299155235291 -0.297815501689910889 0.147930353879928589 -0.091040194034576416 0.104994170367717743 -0.214706897735595703 0.116546995937824249 -0.097928017377853394 0.180472925305366516 -0.083715945482254028 -0.033037692308425903 -0.031579203903675079 0.011175028048455715 -0.090745553374290466 -0.085254289209842682 -0.000541583285667002 0.030346589162945747 0.070703759789466858 0.087601937353610992 0.014460729435086250 -0.184031113982200623 0.144273743033409119 0.003685332834720612 -0.075387634336948395 0.285368412733078003 0.044088371098041534 0.137851819396018982 -0.209480702877044678 -0.115415133535861969 -0.038357056677341461 -0.121415182948112488 -0.104711771011352539 0.147703975439071655 0.067721515893936157 -0.131951019167900085 -0.054512098431587219 -0.001146542141214013 0.153348624706268311 -0.071174405515193939 0.109250031411647797 0.091279119253158569 -0.024977689608931541 -0.119646482169628143 -0.091489449143409729 -0.084648929536342621 -0.191779971122741699 -0.059861123561859131 -0.102009318768978119 0.000038272566598607 0.046275738626718521 0.146945536136627197 -0.054414696991443634 0.135046422481536865 0.137541294097900391 -0.053645920008420944 -0.028794052079319954 0.033665932714939117 -0.091105230152606964 -0.187352105975151062 -0.035416051745414734 0.064966656267642975 -0.094803348183631897 0.128990605473518372 -0.029423449188470840 -0.116376593708992004 0.096117705106735229 -0.014224009588360786 -0.119070455431938171 -0.216681405901908875 0.139313489198684692 -0.178820356726646423 0.069734573364257812 -0.105193369090557098 -0.144095271825790405 0.172884300351142883 0.107135236263275146 0.109082169830799103 0.155217379331588745 0.156825631856918335 0.103155963122844696 -0.068236373364925385 -0.056406140327453613 0.150767415761947632 0.146925806999206543 0.078300960361957550 -0.047334637492895126 0.041286461055278778 -0.173860177397727966 0.178423002362251282 -0.036554306745529175
-0.039026618003845215 -0.030063696205615997 -0.122779756784439087 -0.077070623636245728 -0.167955055832862854 0.124388888478279114 -0.023126306012272835 -0.122219465672969818 -0.087045073509216309 0.022634796798229218 0.019401397556066513 0.233031854033470154 0.025549959391355515 -0.033376649022102356 0.128752321004867554 -0.031131850555539131 -0.026169849559664726 0.122488170862197876 0.035741668194532394 0.008611027151346207 -0.074754394590854645 0.009766759350895882 -0.097689256072044373 0.154089897871017456 -0.130320578813552856 0.042713034898042679 -0.112829014658927917 -0.161645367741584778 0.036646854132413864 0.047504194080829620 0.061639767140150070 -0.040966361761093140 -0.091677702963352203 0.087172389030456543 -0.104694649577140808 -0.160362333059310913 -0.063413232564926147 -0.070546880364418030 0.107156425714492798 -0.145268961787223816 -0.193993255496025085 -0.169256761670112610 0.137229382991790771 0.136337652802467346 0.081509053707122803 -0.131019517779350281 -0.159859448671340942 -0.029628522694110870 -0.126388996839523315 -0.035042747855186462 -0.033475786447525024 0.097195632755756378 0.133668333292007446 0.162731707096099854 -0.107199013233184814 -0.016783010214567184 -0.090728707611560822 -0.126506745815277100 -0.160567119717597961 -0.074156299233436584 0.018361270427703857 -0.004242057446390390 -0.204238325357437134 -0.108424223959445953 -0.158175617456436157 -0.118838720023632050 0.010789094492793083 -0.153194576501846313 -0.036318361759185791 -0.029507864266633987 -0.142914712429046631 -0.171349346637725830 0.095733202993869781 -0.136376485228538513 0.042744789272546768 0.024604106321930885 0.046664234250783920 0.007103413809090853 0.259063303470611572 0.110269755125045776 -0.049549717456102371 0.010226382873952389 -0.128957644104957581 0.122082889080047607 0.083546936511993408 -0.066351428627967834 0.102767005562782288 0.026798874139785767 0.136005491018295288 -0.191239014267921448 -0.105461992323398590 0.022932441905140877 -0.108435176312923431 0.025397630408406258 -0.136957228183746338 -0.095127232372760773 -0.023740934208035469 -0.112316779792308807 -0.012031890451908112 0.050980132073163986
-0.016120081767439842 -0.059965826570987701 -0.001533417380414903 0.164992749691009521 -0.102960810065269470 -0.115551210939884186 0.006772067397832870 0.016434913501143456 0.083329372107982635 -0.137614235281944275 -0.014018832705914974 0.004799080546945333 -0.095900699496269226 0.116956740617752075 0.111638329923152924 0.006199631374329329 -0.116868488490581512 -0.157025396823883057 -0.185785993933677673 -0.034108597785234451 -0.045120578259229660 -0.000688859901856631 0.096680231392383575 -0.133314535021781921 -0.103413730859756470 0.114604711532592773 0.045590173453092575 -0.078635334968566895 -0.118467643857002258 0.069341190159320831 -0.009220504201948643 -0.056752018630504608 0.112685091793537140 0.144250005483627319 -0.135156974196434021 -0.038954555988311768 0.096137590706348419 -0.036526959389448166 -0.124473400413990021 -0.096147999167442322 -0.008453114889562130 0.073604740202426910 -0.072855241596698761 0.129058957099914551 -0.069038279354572296 -0.102830514311790466 0.043921455740928650 0.195947632193565369 0.112741410732269287 -0.169950470328330994 -0.200407326221466064 -0.048531126230955124 -0.087142214179039001 -0.068805359303951263 0.109616287052631378 -0.111685909330844879 -0.117448799312114716 -0.111097611486911774 0.046732846647500992 0.183355227112770081 -0.093085899949073792 -0.065723791718482971 -0.010093368589878082 0.098559826612472534 -0.320904791355133057 -0.044810816645622253 0.132547780871391296 0.000274729100055993 0.012654843740165234 0.169889435172080994 0.087233811616897583 0.122730188071727753 -0.152190372347831726 0.067683897912502289 -0.176912516355514526 -0.124194882810115814 -0.079788550734519958 0.058269724249839783 -0.012598625384271145 -0.041719809174537659 0.051673300564289093 0.097110562026500702 0.038044724613428116 0.108788162469863892 0.150200828909873962 -0.055707842111587524 -0.009130716323852539 -0.026604950428009033 -0.091847993433475494 -0.089359469711780548 0.077506549656391144 0.135021463036537170 0.113482974469661713 -0.083526767790317535 -0.059856984764337540 -0.027965607121586800 0.054571993649005890 0.034695658832788467 -0.120170608162879944 -0.159801885485649109
0.102204956114292145 0.088974438607692719 -0.164413228631019592 0.152798086404800415 0.125235840678215027 0.118655517697334290 -0.141852363944053650 0.093349829316139221 -0.108442701399326324 -0.095859274268150330 0.099729374051094055 0.011290449649095535 -0.091177679598331451 0.124989949166774750 0.056488502770662308 -0.159805610775947571 -0.042604181915521622 -0.066378496587276459 0.046621032059192657 -0.083482407033443451 -0.012207016348838806 0.142621040344238281 -0.137873545289039612 0.024209147319197655 0.155569642782211304 0.074878141283988953 -0.016663100570440292 0.038185235112905502 0.033767618238925934 0.117968045175075531 -0.112037338316440582 -0.164165362715721130 -0.033766113221645355 -0.087668336927890778 -0.019968267530202866 -0.070497080683708191 -0.043387841433286667 -0.100937537848949432 0.073624722659587860 0.019957242533564568 0.056769344955682755 -0.090533882379531860 0.120029933750629425 0.079311139881610870 0.166952192783355713 -0.151706546545028687 -0.096353746950626373 0.008903671987354755 0.027780639007687569 0.147703483700752258 0.046428162604570389 0.107468940317630768 -0.048645235598087311 -0.023991605266928673 0.124469399452209473 -0.121482118964195251 -0.014364310540258884 -0.051979381591081619 -0.047595303505659103 -0.003793430281803012 0.062696985900402069 -0.025219071656465530 -0.144368991255760193 -0.136242806911468506 -0.069115810096263885 0.089186720550060272 0.047473158687353134 -0.127586171030998230 -0.018565732985734940 -0.076830469071865082 0.143016040325164795 0.064643666148185730 -0.126922965049743652 0.092737622559070587 -0.184281975030899048 0.160092532634735107 0.081326954066753387 0.065384097397327423 0.182137191295623779 -0.188039347529411316 -0.075725607573986053 0.139637708663940430 -0.110365822911262512 0.051238182932138443 -0.045831330120563507 -0.037508387118577957 -0.030144099146127701 -0.155734375119209290 0.117830082774162292 -0.133068054914474487 -0.010015207342803478 0.131099238991737366 0.104734592139720917 0.133764937520027161 -0.022769376635551453 -0.001090551144443452 0.118347413837909698 0.064997740089893341 0.146138086915016174 -0.105407804250717163
-0.051933720707893372 -0.102697111666202545 -0.134884789586067200 0.145132228732109070 0.124286085367202759 0.157647535204887390 -0.114325128495693207 -0.178688034415245056 -0.117024868726730347 0.101327754557132721 0.068816937506198883 -0.035738777369260788 -0.040190339088439941 0.132890760898590088 0.064558111131191254 -0.096922025084495544 0.215268373489379883 0.177052184939384460 -0.032449845224618912 -0.024848435074090958 -0.239922329783439636 0.073237650096416473 0.098964229226112366 0.129448711872100830 -0.214098095893859863 -0.032640840858221054 -0.110759168863296509 0.091514393687248230 0.051161155104637146 -0.144018650054931641 -0.028219919651746750 0.046000063419342041 0.129941776394844055 -0.123202532529830933 0.147173628211021423 0.129369050264358521 -0.089726567268371582 -0.073360823094844818 -0.166605904698371887 -0.124480187892913818 -0.120552040636539459 -0.083131976425647736 0.014416086487472057 0.065357074141502380 -0.228850290179252625 -0.073061555624008179 -0.130410477519035339 -0.011388724669814110 0.196061939001083374 0.222935348749160767 -0.045980717986822128 -0.133360162377357483 -0.085036143660545349 0.131658747792243958 -0.047934018075466156 0.084645427763462067 0.121745750308036804 -0.107357963919639587 0.189771249890327454 -0.052683815360069275 0.003234049305319786 0.004326422698795795 -0.156180068850517273 0.024509012699127197 0.224858358502388000 0.072851128876209259 -0.022955603897571564 0.051173210144042969 0.110929198563098907 0.000945683917962015 -0.003328600898385048 0.040148388594388962 0.155018180608749390 0.188879385590553284 0.028808085247874260 0.015510723926126957 0.138599663972854614 -0.158809050917625427 -0.137939050793647766 -0.154489129781723022 0.109172932803630829 -0.131059855222702026 -0.060155980288982391 -0.044680159538984299 -0.063038408756256104 0.119305364787578583 0.121827743947505951 0.132587313652038574 0.086492985486984253 0.092057198286056519 0.131426826119422913 0.028744895011186600 0.031558156013488770 -0.058326788246631622 0.144557252526283264 0.144289940595626831 0.169648423790931702 0.120911210775375366 0.104844875633716583 -0.002356296405196190
-0.136255159974098206 -0.103961877524852753 0.018470034003257751 0.095422260463237762 0.133819818496704102 0.178320601582527161 -0.076547823846340179 0.080341547727584839 -0.130431205034255981 0.003578102216124535 0.001387526281177998 0.011880896054208279 0.066635057330131531 -0.148928895592689514 -0.108114257454872131 -0.144661664962768555 -0.072742268443107605 -0.107178546488285065 -0.164862528443336487 0.065259546041488647 0.165405154228210449 -0.110718354582786560 0.005462316330522299 0.037817619740962982 0.078807473182678223 0.069032058119773865 -0.063327871263027191 -0.143826261162757874 0.004342456813901663 -0.025085749104619026 -0.081100314855575562 0.100502654910087585 0.232284694910049438 -0.034853320568799973 -0.090833231806755066 -0.204421594738960266 -0.119063466787338257 -0.073520913720130920 0.070531211793422699 -0.032922245562076569 0.054024908691644669 -0.030049508437514305 -0.017583493143320084 -0.080308839678764343 -0.107386574149131775 0.161697700619697571 0.057727038860321045 0.034429199993610382 0.072224922478199005 -0.026645330712199211 -0.039939507842063904 -0.029628170654177666 -0.057633660733699799 0.029345827177166939 0.169654428958892822 -0.033060699701309204 0.124965071678161621 -0.191145777702331543 -0.154428511857986450 0.074097268283367157 0.013854388147592545 -0.146948382258415222 -0.048320494592189789 0.065475948154926300 -0.046257220208644867 0.073184162378311157 -0.016418695449829102 -0.127729579806327820 0.104784660041332245 0.007194005418568850 0.146705880761146545 0.090013526380062103 -0.146704465150833130 0.221250310540199280 -0.018986511975526810 -0.011673252098262310 0.095570869743824005 -0.117651954293251038 0.015843866392970085 0.056358054280281067 -0.113238990306854248 -0.013652515597641468 0.112499073147773743 0.252299666404724121 0.192636296153068542 -0.077950939536094666 0.112891882658004761 -0.136801183223724365 -0.052121788263320923 -0.069168224930763245 0.024054067209362984 -0.099915631115436554 0.009032553061842918 0.061504807323217392 0.116427987813949585 -0.080544613301753998 0.087338522076606750 -0.041101232171058655 -0.083608828485012054 -0.029149439185857773
-0.066783420741558075 0.144828662276268005 0.001768126618117094 -0.029917169362306595 -0.014582993462681770 0.082930110394954681 0.059505794197320938 -0.116815462708473206 0.020366355776786804 0.071156240999698639 0.015772996470332146 0.275314033031463623 0.136483579874038696 -0.086886212229728699 -0.063200950622558594 0.072164118289947510 -0.266588032245635986 -0.131546095013618469 -0.000695287249982357 0.087857209146022797 0.026298442855477333 0.165909603238105774 -0.159099623560905457 0.058948509395122528 0.237850636243820190 -0.033069901168346405 -0.147959217429161072 0.049231998622417450 0.039698250591754913 -0.072314016520977020 0.039156690239906311 -0.042087800800800323 -0.013752751983702183 -0.044149205088615417 -0.113693304359912872 0.140161007642745972 -0.078654363751411438 0.184497818350791931 0.130621805787086487 0.209509700536727905 -0.079417794942855835 -0.126005962491035461 -0.011076299473643303 0.124594420194625854 -0.002457470400258899 -0.120557904243469238 0.036564435809850693 -0.068777158856391907 -0.192276507616043091 -0.013586954213678837 0.070852302014827728 0.117256470024585724 0.057422205805778503 0.100306965410709381 -0.103503614664077759 -0.057514544576406479 -0.080186299979686737 0.064173661172389984 0.130158141255378723 0.100779183208942413 -0.048138622194528580 -0.090978235006332397 0.089230753481388092 -0.111342191696166992 -0.263562858104705811 -0.133314326405525208 -0.154939994215965271 0.170156538486480713 0.038676813244819641 0.251760274171829224 0.110182002186775208 -0.040806312114000320 0.047911379486322403 -0.080222636461257935 -0.160694643855094910 -0.123440235853195190 -0.144973486661911011 -0.067480154335498810 0.202570125460624695 0.118217706680297852 0.100052542984485626 0.093273937702178955 0.153067618608474731 -0.004834020975977182 0.135198295116424561 -0.114908166229724884 0.092755399644374847 -0.160632327198982239 0.111220531165599823 -0.079795502126216888 0.127357587218284607 -0.099755473434925079 -0.153867378830909729 -0.092893347144126892 0.156569480895996094 0.006280765403062105 -0.027833467349410057 0.026754397898912430 -0.081621952354907990 -0.174652472138404846
0.037355940788984299 0.067489244043827057 -0.159432530403137207 -0.026321418583393097 0.132311269640922546 0.064104579389095306 0.000294455297989771 -0.120273843407630920 -0.124376304447650909 -0.127013027667999268 -0.013174204155802727 -0.160519585013389587 0.126619383692741394 0.119947381317615509 0.015869982540607452 0.024414151906967163 -0.015229645185172558 0.098049692809581757 -0.181552141904830933 0.042857509106397629 0.060973562300205231 -0.093689754605293274 0.073974326252937317 0.099336244165897369 0.104712419211864471 -0.056892078369855881 0.111868210136890411 -0.112245596945285797 -0.077842913568019867 -0.044205639511346817 0.100867331027984619 -0.162908941507339478 0.220012247562408447 0.131897300481796265 0.105897754430770874 -0.118374668061733246 0.083556279540061951 -0.096452236175537109 0.106795750558376312 -0.142776489257812500 -0.081004559993743896 0.011516180820763111 0.075703948736190796 -0.033860191702842712 -0.035034805536270142 -0.032321721315383911 0.154786363244056702 -0.131208494305610657 0.055013876408338547 0.055810596793889999 0.006414263043552637 -0.112531632184982300 -0.033300999552011490 -0.177371174097061157 0.185595542192459106 -0.091416135430335999 -0.073756515979766846 0.096056900918483734 -0.128264129161834717 -0.036800757050514221 -0.195461183786392212 0.058655545115470886 0.133369460701942444 -0.111535117030143738 0.157536014914512634 0.040842585265636444 -0.158203363418579102 0.037219319492578506 -0.044685829430818558 -0.063477590680122375 0.052704527974128723 -0.127080485224723816 0.139080390334129333 0.151806101202964783 -0.073376663029193878 -0.006536751519888639 -0.069480746984481812 0.014387843199074268 -0.058082547038793564 -0.147145375609397888 0.080642163753509521 0.173090770840644836 -0.059256985783576965 -0.154646858572959900 -0.042141888290643692 -0.172810941934585571 0.121678434312343597 0.084327176213264465 -0.102970726788043976 -0.104052722454071045 -0.050920441746711731 0.028604822233319283 -0.149066343903541565 0.059728860855102539 -0.136530607938766479 0.163364633917808533 0.008211671374738216 0.171100065112113953 -0.064568534493446350 0.076617628335952759
