#Layer 8 Weights:
-0.186001718044281006
0.156183794140815735
0.229251354932785034
0.003454824676737189
0.000331001036101952
-0.026548676192760468
0.001606232603080571
0.031968209892511368
0.160424515604972839
0.001526816631667316
0.112461432814598083
0.001621444243937731
0.177030235528945923
-0.136709406971931458
0.052525408565998077
0.146202102303504944
-0.106177106499671936
-0.150058984756469727
0.220025181770324707
-0.122130759060382843
0.154781237244606018
-0.225711300969123840
-0.121602460741996765
-0.097632654011249542
-0.052360534667968750
-0.112978696823120117
0.000365058018360287
-0.089153639972209930
0.191852688789367676
-0.049924831837415695
-0.118552528321743011
-0.054821874946355820
-0.165699884295463562
0.059870313853025436
0.088259592652320862
0.111827842891216278
0.150073930621147156
-0.027787109836935997
0.086954124271869659
0.100960403680801392
0.109032429754734039
0.089884780347347260
-0.007028218358755112
0.109729051589965820
0.151858270168304443
-0.049168579280376434
-0.045744825154542923
-0.161502972245216370
-0.062155105173587799
0.060631930828094482
0.063550457358360291
0.155939683318138123
0.075687281787395477
0.020137703046202660
0.122753635048866272
-0.004455571994185448
0.078607045114040375
-0.120290264487266541
-0.000930289039388299
0.001314231427386403
-0.177544638514518738
0.187570124864578247
-0.182967469096183777
-0.117288127541542053
-0.104834310710430145
0.231262534856796265
-0.097576379776000977
0.001058367080986500
0.272874921560287476
0.026248125359416008
-0.033646587282419205
0.002727166749536991
0.045354131609201431
-0.133159473538398743
0.068923085927963257
-0.154832169413566589
0.174531117081642151
0.102903172373771667
0.013297717086970806
-0.143644422292709351
0.116809986531734467
-0.051452580839395523
0.211871460080146790
-0.085880704224109650
-0.060925934463739395
0.068093694746494293
-0.176432341337203979
0.089455589652061462
0.080685868859291077
-0.048337336629629135
-0.215753734111785889
0.070157356560230255
-0.017899950966238976
0.130290925502777100
-0.144343242049217224
0.002457377733662724
0.113483577966690063
-0.003644343232735991
0.175398185849189758
-0.076924026012420654
