#Layer 7 Biases:
0.001217604381963611 0.035354543477296829 0.020281322300434113 0.011612897738814354 -0.027882363647222519 -0.034077290445566177 -0.015576668083667755 -0.017838828265666962 0.015586181543767452 0.020517539232969284 0.003039648523554206 -0.002416611183434725 -0.016561105847358704 -0.025641107931733131 0.013517579995095730 -0.026452101767063141 0.015483686700463295 -0.033596277236938477 -0.049803409725427628 0.015574474819004536 -0.005149466916918755 -0.015676230192184448 -0.001382653601467609 0.016075221821665764 0.014873688109219074 0.013375383801758289 0.025938473641872406 -0.013500076718628407 -0.009089242666959763 0.013035375624895096 0.000599261664319783 0.014849334023892879 -0.002607658971101046 -0.010523784905672073 -0.034750450402498245 0.018082220107316971 -0.019159277901053429 -0.006415772251784801 0.023267092183232307 0.014211825095117092 0.035356614738702774 0.036198742687702179 -0.037519853562116623 0.029866205528378487 -0.007201733998954296 -0.030286112800240517 0.010865812189877033 -0.017053639516234398 -0.021396029740571976 0.020815102383494377 -0.013922582380473614 0.005500705912709236 -0.017641428858041763 -0.012618724256753922 0.020868588238954544 0.012716930359601974 0.036368198692798615 -0.016984423622488976 -0.006760700605809689 0.044108308851718903 -0.016558585688471794 -0.013605053536593914 0.060910530388355255 0.028157941997051239 0.026066757738590240 0.012973806820809841 0.023513063788414001 -0.022341392934322357 -0.012604950927197933 0.010324600152671337 -0.002444088459014893 0.000920569931622595 0.018357992172241211 0.025025453418493271 0.011114107444882393 0.040698233991861343 -0.021733222529292107 0.036546997725963593 -0.006177179981023073 0.005165342241525650 0.017068423330783844 0.000234530554735102 -0.023289479315280914 -0.011295081116259098 -0.018814310431480408 0.020651366561651230 0.020978083834052086 0.011149048805236816 0.054587002843618393 -0.010836335830390453 0.024984883144497871 0.027803245931863785 0.036617364734411240 0.030878966674208641 -0.025849578902125359 -0.024161642417311668 0.001032488304190338 -0.022111339494585991 0.025009721517562866 -0.004789609462022781
