#Layer 3 Biases:
-0.001370494603179395 0.038578137755393982 -0.054693296551704407 -0.000745146826375276 0.013837982900440693 -0.063840612769126892 0.034479852765798569 0.008241747505962849 0.017479686066508293 0.001189372269436717 -0.021179426461458206 -0.036176752299070358 -0.047107554972171783 -0.009203838184475899 0.042686257511377335 -0.017437241971492767 -0.020407710224390030 0.069029018282890320 -0.013285716995596886 -0.020250240340828896 -0.008771410211920738 -0.095082119107246399 0.110164031386375427 -0.036909967660903931 0.003765380242839456 -0.065915763378143311 0.031765516847372055 0.002013718010857701 -0.038727801293134689 -0.042233735322952271 -0.079104430973529816 0.014807643368840218 0.001461069216020405 -0.029759230092167854 0.104850709438323975 -0.052639063447713852 -0.015897998586297035 -0.016829185187816620 0.009432415477931499 0.006104983855038881 0.012441705912351608 -0.033138480037450790 0.008464026264846325 -0.042837239801883698 -0.013509231619536877 0.022226680070161819 -0.025871733203530312 -0.059577282518148422 0.053775589913129807 0.038345538079738617 0.051369830965995789 -0.013790642842650414 -0.024241788312792778 0.061729893088340759 0.007222232874482870 -0.074838556349277496 -0.066677503287792206 0.022966181859374046 -0.068261288106441498 0.010085140354931355 0.003817433025687933 0.055093836039304733 0.053318064659833908 0.086277611553668976 0.001670642173849046 0.017053380608558655 -0.045897282660007477 0.004709428641945124 -0.013010738417506218 -0.041795253753662109 0.025437396019697189 -0.009122123010456562 0.030277088284492493 -0.005991221405565739 -0.025892397388815880 0.038675662130117416 0.012209781445562840 0.047280292958021164 -0.002360640093684196 -0.004106320906430483 0.009735464118421078 0.016939053311944008 0.022580124437808990 -0.011972988955676556 -0.000512752681970596 -0.030679926276206970 0.029914701357483864 -0.027857860550284386 -0.076400853693485260 0.020568598061800003 -0.020782276988029480 0.040725957602262497 0.031302485615015030 -0.021157070994377136 0.014930879697203636 0.027881754562258720 -0.019712034612894058 0.010679796338081360 -0.003628065576776862 -0.022008851170539856
