#Layer 5 Biases:
0.059841781854629517 -0.051133468747138977 -0.115399479866027832 0.059739738702774048 -0.016494212672114372 -0.006634688470512629 0.023408647626638412 0.007622759789228439 0.013785292394459248 0.020920455455780029 -0.004356349352747202 0.015302986837923527 -0.030010685324668884 0.003687510034069419 -0.024312879890203476 0.009546081535518169 -0.035363819450139999 0.036363266408443451 0.049823652952909470 0.001971821300685406 0.031418811529874802 0.048622485250234604 0.002085172338411212 0.009806812740862370 0.014834876172244549 0.009451347403228283 -0.016274975612759590 0.014905619435012341 -0.020894540473818779 -0.065128624439239502 0.001978376181796193 -0.040085166692733765 0.046183142811059952 -0.043572086840867996 -0.003627101192250848 0.013743932358920574 -0.017174599692225456 0.010775189846754074 -0.026840817183256149 -0.003841891186311841 -0.076763257384300232 -0.026844775304198265 0.168938413262367249 -0.003450202755630016 0.024481467902660370 0.024239875376224518 -0.001309709972701967 0.009907330386340618 -0.024560680612921715 0.040143396705389023 0.009733662940561771 -0.047780849039554596 -0.000642880972009152 0.022629067301750183 0.008093046024441719 0.014024577103555202 0.051912695169448853 0.038954734802246094 0.024943133816123009 -0.001798022422008216 0.033869639039039612 -0.018586074933409691 -0.024067070335149765 0.006594995502382517 0.152338787913322449 -0.036631334573030472 0.028231341391801834 -0.042438283562660217 0.012817047536373138 0.011196882463991642 -0.058730565011501312 -0.012645037844777107 0.102304890751838684 0.014269444160163403 0.000041662344301585 0.018327428027987480 0.002205089898779988 -0.030326627194881439 -0.015734544023871422 -0.020072102546691895 0.012389587238430977 0.001901927054859698 0.036909501999616623 -0.002433508867397904 0.028561685234308243 -0.016654752194881439 0.012406027875840664 0.021775878965854645 -0.108185820281505585 -0.052796248346567154 -0.009306830354034901 -0.024766528978943825 0.018461594358086586 -0.000296370795695111 -0.006646897643804550 -0.049046494066715240 0.016658807173371315 0.024772204458713531 0.006382558029145002 0.037710685282945633
