#Layer 1 Biases:
-0.082309395074844360 -0.071810141205787659 0.048829972743988037 0.051096264272928238 -0.089262068271636963 -0.105385594069957733 -0.089309722185134888 -0.096731655299663544 -0.058208331465721130 -0.075899146497249603 -0.049067180603742599 0.047936249524354935 -0.096087254583835602 0.093995615839958191 0.072763636708259583 0.087493754923343658 -0.039715394377708435 -0.024244787171483040 -0.019638177007436752 0.090350471436977386 0.024076163768768311 -0.089395843446254730 -0.053394988179206848 0.113747537136077881 0.077223055064678192 -0.093658998608589172 -0.024321155622601509 -0.000205799296963960 -0.024339757859706879 -0.055784765630960464 -0.045529529452323914 -0.062712006270885468 -0.025641225278377533 0.015122286044061184 -0.062118560075759888 -0.070386849343776703 -0.008753450587391853 -0.076716579496860504 0.038456358015537262 -0.025181237608194351 0.134772762656211853 -0.128355726599693298 0.019023699685931206 0.019374689087271690 0.037878856062889099 0.060591157525777817 -0.087801449000835419 -0.054043818265199661 0.008114174939692020 -0.053360469639301300 -0.036422759294509888 0.050285842269659042 -0.034155663102865219 -0.112813435494899750 0.075192011892795563 -0.005631819833070040 -0.049768395721912384 0.041655145585536957 0.074899218976497650 -0.003293459303677082 -0.034376095980405807 0.019401108846068382 -0.074400752782821655 -0.016149768605828285 -0.041839733719825745 0.053418029099702835 0.044535573571920395 0.075143165886402130 0.012267710641026497 -0.114720739424228668 0.051027022302150726 -0.043494630604982376 -0.045450098812580109 0.063167460262775421 -0.060986455529928207 0.028742494061589241 0.033744920045137405 0.027304550632834435 -0.007871720939874649 0.086594425141811371 -0.111307442188262939 -0.010748959146440029 -0.045368641614913940 -0.043124891817569733 -0.070916265249252319 0.063436053693294525 -0.007427768781781197 -0.057212311774492264 0.008460751734673977 0.072698459029197693 0.006331314798444510 0.092411175370216370 0.094580568373203278 -0.070729114115238190 0.077413789927959442 0.077072210609912872 -0.023324664682149887 0.000043935913708992 0.074679464101791382 -0.052858565002679825
