#Layer 6 Biases:
0.008937052451074123 0.043683849275112152 0.025844300165772438 0.029524983838200569 0.003380165435373783 -0.001711469027213752 0.024031441658735275 0.003415996674448252 0.005729308817535639 -0.010305099189281464 0.009179457090795040 0.009427868761122227 0.002422903431579471 0.028314774855971336 0.061540380120277405 0.033140860497951508 -0.011959948576986790 -0.003246845910325646 0.012656349688768387 0.021991578862071037 0.040997296571731567 -0.056425563991069794 0.002602165099233389 0.010083107277750969 0.035173267126083374 -0.026842327788472176 0.013064014725387096 -0.005257562268525362 0.157549068331718445 0.036668475717306137 -0.028114855289459229 -0.004953680094331503 -0.057394422590732574 -0.014039093628525734 0.032658662647008896 -0.027864426374435425 0.011510430835187435 -0.071452423930168152 0.028044480830430984 -0.047982018440961838 0.009202194400131702 -0.034272730350494385 -0.021199388429522514 -0.083985172212123871 -0.022187843918800354 -0.028181817382574081 0.045771706849336624 0.005510215181857347 0.040244009345769882 0.000263894587988034 -0.002756903413683176 0.032897870987653732 0.009327332489192486 0.037526745349168777 -0.075507678091526031 -0.029386939480900764 -0.061442036181688309 -0.012941249646246433 0.018954740837216377 0.016935342922806740 0.003009346080943942 -0.086572401225566864 -0.040071077644824982 0.001191743183881044 0.044144555926322937 0.033441923558712006 0.013523137196898460 -0.026129070669412613 -0.010304100811481476 0.007288585416972637 0.007535467855632305 0.060055829584598541 0.018331153318285942 -0.038161348551511765 0.024380622431635857 0.002282678382471204 0.039877377450466156 0.009928293526172638 -0.016901653259992599 0.043654859066009521 0.017199514433741570 -0.024997349828481674 0.004508050158619881 -0.024995576590299606 0.038296956568956375 0.039153698831796646 0.074384726583957672 0.032997932285070419 -0.025091880932450294 -0.016023514792323112 -0.017987689003348351 0.000416309369029477 0.012985449284315109 0.009083746001124382 -0.039638631045818329 -0.018581442534923553 0.009611841291189194 0.039093323051929474 -0.015140125527977943 -0.004832740873098373
