#Layer 0 Biases:
0.109851799905300140 -0.098969608545303345 0.009284366853535175 -0.024500444531440735 0.037940524518489838 0.208326727151870728 0.124390810728073120 0.154232680797576904 0.071691572666168213 0.068504318594932556 0.001788854715414345 0.075157247483730316 0.051763541996479034 0.077329829335212708 0.064707338809967041 -0.138431802392005920 -0.076063826680183411 0.100106984376907349 0.079032495617866516 -0.170597150921821594 0.152357369661331177 0.080044806003570557 -0.156360372900962830 -0.121560722589492798 0.001278341282159090 0.039541006088256836 -0.040085643529891968 0.049365323036909103 0.097546890377998352 -0.024800309911370277 -0.147577852010726929 -0.100104354321956635 -0.042082957923412323 0.199721634387969971 0.176520451903343201 0.045242581516504288 0.086666129529476166 0.129769653081893921 -0.104072086513042450 -0.102363511919975281 -0.124910004436969757 -0.054853256791830063 0.028579317033290863 -0.129297196865081787 0.110979557037353516 0.096502900123596191 -0.082546994090080261 0.105072066187858582 0.132267236709594727 0.034845869988203049 -0.026629207655787468 0.057538472115993500 0.075186870992183685 0.045386504381895065 -0.078044928610324860 -0.090538106858730316 -0.015869541093707085 0.083446197211742401 0.085991054773330688 -0.083593614399433136 0.091093271970748901 0.083197705447673798 0.004095995333045721 0.122224912047386169 -0.123883172869682312 -0.022644065320491791 -0.057008787989616394 0.108075857162475586 -0.085746228694915771 -0.077151082456111908 0.062482643872499466 0.111254207789897919 -0.090568155050277710 -0.045296020805835724 0.103917650878429413 -0.087740190327167511 0.109972245991230011 -0.108597472310066223 -0.005761376116424799 -0.175065159797668457 0.017310205847024918 0.104403950273990631 0.116961590945720673 -0.068823672831058502 0.012687045149505138 -0.070440985262393951 -0.167361453175544739 -0.041659146547317505 -0.182031616568565369 -0.152150437235832214 -0.174887612462043762 -0.090426214039325714 0.009246914647519588 0.142564520239830017 -0.062689885497093201 0.037355497479438782 0.027939509600400925 0.026749270036816597 -0.158115476369857788 -0.184858411550521851
