#Layer 0 Weights:
-0.144117444753646851 0.091695368289947510 -0.034894563257694244 0.097855806350708008 -0.209994867444038391 -0.067864738404750824 -0.164596319198608398 -0.136620640754699707 0.036989089101552963 0.135738760232925415 -0.076670624315738678 0.011763310991227627 -0.244009837508201599 -0.169144868850708008 0.042960248887538910 -0.108606375753879547 0.199009716510772705 -0.066870890557765961 -0.233118072152137756 0.057249560952186584 -0.109625093638896942 -0.156889542937278748 -0.018198907375335693 0.077866509556770325 0.163313239812850952 -0.212305366992950439 0.183957606554031372 -0.018139459192752838 -0.047673162072896957 0.226518437266349792 -0.047640915960073471 0.160974964499473572 0.079521596431732178 -0.210521310567855835 -0.011413043364882469 0.070027045905590057 -0.060791302472352982 -0.033628709614276886 0.196022137999534607 0.051998104900121689 0.104307845234870911 0.086643658578395844 -0.266715049743652344 0.210557028651237488 -0.231159523129463196 -0.185525909066200256 0.257196575403213501 -0.082164719700813293 0.073243886232376099 0.211518689990043640 -0.121037535369396210 0.157709866762161255 -0.237306788563728333 -0.165531635284423828 0.206949740648269653 0.104767866432666779 -0.039746496826410294 -0.149634733796119690 -0.100429303944110870 0.228741228580474854 -0.239141881465911865 -0.044158034026622772 -0.025136068463325500 0.050962369889020920 0.229058668017387390 0.278962492942810059 0.133904576301574707 -0.127768054604530334 0.187556147575378418 0.061364647001028061 -0.229463785886764526 0.067490838468074799 0.116077296435832977 0.126566782593727112 -0.210096538066864014 0.207137823104858398 -0.045622549951076508 0.078862056136131287 -0.218102559447288513 0.010776394046843052 0.009019592776894569 -0.175806775689125061 -0.208616226911544800 -0.117046266794204712 -0.111957289278507233 0.074228279292583466 0.123066037893295288 0.045391164720058441 0.075310558080673218 -0.001674418686889112 0.058013487607240677 0.246902495622634888 0.019036710262298584 0.084479160606861115 -0.151849791407585144 -0.168691903352737427 0.122542388737201691 -0.104575186967849731 0.116694286465644836 0.089616745710372925
0.047264013439416885 -0.012960053980350494 0.007746794261038303 -0.055771015584468842 0.198706433176994324 -0.128440290689468384 0.118503555655479431 -0.064766019582748413 -0.080149076879024506 0.185634776949882507 0.061951674520969391 -0.102479986846446991 0.206701070070266724 0.099913090467453003 0.115283250808715820 0.200747713446617126 -0.078087531030178070 -0.004688661079853773 -0.012792710214853287 0.125677749514579773 -0.046987157315015793 0.115737617015838623 0.154966443777084351 0.048168782144784927 0.011519261635839939 0.175439789891242981 -0.158130422234535217 0.152266412973403931 -0.103788919746875763 -0.218213677406311035 0.189288645982742310 -0.109660774469375610 -0.039333961904048920 0.001057987334206700 -0.150213629007339478 -0.113184534013271332 -0.000950861023738980 -0.092516548931598663 -0.044077306985855103 0.016523091122508049 -0.006887549068778753 -0.001126677147112787 0.243980988860130310 -0.042859971523284912 0.120543718338012695 0.071705684065818787 -0.175335705280303955 -0.015016553923487663 -0.179509490728378296 -0.242947101593017578 0.137113794684410095 -0.204274684190750122 -0.003786259796470404 0.152952745556831360 -0.143986344337463379 -0.033590644598007202 0.088004454970359802 0.042018249630928040 0.037367373704910278 -0.104320280253887177 0.184224709868431091 -0.031554229557514191 0.061861407011747360 -0.144722223281860352 -0.174624398350715637 -0.281338095664978027 -0.121805712580680847 -0.064005851745605469 -0.113342240452766418 -0.017777377739548683 0.181241050362586975 -0.115392014384269714 -0.054033223539590836 -0.088186904788017273 0.086818970739841461 -0.101448714733123779 -0.043743710964918137 0.026647200807929039 0.247326552867889404 0.149917975068092346 0.011309920810163021 0.083409741520881653 0.045544840395450592 0.192375093698501587 0.085422575473785400 -0.020575987175107002 0.043656248599290848 -0.010008033365011215 0.120406858623027802 0.133178129792213440 0.090764291584491730 -0.131083756685256958 0.148527726531028748 -0.199370712041854858 0.198285743594169617 0.149144098162651062 -0.161706626415252686 0.104338549077510834 0.067018702626228333 0.101354666054248810
