#Layer 5 Biases:
-0.020813526585698128 -0.005659296177327633 0.012649797834455967 -0.040056139230728149 0.000230619683861732 -0.039779532700777054 0.006089718546718359 0.010705606080591679 0.078605204820632935 0.010492899455130100 -0.029420308768749237 -0.082437418401241302 0.013833593577146530 0.012846880592405796 -0.003118465421721339 0.033778965473175049 0.008967153728008270 0.029114402830600739 -0.018656393513083458 0.070126488804817200 0.038483414798974991 -0.028327440842986107 0.041215632110834122 -0.054411292076110840 0.019239822402596474 -0.011796512641012669 0.054274529218673706 0.069092139601707458 -0.041059195995330811 -0.037106368690729141 -0.020910952240228653 0.047957662492990494 -0.036522336304187775 0.104620091617107391 0.044809125363826752 -0.083202481269836426 -0.011660539545118809 -0.010370551608502865 -0.006180600728839636 -0.029706638306379318 0.040355361998081207 0.051440108567476273 0.026390451937913895 -0.034785125404596329 0.001631373073905706 -0.004170481115579605 0.027078080922365189 0.032886274158954620 -0.020925475284457207 0.015858868137001991 -0.004971862770617008 -0.024474844336509705 -0.026255464181303978 -0.050937265157699585 -0.012474873103201389 0.035171080380678177 -0.056505009531974792 0.038181692361831665 0.080769486725330353 0.028892090544104576 -0.050459448248147964 -0.034178841859102249 -0.015496985055506229 0.031403690576553345 0.010513294488191605 0.031668402254581451 0.005364657379686832 -0.063601709902286530 -0.073201820254325867 0.027212563902139664 0.006207307334989309 -0.014142270199954510 0.023847952485084534 0.006511561572551727 0.052192885428667068 0.019306903705000877 0.117135651409626007 -0.004040784668177366 -0.028714234009385109 -0.001088995602913201 -0.001916857319884002 0.051865372806787491 0.076648280024528503 0.014228386804461479 0.030108219012618065 -0.060880038887262344 -0.037232495844364166 -0.065207161009311676 0.074287146329879761 0.031241554766893387 -0.031967591494321823 -0.002210295060649514 -0.008383181877434254 0.003357168985530734 -0.039234127849340439 0.008814181201159954 -0.000202645518584177 -0.031963221728801727 -0.044764555990695953 0.069252170622348785
