#Layer 6 Biases:
0.032261785119771957 0.022658605128526688 0.018567332997918129 -0.001024171011522412 -0.015979321673512459 -0.003856250783428550 0.008991247974336147 0.016181375831365585 0.081390917301177979 -0.013837771490216255 -0.101396530866622925 0.022882804274559021 0.003469533054158092 -0.003519821213558316 0.001500527490861714 -0.018339537084102631 -0.003189501119777560 0.036516744643449783 0.001202234299853444 -0.026457475498318672 0.033431686460971832 -0.017621519044041634 0.000884213834069669 0.053161825984716415 -0.017885785549879074 0.036272723227739334 -0.018205480650067329 0.015384330414235592 -0.020233547315001488 -0.024835320189595222 0.016606213524937630 0.059652831405401230 -0.018347589299082756 0.045354004949331284 0.022856244817376137 0.025539871305227280 -0.030155468732118607 -0.061658792197704315 0.042411807924509048 0.004920462612062693 -0.068245112895965576 -0.128778696060180664 0.059170801192522049 0.005736416671425104 -0.027959411963820457 -0.026688456535339355 -0.053534518927335739 0.003602338256314397 0.046975005418062210 -0.040550582110881805 -0.051669247448444366 0.027925763279199600 0.018821245059370995 0.003764922032132745 -0.035918902605772018 -0.000056638022215338 -0.025358827784657478 -0.031232396140694618 0.001833368791267276 0.011176220141351223 -0.007575094234198332 0.007308150641620159 -0.002419472904875875 -0.010766264982521534 -0.040373850613832474 0.007649988867342472 0.013516470789909363 -0.030464567244052887 -0.039699014276266098 -0.009430157020688057 -0.008134619332849979 0.036302383989095688 0.031176146119832993 -0.019410014152526855 0.043232180178165436 -0.020482659339904785 -0.002189146354794502 0.012927024625241756 0.007666071876883507 -0.016888260841369629 0.024057373404502869 -0.002229119418188930 -0.020082393661141396 0.013035575859248638 -0.008917217142879963 -0.023251732811331749 0.039927441626787186 -0.002558112377300858 -0.124016739428043365 -0.030740322545170784 -0.032707396894693375 0.027220392599701881 -0.005521336104720831 0.021319020539522171 -0.041254434734582901 -0.036312084645032883 0.002314531709998846 -0.022656487300992012 -0.037536837160587311 0.048823609948158264
