#Layer 4 Biases:
-0.011557418853044510 0.044593591243028641 0.002429844578728080 0.021439820528030396 -0.056836955249309540 -0.016814699396491051 -0.025137281045317650 -0.028654893860220909 0.018069697543978691 0.006699238903820515 -0.002635297598317266 -0.057216931134462357 0.020756086334586143 0.050963219255208969 0.007857680320739746 0.034805033355951309 -0.028727741912007332 -0.032150600105524063 0.008212255313992500 -0.013760193251073360 -0.026056269183754921 0.028893819078803062 -0.010299290530383587 0.007448502816259861 0.003583821235224605 0.013571211136877537 -0.000987599953077734 0.048928018659353256 -0.022791408002376556 0.019689453765749931 0.019658736884593964 -0.001265588682144880 0.000137023787829094 0.007780431304126978 -0.041014198213815689 0.008220664225518703 0.026339741423726082 -0.032845035195350647 -0.055218990892171860 0.036724049597978592 -0.084764882922172546 -0.015484936535358429 -0.058757983148097992 -0.009924210608005524 0.021262016147375107 -0.014261264353990555 -0.023556835949420929 -0.012458574026823044 0.020982217043638229 -0.025451816618442535 -0.013479126617312431 0.054457973688840866 -0.005264266859740019 0.001072385814040899 -0.030527511611580849 0.011132298037409782 -0.008553505875170231 -0.067697115242481232 0.055379696190357208 -0.098811954259872437 0.009398136287927628 0.008081849664449692 0.026476355269551277 0.051069486886262894 0.024411741644144058 -0.038265451788902283 0.037817224860191345 -0.014828582294285297 -0.086043022572994232 -0.040706798434257507 0.054104190319776535 0.034970298409461975 0.068013921380043030 -0.071781396865844727 0.020404763519763947 0.001115995459258556 0.042034272104501724 -0.023776667192578316 -0.027609929442405701 0.037352066487073898 -0.082018896937370300 -0.038300409913063049 -0.014933477155864239 0.047493938356637955 0.034262843430042267 0.053283739835023880 0.030239701271057129 0.008761010132730007 -0.028059691190719604 -0.004385938402265310 -0.019388722255825996 -0.130011796951293945 0.046323057264089584 -0.000937140779569745 0.008120094425976276 0.011755599640309811 0.012402541004121304 0.020014148205518723 0.006827858276665211 -0.053492225706577301
