#Layer 0 Biases:
0.031665556132793427 -0.240179002285003662 -0.115468978881835938 0.058905143290758133 0.027613330632448196 -0.060944940894842148 0.085203945636749268 0.003317530266940594 -0.210725277662277222 -0.111808657646179199 -0.019721591845154762 -0.042991124093532562 -0.165218591690063477 0.171389013528823853 -0.145644903182983398 -0.033493347465991974 -0.042281720787286758 -0.015257107093930244 -0.113694570958614349 -0.029039487242698669 -0.057406634092330933 0.085359871387481689 0.229315638542175293 0.149722322821617126 0.069458395242691040 0.172015979886054993 -0.029865153133869171 0.068597503006458282 -0.071073047816753387 0.147176787257194519 0.113986089825630188 0.088589265942573547 0.131229117512702942 -0.109575010836124420 0.028694624081254005 -0.019782826304435730 -0.008748585358262062 0.183392852544784546 -0.197179391980171204 -0.156900599598884583 -0.060433741658926010 -0.063459031283855438 -0.031523838639259338 -0.106519788503646851 -0.124902762472629547 0.112057469785213470 0.051184143871068954 0.200512707233428955 0.081371232867240906 0.158188253641128540 -0.053311109542846680 -0.114617757499217987 0.059354677796363831 0.132457613945007324 -0.126693651080131531 0.022783432155847549 -0.219186633825302124 0.056377392262220383 0.046046912670135498 0.016459608450531960 0.148611471056938171 0.016030473634600639 0.118792690336704254 -0.049785703420639038 0.089293159544467926 -0.126050457358360291 0.217847883701324463 -0.022871606051921844 -0.136331513524055481 -0.168647453188896179 0.075349844992160797 0.108424670994281769 0.043840263038873672 0.127733856439590454 -0.007097060792148113 0.196233958005905151 -0.148130342364311218 -0.171791926026344299 0.001801781356334686 0.225543752312660217 -0.113255031406879425 -0.135327458381652832 -0.153683215379714966 0.200568273663520813 0.185143351554870605 -0.093045048415660858 -0.024321554228663445 -0.037443984299898148 -0.089576661586761475 0.016897378489375114 0.092080123722553253 -0.011030399240553379 0.066435277462005615 -0.049042824655771255 0.119953647255897522 0.121174879372119904 -0.209137484431266785 0.106788903474807739 -0.196474298834800720 0.079170368611812592
