#Layer 1 Biases:
0.061692796647548676 -0.044614274054765701 0.037470247596502304 -0.016065208241343498 -0.041076540946960449 -0.121416620910167694 -0.051884625107049942 0.018914278596639633 -0.018159491941332817 -0.138059884309768677 -0.035766329616308212 -0.042562540620565414 -0.100450843572616577 0.087831906974315643 0.040843077003955841 0.052324596792459488 0.064635515213012695 -0.004411914851516485 0.124102264642715454 0.101054400205612183 -0.025533264502882957 0.022564306855201721 0.082935348153114319 0.009887208230793476 -0.031478639692068100 0.037747684866189957 -0.002733660861849785 -0.004573852289468050 0.104226313531398773 -0.072404034435749054 0.108829624950885773 -0.092510029673576355 0.073655471205711365 -0.044479325413703918 0.041882257908582687 0.029041023924946785 -0.079915396869182587 -0.081079579889774323 -0.063029512763023376 -0.032328929752111435 0.059286449104547501 0.003774300217628479 -0.043665859848260880 -0.103862285614013672 -0.169089034199714661 0.016496596857905388 0.104754924774169922 -0.012512281537055969 -0.036566395312547684 -0.113246791064739227 -0.026281125843524933 -0.071421161293983459 -0.077418856322765350 0.041475508362054825 -0.093786016106605530 -0.063051305711269379 -0.137076586484909058 0.001344131655059755 -0.086832314729690552 0.064391329884529114 -0.038095671683549881 0.082617327570915222 -0.054866645485162735 -0.123505339026451111 -0.124428264796733856 0.033201530575752258 -0.052159216254949570 0.044811118394136429 0.126224488019943237 0.093151345849037170 0.099651120603084564 0.086248479783535004 -0.009128483012318611 0.087899424135684967 -0.048451695591211319 0.016774160787463188 -0.067185424268245697 0.001408366370014846 0.008490332402288914 -0.044704727828502655 0.017435522750020027 0.072659596800804138 0.010665553621947765 -0.013410766609013081 -0.008279974572360516 -0.019773794338107109 -0.038163091987371445 0.057153314352035522 0.020323080942034721 0.096415467560291290 -0.035298481583595276 0.078375399112701416 -0.079107314348220825 0.001688509830273688 -0.010192386806011200 -0.014594804495573044 0.055947139859199524 -0.036852117627859116 -0.080492950975894928 -0.004574786871671677
