#Layer 7 Biases:
-0.017925191670656204 0.022949345409870148 0.001124034170061350 -0.012381397187709808 0.021740838885307312 -0.004222194198518991 -0.000667897169478238 0.007559104356914759 0.024571185931563377 0.011457312852144241 0.020013948902487755 0.038733482360839844 0.028177926316857338 -0.021548738703131676 0.017168823629617691 -0.001197026809677482 -0.021663388237357140 -0.009883421473205090 0.020407225936651230 -0.008083063177764416 0.007443697191774845 0.000780808390118182 -0.002398306271061301 -0.007724216207861900 -0.020801816135644913 0.016189286485314369 -0.001584595767781138 -0.003989224322140217 0.006308557000011206 -0.017675425857305527 -0.004429123830050230 -0.003852226771414280 0.010195399634540081 0.005864161998033524 -0.023699440062046051 0.016622174531221390 -0.005922120064496994 -0.005401977803558111 -0.006841819733381271 0.023609252646565437 0.007393327075988054 0.017389379441738129 -0.035060696303844452 0.007841883227229118 -0.024839581921696663 -0.015506218187510967 -0.001802086015231907 -0.009306955151259899 -0.008235452696681023 0.003177798353135586 0.028129048645496368 0.008715878240764141 0.008348522707819939 -0.006067500449717045 0.017850955948233604 -0.029912786558270454 0.012540118768811226 -0.004679644946008921 -0.039495609700679779 0.003393043298274279 -0.013539083302021027 0.000027820082323160 -0.041244365274906158 -0.031177714467048645 -0.012244884856045246 -0.002941863611340523 -0.014445379376411438 -0.015729747712612152 0.026359016075730324 -0.003966333344578743 -0.007393444888293743 0.032317370176315308 0.031297463923692703 0.005280816927552223 0.017980234697461128 -0.015636693686246872 -0.002511491300538182 0.008440186269581318 0.014281816780567169 -0.005924446042627096 0.011616752482950687 -0.008800249546766281 0.021212931722402573 -0.004100791644304991 -0.020713737234473228 -0.000677732808981091 -0.003802991705015302 -0.007570244837552309 0.016509061679244041 -0.006689229980111122 -0.004309833049774170 0.014753015711903572 -0.025262070819735527 0.017423683777451515 0.015534529462456703 -0.021361820399761200 0.023504721000790596 -0.006300380453467369 0.022551005706191063 0.003120522014796734
