#Layer 0 Weights:
-0.307903021574020386 0.101756371557712555 0.246826827526092529 -0.146119579672813416 -0.069002032279968262 -0.188964411616325378 -0.019523316994309425 0.149983823299407959 0.101055495440959930 0.001155677484348416 0.176006987690925598 -0.035290125757455826 0.123577289283275604 -0.107837542891502380 0.095692090690135956 0.230852931737899780 -0.226978674530982971 -0.303528368473052979 0.113566435873508453 -0.186990439891815186 0.239460751414299011 -0.213673517107963562 -0.020269842818379402 -0.065685324370861053 -0.143702343106269836 -0.080746516585350037 0.072551228106021881 -0.102342732250690460 0.293047249317169189 -0.057443019002676010 -0.136000588536262512 -0.123908601701259613 -0.221537590026855469 0.000073241724749096 0.042839329689741135 0.190432712435722351 0.082355611026287079 0.062006346881389618 0.027193218469619751 0.214450761675834656 0.135298922657966614 0.182960912585258484 -0.186101689934730530 0.151853531599044800 0.283049345016479492 -0.103961437940597534 -0.146011590957641602 -0.071942500770092010 -0.111037060618400574 0.158459976315498352 0.160808995366096497 0.268398016691207886 0.129635170102119446 0.110912963747978210 0.098200052976608276 -0.126790896058082581 0.021986274048686028 -0.208774015307426453 -0.075045771896839142 0.124760679900646210 -0.094939559698104858 0.181725040078163147 -0.180991560220718384 -0.113125860691070557 -0.339590728282928467 0.269577473402023315 -0.024144278839230537 0.051373261958360672 0.147834166884422302 -0.016023738309741020 -0.101981185376644135 -0.074925735592842102 0.158873170614242554 -0.083446219563484192 0.185899138450622559 -0.066990293562412262 0.147003501653671265 0.083679974079132080 0.174318552017211914 -0.299143910408020020 0.191435247659683228 -0.101718567311763763 0.191372886300086975 0.094725929200649261 0.007595536764711142 0.184178858995437622 -0.223292127251625061 0.156532973051071167 0.187409356236457825 -0.085771337151527405 -0.305289983749389648 0.179348915815353394 -0.071849435567855835 0.295686125755310059 -0.162350520491600037 0.061448086053133011 0.036654647439718246 0.041157521307468414 0.096469230949878693 -0.144750446081161499
0.293856143951416016 0.072065398097038269 -0.073985531926155090 0.111054696142673492 0.067656055092811584 0.259690254926681519 -0.041928455233573914 -0.160578966140747070 0.101717680692672729 0.145225182175636292 -0.171059906482696533 0.020035948604345322 0.129043355584144592 -0.097546815872192383 0.057431757450103760 -0.170300900936126709 0.237004116177558899 0.299430340528488159 0.066230021417140961 0.192303061485290527 -0.168480157852172852 0.093493372201919556 -0.151020392775535583 -0.084432117640972137 0.052701868116855621 -0.075956411659717560 -0.047974769026041031 0.039244797080755234 -0.200187027454376221 -0.072678238153457642 -0.012550820596516132 0.023866148665547371 0.077957749366760254 0.033413141965866089 -0.086706705391407013 -0.137903004884719849 -0.157586917281150818 -0.106469310820102692 0.143959730863571167 -0.005554431583732367 -0.063772082328796387 -0.138966158032417297 0.272671133279800415 0.014230890199542046 -0.129842519760131836 -0.014586075209081173 0.080050222575664520 -0.106984667479991913 0.033263105899095535 -0.258136898279190063 -0.157995447516441345 -0.152585089206695557 -0.157755389809608459 -0.262530446052551270 0.119867078959941864 0.150692865252494812 0.090486355125904083 0.141611218452453613 0.020960949361324310 -0.139220684766769409 0.000197826666408218 -0.076914690434932709 -0.026800055056810379 -0.126223966479301453 0.261653274297714233 -0.125733450055122375 -0.139620974659919739 -0.198043495416641235 0.082276940345764160 0.138345196843147278 0.047969695180654526 0.074176356196403503 -0.197603791952133179 -0.102930553257465363 -0.204779595136642456 -0.135225832462310791 0.110678113996982574 0.053101837635040283 -0.147562339901924133 -0.014659809879958630 -0.099963024258613586 0.225652322173118591 0.052379809319972992 -0.167418971657752991 -0.172721192240715027 -0.129996001720428467 0.138836979866027832 -0.172054216265678406 -0.089791983366012573 0.106094062328338623 0.283017367124557495 -0.171446353197097778 0.006419858895242214 -0.273933231830596924 0.046099118888378143 -0.101000629365444183 0.161127641797065735 -0.094231776893138885 0.028057826682925224 0.029066998511552811
