#Layer 8 Weights:
-0.196825608611106873
0.149151906371116638
0.185807883739471436
0.007645305246114731
0.037541836500167847
-0.051106393337249756
-0.017996856942772865
0.054574761539697647
0.137401849031448364
0.024023983627557755
0.092892140150070190
0.028049131855368614
0.224869996309280396
-0.113201975822448730
0.065904885530471802
0.200429797172546387
-0.138140350580215454
-0.110528215765953064
0.225623086094856262
-0.152261018753051758
0.135806962847709656
-0.203840106725692749
-0.139858290553092957
-0.113431721925735474
-0.049929548054933548
-0.195370092988014221
-0.010502770543098450
-0.166994735598564148
0.216976284980773926
-0.049658868461847305
-0.153890267014503479
-0.031281489878892899
-0.171741530299186707
0.066646464169025421
0.227968662977218628
0.085307776927947998
0.146404325962066650
-0.009840392507612705
0.108301170170307159
0.133395016193389893
0.080358617007732391
0.077616542577743530
-0.028883941471576691
0.057744536548852921
0.165062427520751953
-0.027983646839857101
-0.019592272117733955
-0.143039494752883911
-0.079616516828536987
0.070798978209495544
0.069080986082553864
0.131515786051750183
0.046575870364904404
0.003069101599976420
0.121499538421630859
-0.022856827825307846
0.083365567028522491
-0.132182806730270386
-0.067437872290611267
0.003835805691778660
-0.178007781505584717
0.163804277777671814
-0.200064226984977722
-0.103612728416919708
-0.189136609435081482
0.211766451597213745
-0.118908114731311798
0.000170733139384538
0.181512773036956787
-0.002576102502644062
-0.045434702187776566
0.021835725754499435
0.062796629965305328
-0.149354919791221619
0.076393887400627136
-0.142207995057106018
0.168570935726165771
0.113666243851184845
0.035002976655960083
-0.176551014184951782
0.149473860859870911
0.026991087943315506
0.183522060513496399
-0.003860576776787639
-0.068171687424182892
0.049329519271850586
-0.224668458104133606
0.283289432525634766
0.082970499992370605
-0.062315531075000763
-0.208207041025161743
0.040798202157020569
-0.018351120874285698
0.118673175573348999
-0.129990860819816589
0.007714755833148956
0.136738970875740051
-0.028315313160419464
0.162750527262687683
-0.077643662691116333
