#Layer 4 Biases:
0.006898771040141582 -0.037776093930006027 -0.000227660188102163 0.032654650509357452 0.001325377728790045 -0.003637116402387619 -0.001703346613794565 -0.011836807243525982 -0.004084138665348291 -0.000072773378633428 -0.002005984773859382 0.014382433146238327 -0.026298327371478081 -0.011602377519011497 0.013456002809107304 -0.000986183760687709 0.000823010981548578 -0.001129283453337848 -0.032782454043626785 -0.007913405075669289 -0.023821357637643814 -0.021783778443932533 0.011570817790925503 0.003013174980878830 0.050225760787725449 -0.015087338164448738 0.009280054830014706 0.003140851855278015 0.006202052347362041 -0.047317102551460266 -0.005449270363897085 -0.000016418583982158 -0.020869636908173561 0.010195397771894932 0.018031869083642960 -0.010402048006653786 -0.023899137973785400 -0.009501167573034763 -0.004733376204967499 0.006133329123258591 0.012547151185572147 0.017151435837149620 0.003656643209978938 0.000862345972564071 -0.001446970272809267 -0.006431288085877895 0.049122266471385956 -0.013980098068714142 -0.000950053625274450 0.009303065948188305 -0.012664894573390484 -0.002624688437208533 -0.031491372734308243 -0.000605321663897485 -0.008039988577365875 0.002563855377957225 -0.024541944265365601 -0.028722278773784637 0.003533343086019158 -0.035774953663349152 0.022099740803241730 0.011720044538378716 -0.032153006643056870 0.006487705279141665 0.002642102073878050 -0.014593373052775860 0.007171375211328268 0.033045094460248947 0.004217359703034163 0.001999252242967486 -0.000697496870998293 0.000210361482459120 -0.014903724193572998 -0.015951141715049744 0.080045796930789948 0.010752074420452118 -0.009537816047668457 -0.013361330144107342 0.009404141455888748 0.018613163381814957 0.017536282539367676 0.003494743257761002 0.006464380770921707 -0.029439045116305351 -0.010679444298148155 0.036762006580829620 -0.002336157253012061 0.021729120984673500 0.033388830721378326 0.000941239995881915 0.005488929804414511 -0.001783441985026002 0.002042128005996346 -0.016537332907319069 0.021813400089740753 0.018444040790200233 -0.007239868864417076 0.069871261715888977 -0.011558323167264462 0.018114503473043442
