#Layer 3 Biases:
-0.037222824990749359 -0.006398968398571014 0.031042428687214851 -0.035105936229228973 0.029725693166255951 -0.078123845160007477 0.070448413491249084 -0.025629132986068726 -0.038567092269659042 -0.025220373645424843 0.055285658687353134 0.038599625229835510 -0.006444251630455256 0.040377270430326462 0.046146996319293976 -0.023296501487493515 -0.044883240014314651 0.050263490527868271 -0.077716924250125885 0.028237763792276382 0.002628274494782090 -0.046765245497226715 -0.014658121392130852 0.003481583902612329 0.062604308128356934 0.006390947848558426 0.010071296244859695 0.002139045624062419 0.013777608051896095 -0.013992300257086754 0.014538199640810490 -0.006975059397518635 -0.016631396487355232 -0.002202648203819990 -0.005643952172249556 -0.027538368478417397 0.035257920622825623 -0.036499515175819397 0.031050525605678558 0.013785174116492271 0.003841857658699155 -0.010983337648212910 -0.029898546636104584 0.003900865558534861 -0.016542119905352592 0.049154683947563171 -0.039057414978742599 0.012037234380841255 -0.069198176264762878 0.047811158001422882 -0.034777078777551651 0.007942120544612408 -0.011454449966549873 0.012786152772605419 -0.027459187433123589 -0.001275756978429854 0.066976509988307953 0.027466071769595146 -0.011229395866394043 -0.042594980448484421 0.021129166707396507 -0.007637167349457741 0.005297782365232706 -0.012629899196326733 -0.049056749790906906 -0.000682250072713941 -0.019757730886340141 0.012557510286569595 -0.031773019582033157 0.050123121589422226 0.064913056790828705 -0.019611051306128502 -0.017286466434597969 -0.022777086123824120 -0.009942444041371346 0.016745695844292641 0.005402689799666405 -0.023501532152295113 -0.030961165204644203 -0.025204505771398544 0.023785367608070374 -0.014019230380654335 0.036897897720336914 -0.025285461917519569 0.036252148449420929 -0.018613409250974655 0.065032191574573517 -0.002998102689161897 -0.019515657797455788 -0.039630826562643051 0.067204214632511139 0.032423127442598343 0.057028401643037796 0.028435429558157921 0.023535154759883881 0.012650489807128906 -0.051428727805614471 0.041871085762977600 0.050344131886959076 0.019809421151876450
