#Layer 6 Biases:
0.014983783476054668 -0.012452863156795502 0.002231026533991098 0.019934909418225288 -0.020582662895321846 0.013141334988176823 -0.012681016698479652 0.000745089258998632 -0.004840546753257513 -0.000202692594029941 -0.008501240983605385 0.028304638341069221 0.009875597432255745 0.002437658375129104 -0.017771974205970764 -0.003489916911348701 -0.006336033344268799 -0.017884477972984314 0.003985174465924501 -0.020369075238704681 -0.025310207158327103 -0.003222382394596934 -0.008299501612782478 0.001727011520415545 -0.002469393424689770 -0.061998173594474792 -0.007985479198396206 0.010487845167517662 -0.012130874209105968 0.014410650357604027 0.000108290318166837 -0.014207117259502411 -0.038198649883270264 0.000273035169811919 0.054777238517999649 0.008621525019407272 -0.011835610494017601 0.014760407619178295 0.000068359717261046 -0.010176680982112885 -0.012928722426295280 0.007632258348166943 0.014713935554027557 0.010046915151178837 0.009244694374501705 -0.000444126868387684 -0.006686097476631403 0.003161608241498470 0.002880977932363749 -0.011547703295946121 0.009846430271863937 -0.017582878470420837 -0.011424758471548557 -0.007622948847711086 0.001963004935532808 0.005469037219882011 0.006064980756491423 -0.012990485876798630 -0.000676867319270968 0.016391370445489883 0.186649531126022339 0.015234409831464291 -0.000203149436856620 -0.001038978109136224 -0.006436594761908054 0.004562147427350283 0.009780339896678925 -0.023545358330011368 0.015037199482321739 -0.004435531329363585 0.009340530261397362 0.006195142399519682 -0.013266951777040958 -0.016675818711519241 0.121806830167770386 0.000012521761163953 0.005477615166455507 -0.009514231234788895 0.014077180996537209 0.020761772990226746 -0.021782029420137405 -0.084588728845119476 0.004572685807943344 0.028137797489762306 -0.030740004032850266 0.025233712047338486 0.014776698313653469 -0.001919116009958088 0.055987216532230377 0.005384499207139015 -0.011557962745428085 -0.013030546717345715 -0.026973249390721321 0.020605577155947685 -0.019587460905313492 0.003445365466177464 -0.005106298252940178 0.037888552993535995 -0.031788840889930725 0.022522753104567528
