#Layer 5 Biases:
0.012676146812736988 -0.003895836882293224 0.012283246032893658 -0.030138758942484856 -0.011309796012938023 -0.014869010075926781 -0.009829950518906116 0.015274013392627239 -0.004864529240876436 0.006651690229773521 0.006390966940671206 -0.003525052918121219 0.004907066468149424 0.010325165465474129 -0.002778711961582303 -0.036230120807886124 -0.003496665973216295 0.035610210150480270 -0.011757137253880501 0.011347400024533272 -0.012326967902481556 -0.020965596660971642 -0.047958303242921829 -0.011711117811501026 -0.003090318059548736 -0.001392750302329659 0.004578672815114260 -0.010531562380492687 0.057954940944910049 -0.011060432530939579 0.031794663518667221 -0.001152236596681178 -0.002233136678114533 -0.031471982598304749 0.022643256932497025 -0.002000735141336918 -0.015055617317557335 -0.003850546665489674 -0.008306938223540783 0.091126948595046997 0.013140510767698288 0.027042042464017868 -0.004338703118264675 -0.010363249108195305 -0.006381030194461346 -0.016874801367521286 -0.010992927476763725 0.005709493067115545 -0.003812461625784636 -0.004158792085945606 -0.032494269311428070 0.005311931483447552 0.001937297754921019 -0.013283913955092430 0.036756262183189392 -0.022597417235374451 0.030157636851072311 0.024797489866614342 0.020238611847162247 -0.010057929903268814 -0.012509572319686413 0.001012802706100047 0.021725360304117203 0.001680930145084858 -0.019912127405405045 -0.008494700305163860 -0.007224227301776409 -0.033087480813264847 -0.011367269791662693 0.032667897641658783 0.008177004754543304 0.001734067685902119 -0.013496795669198036 -0.007596778683364391 0.007742346730083227 -0.019976787269115448 0.000528558623045683 -0.011122909374535084 0.000812603393569589 -0.017641823738813400 0.025142146274447441 -0.015868196263909340 -0.048019692301750183 -0.012525076977908611 -0.006225741934031248 0.002915749559178948 0.010106891393661499 0.030565213412046432 -0.006688433233648539 -0.018983054906129837 0.010126010514795780 -0.007444466464221478 0.014471910893917084 0.043313179165124893 -0.009040805511176586 0.020418187603354454 0.012470894493162632 -0.011943295598030090 -0.017407730221748352 0.010496635921299458
