#Layer 7 Biases:
0.000422952463850379 0.007797616533935070 -0.018669581040740013 -0.010489264503121376 -0.013577218167483807 -0.005753963720053434 -0.013962365686893463 0.001249032793566585 0.004632053896784782 0.004607274662703276 0.000696427072398365 0.004669767804443836 -0.010787418112158775 0.002217555884271860 -0.001103493385016918 -0.008954652585089207 -0.013823674060404301 0.003607795108109713 0.002026552800089121 -0.005014389753341675 0.011136382818222046 0.000664437888190150 -0.007369558792561293 -0.010128882713615894 -0.007931687869131565 -0.000750966486521065 -0.015426572412252426 0.006079531274735928 0.020214430987834930 -0.004223909229040146 0.010986708104610443 -0.010279467329382896 -0.001196046243421733 -0.028546702116727829 0.007063200697302818 0.006490015424787998 -0.014943909831345081 0.007965971715748310 0.012506587430834770 -0.002749222563579679 0.013557061553001404 -0.011477399617433548 -0.018451953306794167 0.015938740223646164 0.012650272808969021 0.006614003330469131 -0.000991650507785380 0.022733252495527267 -0.007313136942684650 -0.010042258538305759 0.001762085128575563 0.022308960556983948 -0.002862703753635287 0.000730785832274705 0.000517644977662712 -0.006788535509258509 -0.004838152788579464 -0.000293039629468694 -0.012377439998090267 -0.006611356046050787 -0.007253145333379507 0.000546351540833712 0.005974150728434324 0.004891306161880493 -0.000696034578140825 0.011514602228999138 -0.010384569875895977 -0.008205591700971127 0.003524089697748423 0.001886543701402843 -0.004686825908720493 -0.012416804209351540 0.009998566471040249 0.018132090568542480 -0.014514802023768425 0.019386133179068565 0.002109758323058486 -0.007793560158461332 -0.022408813238143921 -0.008332813158631325 0.008911623619496822 0.006541554350405931 0.002927368506789207 0.000766532670240849 0.015733176842331886 0.020127769559621811 -0.012046343646943569 -0.002995851216837764 -0.010330778546631336 0.010350537486374378 -0.001294159679673612 0.008404725231230259 0.004411870613694191 0.009838086552917957 0.011458784341812134 -0.002531192731112242 -0.017042383551597595 0.011073960922658443 -0.033892169594764709 -0.010925507172942162
