#Layer 2 Biases:
-0.043738935142755508 -0.026696920394897461 -0.032615095376968384 0.055895585566759109 0.041984155774116516 0.050575025379657745 0.031949911266565323 -0.080108165740966797 0.054057098925113678 -0.040796887129545212 -0.033929206430912018 -0.091615773737430573 -0.067133098840713501 0.068510808050632477 -0.021328601986169815 -0.005201772321015596 0.013713985681533813 -0.045384012162685394 -0.009780722670257092 0.041880276054143906 -0.027772929519414902 -0.040352012962102890 0.041146680712699890 -0.053623575717210770 0.012461208738386631 -0.026728646829724312 -0.026107354089617729 0.048192378133535385 -0.060464873909950256 -0.060867842286825180 -0.045218136161565781 -0.060794059187173843 0.031555917114019394 0.025673868134617805 -0.081038028001785278 0.044767651706933975 -0.047821085900068283 0.067431159317493439 0.057277429848909378 -0.050607193261384964 -0.016213716939091682 -0.011970251798629761 -0.055940449237823486 0.067093119025230408 -0.016993325203657150 -0.050538711249828339 0.009411836043000221 -0.061130847781896591 -0.017857173457741737 0.007932763546705246 0.029667049646377563 0.027341209352016449 0.035007890313863754 -0.005196484737098217 0.029314864426851273 -0.021505409851670265 -0.013550862669944763 -0.028004765510559082 0.018907973542809486 0.031194660812616348 0.098398767411708832 -0.054077655076980591 -0.082014106214046478 0.103352151811122894 -0.051118247210979462 0.014116325415670872 -0.021917104721069336 0.006437118630856276 -0.016361722722649574 -0.027459336444735527 0.020524153485894203 0.012380478903651237 -0.029556762427091599 -0.034123372286558151 0.032547898590564728 0.044154115021228790 -0.013234743848443031 -0.037260729819536209 0.043415494263172150 0.082811191678047180 -0.021956950426101685 0.052434325218200684 0.014775905758142471 0.003571170149371028 -0.011250745505094528 0.001753760501742363 0.026373820379376411 -0.038054708391427994 0.000991349457763135 -0.058710478246212006 0.032486669719219208 -0.110038548707962036 -0.082169368863105774 -0.052121020853519440 0.068290822207927704 0.050009202212095261 0.063781261444091797 0.060741774737834930 -0.019061131402850151 0.051357124000787735
