#Layer 0 Biases:
-0.035580601543188095 0.013838576152920723 -0.077505327761173248 -0.058066479861736298 0.027809459716081619 -0.037827204912900925 -0.082754716277122498 -0.060471642762422562 0.039307333528995514 -0.048269141465425491 0.032630592584609985 -0.039619214832782745 -0.045040916651487350 0.032329905778169632 0.054093841463327408 0.075750850141048431 -0.056345980614423752 -0.062843121588230133 -0.044247146695852280 0.030876865610480309 -0.069750040769577026 -0.062746129930019379 -0.005633421707898378 -0.059384141117334366 -0.015324286185204983 0.050982825458049774 -0.076577387750148773 -0.032325234264135361 -0.076229155063629150 0.039894599467515945 -0.051244162023067474 -0.063593968749046326 0.057186443358659744 -0.007154498714953661 0.023875918239355087 0.000980780343525112 0.085599817335605621 -0.025240402668714523 -0.084213256835937500 0.058350890874862671 0.029056981205940247 0.076140247285366058 -0.058794721961021423 0.068668819963932037 0.090994052588939667 -0.080243133008480072 0.023548560217022896 0.020097041502594948 0.051928248256444931 -0.022820610553026199 -0.099493496119976044 0.045691918581724167 0.074196256697177887 -0.005262008402496576 -0.053723078221082687 -0.082244515419006348 -0.008008374832570553 -0.006559981498867273 0.056883804500102997 -0.031148081645369530 0.070134736597537994 0.003480771556496620 -0.063246399164199829 0.050742805004119873 0.065008029341697693 -0.052984640002250671 0.043880764394998550 0.069674365222454071 0.044851336628198624 0.043419290333986282 0.045012868940830231 -0.039427544921636581 0.065478451550006866 -0.019557211548089981 0.020101433619856834 -0.032850813120603561 0.114042244851589203 0.029524423182010651 -0.032757945358753204 0.024019904434680939 -0.006559730507433414 0.015623577870428562 0.026670075953006744 0.060424041002988815 0.066853880882263184 0.065087296068668365 0.073248974978923798 -0.071496568620204926 -0.050010513514280319 -0.009194006212055683 -0.044819712638854980 -0.094147115945816040 0.039805024862289429 -0.065367482602596283 -0.100135199725627899 0.115633763372898102 0.092322222888469696 0.034571964293718338 -0.089004799723625183 0.054330982267856598
