#Layer 0 Weights:
0.173412755131721497 0.049548432230949402 -0.188534229993820190 0.118133895099163055 -0.233652323484420776 0.113445319235324860 0.035107839852571487 0.203350305557250977 0.030861437320709229 0.130130693316459656 0.022604629397392273 -0.009858214296400547 0.108378626406192780 0.179669931530952454 -0.099591158330440521 -0.263008683919906616 -0.218124046921730042 0.236051782965660095 0.053936779499053955 -0.107913337647914886 0.235109850764274597 -0.139743939042091370 0.074160166084766388 0.130737707018852234 -0.179694443941116333 -0.094799160957336426 0.195309534668922424 0.008660238236188889 0.184737578034400940 0.003228097455576062 0.236988484859466553 0.236924454569816589 -0.113505080342292786 0.038716580718755722 -0.027689946815371513 -0.003824372543022037 -0.221798762679100037 0.256294757127761841 0.278275281190872192 -0.157285884022712708 -0.205511957406997681 -0.130998656153678894 0.161450788378715515 -0.208141401410102844 -0.245931982994079590 0.029267888516187668 -0.112488113343715668 -0.264785170555114746 0.063622295856475830 0.108901135623455048 0.176804751157760620 -0.240321591496467590 -0.181828275322914124 0.005996455438435078 0.169278472661972046 0.271710723638534546 -0.009041287936270237 -0.164989516139030457 -0.279190361499786377 0.054314360022544861 -0.258970588445663452 0.066719099879264832 0.235713616013526917 -0.142836332321166992 -0.273050010204315186 0.280835628509521484 0.057358749210834503 -0.235940754413604736 -0.132607489824295044 -0.169643566012382507 -0.105764307081699371 0.100803151726722717 -0.222594499588012695 -0.150694176554679871 0.068366117775440216 -0.122445791959762573 -0.214641511440277100 0.239975750446319580 0.231736734509468079 -0.247552067041397095 0.008815883658826351 -0.101446166634559631 -0.237232536077499390 -0.271230876445770264 -0.257984340190887451 -0.073430925607681274 -0.145422354340553284 0.069703400135040283 0.180656030774116516 0.099612280726432800 0.099089212715625763 0.271141022443771362 -0.117732815444469452 0.226885974407196045 0.127361163496971130 -0.135588169097900391 -0.269714593887329102 0.012619534507393837 0.195956319570541382 -0.210797145962715149
-0.043332900851964951 -0.010806737467646599 -0.026695298030972481 0.202232524752616882 -0.187720105051994324 0.245081722736358643 0.155348077416419983 -0.205334395170211792 0.072043113410472870 -0.118009641766548157 -0.125702008605003357 -0.072761125862598419 0.049274478107690811 -0.070654988288879395 0.006001673638820648 0.229979366064071655 -0.041853345930576324 -0.135909765958786011 -0.029024247080087662 -0.212508216500282288 -0.106429107487201691 0.221820697188377380 0.222539126873016357 0.031506907194852829 0.157360792160034180 0.197976455092430115 -0.175709635019302368 0.139345228672027588 0.038743294775485992 -0.134232774376869202 -0.153017073869705200 0.220339134335517883 0.191906481981277466 0.151534572243690491 0.147527262568473816 -0.000358839315595105 0.038334496319293976 -0.087457001209259033 0.177694082260131836 -0.062716439366340637 -0.070227384567260742 -0.174666509032249451 -0.070521354675292969 -0.087222494184970856 0.025301108136773109 0.127707406878471375 -0.078597657382488251 -0.165265142917633057 0.176223784685134888 0.105485595762729645 0.132329419255256653 0.104294568300247192 -0.208371758460998535 0.000021865553208045 0.098863117396831512 -0.200628623366355896 0.075411528348922729 -0.168412312865257263 0.052348986268043518 -0.172551304101943970 0.068071573972702026 -0.163963422179222107 -0.159964457154273987 0.085816845297813416 0.104190856218338013 -0.126160144805908203 0.118305258452892303 -0.223417714238166809 0.101149745285511017 -0.214195191860198975 0.025076130405068398 0.228131592273712158 -0.126102373003959656 -0.026186123490333557 -0.159735336899757385 -0.025360073894262314 -0.194165989756584167 0.032540038228034973 -0.156382590532302856 0.202176079154014587 -0.124909386038780212 -0.096320949494838715 0.204308807849884033 0.190435528755187988 0.007441877853125334 -0.099398851394653320 0.002197367837652564 0.094330482184886932 0.082795254886150360 -0.041847709566354752 0.105522714555263519 0.173862099647521973 -0.226574644446372986 -0.093300402164459229 -0.089323945343494415 0.238632798194885254 0.065661191940307617 0.145603135228157043 -0.154178515076637268 0.065823055803775787
