#Layer 8 Weights:
0.058301307260990143
0.067045159637928009
-0.208903104066848755
0.077489547431468964
-0.192059069871902466
0.051268134266138077
-0.002170888241380453
0.046715725213289261
0.021737653762102127
0.083784714341163635
0.016037428751587868
-0.000640376587398350
0.058413822203874588
0.098885573446750641
-0.030254835262894630
-0.246562838554382324
-0.220170840620994568
0.157679289579391479
-0.003749769413843751
-0.044681902974843979
0.174631923437118530
-0.108451746404170990
0.027142914012074471
0.073437899351119995
-0.119853623211383820
-0.049792006611824036
0.128822073340415955
-0.047410394996404648
0.161117985844612122
0.000748498656321317
0.177355378866195679
0.194846272468566895
-0.051290091127157211
-0.002764335600659251
0.006534421816468239
-0.066119857132434845
-0.140613347291946411
0.200366213917732239
0.194442391395568848
-0.127671852707862854
-0.150090321898460388
-0.128737419843673706
0.119345977902412415
-0.151365384459495544
-0.178574532270431519
-0.015352234244346619
-0.017622467130422592
-0.227580472826957703
0.100043289363384247
0.084748461842536926
0.051251549273729324
-0.164500489830970764
-0.126772761344909668
0.070582456886768341
0.094635903835296631
0.207279175519943237
0.000023031283490127
-0.062961414456367493
-0.200538799166679382
0.007533168885856867
-0.180381521582603455
0.003924493212252855
0.140958011150360107
-0.060075357556343079
-0.191422283649444580
0.253392726182937622
0.044946949928998947
-0.188934817910194397
-0.017769545316696167
-0.091423258185386658
-0.048003103584051132
0.032464805990457535
-0.185761839151382446
-0.206599161028862000
0.119650110602378845
-0.201924562454223633
-0.129108846187591553
0.211251854896545410
0.166269481182098389
-0.154934734106063843
-0.020870817825198174
0.005489427596330643
-0.205388799309730530
-0.144146680831909180
-0.185466215014457703
0.001579131581820548
-0.068964645266532898
-0.001391127356328070
0.152262285351753235
0.077091820538043976
0.027843559160828590
0.228516340255737305
-0.064773663878440857
0.175182893872261047
0.038437604904174805
-0.052635215222835541
-0.207567423582077026
0.068758547306060791
0.220498025417327881
-0.119896367192268372
