#Layer 4 Biases:
0.024467756971716881 -0.014234994538128376 -0.019122891128063202 0.029742807149887085 -0.033602848649024963 0.033681478351354599 0.001202321145683527 0.015043937601149082 -0.044659294188022614 0.004494703840464354 -0.011752742342650890 -0.053492039442062378 -0.025809528306126595 0.070779196918010712 -0.019133770838379860 -0.002952484413981438 0.006969999056309462 -0.031022939831018448 -0.015579659491777420 0.031894110143184662 -0.002536559943109751 0.023136816918849945 -0.050579391419887543 0.001428579096682370 -0.010047002695500851 -0.068556800484657288 0.006425772793591022 -0.012135737575590611 -0.002684270730242133 0.038311950862407684 -0.003414085367694497 -0.004619012586772442 0.088334344327449799 -0.012947557494044304 0.005968781653791666 -0.031765289604663849 -0.003557864110916853 -0.057990141212940216 -0.049021087586879730 0.000918644480407238 0.058758348226547241 0.006589239928871393 0.038936767727136612 -0.000377404678147286 -0.002040250226855278 0.084078066051006317 0.037305194884538651 -0.025767734274268150 -0.003547261469066143 -0.002188745886087418 -0.018505806103348732 -0.031600281596183777 -0.000866976333782077 0.010611694306135178 0.006136951036751270 0.003015720751136541 -0.006407778244465590 -0.003937731962651014 -0.014518053270876408 0.009593687020242214 0.059206977486610413 -0.012739491648972034 0.015771185979247093 -0.018897540867328644 0.014161806553602219 0.028187071904540062 -0.008871415629982948 0.075023502111434937 0.013040507212281227 -0.004436880350112915 0.011521307751536369 -0.003555752569809556 0.005513451993465424 0.002173409098759294 -0.003613852430135012 -0.003746379865333438 0.002507709665223956 0.005097857676446438 0.007537637837231159 -0.019132886081933975 0.037257693707942963 0.013674650341272354 -0.001730347401462495 -0.061313603073358536 0.027799252420663834 -0.012172399088740349 0.044888611882925034 0.079103112220764160 -0.023388694971799850 -0.013511857949197292 -0.017520878463983536 0.018568702042102814 0.017593594267964363 -0.016709446907043457 0.004558557644486427 0.001122325775213540 0.013248277828097343 -0.021479578688740730 -0.008603673428297043 0.028667626902461052
