#Layer 1 Biases:
-0.066328682005405426 -0.031855396926403046 0.071374990046024323 -0.045381292700767517 -0.033025912940502167 0.027883170172572136 -0.062004853039979935 -0.020241606980562210 -0.028403103351593018 0.051280520856380463 0.013447995297610760 -0.045304428786039352 -0.055508464574813843 0.086175531148910522 0.075892850756645203 -0.005032684188336134 0.095098912715911865 -0.015493195503950119 0.038266040384769440 -0.045293185859918594 -0.105586871504783630 0.042040009051561356 0.020564477890729904 0.013323494233191013 0.024803811684250832 -0.042361944913864136 0.033173117786645889 -0.032807085663080215 0.086679205298423767 -0.111382082104682922 0.037681270390748978 0.102751411497592926 0.072460725903511047 0.026371518149971962 0.082395397126674652 -0.007270438130944967 -0.005641262046992779 -0.018701614812016487 0.022475084289908409 0.023662501946091652 -0.001308784587308764 -0.051153469830751419 -0.014873924665153027 0.019698373973369598 0.077291712164878845 -0.051806829869747162 0.045677244663238525 -0.018439525738358498 0.096179269254207611 0.078112713992595673 0.071818999946117401 -0.051510691642761230 -0.045800883322954178 -0.032911773771047592 -0.017778880894184113 -0.057544063776731491 -0.038822710514068604 -0.051068823784589767 -0.027462542057037354 -0.020305905491113663 -0.001516516669653356 0.014897000975906849 0.095337964594364166 0.088335350155830383 -0.062807470560073853 0.001977914012968540 0.025696221739053726 -0.055352993309497833 0.017943616956472397 -0.019328743219375610 0.070089228451251984 0.091032363474369049 -0.101398155093193054 -0.025426119565963745 0.023883651942014694 -0.062242444604635239 -0.041295770555734634 0.075029633939266205 -0.060516905039548874 -0.038454007357358932 -0.045469306409358978 -0.008812639862298965 -0.028212767094373703 -0.064531728625297546 0.067013815045356750 -0.006641458719968796 0.025497458875179291 0.011227870360016823 0.014820646494626999 0.059916269034147263 -0.027102909982204437 0.060267053544521332 0.061797339469194412 0.050003405660390854 0.035631529986858368 0.066171243786811829 -0.047062233090400696 0.030712138861417770 -0.010212406516075134 -0.038110561668872833
