#Layer 6 Biases:
0.014301447197794914 0.046365514397621155 -0.017496498301625252 -0.005705827847123146 0.024107348173856735 -0.008258173242211342 0.000148108520079404 -0.020084427669644356 -0.076081790030002594 -0.007414720952510834 0.009479676373302937 -0.002405140548944473 0.006631406489759684 -0.007845317013561726 -0.010043924674391747 -0.003364247968420386 0.017575461417436600 -0.006673504598438740 0.000235422819969244 0.021103568375110626 -0.000891389849130064 0.019917747005820274 0.002993650734424591 -0.004376282449811697 0.002414898714050651 0.014715705066919327 -0.005611591972410679 0.021902836859226227 0.012077666819095612 0.008886696770787239 0.000912341522052884 -0.005209306720644236 0.008407134562730789 -0.019153499975800514 0.001999252010136843 -0.005834898445755243 0.006586104165762663 -0.008189258165657520 -0.028940835967659950 -0.003725745016708970 -0.013815636746585369 -0.011496108025312424 -0.001232599606737494 0.009805579669773579 0.015994286164641380 -0.001821312587708235 -0.002615039469674230 -0.027377190068364143 0.014637324959039688 -0.003214743919670582 -0.023330375552177429 -0.011666695587337017 0.048881452530622482 0.005933181382715702 -0.009478108957409859 -0.004558652173727751 -0.010244242846965790 -0.006799339782446623 0.003186924848705530 0.006273264996707439 0.005262879654765129 -0.000761005096137524 0.005379422102123499 -0.017175694927573204 -0.005281429272145033 -0.026850620284676552 0.001154558849520981 0.003823838196694851 0.008151629008352757 -0.004167748615145683 -0.000230640856898390 -0.021805819123983383 -0.013460869900882244 -0.003037766786292195 0.028720354661345482 0.000838183797895908 0.008296003565192223 -0.000168892598594539 -0.001453008851967752 0.014312001876533031 0.012394114397466183 -0.009590832516551018 0.004594399128109217 -0.037264935672283173 -0.000617433979641646 0.008979547768831253 -0.000291759206447750 0.043691702187061310 -0.009609184227883816 0.004831015598028898 0.001458261627703905 0.000234055405599065 0.003762951353564858 -0.001825918909162283 -0.004558851942420006 -0.019705094397068024 0.015914279967546463 0.009385340847074986 -0.005478377919644117 0.026999147608876228
