#Layer 5 Biases:
-0.045282829552888870 0.006760084070265293 0.009599086828529835 0.012798529118299484 -0.002765330718830228 0.032394774258136749 0.001501756487414241 -0.000998362083919346 -0.002421029610559344 0.006513795815408230 -0.010095023550093174 0.030910002067685127 -0.010251647792756557 -0.008059605956077576 -0.004664536099880934 -0.087757892906665802 -0.055487629026174545 0.027150277048349380 -0.005518480669707060 0.047574043273925781 -0.004741560202091932 -0.014473732560873032 0.033619403839111328 -0.108396172523498535 -0.005264038220047951 0.002872538054361939 0.052332907915115356 0.023116996511816978 0.054278630763292313 -0.016655452549457550 0.003466656897217035 0.068946681916713715 -0.013430388644337654 -0.040275190025568008 -0.004043398424983025 0.055521335452795029 0.001596525078639388 0.000970141380093992 0.047894455492496490 0.006807560101151466 -0.012013088911771774 0.037169285118579865 -0.005687175318598747 0.019644362851977348 -0.019197952002286911 -0.005885358899831772 -0.015587543137371540 -0.032480020076036453 -0.007113125175237656 0.002849726704880595 0.001680215587839484 0.005799672100692987 0.009171303361654282 0.006630598567426205 0.027748903259634972 0.002525022951886058 -0.024045316502451897 -0.013713889755308628 -0.024204760789871216 0.006326721515506506 0.036439575254917145 -0.004574980121105909 -0.015968220308423042 0.010105255991220474 0.000366668624337763 -0.016419693827629089 -0.019620196893811226 -0.012829593382775784 0.003662073519080877 0.014196513220667839 0.041747458279132843 -0.018307849764823914 -0.000072346680099145 0.001283084391616285 -0.042719691991806030 -0.002479154383763671 0.019919000566005707 -0.010621497407555580 0.006055079866200686 0.006666855420917273 0.000933535513468087 0.010011745616793633 -0.018142638728022575 0.006201332435011864 -0.015045505948364735 -0.003586276900023222 -0.002734740963205695 -0.032286878675222397 -0.037919737398624420 -0.014013387262821198 0.003946228884160519 -0.008031939156353474 -0.001947200275026262 0.000953923328779638 0.003044840414077044 0.010176497511565685 -0.012916353531181812 -0.021444791927933693 0.027718048542737961 -0.010387018322944641
