#Layer 0 Biases:
-0.054006785154342651 0.038352280855178833 0.071176752448081970 -0.081135623157024384 -0.022429743781685829 -0.051371477544307709 -0.088057167828083038 0.056520637124776840 -0.001511504291556776 -0.079771324992179871 0.073837354779243469 0.010018414817750454 0.088417239487171173 0.067286342382431030 -0.013921311125159264 0.070505000650882721 0.062883771955966949 0.041547846049070358 -0.071357890963554382 -0.048232939094305038 0.044739197939634323 0.052198693156242371 0.037762708961963654 -0.003906375262886286 -0.023163968697190285 0.000421654433012009 0.026927338913083076 -0.018668340519070625 0.060996074229478836 0.025591239333152771 0.009141956456005573 -0.089157052338123322 -0.022894194349646568 0.085909463465213776 0.124087363481521606 0.008482203818857670 0.060156740248203278 -0.090787231922149658 0.019265169277787209 0.066657632589340210 -0.090479075908660889 0.032614339143037796 0.014775726944208145 -0.033020615577697754 0.077139884233474731 -0.028126269578933716 0.068717375397682190 -0.072644598782062531 0.068399831652641296 0.007062800694257021 0.058505777269601822 0.041114799678325653 0.041360739618539810 -0.089779190719127655 0.086647614836692810 0.015897890552878380 -0.079951278865337372 -0.042880982160568237 0.058739919215440750 -0.044621426612138748 -0.087376832962036133 0.031759630888700485 -0.006887634750455618 -0.073012612760066986 -0.007862367667257786 -0.015660289674997330 -0.034870754927396774 0.043062914162874222 0.019110048189759254 -0.082501120865345001 -0.061686549335718155 -0.022678039968013763 -0.022157268598675728 -0.010052410885691643 0.081531710922718048 -0.094780750572681427 -0.064010180532932281 0.023610942065715790 -0.061691060662269592 -0.051769685000181198 -0.044821150600910187 -0.042659983038902283 0.061372265219688416 -0.034719359129667282 0.026415569707751274 0.078334383666515350 -0.010269102640450001 0.007754177786409855 -0.060151562094688416 0.080238811671733856 0.048534527420997620 -0.005064263939857483 0.084760792553424835 0.121950209140777588 0.056587580591440201 0.104694254696369171 0.033306490629911423 0.076891057193279266 -0.090835981070995331 0.042335603386163712
