#Layer 8 Weights:
-0.003044248558580875
0.195993646979331970
-0.088217742741107941
0.123059056699275970
-0.004883948713541031
-0.026402777060866356
0.187193080782890320
-0.128095939755439758
-0.010118106380105019
0.111418485641479492
0.198509052395820618
-0.037283610552549362
-0.187386795878410339
-0.099994115531444550
0.025413004681468010
-0.064309418201446533
-0.055819761008024216
0.001612313208170235
0.155480638146400452
0.098219804465770721
-0.017967164516448975
-0.173575595021247864
-0.003081116592511535
0.059956762939691544
0.145837202668190002
0.063049085438251495
0.000639591016806662
-0.082144059240818024
-0.095373027026653290
-0.119308933615684509
-0.056974060833454132
0.069225467741489410
0.201204270124435425
-0.038682002574205399
-0.027376014739274979
-0.172181650996208191
-0.153900191187858582
0.232977449893951416
0.183577433228492737
0.176941305398941040
0.125067055225372314
-0.087688989937305450
-0.064415112137794495
-0.009160316549241543
0.171332180500030518
-0.034602083265781403
-0.000368315086234361
0.147855043411254883
-0.000429643172537908
0.064375907182693481
-0.140862822532653809
0.122845247387886047
-0.107209347188472748
0.087774373590946198
-0.022112734615802765
0.065284155309200287
0.167851060628890991
-0.000796178122982383
-0.118713945150375366
-0.082121454179286957
0.218136131763458252
0.001209936453960836
0.118882328271865845
0.193025290966033936
0.141772359609603882
-0.191216945648193359
0.001167712267488241
-0.135140910744667053
0.226961910724639893
0.147201225161552429
0.104004397988319397
0.185123518109321594
0.124369613826274872
-0.102359384298324585
-0.114653341472148895
0.200555130839347839
0.169935747981071472
-0.136275216937065125
0.139298215508460999
0.022890683263540268
-0.152973666787147522
0.109059795737266541
-0.069099321961402893
0.031497459858655930
-0.135826393961906433
-0.187421903014183044
-0.168886184692382812
-0.073501236736774445
0.241572245955467224
-0.073965422809123993
-0.073468998074531555
-0.104172416031360626
-0.150355860590934753
-0.205590933561325073
0.100439608097076416
-0.134599074721336365
0.168703436851501465
-0.207629919052124023
0.094516098499298096
0.082804411649703979
