#Layer 0 Weights:
0.062376067042350769 0.149629130959510803 -0.144334673881530762 0.167861849069595337 0.039070811122655869 -0.024988677352666855 0.259340614080429077 -0.203346982598304749 -0.093398623168468475 0.168667837977409363 0.198332324624061584 -0.110887818038463593 -0.234784275293350220 -0.135651275515556335 0.088437296450138092 -0.088727682828903198 -0.084908366203308105 0.040097597986459732 0.201440200209617615 0.140403479337692261 -0.061276372522115707 -0.236680090427398682 -0.060676265507936478 0.089154057204723358 0.185526400804519653 0.094502151012420654 -0.078363455832004547 -0.129033431410789490 -0.134012416005134583 -0.066032268106937408 -0.167515516281127930 0.119423575699329376 0.262526005506515503 -0.127051055431365967 -0.092395402491092682 -0.244080692529678345 -0.193054273724555969 0.273593306541442871 0.246002495288848877 0.250115990638732910 0.156834408640861511 -0.142990604043006897 -0.153199881315231323 -0.000350420799804851 0.170403122901916504 -0.015484360978007317 -0.130930826067924500 0.200592353940010071 -0.042087115347385406 0.081476256251335144 -0.184028342366218567 0.151218637824058533 -0.143556445837020874 0.106085829436779022 -0.081807628273963928 0.066149689257144928 0.217236056923866272 0.050945565104484558 -0.171387687325477600 -0.072046287357807159 0.274570554494857788 -0.009537256322801113 0.123814933001995087 0.276672601699829102 0.118792004883289337 -0.184718444943428040 0.031069558113813400 -0.176510810852050781 0.084791198372840881 0.226109594106674194 0.188865467905998230 0.253451168537139893 0.198976635932922363 -0.055600922554731369 -0.123767010867595673 0.258660644292831421 0.215980231761932373 -0.178401812911033630 0.218173369765281677 0.025761839002370834 -0.258016496896743774 0.148251265287399292 -0.144900307059288025 0.123554810881614685 -0.199214264750480652 -0.236629635095596313 -0.335698366165161133 -0.126371055841445923 0.261966913938522339 -0.134965032339096069 -0.142525389790534973 -0.203712895512580872 -0.210460960865020752 -0.266985863447189331 0.097700901329517365 -0.194970861077308655 0.219795182347297668 -0.217914164066314697 0.124458327889442444 0.080579876899719238
0.077570557594299316 -0.215065464377403259 0.046928714960813522 -0.148002073168754578 0.174835488200187683 -0.121752321720123291 -0.014243655838072300 0.206759154796600342 0.136949390172958374 -0.004809904843568802 -0.236623004078865051 0.118847742676734924 0.144738122820854187 0.232905983924865723 0.225458621978759766 -0.123002678155899048 -0.024150196462869644 0.183178797364234924 0.129355430603027344 -0.027354389429092407 -0.047711465507745743 -0.008836007677018642 0.146600767970085144 0.157444730401039124 0.031279958784580231 -0.043512333184480667 -0.196495816111564636 -0.124158389866352081 0.090284153819084167 0.007712608203291893 0.186787426471710205 0.136419847607612610 0.028108542785048485 -0.141711682081222534 -0.224700197577476501 -0.157171025872230530 0.152233228087425232 0.046350345015525818 -0.009690950624644756 0.021860439330339432 0.070468522608280182 0.015908852219581604 -0.000403367652324960 0.101123474538326263 -0.106063306331634521 0.199698522686958313 -0.011657554656267166 0.087771683931350708 0.189765885472297668 -0.174570366740226746 0.193723067641258240 -0.155887931585311890 -0.021163720637559891 -0.178531765937805176 0.011998242698609829 0.047219585627317429 -0.003736193291842937 0.048803862184286118 0.113560542464256287 -0.041370064020156860 -0.097236968576908112 0.240382045507431030 -0.128253117203712463 -0.220947474241256714 -0.222351461648941040 -0.055330902338027954 -0.028506617993116379 -0.134503796696662903 -0.002612140262499452 -0.086481697857379913 0.244803860783576965 -0.044881355017423630 0.003726505208760500 0.212311059236526489 0.165789231657981873 0.175895601511001587 -0.026022722944617271 0.188188061118125916 -0.025391066446900368 -0.139071434736251831 0.147451341152191162 -0.092876285314559937 0.002467375248670578 -0.200704470276832581 0.100113049149513245 -0.052654214203357697 0.122084625065326691 -0.188276544213294983 -0.157305538654327393 -0.202858060598373413 -0.148434787988662720 0.207960933446884155 -0.093824796378612518 -0.154375210404396057 -0.204768434166908264 -0.048348303884267807 -0.045638754963874817 0.074981927871704102 0.132766649127006531 0.029013277962803841
