#Layer 1 Weights:
0.174707934260368347 0.373042404651641846 0.960616946220397949 -0.490894943475723267 1.702360153198242188 -0.818701684474945068 0.975384056568145752 0.729962050914764404 1.199235320091247559 1.027467966079711914 0.738945364952087402 3.444218635559082031 2.613612890243530273 1.551718354225158691 -0.062488142400979996 1.549276828765869141 -0.633547723293304443 3.897610425949096680 -0.607494771480560303 1.333835840225219727
-0.636750578880310059 -0.063223958015441895 -0.449045747518539429 -2.328501939773559570 -1.618271827697753906 -0.099251665174961090 -0.507771313190460205 0.204595729708671570 -1.175761461257934570 -0.495273768901824951 -0.071213573217391968 -0.359450101852416992 -0.589818000793457031 -1.063089609146118164 -0.092921875417232513 -0.204918473958969116 -0.079510167241096497 -0.652188062667846680 -0.236203670501708984 -0.629819214344024658
-0.794462025165557861 0.106700651347637177 -1.073100447654724121 -1.996641755104064941 -1.124027132987976074 0.080294921994209290 -0.240823671221733093 0.100593410432338715 -0.488120198249816895 -1.265845298767089844 0.129104569554328918 -0.707507908344268799 -0.428465545177459717 -1.349861264228820801 0.172906503081321716 -1.466968297958374023 0.093282818794250488 -1.010295510292053223 -0.684274613857269287 0.032003212720155716
-0.197941839694976807 -0.474109828472137451 -0.789515018463134766 -2.459330558776855469 -0.536046743392944336 -0.063178114593029022 -0.310818761587142944 0.284528523683547974 -0.234823063015937805 -0.606523275375366211 -0.266556084156036377 -0.892618894577026367 -0.696185052394866943 -0.380389153957366943 -0.125525102019309998 -0.206499204039573669 -0.461098521947860718 -0.834292829036712646 -0.252243489027023315 -0.126270800828933716
0.621823608875274658 0.035824362188577652 0.122588172554969788 -0.670280754566192627 4.902986526489257812 0.223453819751739502 1.850345849990844727 0.788390815258026123 0.702282369136810303 0.443422019481658936 1.110737442970275879 -0.074011519551277161 -0.020939968526363373 3.433285951614379883 -0.535729348659515381 1.339938879013061523 0.032079607248306274 4.208151340484619141 -0.601699948310852051 0.531800627708435059
-0.983329892158508301 -0.631002008914947510 -0.356489449739456177 -1.933939933776855469 -0.274088531732559204 -0.480218142271041870 -0.216302052140235901 -0.283894091844558716 -0.354053348302841187 -0.437291026115417480 -0.189096674323081970 -0.193231269717216492 -0.227255269885063171 -0.220087364315986633 -0.999029099941253662 -0.934083163738250732 -0.519505262374877930 -0.565385401248931885 -0.299411326646804810 0.363122284412384033
0.252514392137527466 -0.145490050315856934 -0.479424148797988892 -0.636439561843872070 -1.641891837120056152 -0.470013350248336792 -0.327587038278579712 -0.075081415474414825 -0.694844424724578857 -0.319970339536666870 0.358755797147750854 -0.883447527885437012 -0.541557669639587402 -0.446161955595016479 0.158866330981254578 -0.811570048332214355 0.541496276855468750 -0.849277257919311523 0.203263446688652039 -0.870895743370056152
-0.592804193496704102 -0.518278956413269043 -0.468445330858230591 -1.123474478721618652 -2.621975421905517578 0.168827235698699951 -0.956021189689636230 -0.159864231944084167 -1.247268795967102051 -0.468114733695983887 0.143412902951240540 -0.680362701416015625 -0.180805280804634094 -1.787153244018554688 -0.001722765737213194 -0.749816060066223145 0.135500818490982056 -1.119225502014160156 0.547836303710937500 -0.804135680198669434
0.625325083732604980 -0.009190827608108521 -0.428176671266555786 0.183153778314590454 0.267759889364242554 0.178190723061561584 -1.527189016342163086 -0.386205166578292847 -0.122090317308902740 -0.620166897773742676 -0.678841650485992432 0.185256034135818481 -0.884062707424163818 0.045061755925416946 0.518208026885986328 0.360778093338012695 0.027958340942859650 0.042798794806003571 -0.751828312873840332 -0.628772318363189697
0.141070306301116943 -0.649286210536956787 -0.484102934598922729 -0.468759775161743164 1.379754543304443359 -0.087189473211765289 -0.652291238307952881 -0.086158186197280884 -0.336182832717895508 -1.025112390518188477 0.942791700363159180 -0.460074096918106079 -0.991624057292938232 0.298254340887069702 0.260831147432327271 0.482564628124237061 0.829220890998840332 -0.333893418312072754 -0.425027310848236084 0.557645976543426514
0.146886095404624939 -0.593825519084930420 -0.793925940990447998 0.353588491678237915 -4.328461170196533203 -0.056939169764518738 -0.938033819198608398 -0.576739847660064697 -1.301329612731933594 -0.611170649528503418 -0.189069762825965881 -0.840770781040191650 -1.026440024375915527 -2.408586978912353516 -0.190069094300270081 -0.903887748718261719 0.283847332000732422 -1.155401825904846191 -0.164223358035087585 -0.570841908454895020
0.481198728084564209 -0.478859364986419678 -0.394209086894989014 0.269974023103713989 -0.168883681297302246 -0.186566203832626343 -0.009392825886607170 0.395624101161956787 -0.284479141235351562 -0.752267897129058838 -0.975534081459045410 0.687637686729431152 0.683844327926635742 -0.774561643600463867 -0.942518830299377441 -0.352220177650451660 -0.872324645519256592 -0.095023564994335175 -1.732649445533752441 0.015935841947793961
-0.597093105316162109 0.429930001497268677 0.296657234430313110 -2.146896839141845703 0.122608080506324768 -0.560555517673492432 -0.415832072496414185 0.034995026886463165 -0.300605118274688721 -0.877258479595184326 -0.388520449399948120 0.686798512935638428 0.786775887012481689 -0.485816925764083862 -0.648858129978179932 0.350673109292984009 -0.586279511451721191 1.447175979614257812 -0.073696300387382507 0.244622871279716492
0.672540783882141113 -0.933992266654968262 -0.650912940502166748 -1.887450695037841797 -3.942917823791503906 0.155169755220413208 -1.093255162239074707 -0.369493246078491211 -0.329520553350448608 -0.509030997753143311 -0.418099641799926758 -0.779866874217987061 -0.989660739898681641 -3.564778327941894531 0.607670962810516357 -2.291370153427124023 0.703652083873748779 -2.095585584640502930 -0.572456955909729004 -0.579792499542236328
-0.124385558068752289 -0.454425424337387085 -0.576642096042633057 -3.350382328033447266 -0.954399526119232178 -0.600482642650604248 -1.010573863983154297 0.036994729191064835 -0.458216011524200439 -0.582407593727111816 -0.018995339050889015 -0.243185549974441528 -0.958186864852905273 -0.406464666128158569 -0.105373762547969818 -0.414071619510650635 0.093235991895198822 -0.517509996891021729 0.175929829478263855 -0.367073118686676025
-0.456933647394180298 -0.666388452053070068 -0.903022825717926025 -2.982045650482177734 -4.059109687805175781 0.078286536037921906 -1.189172744750976562 -0.447950899600982666 -1.146301388740539551 -0.701575279235839844 0.002182475058361888 -2.299846887588500977 -1.451168298721313477 -2.307936429977416992 -0.426948070526123047 -1.225975275039672852 0.084443360567092896 -1.442610621452331543 -0.340755164623260498 -0.360079139471054077
-0.510447084903717041 -0.269960820674896240 -0.522886455059051514 -1.519289493560791016 0.090648733079433441 -0.229129627346992493 -0.211259528994560242 0.346938014030456543 -0.301499873399734497 -0.737626433372497559 -0.196738526225090027 -0.334067463874816895 -0.039122074842453003 0.226673319935798645 -0.240529924631118774 -0.393942773342132568 -0.625549197196960449 0.150827780365943909 -1.512014150619506836 -0.392032444477081299
-1.017476558685302734 -0.925543069839477539 -0.236309349536895752 1.325245380401611328 -0.346552520990371704 -0.073117144405841827 -0.510274171829223633 0.154328256845474243 -0.107927247881889343 -0.465096890926361084 -1.162187933921813965 2.367684602737426758 0.511214077472686768 -0.200981214642524719 -1.142645239830017090 -0.434302181005477905 -1.632399439811706543 1.578550696372985840 -0.619342148303985596 -0.089781321585178375
-0.306909263134002686 -0.481216013431549072 -0.319545328617095947 -2.305186510086059570 -0.119961932301521301 -0.068428970873355865 -0.200131863355636597 0.322308570146560669 -0.478816837072372437 0.018008252605795860 -0.003661761293187737 0.683672726154327393 -0.115220308303833008 0.028190433979034424 -0.836127460002899170 -0.379804730415344238 -0.785405218601226807 -0.956868529319763184 0.208877265453338623 -0.358070462942123413
0.558605074882507324 -0.277412712574005127 -0.323737949132919312 -0.287632673978805542 2.862418889999389648 0.589854419231414795 -0.917973339557647705 -0.244183659553527832 0.301036894321441650 -0.488191723823547363 -0.273698300123214722 0.195817872881889343 -0.214041873812675476 0.877912044525146484 0.906899273395538330 0.533982217311859131 0.316584467887878418 1.392399787902832031 -0.499523580074310303 0.063807666301727295
