#Layer 4 Biases:
-0.085939660668373108 0.066625811159610748 0.028123648837208748 0.051030512899160385 0.033868577331304550 0.045090205967426300 -0.076665103435516357 -0.024690708145499229 -0.019539380446076393 -0.043135296553373337 0.029996722936630249 0.024598889052867889 -0.023055439814925194 -0.057739246636629105 -0.020795969292521477 0.048695866018533707 -0.006152521353214979 -0.054478093981742859 0.012315890751779079 -0.069930806756019592 -0.011288085952401161 0.020479479804635048 0.037270348519086838 -0.049968387931585312 0.002259510103613138 -0.079151041805744171 0.051803559064865112 0.009568822570145130 -0.011349015869200230 0.061875224113464355 -0.063719414174556732 -0.026291582733392715 0.006177111063152552 -0.009802433662116528 -0.033994585275650024 0.033570587635040283 -0.034286133944988251 0.037248358130455017 0.007114821579307318 0.008425717242062092 0.005686776712536812 0.038578510284423828 -0.095966875553131104 -0.079551674425601959 -0.021556684747338295 0.030602155253291130 -0.004044169560074806 -0.021203495562076569 0.056095968931913376 -0.041726157069206238 -0.001686929259449244 -0.297764599323272705 0.043348677456378937 -0.005040305200964212 -0.023510819301009178 0.002659043762832880 -0.023675385862588882 -0.041956942528486252 0.045764401555061340 0.008375670760869980 -0.010702612809836864 -0.066206172108650208 -0.048937261104583740 0.031585071235895157 -0.040097903460264206 0.026741297915577888 0.039461083710193634 0.015181850641965866 -0.001615740940906107 0.026381887495517731 -0.042505264282226562 0.013469658792018890 -0.033607758581638336 0.064906701445579529 0.034484978765249252 0.012001113966107368 -0.048482164740562439 -0.027002103626728058 0.019861882552504539 -0.032042939215898514 -0.018761815503239632 -0.030568897724151611 -0.013217596337199211 -0.019231805577874184 -0.001863876241259277 -0.010004611685872078 -0.018871176987886429 -0.014022079296410084 -0.024664411321282387 -0.032933756709098816 0.025440206751227379 -0.163562402129173279 -0.043139241635799408 0.028295084834098816 -0.038441229611635208 0.017428051680326462 0.108870111405849457 0.005961977876722813 -0.108157515525817871 -0.044530972838401794
