#Layer 3 Biases:
0.029864240437746048 0.065282762050628662 0.030281281098723412 0.032578788697719574 -0.015221333131194115 0.018219739198684692 -0.043660581111907959 0.021494412794709206 0.160713106393814087 -0.023126250132918358 -0.021234467625617981 -0.011984510347247124 -0.014461489394307137 0.005822282284498215 -0.148503586649894714 0.005640821997076273 -0.040719222277402878 0.000577497354242951 0.025691552087664604 0.011223956942558289 -0.068491525948047638 0.029170094057917595 0.005635686684399843 0.057829644531011581 -0.012856914661824703 -0.057457126677036285 0.009402304887771606 -0.059008475393056870 0.018347449600696564 -0.043433047831058502 0.016467155888676643 -0.073110565543174744 -0.024567037820816040 0.051502101123332977 -0.053625337779521942 -0.005079733673483133 0.082280777394771576 -0.085642963647842407 -0.036938205361366272 0.036860145628452301 -0.023274745792150497 -0.029186436906456947 0.027704246342182159 0.002207072451710701 -0.052985910326242447 -0.037909127771854401 0.007895309478044510 0.001768642337992787 0.031145805492997169 0.008714103139936924 0.044496793299913406 -0.003727794392034411 -0.044572997838258743 0.038633324205875397 0.014187835156917572 0.019817879423499107 -0.019104352220892906 -0.046056237071752548 0.052522331476211548 -0.036911740899085999 -0.181873708963394165 -0.045035850256681442 -0.084325082600116730 -0.014162610284984112 0.055063594132661819 0.034538254141807556 -0.032760135829448700 0.049524668604135513 -0.015664933249354362 -0.053559154272079468 0.069721564650535583 0.062570057809352875 0.010514648631215096 -0.044870860874652863 0.120891444385051727 0.006951407063752413 0.004051006399095058 -0.011052536778151989 0.024314932525157928 -0.032605852931737900 -0.056134965270757675 0.056401018053293228 -0.008542681112885475 0.000769109232351184 -0.005213848780840635 0.044791277498006821 0.071942932903766632 -0.064484693109989166 0.068168677389621735 -0.081791378557682037 0.008277715183794498 0.028166281059384346 0.009330116212368011 -0.020711375400424004 0.024892525747418404 -0.026266444474458694 -0.050034511834383011 -0.043218445032835007 -0.004864192567765713 0.037802182137966156
