#Layer 2 Biases:
-0.054222576320171356 -0.022849870845675468 -0.072660826146602631 0.025702679529786110 0.068539127707481384 -0.020696876570582390 -0.031626071780920029 0.041884273290634155 -0.042497277259826660 0.003369720885530114 0.036364015191793442 0.007635018788278103 0.022582348436117172 0.096945330500602722 -0.003655166598036885 0.039031285792589188 -0.088256262242794037 0.149608895182609558 0.017892222851514816 0.029663477092981339 0.052703641355037689 0.061294868588447571 -0.070144943892955780 0.038810335099697113 0.006008738651871681 0.065442807972431183 0.001650257967412472 0.026531729847192764 0.069084160029888153 0.027794444933533669 0.068177536129951477 -0.028906244784593582 0.030661610886454582 0.071526475250720978 0.059142224490642548 0.002368947025388479 0.012270663864910603 0.089584067463874817 0.005172638688236475 -0.027661375701427460 0.042095258831977844 -0.038156606256961823 -0.053536191582679749 -0.000641000631731004 0.039250664412975311 0.064967133104801178 -0.034720640629529953 0.030898364260792732 0.044193170964717865 0.039926022291183472 0.001674047554843128 0.052580617368221283 0.048914372920989990 -0.020792186260223389 0.079984910786151886 -0.104642808437347412 0.024161638692021370 0.005969601217657328 0.066227182745933533 -0.071586638689041138 -0.085157789289951324 -0.004933120217174292 0.025319229811429977 0.032796505838632584 -0.010226454585790634 0.022383050993084908 -0.007888808846473694 -0.044991966336965561 0.026455167680978775 0.031644366681575775 -0.044888898730278015 -0.016294945031404495 0.049044873565435410 -0.006688649766147137 0.075421631336212158 0.145895317196846008 -0.068310983479022980 0.099926821887493134 -0.043934468179941177 0.061197649687528610 0.014219611883163452 0.015765080228447914 -0.006703047081828117 0.024222675710916519 -0.025466978549957275 0.038774456828832626 0.057584978640079498 0.019139476120471954 0.000509839504957199 -0.021743968129158020 -0.025617090985178947 0.022262224927544594 0.011828975751996040 0.013853447511792183 -0.031965587288141251 0.109911143779754639 0.025305371731519699 0.024406692013144493 0.031941067427396774 0.000709763553459197
