#Layer 1 Biases:
-0.082884341478347778 0.055737070739269257 -0.018918795511126518 0.098510146141052246 0.030041884630918503 -0.045713163912296295 0.019154770299792290 0.023960325866937637 0.024460349231958389 -0.037461437284946442 0.019898032769560814 0.064792275428771973 -0.054822571575641632 -0.032580532133579254 0.044100366532802582 -0.082628279924392700 0.027729352936148643 -0.057918518781661987 0.025993699207901955 -0.051020275801420212 0.086341373622417450 -0.082743614912033081 0.007516446989029646 -0.001517768017947674 0.064426526427268982 -0.112978175282478333 -0.080976925790309906 0.088273659348487854 0.042298067361116409 0.098629996180534363 0.042060717940330505 0.045731693506240845 -0.030073544010519981 0.050044339150190353 -0.037933122366666794 0.067822314798831940 -0.046207975596189499 0.021314114332199097 -0.061285015195608139 0.007030411623418331 -0.060879692435264587 0.082112409174442291 0.015059066936373711 -0.072966083884239197 0.031249215826392174 0.101575836539268494 0.021215874701738358 -0.004541467875242233 0.037241868674755096 -0.093896463513374329 0.019057592377066612 0.050048384815454483 -0.009016624651849270 -0.054084490984678268 0.062754273414611816 0.063629709184169769 0.047260854393243790 -0.026380062103271484 0.017825039103627205 -0.004377707373350859 0.067916087806224823 0.022549942135810852 0.030885597690939903 0.087404906749725342 0.063209764659404755 0.002339523052796721 -0.052569303661584854 -0.028612436726689339 0.041798342019319534 -0.056632943451404572 -0.049430571496486664 0.002336705336347222 -0.044189706444740295 0.082671597599983215 0.040010280907154083 -0.050947476178407669 -0.116402596235275269 -0.008336998522281647 0.084059529006481171 0.041360646486282349 0.066520676016807556 0.044336643069982529 -0.077415630221366882 -0.055819399654865265 0.057490814477205276 -0.068365111947059631 -0.155441731214523315 0.015074677765369415 -0.012337894178926945 -0.106460660696029663 0.078511901199817657 -0.004358851816505194 0.054670017212629318 0.112206965684890747 -0.006927467882633209 0.010490817949175835 0.029775397852063179 0.042567543685436249 -0.034766413271427155 0.031781628727912903
