#Layer 7 Biases:
-0.027513505890965462 -0.000822191417682916 0.026848210021853447 -0.012051790021359921 0.019324550405144691 0.030944831669330597 0.002544142538681626 -0.036177169531583786 -0.012573228217661381 -0.002193148015066981 0.047948949038982391 -0.027876248583197594 -0.017437288537621498 -0.016326699405908585 0.021640814840793610 0.033617764711380005 0.009709625504910946 -0.048890471458435059 0.039674468338489532 -0.040340986102819443 -0.028251295909285545 -0.022686298936605453 -0.005750919226557016 0.013375027105212212 0.023486753925681114 0.006443139631301165 -0.020535401999950409 0.025536624714732170 -0.031957354396581650 0.024977957829833031 -0.026998562738299370 0.010529850609600544 0.008497756905853748 0.038491707295179367 -0.026067562401294708 0.021282864734530449 0.013766461983323097 0.024151355028152466 0.041628569364547729 -0.038003068417310715 0.030731316655874252 0.035540796816349030 0.020652377977967262 0.010465160943567753 0.019545972347259521 0.018217729404568672 0.020755911245942116 0.002267678501084447 0.036879286170005798 -0.032144948840141296 0.047507323324680328 -0.044386748224496841 -0.012988451868295670 -0.021291680634021759 -0.028496176004409790 0.017473975196480751 0.027730271220207214 -0.022977260872721672 -0.038744859397411346 -0.001666783122345805 -0.027529010549187660 0.011572003364562988 -0.024735668674111366 0.022357752546668053 0.013551845215260983 -0.023765161633491516 0.017851956188678741 0.021542798727750778 -0.005730902776122093 -0.016892343759536743 -0.015621489845216274 0.005542512517422438 0.036667138338088989 -0.014662011526525021 -0.013456589542329311 -0.035826221108436584 -0.019127754494547844 -0.012510752305388451 0.006265010684728622 -0.035711567848920822 -0.031846731901168823 -0.031532734632492065 -0.043006937950849533 0.024607431143522263 0.004893674049526453 -0.018612990155816078 -0.041198223829269409 -0.001320232753641903 -0.023935960605740547 0.020150238648056984 0.006473176646977663 -0.027707215398550034 -0.014535952359437943 0.014657207764685154 0.024723351001739502 0.012022959999740124 -0.026349471881985664 0.027848772704601288 0.020743336528539658 -0.056764557957649231
