#Layer 5 Biases:
-0.032593537122011185 -0.004064464475959539 0.030189005658030510 -0.007817339152097702 -0.012582129798829556 -0.025363041087985039 0.086936041712760925 0.010683791711926460 -0.029424650594592094 -0.027427861467003822 0.018108710646629333 0.096504554152488708 -0.024036576971411705 0.022363958880305290 0.036840949207544327 -0.002548801712691784 -0.034754220396280289 -0.065899387001991272 -0.005888978950679302 -0.012774547562003136 -0.029880495741963387 -0.003571716835722327 0.035205971449613571 0.011298265308141708 -0.007359252311289310 -0.024285491555929184 0.089382231235504150 -0.004547717981040478 0.040018942207098007 0.021725235506892204 -0.028280394151806831 0.025914505124092102 0.030422687530517578 0.074338816106319427 -0.015521377325057983 0.027907321229577065 0.010323432274162769 0.006802994757890701 0.003640801180154085 -0.029297897592186928 0.033256221562623978 -0.035212915390729904 -0.041886709630489349 -0.031785715371370316 0.013564636930823326 -0.035646658390760422 0.021907117217779160 0.013283906504511833 -0.028879815712571144 0.052735239267349243 -0.005218499340116978 -0.071742117404937744 0.005292545072734356 0.082638286054134369 0.010142400860786438 -0.031365070492029190 0.006907763425260782 -0.064374163746833801 -0.057117469608783722 -0.023927807807922363 -0.001979048131033778 -0.129380613565444946 0.040665354579687119 -0.038855623453855515 -0.000035112541809212 0.009199921973049641 -0.013627798296511173 0.006500777322798967 0.081836983561515808 0.021244052797555923 0.010180176235735416 0.034146543592214584 0.073869012296199799 0.045390605926513672 -0.073611274361610413 0.008187514729797840 -0.086986258625984192 0.046529032289981842 0.073046788573265076 0.031571418046951294 -0.012608197517693043 0.026827774941921234 0.065726496279239655 -0.002329490846022964 0.005908084567636251 0.005019463598728180 -0.031131794676184654 -0.035442654043436050 0.018978239968419075 0.152660638093948364 -0.002748796017840505 0.044693149626255035 0.014504813589155674 0.034628894180059433 -0.034748300909996033 -0.028605209663510323 -0.008953251875936985 0.001207275432534516 0.049598809331655502 -0.000683096121065319
