#Layer 6 Biases:
0.043246679008007050 -0.034879125654697418 0.036183550953865051 -0.043545443564653397 0.014239076524972916 0.019698997959494591 0.036069314926862717 -0.023952515795826912 0.028714513406157494 0.039135705679655075 -0.008853314444422722 -0.014868061058223248 0.029570082202553749 0.037710443139076233 -0.162429913878440857 0.038037177175283432 -0.039565794169902802 -0.015809735283255577 0.005101355724036694 0.022498786449432373 -0.016596548259258270 -0.002420341596007347 0.050210885703563690 -0.009156760759651661 0.010664223693311214 0.008889774791896343 0.000702698831446469 -0.013107193633913994 0.018961276859045029 0.030499754473567009 -0.001570130349136889 0.042024001479148865 -0.004269801545888186 -0.016514919698238373 -0.046901918947696686 -0.005534953903406858 0.011265614069998264 -0.006788400467485189 -0.064524315297603607 0.002274088561534882 -0.038373637944459915 -0.060096666216850281 0.040650896728038788 -0.027036897838115692 0.039105735719203949 -0.025286134332418442 0.010497747920453548 -0.020351208746433258 -0.004233686253428459 0.032956283539533615 -0.039843361824750900 0.039457432925701141 -0.028981367126107216 0.035848140716552734 -0.023542394861578941 -0.040947988629341125 -0.006681769620627165 0.018033737316727638 -0.020545959472656250 0.018719172105193138 0.002394083188846707 0.006146524567157030 0.008483966812491417 0.002859630156308413 -0.017166929319500923 0.015767548233270645 -0.014652305282652378 -0.004514328669756651 -0.017518397420644760 0.036740556359291077 0.006710623390972614 0.019668387249112129 -0.045304056257009506 0.004335610661655664 -0.033039815723896027 -0.009350067935883999 -0.008918281644582748 -0.039755143225193024 -0.048217270523309708 -0.035690888762474060 0.016897168010473251 -0.005887339357286692 0.005589152686297894 0.018309421837329865 0.004908109083771706 0.021214535459876060 0.008479283191263676 0.055919960141181946 -0.024359304457902908 0.055993266403675079 0.044246681034564972 -0.076603598892688751 0.031751487404108047 -0.034103043377399445 0.020852996036410332 -0.008202264085412025 0.021153423935174942 -0.005672390572726727 0.008512471802532673 0.021670797839760780
