#Layer 0 Biases:
0.216269746422767639 0.079303868114948273 0.136066377162933350 0.036625713109970093 -0.023423008620738983 -0.176540002226829529 -0.072107926011085510 0.085586659610271454 0.074394598603248596 -0.006397594232112169 -0.142203047871589661 0.134656637907028198 0.090784274041652679 -0.013099337927997112 -0.100846119225025177 0.187667772173881531 0.187129735946655273 0.059477698057889938 0.006555049680173397 -0.042877282947301865 0.082155950367450714 0.036987189203500748 0.072484813630580902 -0.151486977934837341 0.037204261869192123 -0.219280108809471130 0.021740270778536797 -0.025514699518680573 -0.015459080226719379 -0.160313516855239868 0.037132233381271362 0.054542426019906998 -0.001675845705904067 -0.147637769579887390 -0.075978785753250122 0.052498105913400650 -0.150782078504562378 -0.085175327956676483 -0.130461156368255615 0.067425914108753204 -0.218435645103454590 0.023775290697813034 -0.119841352105140686 -0.054225150495767593 -0.137612253427505493 -0.163285672664642334 0.015579897910356522 0.064240194857120514 -0.075475148856639862 0.065314829349517822 -0.136176273226737976 0.026798900216817856 0.000649445515591651 -0.024280978366732597 0.022995427250862122 0.047337140887975693 0.127319455146789551 0.152226209640502930 0.101090051233768463 -0.058900352567434311 0.172425106167793274 0.005050064530223608 0.058842413127422333 -0.117921128869056702 -0.092746533453464508 0.001093780738301575 0.064480677247047424 0.215482085943222046 -0.151457130908966064 0.072501644492149353 0.100128434598445892 -0.019302761182188988 -0.061145722866058350 0.141885742545127869 0.053212083876132965 0.013105127029120922 0.206075966358184814 0.196582302451133728 -0.144304171204566956 0.101527251303195953 0.037200219929218292 0.113366827368736267 0.036008108407258987 -0.094062156975269318 -0.027851866558194160 0.168730661273002625 -0.015299624763429165 0.079746492207050323 -0.085275135934352875 0.159402951598167419 -0.041058011353015900 0.051308646798133850 -0.066743463277816772 0.035829201340675354 -0.080300435423851013 -0.091720968484878540 0.055488020181655884 -0.212611138820648193 0.088013179600238800 0.101708866655826569
