#Layer 0 Weights:
-0.050180371850728989 0.003924073651432991 0.158194229006767273 -0.182719916105270386 -0.263439416885375977 0.036019310355186462 0.073316209018230438 -0.273611187934875488 -0.089786693453788757 -0.106906086206436157 0.165957674384117126 -0.105813086032867432 -0.104599505662918091 -0.293264418840408325 0.171981498599052429 0.196325957775115967 0.055409461259841919 -0.252899885177612305 -0.110494725406169891 -0.231190726161003113 -0.303233534097671509 -0.200634390115737915 -0.012892933562397957 0.172497034072875977 0.247516721487045288 0.076070718467235565 -0.105789273977279663 0.199421837925910950 -0.167925059795379639 -0.043612610548734665 -0.252311110496520996 0.282903909683227539 0.341444134712219238 0.108454711735248566 -0.007313709240406752 -0.083762489259243011 0.099814385175704956 0.377092957496643066 -0.018528303131461143 -0.239605471491813660 0.169461235404014587 0.173852726817131042 0.211701765656471252 0.308525562286376953 0.342624008655548096 0.156078696250915527 0.138528227806091309 -0.237062886357307434 0.103774532675743103 -0.307457089424133301 0.041260242462158203 -0.189397931098937988 -0.275645226240158081 -0.218267783522605896 -0.001327302888967097 0.232871621847152710 0.025426832959055901 -0.074406318366527557 -0.234749615192413330 0.226625934243202209 -0.058416407555341721 0.228782176971435547 -0.131841585040092468 0.205234766006469727 0.042750526219606400 -0.271883308887481689 0.143453612923622131 0.050830073654651642 -0.193502143025398254 -0.088223747909069061 -0.033004913479089737 0.288616299629211426 0.051533352583646774 0.034796912223100662 0.102948680520057678 0.035556402057409286 0.085875980556011200 -0.046008326113224030 0.164189085364341736 -0.143641710281372070 0.072060436010360718 -0.082507453858852386 -0.036893684417009354 0.059589084237813950 -0.112847357988357544 0.035510327666997910 -0.289291650056838989 0.080764584243297577 -0.012803731486201286 -0.005259295459836721 0.192746490240097046 -0.211438119411468506 -0.177307516336441040 0.144202128052711487 0.209682583808898926 -0.112173564732074738 -0.215266123414039612 0.248391181230545044 0.098570302128791809 -0.112865030765533447
-0.205934971570968628 -0.182443767786026001 -0.207408696413040161 -0.070139236748218536 0.208819240331649780 0.075406782329082489 0.079848177731037140 0.098432086408138275 -0.165933012962341309 0.042261362075805664 0.083293370902538300 -0.111582718789577484 -0.000759346410632133 0.234838411211967468 0.008255797438323498 -0.282949894666671753 -0.162407591938972473 0.109350919723510742 0.034995485097169876 0.152290791273117065 0.096151694655418396 0.141482561826705933 -0.008179966360330582 -0.016593931242823601 -0.190490096807479858 0.172856569290161133 0.035031661391258240 -0.088326893746852875 -0.097732715308666229 0.239966660737991333 0.236375421285629272 -0.208896875381469727 -0.260367602109909058 0.117143474519252777 -0.078994259238243103 0.042092241346836090 0.077951587736606598 -0.253605812788009644 0.161198645830154419 0.066503934562206268 0.007066790014505386 -0.123302876949310303 0.003240267047658563 -0.252101987600326538 -0.114235162734985352 0.092497132718563080 0.163642615079879761 -0.032459571957588196 0.073497101664543152 0.123481959104537964 0.102836184203624725 0.089802920818328857 0.145455077290534973 0.159465521574020386 -0.055039022117853165 -0.176121145486831665 -0.010857544839382172 -0.184524238109588623 0.013243908993899822 -0.112918846309185028 -0.141982406377792358 -0.133458316326141357 -0.150980800390243530 0.049016166478395462 0.049527820199728012 0.195506975054740906 -0.143951475620269775 -0.160404875874519348 0.206025734543800354 -0.076032541692256927 -0.152920007705688477 -0.140394106507301331 0.048560362309217453 -0.113804727792739868 0.021880367770791054 -0.129600644111633301 -0.164500728249549866 -0.007621221709996462 0.181543946266174316 -0.192172974348068237 0.019628489390015602 -0.135863229632377625 -0.065403133630752563 0.091680265963077545 0.098218977451324463 -0.205361396074295044 0.225986421108245850 -0.091029562056064606 0.035777155309915543 -0.156002476811408997 -0.030711071565747261 0.037587195634841919 0.127527743577957153 -0.091882616281509399 -0.112415567040443420 0.127235829830169678 0.067632764577865601 0.066170305013656616 -0.113543651998043060 -0.057956036180257797
