#Layer 8 Weights:
-0.017987243831157684
0.011359756812453270
0.094831399619579315
-0.215503796935081482
-0.225312173366546631
0.014231576584279537
0.077719651162624359
-0.140527784824371338
-0.169077187776565552
-0.209027767181396484
0.189036116003990173
-0.080946125090122223
0.011720220558345318
-0.096895113587379456
0.105791158974170685
0.117432683706283569
0.014454180374741554
-0.145737648010253906
-0.011069484055042267
-0.189935609698295593
-0.196268826723098755
-0.053160261362791061
-0.006560700479894876
0.013939515687525272
0.112544678151607513
0.031052879989147186
-0.075313746929168701
0.061383854597806931
-0.160365805029869080
-0.030312463641166687
-0.023685872554779053
0.135320499539375305
0.235058858990669250
0.120538085699081421
-0.042265255004167557
0.064438685774803162
-0.020697785541415215
0.226617917418479919
0.057278744876384735
-0.192220717668533325
0.035180963575839996
0.063777163624763489
0.157305672764778137
0.136083394289016724
0.174381911754608154
0.042789824306964874
0.164140805602073669
-0.219721049070358276
0.094628639519214630
-0.153955861926078796
0.118394494056701660
-0.180371701717376709
-0.173751860857009888
-0.116292767226696014
-0.071176178753376007
0.157035186886787415
0.046948660165071487
-0.139020174741744995
-0.139116361737251282
0.187941044569015503
-0.084018148481845856
0.169549793004989624
-0.151878207921981812
0.203420042991638184
0.007900932803750038
-0.116955004632472992
0.007929984480142593
0.014431041665375233
-0.198148712515830994
-0.051844410598278046
0.025235349312424660
0.196699753403663635
0.006643061991780996
-0.052533876150846481
-0.104475118219852448
-0.045516997575759888
-0.036504294723272324
-0.017657723277807236
0.183239802718162537
-0.146972790360450745
0.031634323298931122
-0.095993705093860626
-0.132076561450958252
0.089957863092422485
-0.005309411324560642
-0.068008325994014740
-0.178417980670928955
0.088059060275554657
-0.022450862452387810
-0.000118917618237901
0.085011914372444153
-0.188085630536079407
-0.098673433065414429
0.031272143125534058
0.034008700400590897
-0.026384837925434113
-0.041957743465900421
0.125153169035911560
0.010692947544157505
-0.106600865721702576
