#Layer 4 Biases:
-0.000581435509957373 0.010868364013731480 0.006714222021400928 -0.021163439378142357 -0.027236454188823700 0.017091628164052963 -0.011692794039845467 0.033281583338975906 0.018326135352253914 0.037956606596708298 -0.002920892555266619 -0.006149578373879194 0.022360194474458694 0.003733221674337983 -0.063302069902420044 -0.005309529136866331 0.019810054451227188 -0.012129551731050014 0.018051976338028908 0.028106668964028358 -0.012536337599158287 0.022172067314386368 0.024470197036862373 -0.017460172995924950 0.012013883329927921 0.010746523737907410 0.000761335017159581 0.012684309855103493 -0.006153047084808350 0.006712234113365412 -0.014512368477880955 -0.000683838909026235 0.010527107864618301 -0.003617053618654609 0.058516364544630051 -0.046805366873741150 0.004413344431668520 -0.006295904051512480 0.018041703850030899 -0.011586487293243408 0.031327683478593826 0.002994087757542729 -0.007126180455088615 -0.007655632216483355 0.036210317164659500 -0.019215147942304611 -0.010481522418558598 -0.028648901730775833 -0.000719473056960851 0.012004913762211800 -0.026810502633452415 -0.024359865114092827 -0.012904144823551178 0.000515161431394517 -0.003666240256279707 -0.019610762596130371 0.006421763915568590 0.014610925689339638 -0.017870299518108368 0.003496097866445780 0.000300371204502881 0.012333306483924389 0.020094102248549461 0.011371816508471966 -0.016380222514271736 -0.024149289354681969 -0.037554375827312469 0.028171073645353317 -0.012137468904256821 -0.006586843170225620 0.012330932542681694 0.008643118664622307 0.013583539053797722 -0.010832360014319420 0.009874843060970306 -0.005899141542613506 0.013743369840085506 -0.005600205622613430 0.028057694435119629 0.037030167877674103 -0.013898529112339020 0.013695126399397850 -0.005990816280245781 0.008519374765455723 -0.006243485491722822 -0.001067368313670158 0.005935873836278915 0.000426135258749127 -0.052666515111923218 0.008951109834015369 -0.060922682285308838 0.012249554507434368 -0.007127447519451380 -0.133273884654045105 0.009552478790283203 0.004380844999104738 -0.012673631310462952 0.005708320066332817 0.004923548083752394 0.001011253450997174
