#Layer 5 Biases:
0.001178416074253619 -0.004189723636955023 -0.000183277821633965 -0.008213380351662636 -0.014866734854876995 0.011198469437658787 0.007391364779323339 0.010385973379015923 0.001973029458895326 -0.020775768905878067 0.004320330917835236 0.010651247575879097 0.011412642896175385 -0.007461481261998415 0.003080904716625810 0.004927751142531633 -0.033324521034955978 0.026695169508457184 0.008150181733071804 0.008351361379027367 -0.018963837996125221 -0.002672787290066481 -0.013986644335091114 0.008393175899982452 -0.028538946062326431 0.014748316258192062 -0.017392348498106003 -0.001649044337682426 0.024018436670303345 0.001729808398522437 -0.001320864423178136 0.011002472601830959 0.007041632663458586 0.000024331364329555 -0.001977244624868035 -0.000428903818828985 -0.018334265798330307 -0.007090222556143999 -0.033976804465055466 -0.000400380289647728 -0.002921064617112279 0.003518718061968684 0.039191797375679016 -0.007389502134174109 0.006711469963192940 -0.004664439242333174 0.028278898447751999 0.018095415085554123 -0.002341178013011813 0.000711969565600157 -0.035704437643289566 -0.075576528906822205 -0.010454411618411541 0.018163466826081276 0.040581040084362030 0.000317810859996825 0.008182882331311703 0.034915357828140259 0.009502186439931393 0.013120273128151894 0.002826032927259803 0.006355420220643282 0.010718069970607758 -0.001955610467121005 0.009000355377793312 0.018674729391932487 0.011170524172484875 -0.017171461135149002 -0.030950983986258507 0.029422625899314880 -0.071520283818244934 -0.000968350737821311 0.005690850317478180 0.013919970951974392 -0.026679458096623421 0.025589298456907272 0.004550144542008638 -0.008268780075013638 -0.034926660358905792 0.000887663394678384 0.013197818771004677 -0.011735227890312672 -0.043055746704339981 -0.014401365071535110 0.014956647530198097 0.002535448875278234 0.003799421945586801 0.005290186498314142 -0.005406517535448074 0.025659818202257156 -0.007737636566162109 -0.032613426446914673 -0.003214318072423339 -0.009722085669636726 0.012713757343590260 0.005806401371955872 0.021326072514057159 -0.007720306515693665 -0.010896283201873302 -0.007643829099833965
