#Layer 6 Biases:
0.013532648794353008 0.001362444600090384 0.033456772565841675 -0.007877725176513195 -0.002267664764076471 0.002344333799555898 0.007559058256447315 0.000938367855269462 0.006371667142957449 -0.024000111967325211 0.007000876124948263 0.019660612568259239 -0.000366383552318439 0.014728217385709286 -0.012511764653027058 -0.082200594246387482 0.004752681124955416 -0.035128403455018997 -0.056442789733409882 0.010786592029035091 -0.000075242045568302 -0.003712063888087869 0.084543943405151367 -0.011532090604305267 0.009783677756786346 -0.016754353418946266 -0.005203789100050926 0.023421764373779297 -0.005179423838853836 -0.002719313371926546 -0.003323569428175688 0.018688084557652473 0.021254912018775940 0.032224494963884354 -0.003110708668828011 -0.011091039516031742 0.003086145501583815 0.000456490466604009 0.004339976236224174 0.007526112254709005 -0.003769946051761508 -0.003828059416264296 0.006256950553506613 -0.001371336053125560 -0.013871181756258011 -0.000069384943344630 -0.016554841771721840 -0.011809090152382851 -0.005501759238541126 -0.013312572613358498 0.012512338347733021 0.001490848138928413 0.001607361482456326 -0.006321789696812630 0.025799905881285667 0.026956621557474136 0.002320262836292386 -0.000192754887393676 0.001016799826174974 0.010242532938718796 -0.003387981094419956 -0.061073873192071915 0.023404311388731003 0.005488686263561249 0.046749018132686615 0.009382308460772038 0.020516606047749519 0.002609818242490292 -0.019671777263283730 -0.007474481128156185 0.015316854231059551 0.019357312470674515 0.004462264012545347 0.001623912481591105 0.012886706739664078 0.001567275729030371 -0.009882207959890366 0.006953866686671972 0.000160381823661737 -0.027458025142550468 0.014019011519849300 0.017400002107024193 -0.017197500914335251 -0.003660988295450807 0.009438706561923027 0.018601333722472191 -0.009662027470767498 -0.015261624939739704 -0.004439384210854769 -0.017461119219660759 0.015408502891659737 0.024033267050981522 -0.020641047507524490 -0.004735729191452265 -0.005089058540761471 0.015330015681684017 -0.007613463792949915 -0.012762820348143578 -0.011145937256515026 0.002300279447808862
