#Layer 7 Biases:
0.001812697504647076 0.006867967080324888 0.006693256553262472 -0.022007556632161140 -0.025756055489182472 -0.005033528432250023 0.006699610501527786 0.006189143750816584 0.008297291584312916 -0.003791498951613903 -0.011255228891968727 0.006442602258175611 -0.009109448641538620 -0.003538179676979780 0.000952640664763749 0.008600848726928234 0.007892363704741001 -0.000662894221022725 -0.000043432955862954 -0.002109852386638522 -0.002298480831086636 0.004030763637274504 -0.033279679715633392 0.002873645862564445 0.000781473587267101 0.017719043418765068 0.000608240079600364 0.000770778162404895 0.007057051640003920 -0.014866888523101807 -0.000791524129454046 0.009341511875391006 0.005938093643635511 -0.031974870711565018 0.005227433517575264 0.004796404857188463 -0.000496230844873935 0.000258852553088218 -0.004883725661784410 0.004409184213727713 -0.004262590780854225 0.011548426933586597 -0.025582879781723022 -0.002901166444644332 0.001078154891729355 0.002887402661144733 0.001150922616943717 0.000549018790479749 0.001919776550494134 -0.003037320449948311 -0.015252780169248581 -0.004766909871250391 -0.010957155376672745 0.003303132951259613 -0.007374506909400225 0.000491196871735156 0.008461417630314827 -0.005129217170178890 0.001149222254753113 0.026824671775102615 0.031997643411159515 -0.008147758431732655 0.002032607095316052 0.000195508968317881 -0.009395031258463860 0.002600193722173572 0.006756110116839409 0.000650403555482626 -0.004055195022374392 -0.008968601934611797 0.018333381041884422 -0.005088934209197760 -0.000735186098609120 0.011446848511695862 -0.017783224582672119 0.010125136002898216 0.003492450108751655 0.016439041122794151 -0.005502608604729176 -0.000354047078872100 -0.009769506752490997 -0.003352111903950572 0.003580195130780339 0.004867928102612495 0.004009213298559189 -0.009144377894699574 -0.002300105057656765 -0.016768097877502441 -0.004994149319827557 -0.000193861342268065 0.004563084337860346 -0.001405137474648654 -0.004787878599017859 0.009648964740335941 -0.002187157049775124 -0.000146813952596858 0.006078325212001801 0.004520787391811609 -0.003118985565379262 0.012101832777261734
