#Layer 2 Biases:
0.002291596028953791 0.026634475216269493 -0.028395848348736763 -0.016880055889487267 -0.051092050969600677 0.079922839999198914 -0.092326685786247253 0.017186475917696953 0.088766880333423615 -0.083070129156112671 0.010612559504806995 -0.020304800942540169 -0.017390191555023193 -0.002210519742220640 -0.041982479393482208 0.080433636903762817 -0.028631255030632019 0.004950236063450575 -0.050604823976755142 -0.016345474869012833 -0.033700279891490936 -0.019889516755938530 -0.060359068214893341 0.017152970656752586 -0.053563557565212250 0.025805190205574036 -0.026798207312822342 0.012987941503524780 -0.023174347355961800 -0.054353013634681702 -0.007287870161235332 0.022099690511822701 -0.008494065143167973 0.069972485303878784 -0.022653179243206978 0.008509894832968712 -0.053191963583230972 -0.067981019616127014 0.033435270190238953 -0.053631324321031570 -0.017857877537608147 -0.015676280483603477 -0.006890567485243082 -0.019638517871499062 -0.063982479274272919 -0.027858236804604530 0.046019874513149261 0.040882352739572525 -0.013620600104331970 -0.022080516442656517 0.043391186743974686 0.042664840817451477 -0.014754814095795155 -0.002827998949214816 0.018790494650602341 -0.014584216289222240 0.005072811152786016 -0.031543847173452377 0.021275112405419350 -0.064034655690193176 0.033770255744457245 0.000961859361268580 -0.035386253148317337 -0.012353564612567425 -0.008087134920060635 -0.003681924426928163 0.044733490794897079 -0.035864122211933136 -0.023532751947641373 0.030629631131887436 -0.082683883607387543 0.029656693339347839 -0.015552642755210400 0.024327119812369347 0.019015073776245117 -0.052203886210918427 0.024782683700323105 0.022130500525236130 -0.068087086081504822 0.017501426860690117 0.007671569939702749 0.050325084477663040 0.013797882013022900 0.041468445211648941 0.046711996197700500 0.071589969098567963 -0.004714429378509521 -0.012888993136584759 0.017005231231451035 0.026206266134977341 -0.010121223516762257 -0.067222900688648224 -0.025160575285553932 -0.008514792658388615 -0.013213657774031162 0.005052496679127216 -0.000303301494568586 0.014991283416748047 0.021396031603217125 -0.008054251782596111
