#Layer 1 Biases:
-0.075430259108543396 -0.020851764827966690 0.025077603757381439 -0.073201656341552734 -0.055706568062305450 -0.033943329006433487 0.006073006894439459 -0.035321004688739777 -0.080496400594711304 0.094606205821037292 0.007356357760727406 0.005678026471287012 0.051238540560007095 0.012453411705791950 -0.010381128638982773 0.008374432101845741 -0.035516694188117981 -0.036984350532293320 0.004588874056935310 0.054971519857645035 -0.020352095365524292 -0.014588746242225170 0.057071998715400696 0.015281176194548607 -0.064315967261791229 0.033329971134662628 0.034593380987644196 0.044471744447946548 0.043011348694562912 0.046850722283124924 0.046292640268802643 -0.057869672775268555 0.046396587044000626 -0.010953065939247608 0.019504835829138756 -0.003835422452539206 0.035434454679489136 -0.049242954701185226 -0.020924540236592293 0.010665262117981911 0.029750803485512733 -0.049221120774745941 0.023293979465961456 0.058469351381063461 0.022209024056792259 0.008657391183078289 -0.024710215628147125 0.020834663882851601 -0.031803093850612640 0.034339293837547302 -0.062453892081975937 -0.036946780979633331 0.003539635566994548 -0.041379455476999283 0.018901929259300232 0.027989033609628677 0.062545187771320343 0.018526745960116386 0.030487995594739914 -0.022449854761362076 -0.058198902755975723 0.048998199403285980 0.055878896266222000 -0.054695762693881989 0.008598241023719311 -0.008206566795706749 -0.067854627966880798 -0.007441274821758270 -0.046907525509595871 -0.075774118304252625 0.013615288771688938 -0.012690505944192410 -0.050270106643438339 0.055205121636390686 -0.027279857546091080 0.016089204698801041 -0.029810663312673569 -0.065495982766151428 0.099076688289642334 0.062177784740924835 0.047147579491138458 -0.035952873528003693 -0.044914994388818741 0.024096094071865082 -0.047150220721960068 0.024178272113204002 0.029910676181316376 0.036278717219829559 0.029436780139803886 0.051211088895797729 0.001077131717465818 0.009158293716609478 -0.065949261188507080 0.042207583785057068 0.050271134823560715 -0.018806349486112595 0.019929852336645126 0.047418382018804550 -0.041692733764648438 0.065474033355712891
