#Layer 3 Biases:
-0.013636132702231407 -0.002086974913254380 0.032000169157981873 0.004677518270909786 0.118293784558773041 -0.015630004927515984 0.009440468624234200 -0.046942070126533508 0.023828553035855293 0.049460373818874359 0.003035105532035232 -0.036825489252805710 -0.020703293383121490 -0.028453506529331207 0.025196772068738937 -0.019160939380526543 0.021980015560984612 0.022802514955401421 0.048749458044767380 -0.033589545637369156 0.049461085349321365 -0.001177131314761937 0.001300748786889017 0.029710605740547180 -0.012276624329388142 0.004596231505274773 -0.015322120860219002 -0.004189338069409132 -0.031213231384754181 0.011355011723935604 -0.016723781824111938 -0.013849785551428795 -0.022039830684661865 0.015510022640228271 -0.083978094160556793 0.002674064366146922 0.023572415113449097 0.018455900251865387 0.045817747712135315 0.004129480104893446 0.001327622099779546 0.085270769894123077 -0.027412204071879387 0.046454764902591705 -0.034643955528736115 0.048930089920759201 -0.029259197413921356 -0.006142213009297848 0.009011778049170971 0.014763625338673592 0.021994983777403831 -0.009239289909601212 0.030703000724315643 0.006335549056529999 -0.013808214105665684 0.032024532556533813 -0.016762495040893555 0.042611718177795410 -0.044873993843793869 0.012285750359296799 -0.032934475690126419 -0.024172114208340645 0.008193025365471840 -0.006314491387456656 0.004195468500256538 -0.008673735894262791 0.028827425092458725 -0.016080027446150780 0.020745746791362762 -0.031659130007028580 0.008590839803218842 -0.016933929175138474 0.057502329349517822 -0.017981067299842834 0.003778548212721944 -0.009413585066795349 -0.027965027838945389 0.005352131556719542 -0.021441534161567688 -0.020025135949254036 0.021333033218979836 -0.042491175234317780 0.018114848062396049 -0.035551276057958603 -0.035098101943731308 -0.004604950547218323 -0.025435212999582291 0.003929811529815197 -0.054696645587682724 -0.066971831023693085 0.003469438524916768 0.037561893463134766 -0.049295164644718170 0.009281639009714127 -0.003226298373192549 -0.009148118086159229 0.027614569291472435 -0.009914836846292019 -0.010698461905121803 -0.031263761222362518
