#Layer 0 Biases:
-0.036021422594785690 -0.041466403752565384 0.092383958399295807 0.039993084967136383 -0.024661140516400337 0.033999770879745483 0.042591303586959839 0.042859919369220734 -0.054722562432289124 0.047324102371931076 -0.019888907670974731 0.067614383995532990 0.056058924645185471 -0.055220138281583786 0.041533708572387695 -0.002739881398156285 0.072959601879119873 0.025719767436385155 -0.042973250150680542 -0.045858930796384811 0.048350654542446136 0.043348453938961029 0.032743975520133972 -0.039623018354177475 -0.013922055251896381 0.026907177641987801 0.067831717431545258 -0.031764075160026550 0.042009282857179642 0.002183117670938373 -0.064447037875652313 0.012230552732944489 0.038660317659378052 -0.007592401932924986 0.004657910205423832 0.022691117599606514 -0.000716584967449307 -0.054599002003669739 0.056843459606170654 0.035427551716566086 0.042081166058778763 0.013158149085938931 -0.048881489783525467 0.059530694037675858 -0.049891307950019836 -0.050052911043167114 0.044640783220529556 -0.064911454916000366 0.060513284057378769 -0.073579981923103333 -0.065905444324016571 0.109017550945281982 -0.061314504593610764 -0.067240133881568909 -0.079187221825122833 -0.075672969222068787 0.010566972196102142 0.017576986923813820 0.026882058009505272 0.065958067774772644 0.052072901278734207 0.040341958403587341 -0.001543817226774991 0.065061122179031372 -0.000664057384710759 -0.105743020772933960 0.069213882088661194 0.033950626850128174 0.075844869017601013 -0.085342235863208771 0.104346178472042084 -0.042185507714748383 0.052834972739219666 -0.016828399151563644 -0.014582776464521885 -0.092673748731613159 0.043749801814556122 0.054122243076562881 0.038372062146663666 0.003828224726021290 -0.057379346340894699 -0.130453810095787048 0.106157690286636353 -0.003550396766513586 0.044706139713525772 0.031960319727659225 0.047138351947069168 -0.057521045207977295 -0.066495604813098907 -0.094575129449367523 0.067354321479797363 0.114726036787033081 0.000857739069033414 -0.059731569141149521 -0.041287660598754883 -0.086537718772888184 0.057121444493532181 0.095088005065917969 -0.044318109750747681 0.001587113714776933
