#Layer 4 Weights:
0.094248197972774506 0.040365304797887802 -0.125723600387573242 0.005999704822897911 0.150003731250762939 0.051411695778369904 -0.134615391492843628 -0.097067296504974365 0.037632476538419724 -0.001318927854299545 -0.006405028980225325 -0.096576780080795288 -0.112351894378662109 0.061804305762052536 -0.046165075153112411 -0.036171201616525650 -0.154499754309654236 0.126716211438179016 0.102280616760253906 0.093028202652931213 -0.102738067507743835 -0.024728899821639061 0.015925405547022820 0.103618480265140533 0.055917333811521530 -0.155759155750274658 -0.151950001716613770 -0.030301094055175781 -0.150498360395431519 0.162490546703338623 0.113228775560855865 -0.081656426191329956 -0.074608623981475830 0.038307029753923416 -0.162207514047622681 -0.116401374340057373 0.079672493040561676 0.079557031393051147 -0.074165508151054382 -0.060272738337516785 -0.173449173569679260 0.012812213972210884 0.120854370296001434 -0.195592522621154785 0.150638654828071594 0.031625509262084961 -0.047307834029197693 0.107970885932445526 -0.080651894211769104 0.150189027190208435 0.148005038499832153 -0.135085999965667725 0.154445707798004150 0.123463749885559082 0.112377762794494629 0.069699898362159729 -0.192847043275833130 0.115392163395881653 -0.095587782561779022 0.002384850755333900 0.104926273226737976 -0.147395715117454529 0.068036295473575592 -0.109180629253387451 -0.007998079992830753 -0.096857979893684387 -0.120652884244918823 0.131340160965919495 -0.121954753994941711 0.053682364523410797 -0.140295803546905518 -0.040911957621574402 -0.127391830086708069 -0.033391594886779785 0.154076442122459412 -0.089417085051536560 -0.162795603275299072 -0.036553617566823959 0.004976226948201656 -0.175899907946586609 0.144616186618804932 0.080984733998775482 -0.100932367146015167 -0.094374194741249084 -0.091102980077266693 -0.103393718600273132 -0.150609806180000305 0.149907737970352173 0.050285421311855316 0.130343407392501831 -0.153846174478530884 -0.082016080617904663 0.010597321204841137 -0.132381990551948547 0.060547046363353729 0.116127774119377136 -0.143998637795448303 -0.162411078810691833 0.107080675661563873 0.005040016956627369
0.105354122817516327 -0.043217718601226807 -0.085276685655117035 -0.085346452891826630 0.212851241230964661 0.140561103820800781 -0.001267882296815515 0.099767066538333893 -0.041289370507001877 0.147703871130943298 -0.122729741036891937 0.000528515840414912 0.049354042857885361 -0.024431101977825165 -0.050553701817989349 0.024208202958106995 0.035252433270215988 -0.091466225683689117 -0.018013471737504005 -0.095675006508827209 0.147956535220146179 0.059694174677133560 0.042000386863946915 -0.004191927611827850 -0.147901415824890137 -0.110661230981349945 -0.029970493167638779 0.075294069945812225 0.033516973257064819 -0.136823892593383789 -0.128780722618103027 0.086906850337982178 0.069342106580734253 -0.044390808790922165 -0.117200993001461029 0.135402753949165344 -0.096973419189453125 0.148514106869697571 0.027662577107548714 0.119454525411128998 -0.184718295931816101 0.158866897225379944 0.143899023532867432 0.043799486011266708 0.103764727711677551 0.023129791021347046 0.013771902769804001 0.127339988946914673 0.160528481006622314 0.030918514356017113 -0.046914301812648773 0.025747243314981461 0.077639281749725342 0.105694741010665894 0.075429528951644897 -0.051918331533670425 0.000720599608030170 0.110928423702716827 -0.170415386557579041 -0.151986747980117798 -0.147379711270332336 0.169797182083129883 -0.126413121819496155 -0.030961599200963974 0.082229331135749817 0.133759319782257080 -0.120617821812629700 -0.162558212876319885 -0.086789518594741821 0.025703364983201027 -0.013184543699026108 0.076588861644268036 0.068303354084491730 -0.045289497822523117 0.080081760883331299 0.168732449412345886 -0.105831176042556763 0.002033985452726483 -0.239043578505516052 0.095321848988533020 -0.096939459443092346 0.169029250741004944 -0.050591289997100830 0.054703623056411743 0.070079840719699860 -0.186818644404411316 0.003206015098839998 -0.003861162345856428 0.315645605325698853 0.047948539257049561 -0.022521024569869041 -0.135406345129013062 -0.040485233068466187 -0.160585835576057434 -0.010899292305111885 0.046513237059116364 0.138317495584487915 -0.031796012073755264 0.080313779413700104 -0.009678653441369534
-0.078962042927742004 -0.120307512581348419 0.018664266914129257 -0.029866529628634453 -0.168107613921165466 -0.192118570208549500 -0.148114800453186035 0.036686636507511139 -0.067363224923610687 -0.084106713533401489 0.126300573348999023 0.125419154763221741 -0.044535163789987564 0.106914564967155457 -0.161809071898460388 -0.013307756744325161 0.077420346438884735 -0.001703409128822386 0.032710429280996323 0.096311844885349274 0.088178418576717377 0.113807186484336853 0.139402821660041809 0.007800598163157701 -0.073555618524551392 0.058807071298360825 0.018434232100844383 0.127957016229629517 0.074165597558021545 0.120566792786121368 0.054286297410726547 0.090886667370796204 0.079036623239517212 0.046164430677890778 0.114927046000957489 -0.094498172402381897 -0.097665846347808838 0.000342001818353310 0.158383503556251526 0.072907090187072754 0.089767970144748688 0.154353767633438110 -0.105722688138484955 0.073690176010131836 -0.043093059211969376 0.067073434591293335 0.152249529957771301 0.099153541028499603 0.003198970109224319 -0.137637466192245483 -0.028785347938537598 -0.195681825280189514 -0.151078447699546814 0.100986942648887634 0.060239147394895554 -0.112154044210910797 0.035749889910221100 0.065873801708221436 0.064782693982124329 -0.080443829298019409 0.171930879354476929 -0.125234872102737427 0.032659862190485001 -0.140837386250495911 -0.007320749573409557 -0.012010641396045685 0.056441254913806915 0.169369354844093323 0.105394266545772552 -0.001860154327005148 0.167142555117607117 -0.176002234220504761 -0.010177145712077618 -0.068935848772525787 0.095855288207530975 -0.061254281550645828 -0.113119609653949738 0.032183304429054260 0.205217450857162476 0.028023071587085724 0.110662423074245453 0.070386365056037903 -0.144575670361518860 -0.152592092752456665 0.102284394204616547 -0.118514664471149445 0.157377958297729492 0.090121969580650330 0.254017174243927002 -0.056679207831621170 -0.058069091290235519 -0.023974046111106873 0.117758914828300476 -0.072461605072021484 0.175445586442947388 0.111862756311893463 -0.091413930058479309 0.103853605687618256 -0.026626424863934517 -0.150514304637908936
-0.049033340066671371 0.047206155955791473 -0.090176843106746674 0.094967171549797058 0.077951133251190186 -0.088487491011619568 0.100877091288566589 0.067139804363250732 -0.012249068357050419 -0.076712846755981445 0.105438850820064545 -0.020878551527857780 0.027242692187428474 0.068315289914608002 -0.048446241766214371 -0.086509622633457184 0.077768482267856598 -0.040057066828012466 -0.037216700613498688 -0.120079241693019867 0.045992609113454819 0.073990225791931152 0.148071080446243286 -0.032052516937255859 0.047793019562959671 0.093397393822669983 -0.026919303461909294 -0.100864455103874207 0.176530808210372925 0.172204434871673584 -0.044889464974403381 0.022730328142642975 -0.040789954364299774 0.116455361247062683 0.128481388092041016 0.122233919799327850 -0.012669267132878304 -0.030671788379549980 -0.026261391118168831 -0.171360686421394348 -0.032043915241956711 0.083278037607669830 -0.123128511011600494 -0.026328746229410172 0.083930000662803650 0.163431718945503235 -0.046560123562812805 -0.001522862236015499 -0.148886457085609436 -0.086379408836364746 -0.130246967077255249 0.011196661740541458 -0.043346382677555084 -0.067242331802845001 0.106509298086166382 -0.200450778007507324 -0.045865923166275024 -0.159917786717414856 0.054701130837202072 0.004440580494701862 0.007752655074000359 -0.139227524399757385 -0.005397237837314606 -0.011957110837101936 0.093403793871402740 -0.174466118216514587 -0.184652909636497498 0.091572694480419159 -0.067812725901603699 -0.139677047729492188 0.101586744189262390 -0.012664737179875374 -0.107513457536697388 0.120182529091835022 0.079762831330299377 -0.159424185752868652 0.048069849610328674 -0.063805274665355682 0.131233170628547668 -0.064485795795917511 0.123175062239170074 -0.160490602254867554 0.150975182652473450 -0.061579182744026184 -0.056603979319334030 0.063845016062259674 0.082165218889713287 0.101914502680301666 0.002941641025245190 -0.054169144481420517 0.076703697443008423 -0.010768821462988853 -0.112330205738544464 -0.264023125171661377 0.121833600103855133 0.104934886097908020 -0.016722282394766808 -0.084060586988925934 0.023334041237831116 0.154866829514503479
-0.136221066117286682 0.179208010435104370 -0.132745191454887390 -0.000914618140086532 -0.113586805760860443 -0.039417412132024765 0.061183802783489227 0.068437330424785614 0.105219945311546326 -0.008440006524324417 0.039497818797826767 -0.022264910861849785 -0.102501757442951202 0.152691036462783813 -0.340615183115005493 -0.166071757674217224 0.070070929825305939 0.064334221184253693 -0.062406156212091446 -0.001058394787833095 0.147269338369369507 -0.028991637751460075 0.007786855101585388 0.122388303279876709 0.103743389248847961 -0.061587758362293243 -0.082320913672447205 0.051745872944593430 0.135481804609298706 0.044175524264574051 -0.049842808395624161 0.084913037717342377 -0.140931472182273865 -0.133274540305137634 0.249412015080451965 0.130495354533195496 0.107679344713687897 0.072851307690143585 0.033769670873880386 -0.018590074032545090 0.173751652240753174 -0.159717336297035217 0.011445675045251846 0.064576171338558197 -0.101826198399066925 -0.076916791498661041 0.003644351381808519 -0.126753687858581543 0.112614370882511139 0.032681897282600403 0.134800955653190613 0.037081073969602585 -0.080230854451656342 -0.156290695071220398 0.060313042253255844 0.031469725072383881 -0.158001303672790527 0.094055674970149994 -0.085404954850673676 -0.014418834820389748 0.156483381986618042 0.118342868983745575 0.139365389943122864 0.036576602607965469 -0.036109820008277893 -0.107482761144638062 -0.061948046088218689 0.003568355925381184 -0.019187308847904205 -0.059037994593381882 0.135689362883567810 0.080970652401447296 -0.085484959185123444 0.150865331292152405 -0.016685096547007561 0.122672639787197113 0.098022341728210449 -0.035489868372678757 0.141845881938934326 0.200907126069068909 -0.024718998000025749 -0.027077369391918182 -0.078514456748962402 0.092896565794944763 -0.022330520674586296 -0.184724122285842896 -0.055037774145603180 -0.045043420046567917 0.188034266233444214 0.044373519718647003 -0.197992414236068726 -0.090205773711204529 0.157511964440345764 -0.236154794692993164 0.182404190301895142 0.196516498923301697 -0.134930744767189026 -0.114109776914119720 -0.066284172236919403 0.013962350785732269
-0.068990670144557953 0.044047202914953232 0.125067487359046936 -0.074959836900234222 0.101965993642807007 -0.108252622187137604 0.134474247694015503 -0.106495305895805359 -0.159426823258399963 -0.096685081720352173 -0.159247025847434998 -0.131483837962150574 -0.155002817511558533 -0.074833706021308899 0.180335372686386108 -0.064262017607688904 -0.064685732126235962 -0.137927278876304626 0.167358770966529846 0.043947227299213409 -0.135340541601181030 0.110273025929927826 -0.052481774240732193 -0.081688791513442993 -0.143349945545196533 0.098031125962734222 -0.023624220862984657 -0.058366585522890091 0.018990552052855492 -0.075848519802093506 -0.065337568521499634 0.086647562682628632 0.071514621376991272 0.156101748347282410 -0.002535472856834531 -0.072406709194183350 -0.029090624302625656 -0.055603720247745514 0.153410032391548157 0.058117888867855072 -0.147883534431457520 0.009180947206914425 -0.112680353224277496 0.107488617300987244 -0.090090729296207428 -0.049283985048532486 0.101579010486602783 0.103732489049434662 -0.164764553308486938 -0.190549090504646301 -0.072607979178428650 -0.140766143798828125 -0.049748454242944717 -0.029655510559678078 0.072571799159049988 0.009400251321494579 0.033187337219715118 0.146763384342193604 -0.065863452851772308 0.023100089281797409 -0.031085532158613205 0.112737126648426056 0.161371409893035889 -0.103171266615390778 0.024444667622447014 -0.125773012638092041 -0.046229097992181778 -0.060962010174989700 0.099870920181274414 -0.036002751439809799 0.091239631175994873 -0.004890969954431057 0.088869854807853699 -0.027522718533873558 0.094684764742851257 0.138964727520942688 0.068636380136013031 -0.071668893098831177 0.083482548594474792 0.180757805705070496 0.073830693960189819 -0.042813882231712341 0.141553729772567749 -0.048594564199447632 -0.025939259678125381 0.110406927764415741 -0.130757868289947510 -0.092103943228721619 -0.080054551362991333 -0.092429377138614655 -0.227816581726074219 0.112293437123298645 -0.150679931044578552 -0.324441611766815186 -0.092311434447765350 0.160016998648643494 0.123470596969127655 0.035530738532543182 -0.026803487911820412 -0.035559434443712234
0.103400081396102905 0.017635889351367950 -0.022927192971110344 0.038902334868907928 -0.157765105366706848 0.017444025725126266 0.093383036553859711 0.198552921414375305 -0.121006138622760773 0.040912192314863205 0.123586438596248627 0.127686053514480591 0.101177081465721130 0.124791242182254791 -0.189814731478691101 -0.143445849418640137 0.119807861745357513 0.132139593362808228 0.047805629670619965 0.148356810212135315 -0.132355406880378723 0.185469612479209900 -0.155408695340156555 -0.147164359688758850 0.045970626175403595 -0.130817890167236328 0.045430053025484085 0.116322591900825500 -0.162858128547668457 -0.118497721850872040 -0.026762828230857849 -0.111044615507125854 -0.153666615486145020 -0.092749655246734619 0.153141543269157410 -0.069941096007823944 -0.056099090725183487 0.062052324414253235 -0.093556784093379974 -0.158504158258438110 -0.069823980331420898 0.068849973380565643 0.089297227561473846 0.027098450809717178 -0.093351662158966064 -0.000135249894810840 -0.066646434366703033 0.069187268614768982 -0.132093667984008789 0.099728345870971680 -0.035028778016567230 -0.148767560720443726 0.130339354276657104 0.086338520050048828 0.116700090467929840 0.030019165948033333 -0.145780980587005615 -0.097973674535751343 0.127744212746620178 -0.103504173457622528 0.150604531168937683 0.140048325061798096 0.000083079787145834 -0.149834886193275452 -0.167204514145851135 0.101338908076286316 -0.036932256072759628 0.104123987257480621 0.080020427703857422 0.039554867893457413 -0.070325501263141632 0.170135915279388428 -0.042066104710102081 0.127029880881309509 -0.152496010065078735 -0.113759391009807587 -0.071400180459022522 0.024654796347022057 -0.142997831106185913 -0.000917992379982024 -0.085299044847488403 -0.084925055503845215 -0.143414214253425598 -0.063194550573825836 0.104451723396778107 -0.111835770308971405 -0.022275045514106750 -0.114340588450431824 0.225143149495124817 -0.054818041622638702 -0.127728924155235291 -0.158265590667724609 0.124945737421512604 -0.856484413146972656 -0.126437082886695862 0.040763884782791138 -0.155525967478752136 0.107230640947818756 0.003298060735687613 0.047996528446674347
-0.059185750782489777 -0.092721395194530487 0.035270858556032181 -0.029442131519317627 0.004998844116926193 0.028682801872491837 0.097975529730319977 0.045297250151634216 -0.160359025001525879 -0.083905637264251709 0.146768882870674133 -0.106267690658569336 -0.173574104905128479 0.146362543106079102 0.123560056090354919 -0.153276413679122925 0.122201927006244659 -0.038012575358152390 0.036148924380540848 0.113578423857688904 0.043803483247756958 0.059974163770675659 -0.150023311376571655 -0.120678670704364777 -0.123255021870136261 -0.090470589697360992 0.155815705657005310 -0.038553588092327118 -0.147773623466491699 -0.191609278321266174 -0.153471812605857849 0.111209213733673096 -0.074955053627490997 0.124881543219089508 0.019465718418359756 -0.016434002667665482 -0.119923308491706848 0.133001536130905151 0.059029426425695419 -0.109040215611457825 -0.104092255234718323 -0.006182219833135605 0.052629336714744568 0.102252714335918427 -0.067457705736160278 0.056535806506872177 0.169203147292137146 0.066647596657276154 0.023512862622737885 -0.090636797249317169 0.141029760241508484 0.000692943925969303 0.033224999904632568 -0.172807544469833374 0.007197915576398373 0.012538971379399300 0.097869463264942169 0.092491157352924347 0.196974754333496094 -0.097336210310459137 -0.123042874038219452 0.047223303467035294 0.084905415773391724 -0.122842192649841309 0.170752018690109253 0.078299231827259064 0.191216751933097839 0.114422120153903961 0.148735463619232178 0.163873896002769470 -0.168109089136123657 0.072644256055355072 -0.059971410781145096 0.114649519324302673 -0.085828065872192383 0.134975001215934753 -0.007114561740309000 -0.086176075041294098 0.112182125449180603 -0.137066796422004700 0.032335568219423294 -0.060328371822834015 0.052519842982292175 0.032396178692579269 -0.070350788533687592 0.169647186994552612 -0.062961556017398834 0.095800146460533142 -0.141348078846931458 0.037864346057176590 0.376518636941909790 0.141504094004631042 -0.005424521397799253 0.591107070446014404 -0.031904064118862152 -0.069199301302433014 0.042257968336343765 0.074439726769924164 0.076573230326175690 0.047452304512262344
0.092438802123069763 -0.048353761434555054 0.130471304059028625 -0.001448927563615143 0.055577952414751053 -0.169673785567283630 -0.005429734475910664 0.131257161498069763 0.098759844899177551 0.079074896872043610 -0.156418561935424805 -0.071161329746246338 -0.114377908408641815 -0.127419665455818176 -0.069557309150695801 0.023588119074702263 0.135633751749992371 0.126144200563430786 0.200636968016624451 0.024628782644867897 -0.103984132409095764 -0.081591151654720306 -0.122852228581905365 -0.087631322443485260 0.208837747573852539 0.071131736040115356 -0.039997812360525131 -0.146793603897094727 -0.036358956247568130 -0.081587441265583038 -0.092293277382850647 0.017596779391169548 -0.015581240877509117 -0.158182263374328613 -0.174897804856300354 -0.147741645574569702 0.084160409867763519 -0.071015067398548126 0.083963282406330109 0.140216231346130371 -0.130217343568801880 0.018923103809356689 0.089421711862087250 0.071213096380233765 0.131476730108261108 0.016022641211748123 0.155932486057281494 -0.183232814073562622 0.184392586350440979 -0.079961441457271576 0.083742029964923859 0.007051851600408554 0.023198544979095459 0.101357117295265198 -0.096498712897300720 -0.009782940149307251 -0.079802721738815308 -0.074479117989540100 -0.154547899961471558 0.042171966284513474 -0.074519209563732147 0.053080860525369644 0.039365265518426895 -0.111179530620574951 -0.128381133079528809 -0.136970698833465576 -0.099993713200092316 -0.055398296564817429 0.077196583151817322 0.142941772937774658 -0.113726787269115448 -0.175476193428039551 0.095949642360210419 -0.032205931842327118 -0.100733578205108643 -0.046385753899812698 0.088725030422210693 -0.069710381329059601 0.015012457966804504 -0.022449925541877747 0.088439509272575378 -0.131123721599578857 -0.035057831555604935 -0.156096488237380981 0.096097148954868317 -0.087314471602439880 -0.104825109243392944 -0.120495811104774475 -0.187496051192283630 -0.169579640030860901 -0.032363064587116241 -0.086470477283000946 0.076820991933345795 -0.031087240204215050 0.162738174200057983 -0.041767552495002747 0.060135032981634140 0.084644801914691925 0.132991060614585876 -0.076751440763473511
0.131018474698066711 -0.037747718393802643 -0.077984914183616638 -0.137527063488960266 -0.104734383523464203 -0.130001261830329895 -0.136406436562538147 0.012656621634960175 0.123784288763999939 0.128394961357116699 -0.062275234609842300 0.091528274118900299 -0.133622720837593079 -0.120092086493968964 -0.073053188621997833 0.120887517929077148 -0.100508026778697968 -0.071772813796997070 -0.067204527556896210 0.046196211129426956 0.017323438078165054 -0.152976408600807190 -0.130956038832664490 -0.127140700817108154 -0.163227945566177368 0.131021544337272644 0.024553339928388596 0.063347578048706055 0.081200249493122101 -0.111805930733680725 -0.038363315165042877 -0.135125786066055298 0.171310588717460632 0.161989971995353699 0.153601780533790588 -0.124669700860977173 0.066707953810691833 -0.068655297160148621 -0.062029078602790833 -0.136283129453659058 0.034426357597112656 -0.057026810944080353 -0.070861764252185822 -0.007068168837577105 0.184173882007598877 -0.041380319744348526 -0.046905733644962311 0.119961440563201904 -0.083391271531581879 -0.128135934472084045 -0.054523028433322906 -0.122785829007625580 0.038576908409595490 -0.107079878449440002 0.018485901877284050 -0.011510533280670643 -0.080434910953044891 -0.102615445852279663 0.014968244358897209 -0.058315206319093704 0.056578684598207474 0.175891220569610596 -0.097413301467895508 -0.082716457545757294 -0.131782814860343933 0.132460147142410278 -0.134318500757217407 0.172312393784523010 -0.009149470366537571 0.127356886863708496 0.168159425258636475 -0.154804199934005737 -0.024243913590908051 -0.150054752826690674 -0.066866509616374969 -0.179903477430343628 -0.038531333208084106 -0.050665672868490219 0.204185038805007935 -0.124771952629089355 0.093661695718765259 0.018022716045379639 -0.136771664023399353 0.138702645897865295 -0.046368479728698730 0.068321958184242249 0.175119489431381226 0.100754797458648682 0.114990621805191040 0.160283714532852173 -0.209675639867782593 -0.066554926335811615 0.007723104208707809 -0.120002560317516327 0.076585583388805389 0.035751439630985260 0.062814325094223022 0.158030673861503601 0.135941848158836365 -0.150521099567413330
0.184560656547546387 -0.094855085015296936 0.044801972806453705 -0.135744631290435791 -0.213961660861968994 0.065728046000003815 -0.016966329887509346 0.099910788238048553 0.053701531141996384 0.090502560138702393 0.054657507687807083 -0.095019057393074036 -0.123441025614738464 0.048641551285982132 0.172940820455551147 -0.123599708080291748 -0.044433202594518661 0.066250205039978027 -0.087747439742088318 0.076540827751159668 0.031191330403089523 -0.011699174530804157 -0.104641586542129517 0.017321605235338211 -0.069512404501438141 -0.158011630177497864 -0.047840550541877747 0.077576577663421631 0.004489189013838768 -0.132382541894912720 -0.118219017982482910 -0.186565622687339783 -0.136170059442520142 0.112937785685062408 -0.148853167891502380 0.118224769830703735 0.168952390551567078 0.119514361023902893 0.087494388222694397 0.091860249638557434 -0.080625027418136597 0.031916655600070953 -0.115303471684455872 -0.191284030675888062 0.063860237598419189 -0.130534902215003967 -0.174552828073501587 0.037654086947441101 0.145579770207405090 -0.175595834851264954 -0.160095319151878357 -0.110089354217052460 -0.098781228065490723 -0.015174084343016148 -0.175171241164207458 0.061665706336498260 0.010417472571134567 -0.139470130205154419 0.179158642888069153 0.059674497693777084 -0.153692752122879028 -0.000293141318252310 0.092501401901245117 -0.159101739525794983 0.142446205019950867 -0.164016574621200562 -0.078253231942653656 0.090454503893852234 -0.186759456992149353 0.118601061403751373 0.162015631794929504 0.103975810110569000 -0.002359759528189898 -0.036277569830417633 0.082797542214393616 -0.179149895906448364 0.133401706814765930 -0.031134862452745438 0.103390790522098541 0.112151056528091431 -0.126575559377670288 0.106924958527088165 0.116424158215522766 0.024579253047704697 0.164313793182373047 0.024667965248227119 -0.118726648390293121 -0.080973707139492035 -0.484029263257980347 0.166221901774406433 0.050170175731182098 0.107473291456699371 -0.065162993967533112 0.017645068466663361 0.129339382052421570 0.029793806374073029 0.151391714811325073 -0.070535652339458466 -0.172331750392913818 -0.076169751584529877
-0.088265202939510345 -0.111143723130226135 -0.168739154934883118 -0.151905551552772522 -0.098025351762771606 0.027503777295351028 0.112338900566101074 -0.215712293982505798 -0.021036002784967422 0.094212390482425690 -0.164551287889480591 -0.039858665317296982 -0.024868518114089966 0.107435747981071472 -0.114542461931705475 -0.100349508225917816 -0.091541796922683716 0.068717926740646362 -0.025159988552331924 0.149836808443069458 -0.095488101243972778 0.083270691335201263 -0.041613064706325531 0.131116643548011780 -0.063469767570495605 0.115168742835521698 0.101113274693489075 -0.107616692781448364 0.034391470253467560 -0.064394824206829071 0.000689185399096459 0.097549051046371460 0.000357838172931224 -0.164456486701965332 0.004490246996283531 -0.131634160876274109 -0.096849896013736725 0.021488960832357407 -0.105234526097774506 0.041550841182470322 -0.119156815111637115 -0.158510699868202209 -0.103931337594985962 0.021269196644425392 -0.063911892473697662 0.171859949827194214 -0.090633876621723175 0.076982140541076660 -0.049042560160160065 -0.060168456286191940 0.050269760191440582 -0.167950004339218140 -0.109976150095462799 0.011321575380861759 -0.171664223074913025 0.139935776591300964 -0.007737777661532164 0.137948334217071533 0.131875708699226379 -0.141272947192192078 0.082682713866233826 -0.017077388241887093 0.162396088242530823 0.114160828292369843 0.155235067009925842 0.170871943235397339 0.178579628467559814 0.109706521034240723 0.117580644786357880 -0.003477439517155290 -0.027220770716667175 0.077999673783779144 -0.132560074329376221 0.123303808271884918 0.125682950019836426 -0.016334353014826775 0.059362206608057022 -0.142793789505958557 0.016270440071821213 0.029399061575531960 0.168282404541969299 0.137129768729209900 0.001379028544761240 0.021903939545154572 -0.165719166398048401 -0.126724347472190857 -0.145323544740676880 -0.112033329904079437 -0.313767522573471069 -0.067984558641910553 0.112598620355129242 0.125671207904815674 -0.065987654030323029 0.727518975734710693 -0.149708956480026245 0.021937577053904533 0.036698665469884872 0.040518309921026230 -0.169209986925125122 0.155146464705467224
0.130943059921264648 0.021407753229141235 0.153410911560058594 0.006618831772357225 -0.123950727283954620 -0.092081986367702484 -0.033370099961757660 -0.089817456901073456 0.122894316911697388 -0.103235751390457153 -0.090128414332866669 -0.115396112203598022 0.047793950885534286 -0.079243041574954987 -0.033486600965261459 0.057945966720581055 -0.017280012369155884 0.086598664522171021 -0.147722259163856506 -0.094704888761043549 0.006187519524246454 -0.005168640054762363 0.138049304485321045 0.194727435708045959 -0.098087884485721588 -0.075165651738643646 -0.162656396627426147 0.012917334213852882 0.095042459666728973 0.159744471311569214 0.079429589211940765 0.069128997623920441 0.081869691610336304 0.169902294874191284 -0.189482882618904114 -0.006196722388267517 -0.029852937906980515 -0.101932607591152191 0.109466895461082458 0.033285241574048996 -0.006622523535043001 -0.049250707030296326 -0.128174200654029846 0.129916280508041382 -0.055917486548423767 0.083225868642330170 -0.133734986186027527 0.048589792102575302 -0.146848008036613464 0.059305042028427124 0.175923109054565430 -0.049710314720869064 -0.034408789128065109 0.010425264947116375 0.210438162088394165 -0.222791060805320740 -0.081666924059391022 0.095940135419368744 0.098526686429977417 -0.008623369969427586 -0.054907850921154022 0.091890566051006317 0.155682206153869629 -0.157271653413772583 0.000900339859072119 0.067743301391601562 -0.104010120034217834 -0.109068043529987335 -0.171528786420822144 0.119716435670852661 -0.126426577568054199 0.211799412965774536 -0.164506122469902039 -0.011027072556316853 0.078850291669368744 -0.106548465788364410 -0.075431711971759796 0.038948904722929001 -0.062477737665176392 -0.133141726255416870 -0.016370814293622971 -0.141393378376960754 0.007799016311764717 0.034377887845039368 0.114593304693698883 -0.139782696962356567 0.117778331041336060 0.142573326826095581 0.031786423176527023 0.041257806122303009 0.076379835605621338 -0.091447919607162476 -0.103728190064430237 0.091689176857471466 0.115802556276321411 -0.120591841638088226 0.020282512530684471 -0.010059601627290249 -0.041809421032667160 0.082291007041931152
0.022027919068932533 0.094714954495429993 -0.056116662919521332 -0.138052180409431458 -0.068287245929241180 -0.147800832986831665 -0.133018955588340759 -0.137027531862258911 -0.052937310189008713 -0.006101130507886410 0.113563396036624908 0.126291245222091675 0.134424284100532532 0.180746749043464661 0.121213473379611969 -0.061772968620061874 -0.176520556211471558 0.141229093074798584 0.130329176783561707 0.099627077579498291 -0.140139937400817871 0.050264548510313034 -0.109978482127189636 -0.130317270755767822 -0.177266001701354980 0.126124769449234009 0.163669601082801819 -0.098347447812557220 0.077556140720844269 0.142504885792732239 0.003503160085529089 0.198861062526702881 -0.165977463126182556 -0.030369948595762253 -0.094238162040710449 0.074081629514694214 0.043402135372161865 -0.098795257508754730 0.105963326990604401 -0.117398031055927277 0.037711933255195618 0.136689707636833191 -0.137763127684593201 0.053554855287075043 -0.184810549020767212 0.107175014913082123 0.062633752822875977 -0.045891415327787399 -0.046115539968013763 -0.046594258397817612 0.027858346700668335 -0.135506629943847656 0.116577297449111938 0.033830747008323669 -0.167149111628532410 0.081965178251266479 -0.030590491369366646 -0.039705749601125717 0.086333014070987701 0.011389597319066525 0.071402691304683685 -0.132387101650238037 0.010330847464501858 0.039430979639291763 0.040503773838281631 -0.149026155471801758 0.164755284786224365 -0.089309833943843842 -0.034982729703187943 0.057980176061391830 0.146640628576278687 -0.055407248437404633 -0.186095923185348511 -0.104139089584350586 0.017113255336880684 -0.072512567043304443 0.076274156570434570 -0.095518209040164948 0.131243675947189331 -0.115235477685928345 0.169994831085205078 0.137814521789550781 0.055365826934576035 -0.108124993741512299 0.086732663214206696 -0.098816439509391785 -0.124375686049461365 -0.159260645508766174 -0.072885520756244659 0.074183836579322815 -0.120144285261631012 -0.184049651026725769 -0.054506931453943253 -0.025375984609127045 -0.082585580646991730 0.118522711098194122 -0.148011893033981323 0.157370373606681824 0.121495947241783142 0.033721070736646652
0.100992880761623383 -0.137290656566619873 0.006861950736492872 0.152080669999122620 0.107557520270347595 0.093634292483329773 -0.080010183155536652 0.155719622969627380 -0.129739582538604736 -0.105495445430278778 -0.062917709350585938 -0.093666031956672668 0.016114830970764160 0.057361420243978500 0.019387261942028999 -0.073971785604953766 -0.063741512596607208 0.071416296064853668 0.096764780580997467 -0.107327230274677277 -0.116162858903408051 -0.045044645667076111 0.089076146483421326 -0.022646432742476463 0.219739854335784912 0.113743260502815247 -0.047840997576713562 -0.057976894080638885 -0.156347125768661499 0.061163298785686493 0.094456695020198822 -0.053182657808065414 0.096637412905693054 0.131309404969215393 0.125761494040489197 -0.061631966382265091 -0.164149418473243713 -0.123952448368072510 -0.141884520649909973 -0.020476980134844780 0.182795971632003784 -0.129513069987297058 -0.061114940792322159 -0.075770586729049683 -0.046852990984916687 -0.036379501223564148 0.163588553667068481 -0.151636064052581787 -0.047038789838552475 0.156354874372482300 0.083668924868106842 0.078426830470561981 -0.036686483770608902 -0.039591651409864426 -0.119151555001735687 0.008959700353443623 0.159116119146347046 0.134839415550231934 -0.126819446682929993 0.016925543546676636 0.086839854717254639 0.091899298131465912 0.076008841395378113 0.012372907251119614 -0.071395576000213623 -0.047709073871374130 -0.174349129199981689 -0.146190777420997620 0.167370006442070007 0.071088485419750214 0.070781938731670380 -0.143730908632278442 -0.057808481156826019 0.140705287456512451 0.012333279475569725 -0.110547609627246857 -0.175489604473114014 -0.106634818017482758 0.167578846216201782 0.139943480491638184 0.046954736113548279 -0.077577859163284302 0.033617816865444183 -0.139086216688156128 0.125233307480812073 0.143614128232002258 0.104854874312877655 0.122586868703365326 0.293157786130905151 -0.092464022338390350 -0.169735163450241089 -0.026663867756724358 -0.023973926901817322 0.050699830055236816 0.012466521933674812 0.079816028475761414 -0.133445754647254944 -0.130799531936645508 -0.144556820392608643 0.047755766659975052
-0.113822989165782928 0.137456759810447693 -0.142448008060455322 -0.139451518654823303 0.142619177699089050 0.093233898282051086 -0.072813108563423157 -0.177803918719291687 0.094185143709182739 0.111989073455333710 -0.031580291688442230 0.080913893878459930 -0.191524416208267212 -0.036414775997400284 0.217518806457519531 -0.028214354068040848 -0.138215959072113037 -0.086447276175022125 -0.038895294070243835 -0.140988543629646301 0.172169834375381470 0.096369884908199310 -0.170299798250198364 -0.174346655607223511 0.003826736938208342 -0.160243913531303406 0.075893543660640717 -0.042376998811960220 0.059009548276662827 0.070526249706745148 0.029538810253143311 -0.012169714085757732 -0.039513900876045227 -0.000773097795899957 -0.008137163706123829 0.006517632864415646 -0.142102569341659546 0.134101107716560364 0.095503441989421844 -0.055752210319042206 0.065758928656578064 -0.020047962665557861 -0.000518998131155968 -0.091747164726257324 -0.116340704262256622 0.188826322555541992 -0.138204202055931091 -0.121281109750270844 -0.046964470297098160 0.164515495300292969 0.078726604580879211 -0.055597808212041855 0.165131300687789917 -0.121635057032108307 0.169049620628356934 0.138614088296890259 0.034287303686141968 0.010800312273204327 0.012240326032042503 0.159159019589424133 0.055713865906000137 -0.011337018571794033 0.132488667964935303 0.094911761581897736 0.146940842270851135 -0.121159970760345459 0.131823331117630005 -0.147794350981712341 0.045615430921316147 -0.103824838995933533 -0.099736139178276062 0.120379678905010223 0.114254139363765717 -0.094362132251262665 0.070060886442661285 -0.126792877912521362 0.043899498879909515 0.138912811875343323 -0.011238688603043556 0.029310271143913269 -0.097062610089778900 -0.171600177884101868 0.084781609475612640 0.023859493434429169 0.033735994249582291 0.131211251020431519 -0.103766001760959625 0.083578839898109436 -0.117566987872123718 -0.096779122948646545 0.200273960828781128 -0.090290792286396027 -0.120429508388042450 0.192448824644088745 -0.045451521873474121 -0.015629624947905540 -0.131579637527465820 0.031306266784667969 0.069732256233692169 0.022256076335906982
-0.021814621984958649 0.042276374995708466 0.070921622216701508 0.024210698902606964 0.031681649386882782 0.185655936598777771 0.090386934578418732 0.029454611241817474 0.161146134138107300 0.016543332487344742 0.174144998192787170 0.139860704541206360 0.084918111562728882 0.155932381749153137 -0.069225482642650604 -0.114275388419628143 0.036646492779254913 -0.069785639643669128 -0.096417464315891266 0.068940013647079468 -0.155654072761535645 0.065267927944660187 0.194567263126373291 -0.123027510941028595 -0.274852722883224487 -0.102463841438293457 -0.056746564805507660 0.002340200589969754 0.085419431328773499 -0.183264091610908508 -0.168936282396316528 0.008191012777388096 0.149354815483093262 0.205347001552581787 0.172236204147338867 0.144339069724082947 -0.000956331496126950 -0.061172280460596085 0.046554729342460632 0.022208472713828087 0.097349055111408234 0.072937063872814178 -0.045662589371204376 -0.114834226667881012 0.070069871842861176 -0.068246066570281982 0.154788643121719360 0.154880627989768982 0.069766931235790253 -0.091034516692161560 -0.042702857404947281 -0.143701076507568359 0.121370553970336914 0.097334526479244232 -0.029481958597898483 0.244214355945587158 0.045557778328657150 0.075649604201316833 -0.036514177918434143 -0.023127386346459389 -0.000698535004630685 0.101159885525703430 0.042235702276229858 0.000341219769325107 0.041247423738241196 0.118363119661808014 -0.192154675722122192 -0.034489363431930542 -0.210332572460174561 -0.169450268149375916 -0.050709389150142670 0.108760416507720947 0.170155927538871765 -0.021617572754621506 -0.129709273576736450 0.145649030804634094 0.018513001501560211 -0.129073217511177063 0.042745843529701233 0.116563506424427032 0.065362602472305298 0.053849313408136368 0.048141930252313614 -0.125075489282608032 0.018925027921795845 0.033200860023498535 0.097133204340934753 -0.022466877475380898 0.258587062358856201 0.055339179933071136 -0.218879520893096924 0.054098114371299744 0.119739264249801636 -0.038450259715318680 -0.152347654104232788 0.068106412887573242 0.032259445637464523 0.032441940158605576 -0.070248812437057495 -0.042430900037288666
0.145408749580383301 0.142944604158401489 0.004047304857522249 -0.103235617280006409 -0.105120658874511719 -0.110400252044200897 0.107455193996429443 -0.082054719328880310 -0.034054622054100037 0.177849873900413513 0.048032578080892563 -0.147152438759803772 -0.068645156919956207 0.121587656438350677 -0.146086737513542175 -0.144224137067794800 -0.041045121848583221 -0.101155288517475128 0.006967361085116863 0.102302290499210358 0.129327133297920227 0.189404755830764771 0.114243954420089722 -0.086837872862815857 0.031822163611650467 -0.098993942141532898 0.145795792341232300 -0.019746528938412666 0.078184843063354492 -0.104311630129814148 0.121743306517601013 0.093314900994300842 0.109114363789558411 0.175220429897308350 0.041930682957172394 -0.038902256637811661 -0.173956885933876038 0.083298698067665100 -0.103247411549091339 0.072191685438156128 -0.090567126870155334 -0.158597305417060852 0.137210547924041748 -0.067273437976837158 -0.036317043006420135 -0.022811278700828552 -0.099338524043560028 -0.083081051707267761 0.133745983242988586 -0.068999245762825012 -0.144199058413505554 -0.062584042549133301 -0.023200845345854759 -0.027611130848526955 -0.180564925074577332 0.158383339643478394 0.000937134434934705 0.144620865583419800 -0.058425370603799820 0.005719780921936035 -0.010143285617232323 -0.124994985759258270 0.042662106454372406 0.130962252616882324 0.004322576802223921 -0.191297858953475952 0.089041419327259064 -0.110946267843246460 -0.143850877881050110 -0.171299591660499573 -0.046678803861141205 0.112343452870845795 0.113773033022880554 0.123057901859283447 0.137763574719429016 -0.149738952517509460 -0.026957290247082710 0.092530511319637299 -0.042720850557088852 0.058924730867147446 -0.028332598507404327 -0.016872553154826164 -0.126531407237052917 -0.118148982524871826 -0.044798638671636581 -0.003541181329637766 -0.018094046041369438 0.129611566662788391 -0.095329977571964264 0.076647728681564331 0.042409002780914307 -0.009050707332789898 0.045472547411918640 -0.288567483425140381 0.109749354422092438 -0.120227858424186707 -0.067780576646327972 0.030282936990261078 -0.053879499435424805 -0.075589381158351898
0.143651410937309265 -0.014578987844288349 -0.008426533080637455 0.171601668000221252 0.067561998963356018 -0.046781215816736221 -0.153981730341911316 0.138123139739036560 -0.072928026318550110 0.027372218668460846 0.055326085537672043 -0.070444740355014801 0.172283262014389038 0.059944551438093185 -0.163448512554168701 0.116238713264465332 -0.022143563255667686 -0.047381870448589325 0.052394878119230270 -0.121026858687400818 0.113188803195953369 -0.072436958551406860 -0.071163006126880646 -0.053517989814281464 0.071044504642486572 -0.091831453144550323 0.087179698050022125 -0.074293412268161774 -0.035428076982498169 -0.149976253509521484 0.063707925379276276 0.112845420837402344 -0.107117556035518646 -0.095462679862976074 0.144243538379669189 0.040927529335021973 -0.057053983211517334 -0.115794941782951355 -0.129402652382850647 0.041033744812011719 -0.094646483659744263 0.041931964457035065 0.078617848455905914 0.103611640632152557 -0.013444970361888409 -0.118038430809974670 0.085937827825546265 -0.066214509308338165 -0.134358629584312439 -0.147802323102951050 -0.086634017527103424 -0.122182033956050873 0.118267744779586792 0.103100672364234924 0.123185768723487854 -0.218765705823898315 0.195087641477584839 -0.005875562317669392 0.076168052852153778 -0.105325914919376373 0.001546105952002108 -0.111464880406856537 0.019196094945073128 -0.058444783091545105 0.008994628675282001 -0.160146787762641907 0.005774295423179865 -0.032346259802579880 0.213866233825683594 -0.040007177740335464 -0.155147477984428406 -0.036304250359535217 -0.038216583430767059 0.137412607669830322 -0.056032031774520874 -0.032698981463909149 0.113776005804538727 0.110297188162803650 -0.004711937624961138 0.094082556664943695 0.097964771091938019 -0.111394591629505157 0.097816415131092072 -0.163336381316184998 0.139732390642166138 -0.004563076887279749 -0.120027564465999603 0.075181804597377777 1.045722603797912598 -0.066417239606380463 -0.122256234288215637 0.163890957832336426 -0.080452866852283478 -0.286758542060852051 0.077049098908901215 -0.111090160906314850 0.010515497997403145 -0.143908888101577759 0.103139013051986694 0.048872809857130051
0.141468584537506104 -0.101793445646762848 0.145559623837471008 0.114504843950271606 0.141903087496757507 0.070122495293617249 0.106077685952186584 0.091172292828559875 -0.030938480049371719 -0.111967705190181732 0.122678376734256744 -0.126004040241241455 -0.024037536233663559 0.121302492916584015 0.151671990752220154 -0.041711945086717606 -0.128716051578521729 0.083282753825187683 0.083801016211509705 0.046783197671175003 0.072736501693725586 0.023818681016564369 0.045384004712104797 0.191258355975151062 -0.161608681082725525 -0.152385458350181580 -0.101342320442199707 0.123016864061355591 0.033493559807538986 -0.030340302735567093 -0.128002509474754333 0.098334282636642456 -0.031953267753124237 0.051420345902442932 0.043515678495168686 -0.047180276364088058 -0.076715968549251556 -0.062819376587867737 -0.072804130613803864 -0.103343233466148376 -0.132001578807830811 -0.088345743715763092 0.155699044466018677 -0.074274182319641113 0.138258531689643860 -0.035413656383752823 -0.080398514866828918 0.185576498508453369 -0.165391683578491211 -0.033287402242422104 -0.100595109164714813 0.166804626584053040 -0.053633667528629303 -0.036122158169746399 0.018891563639044762 -0.115614309906959534 -0.021891936659812927 -0.167559266090393066 0.106150858104228973 -0.104972511529922485 -0.057483937591314316 -0.128611147403717041 -0.080277301371097565 0.036034435033798218 -0.139171048998832703 -0.032693270593881607 -0.019354708492755890 -0.050363417714834213 -0.058479137718677521 -0.126106992363929749 0.141427829861640930 0.216056719422340393 0.085340976715087891 0.137062147259712219 -0.094767138361930847 0.059667259454727173 0.177240565419197083 0.060175873339176178 -0.042554698884487152 -0.066394664347171783 -0.100975595414638519 -0.044447433203458786 0.029561927542090416 -0.076113753020763397 0.143016532063484192 0.139239951968193054 -0.048822924494743347 -0.112453900277614594 -0.222978517413139343 0.195771172642707825 0.210708200931549072 -0.182940885424613953 0.073954932391643524 0.102620065212249756 -0.172897309064865112 0.153807461261749268 0.021136214956641197 -0.096219718456268311 0.052165411412715912 -0.168267831206321716
-0.018635397776961327 0.046014849096536636 0.023032043129205704 -0.069608196616172791 -0.124275974929332733 -0.007771220523864031 -0.061685223132371902 -0.074307836592197418 0.050372827798128128 -0.063529647886753082 0.021557776257395744 0.172965884208679199 0.127075374126434326 0.119564704596996307 -0.100994884967803955 -0.106077060103416443 0.160636574029922485 -0.110947921872138977 0.111063264310359955 -0.145751342177391052 -0.094434812664985657 -0.025923592969775200 -0.033962871879339218 0.004279837477952242 0.192468166351318359 -0.015438984148204327 0.113949961960315704 0.197997674345970154 0.055108316242694855 0.003424469614401460 0.148439526557922363 -0.179818958044052124 0.137180849909782410 -0.051823358982801437 0.101111076772212982 0.081166088581085205 -0.130131021142005920 -0.135342255234718323 -0.140809521079063416 -0.064054220914840698 0.157590225338935852 0.074061021208763123 -0.113862469792366028 0.017088949680328369 0.156068712472915649 -0.133019983768463135 0.049368657171726227 -0.186131432652473450 0.071652092039585114 0.036426093429327011 -0.140324905514717102 0.078564845025539398 0.104842141270637512 0.019170267507433891 -0.118523709475994110 0.071852520108222961 -0.102772764861583710 0.029825761914253235 0.114048331975936890 0.029441880062222481 0.049853786826133728 0.065770842134952545 -0.059853821992874146 -0.111659228801727295 -0.032682947814464569 0.054722107946872711 -0.074550747871398926 0.155374869704246521 0.182731091976165771 -0.040599778294563293 0.016109665855765343 -0.078692212700843811 -0.145304158329963684 0.008403256535530090 0.037095539271831512 0.059236083179712296 -0.055737692862749100 -0.038539879024028778 0.173363938927650452 0.087338373064994812 -0.118779368698596954 0.018994007259607315 0.119479186832904816 0.097659952938556671 -0.078166723251342773 0.056941781193017960 -0.055797357112169266 -0.131775662302970886 0.143181085586547852 0.111683055758476257 -0.260898292064666748 0.154286369681358337 0.085409849882125854 -0.088643796741962433 0.073003135621547699 0.054693739861249924 -0.168041065335273743 0.020564276725053787 -0.003004658501595259 -0.023005181923508644
-0.081490911543369293 -0.098421670496463776 0.113275565207004547 -0.168278217315673828 0.063367001712322235 0.013988338410854340 -0.094524689018726349 0.149525806307792664 0.045845303684473038 -0.027310110628604889 0.167821094393730164 -0.115114592015743256 0.108753576874732971 -0.108398899435997009 0.159171491861343384 0.055316619575023651 0.150921449065208435 -0.006233218591660261 -0.055584236979484558 0.074492886662483215 -0.127847135066986084 -0.057451944798231125 -0.079496987164020538 -0.159961238503456116 -0.021757692098617554 0.058806803077459335 -0.084761478006839752 -0.026683917269110680 -0.136607378721237183 0.032502174377441406 0.109035678207874298 0.039542187005281448 -0.160763040184974670 0.123961679637432098 0.082073301076889038 0.100280016660690308 -0.180622473359107971 -0.070241503417491913 -0.099867291748523712 0.016120390966534615 0.109645619988441467 -0.149160146713256836 0.098751418292522430 -0.048125695437192917 0.020837668329477310 0.133972391486167908 -0.118089027702808380 0.158632248640060425 -0.168419361114501953 0.023269651457667351 -0.136858329176902771 0.026252459734678268 0.083779960870742798 -0.124752797186374664 -0.002811982529237866 0.001457189209759235 -0.047849070280790329 -0.072196848690509796 -0.194278150796890259 0.181010812520980835 -0.061465136706829071 0.108969867229461670 -0.090871490538120270 -0.121545158326625824 -0.091657504439353943 0.028439305722713470 -0.138981610536575317 -0.041262980550527573 -0.089801631867885590 0.083716884255409241 -0.029414067044854164 0.010661804117262363 0.110295645892620087 0.030538430437445641 0.144290596246719360 0.163458123803138733 -0.005581055767834187 0.005066334735602140 0.159919798374176025 -0.150971233844757080 0.083243250846862793 -0.189240023493766785 -0.082827605307102203 -0.119761951267719269 0.069065719842910767 -0.055729273706674576 -0.081328988075256348 0.101661600172519684 -0.139288038015365601 0.168985813856124878 -0.187208443880081177 -0.157543331384658813 -0.158404275774955750 -0.309671044349670410 -0.050468292087316513 -0.078988112509250641 -0.109924577176570892 0.154647886753082275 -0.067783415317535400 0.051362976431846619
-0.034889947623014450 0.057075325399637222 -0.137979015707969666 -0.115754961967468262 -0.086752690374851227 -0.077971957623958588 -0.087962009012699127 0.009233695454895496 0.113614112138748169 0.062307454645633698 -0.052970673888921738 -0.149693667888641357 -0.046676814556121826 -0.074164398014545441 0.104142881929874420 0.045424826443195343 0.001161778462119401 0.095077522099018097 0.021758396178483963 0.043400999158620834 -0.053572759032249451 -0.071140810847282410 -0.131091341376304626 0.042434193193912506 -0.180736824870109558 -0.031513899564743042 -0.071206718683242798 0.132352530956268311 0.055539019405841827 -0.157449066638946533 0.123261161148548126 -0.052222449332475662 0.148546084761619568 0.170341342687606812 0.054020132869482040 0.048656705766916275 -0.099299997091293335 -0.014546952210366726 0.061727110296487808 -0.092087581753730774 -0.149328202009201050 0.080129869282245636 -0.069289781153202057 -0.157529771327972412 0.004093210678547621 -0.109647974371910095 -0.181618034839630127 0.017957428470253944 -0.084077902138233185 -0.045061450451612473 -0.163513511419296265 -0.085038900375366211 -0.006385249551385641 0.012446166016161442 -0.202007338404655457 0.246242970228195190 -0.168427407741546631 0.008304705843329430 0.013507287018001080 -0.097675263881683350 0.108803659677505493 0.055757269263267517 0.083229742944240570 -0.107922449707984924 0.150273755192756653 -0.071485690772533417 0.037117462605237961 -0.098465085029602051 0.093748442828655243 0.169964671134948730 -0.003529524430632591 0.043489519506692886 -0.054571740329265594 0.085701309144496918 -0.034701120108366013 -0.067126549780368805 0.124361537396907806 0.052168987691402435 0.244494095444679260 0.130171850323677063 0.093559324741363525 0.066345639526844025 -0.050640363246202469 0.027696948498487473 0.000014927391930541 0.096076682209968567 0.033925123512744904 -0.158024638891220093 -0.122862637042999268 0.153868421912193298 0.113443888723850250 0.001358925714157522 0.171416625380516052 0.006048689596354961 0.098548203706741333 0.035850439220666885 0.108003273606300354 -0.008189069107174873 -0.040077921003103256 0.020286843180656433
0.103382512927055359 -0.070851996541023254 -0.049421574920415878 0.023843036964535713 0.093885138630867004 0.156770706176757812 -0.065980263054370880 0.164047554135322571 -0.045190516859292984 -0.157911658287048340 0.128733173012733459 -0.084926560521125793 0.022050287574529648 -0.031735714524984360 0.031927619129419327 0.052981708198785782 -0.205592915415763855 -0.088641338050365448 0.069740243256092072 0.116913802921772003 0.028812581673264503 0.067957051098346710 0.043966848403215408 0.142256602644920349 -0.069503836333751678 0.139242127537727356 -0.057048544287681580 -0.072310835123062134 0.071886554360389709 0.041600380092859268 -0.110760942101478577 -0.021724930033087730 0.116459935903549194 -0.146963059902191162 0.028955323621630669 0.144738808274269104 0.083327606320381165 0.004169572610408068 0.121189288794994354 -0.093820691108703613 -0.161625161767005920 -0.112778156995773315 0.089778043329715729 -0.186974883079528809 0.010450884699821472 -0.024111248552799225 -0.165484338998794556 0.104306571185588837 0.090697765350341797 0.141963660717010498 0.161746218800544739 0.084767639636993408 -0.115989208221435547 0.132649809122085571 -0.117297165095806122 0.321628540754318237 -0.085479348897933960 -0.176551893353462219 -0.084722235798835754 0.133969292044639587 -0.122299388051033020 -0.027503555640578270 -0.064304031431674957 -0.135046780109405518 -0.068982809782028198 0.028326926752924919 -0.096556663513183594 0.169075563549995422 -0.077207811176776886 -0.020696012303233147 -0.081304773688316345 0.115437030792236328 0.047055415809154510 0.032134313136339188 -0.125155076384544373 -0.149893149733543396 -0.089334860444068909 0.069877825677394867 -0.034416452050209045 0.025074541568756104 0.027395619079470634 -0.154211357235908508 -0.133333802223205566 0.041542980819940567 0.074134990572929382 -0.094773881137371063 0.108705624938011169 0.055597543716430664 0.072561316192150116 -0.066857561469078064 -0.048052564263343811 -0.005270931404083967 -0.058267787098884583 -0.030817069113254547 -0.108113981783390045 -0.055673997849225998 -0.003979724831879139 0.182469308376312256 0.038877461105585098 0.063664533197879791
-0.144618019461631775 0.056559357792139053 -0.007248013280332088 -0.113253451883792877 0.162092044949531555 -0.140621423721313477 0.002310175914317369 0.000497568282298744 -0.060383196920156479 -0.031294953078031540 -0.116992756724357605 -0.047608096152544022 0.137304320931434631 -0.112000398337841034 0.066297963261604309 -0.014815264381468296 -0.046038173139095306 -0.120472200214862823 -0.076628975570201874 -0.028436098247766495 0.034352269023656845 0.140001267194747925 0.000666755775455385 0.001345170312561095 0.130297750234603882 0.018006991595029831 -0.110143832862377167 0.099504359066486359 0.092228509485721588 0.055196002125740051 -0.169008344411849976 0.081978492438793182 -0.123827181756496429 0.022311130538582802 -0.139717683196067810 -0.115788131952285767 -0.157712832093238831 0.082299478352069855 -0.007393570616841316 0.052774988114833832 -0.023993736132979393 -0.041766062378883362 0.128685161471366882 -0.007226929068565369 0.011307972483336926 -0.112260825932025909 -0.009921818971633911 -0.109016090631484985 0.118566498160362244 0.038245026022195816 -0.088139519095420837 -0.148229777812957764 0.062383566051721573 -0.105527006089687347 0.192559465765953064 -0.401134371757507324 -0.146308466792106628 0.064846970140933990 -0.060778729617595673 -0.030253170058131218 0.125393018126487732 -0.101685225963592529 0.002423630328848958 -0.024808406829833984 0.128246963024139404 0.051249649375677109 0.053823534399271011 0.140956491231918335 0.011076591908931732 -0.083066612482070923 0.125236749649047852 -0.100579835474491119 -0.074954904615879059 -0.162308588624000549 0.090369135141372681 -0.123368412256240845 -0.120134063065052032 -0.148777157068252563 -0.072534672915935516 -0.009803257882595062 -0.165494725108146667 -0.006208781152963638 -0.099538773298263550 -0.050019368529319763 0.081289723515510559 -0.129092767834663391 0.113770052790641785 -0.037245552986860275 0.347229629755020142 0.123534157872200012 0.073608763515949249 -0.134938195347785950 -0.143819525837898254 -0.143047526478767395 0.053330387920141220 -0.103734448552131653 -0.097080685198307037 -0.127572536468505859 0.035749200731515884 0.137512698769569397
-0.029071256518363953 0.005099826026707888 -0.105522543191909790 0.019702458754181862 -0.123481139540672302 -0.096674904227256775 -0.127956733107566833 0.102540761232376099 -0.092510662972927094 -0.148138508200645447 0.134393170475959778 0.116485826671123505 0.173308908939361572 -0.009698406793177128 0.063714779913425446 0.162865519523620605 -0.040825754404067993 0.117874927818775177 0.008234946988523006 -0.002884119749069214 0.224423542618751526 0.108788505196571350 -0.047128133475780487 -0.100170597434043884 0.076290421187877655 0.117293544113636017 -0.156302854418754578 0.022793790325522423 -0.003713215934112668 -0.060462493449449539 0.059456609189510345 -0.098656654357910156 -0.114159405231475830 -0.005805355962365866 0.053806398063898087 0.076537251472473145 -0.004739632830023766 -0.116431139409542084 0.096666939556598663 -0.100960992276668549 0.048584599047899246 0.110457003116607666 0.086797289550304413 0.243509963154792786 -0.087734840810298920 -0.072558633983135223 -0.028686432167887688 -0.191287815570831299 0.072019666433334351 -0.091849818825721741 0.153354927897453308 0.025953698903322220 -0.002440831158310175 0.075026176869869232 0.145830348134040833 -0.424215674400329590 -0.009319336153566837 0.032064158469438553 0.122301429510116577 0.076952360570430756 -0.180948957800865173 -0.053449448198080063 0.081915207207202911 -0.058239087462425232 0.034805480390787125 0.078178524971008301 -0.009272661991417408 -0.071763940155506134 0.243823632597923279 0.023344675078988075 -0.164598077535629272 0.070188179612159729 0.052246935665607452 0.059701845049858093 0.049775049090385437 -0.127973854541778564 0.084843546152114868 0.063276812434196472 -0.209205716848373413 -0.099300682544708252 -0.024663450196385384 0.037196706980466843 -0.123757943511009216 0.077097982168197632 -0.135287806391716003 -0.063460722565650940 0.054383423179388046 -0.007688565179705620 0.310311585664749146 -0.076035246253013611 0.115137591958045959 0.132870405912399292 -0.082739189267158508 0.074458882212638855 -0.166988566517829895 -0.058699660003185272 -0.097823008894920349 0.031019588932394981 -0.144198238849639893 -0.128257632255554199
-0.036181483417749405 0.114316746592521667 -0.064977131783962250 -0.159305319190025330 -0.123253196477890015 -0.061677083373069763 -0.094679616391658783 -0.120741389691829681 0.158315733075141907 0.041642457246780396 -0.084089614450931549 0.090866677463054657 0.069906167685985565 0.158393442630767822 0.017683457583189011 0.045529950410127640 0.094067931175231934 0.020388253033161163 -0.032286614179611206 0.141890481114387512 0.022382525727152824 0.045403964817523956 -0.040709320455789566 0.174018085002899170 0.052747529000043869 -0.029975974932312965 0.123872905969619751 -0.148781001567840576 0.057881820946931839 0.120684288442134857 -0.119573965668678284 -0.116254702210426331 -0.064104281365871429 0.194683998823165894 -0.034151006489992142 -0.062564335763454437 -0.060313548892736435 0.002764185192063451 0.045122854411602020 -0.079762071371078491 -0.105119846761226654 -0.073924675583839417 -0.043704356998205185 -0.051848344504833221 -0.067552074790000916 -0.002050350653007627 0.140148669481277466 0.044433005154132843 0.060914158821105957 0.001298323040828109 0.013020023703575134 0.128341779112815857 0.056294977664947510 -0.021524231880903244 0.003377608722075820 -0.190072044730186462 0.148110046982765198 -0.131863445043563843 0.065327964723110199 0.094101406633853912 -0.162729755043983459 0.178988173604011536 -0.161193177103996277 0.068169310688972473 -0.014529098756611347 -0.173095345497131348 -0.193940922617912292 0.069833964109420776 -0.099331654608249664 -0.063243538141250610 -0.041229367256164551 0.069266304373741150 0.104669019579887390 -0.036734655499458313 -0.030360689386725426 -0.026619002223014832 0.003389716846868396 0.053080983459949493 -0.054289445281028748 -0.163045212626457214 -0.110567405819892883 -0.117042876780033112 -0.116542108356952667 0.178632661700248718 -0.031964577734470367 -0.162903860211372375 0.141199365258216858 -0.033622067421674728 0.202809989452362061 0.125832006335258484 0.018472490832209587 -0.025141747668385506 0.020431526005268097 -0.206111982464790344 -0.150352597236633301 -0.147702485322952271 0.138237699866294861 -0.113674871623516083 0.045969754457473755 -0.062437869608402252
0.019658209756016731 -0.010597361251711845 0.150164887309074402 -0.085638105869293213 0.051973793655633926 -0.074933864176273346 -0.216908320784568787 -0.048727080225944519 0.170711249113082886 -0.162290483713150024 0.016494024544954300 -0.153393194079399109 -0.031031914055347443 0.097846388816833496 -0.128067538142204285 0.164412498474121094 -0.131030976772308350 0.099905349314212799 0.130159676074981689 0.046510972082614899 -0.080146342515945435 -0.050597481429576874 0.010641755536198616 -0.089527077972888947 0.011227665469050407 0.146154224872589111 0.030595764517784119 -0.115638390183448792 -0.038697872310876846 0.064935617148876190 0.045836020261049271 0.135492682456970215 0.016213944181799889 -0.157706588506698608 -0.134801924228668213 -0.103057637810707092 0.139800623059272766 0.124483555555343628 -0.156411230564117432 0.018805738538503647 0.030675224959850311 -0.017280310392379761 -0.041842918843030930 0.222734615206718445 -0.051839645951986313 0.144502237439155579 0.052388228476047516 0.018460325896739960 -0.162812516093254089 0.001800027326680720 0.031824376434087753 -0.046348080039024353 0.137908384203910828 -0.139383599162101746 0.152663558721542358 -0.290197372436523438 -0.122470423579216003 -0.006110417190939188 0.136896938085556030 -0.093120291829109192 0.120115756988525391 -0.133622586727142334 -0.146992713212966919 0.165873542428016663 0.180230185389518738 -0.106682725250720978 -0.087709166109561920 -0.108030989766120911 -0.079822897911071777 -0.157442972064018250 -0.006913417484611273 0.215170115232467651 0.067168615758419037 0.099066540598869324 -0.094051912426948547 -0.081575535237789154 0.115705899894237518 -0.000108600048406515 -0.205260813236236572 -0.011554922908544540 -0.136823818087577820 -0.140297800302505493 -0.073460981249809265 0.055643696337938309 0.154713749885559082 -0.230783432722091675 -0.172690927982330322 -0.114434160292148590 0.589554131031036377 0.012804953381419182 -0.024559995159506798 0.093197591602802277 0.051466938108205795 -0.204028740525245667 0.125991046428680420 0.029184067621827126 0.106412068009376526 -0.115395441651344299 0.075240276753902435 -0.057493064552545547
-0.057863313704729080 0.004015220794826746 -0.116855166852474213 0.039401322603225708 -0.030683310702443123 -0.063241153955459595 -0.086697451770305634 -0.070401400327682495 0.094326272606849670 0.123896822333335876 -0.142336145043373108 0.129782497882843018 -0.000663404061924666 0.054634023457765579 -0.064908325672149658 0.200211748480796814 -0.047527533024549484 -0.116060987114906311 -0.058543104678392410 0.057802755385637283 0.171253770589828491 -0.021839085966348648 0.003693488659337163 0.170846074819564819 0.078997664153575897 -0.138745591044425964 0.098482973873615265 0.130624070763587952 0.017542850226163864 -0.024843953549861908 -0.113245449960231781 0.170746430754661560 -0.125472947955131531 -0.051487207412719727 -0.029218034818768501 -0.113029584288597107 -0.099803656339645386 0.039016235619783401 0.074482150375843048 0.032910879701375961 -0.199500247836112976 -0.134226113557815552 -0.002991412067785859 0.016213083639740944 -0.170814082026481628 -0.115604944527149200 -0.170261159539222717 0.174613445997238159 -0.073293924331665039 -0.070414125919342041 0.038783136755228043 0.174887448549270630 0.002024639863520861 0.099477775394916534 0.216090783476829529 -0.232244297862052917 -0.024247737601399422 -0.000893641554284841 0.096167899668216705 -0.126667037606239319 -0.074751242995262146 -0.155149951577186584 -0.050392925739288330 -0.041699115186929703 0.065479114651679993 0.122550308704376221 0.050154253840446472 0.092476554214954376 0.109869576990604401 -0.043032873421907425 0.023094827309250832 -0.058347709476947784 -0.174671411514282227 -0.168627321720123291 0.006513881962746382 -0.011458327062427998 -0.166488513350486755 -0.128991335630416870 -0.224823355674743652 -0.113164633512496948 -0.025037031620740891 -0.004978930111974478 -0.164276331663131714 -0.119864292442798615 0.075379937887191772 0.135787159204483032 0.035475913435220718 0.065955355763435364 0.074039243161678314 -0.130157813429832458 0.060116041451692581 0.093810856342315674 -0.014251778833568096 0.196596607565879822 -0.100254170596599579 -0.027825035154819489 -0.112642161548137665 -0.020136047154664993 -0.136344313621520996 0.109569430351257324
-0.088766343891620636 0.095771953463554382 -0.146769687533378601 0.027942745015025139 0.022038193419575691 -0.063706316053867340 0.060672648251056671 0.193229421973228455 0.128709360957145691 -0.154507666826248169 0.137140184640884399 -0.002867713570594788 -0.134253755211830139 0.031633436679840088 -0.156337395310401917 0.079859748482704163 -0.094052545726299286 0.016653796657919884 -0.091260246932506561 0.154398754239082336 -0.149572327733039856 0.037796996533870697 -0.042407620698213577 -0.011166469193994999 -0.126952692866325378 -0.026699764654040337 0.025899652391672134 -0.003545762505382299 -0.074000380933284760 0.116183049976825714 0.139981046319007874 0.141775667667388916 -0.067061878740787506 0.151711910963058472 0.156511873006820679 -0.134275197982788086 -0.045409720391035080 -0.153687804937362671 0.050148058682680130 -0.156076729297637939 0.173664227128028870 -0.146294489502906799 0.181384563446044922 -0.130022525787353516 0.016764461994171143 -0.116412535309791565 0.163981944322586060 0.038642875850200653 0.040313545614480972 0.049848604947328568 -0.002516994718462229 -0.157538458704948425 -0.010912105441093445 0.073877327144145966 0.027433998882770538 0.318547576665878296 0.026816338300704956 -0.090327151119709015 0.055578257888555527 -0.086520656943321228 0.044889248907566071 -0.007167925592511892 -0.101414181292057037 0.068545617163181305 -0.149978026747703552 -0.058198057115077972 -0.116978049278259277 0.134232029318809509 -0.147143036127090454 0.156872779130935669 0.077499344944953918 -0.145368233323097229 0.084090322256088257 -0.054080504924058914 0.024142058566212654 0.075795680284500122 0.160860717296600342 -0.115257665514945984 0.068530559539794922 -0.132605850696563721 0.111086606979370117 -0.036587614566087723 0.041226390749216080 -0.150970354676246643 0.151106178760528564 0.186057329177856445 0.139234527945518494 0.044626235961914062 0.292906284332275391 0.091830424964427948 -0.064711377024650574 -0.013733322732150555 -0.107641160488128662 -0.084217160940170288 -0.076481938362121582 -0.063741914927959442 -0.092838719487190247 -0.104205273091793060 -0.148236632347106934 0.172141492366790771
-0.053813975304365158 -0.097598448395729065 -0.131752550601959229 -0.167157858610153198 0.163967117667198181 -0.038980014622211456 -0.056918423622846603 -0.018845133483409882 0.023013824597001076 -0.138951972126960754 -0.136666044592857361 0.043264023959636688 0.070459008216857910 0.090859271585941315 -0.081667363643646240 0.185860037803649902 -0.133001461625099182 -0.054409246891736984 -0.160844296216964722 -0.023505708202719688 0.161967888474464417 -0.110957302153110504 -0.016328060999512672 0.014394482597708702 0.137922450900077820 -0.019193485379219055 -0.116617366671562195 -0.070020176470279694 0.098906032741069794 -0.073460921645164490 0.030821295455098152 -0.120744094252586365 -0.157960638403892517 0.132031872868537903 -0.127129256725311279 0.119653992354869843 0.079530730843544006 0.119431048631668091 -0.132725298404693604 0.100678794085979462 -0.029380558058619499 0.068833507597446442 0.151266306638717651 -0.006502663716673851 0.124055080115795135 -0.072275266051292419 0.128731802105903625 -0.004773947875946760 -0.090209677815437317 0.071795448660850525 0.141785219311714172 0.149690270423889160 -0.120412655174732208 0.006877034436911345 -0.097918748855590820 0.043372232466936111 -0.158721968531608582 0.108551047742366791 0.103702507913112640 0.136048689484596252 -0.011274931952357292 0.111871182918548584 -0.033616706728935242 -0.077160686254501343 0.094898648560047150 0.200617119669914246 -0.090835712850093842 -0.016278516501188278 0.165189027786254883 0.035709235817193985 0.122638627886772156 0.040338106453418732 0.084831349551677704 0.104590564966201782 0.111298300325870514 0.038665801286697388 0.075327374041080475 0.117374673485755920 -0.195407077670097351 0.124898381531238556 0.096840627491474152 -0.037748266011476517 0.165964826941490173 0.064554922282695770 0.118675805628299713 -0.011352215893566608 0.047407951205968857 -0.046428773552179337 0.158235207200050354 -0.004133687354624271 -0.130671545863151550 0.030507083982229233 0.141919270157814026 0.009083587676286697 -0.158716291189193726 -0.072027020156383514 -0.033333893865346909 -0.006216113455593586 0.084809131920337677 -0.123726524412631989
-0.127169936895370483 0.177436441183090210 0.065194405615329742 0.090504586696624756 -0.135048642754554749 0.030722299590706825 0.120072171092033386 -0.120043858885765076 0.053349141031503677 0.008691701106727123 0.051103267818689346 0.147945776581764221 0.126513063907623291 0.028706017881631851 0.101027518510818481 -0.041381828486919403 0.113786108791828156 0.121957518160343170 -0.071920707821846008 -0.014198639430105686 0.062239926308393478 -0.035791777074337006 0.174010217189788818 -0.021258806809782982 -0.116482712328433990 0.162588447332382202 0.008740007877349854 -0.125891894102096558 0.001801120699383318 -0.043986149132251740 0.088083416223526001 0.076979726552963257 -0.127002641558647156 0.079793795943260193 -0.035856682807207108 0.104647301137447357 -0.153375491499900818 0.036729574203491211 0.005522320047020912 -0.141510069370269775 -0.016735835000872612 -0.026497058570384979 -0.134871020913124084 -0.152464270591735840 0.031072624027729034 0.160009533166885376 0.181788131594657898 0.079722404479980469 0.033642277121543884 0.135975733399391174 0.044804614037275314 -0.095609240233898163 -0.163456559181213379 0.095891155302524567 -0.135068506002426147 0.143545597791671753 -0.039431750774383545 -0.167336970567703247 -0.132274135947227478 0.059556689113378525 -0.034875150769948959 0.116164572536945343 -0.163538143038749695 -0.077798679471015930 0.106335714459419250 -0.148187085986137390 -0.208887234330177307 0.068681076169013977 -0.143304467201232910 -0.039717599749565125 0.040906116366386414 -0.005376530345529318 0.099941127002239227 -0.161552250385284424 0.008271861821413040 -0.054829139262437820 0.162305578589439392 -0.138710185885429382 0.072567678987979889 0.071556806564331055 0.041671779006719589 -0.074276216328144073 0.091906107962131500 0.017500022426247597 -0.119078412652015686 0.098479539155960083 -0.171683833003044128 -0.100020132958889008 -0.069134958088397980 0.011068919673562050 -0.147191539406776428 0.088209085166454315 0.000561318825930357 -0.201733410358428955 0.105310827493667603 0.095488481223583221 -0.015095628798007965 -0.033540945500135422 -0.096995793282985687 0.071349233388900757
-0.012858626432716846 0.115397557616233826 -0.060841925442218781 0.134369388222694397 -0.003074391046538949 -0.031596794724464417 -0.086246781051158905 -0.004249056801199913 -0.206673353910446167 -0.103032395243644714 -0.148985341191291809 -0.180181935429573059 -0.135813310742378235 -0.072067394852638245 0.123594574630260468 0.046979051083326340 0.065411761403083801 -0.122757442295551300 -0.123112238943576813 0.023560160771012306 0.088681176304817200 -0.115900091826915741 -0.057459127157926559 0.105804838240146637 0.000441867712652311 -0.012695970013737679 -0.026384562253952026 -0.051467645913362503 -0.046716317534446716 0.017470266669988632 0.077390469610691071 -0.120079055428504944 -0.070141978561878204 -0.083688363432884216 0.008839472196996212 0.162005722522735596 -0.121923208236694336 -0.083742514252662659 -0.107351727783679962 -0.024141112342476845 0.124994948506355286 -0.016701683402061462 0.172947794198989868 0.012566870078444481 -0.094012200832366943 0.052929189056158066 0.115804485976696014 -0.079022452235221863 -0.099280975759029388 -0.109220221638679504 -0.031887561082839966 -0.021176537498831749 -0.171996250748634338 0.077816486358642578 0.007656753063201904 -0.355721950531005859 0.008558395318686962 0.116768144071102142 -0.133178159594535828 -0.070734813809394836 -0.161980971693992615 0.008294185623526573 -0.108550496399402618 -0.172364458441734314 0.131642222404479980 -0.099667936563491821 0.128205433487892151 -0.174332097172737122 0.055830426514148712 -0.166615992784500122 -0.092165738344192505 -0.049130152910947800 -0.016719665378332138 0.014968100935220718 0.071151174604892731 0.003221823135390878 0.069073341786861420 -0.113286599516868591 -0.159325361251831055 -0.160747617483139038 0.163622006773948669 -0.113578796386718750 -0.153630658984184265 0.168484613299369812 0.052651070058345795 0.068769119679927826 -0.047502569854259491 0.095661714673042297 0.065361149609088898 0.110020592808723450 0.118093580007553101 -0.143272221088409424 0.020073920488357544 0.175520643591880798 0.164928734302520752 0.088141687214374542 -0.168154597282409668 -0.076679185032844543 0.089829221367835999 -0.030026135966181755
-0.103640124201774597 0.125766769051551819 0.187817946076393127 0.020079448819160461 -0.063907705247402191 -0.069286465644836426 0.229073718190193176 -0.123330384492874146 0.130053415894508362 0.008831300772726536 0.065906547009944916 -0.137321591377258301 -0.113477103412151337 -0.177676603198051453 -0.150095552206039429 -0.198996126651763916 0.088687799870967865 0.029597533866763115 0.033585295081138611 0.040595579892396927 -0.104973100125789642 0.151157855987548828 0.187857493758201599 0.183773458003997803 -0.186427548527717590 0.039089780300855637 0.054085254669189453 0.174155130982398987 -0.126486331224441528 0.175143867731094360 -0.146785452961921692 0.036437045782804489 0.162450939416885376 0.053819991648197174 -0.145065993070602417 -0.181301012635231018 0.156863704323768616 0.084168292582035065 0.131353154778480530 -0.103973396122455597 -0.023412346839904785 -0.104505226016044617 0.115703731775283813 -0.277280539274215698 0.221403852105140686 0.120925977826118469 -0.057831011712551117 -0.145658299326896667 -0.158529549837112427 0.173067778348922729 -0.009650560095906258 -0.024998888373374939 -0.078922860324382782 0.061554659157991409 -0.293863803148269653 0.244752019643783569 -0.109356075525283813 -0.192859992384910583 -0.153593793511390686 0.007757856510579586 0.143948242068290710 0.175942748785018921 0.133503347635269165 -0.073017664253711700 0.044611621648073196 -0.105446428060531616 0.123103246092796326 0.044488701969385147 -0.128299474716186523 0.073851749300956726 0.044444438070058823 -0.014394676312804222 0.101676292717456818 -0.122786864638328552 -0.004970118403434753 0.045799329876899719 0.127619072794914246 0.089941948652267456 0.114466816186904907 0.065696708858013153 0.102652490139007568 -0.032565478235483170 0.090911783277988434 0.105823285877704620 -0.005111043341457844 0.290808886289596558 -0.057005029171705246 -0.026676919311285019 -0.361685156822204590 -0.080753408372402191 0.116289429366588593 0.124355316162109375 0.148575365543365479 0.182055160403251648 0.034667469561100006 -0.077127620577812195 -0.024892499670386314 0.046973913908004761 -0.179428592324256897 0.191539138555526733
0.038600504398345947 0.100324332714080811 -0.037221632897853851 -0.011537901125848293 -0.013652996160089970 0.160553023219108582 0.015758441761136055 0.028471903875470161 -0.113011971116065979 0.041973739862442017 -0.086330033838748932 -0.159572258591651917 -0.073319949209690094 -0.103630490601062775 0.263185083866119385 0.033700894564390182 -0.179094001650810242 -0.116259939968585968 0.042134892195463181 0.123962193727493286 -0.124360688030719757 -0.077568098902702332 0.143358409404754639 -0.136471822857856750 0.033750254660844803 0.010372133925557137 -0.016155617311596870 0.009817334823310375 0.092577837407588959 0.053555130958557129 0.147996336221694946 0.143015086650848389 -0.129469886422157288 0.152354061603546143 -0.200114980340003967 0.176911816000938416 0.008350436575710773 -0.011151658371090889 -0.126284763216972351 0.065703436732292175 -0.179474905133247375 0.067236825823783875 0.058532729744911194 -0.152702450752258301 0.024024143815040588 0.029790900647640228 -0.086975783109664917 -0.090068951249122620 -0.115627996623516083 0.046635210514068604 0.070132181048393250 0.084142982959747314 -0.045442331582307816 0.169738620519638062 0.103778481483459473 -0.042831353843212128 0.006159550510346889 0.057730205357074738 0.163837209343910217 -0.069027215242385864 -0.051824096590280533 0.069197840988636017 -0.168903276324272156 0.120422072708606720 -0.147715866565704346 -0.100942656397819519 0.130169928073883057 -0.013549747876822948 -0.111064061522483826 0.064996637403964996 -0.123977862298488617 0.147548019886016846 -0.062792979180812836 -0.148233935236930847 -0.103121571242809296 -0.138826280832290649 -0.125463828444480896 0.140659570693969727 0.089047171175479889 -0.207957163453102112 -0.069051489233970642 -0.112314388155937195 -0.099242173135280609 0.006873577367514372 0.167674735188484192 0.094282656908035278 0.007156071718782187 0.122860580682754517 -0.380536884069442749 0.150547489523887634 0.183703616261482239 -0.076649740338325500 0.124424166977405548 0.280135750770568848 -0.045523185282945633 -0.184082403779029846 0.200056612491607666 -0.060093991458415985 0.000664454884827137 -0.145720168948173523
-0.081049196422100067 0.019431484863162041 -0.124049216508865356 -0.023573623970150948 -0.162018030881881714 -0.074049346148967743 0.092464268207550049 -0.150342881679534912 -0.004625091794878244 0.120952427387237549 0.009128763340413570 -0.083367563784122467 0.107758276164531708 0.118805028498172760 -0.001294906949624419 0.164496555924415588 0.154621005058288574 -0.065294466912746429 -0.145904913544654846 -0.051244236528873444 0.101656444370746613 0.076718598604202271 -0.129706576466560364 -0.110433153808116913 -0.061733465641736984 -0.023677906021475792 0.153168663382530212 -0.075184129178524017 -0.132499918341636658 -0.057116977870464325 -0.023962432518601418 -0.037783652544021606 -0.057548351585865021 -0.129377111792564392 -0.038803882896900177 -0.006211970001459122 0.043492093682289124 -0.048792578279972076 0.106737270951271057 0.056029755622148514 0.115479603409767151 0.025025997310876846 0.125285789370536804 0.112657092511653900 -0.028563221916556358 -0.167468324303627014 -0.029507562518119812 -0.037608318030834198 0.105780422687530518 -0.178937345743179321 0.162464767694473267 -0.047000057995319366 0.046783614903688431 0.094227991998195648 0.064936213195323944 0.201516255736351013 -0.042641837149858475 -0.032753631472587585 -0.117575883865356445 0.049241114407777786 -0.097232013940811157 0.138703301548957825 -0.113691680133342743 -0.087237529456615448 -0.147305801510810852 0.158815413713455200 0.113836184144020081 0.079797096550464630 -0.056449703872203827 0.027729298919439316 0.067996092140674591 -0.155372828245162964 0.132363393902778625 0.027343057096004486 -0.022011106833815575 -0.009647512808442116 -0.028187302872538567 0.068355232477188110 0.035646840929985046 -0.105171389877796173 -0.025466490536928177 0.165262877941131592 -0.120276294648647308 0.002951584057882428 0.131468921899795532 0.036063108593225479 -0.027127519249916077 -0.008367360569536686 -0.202461004257202148 0.094633981585502625 0.259465426206588745 0.147233113646507263 0.005296117160469294 0.186865046620368958 0.140576317906379700 -0.148897185921669006 -0.004917725920677185 0.002802977338433266 0.003233099821954966 0.037239946424961090
-0.012389546260237694 0.144726037979125977 0.010940059088170528 0.039884820580482483 0.110938578844070435 0.103988066315650940 -0.178280621767044067 -0.037499878555536270 0.054925847798585892 -0.011790825054049492 0.134197235107421875 0.049465965479612350 0.121841676533222198 0.070345208048820496 -0.259898841381072998 0.090945087373256683 0.166291162371635437 -0.156955614686012268 0.194945573806762695 0.003586689708754420 0.107247978448867798 -0.069390825927257538 -0.058715321123600006 -0.037652280181646347 -0.066990546882152557 -0.049115110188722610 -0.147983714938163757 -0.060708783566951752 -0.171129345893859863 0.002128440188243985 0.031303126364946365 -0.096026793122291565 0.069859758019447327 -0.054156448692083359 0.075578808784484863 0.061511520296335220 0.062038689851760864 0.018349315971136093 0.124318711459636688 0.108591757714748383 -0.129910707473754883 0.122773319482803345 0.122985906898975372 -0.056519400328397751 0.105321273207664490 -0.073637649416923523 0.075204007327556610 0.005636145360767841 0.112804599106311798 0.100356355309486389 -0.124772585928440094 -0.168035119771957397 -0.008859865367412567 0.069793187081813812 0.200723960995674133 -0.307969272136688232 0.018089260905981064 -0.028875431045889854 -0.041842713952064514 -0.134514331817626953 0.144955396652221680 0.105104066431522369 0.134577080607414246 0.014643467031419277 0.022546095773577690 0.092899262905120850 -0.087541915476322174 -0.132283911108970642 -0.102629572153091431 0.074866801500320435 -0.038152024149894714 0.164072230458259583 -0.098869211971759796 0.103736259043216705 0.000010161931641051 0.022135667502880096 -0.144445627927780151 0.155845940113067627 0.108291625976562500 -0.142461508512496948 0.083089575171470642 -0.110567316412925720 0.038616973906755447 -0.015423106029629707 -0.063008479773998260 -0.188883602619171143 -0.041265204548835754 -0.119823060929775238 0.120913617312908173 -0.052485369145870209 -0.158872246742248535 -0.152343392372131348 -0.088983982801437378 0.078933537006378174 0.162664353847503662 0.064827740192413330 -0.174796223640441895 -0.042894557118415833 0.018007950857281685 -0.119432590901851654
0.076511889696121216 -0.128879085183143616 -0.122849762439727783 -0.063541792333126068 -0.136702984571456909 -0.017181502655148506 -0.040162861347198486 0.172584012150764465 0.100523114204406738 -0.059153441339731216 -0.129323661327362061 -0.040101774036884308 0.136561721563339233 -0.005586509127169847 -0.056183088570833206 0.119055986404418945 -0.009418452158570290 0.053063780069351196 0.003598975948989391 0.020176075398921967 -0.113834030926227570 -0.091811269521713257 -0.067759208381175995 -0.099742256104946136 0.066070772707462311 -0.019602932035923004 0.139574080705642700 -0.034385986626148224 0.104059904813766479 -0.068570375442504883 -0.197578266263008118 -0.093153826892375946 0.029865698888897896 -0.091011106967926025 0.202347353100776672 0.107205033302307129 0.055600102990865707 0.045838948339223862 0.121170513331890106 0.115676701068878174 0.033071812242269516 -0.046817865222692490 -0.149628788232803345 -0.042146366089582443 0.187307670712471008 0.042290396988391876 -0.058058053255081177 -0.199567973613739014 0.047467436641454697 0.175712376832962036 -0.007872404530644417 -0.022867746651172638 0.076600313186645508 -0.065778292715549469 0.087946765124797821 -0.150290533900260925 0.143274754285812378 0.145565971732139587 -0.031367212533950806 -0.029027739539742470 -0.026481263339519501 -0.019219852983951569 -0.010841079987585545 0.141240388154983521 -0.010200193151831627 0.065722525119781494 -0.021591082215309143 0.086129687726497650 0.159811705350875854 0.112879216670989990 0.141924560070037842 -0.130487620830535889 -0.127761796116828918 0.049450360238552094 -0.152826949954032898 -0.039256691932678223 0.054681535810232162 -0.085028074681758881 0.069188728928565979 0.082211717963218689 0.029330091550946236 0.072703398764133453 0.098597943782806396 -0.057693190872669220 -0.096418648958206177 -0.140381589531898499 -0.125780761241912842 -0.172276496887207031 0.186288967728614807 0.104703068733215332 -0.078477777540683746 0.045361012220382690 0.044933538883924484 -0.016567820683121681 -0.010261229239404202 0.103452265262603760 -0.138792738318443298 0.068275146186351776 -0.069986678659915924 0.031297035515308380
0.112057335674762726 0.106578372418880463 0.045575119554996490 -0.029278151690959930 -0.179178372025489807 -0.031148754060268402 -0.139249488711357117 0.153619661927223206 -0.086015418171882629 0.153177484869956970 -0.161448642611503601 0.036418758332729340 0.052366308867931366 0.017596120014786720 -0.244041725993156433 -0.124828875064849854 -0.121763274073600769 0.099026463925838470 0.172966837882995605 -0.103171229362487793 0.036646086722612381 0.124537065625190735 -0.070512957870960236 -0.054246790707111359 0.190093785524368286 0.173021882772445679 0.141993910074234009 0.020620580762624741 -0.174400955438613892 -0.036245509982109070 -0.101614601910114288 -0.048061527311801910 -0.129124596714973450 -0.163030549883842468 -0.025857076048851013 -0.170985966920852661 0.150297060608863831 -0.022026954218745232 -0.014572731219232082 0.085015833377838135 -0.052917636930942535 0.040167927742004395 0.011944444850087166 0.004162088502198458 0.069448754191398621 -0.034231785684823990 -0.167941436171531677 0.038013994693756104 0.148127987980842590 0.024785261601209641 -0.124541454017162323 -0.189033821225166321 -0.172233790159225464 -0.039281841367483139 -0.120524279773235321 0.041642952710390091 -0.116600051522254944 0.063656769692897797 0.005612776149064302 0.143787190318107605 0.038799688220024109 0.117225430905818939 0.113610543310642242 -0.071525827050209045 -0.122687987983226776 0.103197932243347168 -0.142396152019500732 0.152428328990936279 -0.091524079442024231 -0.182573512196540833 -0.103153236210346222 -0.104292072355747223 0.062949649989604950 0.065473377704620361 0.112946331501007080 -0.050054267048835754 -0.146036818623542786 -0.044034294784069061 0.085808761417865753 -0.126024022698402405 0.132892802357673645 -0.079284578561782837 -0.176118388772010803 0.131590858101844788 -0.050553712993860245 0.116679839789867401 -0.076797366142272949 0.076666139066219330 0.017490880563855171 -0.030525827780365944 0.013141250237822533 -0.091226920485496521 -0.105645097792148590 -0.225443780422210693 0.139377653598785400 -0.132316395640373230 -0.180430874228477478 -0.020148230716586113 -0.085112780332565308 0.136589631438255310
0.141317412257194519 -0.077648125588893890 0.038940373808145523 -0.122621878981590271 -0.143612384796142578 0.131264984607696533 -0.061639897525310516 -0.053436033427715302 -0.032432809472084045 -0.130508080124855042 0.105334356427192688 -0.075066953897476196 0.158576652407646179 0.172640025615692139 0.065982364118099213 -0.046204388141632080 -0.115399464964866638 -0.118320561945438385 -0.080969519913196564 0.070224910974502563 0.131087020039558411 0.136592611670494080 0.162302434444427490 -0.007470070850104094 -0.221909046173095703 -0.013774967752397060 -0.098362229764461517 -0.168792054057121277 -0.048315290361642838 0.115974076092243195 0.142402172088623047 -0.127343073487281799 -0.115151382982730865 0.143815115094184875 0.037564516067504883 0.080524042248725891 -0.058388642966747284 -0.001210392336361110 0.018610209226608276 -0.120777070522308350 0.165842890739440918 0.047031104564666748 -0.096839688718318939 -0.249868273735046387 0.133600562810897827 0.017483022063970566 -0.130718037486076355 -0.029541878029704094 -0.163809567689895630 -0.150473758578300476 -0.086959861218929291 -0.036096520721912384 -0.088764511048793793 0.095956370234489441 0.010871240869164467 0.304399132728576660 0.052258301526308060 -0.059354905039072037 -0.015993217006325722 -0.131756693124771118 0.121208325028419495 0.139865010976791382 -0.154375240206718445 0.001895997556857765 0.156659081578254700 -0.001856538234278560 -0.111184053122997284 -0.073779881000518799 -0.004052747506648302 0.060013726353645325 0.060620352625846863 0.042338117957115173 -0.107447333633899689 0.041419848799705505 0.134364962577819824 0.009574835188686848 0.080692410469055176 -0.108856223523616791 0.122735314071178436 -0.104502081871032715 -0.071797050535678864 -0.113553784787654877 0.163834288716316223 -0.023477785289287567 0.085434742271900177 0.094129942357540131 0.005051250103861094 0.059496514499187469 0.213328287005424500 0.143212482333183289 -0.170294746756553650 -0.179478526115417480 -0.064885854721069336 -0.227252453565597534 -0.086877785623073578 0.135243579745292664 -0.139872461557388306 0.086765825748443604 0.154815673828125000 0.065040580928325653
-0.118602693080902100 -0.142082005739212036 -0.120157249271869659 0.133453160524368286 -0.079801328480243683 -0.151860982179641724 0.181391566991806030 0.147483646869659424 0.100014694035053253 -0.082006052136421204 -0.127121195197105408 0.163174435496330261 -0.121757470071315765 -0.073388189077377319 -0.099083654582500458 0.019085792824625969 -0.187044754624366760 -0.021705670282244682 0.054651360958814621 0.080690503120422363 -0.170314759016036987 -0.022682892158627510 -0.054315183311700821 -0.159188896417617798 0.005684432573616505 0.067245781421661377 -0.052374787628650665 -0.169740468263626099 -0.188945576548576355 0.143463268876075745 0.044774655252695084 -0.078308254480361938 -0.026381619274616241 0.009049350395798683 -0.032151345163583755 0.060680527240037918 -0.000010629888492986 0.108795136213302612 -0.144676193594932556 0.166369006037712097 0.051661763340234756 -0.130184963345527649 -0.020918276160955429 0.059264134615659714 -0.076363645493984222 -0.158697426319122314 -0.176156610250473022 0.079915754497051239 -0.109530389308929443 -0.135290965437889099 0.024254558607935905 0.117667637765407562 -0.128085196018218994 -0.105555824935436249 -0.193621769547462463 0.325446546077728271 0.091709822416305542 0.043443892151117325 0.066264696419239044 0.038332667201757431 0.188628032803535461 -0.036640383303165436 -0.033936064690351486 0.006951376330107450 0.167591899633407593 -0.133390977978706360 0.044834591448307037 0.031384240835905075 -0.220282599329948425 -0.166548997163772583 -0.113860778510570526 -0.126281708478927612 0.062890820205211639 -0.020843081176280975 -0.115642413496971130 -0.077811859548091888 -0.121100798249244690 -0.032427862286567688 0.031234664842486382 0.164788112044334412 -0.053826052695512772 -0.131062611937522888 -0.064576104283332825 0.062186956405639648 0.027735110372304916 0.026224302127957344 -0.040524333715438843 -0.165440544486045837 -0.163750320672988892 0.201210916042327881 0.053562447428703308 -0.067572459578514099 0.119283840060234070 -0.012614210136234760 -0.135780721902847290 0.108563698828220367 0.033387184143066406 0.109342291951179504 0.125330433249473572 0.123194076120853424
0.110137186944484711 -0.053133681416511536 -0.071607477962970734 0.113988071680068970 -0.080783940851688385 -0.123619467020034790 -0.006333830300718546 -0.079022720456123352 -0.157794997096061707 0.131648138165473938 -0.132400080561637878 -0.005159997846931219 0.087095573544502258 -0.146574661135673523 -0.035109698772430420 -0.186816111207008362 0.075890198349952698 -0.093099944293498993 0.219785720109939575 0.122893303632736206 -0.082440607249736786 0.134335204958915710 -0.021379785612225533 -0.164865225553512573 0.210544750094413757 -0.068305701017379761 0.022520072758197784 -0.122691377997398376 -0.017673159018158913 -0.161316469311714172 -0.017264574766159058 -0.139577493071556091 -0.125459194183349609 -0.100102685391902924 0.088038831949234009 0.059148859232664108 0.028932929039001465 -0.159772306680679321 -0.075572922825813293 0.183232441544532776 0.187913641333580017 0.140212208032608032 0.121266387403011322 0.101043604314327240 -0.077782280743122101 -0.209179952740669250 -0.133603915572166443 -0.092145323753356934 0.042346801608800888 -0.053799014538526535 -0.137992829084396362 0.012901627458631992 0.141038283705711365 -0.065748058259487152 -0.234812706708908081 0.237376406788825989 -0.056414391845464706 0.021840512752532959 0.082977287471294403 0.040068823844194412 0.000506099662743509 0.061947613954544067 -0.101193897426128387 -0.167245268821716309 0.093942835927009583 0.057860173285007477 0.041142731904983521 0.155240982770919800 -0.145585373044013977 0.041369754821062088 -0.131787657737731934 0.057820808142423630 0.073328204452991486 0.114225357770919800 0.008285733871161938 0.016262428835034370 0.134178861975669861 0.017891762778162956 -0.012191492132842541 0.154554873704910278 -0.048290286213159561 -0.049435216933488846 0.037219900637865067 0.041691329330205917 -0.056674957275390625 0.008961313404142857 0.075226098299026489 0.034840695559978485 -0.009246928617358208 -0.147562712430953979 0.110293850302696228 0.025737794116139412 -0.118106305599212646 -0.067975319921970367 -0.052657835185527802 0.055216345936059952 0.052728679031133652 -0.107488580048084259 0.006073997821658850 0.125187292695045471
0.037018083035945892 -0.099725984036922455 -0.055270165205001831 0.037182614207267761 -0.160006821155548096 -0.082424841821193695 -0.100250869989395142 -0.154401868581771851 0.057947579771280289 -0.011543685570359230 -0.037889033555984497 0.096742779016494751 0.091115482151508331 -0.058793675154447556 0.047034986317157745 -0.077697426080703735 -0.096546366810798645 -0.113181285560131073 -0.059351585805416107 0.129423588514328003 0.087882399559020996 -0.123882569372653961 0.050887949764728546 -0.161589011549949646 0.050585556775331497 0.099568821489810944 -0.000376070849597454 -0.040377985686063766 -0.094844356179237366 -0.124439604580402374 0.150808379054069519 0.075605243444442749 -0.115510858595371246 -0.140121787786483765 0.125062242150306702 0.008410611189901829 -0.160090714693069458 -0.061443567276000977 -0.120660580694675446 0.018061032518744469 -0.077261291444301605 -0.146952256560325623 0.023648114874958992 0.226847171783447266 -0.043732214719057083 0.081964552402496338 0.111052758991718292 0.118899390101432800 0.095987252891063690 -0.018459832295775414 -0.014980008825659752 -0.153002783656120300 0.133936226367950439 0.160794794559478760 -0.152478158473968506 -0.103663899004459381 -0.030393665656447411 -0.127621158957481384 -0.033929362893104553 -0.122486434876918793 -0.102099493145942688 -0.062463466078042984 0.068117111921310425 -0.152728214859962463 0.084012493491172791 0.074495345354080200 0.203840062022209167 0.112471662461757660 0.142675116658210754 0.158501952886581421 0.030549541115760803 -0.064717426896095276 -0.018252231180667877 -0.151540651917457581 -0.096224889159202576 0.058332514017820358 -0.043926928192377090 0.169538825750350952 0.010725978761911392 -0.093729540705680847 0.099261589348316193 -0.119106814265251160 0.035256598144769669 0.029985319823026657 0.040746960788965225 -0.025050792843103409 -0.115448445081710815 0.021857367828488350 0.066146157681941986 -0.194351255893707275 0.350055545568466187 -0.017131926491856575 -0.085227295756340027 0.310596913099288940 -0.149897024035453796 0.077785044908523560 0.144501879811286926 -0.034744333475828171 -0.111361540853977203 -0.072094388306140900
-0.157664939761161804 0.077091552317142487 0.120152555406093597 -0.026286564767360687 -0.135688975453376770 -0.099193401634693146 -0.048188917338848114 0.032524138689041138 0.085371546447277069 0.089073844254016876 -0.005970468744635582 0.131695270538330078 0.156789481639862061 -0.166579514741897583 -0.206146195530891418 0.145541459321975708 -0.025536093860864639 -0.199676498770713806 0.040454000234603882 0.085808038711547852 0.077758140861988068 0.142206057906150818 -0.181142315268516541 -0.145832940936088562 0.242219597101211548 -0.031589567661285400 0.029043626040220261 0.130361571907997131 -0.033623389899730682 -0.101858459413051605 0.093139290809631348 -0.241476431488990784 -0.147483661770820618 0.009186280891299248 -0.019723493605852127 -0.109923325479030609 -0.073607943952083588 0.009475388564169407 0.067074477672576904 0.045790582895278931 -0.114418804645538330 0.006518366280943155 0.107012122869491577 0.216013759374618530 0.186836808919906616 -0.183788105845451355 0.007307206746190786 -0.038837738335132599 0.009953496046364307 -0.103373162448406219 -0.002783222356811166 -0.016854474321007729 -0.158562198281288147 -0.065655283629894257 0.064583159983158112 0.031480431556701660 -0.037636790424585342 0.109718061983585358 -0.070384643971920013 -0.111082792282104492 0.045929908752441406 -0.063594855368137360 0.062975652515888214 0.038746960461139679 -0.024606741964817047 -0.098601706326007843 0.088176809251308441 -0.048106577247381210 0.049899552017450333 -0.004775636829435825 0.093393757939338684 -0.134858354926109314 -0.122306518256664276 0.113549828529357910 -0.140495106577873230 0.067877449095249176 0.111471094191074371 0.176936000585556030 -0.125580459833145142 0.115690208971500397 0.146130651235580444 0.187070369720458984 -0.045252714306116104 -0.056994419544935226 0.055498473346233368 0.085800454020500183 0.034447766840457916 0.092115141451358795 0.164133623242378235 -0.165223523974418640 0.003695674240589142 0.199644163250923157 0.046862281858921051 -0.060257047414779663 -0.062589965760707855 -0.054096292704343796 -0.111508190631866455 0.049472432583570480 -0.033316314220428467 0.137762114405632019
0.058117792010307312 0.007983506657183170 -0.128324672579765320 0.165532827377319336 -0.180510565638542175 -0.058313727378845215 -0.041094783693552017 -0.026538588106632233 -0.005926551297307014 -0.138845250010490417 0.121380865573883057 -0.079736895859241486 -0.015210549347102642 -0.109011828899383545 -0.009730760008096695 -0.063878014683723450 0.051212910562753677 -0.045705299824476242 -0.162892460823059082 0.156737148761749268 0.164150118827819824 0.059089679270982742 0.021200085058808327 -0.040808640420436859 0.170643106102943420 -0.059850428253412247 0.085208557546138763 -0.133347749710083008 -0.092727065086364746 -0.051364812999963760 -0.012390685267746449 0.074737064540386200 -0.068222396075725555 0.023428412154316902 0.055805545300245285 -0.122455373406410217 -0.134928137063980103 -0.071541041135787964 -0.078521989285945892 -0.087432831525802612 0.104827426373958588 0.151847794651985168 0.073937237262725830 0.094446331262588501 -0.071212857961654663 -0.156138196587562561 0.172592654824256897 -0.153822481632232666 -0.068494841456413269 -0.153912618756294250 -0.079221397638320923 0.143617451190948486 -0.054512295871973038 -0.001999984262511134 -0.057980619370937347 0.006472253240644932 0.093710117042064667 -0.150506213307380676 0.132780730724334717 0.163900151848793030 0.110551573336124420 0.050830584019422531 0.072742879390716553 0.045301694422960281 0.027557259425520897 0.106960408389568329 0.201682478189468384 0.089849829673767090 -0.103096991777420044 -0.139718726277351379 -0.082483358681201935 -0.185154259204864502 -0.123848311603069305 0.016090538352727890 0.093737319111824036 0.093513980507850647 -0.074118994176387787 0.086308918893337250 -0.032242722809314728 0.035160128027200699 0.138848885893821716 -0.142312049865722656 -0.137352213263511658 0.043468836694955826 -0.128168731927871704 -0.055859744548797607 0.080959543585777283 0.082360349595546722 -0.209120765328407288 -0.078871265053749084 0.205338880419731140 -0.062865160405635834 0.139795422554016113 0.621951580047607422 -0.021956739947199821 0.048335202038288116 0.159514576196670532 -0.179911270737648010 -0.035531952977180481 0.106650270521640778
-0.083036810159683228 -0.001223093247972429 -0.090864218771457672 -0.015894331037998199 -0.059116318821907043 0.107529640197753906 -0.099128767848014832 -0.120195567607879639 0.167222321033477783 -0.047707132995128632 0.098066881299018860 -0.014891572296619415 -0.037101946771144867 -0.175685986876487732 -0.122214451432228088 0.111657716333866119 0.057464595884084702 -0.131599649786949158 0.016974454745650291 -0.049196589738130569 0.081909157335758209 0.111888788640499115 -0.063631609082221985 0.012374413199722767 -0.071342557668685913 0.096319936215877533 0.174461722373962402 -0.121127545833587646 -0.106464050710201263 -0.169648006558418274 -0.187250673770904541 -0.081061057746410370 0.060839984565973282 -0.158132255077362061 0.154188901185989380 -0.009963224641978741 0.043853599578142166 -0.023896392434835434 -0.142520755529403687 -0.050007198005914688 -0.091255426406860352 -0.183640822768211365 0.038459140807390213 0.188548207283020020 0.158603161573410034 -0.111150063574314117 0.060033470392227173 -0.203181326389312744 -0.022957572713494301 0.047557543963193893 -0.076225489377975464 0.059532620012760162 -0.018723670393228531 0.010441513732075691 -0.091375164687633514 0.120779454708099365 -0.086419194936752319 -0.112012296915054321 0.136095046997070312 0.007135426625609398 0.130002334713935852 -0.102646730840206146 -0.114300459623336792 -0.035671319812536240 0.029887998476624489 -0.133419692516326904 0.127457693219184875 0.186829984188079834 0.102029360830783844 0.041531130671501160 0.049889579415321350 -0.042161416262388229 0.098517835140228271 -0.153240457177162170 -0.058199647814035416 0.138632118701934814 -0.163159057497978210 0.023905580863356590 0.140962734818458557 0.110307902097702026 0.026718892157077789 0.014434595592319965 -0.116893619298934937 -0.187823638319969177 0.100457668304443359 -0.131465688347816467 -0.110964328050613403 0.042856097221374512 0.188495635986328125 -0.099532775580883026 -0.029551606625318527 0.056149791926145554 0.131308406591415405 -0.070951759815216064 0.042542997747659683 0.187472686171531677 -0.080344051122665405 -0.049907546490430832 0.133345261216163635 0.098748996853828430
