#Layer 7 Weights:
0.080315716564655304 0.038097534328699112 -0.131470963358879089 -0.008406504057347775 0.107542976737022400 0.001933488645590842 -0.106771618127822876 -0.084902077913284302 0.001208905247040093 -0.020911969244480133 -0.019582809880375862 -0.082210429012775421 -0.085836939513683319 0.031346172094345093 -0.030557099729776382 -0.002106479369103909 -0.125106766819953918 0.138050675392150879 0.120225951075553894 0.064810961484909058 -0.094133749604225159 -0.025597747415304184 -0.040125660598278046 0.074107661843299866 0.131157726049423218 -0.112266913056373596 -0.135507583618164062 -0.002081030048429966 -0.149578958749771118 0.072528734803199768 0.071702525019645691 -0.041304286569356918 -0.048698976635932922 -0.023346941918134689 -0.134372338652610779 -0.103983461856842041 0.072272442281246185 0.053529601544141769 -0.093934550881385803 -0.021149365231394768 -0.146181270480155945 0.003201872110366821 0.078989371657371521 -0.120063051581382751 0.128034591674804688 -0.003143663518130779 -0.032534159719944000 0.067346923053264618 -0.052109871059656143 0.133054673671722412 0.111652389168739319 -0.148068293929100037 0.110307328402996063 0.081738919019699097 0.081989124417304993 0.014400372281670570 -0.137388944625854492 0.091751456260681152 -0.067423790693283081 0.024294687435030937 0.033455852419137955 -0.128557339310646057 0.076819129288196564 -0.120236203074455261 -0.027908567339181900 -0.068822816014289856 -0.075976110994815826 0.139660447835922241 -0.108843587338924408 0.044121086597442627 -0.115595929324626923 -0.086413681507110596 -0.131613537669181824 -0.009832714684307575 0.098721832036972046 -0.068960607051849365 -0.130854681134223938 -0.008822047151625156 0.007019153330475092 -0.160040423274040222 0.125182911753654480 0.074855551123619080 -0.085340581834316254 -0.069533191621303558 -0.076833680272102356 -0.132888644933700562 -0.128955051302909851 0.109701812267303467 0.035913914442062378 0.092888705432415009 -0.079648710787296295 -0.067833624780178070 0.008655193261802197 -0.028134448453783989 0.060920283198356628 0.098472505807876587 -0.132252901792526245 -0.152584701776504517 0.113534189760684967 0.026804599910974503
0.132157504558563232 -0.032395251095294952 -0.099434077739715576 -0.107595987617969513 0.164778798818588257 0.116017311811447144 0.037460502237081528 0.082698091864585876 -0.056545205414295197 0.140915840864181519 -0.089229941368103027 0.029305176809430122 0.088612295687198639 -0.004348119720816612 -0.021313020959496498 0.003935739863663912 0.022504659369587898 -0.054754283279180527 -0.009535352699458599 -0.092860080301761627 0.139096483588218689 0.058610852807760239 0.051884356886148453 -0.031514175236225128 -0.129394292831420898 -0.112437836825847626 0.019720358774065971 0.069889046251773834 0.012273660860955715 -0.144537150859832764 -0.161899030208587646 0.171891793608665466 0.074427373707294464 -0.026758804917335510 -0.110180027782917023 0.121936343610286713 -0.065457448363304138 0.135621413588523865 -0.014464898966252804 0.129761591553688049 -0.174679085612297058 0.128184601664543152 0.165730059146881104 0.027166038751602173 0.122861683368682861 0.039528541266918182 0.015537715516984463 0.122070632874965668 0.156251728534698486 -0.007353864610195160 -0.033042434602975845 0.027563275769352913 0.056194197386503220 0.082428984344005585 0.016942037269473076 0.124170564115047455 0.049800660461187363 0.088688284158706665 -0.160942450165748596 -0.151250526309013367 -0.224376499652862549 0.152822688221931458 -0.118429936468601227 -0.039545137435197830 0.072918012738227844 0.144291862845420837 -0.074730448424816132 -0.142681807279586792 -0.104562528431415558 0.039118096232414246 -0.023034265264868736 0.098254136741161346 0.067080669105052948 -0.038275063037872314 0.085456572473049164 0.146192759275436401 -0.096377611160278320 0.015168548561632633 -0.169088840484619141 0.117323838174343109 -0.110189288854598999 0.218998506665229797 -0.081748895347118378 0.059096965938806534 0.072269745171070099 -0.162473380565643311 0.027163516730070114 -0.002760156523436308 0.115891933441162109 0.030550336465239525 0.071429863572120667 -0.126114502549171448 -0.025329656898975372 -0.019246673211455345 -0.011341275647282600 0.020550832152366638 0.132649764418601990 -0.021209379658102989 0.105003848671913147 0.003584416816011071
-0.089733317494392395 -0.138278827071189880 0.020259961485862732 0.025605777278542519 -0.100678168237209320 -0.149761438369750977 -0.104579657316207886 -0.025046642869710922 -0.135974138975143433 -0.118103869259357452 0.015798958018422127 0.130160033702850342 -0.033104792237281799 0.084544539451599121 -0.106689058244228363 0.006730976980179548 0.029064625501632690 0.006763547193259001 -0.019329890608787537 0.060968991369009018 0.080714039504528046 0.121870480477809906 0.158453553915023804 0.022779811173677444 -0.151898995041847229 0.067048437893390656 0.000657307391520590 0.125310927629470825 0.155214235186576843 0.075077205896377563 -0.041908111423254013 0.066152669489383698 0.054073341190814972 0.018169032409787178 0.063236534595489502 -0.076301082968711853 -0.137284025549888611 0.038493935018777847 0.197486937046051025 0.063495181500911713 0.063139967620372772 0.145117998123168945 -0.129009455442428589 0.026206526905298233 -0.090270914137363434 0.171204477548599243 0.138842061161994934 0.132997632026672363 -0.008693254552781582 -0.160668626427650452 -0.002753281034529209 -0.174672335386276245 -0.087389223277568817 0.135602846741676331 0.092867575585842133 -0.157328858971595764 0.042815670371055603 0.085329331457614899 0.090573973953723907 -0.037853579968214035 0.147230520844459534 -0.112599186599254608 -0.003403676906600595 -0.150651529431343079 0.044440608471632004 -0.001237145159393549 0.070909544825553894 0.130587756633758545 0.036243200302124023 0.001576840179041028 0.168425321578979492 -0.123548522591590881 -0.048323508352041245 -0.059869006276130676 0.108295679092407227 -0.074008449912071228 -0.107045494019985199 0.028530169278383255 0.163380339741706848 0.017248807474970818 0.115668632090091705 0.000972233421634883 -0.122202306985855103 -0.136772006750106812 0.090426281094551086 -0.088989138603210449 0.133771896362304688 0.094632528722286224 0.128798604011535645 -0.010296124033629894 -0.002009993884712458 -0.041007541120052338 0.090760931372642517 0.006841205991804600 0.163388296961784363 0.085003525018692017 -0.085000365972518921 0.103141754865646362 -0.045903842896223068 -0.100187942385673523
-0.044331632554531097 0.057103630155324936 -0.113578289747238159 0.109179571270942688 0.052622023969888687 -0.087363794445991516 0.109006211161613464 0.055077552795410156 0.019808961078524590 -0.086665265262126923 0.068862527608871460 -0.027689907699823380 0.022462192922830582 0.083584338426589966 -0.043838929384946823 -0.074019365012645721 0.122899636626243591 -0.030933601781725883 -0.008618299849331379 -0.145717054605484009 0.007198760751634836 0.064070910215377808 0.129024609923362732 -0.034537658095359802 0.055579572916030884 0.096112191677093506 0.008141892030835152 -0.076997302472591400 0.172600775957107544 0.143436029553413391 -0.034593965858221054 -0.159459203481674194 -0.033077646046876907 0.125705540180206299 0.139706462621688843 0.142950296401977539 -0.025086661800742149 -0.062526494264602661 -0.048786506056785583 -0.157017365097999573 -0.039580039680004120 0.068114206194877625 -0.164346188306808472 -0.041205804795026779 0.053317267447710037 0.142857939004898071 -0.042357217520475388 -0.005340524949133396 -0.140197321772575378 -0.069756180047988892 -0.120291374623775482 0.010531387291848660 -0.070594280958175659 -0.080974258482456207 0.061238572001457214 -0.139191433787345886 -0.066832907497882843 -0.165140241384506226 0.064027823507785797 -0.013980792835354805 0.109967775642871857 -0.136336222290992737 0.049004003405570984 -0.054800380021333694 0.085132658481597900 -0.129058495163917542 -0.158010527491569519 0.145801588892936707 -0.107888907194137573 -0.096197970211505890 0.122322432696819305 -0.092268235981464386 -0.115320220589637756 0.122595310211181641 0.081698186695575714 -0.156764969229698181 0.065258100628852844 -0.065190821886062622 0.161615714430809021 -0.056747768074274063 0.145879119634628296 -0.164824739098548889 0.165868937969207764 -0.097139865159988403 -0.062741987407207489 0.042208548635244370 0.104210384190082550 0.088982738554477692 0.008712479844689369 -0.047718644142150879 0.165752679109573364 0.012092706747353077 -0.121110029518604279 -0.126529678702354431 0.141384959220886230 0.140041723847389221 -0.017685588449239731 -0.065840199589729309 0.082185760140419006 0.163460060954093933
-0.131246566772460938 0.166867807507514954 -0.113331586122512817 0.009389313869178295 -0.110396295785903931 -0.034300155937671661 0.099840082228183746 0.035527024418115616 0.083531595766544342 -0.035921756178140640 0.009460115805268288 -0.023825848475098610 -0.153698235750198364 0.157794564962387085 -0.107970699667930603 -0.150122106075286865 0.050522491335868835 0.080719023942947388 -0.098631888628005981 -0.018169533461332321 0.140542089939117432 -0.029778627678751945 0.000152017310028896 0.141595900058746338 0.046135023236274719 -0.067313008010387421 -0.093577489256858826 0.041010536253452301 0.161702394485473633 0.077241882681846619 -0.012141205370426178 0.019079135730862617 -0.145805105566978455 -0.165498167276382446 0.099309213459491730 0.162001907825469971 0.095638945698738098 0.100568413734436035 0.033284865319728851 0.002513181418180466 0.142960727214813232 -0.108770199120044708 0.007526904810220003 0.022200156003236771 -0.125738441944122314 -0.058290097862482071 -0.009691870771348476 -0.084388636052608490 0.106229640543460846 0.048389885574579239 0.146948531270027161 0.057571671903133392 -0.059162486344575882 -0.145202681422233582 0.066635437309741974 0.041678223758935928 -0.201683998107910156 0.091269060969352722 -0.084233202040195465 -0.020430689677596092 0.213116928935050964 0.099726632237434387 0.127018362283706665 0.025583798065781593 -0.003496334189549088 -0.100636906921863556 -0.039465188980102539 -0.012965884059667587 -0.040812738239765167 -0.039950020611286163 0.154134243726730347 0.043618116527795792 -0.106381237506866455 0.135559231042861938 -0.020426856353878975 0.132529973983764648 0.091799996793270111 -0.057595267891883850 0.132679671049118042 0.170122012495994568 -0.012282934971153736 -0.078783519566059113 -0.074875906109809875 0.096622765064239502 -0.002261359244585037 -0.162794381380081177 -0.060326457023620605 -0.043272394686937332 -0.071009211242198944 0.066568076610565186 -0.141158908605575562 -0.107475250959396362 0.160454630851745605 -0.128707498311996460 0.170466363430023193 0.180769741535186768 -0.092994242906570435 -0.116900958120822906 -0.086291804909706116 -0.015039128251373768
-0.054963171482086182 0.092735320329666138 0.103647135198116302 -0.071450203657150269 0.087095811963081360 -0.099616646766662598 0.131141901016235352 -0.125525578856468201 -0.117111586034297943 -0.139074981212615967 -0.173528864979743958 -0.112305238842964172 -0.172557860612869263 -0.071249626576900482 0.154700130224227905 -0.062660865485668182 -0.048370506614446640 -0.135618001222610474 0.178459823131561279 0.072781242430210114 -0.173806503415107727 0.088112264871597290 -0.054601173847913742 -0.050285436213016510 -0.089763760566711426 0.079556480050086975 -0.028847411274909973 -0.040714088827371597 -0.014749034307897091 -0.080943211913108826 -0.076774194836616516 0.049990192055702209 0.056214015930891037 0.207506850361824036 -0.028331702575087547 -0.078843221068382263 -0.000942946935538203 -0.078994870185852051 0.127310901880264282 0.047483440488576889 -0.166593715548515320 -0.012772463262081146 -0.123917214572429657 0.126476243138313293 -0.141125485301017761 -0.069875240325927734 0.123404115438461304 0.138892829418182373 -0.159858033061027527 -0.111731834709644318 -0.062797650694847107 -0.156094729900360107 -0.068991161882877350 -0.011566683650016785 0.053031660616397858 -0.045945253223180771 -0.024858715012669563 0.152112752199172974 -0.077708713710308075 -0.035940043628215790 0.034634780138731003 0.118847072124481201 0.169389620423316956 -0.142462834715843201 0.041035111993551254 -0.069456413388252258 -0.014746397733688354 -0.059311550110578537 0.069281809031963348 0.017207462340593338 0.076783046126365662 -0.034206591546535492 0.136383593082427979 -0.033245652914047241 0.078372955322265625 0.147576436400413513 0.051179744303226471 -0.101377710700035095 0.100614272058010101 0.165110036730766296 0.103853777050971985 0.014187059365212917 0.137534216046333313 -0.096616670489311218 -0.049341067671775818 0.059917118400335312 -0.150941520929336548 -0.073695927858352661 -0.085798963904380798 -0.075339175760746002 -0.103060394525527954 0.103889711201190948 -0.158214956521987915 0.006594518665224314 -0.084157012403011322 0.207900375127792358 0.084290497004985809 0.018428815528750420 -0.023875543847680092 -0.057552412152290344
0.102001085877418518 0.016117639839649200 -0.025311425328254700 0.056914839893579483 -0.170613497495651245 -0.008487121202051640 0.110250383615493774 0.146570831537246704 -0.132616564631462097 0.030721353366971016 0.108659096062183380 0.144627839326858521 0.130818977952003479 0.127963721752166748 -0.151255488395690918 -0.118835635483264923 0.124585278332233429 0.124837651848793030 0.044941417872905731 0.127583995461463928 -0.126247093081474304 0.161276474595069885 -0.164209738373756409 -0.158484101295471191 0.064152486622333527 -0.121075242757797241 0.046561107039451599 0.151083275675773621 -0.136915385723114014 -0.132450923323631287 -0.042092196643352509 -0.214146435260772705 -0.134088560938835144 -0.111755222082138062 0.158213213086128235 -0.064604923129081726 -0.064876809716224670 0.029859792441129684 -0.107524931430816650 -0.125175356864929199 -0.073319099843502045 0.072584010660648346 0.091391302645206451 0.085926264524459839 -0.142044305801391602 -0.002197456080466509 -0.048147678375244141 0.060283090919256210 -0.111512824892997742 0.096814803779125214 -0.025202175602316856 -0.170121043920516968 0.108719587326049805 0.081394083797931671 0.084855720400810242 0.034479882568120956 -0.168140634894371033 -0.116813689470291138 0.171791747212409973 -0.080892123281955719 0.183903917670249939 0.145358771085739136 -0.009570084512233734 -0.154185965657234192 -0.159626126289367676 0.143396452069282532 0.008643961511552334 0.100175559520721436 0.089157134294509888 0.049146398901939392 -0.070054009556770325 0.099380649626255035 -0.057513169944286346 0.119769416749477386 -0.178630277514457703 -0.100202880799770355 -0.055218622088432312 0.004979569464921951 -0.137406721711158752 0.004025939386337996 -0.069553382694721222 -0.097960434854030609 -0.141716450452804565 -0.046193972229957581 0.099670045077800751 -0.114857651293277740 -0.017644215375185013 -0.125495582818984985 0.108041405677795410 -0.065696828067302704 0.089240536093711853 -0.135747998952865601 0.124381795525550842 -0.093365460634231567 -0.149021983146667480 0.056202154606580734 -0.158027082681655884 0.112912192940711975 -0.003948677796870470 0.058272618800401688
-0.046341434121131897 -0.078107319772243500 0.036380380392074585 -0.071371115744113922 0.007418856024742126 0.075162939727306366 0.072278454899787903 0.116682820022106171 -0.112596340477466583 -0.057504989206790924 0.143933996558189392 -0.103593774139881134 -0.153881222009658813 0.161034941673278809 0.041625022888183594 -0.168305158615112305 0.130437523126602173 -0.045636259019374847 0.053116474300622940 0.150853738188743591 0.013739075511693954 0.101291656494140625 -0.134471222758293152 -0.125535279512405396 -0.117274969816207886 -0.088559687137603760 0.156950697302818298 -0.032577637583017349 -0.165606319904327393 -0.161438018083572388 -0.167953088879585266 0.176951929926872253 -0.076565444469451904 0.141410261392593384 0.064039990305900574 -0.044747520238161087 -0.100558891892433167 0.125387191772460938 0.076448075473308563 -0.149769812822341919 -0.096601538360118866 -0.038065299391746521 0.061027918010950089 0.088395498692989349 -0.008382705040276051 0.019594199955463409 0.165849134325981140 0.039281353354454041 0.015489152632653713 -0.072976626455783844 0.106878161430358887 -0.007572099566459656 0.050656486302614212 -0.166027724742889404 0.016866050660610199 -0.020600117743015289 0.098263666033744812 0.123897448182106018 0.153977215290069580 -0.107442736625671387 -0.173329532146453857 0.047252539545297623 0.104905493557453156 -0.129962354898452759 0.139889970421791077 0.072367407381534576 0.089324116706848145 0.155990153551101685 0.129665419459342957 0.130265474319458008 -0.183278813958168030 0.109546914696693420 -0.034052010625600815 0.111916653811931610 -0.070493087172508240 0.140251085162162781 -0.008856817148625851 -0.096155904233455658 0.130947127938270569 -0.104397900402545929 0.023673472926020622 -0.012023101560771465 0.027054680511355400 0.010171834379434586 -0.081219777464866638 0.170078530907630920 -0.048211898654699326 0.136266872286796570 0.030223535373806953 0.054436933249235153 0.170391574501991272 0.155237153172492981 -0.020738407969474792 0.031722899526357651 -0.005520333070307970 -0.064760521054267883 0.031294740736484528 0.072632446885108948 0.088047556579113007 0.045810658484697342
0.082745499908924103 -0.064031630754470825 0.175907745957374573 -0.056102711707353592 0.011843084357678890 -0.168729603290557861 -0.031154651194810867 0.137072503566741943 0.097321130335330963 0.056696135550737381 -0.087305650115013123 -0.083019942045211792 -0.082475468516349792 -0.144130259752273560 -0.062152702361345291 0.040663298219442368 0.130638644099235535 0.085362419486045837 0.170672520995140076 -0.003642621915787458 -0.068003691732883453 -0.052643433213233948 -0.108800761401653290 -0.088785946369171143 0.136986881494522095 0.108061715960502625 -0.034185383468866348 -0.167900532484054565 -0.021131839603185654 -0.045384656637907028 -0.089001566171646118 0.008914499543607235 0.006235365755856037 -0.074593216180801392 -0.156009674072265625 -0.137575984001159668 0.078872762620449066 -0.075226999819278717 0.110871620476245880 0.142204165458679199 -0.097990058362483978 0.034514591097831726 0.030786771327257156 0.037200726568698883 0.153431922197341919 0.002782623749226332 0.158121630549430847 -0.153758555650711060 0.182693392038345337 -0.092847511172294617 0.071290269494056702 0.035223603248596191 0.017767084762454033 0.128844246268272400 -0.157450601458549500 0.019866524264216423 -0.116165496408939362 -0.110621437430381775 -0.144604802131652832 0.041369624435901642 0.030367586761713028 0.053660430014133453 0.011304291896522045 -0.086292289197444916 -0.075713589787483215 -0.127183824777603149 -0.119484454393386841 -0.077432848513126373 0.117460958659648895 0.108435355126857758 -0.057133331894874573 -0.139092653989791870 0.078652866184711456 -0.032741583883762360 -0.121133156120777130 -0.012202421203255653 0.102381944656372070 -0.080093316733837128 -0.034640345722436905 -0.001638308167457581 0.061659105122089386 -0.181538209319114685 -0.030601486563682556 -0.150097623467445374 0.094930611550807953 -0.058172117918729782 -0.103552795946598053 -0.153432905673980713 -0.191648706793785095 -0.133862420916557312 -0.031988725066184998 -0.078306429088115692 0.057966873049736023 -0.060697536915540695 0.128227055072784424 -0.027433706447482109 0.093466557562351227 0.145853817462921143 0.109173394739627838 -0.053165160119533539
0.133574932813644409 -0.056051455438137054 -0.062116045504808426 -0.127636238932609558 -0.071194969117641449 -0.134575650095939636 -0.119954496622085571 -0.026268161833286285 0.098595604300498962 0.062755443155765533 -0.089554607868194580 0.074999667704105377 -0.164660573005676270 -0.128669902682304382 0.002058683661743999 0.180177405476570129 -0.107429824769496918 -0.070133060216903687 -0.108644358813762665 0.027738379314541817 0.035850781947374344 -0.150237515568733215 -0.165506273508071899 -0.112989902496337891 -0.169405534863471985 0.135978713631629944 0.007215402089059353 0.055201195180416107 0.142708599567413330 -0.151611551642417908 -0.058033157140016556 -0.143966719508171082 0.159726724028587341 0.132245361804962158 0.110032416880130768 -0.081940472126007080 0.042153418064117432 -0.071919299662113190 -0.084427773952484131 -0.121254898607730865 0.001663072383962572 -0.027630690485239029 -0.108537256717681885 0.034915614873170853 0.136783272027969360 0.021471753716468811 -0.042612228542566299 0.152455002069473267 -0.063975676894187927 -0.123847857117652893 -0.048064831644296646 -0.111814878880977631 0.029705518856644630 -0.081726282835006714 0.072860218584537506 -0.104720219969749451 -0.096837341785430908 -0.105463512241840363 0.038292761892080307 -0.028720477595925331 0.118736386299133301 0.161849245429039001 -0.118487112224102020 -0.092411257326602936 -0.127139419317245483 0.150806158781051636 -0.093478366732597351 0.119093671441078186 0.001381634734570980 0.126897782087326050 0.176956385374069214 -0.148684546351432800 -0.038214329630136490 -0.149210259318351746 -0.105763673782348633 -0.153478577733039856 -0.025112221017479897 -0.050021506845951080 0.153598308563232422 -0.159603521227836609 0.107250437140464783 0.004796386230736971 -0.130826726555824280 0.163391560316085815 -0.066359102725982666 0.059630796313285828 0.153033643960952759 0.084309622645378113 -0.031628221273422241 0.163243606686592102 -0.148832201957702637 -0.074840940535068512 -0.046032335609197617 -0.010904785245656967 0.053997457027435303 0.038479063659906387 0.077508956193923950 0.157019913196563721 0.117669746279716492 -0.125126168131828308
0.181258738040924072 -0.093310452997684479 0.040888294577598572 -0.134118393063545227 -0.171967715024948120 0.087389409542083740 -0.071221448481082916 0.121325127780437469 0.076586358249187469 0.065728537738323212 0.060218419879674911 -0.104320742189884186 -0.117862664163112640 0.031785856932401657 0.078607037663459778 -0.090339191257953644 -0.001223413390107453 0.051341746002435684 -0.090920634567737579 0.096050530672073364 0.041341692209243774 -0.012816181406378746 -0.145345315337181091 0.038523185998201370 -0.044750526547431946 -0.152972176671028137 -0.089529938995838165 0.062332212924957275 0.015793951228260994 -0.179461926221847534 -0.164933890104293823 -0.087864868342876434 -0.155984133481979370 0.103148490190505981 -0.148034438490867615 0.115489840507507324 0.149324864149093628 0.115631423890590668 0.100424975156784058 0.088074699044227600 -0.103759832680225372 0.026306306943297386 -0.154810786247253418 -0.161219626665115356 0.058014009147882462 -0.136108845472335815 -0.142998471856117249 0.019652018323540688 0.141712203621864319 -0.143108427524566650 -0.172708824276924133 -0.129841998219490051 -0.118023760616779327 0.003732679411768913 -0.089358493685722351 -0.070403702557086945 0.005671008024364710 -0.128363281488418579 0.166276186704635620 0.062703564763069153 -0.143119305372238159 -0.002476657507941127 0.103391125798225403 -0.157596006989479065 0.122586086392402649 -0.169598713517189026 -0.103731028735637665 0.072456799447536469 -0.147992372512817383 0.103884555399417877 0.148085787892341614 0.119599968194961548 0.003782292362302542 -0.043469578027725220 0.062353610992431641 -0.157476857304573059 0.129464656114578247 -0.031517636030912399 0.035409286618232727 0.087411314249038696 -0.138846620917320251 0.138181522488594055 0.116643846035003662 0.023363571614027023 0.159333854913711548 -0.054128903895616531 -0.136721402406692505 -0.087653398513793945 -0.089960709214210510 0.132035598158836365 -0.012512092478573322 0.103797189891338348 -0.079944483935832977 -0.093634694814682007 0.121697962284088135 0.069724597036838531 0.141974762082099915 -0.076734036207199097 -0.163607403635978699 -0.062586285173892975
-0.089020192623138428 -0.111676037311553955 -0.152647405862808228 -0.166528075933456421 -0.088442191481590271 0.047472313046455383 0.108693785965442657 -0.145877152681350708 0.042814761400222778 0.068645678460597992 -0.162913396954536438 -0.039777524769306183 -0.027918240055441856 0.115392893552780151 -0.160236328840255737 -0.090582460165023804 -0.078403845429420471 0.042342841625213623 -0.062569238245487213 0.162901073694229126 -0.089592419564723969 0.128950133919715881 -0.041333548724651337 0.119581483304500580 -0.094816766679286957 0.113518908619880676 0.101182237267494202 -0.081023201346397400 0.047820590436458588 -0.084041267633438110 0.018221236765384674 0.044135484844446182 -0.005949589423835278 -0.153315693140029907 0.051536686718463898 -0.100835874676704407 -0.138411313295364380 0.013022360391914845 -0.065725937485694885 0.022485528141260147 -0.112883307039737701 -0.151457279920578003 -0.092678390443325043 0.027872385457158089 -0.083336718380451202 0.082381084561347961 -0.057072490453720093 0.081887438893318176 -0.039630621671676636 -0.029486512765288353 0.033828672021627426 -0.131838545203208923 -0.088275924324989319 0.000810077006462961 -0.168352082371711731 0.091158479452133179 -0.030503202229738235 0.141311392188072205 0.117682650685310364 -0.124524593353271484 -0.006285718176513910 0.018307130783796310 0.147389188408851624 0.139947935938835144 0.102418623864650726 0.173353880643844604 0.148204669356346130 0.071113824844360352 0.133292198181152344 0.000837678497191519 -0.035827863961458206 0.148691803216934204 -0.093753650784492493 0.144099935889244080 0.112855970859527588 -0.012380563654005527 0.048084467649459839 -0.139502912759780884 -0.003949244972318411 0.034604866057634354 0.175298973917961121 0.149272322654724121 0.006678368430584669 0.023337312042713165 -0.148741573095321655 -0.099468700587749481 -0.154968217015266418 -0.083150446414947510 -0.163743540644645691 -0.024503713473677635 -0.012224855832755566 0.141506746411323547 -0.086898967623710632 0.218933552503585815 -0.171199142932891846 0.031132986769080162 0.039430655539035797 0.054000832140445709 -0.172244682908058167 0.133258163928985596
0.128089606761932373 0.004745874553918839 0.158794701099395752 0.050355706363916397 -0.189740389585494995 -0.141065120697021484 -0.015431843698024750 -0.049872417002916336 0.042702592909336090 -0.075338281691074371 -0.019923735409975052 -0.096005901694297791 0.047737527638673782 -0.085393488407135010 -0.045296970754861832 0.033983800560235977 -0.012097108177840710 0.103265337646007538 -0.127430021762847900 -0.112390346825122833 0.030503431335091591 -0.013113951310515404 0.127853855490684509 0.136808574199676514 -0.095652416348457336 -0.062233790755271912 -0.117033839225769043 0.029053179547190666 0.023059327155351639 0.127077937126159668 0.094601735472679138 0.016694867983460426 0.116309948265552521 0.053578209131956100 -0.160895004868507385 -0.000436593603808433 -0.029807791113853455 -0.124775715172290802 0.093104586005210876 0.056640997529029846 0.050719872117042542 -0.057580567896366119 -0.100690416991710663 0.147848710417747498 -0.043275579810142517 0.080540232360363007 -0.111408770084381104 0.011967291124165058 -0.125700771808624268 0.014540629461407661 0.147611960768699646 -0.029860392212867737 -0.075543411076068878 -0.067367613315582275 0.085148282349109650 -0.133098796010017395 -0.050344679504632950 0.059968486428260803 0.114749819040298462 -0.000209291829378344 -0.085842408239841461 0.091036520898342133 0.153060153126716614 -0.126947015523910522 0.054729398339986801 0.053845856338739395 -0.066162489354610443 -0.077339634299278259 -0.129021331667900085 0.102131038904190063 -0.117599517107009888 0.177638515830039978 -0.138686895370483398 0.010308881290256977 0.066364981234073639 -0.096661835908889771 -0.046284709125757217 0.065472193062305450 -0.032313533127307892 -0.095848664641380310 -0.067587248980998993 -0.140598773956298828 0.014786107465624809 0.046865068376064301 0.171611353754997253 -0.124950811266899109 0.144409954547882080 0.115893028676509857 0.123738735914230347 0.013627173379063606 0.093994989991188049 -0.063577301800251007 -0.097619518637657166 0.077400401234626770 0.103553399443626404 -0.132786378264427185 0.035754363983869553 0.012211499735713005 -0.039612159132957458 0.080213315784931183
0.009958396665751934 0.085211880505084991 -0.067152462899684906 -0.112584844231605530 -0.038165807723999023 -0.168035134673118591 -0.128423243761062622 -0.095151267945766449 -0.067546695470809937 0.020355477929115295 0.133712351322174072 0.150030493736267090 0.210585132241249084 0.161660909652709961 0.095049746334552765 -0.063801154494285583 -0.120884306728839874 0.142344012856483459 0.159477084875106812 0.102152563631534576 -0.128127440810203552 0.043807990849018097 -0.128813788294792175 -0.154702082276344299 -0.105510205030441284 0.134820133447647095 0.150960907340049744 -0.064445339143276215 0.108592927455902100 0.129214271903038025 -0.118945650756359100 0.204699724912643433 -0.158367797732353210 -0.026614263653755188 -0.052165642380714417 0.089984290301799774 0.006922504864633083 -0.156240120530128479 0.118929378688335419 -0.104681484401226044 0.050597645342350006 0.114917837083339691 -0.153171658515930176 0.137218534946441650 -0.196724995970726013 0.090965405106544495 0.093736402690410614 -0.136683493852615356 -0.021762201562523842 -0.050755985081195831 0.026902696117758751 -0.145613372325897217 0.100019581615924835 0.028501497581601143 -0.159052386879920959 -0.011845417320728302 -0.005774893332272768 -0.043585516512393951 0.119534850120544434 0.057996626943349838 0.021145276725292206 -0.113124601542949677 0.014651783742010593 0.050365474075078964 0.015507767908275127 -0.137999251484870911 0.181296080350875854 -0.098054528236389160 0.009109600447118282 0.055710565298795700 0.138282477855682373 -0.054720472544431686 -0.160039201378822327 -0.104416787624359131 -0.000277622544672340 -0.066358618438243866 0.096222296357154846 -0.077328123152256012 0.088447272777557373 -0.127723753452301025 0.150864884257316589 0.159878760576248169 0.083811409771442413 -0.100196488201618195 0.113438725471496582 -0.144474402070045471 -0.125094577670097351 -0.171516552567481995 -0.044636312872171402 0.013761433772742748 -0.137565568089485168 -0.131829321384429932 -0.069992035627365112 -0.056481029838323593 -0.084375269711017609 0.123002342879772186 -0.148673683404922485 0.162405908107757568 0.123795166611671448 0.069504760205745697
0.081972762942314148 -0.155560687184333801 0.043616097420454025 0.144353538751602173 0.083969861268997192 0.092321343719959259 -0.044941280037164688 0.138888776302337646 -0.157420039176940918 -0.134805649518966675 -0.087463535368442535 -0.093945063650608063 -0.034054823219776154 0.045441120862960815 0.111482612788677216 -0.044321514666080475 -0.068338118493556976 0.071208722889423370 0.044181916862726212 -0.140448048710823059 -0.116723746061325073 -0.017614807933568954 0.076170466840267181 -0.009615644812583923 0.154957711696624756 0.108456231653690338 -0.039857923984527588 -0.056297011673450470 -0.120392926037311554 0.055716820061206818 0.172961682081222534 -0.137807920575141907 0.109097555279731750 0.087318636476993561 0.078125379979610443 -0.036954082548618317 -0.173043429851531982 -0.112469300627708435 -0.123921230435371399 0.017626263201236725 0.181067094206809998 -0.114447109401226044 -0.072477467358112335 -0.114037334918975830 -0.071556232869625092 -0.045537263154983521 0.167479097843170166 -0.126145228743553162 -0.035544496029615402 0.167027965188026428 0.091596327722072601 0.109177201986312866 -0.034820042550563812 -0.031201578676700592 -0.126759871840476990 0.034538209438323975 0.105945050716400146 0.128709748387336731 -0.118540041148662567 0.002044674707576632 0.165332674980163574 0.099864356219768524 0.048097070306539536 0.025823162868618965 -0.052612323313951492 -0.017733518034219742 -0.147278130054473877 -0.171569928526878357 0.148805990815162659 0.083079762756824493 0.107356272637844086 -0.139872953295707703 -0.055279962718486786 0.139241129159927368 0.005495069548487663 -0.087712131440639496 -0.160030603408813477 -0.112147703766822815 0.162239015102386475 0.144284456968307495 0.053569070994853973 -0.184941828250885010 0.049927413463592529 -0.125994980335235596 0.139571011066436768 0.181471496820449829 0.114080719649791718 0.124339088797569275 0.117153778672218323 -0.077541574835777283 -0.109261952340602875 -0.031908243894577026 -0.057732347398996353 0.162072852253913879 -0.006189080886542797 0.064835466444492340 -0.112074330449104309 -0.127490252256393433 -0.182704329490661621 0.020283019170165062
-0.128503128886222839 0.138657763600349426 -0.146775051951408386 -0.129088863730430603 0.175939187407493591 0.111974246799945831 -0.113696128129959106 -0.149430602788925171 0.133624881505966187 0.152879402041435242 -0.027899254113435745 0.066326066851615906 -0.162378877401351929 -0.046761617064476013 0.064175821840763092 -0.057244468480348587 -0.132506221532821655 -0.110003054141998291 -0.016449375078082085 -0.107156701385974884 0.161716341972351074 0.096688576042652130 -0.125421687960624695 -0.176070109009742737 -0.002043408108875155 -0.173396721482276917 0.070719808340072632 -0.014038603752851486 0.018424840644001961 0.105267450213432312 0.011542353779077530 -0.008449010550975800 -0.037782691419124603 0.067882224917411804 0.080157749354839325 -0.017700886353850365 -0.131598576903343201 0.117743484675884247 0.132256954908370972 -0.097367741167545319 0.096821241080760956 -0.061059575527906418 0.025608818978071213 -0.110735751688480377 -0.087366141378879547 0.158435717225074768 -0.128728494048118591 -0.143058881163597107 -0.050513166934251785 0.167309194803237915 0.081919781863689423 -0.057494301348924637 0.171052798628807068 -0.122355908155441284 0.180733278393745422 0.105276077985763550 0.035487607121467590 0.024985361844301224 0.003490367904305458 0.129243001341819763 0.030294029042124748 0.004696375224739313 0.142737850546836853 0.101927407085895538 0.148838609457015991 -0.135664761066436768 0.085823304951190948 -0.130722418427467346 0.060476686805486679 -0.113077752292156219 -0.126790747046470642 0.149133935570716858 0.141837462782859802 -0.096863843500614166 0.093118600547313690 -0.131108820438385010 0.041835084557533264 0.144380226731300354 -0.015893355011940002 0.056804221123456955 -0.098585531115531921 -0.131176799535751343 0.086492560803890228 -0.007343870587646961 0.027402600273489952 0.129951193928718567 -0.096769534051418304 0.083119295537471771 0.095109529793262482 -0.090562611818313599 0.143608838319778442 -0.079542025923728943 -0.120055578649044037 0.074981130659580231 -0.030061535537242889 0.001571841305121779 -0.162552252411842346 0.037898752838373184 0.078147977590560913 0.011640149168670177
-0.019148502498865128 0.034404668956995010 0.047158345580101013 0.051212716847658157 0.045749027281999588 0.173765510320663452 0.107774689793586731 0.003007826162502170 0.098500803112983704 0.029400898143649101 0.152075156569480896 0.129721596837043762 0.061926368623971939 0.171987235546112061 -0.028638694435358047 -0.084937416017055511 0.083272911608219147 -0.049111749976873398 -0.066985256969928741 0.064203396439552307 -0.127021461725234985 0.041688401252031326 0.144154459238052368 -0.116346068680286407 -0.146720588207244873 -0.077594451606273651 -0.069328196346759796 0.006859083194285631 0.097522392868995667 -0.193598031997680664 -0.156388580799102783 -0.001210991758853197 0.135363742709159851 0.132892683148384094 0.116639755666255951 0.154021978378295898 -0.009749322198331356 -0.031568251550197601 0.041876211762428284 0.059002809226512909 0.094472065567970276 0.109020762145519257 -0.095917724072933197 -0.014337319880723953 0.096755504608154297 -0.047625377774238586 0.119937285780906677 0.120152190327644348 0.090466916561126709 -0.070731729269027710 -0.060060087591409683 -0.176620349287986755 0.114913769066333771 0.097838103771209717 -0.005203431472182274 0.047314971685409546 0.064376339316368103 0.102200031280517578 -0.028921207413077354 -0.011286614462733269 0.014816826209425926 0.111277237534523010 0.069591812789440155 -0.000983957201242447 0.015372852794826031 0.105146810412406921 -0.169129043817520142 -0.013790624216198921 -0.172157585620880127 -0.164923802018165588 -0.046323470771312714 0.046684380620718002 0.139487981796264648 -0.028790455311536789 -0.149993106722831726 0.150996103882789612 0.007604715414345264 -0.123835138976573944 0.055959150195121765 0.096914149820804596 0.057369079440832138 0.045836269855499268 0.059699457138776779 -0.110967181622982025 0.037213120609521866 -0.035511795431375504 0.107374951243400574 -0.024592895060777664 0.124210819602012634 -0.027276553213596344 -0.146616548299789429 0.057718824595212936 0.141926258802413940 0.059235882014036179 -0.127424865961074829 0.045058362185955048 0.031827948987483978 -0.011100915260612965 -0.071176327764987946 -0.047052137553691864
0.185019090771675110 0.164357155561447144 -0.040544558316469193 -0.130417272448539734 -0.086261205375194550 -0.134910672903060913 0.101145513355731964 -0.101063996553421021 -0.048290520906448364 0.153722569346427917 0.038758981972932816 -0.134933292865753174 -0.065990403294563293 0.174716919660568237 -0.143544420599937439 -0.112911187112331390 -0.061578590422868729 -0.088171876966953278 0.005782052408903837 0.098066247999668121 0.162575230002403259 0.167453855276107788 0.078741103410720825 -0.093320049345493317 0.083794131875038147 -0.080386847257614136 0.152389705181121826 -0.031491763889789581 0.092698752880096436 -0.111729793250560760 0.156823843717575073 0.159309774637222290 0.096281968057155609 0.150170907378196716 0.034589212387800217 -0.060590557754039764 -0.159541621804237366 0.070953227579593658 -0.188357025384902954 0.084243200719356537 -0.123988114297389984 -0.152399390935897827 0.129044070839881897 0.013063434511423111 -0.071085572242736816 -0.013196390122175217 -0.085760653018951416 -0.057590842247009277 0.139685600996017456 -0.075893290340900421 -0.145713523030281067 -0.091321110725402832 -0.031997460871934891 -0.030413588508963585 -0.162756472826004028 0.004074757918715477 0.047563832253217697 0.148774981498718262 -0.058727338910102844 0.005077085457742214 -0.051664177328348160 -0.144747003912925720 0.051586795598268509 0.094229891896247864 -0.001969201723113656 -0.166238278150558472 0.103777073323726654 -0.128140568733215332 -0.113369658589363098 -0.178030148148536682 -0.059779498726129532 0.131912037730216980 0.105711892247200012 0.144057944416999817 0.101037569344043732 -0.153968483209609985 -0.018647722899913788 0.086246676743030548 -0.067298591136932373 0.045024909079074860 -0.035302054136991501 0.041491009294986725 -0.170390754938125610 -0.097073569893836975 -0.062424764037132263 -0.050110403448343277 -0.029650671407580376 0.146836638450622559 -0.065175563097000122 0.073949553072452545 0.114278070628643036 -0.014655594713985920 0.056505937129259109 -0.096709817647933960 0.106980241835117340 -0.136651486158370972 -0.086208939552307129 0.023968867957592010 -0.038863725960254669 -0.052359454333782196
0.142934605479240417 -0.023975659161806107 0.027508120983839035 0.123828880488872528 0.035057052969932556 -0.085714370012283325 -0.067729771137237549 0.158071219921112061 -0.038577396422624588 -0.000855112913995981 0.064491793513298035 0.008806985802948475 0.268093645572662354 0.043135158717632294 -0.061799999326467514 0.075930528342723846 -0.023493712767958641 -0.014953218400478363 0.034423172473907471 -0.053551018238067627 0.075565643608570099 -0.034428235143423080 -0.065967209637165070 -0.050827112048864365 -0.074718542397022247 -0.084921814501285553 0.132899090647697449 -0.050237771123647690 -0.010927781462669373 -0.100765623152256012 -0.080294899642467499 0.170012280344963074 -0.080324470996856689 -0.022450370714068413 0.151722401380538940 0.043973684310913086 -0.054113838821649551 -0.185956105589866638 -0.119666174054145813 0.014223931357264519 -0.111358948051929474 -0.033477794378995895 0.117601290345191956 -0.005079541821032763 -0.042479325085878372 -0.096135795116424561 0.096541874110698700 -0.051922746002674103 -0.122277498245239258 -0.174817740917205811 -0.114517338573932648 -0.115889005362987518 0.128504782915115356 0.125068753957748413 -0.020670784637331963 -0.109531089663505554 0.274237900972366333 -0.039070650935173035 0.135752752423286438 -0.050936102867126465 -0.078140623867511749 -0.128014668822288513 -0.029824249446392059 -0.085697330534458160 0.028222057968378067 -0.143537983298301697 0.060397293418645859 0.003061557887122035 0.129498124122619629 -0.105114839971065521 -0.168732076883316040 -0.073318868875503540 -0.017879156395792961 0.138220787048339844 -0.084655448794364929 -0.013028929010033607 0.121132858097553253 0.138506203889846802 0.013221399858593941 0.107843041419982910 0.085526980459690094 -0.156609609723091125 0.106287047266960144 -0.122556678950786591 0.148464858531951904 0.083126746118068695 -0.078065492212772369 0.056815344840288162 0.131933763623237610 -0.041601102799177170 -0.062225863337516785 0.203687027096748352 -0.078051231801509857 -0.006817054469138384 0.071906872093677521 -0.191571265459060669 0.029436888173222542 -0.054323818534612656 0.041638582944869995 0.099299043416976929
0.145057082176208496 -0.089648619294166565 0.128112703561782837 0.084361232817173004 0.118805229663848877 0.069998241961002350 0.081550620496273041 0.126789867877960205 -0.001514175906777382 -0.087224118411540985 0.129468351602554321 -0.106629751622676849 0.015217531472444534 0.120198793709278107 0.070145279169082642 -0.077040895819664001 -0.107351012527942657 0.078130610287189484 0.135682731866836548 0.057455170899629593 0.066746495664119720 0.021638372913002968 0.041910689324140549 0.166807815432548523 -0.150111913681030273 -0.126372605562210083 -0.083784937858581543 0.145978629589080811 -0.008802792057394981 -0.031173154711723328 -0.168510615825653076 0.140150576829910278 -0.020116729661822319 0.054389607161283493 0.099248118698596954 -0.071060486137866974 -0.061928469687700272 -0.089785620570182800 -0.081970006227493286 -0.122550182044506073 -0.123757027089595795 -0.131096094846725464 0.150921911001205444 -0.068118125200271606 0.173733785748481750 -0.075348511338233948 -0.070831559598445892 0.155693009495735168 -0.160536631941795349 -0.045534871518611908 -0.134122520685195923 0.149129122495651245 -0.077097147703170776 -0.065960548818111420 -0.034799654036760330 -0.071044147014617920 0.031185494735836983 -0.170872181653976440 0.096447862684726715 -0.095736645162105560 -0.077755168080329895 -0.122784413397312164 -0.062252141535282135 0.031546816229820251 -0.152268707752227783 -0.039475154131650925 -0.039466653019189835 -0.003678656183183193 -0.062421526759862900 -0.157545134425163269 0.141734853386878967 0.191225677728652954 0.100132264196872711 0.156406581401824951 -0.103319555521011353 0.047373712062835693 0.174057289958000183 0.081286087632179260 -0.025476003065705299 -0.041172794997692108 -0.116183899343013763 0.032011404633522034 0.019667500630021095 -0.084912896156311035 0.136875346302986145 0.138548448681831360 -0.038179405033588409 -0.113610588014125824 -0.070038795471191406 0.161610692739486694 0.140979722142219543 -0.170396521687507629 0.096928976476192474 -0.018215762451291084 -0.149210616946220398 0.142841085791587830 0.001426978618837893 -0.090640842914581299 0.072091601788997650 -0.146599516272544861
-0.005961578339338303 0.040749140083789825 0.024968031793832779 -0.049786083400249481 -0.086036115884780884 0.023555336520075798 -0.052173126488924026 -0.136209249496459961 0.056874081492424011 -0.153702363371849060 0.027652766555547714 0.159197658300399780 0.098473079502582550 0.126483619213104248 -0.056952573359012604 -0.059583473950624466 0.135688528418540955 -0.142066448926925659 0.048094507306814194 -0.131593942642211914 -0.109458528459072113 -0.041083507239818573 -0.024176711216568947 0.036536376923322678 0.137327611446380615 -0.053337659686803818 0.085981681942939758 0.149636939167976379 0.105772741138935089 0.004933029878884554 0.117080815136432648 -0.166130557656288147 0.106456823647022247 -0.019826035946607590 0.052851252257823944 0.114015579223632812 -0.146355226635932922 -0.134594261646270752 -0.136201083660125732 -0.070793092250823975 0.107537351548671722 0.091332226991653442 -0.128517612814903259 -0.024907378479838371 0.092029847204685211 -0.039669789373874664 0.064692810177803040 -0.121899873018264771 0.058438673615455627 0.035753428936004639 -0.111013256013393402 0.100698880851268768 0.129576578736305237 0.067907772958278656 -0.014429670758545399 -0.031321123242378235 -0.160870313644409180 0.032059248536825180 0.136224627494812012 0.056858208030462265 0.069204874336719513 0.015001758001744747 -0.075100280344486237 -0.130941867828369141 0.003765831934288144 0.065483830869197845 -0.045503921806812286 0.090843603014945984 0.171316847205162048 -0.014604804106056690 -0.005892382934689522 -0.085144728422164917 -0.157749056816101074 -0.011722805909812450 0.015994068235158920 0.068688653409481049 -0.062422826886177063 -0.055523540824651718 0.128673344850540161 0.039434053003787994 -0.095409080386161804 0.027356082573533058 0.128860160708427429 0.113225542008876801 -0.095942489802837372 0.050358280539512634 -0.090758882462978363 -0.152124524116516113 0.052660554647445679 0.154724121093750000 -0.203780367970466614 0.141157686710357666 0.060954067856073380 0.008278219029307365 0.035229220986366272 0.069692999124526978 -0.151219263672828674 0.031749811023473740 -0.009255584329366684 0.001155360136181116
-0.111853167414665222 -0.110126219689846039 0.101720079779624939 -0.160309910774230957 0.035209275782108307 -0.003358038607984781 -0.101497776806354523 0.128393411636352539 0.068162538111209869 -0.136970460414886475 0.076951898634433746 -0.145227268338203430 0.160372838377952576 -0.148670196533203125 0.162411123514175415 0.072849072515964508 0.154541328549385071 0.001386325107887387 -0.050651326775550842 0.071938715875148773 -0.118287079036235809 -0.083073548972606659 -0.108226314187049866 -0.185420885682106018 0.051067266613245010 0.079383134841918945 -0.094018034636974335 0.034662906080484390 -0.167121872305870056 0.021379005163908005 0.046274133026599884 0.019693288952112198 -0.141206964850425720 0.204212129116058350 0.103953488171100616 0.101116493344306946 -0.175634309649467468 -0.109697692096233368 -0.116263963282108307 0.049643713980913162 0.127033933997154236 -0.165801584720611572 0.063984520733356476 0.027680130675435066 -0.024179799482226372 0.070214442908763885 -0.092157013714313507 0.150774940848350525 -0.138511180877685547 0.039675883948802948 -0.138190478086471558 0.016754437237977982 0.040969468653202057 -0.144362777471542358 -0.015994196757674217 -0.034008562564849854 -0.047803118824958801 -0.080899760127067566 -0.169116884469985962 0.079903893172740936 -0.108882501721382141 0.141451224684715271 -0.083728522062301636 -0.140180379152297974 -0.116779901087284088 0.047459710389375687 -0.081718817353248596 -0.047808423638343811 -0.095491833984851837 0.128465563058853149 -0.022385941818356514 -0.020117670297622681 0.106368564069271088 0.045926377177238464 0.097117848694324493 0.187584251165390015 0.025658067315816879 0.023779522627592087 0.176515012979507446 -0.151868373155593872 0.088164135813713074 -0.147892817854881287 -0.092219583690166473 -0.100810505449771881 0.061180636286735535 -0.071280203759670258 -0.056631833314895630 0.075794592499732971 -0.171969696879386902 0.135713845491409302 -0.073150411248207092 -0.156147405505180359 -0.175113081932067871 -0.140795588493347168 -0.050136338919401169 -0.079033881425857544 -0.122737936675548553 0.149294242262840271 -0.057928424328565598 0.012787382118403912
-0.086241051554679871 0.042958769947290421 -0.144115239381790161 -0.061137679964303970 -0.051852595061063766 -0.072513207793235779 -0.128909662365913391 -0.012043522670865059 0.074960328638553619 0.062649644911289215 -0.048845153301954269 -0.213709831237792969 -0.158759132027626038 -0.132183462381362915 0.007173513062298298 0.053759485483169556 0.046408891677856445 0.069645166397094727 0.028488000854849815 0.023679647594690323 -0.024766348302364349 -0.100256219506263733 -0.137657582759857178 0.061634782701730728 -0.101039327681064606 -0.033758509904146194 -0.113939315080642700 0.151028111577033997 0.050860766321420670 -0.200007930397987366 0.268393158912658691 -0.131888195872306824 0.145222976803779602 0.153826549649238586 0.028043635189533234 0.038968615233898163 -0.097104743123054504 0.021372521296143532 0.084721654653549194 -0.094567999243736267 -0.128451481461524963 0.054477762430906296 -0.091839686036109924 -0.080029487609863281 0.022248748689889908 -0.125449255108833313 -0.150515109300613403 -0.012976913712918758 -0.068982437252998352 0.037304513156414032 -0.184808790683746338 -0.117086037993431091 -0.026463979855179787 0.036207731813192368 -0.139662191271781921 -0.008048212155699730 -0.238027244806289673 0.028858488425612450 -0.010023215785622597 -0.112337939441204071 0.218892976641654968 0.129115447402000427 0.093918837606906891 -0.092702403664588928 0.128829151391983032 -0.035259969532489777 0.004929990973323584 -0.104808457195758820 0.128616288304328918 0.202604338526725769 0.003911170642822981 0.016399616375565529 -0.073934726417064667 0.088956832885742188 -0.053627476096153259 -0.031309578567743301 0.122084923088550568 0.046509966254234314 0.175672218203544617 0.113550581037998199 0.131176382303237915 0.174976006150245667 -0.025977112352848053 0.020970880985260010 -0.018058568239212036 0.051533415913581848 0.027604229748249054 -0.174878507852554321 0.029624821618199348 0.100784212350845337 0.103055201470851898 -0.017093386501073837 0.145523488521575928 -0.002578656421974301 0.104575723409652710 0.106212198734283447 0.079607501626014709 -0.018032535910606384 -0.057720303535461426 -0.002429106505587697
0.084271691739559174 -0.079573504626750946 -0.069394566118717194 0.055294238030910492 0.093891762197017670 0.135950893163681030 -0.041077598929405212 0.167958840727806091 -0.086165301501750946 -0.129894509911537170 0.175173297524452209 -0.075308017432689667 0.044078830629587173 -0.062413927167654037 0.040105886757373810 0.069719083607196808 -0.129654362797737122 -0.081686526536941528 0.082765333354473114 0.099928565323352814 0.056875001639127731 0.054807588458061218 0.015578679740428925 0.138691276311874390 0.021515049040317535 0.159731015563011169 -0.070333525538444519 -0.065449923276901245 0.099660962820053101 0.021085467189550400 -0.163495928049087524 0.023717653006315231 0.121705912053585052 -0.131229370832443237 0.032294042408466339 0.160171076655387878 0.053238485008478165 -0.019101783633232117 0.145376205444335938 -0.069207906723022461 -0.147926047444343567 -0.118171975016593933 0.066035695374011993 -0.087645709514617920 -0.000635551521554589 -0.006670742295682430 -0.138513758778572083 0.022620121017098427 0.117783397436141968 0.167014271020889282 0.151556447148323059 0.066224828362464905 -0.131633251905441284 0.128622800111770630 -0.101314395666122437 0.118917599320411682 -0.068355806171894073 -0.170392125844955444 -0.057425204664468765 0.108729824423789978 -0.167804479598999023 0.012146191671490669 -0.056727644056081772 -0.134747698903083801 -0.051831472665071487 0.051399540156126022 -0.056365568190813065 0.158738389611244202 -0.056521974503993988 -0.030421022325754166 -0.083409860730171204 0.085406631231307983 0.045790389180183411 0.039383057504892349 -0.163536444306373596 -0.138283833861351013 -0.080401785671710968 0.083185113966464996 -0.071104861795902252 0.026450682431459427 0.022230310365557671 -0.138375669717788696 -0.113235741853713989 0.044250488281250000 0.094380274415016174 -0.140088886022567749 0.112996950745582581 0.053744617849588394 0.031414758414030075 -0.148688405752182007 0.005744637921452522 0.024531086906790733 -0.067305408418178558 0.042355418205261230 -0.096612617373466492 -0.073389597237110138 -0.011353141628205776 0.166620030999183655 0.036705270409584045 0.101363502442836761
-0.156254664063453674 0.037405673414468765 0.022082308307290077 -0.127558693289756775 0.092066884040832520 -0.173383116722106934 0.049760345369577408 0.001423533773049712 -0.017943732440471649 -0.021975573152303696 -0.091704294085502625 -0.038832634687423706 0.171979531645774841 -0.110302500426769257 0.123709671199321747 -0.027140473946928978 -0.028539422899484634 -0.141473591327667236 -0.077223002910614014 -0.046817511320114136 0.030686959624290466 0.145937755703926086 0.004271013196557760 -0.040132887661457062 0.077144607901573181 0.019514191895723343 -0.076695568859577179 0.114999473094940186 0.094076797366142273 0.019983261823654175 -0.203597858548164368 0.041547343134880066 -0.080171257257461548 0.069624796509742737 -0.111141197383403778 -0.116739280521869659 -0.168357059359550476 0.032289039343595505 0.009785172529518604 0.073357500135898590 0.010574807412922382 -0.048807952553033829 0.159551903605461121 -0.037139412015676498 0.011800706386566162 -0.154434308409690857 -0.009977244772017002 -0.127280265092849731 0.151856347918510437 0.022667406126856804 -0.123382814228534698 -0.126815706491470337 0.031270757317543030 -0.140073284506797791 0.051642883569002151 -0.174709394574165344 -0.162335455417633057 0.031499490141868591 -0.029762940481305122 -0.000787767523434013 0.129711881279945374 -0.084179207682609558 -0.012767026200890541 -0.014653668738901615 0.076443105936050415 0.063383385539054871 0.096922837197780609 0.149033665657043457 0.003209019312635064 -0.074568971991539001 0.133412927389144897 -0.137761369347572327 -0.067310467362403870 -0.167001441121101379 0.086171634495258331 -0.108239404857158661 -0.107529297471046448 -0.157333090901374817 -0.020677549764513969 0.030744144693017006 -0.175351515412330627 -0.045889481902122498 -0.090034089982509613 -0.045181691646575928 0.109833881258964539 -0.050174046307802200 0.147028103470802307 -0.056298729032278061 0.094702728092670441 0.117159426212310791 0.116344466805458069 -0.084438107907772064 -0.150970414280891418 -0.104912847280502319 0.044925302267074585 -0.105589531362056732 -0.080759674310684204 -0.102685272693634033 0.015726989135146141 0.157242655754089355
-0.002180564915761352 0.030910108238458633 -0.113640718162059784 0.009851582348346710 -0.140427529811859131 -0.065796285867691040 -0.092974729835987091 0.074628368020057678 -0.070292465388774872 -0.140618354082107544 0.118678122758865356 0.141964450478553772 0.147534266114234924 0.027839763090014458 0.094706781208515167 0.113783635199069977 -0.092338092625141144 0.140306964516639709 0.016380872577428818 0.033492736518383026 0.160133540630340576 0.103708416223526001 0.001543919323012233 -0.081359736621379852 -0.036354359239339828 0.083222605288028717 -0.121128372848033905 0.009279245510697365 -0.038772847503423691 -0.019390551373362541 0.083622932434082031 -0.056357935070991516 -0.129957944154739380 0.005396137479692698 0.021027782931923866 0.054397139698266983 0.060047324746847153 -0.110196411609649658 0.061518225818872452 -0.141094416379928589 0.003208987182006240 0.106967777013778687 0.141105040907859802 0.118707574903964996 -0.060400150716304779 -0.041825409978628159 -0.031938496977090836 -0.137148618698120117 0.053668588399887085 -0.110302105545997620 0.159256815910339355 0.024071320891380310 0.034401096403598785 0.088810518383979797 0.082935713231563568 -0.152210354804992676 -0.026917066425085068 0.038014248013496399 0.112922243773937225 0.088470011949539185 -0.168538942933082581 -0.088087297976016998 0.071642138063907623 -0.110486313700675964 0.016153780743479729 0.078698232769966125 -0.017005430534482002 -0.029325323179364204 0.158728137612342834 0.024459650740027428 -0.182353243231773376 0.061740126460790634 0.046362288296222687 0.056706875562667847 0.066595755517482758 -0.156118288636207581 0.064918026328086853 0.041616640985012054 -0.137105196714401245 -0.086893707513809204 0.005565377417951822 0.056153781712055206 -0.148272633552551270 0.059410609304904938 -0.159467622637748718 0.032249435782432556 0.050351198762655258 0.022628979757428169 0.128386557102203369 -0.024729672819375992 0.110145352780818939 0.120483912527561188 -0.063623040914535522 0.123725540935993195 -0.144326314330101013 -0.074507787823677063 -0.117299489676952362 0.034026797860860825 -0.146883696317672729 -0.116384789347648621
-0.017334165051579475 0.138009980320930481 -0.092107117176055908 -0.183678120374679565 -0.173059582710266113 -0.069131128489971161 -0.101485729217529297 -0.140091001987457275 0.097099140286445618 0.041516546159982681 -0.035025652498006821 0.119266316294670105 0.065863110125064850 0.201228052377700806 0.030947584658861160 0.045420728623867035 0.076068975031375885 0.043631725013256073 -0.023834032937884331 0.140156790614128113 -0.012571585364639759 0.002673512557521462 -0.044190485030412674 0.167637959122657776 0.064333945512771606 -0.066302210092544556 0.142135158181190491 -0.177274137735366821 0.029128717258572578 0.111158616840839386 -0.121627815067768097 -0.086605697870254517 -0.061786510050296783 0.124790057539939880 -0.027911229059100151 -0.060853037983179092 -0.040149327367544174 -0.009325342252850533 0.011278405785560608 -0.075369164347648621 -0.133389398455619812 -0.089106999337673187 -0.035702534019947052 -0.055946480482816696 -0.056100394576787949 0.020368888974189758 0.129349753260612488 0.042563240975141525 0.062958434224128723 -0.040692389011383057 -0.004209409933537245 0.124932445585727692 0.036223065108060837 -0.048779439181089401 -0.024570167064666748 -0.109271340072154999 0.161078587174415588 -0.134686112403869629 0.083303004503250122 0.113878071308135986 -0.165912240743637085 0.148533999919891357 -0.157310396432876587 0.048200786113739014 -0.022706679999828339 -0.174256443977355957 -0.181509912014007568 0.073068544268608093 -0.136247366666793823 -0.062102243304252625 -0.054994266480207443 -0.009066640399396420 0.109971441328525543 -0.030842971056699753 -0.045628134161233902 -0.044328648597002029 -0.017675036564469337 0.031519226729869843 -0.000579603714868426 -0.152734905481338501 -0.128366053104400635 -0.060459464788436890 -0.126776605844497681 0.162335991859436035 -0.027075773105025291 -0.173653081059455872 0.136789858341217041 -0.041513215750455856 0.139246270060539246 0.111021220684051514 0.065921552479267120 -0.045454084873199463 0.028072934597730637 -0.112680085003376007 -0.143081098794937134 -0.169024035334587097 0.131853312253952026 -0.127451092004776001 0.082952313125133514 -0.068703137338161469
0.002926460932940245 -0.022855453193187714 0.179226383566856384 -0.081282958388328552 -0.006485514808446169 -0.108274653553962708 -0.173089548945426941 -0.062307212501764297 0.146146193146705627 -0.125475361943244934 0.007356218062341213 -0.136746138334274292 -0.008647402748465538 0.099322393536567688 -0.063898511230945587 0.115693382918834686 -0.124100416898727417 0.112024143338203430 0.133973881602287292 0.043790642172098160 -0.098399169743061066 -0.043331936001777649 0.036214921623468399 -0.111991740763187408 -0.043446846306324005 0.139366447925567627 0.073625981807708740 -0.066333658993244171 -0.050511285662651062 0.131187111139297485 0.057179875671863556 0.049062971025705338 0.055408358573913574 -0.153505429625511169 -0.111954569816589355 -0.097305081784725189 0.161583259701728821 0.104611866176128387 -0.138551980257034302 0.011360734701156616 0.071381196379661560 -0.047695331275463104 -0.005546192638576031 0.151071742177009583 -0.025332462042570114 0.126724496483802795 0.057345934212207794 -0.005860347300767899 -0.142668500542640686 -0.011853049509227276 0.008908849209547043 -0.056177161633968353 0.126255333423614502 -0.144789308309555054 0.032864727079868317 -0.110361449420452118 -0.147662296891212463 -0.013773907907307148 0.161900922656059265 -0.097830861806869507 0.123520895838737488 -0.102375872433185577 -0.174586534500122070 0.172464951872825623 0.193794041872024536 -0.090432919561862946 -0.057877890765666962 -0.074627935886383057 -0.126511186361312866 -0.154839247465133667 0.015574843622744083 0.169474795460700989 0.084136039018630981 0.101680874824523926 -0.098262913525104523 -0.070359908044338226 0.117488153278827667 0.001020535826683044 -0.141400858759880066 0.038443848490715027 -0.138802334666252136 -0.146399661898612976 -0.053306955844163895 0.043777503073215485 0.171097844839096069 -0.152537524700164795 -0.126597031950950623 -0.108881115913391113 0.146860465407371521 0.021190917119383812 0.035334952175617218 0.111594766378402710 0.053256090730428696 -0.160628154873847961 0.134642332792282104 -0.013182152993977070 0.101533658802509308 -0.077335558831691742 0.054132953286170959 -0.078418307006359100
-0.063940912485122681 0.013313012197613716 -0.116504929959774017 0.025344515219330788 -0.072137124836444855 -0.091561563313007355 -0.068607360124588013 -0.040807753801345825 0.063446171581745148 0.156237661838531494 -0.095467388629913330 0.171460345387458801 0.048418790102005005 0.067126624286174774 -0.065052747726440430 0.138843938708305359 -0.036959879100322723 -0.090798243880271912 -0.039787095040082932 0.057219188660383224 0.165172114968299866 -0.021685188636183739 0.019831713289022446 0.140413522720336914 0.085357338190078735 -0.139932259917259216 0.130208984017372131 0.130119785666465759 -0.016129167750477791 -0.017122950404882431 -0.172120422124862671 0.257503092288970947 -0.105424590408802032 -0.036051068454980850 0.001581496559083462 -0.121316999197006226 -0.095780082046985626 0.013591864146292210 0.062988169491291046 0.032778337597846985 -0.167354956269264221 -0.178795948624610901 0.034255709499120712 0.006468528881669044 -0.157534688711166382 -0.125376343727111816 -0.160994172096252441 0.134818553924560547 -0.071255534887313843 -0.112545892596244812 0.026993211358785629 0.176273494958877563 -0.000756812863983214 0.055709268897771835 0.137609720230102539 -0.107607446610927582 0.011789008043706417 -0.014869906939566135 0.112517237663269043 -0.095169275999069214 -0.174791261553764343 -0.146463528275489807 -0.044252127408981323 -0.037620443850755692 0.053777202963829041 0.114025108516216278 0.073214262723922729 0.108924664556980133 0.106835648417472839 -0.057820931077003479 0.005038518458604813 -0.069373391568660736 -0.157697096467018127 -0.161947757005691528 0.025890965014696121 -0.025685749948024750 -0.167997688055038452 -0.113839283585548401 -0.176693126559257507 -0.083995543420314789 -0.041915614157915115 0.000799681292846799 -0.164768904447555542 -0.126338809728622437 0.110677488148212433 0.152519613504409790 0.054275646805763245 0.066343188285827637 0.055307883769273758 -0.142416805028915405 0.048538457602262497 0.126482650637626648 0.008578281849622726 0.142085075378417969 -0.094486117362976074 -0.058977879583835602 -0.111887603998184204 -0.024282338097691536 -0.125823467969894409 0.136883094906806946
-0.117619790136814117 0.073155947029590607 -0.153322339057922363 0.057302325963973999 0.050663840025663376 -0.061751626431941986 0.059203907847404480 0.178654626011848450 0.054279189556837082 -0.124556317925453186 0.143009260296821594 0.000308959977701306 -0.208561822772026062 0.034881118685007095 -0.097416818141937256 0.110915921628475189 -0.020776119083166122 -0.003248811932280660 -0.104639641940593719 0.138365969061851501 -0.106958471238613129 0.028228897601366043 -0.066341459751129150 0.001988090574741364 -0.065531872212886810 -0.024626055732369423 0.029938753694295883 0.004458085168153048 -0.072323396801948547 0.172722071409225464 0.266513854265213013 0.035463795065879822 -0.068282842636108398 0.073087714612483978 0.092666111886501312 -0.104580625891685486 -0.054703846573829651 -0.124726027250289917 0.083182916045188904 -0.127679333090782166 0.180598318576812744 -0.122282564640045166 0.142045840620994568 -0.027251470834016800 0.041961267590522766 -0.121319897472858429 0.155316561460494995 0.009737771935760975 0.066313378512859344 0.068920955061912537 -0.021124264225363731 -0.153399944305419922 -0.018129643052816391 0.059739444404840469 0.053604722023010254 0.088294357061386108 0.028816115111112595 -0.076398700475692749 0.062905587255954742 -0.099399432539939880 0.143946543335914612 0.040369413793087006 -0.099195934832096100 0.078575268387794495 -0.139717429876327515 -0.047698918730020523 -0.080544486641883850 0.112779796123504639 -0.115728206932544708 0.137437283992767334 0.099179774522781372 -0.170306041836738586 0.096649706363677979 -0.048229053616523743 0.003731862641870975 0.090525351464748383 0.145606935024261475 -0.105047017335891724 0.042493578046560287 -0.132224410772323608 0.094893343746662140 -0.056179530918598175 0.088800869882106781 -0.153184846043586731 0.181745141744613647 0.156165808439254761 0.153914093971252441 0.034776072949171066 0.131336763501167297 0.018178198486566544 0.008656562305986881 -0.017964901402592659 -0.112601518630981445 0.028261190280318260 -0.069933198392391205 -0.100441232323646545 -0.098045244812965393 -0.141037940979003906 -0.185400918126106262 0.148226886987686157
-0.064041346311569214 -0.092745065689086914 -0.176479935646057129 -0.157014295458793640 0.125812843441963196 -0.031772810965776443 -0.068466678261756897 0.013441749848425388 0.027175378054380417 -0.097197145223617554 -0.105813816189765930 0.091284558176994324 0.105595029890537262 0.127473205327987671 -0.108795017004013062 0.166378185153007507 -0.169074401259422302 -0.045152459293603897 -0.144303396344184875 -0.030214466154575348 0.127705112099647522 -0.144827589392662048 0.024874176830053329 -0.033674594014883041 0.133012935519218445 -0.036726243793964386 -0.095287434756755829 -0.066851943731307983 0.085659503936767578 -0.100243836641311646 0.032568600028753281 -0.070653215050697327 -0.158400565385818481 0.132044494152069092 -0.067826405167579651 0.142915993928909302 0.061739817261695862 0.096412479877471924 -0.140873417258262634 0.092719897627830505 -0.014946129173040390 0.058620870113372803 0.176037266850471497 -0.064680613577365875 0.142054840922355652 -0.089476048946380615 0.163359001278877258 -0.016552310436964035 -0.113527394831180573 0.019015565514564514 0.173765867948532104 0.162105381488800049 -0.101886279881000519 -0.090059854090213776 -0.120363205671310425 0.121468998491764069 -0.124695122241973877 0.108229003846645355 0.119062602519989014 0.128131583333015442 -0.111702956259250641 0.097458288073539734 -0.028344746679067612 -0.086727879941463470 0.111456513404846191 0.155974805355072021 -0.103490829467773438 0.000229927769396454 0.125485360622406006 0.070828683674335480 0.133313581347465515 0.037817113101482391 0.105151571333408356 0.132499366998672485 0.155353531241416931 0.008647259324789047 0.083382979035377502 0.122447513043880463 -0.173269540071487427 0.170305982232093811 0.080513522028923035 -0.061452534049749374 0.168286278843879700 0.044698685407638550 0.164208516478538513 0.002850841265171766 0.082897894084453583 -0.070728540420532227 0.060699064284563065 0.028659882023930550 -0.142502173781394958 0.040989663451910019 0.146174788475036621 -0.060868922621011734 -0.148930221796035767 -0.094799704849720001 -0.027228351682424545 -0.049977768212556839 0.109290994703769684 -0.138708159327507019
-0.134317398071289062 0.172411903738975525 0.046450197696685791 0.125700414180755615 -0.100395448505878448 0.027766715735197067 0.131081312894821167 -0.148528963327407837 0.033196240663528442 0.014304560609161854 0.013065327890217304 0.133659258484840393 0.107262134552001953 -0.005523215513676405 0.128302678465843201 -0.024593554437160492 0.159961089491844177 0.126458346843719482 -0.052311778068542480 -0.024360695853829384 0.088185690343379974 -0.063677720725536346 0.136139243841171265 0.000000643804412448 -0.009145552292466164 0.185374230146408081 -0.012155107222497463 -0.108798630535602570 -0.002782159950584173 -0.047164041548967361 0.104975320398807526 0.001791987917385995 -0.148961514234542847 0.023070532828569412 -0.084105931222438812 0.111762322485446930 -0.162587523460388184 0.062415059655904770 0.016339426860213280 -0.123394384980201721 -0.013849395327270031 0.003291633911430836 -0.189732134342193604 -0.062894433736801147 0.039139632135629654 0.164687097072601318 0.158821776509284973 0.049445036798715591 0.038730300962924957 0.163301214575767517 0.045078091323375702 -0.116041556000709534 -0.164871066808700562 0.105577468872070312 -0.114204198122024536 -0.048937875777482986 -0.032089889049530029 -0.153424635529518127 -0.118187807500362396 0.072662480175495148 0.015903905034065247 0.126718059182167053 -0.154158651828765869 -0.072337403893470764 0.098943695425987244 -0.150718390941619873 -0.164301395416259766 0.066590376198291779 -0.103416763246059418 -0.025804251432418823 0.046634282916784286 -0.061389364302158356 0.082834072411060333 -0.167451664805412292 -0.023292476311326027 -0.047192208468914032 0.161241814494132996 -0.128567978739738464 0.054654698818922043 0.045527931302785873 0.031608968973159790 -0.081911891698837280 0.118764258921146393 0.021220479160547256 -0.102127104997634888 0.042398277670145035 -0.178927227854728699 -0.121565885841846466 -0.148928642272949219 -0.072391577064990997 -0.069286935031414032 0.091806441545486450 0.028523119166493416 -0.092829369008541107 0.116680167615413666 0.086629070341587067 -0.014846691861748695 -0.047120571136474609 -0.115681521594524384 0.053919345140457153
-0.043124943971633911 0.091310322284698486 -0.022586409002542496 0.117989428341388702 -0.011029372923076153 -0.013205636292695999 -0.086203850805759430 -0.000306531379465014 -0.178824678063392639 -0.030406685546040535 -0.137299656867980957 -0.159615606069564819 -0.117080532014369965 -0.084697172045707703 0.124095663428306580 0.017301170155405998 0.056988157331943512 -0.134791165590286255 -0.123904325067996979 0.031907722353935242 0.045680750161409378 -0.120043270289897919 -0.022735387086868286 0.091279767453670502 -0.085746400058269501 -0.032023202627897263 -0.022285185754299164 -0.026000838726758957 -0.050506535917520523 0.061213381588459015 0.045969851315021515 -0.132695719599723816 -0.055267278105020523 -0.049944043159484863 0.034483231604099274 0.175525099039077759 -0.147779643535614014 -0.103830344974994659 -0.074158176779747009 -0.040620297193527222 0.130281597375869751 -0.029957232996821404 0.176672518253326416 -0.063609875738620758 -0.074550054967403412 0.076437294483184814 0.112055264413356781 -0.079018950462341309 -0.105180092155933380 -0.180867314338684082 -0.027580048888921738 0.009930842556059361 -0.155362844467163086 0.073277197778224945 -0.005826111417263746 -0.168426349759101868 0.008149832487106323 0.116718441247940063 -0.099898889660835266 -0.042758315801620483 -0.185370594263076782 0.003255579853430390 -0.122168384492397308 -0.160225197672843933 0.118525110185146332 -0.143946811556816101 0.155573338270187378 -0.163017407059669495 0.018983850255608559 -0.158651396632194519 -0.073946863412857056 -0.045205779373645782 -0.001433201483450830 0.018086664378643036 0.106619000434875488 -0.001510377856902778 0.068371266126632690 -0.094503462314605713 -0.143891528248786926 -0.143796607851982117 0.163072243332862854 -0.152727514505386353 -0.139445036649703979 0.157075226306915283 0.081991717219352722 0.128202453255653381 -0.032117087393999100 0.048856336623430252 -0.060919120907783508 0.144025564193725586 0.069761738181114197 -0.134667903184890747 0.005903115030378103 0.031103488057851791 0.165580138564109802 0.073859803378582001 -0.152109742164611816 -0.078916914761066437 0.093865066766738892 -0.037877209484577179
-0.132819995284080505 0.118748344480991364 0.158344998955726624 0.025070903822779655 -0.001547842402942479 -0.054032821208238602 0.138185992836952209 -0.104229971766471863 0.120388641953468323 -0.034678526222705841 0.041943766176700592 -0.149791270494461060 -0.118516683578491211 -0.169991150498390198 -0.145228162407875061 -0.143596068024635315 0.036656480282545090 0.064941152930259705 0.030156109482049942 -0.029431821778416634 -0.041347481310367584 0.136028930544853210 0.158958628773689270 0.148943856358528137 -0.063635431230068207 0.016378305852413177 0.052459180355072021 0.133457288146018982 -0.097480013966560364 0.127820372581481934 -0.106631658971309662 0.081306502223014832 0.143402770161628723 0.023243499919772148 -0.161275342106819153 -0.158198043704032898 0.094795465469360352 0.108356259763240814 0.108852677047252655 -0.054617580026388168 -0.030494628474116325 -0.090310014784336090 0.129741877317428589 -0.142835006117820740 0.167635560035705566 0.100100710988044739 -0.044076018035411835 -0.157018423080444336 -0.175620019435882568 0.137989923357963562 0.052042778581380844 0.009572523646056652 -0.067078262567520142 0.029137898236513138 -0.134769067168235779 0.073252394795417786 -0.037900183349847794 -0.170867547392845154 -0.180369213223457336 -0.051968764513731003 0.060811359435319901 0.179560482501983643 0.157406091690063477 -0.035716395825147629 0.052685495465993881 -0.111183255910873413 0.088619552552700043 -0.049807492643594742 -0.019254541024565697 0.096937932074069977 0.016157232224941254 0.115218535065650940 0.113567262887954712 -0.105346783995628357 0.034504037350416183 0.030270099639892578 0.131306514143943787 0.097165457904338837 0.044555395841598511 0.032787587493658066 0.085326008498668671 -0.073406197130680084 0.087081767618656158 0.076625227928161621 0.012090863659977913 0.102301888167858124 -0.085585221648216248 -0.014527442865073681 -0.162558943033218384 -0.086375772953033447 0.105641610920429230 0.105018965899944305 0.150056004524230957 -0.015415667556226254 0.014428746886551380 -0.076658226549625397 -0.012752313166856766 -0.004932247567921877 -0.138063400983810425 0.120873622596263885
0.036819968372583389 0.096168972551822662 -0.049230039119720459 -0.009734436869621277 -0.032844144850969315 0.158222734928131104 -0.002532886574044824 0.076893955469131470 -0.070643506944179535 0.059169344604015350 -0.057749994099140167 -0.144767075777053833 0.005134233739227057 -0.120032414793968201 0.082506649196147919 0.020841024816036224 -0.151406422257423401 -0.141684338450431824 0.076756738126277924 0.123494565486907959 -0.122675411403179169 -0.080738261342048645 0.142762437462806702 -0.178687572479248047 0.048565328121185303 0.037867147475481033 -0.009539923630654812 0.038463585078716278 0.085086129605770111 0.021094147115945816 0.060296233743429184 0.234525933861732483 -0.114837177097797394 0.167549729347229004 -0.039926502853631973 0.153743609786033630 0.003543693572282791 -0.064206257462501526 -0.123437605798244476 0.050798673182725906 -0.151199981570243835 0.018013356253504753 0.041803330183029175 -0.123454183340072632 0.024711599573493004 0.002776442561298609 -0.058607764542102814 -0.129354551434516907 -0.097948923707008362 0.028623817488551140 0.044626168906688690 0.066129140555858612 -0.088815316557884216 0.155248820781707764 0.061784122139215469 -0.054042134433984756 0.043281249701976776 0.043286696076393127 0.187844350934028625 -0.022924680262804031 -0.123924292623996735 0.071292690932750702 -0.170264378190040588 0.128557190299034119 -0.179076537489891052 -0.105486646294593811 0.121879786252975464 0.011743481270968914 -0.091324955224990845 0.044357050210237503 -0.127016454935073853 0.162043884396553040 -0.042975295335054398 -0.136743709444999695 -0.116789929568767548 -0.133719518780708313 -0.107868827879428864 0.163698568940162659 0.097069971263408661 -0.167831316590309143 -0.075750023126602173 -0.066920384764671326 -0.088669374585151672 0.016694780439138412 0.147874400019645691 0.090561226010322571 0.023467238992452621 0.090271957218647003 -0.115503326058387756 0.123223535716533661 0.122784793376922607 -0.044233873486518860 0.109719082713127136 0.157778337597846985 -0.047813218086957932 -0.155017480254173279 0.180261924862861633 -0.039493482559919357 0.007788264192640781 -0.077579252421855927
-0.065699994564056396 0.031820829957723618 -0.134668007493019104 -0.028338938951492310 -0.132128491997718811 -0.048641663044691086 0.090634100139141083 -0.142567455768585205 0.037037432193756104 0.054272994399070740 -0.020832585170865059 -0.118514180183410645 0.109271287918090820 0.131795570254325867 -0.043640177696943283 0.138140127062797546 0.138493567705154419 -0.049563150852918625 -0.139102801680564880 -0.016375651583075523 0.114672459661960602 0.091525122523307800 -0.114669032394886017 -0.079189836978912354 -0.062559999525547028 -0.022653479129076004 0.141862869262695312 -0.113474942743778229 -0.146418526768684387 -0.052456896752119064 -0.046011805534362793 0.112174674868583679 -0.081360183656215668 -0.067155763506889343 -0.064381495118141174 -0.035218860954046249 0.066901639103889465 -0.019541291519999504 0.095595665276050568 0.041955545544624329 0.111213713884353638 0.022231161594390869 0.155359014868736267 0.093298308551311493 -0.020098060369491577 -0.170802772045135498 -0.053947895765304565 -0.013385899364948273 0.085464060306549072 -0.147740975022315979 0.170087575912475586 -0.047581531107425690 0.074454911053180695 0.120242811739444733 0.112830445170402527 0.135325863957405090 -0.072855487465858459 -0.009259996935725212 -0.171947881579399109 -0.011616419069468975 -0.084065899252891541 0.126539066433906555 -0.084092982113361359 -0.087457969784736633 -0.165392115712165833 0.131530553102493286 0.039464745670557022 0.097884416580200195 -0.028866125270724297 0.053948510438203812 0.036243561655282974 -0.136649817228317261 0.114989317953586578 0.013150963932275772 0.007997700944542885 -0.021140210330486298 -0.036432560533285141 0.069750994443893433 0.041079986840486526 -0.136122480034828186 -0.009804659523069859 0.213980823755264282 -0.165661156177520752 0.024261441081762314 0.102560184895992279 0.020937068387866020 -0.020151011645793915 0.053735930472612381 -0.092473737895488739 0.099207945168018341 0.151528999209403992 0.143675893545150757 0.018314076587557793 0.075563013553619385 0.160746634006500244 -0.122996941208839417 -0.013439791277050972 -0.003023995785042644 0.015970941632986069 0.029447823762893677
-0.030615942552685738 0.125511616468429565 0.051915522664785385 -0.010955763049423695 0.056346494704484940 0.071662649512290955 -0.093194223940372467 -0.013868718408048153 0.039216872304677963 -0.073141686618328094 0.097417421638965607 0.097145661711692810 0.083145134150981903 0.051198434084653854 -0.116908170282840729 0.112195260822772980 0.165239080786705017 -0.146358996629714966 0.138964727520942688 -0.022367386147379875 0.105140030384063721 -0.024765931069850922 -0.091712079942226410 -0.056375052779912949 -0.162787884473800659 -0.033851899206638336 -0.088977314531803131 -0.050546932965517044 -0.149547889828681946 -0.017073821276426315 0.078589342534542084 -0.081359758973121643 0.087864696979522705 -0.079470857977867126 0.063240326941013336 0.113577269017696381 0.049893137067556381 0.011909050866961479 0.118698559701442719 0.131178930401802063 -0.136596068739891052 0.124329887330532074 0.111956499516963959 -0.120663791894912720 0.071469932794570923 -0.102200552821159363 0.106149278581142426 0.028325455263257027 0.132403433322906494 0.066732026636600494 -0.146796882152557373 -0.123524092137813568 -0.016040408983826637 0.041144210845232010 0.144712120294570923 -0.191170752048492432 0.061517987400293350 -0.074594765901565552 -0.031084712594747543 -0.160583585500717163 0.153481036424636841 0.101518005132675171 0.079966723918914795 0.010057774372398853 0.044306460767984390 0.134843543171882629 -0.023824468255043030 -0.164623647928237915 -0.156000688672065735 0.057162616401910782 -0.004602787084877491 0.215396285057067871 -0.058587089180946350 0.138100475072860718 -0.019697342067956924 0.037570800632238388 -0.129107981920242310 0.188924968242645264 0.106292255222797394 -0.121693663299083710 0.075132422149181366 -0.168308466672897339 0.060345046222209930 0.018772412091493607 -0.035666175186634064 -0.106250956654548645 -0.014426764100790024 -0.139179959893226624 -0.074026905000209808 -0.033980637788772583 -0.099587112665176392 -0.160078451037406921 -0.104489050805568695 0.180317461490631104 0.132904320955276489 -0.008762944489717484 -0.132087722420692444 -0.004143832251429558 -0.025917775928974152 -0.138022720813751221
0.102709174156188965 -0.126241505146026611 -0.114657029509544373 -0.058539487421512604 -0.146714866161346436 -0.011711213737726212 0.002387636108323932 0.140840575098991394 0.067040130496025085 -0.097177952527999878 -0.155222296714782715 -0.032236695289611816 0.106585346162319183 0.018716389313340187 0.068897478282451630 0.146796911954879761 -0.026281038299202919 0.083540663123130798 -0.016943469643592834 -0.004380281548947096 -0.112941905856132507 -0.083952046930789948 -0.088392369449138641 -0.093427881598472595 0.074736259877681732 -0.016128102317452431 0.131774544715881348 -0.062451481819152832 0.153509423136711121 -0.057759419083595276 -0.186831459403038025 -0.140390962362289429 0.009924797341227531 -0.162466034293174744 0.133912876248359680 0.138848125934600830 0.041743401437997818 0.086759351193904877 0.092904902994632721 0.161047622561454773 0.000179244758328423 0.013925425708293915 -0.160077229142189026 -0.050802920013666153 0.160320207476615906 0.080613255500793457 -0.086670510470867157 -0.167232453823089600 0.033769827336072922 0.186684533953666687 0.005429924000054598 -0.015769379213452339 0.110595561563968658 -0.050859708338975906 0.087253622710704803 -0.121800325810909271 0.112028382718563080 0.140423536300659180 -0.038577236235141754 -0.015312408097088337 -0.026039617136120796 -0.068225383758544922 -0.003959370777010918 0.142171010375022888 0.005860795266926289 0.073675110936164856 -0.001321066287346184 0.082136638462543488 0.144020885229110718 0.147144317626953125 0.154022738337516785 -0.173513635993003845 -0.166365683078765869 0.033311717212200165 -0.149358406662940979 -0.050462976098060608 0.056992758065462112 -0.114563010632991791 0.102778568863868713 0.050739403814077377 0.040507346391677856 0.014897554181516171 0.083120487630367279 -0.032276596873998642 -0.102406382560729980 -0.129803717136383057 -0.141259193420410156 -0.149524718523025513 0.003542525228112936 0.117026150226593018 -0.036735784262418747 0.034351531416177750 0.043136939406394958 0.072894029319286346 -0.030644379556179047 0.097997203469276428 -0.093992926180362701 0.071752339601516724 -0.068348564207553864 0.031891562044620514
0.073001958429813385 0.081329040229320526 0.084980681538581848 -0.022349983453750610 -0.151121661067008972 -0.047731012105941772 -0.092825405299663544 0.135383859276771545 -0.137926116585731506 0.068235009908676147 -0.188510686159133911 0.047164078801870346 -0.004066721536219120 -0.014415782876312733 -0.117470704019069672 -0.069642305374145508 -0.123188152909278870 0.113062739372253418 0.094650693237781525 -0.143944427371025085 0.065188713371753693 0.149105846881866455 -0.100034058094024658 -0.033220700919628143 0.145562425255775452 0.156827867031097412 0.151287138462066650 0.004338119179010391 -0.121719010174274445 -0.061689708381891251 -0.002594936406239867 -0.120838984847068787 -0.131908819079399109 -0.224163502454757690 -0.107331961393356323 -0.102230153977870941 0.124647863209247589 -0.006066600326448679 0.011404452845454216 0.120974481105804443 -0.060939826071262360 0.075417369604110718 0.002147695515304804 0.021396676078438759 0.011044400744140148 -0.014448299072682858 -0.152805566787719727 0.058686990290880203 0.159550458192825317 0.010543364100158215 -0.096378207206726074 -0.130311995744705200 -0.161828160285949707 -0.043871346861124039 -0.068414501845836639 -0.015834540128707886 -0.136735051870346069 0.049553196877241135 0.033869523555040359 0.125348925590515137 0.087962083518505096 0.132046818733215332 0.065198533236980438 -0.051890455186367035 -0.092303760349750519 0.135845094919204712 -0.088245160877704620 0.080786652863025665 -0.086137861013412476 -0.184923797845840454 -0.091961577534675598 -0.062743298709392548 0.086029328405857086 0.075526379048824310 0.102558821439743042 -0.028555480763316154 -0.123101375997066498 -0.031573284417390823 0.042566049844026566 -0.139729931950569153 0.116032719612121582 -0.188105016946792603 -0.122082933783531189 0.156066507101058960 -0.021346688270568848 0.137785479426383972 -0.086354598402976990 0.064650826156139374 -0.172252148389816284 -0.041991222649812698 0.092351384460926056 -0.104283459484577179 -0.138485088944435120 -0.076535090804100037 0.096643753349781036 -0.183478027582168579 -0.138933405280113220 -0.019898226484656334 -0.124529294669628143 0.108665667474269867
0.110744401812553406 -0.083311766386032104 0.016266243532299995 -0.095991238951683044 -0.101926237344741821 0.126505210995674133 -0.060228314250707626 -0.078317448496818542 -0.048795409500598907 -0.084977604448795319 0.108563512563705444 -0.080603465437889099 0.117043010890483856 0.152370288968086243 0.085923247039318085 -0.013522407039999962 -0.055364903062582016 -0.127375781536102295 -0.074732437729835510 0.048486504703760147 0.160592824220657349 0.113872312009334564 0.138333410024642944 0.008520579896867275 -0.139701962471008301 -0.018087357282638550 -0.099491357803344727 -0.133436545729637146 -0.053732063621282578 0.142884582281112671 0.200519561767578125 -0.223757907748222351 -0.128208726644515991 0.098046712577342987 -0.003040723735466599 0.084769904613494873 -0.053647063672542572 0.008619105443358421 0.027249002829194069 -0.086466781795024872 0.175579756498336792 0.076832696795463562 -0.088974848389625549 -0.142454683780670166 0.140937149524688721 -0.002906790236011147 -0.124340437352657318 -0.086197420954704285 -0.150898769497871399 -0.126960456371307373 -0.077099144458770752 -0.058817572891712189 -0.081756621599197388 0.077657140791416168 0.064433403313159943 0.129022404551506042 0.074479050934314728 -0.036630183458328247 -0.001127290423028171 -0.164735555648803711 0.141899585723876953 0.173205465078353882 -0.154553174972534180 0.017483463510870934 0.172021523118019104 0.020428674295544624 -0.072913177311420441 -0.083881638944149017 0.048750121146440506 0.062435034662485123 0.045984242111444473 0.026424998417496681 -0.095651037991046906 0.036527309566736221 0.127046078443527222 0.010149282403290272 0.085139460861682892 -0.100427940487861633 0.103383205831050873 -0.105385154485702515 -0.084150686860084534 -0.128277048468589783 0.184062257409095764 -0.034846421331167221 0.101472161710262299 0.045791029930114746 0.012330147437751293 0.065913073718547821 0.157561704516410828 0.079606771469116211 -0.091613247990608215 -0.176785379648208618 -0.056781470775604248 -0.107272535562515259 -0.079096920788288116 0.113126814365386963 -0.152685582637786865 0.049591071903705597 0.153141781687736511 0.019934153184294701
-0.138587653636932373 -0.141588270664215088 -0.131923422217369080 0.125962659716606140 -0.019213311374187469 -0.122631102800369263 0.127151474356651306 0.166505828499794006 0.105078123509883881 -0.046327266842126846 -0.068358890712261200 0.157474920153617859 -0.141792669892311096 -0.080941110849380493 -0.146569922566413879 0.058360818773508072 -0.172821566462516785 -0.042290169745683670 0.053408835083246231 0.040940430015325546 -0.136175677180290222 -0.038399867713451385 -0.079939708113670349 -0.145553916692733765 0.092802681028842926 0.051364514976739883 -0.076881311833858490 -0.180988013744354248 -0.172343000769615173 0.133418187499046326 0.088858939707279205 -0.125769913196563721 -0.048664703965187073 -0.058706883341073990 -0.051480565220117569 0.085791356861591339 -0.029972556978464127 0.134164527058601379 -0.114975862205028534 0.173568218946456909 0.048379406332969666 -0.116493426263332367 -0.029037237167358398 0.163455188274383545 -0.072379708290100098 -0.147493302822113037 -0.168491214513778687 0.049376673996448517 -0.118922822177410126 -0.138529196381568909 0.038505602627992630 0.128867715597152710 -0.131074815988540649 -0.116752848029136658 -0.100677274167537689 0.108765825629234314 0.120408654212951660 0.065288946032524109 0.061910472810268402 0.043837908655405045 0.203204140067100525 -0.022481918334960938 -0.036381762474775314 0.061817750334739685 0.166190177202224731 -0.133951514959335327 0.002724525984376669 -0.003330177394673228 -0.146506249904632568 -0.176234990358352661 -0.131878942251205444 -0.108681470155715942 0.084891796112060547 -0.023137940093874931 -0.114942297339439392 -0.074932828545570374 -0.121867142617702484 -0.033271294087171555 -0.031885061413049698 0.159267708659172058 -0.083427429199218750 -0.161192044615745544 -0.027325747534632683 0.043442256748676300 0.049461554735898972 -0.042562052607536316 -0.055237893015146255 -0.165105402469635010 0.036277417093515396 0.170557260513305664 0.015692554414272308 -0.080905809998512268 0.103712163865566254 -0.078949332237243652 -0.153515607118606567 0.099104039371013641 0.034984540194272995 0.080971561372280121 0.140412479639053345 0.103283122181892395
0.119431555271148682 -0.061646912246942520 -0.073806568980216980 0.151281699538230896 -0.022516073659062386 -0.082770332694053650 -0.043518874794244766 -0.119494087994098663 -0.086025156080722809 0.061545826494693756 -0.189844846725463867 -0.030715018510818481 0.071736037731170654 -0.150284588336944580 -0.046622812747955322 -0.170776054263114929 0.041114691644906998 -0.126079767942428589 0.182260110974311829 0.144454374909400940 -0.098325632512569427 0.112953476607799530 -0.004200301598757505 -0.136941626667976379 0.161502569913864136 -0.096508629620075226 -0.028597768396139145 -0.134581312537193298 -0.008534338325262070 -0.137229904532432556 -0.056816775351762772 -0.132718026638031006 -0.149834081530570984 0.007724532391875982 0.070572331547737122 0.059388604015111923 0.021009061485528946 -0.172494113445281982 -0.078005500137805939 0.160202637314796448 0.147936061024665833 0.130336731672286987 0.097427062690258026 0.076924152672290802 -0.132616177201271057 -0.187435150146484375 -0.131572768092155457 -0.032506752759218216 0.029814586043357849 -0.037353001534938812 -0.117461681365966797 0.025373186916112900 0.168391793966293335 -0.039725620299577713 -0.151840910315513611 0.078270010650157928 -0.139253512024879456 0.036991260945796967 0.094667479395866394 0.017777256667613983 -0.005439321510493755 0.027606166899204254 -0.109920948743820190 -0.189167156815528870 0.093701653182506561 0.057570721954107285 0.031777869910001755 0.126689791679382324 -0.130639001727104187 0.078387454152107239 -0.138453081250190735 0.078318499028682709 0.048191994428634644 0.105062253773212433 0.001917705754749477 0.032250463962554932 0.120477758347988129 -0.002360235666856170 -0.058945585042238235 0.110767386853694916 -0.003477770136669278 -0.014874692074954510 0.026364283636212349 0.052567254751920700 -0.109339036047458649 -0.005641088820993900 0.059133119881153107 0.014854453504085541 -0.003044704673811793 -0.116954214870929718 0.128798469901084900 0.006612657569348812 -0.125975817441940308 -0.015191651880741119 -0.066933430731296539 0.119609817862510681 0.047173842787742615 -0.100349605083465576 -0.006640691775828600 0.098160818219184875
0.051016420125961304 -0.093466214835643768 -0.045711033046245575 0.027932642027735710 -0.168285802006721497 -0.046119235455989838 -0.110070206224918365 -0.080891773104667664 0.122567735612392426 0.012202328070998192 -0.002119882497936487 0.100194796919822693 0.134400933980941772 -0.048523344099521637 -0.004266521427780390 -0.098066292703151703 -0.100810393691062927 -0.126333087682723999 -0.048720076680183411 0.140024363994598389 0.065644226968288422 -0.115781337022781372 0.079082377254962921 -0.167635813355445862 -0.018303735181689262 0.109261237084865570 -0.019165512174367905 -0.041783582419157028 -0.072314366698265076 -0.089835934340953827 0.059934034943580627 0.170671045780181885 -0.121745511889457703 -0.067118912935256958 0.163568899035453796 0.005214480217546225 -0.173874616622924805 -0.080471202731132507 -0.103402130305767059 -0.008837062865495682 -0.086514189839363098 -0.130619987845420837 0.023306699469685555 0.161189839243888855 -0.040928624570369720 0.091487273573875427 0.116210758686065674 0.134105786681175232 0.092250578105449677 -0.010261641815304756 -0.028273154050111771 -0.152317911386489868 0.152549877762794495 0.186216935515403748 -0.163740679621696472 -0.078430801630020142 -0.048840314149856567 -0.128275096416473389 -0.049294248223304749 -0.077879726886749268 -0.161442726850509644 -0.088952228426933289 0.067583359777927399 -0.156556487083435059 0.083396889269351959 0.058625731617212296 0.129966333508491516 0.120389834046363831 0.117502331733703613 0.148254707455635071 0.026855312287807465 -0.038539718836545944 -0.009900314733386040 -0.170551508665084839 -0.093154624104499817 0.051171243190765381 -0.048194076865911484 0.158349961042404175 -0.003212735522538424 -0.094828113913536072 0.108775213360786438 -0.104306519031524658 0.023080781102180481 0.038571596145629883 0.026028489693999290 0.007326818071305752 -0.130501940846443176 0.024853639304637909 0.169079974293708801 -0.162448987364768982 0.085328318178653717 0.000987412873655558 -0.097806677222251892 -0.144761413335800171 -0.155624523758888245 0.113097064197063446 0.149585500359535217 -0.006198237650096416 -0.102195657789707184 -0.029229421168565750
-0.131881579756736755 0.089345544576644897 0.153368994593620300 -0.022752018645405769 -0.081882663071155548 -0.063387945294380188 -0.033182010054588318 0.007800212129950523 0.051279094070196152 0.126341700553894043 0.035321280360221863 0.191153734922409058 0.163683548569679260 -0.140244439244270325 -0.157396718859672546 0.134845420718193054 -0.133168667554855347 -0.152107283473014832 0.017556468024849892 0.041294436901807785 0.038450714200735092 0.132998511195182800 -0.132954806089401245 -0.137546524405479431 0.138683140277862549 -0.072205677628517151 0.037838239222764969 0.081811688840389252 -0.020148120820522308 -0.036272265017032623 0.043544773012399673 -0.132870599627494812 -0.176587805151939392 0.024745317175984383 -0.074854761362075806 -0.094228111207485199 -0.056784037500619888 0.020677875727415085 0.039040811359882355 0.006384975276887417 -0.180140450596809387 0.026798224076628685 0.140010043978691101 0.108529455959796906 0.162032976746559143 -0.067497439682483673 -0.006366843357682228 0.044289261102676392 -0.031483296304941177 -0.169743448495864868 0.049086742103099823 -0.006240021437406540 -0.097083985805511475 -0.042693652212619781 0.096213616430759430 0.160750940442085266 -0.071475490927696228 0.102614596486091614 -0.035086102783679962 -0.044199027121067047 0.039508037269115448 -0.138937100768089294 0.022277457639575005 0.035710826516151428 0.081799462437629700 -0.103137649595737457 0.073514066636562347 -0.050077378749847412 0.034388389438390732 -0.038067825138568878 0.079866461455821991 -0.145520761609077454 -0.112517401576042175 0.079845406115055084 -0.104923151433467865 0.039923723787069321 0.107382476329803467 0.134066000580787659 -0.099697858095169067 0.123587466776371002 0.170143097639083862 0.095314830541610718 -0.034423999488353729 -0.058266431093215942 0.034062221646308899 0.118837453424930573 -0.001874553388915956 0.097737334668636322 0.126952886581420898 -0.127313643693923950 -0.041473593562841415 0.169813826680183411 0.067045181989669800 -0.112888112664222717 -0.086469069123268127 -0.062002275139093399 -0.086097210645675659 0.059906408190727234 -0.031563188880681992 0.162328809499740601
0.081461794674396515 0.022559262812137604 -0.120275780558586121 0.109946101903915405 -0.155010387301445007 -0.015672620385885239 -0.092612236738204956 0.010798601433634758 0.044655550271272659 0.017028715461492538 0.309462249279022217 -0.066138379275798798 -0.047122448682785034 -0.101907201111316681 -0.045134328305721283 -0.080715522170066833 0.045854497700929642 -0.065985150635242462 -0.156304612755775452 0.191720128059387207 0.153212562203407288 0.054805748164653778 0.033289968967437744 -0.007421996444463730 0.120405532419681549 -0.065302304923534393 0.068770624697208405 -0.206661701202392578 -0.083080597221851349 0.029192706570029259 -0.012201108969748020 0.069383613765239716 -0.091780826449394226 -0.012179244309663773 0.059282444417476654 -0.140176966786384583 -0.136113807559013367 -0.058489453047513962 -0.089885540306568146 -0.129516273736953735 0.071875549852848053 0.142646774649620056 0.048752225935459137 0.046118136495351791 -0.054880052804946899 -0.154598325490951538 0.149409502744674683 -0.104384250938892365 -0.080740727484226227 -0.183394461870193481 -0.060496520251035690 0.145743578672409058 -0.027864735573530197 0.037317708134651184 -0.037138234823942184 0.010518218390643597 0.113287098705768585 -0.117929190397262573 0.128825336694717407 0.196935951709747314 0.122283473610877991 0.018696265295147896 0.064138829708099365 0.044110886752605438 -0.023481067270040512 0.066196084022521973 0.157128185033798218 0.098487287759780884 -0.113914847373962402 -0.194348141551017761 -0.057893611490726471 -0.145788803696632385 -0.114429652690887451 0.013053397648036480 0.097789861261844635 0.080676361918449402 -0.102611638605594635 0.097848609089851379 -0.084895104169845581 0.005598798859864473 0.137813925743103027 -0.146805927157402039 -0.139045089483261108 0.038934305310249329 -0.130562171339988708 -0.067505531013011932 0.059595201164484024 0.064386725425720215 -0.134441196918487549 -0.012961720116436481 -0.069910064339637756 -0.067690014839172363 0.147377997636795044 0.010690081864595413 -0.019992027431726456 0.032453026622533798 0.155250921845436096 -0.185140162706375122 -0.041874524205923080 0.094608880579471588
-0.076146990060806274 -0.011936551891267300 -0.068021178245544434 -0.003301939228549600 -0.059172216802835464 0.124908752739429474 -0.075564183294773102 -0.150643780827522278 0.154247626662254333 -0.100711181759834290 0.039893269538879395 -0.029266307130455971 -0.050809875130653381 -0.170799747109413147 -0.080619744956493378 0.134039789438247681 0.028502847999334335 -0.114841803908348083 -0.020926686003804207 -0.062389317899942398 0.081523001194000244 0.119771040976047516 -0.069419540464878082 0.026442302390933037 -0.112026341259479523 0.096004709601402283 0.157346189022064209 -0.123282134532928467 -0.069860927760601044 -0.162958487868309021 -0.189915671944618225 -0.045105438679456711 0.053832743316888809 -0.147336959838867188 0.120804071426391602 0.005361843388527632 0.039086915552616119 -0.013090075924992561 -0.144977256655693054 -0.031706210225820541 -0.125274673104286194 -0.150815531611442566 0.032065726816654205 0.168050780892372131 0.133047789335250854 -0.084450908005237579 0.053070165216922760 -0.157307878136634827 -0.025391578674316406 0.067488312721252441 -0.055674582719802856 0.070357635617256165 -0.006394861266016960 0.042494058609008789 -0.088342271745204926 0.108641996979713440 -0.145455807447433472 -0.114871852099895477 0.141045585274696350 -0.007730684243142605 0.119642674922943115 -0.127318903803825378 -0.127935484051704407 -0.031033614650368690 0.034567695111036301 -0.122991032898426056 0.132862269878387451 0.173716649413108826 0.095245622098445892 0.070190817117691040 0.063084855675697327 -0.029839936643838882 0.081220626831054688 -0.172817781567573547 -0.060780879110097885 0.152964726090431213 -0.163797840476036072 -0.004441312514245510 0.148898109793663025 0.098614089190959930 0.048584517091512680 -0.015182485803961754 -0.125645592808723450 -0.170671984553337097 0.080631263554096222 -0.113144978880882263 -0.110248245298862457 0.046677261590957642 0.071836188435554504 -0.080094270408153534 0.001883078482933342 0.044982772320508957 0.095947213470935822 -0.005897912196815014 0.017963081598281860 0.208807587623596191 -0.065901182591915131 -0.047353670001029968 0.117297336459159851 0.077853001654148102
