#Layer 0 Weights:
0.157407477498054504 0.099086977541446686 -0.238628923892974854 -0.000617725076153874 0.230336770415306091 -0.008677066303789616 -0.176066771149635315 -0.169787913560867310 0.036509051918983459 -0.030277950689196587 0.009364278055727482 -0.172640830278396606 -0.167040601372718811 0.093777380883693695 -0.079578347504138947 0.002709355670958757 -0.231636002659797668 0.165774077177047729 0.190738350152969360 0.140676662325859070 -0.181109890341758728 -0.091265723109245300 -0.041232030838727951 0.148910447955131531 0.222349330782890320 -0.220893979072570801 -0.225122004747390747 -0.029050003737211227 -0.212606608867645264 0.241203173995018005 0.209831491112709045 -0.223477602005004883 -0.116358093917369843 0.015529808588325977 -0.181979015469551086 -0.193279176950454712 0.166257068514823914 0.129570126533508301 -0.162344455718994141 -0.076131217181682587 -0.222806394100189209 0.016559382900595665 0.163117751479148865 -0.197674557566642761 0.234695792198181152 0.052855771034955978 -0.091688603162765503 0.107233732938766479 -0.132355481386184692 0.238267138600349426 0.229805976152420044 -0.246488571166992188 0.210211709141731262 0.127387240529060364 0.181307718157768250 0.088383279740810394 -0.146677017211914062 0.117416530847549438 -0.126744806766510010 -0.052251849323511124 0.094712071120738983 -0.208778068423271179 0.104166343808174133 -0.213059112429618835 -0.065551757812500000 -0.086584731936454773 -0.167834311723709106 0.212542369961738586 -0.197134599089622498 0.122721783816814423 -0.219725608825683594 -0.110198691487312317 -0.216110736131668091 -0.053986635059118271 0.155160605907440186 -0.085400618612766266 -0.154902666807174683 -0.084212794899940491 0.051184456795454025 -0.269860178232192993 0.231213510036468506 0.144765898585319519 -0.170566082000732422 -0.090278685092926025 -0.178629696369171143 -0.250045090913772583 -0.221261024475097656 0.220960587263107300 0.111823968589305878 0.185434371232986450 -0.164079323410987854 -0.143817350268363953 0.028846124187111855 -0.023472990840673447 0.072023138403892517 0.183302566409111023 -0.252707242965698242 -0.276902228593826294 0.208906203508377075 0.001945020747371018
0.163045078516006470 -0.054606381803750992 -0.108122035861015320 -0.116115100681781769 0.220504745841026306 0.158528730273246765 0.026772074401378632 0.103095896542072296 -0.083705216646194458 0.210742399096488953 -0.147172644734382629 0.028696443885564804 0.092091739177703857 -0.007379028946161270 -0.016218982636928558 0.000128261526697315 0.046846654266119003 -0.051299709826707840 0.001950148143805563 -0.141898542642593384 0.185937762260437012 0.066447168588638306 0.085913062095642090 -0.046159822493791580 -0.193868711590766907 -0.141144186258316040 0.019123045727610588 0.094777293503284454 0.030025349929928780 -0.215673252940177917 -0.174994587898254395 0.052458487451076508 0.107475057244300842 -0.038736708462238312 -0.083479590713977814 0.151404723525047302 -0.082216434180736542 0.189445182681083679 -0.007255002856254578 0.166264176368713379 -0.265039682388305664 0.056251265108585358 0.252014964818954468 0.028949985280632973 0.149041831493377686 0.022220572456717491 0.020832067355513573 0.158087909221649170 0.221181184053421021 0.013103000819683075 -0.077758215367794037 0.034320373088121414 0.062120065093040466 0.073253154754638672 -0.012155273929238319 0.162636399269104004 0.004777896683663130 0.083488211035728455 -0.205023854970932007 -0.182878345251083374 -0.216536223888397217 0.234611153602600098 -0.117922924458980560 -0.039292894303798676 0.120183892548084259 0.212078094482421875 -0.108307123184204102 -0.174321919679641724 -0.145890697836875916 0.055141881108283997 -0.024299491196870804 0.029815040528774261 0.081207327544689178 -0.042838752269744873 0.070332936942577362 0.198469266295433044 -0.066577821969985962 0.009756707586348057 -0.199816152453422546 0.140918463468551636 -0.139220669865608215 0.223830863833427429 -0.066137582063674927 0.023790819570422173 0.079364031553268433 -0.198852494359016418 0.045476060360670090 -0.012245984748005867 0.149973422288894653 0.034495636820793152 0.122127868235111237 -0.171283677220344543 -0.000549749471247196 -0.043676048517227173 -0.012821465730667114 0.059000629931688309 0.195945262908935547 -0.015649760141968727 0.116722665727138519 -0.000051279490435263
