#Layer 1 Weights:
0.096628159284591675 0.067518562078475952 -0.162943378090858459 0.033357929438352585 0.158786728978157043 0.027637578547000885 -0.143349766731262207 -0.213757321238517761 0.025717156007885933 -0.009241146966814995 0.013590849004685879 -0.110813945531845093 -0.103022366762161255 0.043195519596338272 -0.047167498618364334 0.002993125002831221 -0.132804274559020996 0.161425650119781494 0.122289113700389862 0.078722462058067322 -0.110672511160373688 -0.062310039997100830 -0.011111095547676086 0.124843247234821320 0.149624243378639221 -0.153531774878501892 -0.110540047287940979 -0.021060394123196602 -0.186706840991973877 0.134707212448120117 0.122157610952854156 -0.119891040027141571 -0.075598828494548798 -0.004569894634187222 -0.129686132073402405 -0.141805574297904968 0.097685530781745911 0.076269701123237610 -0.093832105398178101 -0.025956595316529274 -0.141977176070213318 0.016124384477734566 0.081698559224605560 -0.144215434789657593 0.137596786022186279 0.001536558149382472 -0.044237360358238220 0.076948694884777069 -0.067410819232463837 0.151482358574867249 0.155077412724494934 -0.139697909355163574 0.163920521736145020 0.089524157345294952 0.121688447892665863 -0.009992259554564953 -0.152225762605667114 0.114191912114620209 -0.083455383777618408 -0.014132478274405003 0.110568404197692871 -0.135902509093284607 0.086263656616210938 -0.121753171086311340 -0.022283572703599930 -0.113125979900360107 -0.084806926548480988 0.142729416489601135 -0.113923788070678711 0.079942338168621063 -0.114632718265056610 -0.083462268114089966 -0.153304934501647949 -0.035054735839366913 0.129665628075599670 -0.071964919567108154 -0.139261618256568909 -0.027749231085181236 0.007770403753966093 -0.169889405369758606 0.150166690349578857 0.088580355048179626 -0.106043413281440735 -0.074034176766872406 -0.088816553354263306 -0.148315146565437317 -0.153714701533317566 0.136412248015403748 0.066204302012920380 0.101023547351360321 -0.093350179493427277 -0.097015403211116791 0.041483640670776367 -0.050847135484218597 0.069198049604892731 0.123585715889930725 -0.150928646326065063 -0.175158634781837463 0.138202846050262451 -0.005793796852231026
0.134656354784965515 -0.012818600051105022 -0.123438023030757904 -0.072084821760654449 0.169208839535713196 0.125673696398735046 0.029169214889407158 0.114555329084396362 -0.036255449056625366 0.112730763852596283 -0.109769530594348907 -0.000403413432650268 0.053098972886800766 -0.010274707339704037 -0.016858546063303947 0.017684275284409523 0.040128599852323532 -0.069574236869812012 -0.020702250301837921 -0.123653605580329895 0.149682432413101196 0.092563681304454803 0.038821887224912643 -0.048055287450551987 -0.106401473283767700 -0.119433365762233734 -0.000566045113373548 0.077510520815849304 -0.001538195414468646 -0.164089739322662354 -0.108038142323493958 0.041288089007139206 0.061676353216171265 -0.076542377471923828 -0.111948244273662567 0.122245751321315765 -0.062160450965166092 0.158721357583999634 0.009307146072387695 0.165777921676635742 -0.174808040261268616 0.176154822111129761 0.142504438757896423 0.009986974298954010 0.103530570864677429 0.014617314562201500 0.016832068562507629 0.105613894760608673 0.171001270413398743 0.007134479470551014 -0.019262062385678291 0.031765263527631760 0.041058462113142014 0.092131860554218292 0.022877050563693047 0.117827668786048889 0.000855489517562091 0.078916393220424652 -0.166643515229225159 -0.149215474724769592 -0.153453290462493896 0.151241749525070190 -0.128214284777641296 -0.030538873746991158 0.074442736804485321 0.167668014764785767 -0.061135530471801758 -0.125948071479797363 -0.098189368844032288 0.077944561839103699 -0.008407502435147762 0.056393463164567947 0.080704130232334137 -0.064585581421852112 0.122330352663993835 0.173019170761108398 -0.090603336691856384 0.000269059935817495 -0.182815402746200562 0.089675143361091614 -0.105998881161212921 0.175224676728248596 -0.064595021307468414 0.041838996112346649 0.071497082710266113 -0.168655037879943848 0.009052051231265068 -0.025381663814187050 0.119069218635559082 0.025958646088838577 0.053833689540624619 -0.145099699497222900 0.007873743772506714 -0.038965918123722076 -0.028918586671352386 0.044081419706344604 0.127895489335060120 -0.053467378020286560 0.116877406835556030 -0.017855996266007423
-0.101283013820648193 -0.170740440487861633 0.067607231438159943 -0.070228420197963715 -0.169477686285972595 -0.197403088212013245 -0.114590555429458618 0.073513969779014587 -0.128302320837974548 -0.088400714099407196 0.091081999242305756 0.130919143557548523 -0.055102244019508362 0.112973079085350037 -0.104203701019287109 -0.020652869716286659 0.026522772386670113 -0.010665058158338070 -0.012508473359048367 0.114112108945846558 0.065437264740467072 0.116688646376132965 0.158552154898643494 -0.005257042124867439 -0.182291924953460693 0.069275550544261932 -0.013245041482150555 0.116445049643516541 0.139599576592445374 0.156874269247055054 0.077511578798294067 0.115829154849052429 0.092490993440151215 0.074472978711128235 0.058575060218572617 -0.043972019106149673 -0.127210468053817749 -0.007545879576355219 0.145873144268989563 0.035956975072622299 0.059494499117136002 0.130876109004020691 -0.068529188632965088 0.064252339303493500 -0.058099787682294846 0.138909071683883667 0.125584736466407776 0.191012814640998840 -0.018006149679422379 -0.131261229515075684 -0.048513721674680710 -0.206446021795272827 -0.159119322896003723 0.126212999224662781 0.065219849348068237 -0.106552504003047943 0.024062527343630791 0.088698655366897583 0.081920407712459564 -0.102513872087001801 0.133000329136848450 -0.123193256556987762 0.028346715494990349 -0.177871361374855042 -0.002862822497263551 0.011894945055246353 0.039590727537870407 0.141966775059700012 0.061910603195428848 -0.030239649116992950 0.139885559678077698 -0.162627011537551880 -0.032900802791118622 -0.044900991022586823 0.083795696496963501 -0.084962986409664154 -0.135808512568473816 0.006819188594818115 0.209407895803451538 0.027740908786654472 0.129393100738525391 0.045963022857904434 -0.157360047101974487 -0.132284447550773621 0.078983910381793976 -0.089404135942459106 0.173828095197677612 0.112998351454734802 0.131173640489578247 0.010649071075022221 -0.005826184526085854 -0.016089208424091339 0.042947106063365936 0.033744268119335175 0.185757249593734741 0.097346857190132141 -0.079128004610538483 0.139907687902450562 -0.073080427944660187 -0.146889597177505493
-0.045654315501451492 0.072522610425949097 -0.155276164412498474 0.110760644078254700 0.063138619065284729 -0.082441873848438263 0.108888663351535797 0.125513598322868347 -0.025659561157226562 -0.102391198277473450 0.110281027853488922 -0.019898595288395882 0.020379498600959778 0.089513346552848816 -0.036350097507238388 -0.074141904711723328 0.120799884200096130 -0.046315435320138931 -0.010576195083558559 -0.150012254714965820 0.031163083389401436 0.114836521446704865 0.119260184466838837 -0.066851623356342316 0.068508826196193695 0.077478267252445221 -0.017801549285650253 -0.095524445176124573 0.155049264430999756 0.157835870981216431 -0.018120508641004562 -0.047081254422664642 -0.047528561204671860 0.075199380517005920 0.124825142323970795 0.139111340045928955 -0.002112122485414147 -0.037167407572269440 -0.045928191393613815 -0.123614855110645294 -0.052508387714624405 0.079690881073474884 -0.142188921570777893 -0.052358839660882950 0.050733167678117752 0.146806046366691589 -0.050598740577697754 -0.015619631856679916 -0.130256369709968567 -0.097358904778957367 -0.110869385302066803 0.008379720151424408 -0.093323141336441040 -0.050757355988025665 0.098861120641231537 -0.115405321121215820 -0.040165048092603683 -0.175750508904457092 0.065801434218883514 -0.016104513779282570 -0.012715520337224007 -0.141725525259971619 0.047985892742872238 -0.053949724882841110 0.071987107396125793 -0.101082824170589447 -0.155343055725097656 0.140060111880302429 -0.105940133333206177 -0.098107650876045227 0.101167723536491394 -0.041184097528457642 -0.074254170060157776 0.102480068802833557 0.083474248647689819 -0.157573267817497253 0.064660690724849701 -0.064994283020496368 0.174840956926345825 -0.072854496538639069 0.121527574956417084 -0.154149711132049561 0.159489288926124573 -0.115975484251976013 -0.053793851286172867 0.043213076889514923 0.106989309191703796 0.103426612913608551 0.014449778944253922 -0.036552786827087402 0.138713657855987549 -0.001026950776576996 -0.094675675034523010 -0.134904757142066956 0.136684641242027283 0.100872211158275604 -0.039273038506507874 -0.109614133834838867 0.106405422091484070 0.179037287831306458
-0.116352096199989319 0.195475682616233826 -0.135857880115509033 0.015665855258703232 -0.092460587620735168 -0.027176946401596069 0.097100585699081421 -0.069919526576995850 0.103711858391761780 -0.058015093207359314 0.050011463463306427 -0.022550409659743309 -0.136828809976577759 0.160438865423202515 -0.108436875045299530 -0.124638095498085022 0.059996452182531357 0.099670700728893280 -0.111965596675872803 -0.014378826133906841 0.143439561128616333 -0.034500706940889359 -0.020819798111915588 0.175982058048248291 0.058002430945634842 -0.078372359275817871 -0.044959090650081635 0.011729676276445389 0.147766128182411194 0.054929088801145554 -0.038300182670354843 0.100671082735061646 -0.160619825124740601 -0.146913900971412659 0.121606603264808655 0.140016570687294006 0.104516029357910156 0.107197314500808716 0.034610632807016373 0.021056469529867172 0.148846492171287537 -0.126027107238769531 -0.022631017491221428 0.011024558916687965 -0.128220096230506897 -0.055485922843217850 -0.003305083373561502 -0.098059862852096558 0.111234650015830994 0.033219199627637863 0.165398910641670227 0.079304985702037811 -0.021942680701613426 -0.149067074060440063 0.092742092907428741 0.006438432727009058 -0.158522784709930420 0.096311539411544800 -0.084351472556591034 -0.007014823146164417 0.166472852230072021 0.092311330139636993 0.120267868041992188 0.038761902600526810 -0.025934679433703423 -0.122920006513595581 -0.024659628048539162 -0.025681545957922935 -0.037068732082843781 -0.029929459095001221 0.171988114714622498 0.097412697970867157 -0.114418663084506989 0.136578485369682312 -0.022879280149936676 0.148154899477958679 0.106988109648227692 -0.041515253484249115 0.113545052707195282 0.167927637696266174 -0.013940421864390373 -0.064125314354896545 -0.092996314167976379 0.113434799015522003 0.010425963439047337 -0.165671065449714661 -0.071381501853466034 -0.032005872577428818 -0.059165045619010925 0.054650411009788513 -0.133085817098617554 -0.119676627218723297 0.175930917263031006 -0.123428575694561005 0.160668730735778809 0.167591139674186707 -0.094554588198661804 -0.125301748514175415 -0.067345015704631805 0.012281137518584728
-0.069294586777687073 0.088641278445720673 0.106394797563552856 -0.082934588193893433 0.111352533102035522 -0.108685553073883057 0.136034801602363586 -0.234087735414505005 -0.158582702279090881 -0.101667210459709167 -0.121638707816600800 -0.098874427378177643 -0.156731009483337402 -0.078740425407886505 0.159754082560539246 -0.047134127467870712 -0.043393123894929886 -0.105887159705162048 0.156040623784065247 0.078075200319290161 -0.181504040956497192 0.061500459909439087 -0.058852750808000565 -0.023971162736415863 -0.110406376421451569 0.070899002254009247 0.045137673616409302 -0.065871767699718475 -0.015091280452907085 -0.104571044445037842 -0.083114124834537506 0.085841134190559387 0.061403982341289520 0.167077094316482544 0.014604060910642147 -0.095437459647655487 -0.004065866582095623 -0.085798293352127075 0.146320238709449768 0.044188179075717926 -0.137387752532958984 -0.042297020554542542 -0.138823777437210083 0.136604279279708862 -0.141904383897781372 -0.054673619568347931 0.128462374210357666 0.125102907419204712 -0.167582914233207703 -0.120735764503479004 -0.056482780724763870 -0.142520561814308167 -0.021158590912818909 -0.019292045384645462 0.071540154516696930 -0.081042714416980743 0.039120521396398544 0.169939681887626648 -0.075609751045703888 -0.009768805466592312 0.005588138941675425 0.150939658284187317 0.164242580533027649 -0.120776884257793427 0.027533086016774178 -0.095705524086952209 -0.010864316485822201 -0.100698731839656830 0.070060163736343384 -0.004461180418729782 0.094660520553588867 -0.008900268003344536 0.122381962835788727 -0.022906610742211342 0.073712497949600220 0.151416778564453125 0.071565419435501099 -0.093084305524826050 0.068169802427291870 0.193198963999748230 0.108038663864135742 0.001870775246061385 0.134401991963386536 -0.063182145357131958 -0.030121903866529465 0.061262745410203934 -0.147952228784561157 -0.063232861459255219 -0.065988473594188690 -0.085733495652675629 -0.097358219325542450 0.105119302868843079 -0.168206974864006042 0.015203436836600304 -0.085947923362255096 0.192364752292633057 0.084313169121742249 0.044006813317537308 -0.042819011956453323 -0.049651205539703369
0.083435542881488800 -0.005160239525139332 0.001203555148094893 0.012401424348354340 -0.188421055674552917 -0.020004961639642715 0.117201767861843109 0.151557222008705139 -0.183678001165390015 0.068842142820358276 0.118734113872051239 0.169692501425743103 0.120120681822299957 0.132268071174621582 -0.173446491360664368 -0.157440602779388428 0.097700692713260651 0.146416723728179932 0.057084366679191589 0.165343120694160461 -0.153553277254104614 0.132531404495239258 -0.133138909935951233 -0.152828693389892578 0.048987496644258499 -0.112293392419815063 0.040601801127195358 0.140290483832359314 -0.138210043311119080 -0.121839329600334167 -0.000625725660938770 -0.155673980712890625 -0.121757045388221741 -0.090090624988079071 0.121800668537616730 -0.051640488207340240 -0.052354019135236740 0.035489335656166077 -0.132945418357849121 -0.193091824650764465 -0.064515963196754456 0.032315582036972046 0.131550684571266174 0.097806118428707123 -0.101424753665924072 0.026301529258489609 -0.071661256253719330 0.094954557716846466 -0.145758628845214844 0.092198468744754791 -0.041442520916461945 -0.192771032452583313 0.107826553285121918 0.080206811428070068 0.073708713054656982 0.075478367507457733 -0.138219684362411499 -0.093126535415649414 0.159720301628112793 -0.124388433992862701 0.131513968110084534 0.168545201420783997 0.008496999740600586 -0.178855016827583313 -0.159638509154319763 0.120375044643878937 -0.012162642553448677 0.111226990818977356 0.055490415543317795 0.024463260546326637 -0.088674157857894897 0.107541143894195557 -0.077969133853912354 0.157159984111785889 -0.171943694353103638 -0.159445449709892273 -0.079714119434356689 0.012246667407453060 -0.099034592509269714 0.015054925344884396 -0.073705844581127167 -0.093840777873992920 -0.150960505008697510 -0.047321494668722153 0.083179824054241180 -0.105454906821250916 0.001115899998694658 -0.103752583265304565 0.120738208293914795 -0.038076508790254593 0.111629396677017212 -0.127323150634765625 0.100469268858432770 -0.050807222723960876 -0.108548410236835480 0.038225546479225159 -0.164103418588638306 0.142510488629341125 -0.034801173955202103 0.027914935722947121
-0.065293580293655396 -0.111468032002449036 0.081553660333156586 -0.078606419265270233 -0.002452536718919873 0.058780446648597717 0.075378477573394775 0.097506865859031677 -0.141077861189842224 -0.009107295423746109 0.128614127635955811 -0.087495885789394379 -0.139364749193191528 0.149639755487442017 0.032655671238899231 -0.177524328231811523 0.125489622354507446 -0.052259184420108795 0.073920868337154388 0.159989595413208008 -0.002290069591253996 0.050606500357389450 -0.113804966211318970 -0.111834399402141571 -0.146679461002349854 -0.067365184426307678 0.155403286218643188 0.005338539835065603 -0.133208855986595154 -0.140714719891548157 -0.172790467739105225 0.119319885969161987 -0.048855688422918320 0.158597096800804138 0.062278866767883301 -0.030751701444387436 -0.125224053859710693 0.097107313573360443 0.077838592231273651 -0.187462657690048218 -0.070117093622684479 -0.033750198781490326 0.064708754420280457 0.113346293568611145 -0.003383140312507749 0.034482281655073166 0.162344247102737427 0.050507597625255585 0.002831535181030631 -0.068538680672645569 0.085236310958862305 -0.025574292987585068 0.046340525150299072 -0.172241687774658203 -0.028424175456166267 -0.020470863208174706 0.099917285144329071 0.128769576549530029 0.172439411282539368 -0.097721956670284271 -0.120626658201217651 0.069586254656314850 0.110869817435741425 -0.136489853262901306 0.168965250253677368 0.052813403308391571 0.073771923780441284 0.143534198403358459 0.124822050333023071 0.098271317780017853 -0.171174481511116028 0.069972850382328033 -0.057006556540727615 0.123344890773296356 -0.094286262989044189 0.127606526017189026 -0.013326378539204597 -0.108301088213920593 0.136215776205062866 -0.073850706219673157 0.029674962162971497 -0.045781925320625305 0.044446218758821487 0.023578271269798279 -0.089543685317039490 0.175658494234085083 -0.035064872354269028 0.120579130947589874 0.021009076386690140 0.066269345581531525 0.177614003419876099 0.184007391333580017 -0.058334369212388992 0.037814039736986160 0.008748261258006096 -0.046663857996463776 0.044395931065082550 0.115051493048667908 0.051046144217252731 0.043615583330392838
0.117889717221260071 -0.042608231306076050 0.119185186922550201 -0.005439178552478552 0.047354876995086670 -0.150506630539894104 -0.001872793887741864 0.251948475837707520 0.140286311507225037 0.049870982766151428 -0.169016182422637939 -0.088952563703060150 -0.129922389984130859 -0.125185519456863403 -0.066236190497875214 0.006083526182919741 0.118915110826492310 0.111089095473289490 0.169195353984832764 -0.013617428019642830 -0.053140625357627869 -0.016582280397415161 -0.119392268359661102 -0.118614554405212402 0.169925168156623840 0.062722176313400269 -0.082629963755607605 -0.183375597000122070 -0.059069484472274780 -0.083290003240108490 -0.099964596331119537 0.068955302238464355 -0.031284440308809280 -0.140048533678054810 -0.202304929494857788 -0.141671568155288696 0.070441737771034241 -0.024799661710858345 0.103352673351764679 0.140396311879158020 -0.142156690359115601 0.058801900595426559 0.088927716016769409 0.005937729030847549 0.151274606585502625 0.027830963954329491 0.143680289387702942 -0.160331189632415771 0.189480096101760864 -0.120504409074783325 0.105520650744438171 0.032467868179082870 0.004824914503842592 0.152824938297271729 -0.121049962937831879 0.048694033175706863 -0.144179984927177429 -0.112380459904670715 -0.179093182086944580 0.084683254361152649 -0.069726072251796722 0.015282798558473587 0.005412467755377293 -0.083520472049713135 -0.126547694206237793 -0.106424324214458466 -0.099100597202777863 -0.044438827782869339 0.134344920516014099 0.156573742628097534 -0.123494789004325867 -0.131238579750061035 0.136641293764114380 -0.061776246875524521 -0.049185421317815781 -0.053188703954219818 0.097410358488559723 -0.064353443682193756 -0.002234577201306820 -0.069089487195014954 0.045345865190029144 -0.134049832820892334 -0.030280468985438347 -0.183479472994804382 0.096857614815235138 -0.050669178366661072 -0.124110154807567596 -0.136421710252761841 -0.190255239605903625 -0.140834391117095947 -0.061639387160539627 -0.097659245133399963 0.099007770419120789 -0.074050053954124451 0.121023647487163544 -0.042118612676858902 0.073964096605777740 0.091351002454757690 0.159503564238548279 -0.085220046341419220
0.129709780216217041 -0.055047698318958282 -0.051039863377809525 -0.140858754515647888 -0.047655124217271805 -0.136984944343566895 -0.133486509323120117 -0.149051100015640259 0.092757083475589752 0.073024652898311615 -0.066909745335578918 0.066140808165073395 -0.162728026509284973 -0.119220614433288574 -0.009363251738250256 0.179459780454635620 -0.116992540657520294 -0.034332640469074249 -0.113300688564777374 0.057723399251699448 0.009958709590137005 -0.192248970270156860 -0.145917773246765137 -0.069080784916877747 -0.181849896907806396 0.121007487177848816 0.069898135960102081 0.033152237534523010 0.128530666232109070 -0.129285722970962524 -0.027233155444264412 -0.108668603003025055 0.162087783217430115 0.163793489336967468 0.129782035946846008 -0.105222165584564209 0.067368470132350922 -0.072763860225677490 -0.090040691196918488 -0.141394406557083130 0.018010968342423439 -0.056674275547266006 -0.085012897849082947 0.033800169825553894 0.156509116291999817 0.014040350914001465 -0.046613149344921112 0.165434271097183228 -0.087748214602470398 -0.089954100549221039 -0.042558889836072922 -0.108537420630455017 0.087347991764545441 -0.092447787523269653 0.091835312545299530 -0.120850056409835815 -0.060053888708353043 -0.073134325444698334 0.015755085274577141 -0.084967941045761108 0.067566536366939545 0.178120762109756470 -0.106676615774631500 -0.094974294304847717 -0.131794512271881104 0.111279174685478210 -0.109983250498771667 0.101694107055664062 -0.019076839089393616 0.136489629745483398 0.174613818526268005 -0.118203803896903992 -0.080751456320285797 -0.136125639081001282 -0.106578297913074493 -0.162244766950607300 -0.030663188546895981 -0.056196555495262146 0.163881614804267883 -0.134152591228485107 0.136580541729927063 0.015598107129335403 -0.158393934369087219 0.186365976929664612 -0.072182387113571167 0.056224733591079712 0.153020784258842468 0.125038966536521912 0.001948204590007663 0.170288115739822388 -0.132987603545188904 -0.090664386749267578 -0.052815537899732590 0.009886850602924824 0.069786608219146729 0.049239467829465866 0.066019393503665924 0.181736081838607788 0.104598648846149445 -0.155426248908042908
0.168428137898445129 -0.097133383154869080 0.012174945324659348 -0.129905372858047485 -0.169574260711669922 0.096525371074676514 -0.059450324624776840 0.241805881261825562 0.056026093661785126 0.058191489428281784 0.041356936097145081 -0.105984240770339966 -0.124464094638824463 0.035601671785116196 0.091604083776473999 -0.100021421909332275 -0.008421002887189388 0.002016023732721806 -0.090646021068096161 0.078757718205451965 0.071252532303333282 0.033022023737430573 -0.122004240751266479 -0.005253930110484362 -0.038593649864196777 -0.155262261629104614 -0.155204609036445618 0.081269375979900360 0.011440725997090340 -0.130579710006713867 -0.129689872264862061 -0.162908419966697693 -0.161873832345008850 0.111688740551471710 -0.185559272766113281 0.126137092709541321 0.149448528885841370 0.137284010648727417 0.102039419114589691 0.104468971490859985 -0.115578509867191315 0.030205877497792244 -0.126948043704032898 -0.161549419164657593 0.054599728435277939 -0.142668858170509338 -0.143930435180664062 0.010609661228954792 0.158546850085258484 -0.176483809947967529 -0.167792081832885742 -0.120646812021732330 -0.161746829748153687 -0.007943866774439812 -0.079735070466995239 -0.045694433152675629 -0.006772956810891628 -0.143762975931167603 0.177354350686073303 0.063134826719760895 -0.158239364624023438 0.001183308660984039 0.093547433614730835 -0.155944645404815674 0.133326694369316101 -0.126933738589286804 -0.106012351810932159 0.090612165629863739 -0.148241728544235229 0.096620187163352966 0.132382288575172424 0.157408401370048523 0.045222591608762741 -0.046153418719768524 0.086745642125606537 -0.166448712348937988 0.126470118761062622 -0.026155723258852959 0.036584664136171341 0.071046791970729828 -0.166666746139526367 0.137069791555404663 0.128789648413658142 -0.003535506082698703 0.158617138862609863 -0.033784251660108566 -0.126561000943183899 -0.094821743667125702 -0.108443520963191986 0.138041436672210693 -0.016212727874517441 0.104590997099876404 -0.063610628247261047 -0.092552565038204193 0.114603102207183838 0.029815290123224258 0.143086820840835571 -0.112331606447696686 -0.141304507851600647 -0.069880634546279907
-0.125492587685585022 -0.143988028168678284 -0.107704944908618927 -0.206686243414878845 -0.101858310401439667 0.041419103741645813 0.094904057681560516 -0.161449640989303589 -0.020929150283336639 0.155268058180809021 -0.181140258908271790 -0.007150903809815645 -0.002626453991979361 0.109564013779163361 -0.187008038163185120 -0.133885696530342102 -0.108473628759384155 0.052392479032278061 0.001087951823137701 0.191209211945533752 -0.129481896758079529 0.058339476585388184 0.009869155474007130 0.141209706664085388 -0.122822120785713196 0.135213598608970642 0.077417090535163879 -0.087049536406993866 0.069762431085109711 -0.021959273144602776 -0.019228151068091393 0.115446917712688446 0.022037437185645103 -0.109677307307720184 0.015721911564469337 -0.100362062454223633 -0.114914327859878540 -0.014397926628589630 -0.095024779438972473 -0.046512722969055176 -0.096939019858837128 -0.189792022109031677 -0.071276813745498657 0.043187037110328674 -0.046821039170026779 0.191030994057655334 -0.089100837707519531 0.110183842480182648 -0.084200575947761536 -0.044131636619567871 0.002298459876328707 -0.183956086635589600 -0.101576849818229675 0.013476395979523659 -0.185784950852394104 0.139546066522598267 -0.005019176751375198 0.168962672352790833 0.129969701170921326 -0.154816195368766785 0.068551234900951385 0.006974576506763697 0.183683991432189941 0.103772662580013275 0.176924616098403931 0.143058255314826965 0.081497602164745331 0.086999237537384033 0.107412636280059814 -0.066752552986145020 -0.051715753972530365 0.069642424583435059 -0.133653864264488220 0.154004514217376709 0.112319968640804291 -0.062964960932731628 0.035860836505889893 -0.168464124202728271 0.026352837681770325 0.064727336168289185 0.174807086586952209 0.125097513198852539 -0.005090434104204178 0.022836938500404358 -0.191432207822799683 -0.109843395650386810 -0.137243971228599548 -0.077963873744010925 -0.151319280266761780 -0.022600373253226280 -0.053701750934123993 0.164218828082084656 -0.123243629932403564 0.197920307517051697 -0.120721839368343353 0.022112913429737091 0.048031594604253769 0.085676915943622589 -0.211493119597434998 0.156281545758247375
0.110423155128955841 -0.001875527086667717 0.188024014234542847 -0.021790612488985062 -0.177313402295112610 -0.137000963091850281 -0.054525684565305710 -0.102631554007530212 0.079540215432643890 -0.039010923355817795 -0.090843908488750458 -0.095555849373340607 0.089759543538093567 -0.092247463762760162 -0.073920115828514099 -0.014456650242209435 -0.045974280685186386 0.116549529135227203 -0.095102556049823761 -0.079789675772190094 -0.019590457901358604 -0.074250504374504089 0.180645063519477844 0.181674495339393616 -0.102752640843391418 -0.058526657521724701 -0.136471986770629883 0.048094823956489563 0.056940082460641861 0.162538483738899231 0.074062325060367584 0.019504193216562271 0.125429511070251465 0.181917935609817505 -0.164628341794013977 -0.013437552377581596 -0.022687066346406937 -0.139018401503562927 0.078743085265159607 -0.011860697530210018 0.051513314247131348 -0.076769076287746429 -0.090341828763484955 0.146535381674766541 -0.032474346458911896 0.073315232992172241 -0.144541323184967041 0.050850793719291687 -0.165654361248016357 0.034636370837688446 0.146820962429046631 -0.074209436774253845 -0.048887696117162704 -0.047262843698263168 0.079569488763809204 -0.102296374738216400 -0.063130058348178864 0.097186222672462463 0.117507554590702057 -0.011147077195346355 -0.075412452220916748 0.118451587855815887 0.182437986135482788 -0.174888923764228821 0.018424287438392639 0.023971080780029297 -0.114451348781585693 -0.098554663360118866 -0.185261234641075134 0.085687555372714996 -0.125564321875572205 0.130303338170051575 -0.189980730414390564 0.022359613329172134 0.065543390810489655 -0.139856383204460144 -0.089117832481861115 0.036183033138513565 0.013647806830704212 -0.076215870678424835 -0.013075782917439938 -0.161329284310340881 0.006353313568979502 0.040381867438554764 0.116750255227088928 -0.137611404061317444 0.144106730818748474 0.133366554975509644 0.132656514644622803 0.050856191664934158 0.077646806836128235 -0.056702028959989548 -0.111484348773956299 0.062954686582088470 0.149517312645912170 -0.108185611665248871 0.018865820020437241 0.028013383969664574 -0.054849937558174133 0.091884829103946686
0.051631595939397812 0.142604917287826538 -0.133517310023307800 -0.071287877857685089 0.016817972064018250 -0.112687803804874420 -0.161092951893806458 -0.106498979032039642 0.005931899417191744 -0.052193947136402130 0.130975678563117981 0.100864477455615997 0.109011165797710419 0.175123333930969238 0.102632790803909302 -0.031734000891447067 -0.108395606279373169 0.178026989102363586 0.142333120107650757 0.050469838082790375 -0.107705406844615936 0.087725661695003510 -0.164483457803726196 -0.144568800926208496 -0.041253056377172470 0.085610896348953247 0.124200873076915741 -0.124682143330574036 0.017948757857084274 0.087112456560134888 -0.060120139271020889 0.198874473571777344 -0.231190234422683716 -0.056167367845773697 -0.093561574816703796 0.061282664537429810 0.043065242469310760 -0.062577821314334869 0.124903433024883270 -0.068086676299571991 -0.003425532719120383 0.182539835572242737 -0.182477518916130066 0.066639989614486694 -0.200491189956665039 0.038354888558387756 0.097328551113605499 -0.152632072567939758 0.000324465654557571 -0.064906246960163116 0.091191262006759644 -0.098045371472835541 0.116622783243656158 0.043623760342597961 -0.124013394117355347 -0.037805281579494476 -0.085392057895660400 -0.053286612033843994 0.067149020731449127 0.040711190551519394 0.116516172885894775 -0.166064053773880005 -0.025515889748930931 0.086168766021728516 0.008936025202274323 -0.132812395691871643 0.221388474106788635 -0.072198897600173950 0.018078759312629700 0.121721543371677399 0.148628965020179749 -0.005017967429012060 -0.112194709479808807 -0.145376130938529968 0.082562580704689026 -0.047587197273969650 0.104992486536502838 -0.044319376349449158 0.023874865844845772 -0.207528054714202881 0.112433306872844696 0.178351446986198425 0.111106254160404205 -0.148171871900558472 0.141553670167922974 -0.179020538926124573 -0.173703506588935852 -0.205579489469528198 -0.071070581674575806 -0.024242239072918892 -0.151657789945602417 -0.210802257061004639 0.000238197477301583 -0.102142147719860077 -0.117850631475448608 0.130878582596778870 -0.166560173034667969 0.084587618708610535 0.184419021010398865 -0.023365134373307228
0.088516987860202789 -0.168828561902046204 0.055599197745323181 0.114445783197879791 0.065276451408863068 0.086605407297611237 -0.035422883927822113 0.176286160945892334 -0.194631487131118774 -0.086183637380599976 -0.094405844807624817 -0.068123728036880493 0.007627889048308134 0.065829165279865265 0.103638112545013428 -0.093077100813388824 -0.094256199896335602 0.083712041378021240 0.070494234561920166 -0.097919069230556488 -0.140163034200668335 -0.031637113541364670 0.106841519474983215 -0.022902965545654297 0.142828702926635742 0.118906393647193909 -0.070011146366596222 -0.071684211492538452 -0.103875629603862762 0.092465117573738098 0.121035665273666382 -0.070153400301933289 0.115421593189239502 0.109741635620594025 0.052654944360256195 -0.025289323180913925 -0.174753636121749878 -0.131070002913475037 -0.147196933627128601 -0.033867537975311279 0.157487630844116211 -0.144291028380393982 -0.019740719348192215 -0.098999328911304474 -0.050984151661396027 0.015376908704638481 0.147305861115455627 -0.096790045499801636 -0.065928421914577484 0.156959444284439087 0.076329298317432404 0.070942953228950500 -0.029523422941565514 0.007571074645966291 -0.144025519490242004 0.092060923576354980 0.129379957914352417 0.149047613143920898 -0.118349060416221619 0.007101254072040319 0.049262501299381256 0.096802964806556702 0.079691857099533081 -0.011481502093374729 -0.074017509818077087 -0.020207436755299568 -0.182412743568420410 -0.177545279264450073 0.129333928227424622 0.048876356333494186 0.060065854340791702 -0.168543785810470581 -0.076164498925209045 0.150874331593513489 -0.018524544313549995 -0.144500553607940674 -0.186746746301651001 -0.127557188272476196 0.200894132256507874 0.142637044191360474 0.060273427516222000 -0.101702950894832611 0.013741255737841129 -0.130893856287002563 0.117807179689407349 0.181520089507102966 0.119813859462738037 0.147626563906669617 0.130528092384338379 -0.051441889256238937 -0.125248953700065613 -0.006028491538017988 -0.082747459411621094 0.169038176536560059 0.027393169701099396 0.063587896525859833 -0.126776650547981262 -0.113109327852725983 -0.182362765073776245 0.037436820566654205
-0.136107549071311951 0.129846453666687012 -0.121657505631446838 -0.159622013568878174 0.146008282899856567 0.112822815775871277 -0.090297169983386993 -0.122957520186901093 0.124061733484268188 0.179200008511543274 -0.026006832718849182 0.080033957958221436 -0.154572486877441406 -0.027637956663966179 0.039884209632873535 -0.060581933706998825 -0.148230552673339844 -0.117796204984188080 -0.004491034429520369 -0.094996534287929535 0.142010539770126343 0.089333370327949524 -0.133444026112556458 -0.179728612303733826 -0.019932661205530167 -0.140107199549674988 0.063494928181171417 0.008128697983920574 0.054809082299470901 0.084702745079994202 0.005671468563377857 -0.003458522027358413 -0.012362377718091011 0.045676309615373611 0.091037355363368988 -0.017824189737439156 -0.123629711568355560 0.092380158603191376 0.105171941220760345 -0.123098038136959076 0.102680079638957977 -0.070143140852451324 0.008848020806908607 -0.100131057202816010 -0.069738060235977173 0.156900972127914429 -0.132419079542160034 -0.137925818562507629 -0.048538058996200562 0.178474128246307373 0.040463909506797791 -0.084080517292022705 0.128418147563934326 -0.134948149323463440 0.164390757679939270 0.107483178377151489 0.036575119942426682 0.035196270793676376 0.005461205728352070 0.156944632530212402 0.073828533291816711 0.006593151018023491 0.153815314173698425 0.085009634494781494 0.129251927137374878 -0.127036064863204956 0.067103147506713867 -0.103808335959911346 0.044675190001726151 -0.139452159404754639 -0.113959915935993195 0.095128111541271210 0.124132119119167328 -0.068688280880451202 0.085915371775627136 -0.127238497138023376 0.047987084835767746 0.135215774178504944 -0.000254488491918892 0.076018936932086945 -0.094423554837703705 -0.146471053361892700 0.081973366439342499 -0.003649984253570437 0.021801868453621864 0.123087018728256226 -0.066021621227264404 0.082038082182407379 0.104436695575714111 -0.082464769482612610 0.126687571406364441 -0.068982824683189392 -0.153619781136512756 0.078749157488346100 -0.012136369943618774 -0.005518729798495770 -0.135000258684158325 0.059826564043760300 0.058181382715702057 0.026889223605394363
-0.068973205983638763 -0.023637738078832626 0.106913834810256958 0.021721981465816498 0.030623471364378929 0.139068484306335449 0.114235348999500275 0.013712499290704727 0.040663816034793854 0.084757275879383087 0.144565418362617493 0.171252727508544922 0.107002712786197662 0.153960749506950378 -0.036720730364322662 -0.121067665517330170 0.067499481141567230 -0.069654911756515503 -0.052594322711229324 0.090674750506877899 -0.146194174885749817 -0.000734419969376177 0.205576032400131226 -0.124694071710109711 -0.198672279715538025 -0.053133811801671982 -0.060288518667221069 0.043213367462158203 0.137409716844558716 -0.132294729351997375 -0.140709623694419861 -0.056114062666893005 0.183954268693923950 0.191208630800247192 0.112453170120716095 0.188674509525299072 -0.033008921891450882 -0.074759632349014282 0.046371784061193466 0.002333284821361303 0.141298487782478333 0.047835864126682281 -0.051723401993513107 0.036282353103160858 0.105689704418182373 -0.022109372541308403 0.108830444514751434 0.141367465257644653 0.063771560788154602 -0.076813779771327972 -0.091136090457439423 -0.193150863051414490 0.102338209748268127 0.076104201376438141 -0.047198742628097534 0.070968791842460632 0.093978576362133026 0.120458252727985382 0.000296694925054908 -0.052377514541149139 -0.033307891339063644 0.166484072804450989 0.085202038288116455 -0.018593229353427887 0.044346675276756287 0.096420228481292725 -0.197987437248229980 -0.028068553656339645 -0.184166163206100464 -0.219022750854492188 -0.062462247908115387 0.022382665425539017 0.117577336728572845 0.013351848348975182 -0.152698338031768799 0.101043127477169037 -0.009145800024271011 -0.139244362711906433 0.093397937715053558 0.144611254334449768 0.066123284399509430 0.014545963145792484 0.057636898010969162 -0.084232598543167114 0.017504086717963219 0.001833799877204001 0.151571273803710938 -0.007525958120822906 0.124815046787261963 -0.007287608925253153 -0.119439959526062012 0.110108681023120880 0.090323306620121002 0.105777807533740997 -0.098465546965599060 0.029963796958327293 0.042563494294881821 0.050074223428964615 -0.126823648810386658 -0.052526351064443588
0.163264572620391846 0.183776602149009705 -0.076934590935707092 -0.087126456201076508 -0.072597309947013855 -0.121051564812660217 0.087434135377407074 -0.109946668148040771 -0.058084052056074142 0.104650683701038361 0.056615561246871948 -0.181543633341789246 -0.078138366341590881 0.147636756300926208 -0.121647797524929047 -0.087334960699081421 -0.048798777163028717 -0.103110440075397491 -0.003955073188990355 0.062610581517219543 0.183382898569107056 0.203121334314346313 0.073965646326541901 -0.095746695995330811 0.104893870651721954 -0.101113475859165192 0.154672116041183472 -0.036929320544004440 0.064419627189636230 -0.136342242360115051 0.154391467571258545 0.096895359456539154 0.081942424178123474 0.114090956747531891 0.044995129108428955 -0.077812246978282928 -0.144634336233139038 0.102301359176635742 -0.151693150401115417 0.150572776794433594 -0.119137756526470184 -0.134063303470611572 0.102726027369499207 -0.007279707584530115 -0.083149164915084839 -0.073465108871459961 -0.067886680364608765 -0.090832628309726715 0.163884848356246948 -0.053881891071796417 -0.129841670393943787 -0.068575866520404816 -0.023626841604709625 -0.039904259145259857 -0.134431585669517517 -0.023089462891221046 0.023639006540179253 0.124914646148681641 -0.070391528308391571 -0.009079433046281338 0.006956693250685930 -0.137299656867980957 0.030909165740013123 0.113908208906650543 -0.016372619196772575 -0.150578916072845459 0.115819931030273438 -0.136014595627784729 -0.100737087428569794 -0.135733395814895630 -0.037455532699823380 0.167333826422691345 0.114864900708198547 0.110439017415046692 0.097868919372558594 -0.106244079768657684 -0.002689840504899621 0.085525915026664734 -0.078394107520580292 0.042814608663320541 -0.023370787501335144 0.004815201275050640 -0.144695892930030823 -0.111962348222732544 -0.060063485056161880 -0.056533191353082657 -0.044835861772298813 0.145231887698173523 -0.062781743705272675 0.062652990221977234 0.113510474562644958 -0.050316803157329559 0.093624174594879150 -0.117325067520141602 0.081896156072616577 -0.119574293494224548 -0.088579393923282623 -0.010675510391592979 -0.026235263794660568 -0.074754543602466583
0.175649315118789673 0.022830707952380180 -0.028096221387386322 0.193097099661827087 0.055316522717475891 -0.045450054109096527 -0.097813054919242859 0.096284359693527222 -0.023714065551757812 -0.023633889853954315 0.077388197183609009 -0.083656199276447296 0.149224296212196350 0.052725579589605331 -0.069163501262664795 0.098612532019615173 -0.024833729490637779 -0.006909077987074852 0.038326766341924667 -0.072221890091896057 0.074902556836605072 -0.036676201969385147 -0.078473374247550964 -0.023353649303317070 -0.011562610976397991 -0.126221060752868652 0.121893331408500671 -0.081771321594715118 -0.068888962268829346 -0.146778881549835205 0.048397339880466461 0.123742915689945221 -0.121177464723587036 -0.084543198347091675 0.131644055247306824 0.005902121774852276 -0.017267305403947830 -0.101401828229427338 -0.117531120777130127 0.063942387700080872 -0.118145778775215149 0.026040395721793175 0.058990560472011566 -0.066907316446304321 -0.013513392768800259 -0.145733237266540527 0.095340907573699951 -0.062916889786720276 -0.109506428241729736 -0.118113487958908081 -0.094351910054683685 -0.096716828644275665 0.145336061716079712 0.133847951889038086 0.015044854953885078 -0.132105022668838501 0.147387012839317322 -0.041766870766878128 0.075696185231208801 -0.058780662715435028 0.051505245268344879 -0.149760365486145020 -0.015756733715534210 -0.075092665851116180 0.014779360964894295 -0.156081750988960266 0.061261102557182312 0.023195298388600349 0.115552186965942383 0.010082986205816269 -0.127723395824432373 -0.012407372705638409 -0.025636173784732819 0.095753155648708344 -0.066759020090103149 0.024806834757328033 0.115958310663700104 0.120275691151618958 0.007017084397375584 0.083873473107814789 0.114821247756481171 -0.104026675224304199 0.106615826487541199 -0.162856608629226685 0.142702281475067139 0.069789066910743713 -0.117548845708370209 0.071745388209819794 0.146104723215103149 -0.044711206108331680 -0.077986270189285278 0.126418873667716980 -0.027776625007390976 -0.034428298473358154 0.054427821189165115 -0.140227064490318298 0.011574700474739075 -0.113196857273578644 0.098380006849765778 0.063212811946868896
0.146859332919120789 -0.076379828155040741 0.104146853089332581 0.126957774162292480 0.134780496358871460 0.078905902802944183 0.078010469675064087 0.171606808900833130 0.019785057753324509 -0.108901262283325195 0.137365639209747314 -0.130820646882057190 -0.006023581605404615 0.116962596774101257 0.077248834073543549 -0.063154399394989014 -0.091366700828075409 0.054277479648590088 0.129340559244155884 0.026211882010102272 0.083014033734798431 0.059420365840196609 0.036659028381109238 0.139940500259399414 -0.130197852849960327 -0.143819555640220642 -0.114537395536899567 0.158216089010238647 -0.019188169389963150 -0.027540488168597221 -0.130442216992378235 0.077289476990699768 -0.033204086124897003 0.035636875778436661 0.101557463407516479 -0.072585977613925934 -0.060507323592901230 -0.074389472603797913 -0.063549213111400604 -0.086274899542331696 -0.125419333577156067 -0.085553690791130066 0.145807370543479919 -0.080866105854511261 0.147989362478256226 -0.094783507287502289 -0.070043586194515228 0.139018267393112183 -0.143438249826431274 -0.038517419248819351 -0.116445451974868774 0.154787227511405945 -0.098217383027076721 -0.052772980183362961 -0.025839325040578842 -0.071573294699192047 -0.018646845594048500 -0.184522390365600586 0.100140988826751709 -0.096152521669864655 -0.033584952354431152 -0.129553645849227905 -0.075507663190364838 0.042884219437837601 -0.145298615097999573 -0.012615340761840343 -0.026235125958919525 0.011315307579934597 -0.045734412968158722 -0.127491965889930725 0.146932885050773621 0.191518306732177734 0.123259574174880981 0.121277332305908203 -0.076077118515968323 0.069015532732009888 0.179158270359039307 0.065840810537338257 -0.034474946558475494 -0.067367836833000183 -0.114824779331684113 -0.013773414306342602 0.041276164352893829 -0.106940031051635742 0.137925058603286743 0.132520064711570740 -0.051690828055143356 -0.128964528441429138 -0.065051160752773285 0.161217287182807922 0.118367247283458710 -0.180600702762603760 0.132747918367385864 -0.042672030627727509 -0.167189523577690125 0.168230399489402771 -0.003653273452073336 -0.123498767614364624 0.087455667555332184 -0.155601918697357178
-0.029592433944344521 0.018848747014999390 0.051389139145612717 -0.090289987623691559 -0.089665144681930542 0.002736492315307260 -0.045591518282890320 -0.170131519436836243 0.042141791433095932 -0.126453131437301636 0.011585789732635021 0.171250149607658386 0.105546094477176666 0.112112641334533691 -0.067937344312667847 -0.073399424552917480 0.119839675724506378 -0.122408144176006317 0.040356140583753586 -0.106198705732822418 -0.122505694627761841 -0.071166731417179108 -0.008532117120921612 0.061092317104339600 0.112733587622642517 -0.035337146371603012 0.120680510997772217 0.154152601957321167 0.104129783809185028 -0.023167936131358147 0.134680598974227905 -0.122777141630649567 0.124656446278095245 0.007304568774998188 0.037661325186491013 0.117540046572685242 -0.145129278302192688 -0.135871946811676025 -0.143677324056625366 -0.104098983108997345 0.134531348943710327 0.058814469724893570 -0.106614679098129272 -0.011083063669502735 0.122886091470718384 -0.056763160973787308 0.061038073152303696 -0.105753034353256226 0.044708780944347382 0.040252096951007843 -0.123005956411361694 0.102431356906890869 0.148099973797798157 0.042212288826704025 -0.025759110227227211 -0.031209982931613922 -0.108251631259918213 0.044731520116329193 0.126039996743202209 0.009930351749062538 0.026725659146904945 0.051165550947189331 -0.080509632825851440 -0.135446816682815552 0.003797434503212571 0.035477936267852783 -0.054783694446086884 0.074427202343940735 0.152391254901885986 -0.028768187388777733 -0.005567025858908892 -0.032917972654104233 -0.173085123300552368 0.032519865781068802 0.014863139018416405 0.045904036611318588 -0.063879892230033875 -0.042850870639085770 0.142424747347831726 0.070390291512012482 -0.105148769915103912 0.012398347258567810 0.123047262430191040 0.131837263703346252 -0.097080439329147339 0.063194863498210907 -0.067665606737136841 -0.133936539292335510 0.047107193619012833 0.166499063372612000 -0.153563365340232849 0.139372318983078003 0.030708847567439079 0.060635425150394440 0.055033694952726364 0.052207350730895996 -0.150489106774330139 0.065944761037826538 -0.045516859740018845 -0.030425895005464554
-0.113112375140190125 -0.121637575328350067 0.121920645236968994 -0.168714404106140137 0.045948613435029984 -0.020361330360174179 -0.102312304079532623 0.072346717119216919 -0.004243320319801569 0.001764610642567277 0.161275863647460938 -0.118540152907371521 0.137945562601089478 -0.139625087380409241 0.154702618718147278 0.059460282325744629 0.128160670399665833 0.010138578712940216 -0.036678932607173920 0.101708054542541504 -0.143242910504341125 -0.141202911734580994 -0.077624857425689697 -0.140361353754997253 0.028267309069633484 0.070078156888484955 -0.067373707890510559 0.001769487629644573 -0.137879744172096252 0.016598390415310860 0.108873419463634491 -0.000706886814441532 -0.129020139575004578 0.104413308203220367 0.112660318613052368 0.088252589106559753 -0.174513667821884155 -0.114300265908241272 -0.133962050080299377 0.001855889218859375 0.134213432669639587 -0.194076120853424072 0.105583727359771729 0.041452322155237198 -0.000018886399629992 0.138732567429542542 -0.114967882633209229 0.176672905683517456 -0.167850703001022339 0.043209362775087357 -0.142710402607917786 -0.009426044300198555 0.066409327089786530 -0.143957197666168213 -0.009668529033660889 -0.020546536892652512 -0.003087067278102040 -0.052798029035329819 -0.154356077313423157 0.155587390065193176 -0.081801757216453552 0.146633774042129517 -0.076785333454608917 -0.159691125154495239 -0.103132821619510651 0.012577643617987633 -0.110091768205165863 -0.051968920975923538 -0.112444423139095306 0.068299710750579834 -0.023976493626832962 -0.042449943721294403 0.073627568781375885 0.067727416753768921 0.075953982770442963 0.159241959452629089 -0.002960603917017579 0.015822138637304306 0.186610341072082520 -0.113758407533168793 0.116573803126811981 -0.172808989882469177 -0.088741645216941833 -0.088910512626171112 0.054648444056510925 -0.084544017910957336 -0.053340379148721695 0.089506462216377258 -0.154133394360542297 0.169765889644622803 -0.069019645452499390 -0.153679579496383667 -0.196084409952163696 -0.130661800503730774 -0.019211627542972565 -0.081976801156997681 -0.132893621921539307 0.170599281787872314 -0.082446262240409851 0.054753903299570084
-0.072114221751689911 0.040860336273908615 -0.122065261006355286 -0.094365678727626801 -0.031681254506111145 -0.080374523997306824 -0.132739633321762085 -0.107561938464641571 0.113535389304161072 0.081426396965980530 -0.046029105782508850 -0.176074832677841187 -0.042869441211223602 -0.111054733395576477 0.006546301767230034 0.066858708858489990 0.045498732477426529 0.103365682065486908 0.023981846868991852 0.049541912972927094 -0.033363308757543564 -0.127197265625000000 -0.151022389531135559 0.105135098099708557 -0.125843957066535950 -0.026828669011592865 -0.032933294773101807 0.145594730973243713 0.067661538720130920 -0.170958414673805237 0.108808577060699463 -0.027442635968327522 0.148653253912925720 0.179558679461479187 0.088488660752773285 0.018443830311298370 -0.101650103926658630 -0.040486976504325867 0.079235844314098358 -0.108483523130416870 -0.135855466127395630 0.027862224727869034 -0.093406803905963898 -0.062480453401803970 0.007213438861072063 -0.094669349491596222 -0.143186464905738831 -0.007615341804921627 -0.088446974754333496 0.029013408347964287 -0.167410999536514282 -0.110689580440521240 0.032776288688182831 0.036170199513435364 -0.132079482078552246 -0.042687278240919113 -0.146011665463447571 0.045515879988670349 0.013209525495767593 -0.120932206511497498 0.126371517777442932 0.111636616289615631 0.087132357060909271 -0.085045039653778076 0.145212054252624512 -0.065429762005805969 0.023658515885472298 -0.141336500644683838 0.138052791357040405 0.144102007150650024 0.002887283219024539 0.062534019351005554 -0.086251109838485718 0.106831647455692291 -0.081945173442363739 -0.039869714528322220 0.129538759589195251 0.074212521314620972 0.158361643552780151 0.128228113055229187 0.138937681913375854 0.136575162410736084 -0.060850113630294800 0.052907608449459076 -0.003736775601282716 0.030433697625994682 0.029526468366384506 -0.155349269509315491 0.046811468899250031 0.093876026570796967 0.128559604287147522 0.004993562586605549 0.136453062295913696 0.005017679650336504 0.105491869151592255 0.079107657074928284 0.075415819883346558 0.019960120320320129 -0.073462598025798798 0.015803089365363121
0.109046645462512970 -0.042193531990051270 -0.112705022096633911 0.073708370327949524 0.126125082373619080 0.151537671685218811 -0.069080777466297150 0.157532170414924622 -0.052721828222274780 -0.179744705557823181 0.136706292629241943 -0.102972418069839478 0.006032262928783894 -0.055250003933906555 0.046988710761070251 0.082731276750564575 -0.125477433204650879 -0.078585296869277954 0.062590114772319794 0.093938231468200684 0.066163301467895508 0.083489976823329926 -0.000562346656806767 0.147343471646308899 0.047842551022768021 0.133364841341972351 -0.055262219160795212 -0.073032662272453308 0.049383599311113358 0.024514578282833099 -0.109251521527767181 -0.050646785646677017 0.088918745517730713 -0.193506002426147461 0.025924827903509140 0.137650057673454285 0.084966681897640228 0.020511135458946228 0.141773805022239685 -0.027824487537145615 -0.166974037885665894 -0.092039361596107483 0.050018157809972763 -0.122979894280433655 -0.000583350716624409 -0.050915766507387161 -0.146507799625396729 0.023645445704460144 0.125887021422386169 0.167491301894187927 0.191187620162963867 0.082626976072788239 -0.117488123476505280 0.133320987224578857 -0.057814780622720718 0.112790308892726898 -0.075248062610626221 -0.169541373848915100 -0.080314308404922485 0.124727800488471985 -0.106796942651271820 -0.012783740647137165 -0.066192671656608582 -0.125753402709960938 -0.097720615565776825 0.055017702281475067 -0.042133729904890060 0.170151069760322571 -0.036673914641141891 0.007107915356755257 -0.075202107429504395 0.128792792558670044 0.066540881991386414 0.010342502966523170 -0.132757768034934998 -0.115332342684268951 -0.080328017473220825 0.085572168231010437 -0.079732380807399750 -0.009125097654759884 0.019468432292342186 -0.122864164412021637 -0.122288078069686890 0.026129167526960373 0.096830539405345917 -0.156815886497497559 0.088252343237400055 0.052488565444946289 0.049102682620286942 -0.154349222779273987 -0.008836250752210617 -0.016759436577558517 -0.022689545527100563 0.014594241976737976 -0.113141924142837524 -0.064820393919944763 -0.030444752424955368 0.118161469697952271 0.067066803574562073 0.063864611089229584
-0.128672227263450623 0.081089265644550323 -0.028396066278219223 -0.106996700167655945 0.113431967794895172 -0.144112139940261841 0.032364830374717712 0.012213477864861488 -0.056722395122051239 -0.040221899747848511 -0.108941242098808289 -0.054943859577178955 0.139671161770820618 -0.093340963125228882 0.114133059978485107 -0.033725649118423462 -0.043215319514274597 -0.123991526663303375 -0.082416854798793793 -0.038535442203283310 0.025739319622516632 0.186659216880798340 -0.005691233556717634 -0.032411843538284302 0.113958694040775299 0.009433304890990257 -0.088070958852767944 0.093826957046985626 0.055069789290428162 0.048890225589275360 -0.163922861218452454 0.053634949028491974 -0.119919501245021820 -0.002887324895709753 -0.115597866475582123 -0.141368329524993896 -0.122107081115245819 0.092233084142208099 -0.016157576814293861 0.089706830680370331 -0.029136538505554199 -0.022175451740622520 0.134826734662055969 -0.081993542611598969 0.016777195036411285 -0.124192833900451660 -0.028993817046284676 -0.119080081582069397 0.140453010797500610 0.021984331309795380 -0.087049871683120728 -0.141763120889663696 0.048089522868394852 -0.102396897971630096 0.112301021814346313 -0.146623373031616211 -0.157545521855354309 0.041748683899641037 -0.058454826474189758 -0.007555003743618727 0.150663495063781738 -0.122491531074047089 -0.004568118602037430 -0.031308721750974655 0.117460586130619049 0.067533560097217560 0.109440304338932037 0.164017781615257263 -0.022909780964255333 -0.050388731062412262 0.145040675997734070 -0.111101873219013214 -0.056059200316667557 -0.182297766208648682 0.107440702617168427 -0.110759779810905457 -0.122011013329029083 -0.145026579499244690 -0.006868404801934958 -0.008309174329042435 -0.163576841354370117 -0.017551284283399582 -0.106565006077289581 -0.074655361473560333 0.103863440454006195 -0.086500808596611023 0.114549763500690460 -0.053037725389003754 0.118115261197090149 0.137752503156661987 0.096289239823818207 -0.142254978418350220 -0.099301382899284363 -0.129840850830078125 0.050329759716987610 -0.121529474854469299 -0.110971495509147644 -0.160215973854064941 0.052031062543392181 0.160670772194862366
-0.026458090171217918 -0.007029077503830194 -0.071127489209175110 -0.028967846184968948 -0.176930323243141174 -0.092164479196071625 -0.064451187849044800 0.184877455234527588 -0.090268984436988831 -0.127102822065353394 0.123721316456794739 0.156084492802619934 0.178915649652481079 0.010709618218243122 0.100526683032512665 0.099998414516448975 -0.084655895829200745 0.122085161507129669 0.010813520289957523 0.026294192299246788 0.164488703012466431 0.120833687484264374 -0.006696694064885378 -0.126144036650657654 -0.063374407589435577 0.120722174644470215 -0.156547889113426208 0.032658454030752182 0.005487014539539814 -0.035056184977293015 0.066907837986946106 -0.117767423391342163 -0.095871664583683014 0.024732146412134171 0.026370365172624588 0.091235391795635223 0.022071419283747673 -0.150079727172851562 0.076042458415031433 -0.150053650140762329 0.011311303824186325 0.092999324202537537 0.145444527268409729 0.150340020656585693 -0.078521482646465302 -0.063451148569583893 -0.023981431499123573 -0.136652976274490356 0.059087853878736496 -0.093662552535533905 0.121351301670074463 0.007439178414642811 -0.014068284071981907 0.083990007638931274 0.043704822659492493 -0.129489973187446594 -0.046114481985569000 0.027128340676426888 0.129936784505844116 0.076667591929435730 -0.178764089941978455 -0.061143286526203156 0.066943526268005371 -0.112247213721275330 0.048482168465852737 0.111631408333778381 -0.008820486254990101 -0.038224935531616211 0.159187108278274536 0.005265354178845882 -0.184548616409301758 0.038927085697650909 0.059707019478082657 0.068064287304878235 0.054329365491867065 -0.162179633975028992 0.066191457211971283 0.045095629990100861 -0.134011909365653992 -0.073101080954074860 0.000499072077218443 0.027339365333318710 -0.133233428001403809 0.068265400826931000 -0.154129818081855774 0.046042233705520630 0.076953917741775513 0.004457578063011169 0.098006471991539001 -0.024581287056207657 0.122579000890254974 0.155286967754364014 -0.101716026663780212 0.146473571658134460 -0.148473605513572693 -0.074201472103595734 -0.100099198520183563 0.071333073079586029 -0.181972548365592957 -0.125316336750984192
-0.070135124027729034 0.082930020987987518 -0.026276895776391029 -0.206477910280227661 -0.177139922976493835 -0.105983637273311615 -0.084107168018817902 -0.114105634391307831 0.093767851591110229 0.090975344181060791 -0.094294168055057526 0.142577588558197021 0.103164397180080414 0.165295079350471497 0.017419548705220222 0.008723867125809193 0.065252535045146942 0.036303628236055374 -0.007545942906290293 0.165567889809608459 -0.034342996776103973 -0.012496245093643665 0.008846434764564037 0.142369031906127930 0.030043479055166245 -0.015862753614783287 0.119947336614131927 -0.107303321361541748 0.064503841102123260 0.136800706386566162 -0.100484177470207214 -0.183129951357841492 -0.023428739979863167 0.194764539599418640 -0.037127204239368439 -0.024360556155443192 -0.061266653239727020 -0.042245384305715561 0.009622407145798206 -0.139250621199607849 -0.088542759418487549 -0.115319602191448212 -0.006286353338509798 -0.014492244459688663 -0.046365618705749512 0.029852705076336861 0.121127270162105560 0.070816159248352051 0.035891246050596237 -0.016589529812335968 -0.018680874258279800 0.091369315981864929 0.024935422465205193 -0.048234425485134125 -0.065605431795120239 -0.074587866663932800 0.169663324952125549 -0.126404568552970886 0.104453660547733307 0.073876231908798218 -0.203283339738845825 0.202408909797668457 -0.143474921584129333 0.023565968498587608 -0.002368622459471226 -0.182994112372398376 -0.189581200480461121 0.082684032618999481 -0.158527836203575134 -0.094680197536945343 -0.055010367184877396 -0.035842329263687134 0.081496700644493103 0.001098191016353667 -0.049634333699941635 -0.092351585626602173 -0.019389072433114052 0.025372672826051712 0.028496405109763145 -0.123143918812274933 -0.107782438397407532 -0.140074402093887329 -0.110028147697448730 0.177532091736793518 -0.056806743144989014 -0.149494752287864685 0.165432900190353394 -0.045519903302192688 0.136320412158966064 0.142612367868423462 0.096866451203823090 0.006852106656879187 -0.008828501217067242 -0.071732014417648315 -0.111049026250839233 -0.157530412077903748 0.133137956261634827 -0.069244049489498138 0.011845723725855350 -0.089123599231243134
0.026400746777653694 -0.022826645523309708 0.206381142139434814 -0.094539403915405273 -0.001128434436395764 -0.108815640211105347 -0.170752152800559998 -0.136909246444702148 0.152180165052413940 -0.093767106533050537 0.022589892148971558 -0.132927030324935913 -0.001259367913007736 0.106013737618923187 -0.086534082889556885 0.096178010106086731 -0.139142692089080811 0.170938149094581604 0.145958080887794495 0.074804596602916718 -0.131130799651145935 -0.096126362681388855 0.037102811038494110 -0.066508159041404724 -0.042150102555751801 0.146703019738197327 0.107488453388214111 -0.088058076798915863 -0.039628308266401291 0.081951096653938293 0.021228134632110596 0.110572993755340576 0.054754901677370071 -0.134345903992652893 -0.099568188190460205 -0.111496269702911377 0.158124849200248718 0.094076290726661682 -0.173548132181167603 -0.031505253165960312 0.064834192395210266 -0.071518525481224060 -0.013924606144428253 0.150890514254570007 0.002042362000793219 0.149383634328842163 0.049880441278219223 0.018029375001788139 -0.169683530926704407 0.011792552657425404 0.018370220437645912 -0.074783317744731903 0.172137081623077393 -0.153065308928489685 0.024894792586565018 -0.118141047656536102 -0.130518406629562378 0.009099726565182209 0.149727895855903625 -0.081028982996940613 0.122903779149055481 -0.115852840244770050 -0.158908933401107788 0.159784823656082153 0.178712457418441772 -0.136060461401939392 -0.059933885931968689 -0.058172002434730530 -0.141710564494132996 -0.156787365674972534 0.022494476288557053 0.150721549987792969 0.034561842679977417 0.109256774187088013 -0.089597411453723907 -0.089996822178363800 0.112143486738204956 0.008357248269021511 -0.141196891665458679 0.038830377161502838 -0.114216081798076630 -0.141825526952743530 -0.064184136688709259 0.058149646967649460 0.161047995090484619 -0.173937574028968811 -0.140944227576255798 -0.106141254305839539 0.155221924185752869 0.028133880347013474 0.043470520526170731 0.115093693137168884 0.039816197007894516 -0.157969251275062561 0.156095355749130249 0.013874227181077003 0.110748924314975739 -0.046579893678426743 0.035549458116292953 -0.081200852990150452
-0.086474522948265076 -0.016030909493565559 -0.072563394904136658 0.005879271775484085 -0.097505964338779449 -0.101817123591899872 -0.074403978884220123 -0.032393958419561386 0.055311843752861023 0.208539590239524841 -0.147351786494255066 0.179909303784370422 0.033557400107383728 0.067642278969287872 -0.092240370810031891 0.113839358091354370 -0.054947968572378159 -0.094985932111740112 -0.015614966861903667 0.076767146587371826 0.134056374430656433 -0.057652220129966736 0.051650203764438629 0.143336817622184753 0.062751360237598419 -0.120075054466724396 0.098193272948265076 0.168164387345314026 0.002250503050163388 -0.007456206716597080 -0.120559073984622955 0.122826270759105682 -0.081490352749824524 -0.027615888044238091 -0.020956793799996376 -0.097374729812145233 -0.096578270196914673 0.001357048982754350 0.055953137576580048 -0.032234959304332733 -0.151511207222938538 -0.170328423380851746 0.050085119903087616 0.023735197260975838 -0.138324186205863953 -0.109656423330307007 -0.185689970850944519 0.165059894323348999 -0.098291635513305664 -0.086380377411842346 0.001247961190529168 0.138141557574272156 -0.020608516409993172 0.065250545740127563 0.101125404238700867 -0.070716246962547302 -0.022393435239791870 0.002622633473947644 0.116812281310558319 -0.128239110112190247 -0.099653020501136780 -0.125967979431152344 -0.024017030373215675 -0.061888504773378372 0.075145088136196136 0.098198138177394867 0.039309743791818619 0.121866941452026367 0.085082389414310455 -0.080065369606018066 0.013295768760144711 -0.153915137052536011 -0.185147106647491455 -0.141350120306015015 0.016113175079226494 -0.062563814222812653 -0.188016220927238464 -0.135904029011726379 -0.140799701213836670 -0.071695648133754730 -0.027515251189470291 -0.040698539465665817 -0.156317904591560364 -0.126278862357139587 0.082370989024639130 0.153674453496932983 0.065789498388767242 0.060939569026231766 0.065710537135601044 -0.117044404149055481 0.044868845492601395 0.152902528643608093 -0.021653963252902031 0.155898138880729675 -0.061775602400302887 -0.033731963485479355 -0.112761467695236206 0.011514950543642044 -0.167971551418304443 0.093694649636745453
-0.091474495828151703 0.105700880289077759 -0.195879623293876648 0.075759932398796082 0.066176496446132660 -0.046958636492490768 0.071978114545345306 0.199268341064453125 0.094703331589698792 -0.183096200227737427 0.132679000496864319 -0.016216905787587166 -0.160703182220458984 0.046818148344755173 -0.096445374190807343 0.116734430193901062 -0.016681548207998276 0.000340399536071345 -0.105030082166194916 0.127100422978401184 -0.100368529558181763 0.072338052093982697 -0.085130058228969574 -0.017809957265853882 -0.028814524412155151 -0.026103088632225990 0.006432665977627039 -0.011102322489023209 -0.084884934127330780 0.138870328664779663 0.150352790951728821 0.123343288898468018 -0.093227975070476532 0.106986097991466522 0.106909878551959991 -0.122766673564910889 -0.040882848203182220 -0.125208422541618347 0.078830540180206299 -0.093339502811431885 0.144018426537513733 -0.119860254228115082 0.130876779556274414 -0.048612505197525024 0.018480863422155380 -0.123669534921646118 0.159515082836151123 -0.006752286572009325 0.080354318022727966 0.077506810426712036 0.000594418786931783 -0.152911156415939331 -0.011748183518648148 0.084108814597129822 0.088758662343025208 0.090668968856334686 0.034141786396503448 -0.082468636333942413 0.065081417560577393 -0.088520944118499756 0.071074575185775757 0.003164952853694558 -0.102723829448223114 0.072001531720161438 -0.178345218300819397 -0.032744877040386200 -0.070299811661243439 0.123935364186763763 -0.107894472777843475 0.173022478818893433 0.086042389273643494 -0.133801385760307312 0.102405056357383728 -0.075610265135765076 0.009935168549418449 0.102725178003311157 0.155482664704322815 -0.104468286037445068 0.044681645929813385 -0.170969471335411072 0.103494912385940552 -0.026511253789067268 0.062334943562746048 -0.164555370807647705 0.176531836390495300 0.142601624131202698 0.131606191396713257 0.043288249522447586 0.144974485039710999 0.006391113623976707 -0.010084865614771843 -0.024053880944848061 -0.075029797852039337 0.011942889541387558 -0.078685566782951355 -0.094412371516227722 -0.109486848115921021 -0.180728152394294739 -0.144916027784347534 0.177936241030693054
-0.047906506806612015 -0.064342893660068512 -0.204443395137786865 -0.150230795145034790 0.120746731758117676 -0.017096200957894325 -0.061836723238229752 0.049165695905685425 0.069685399532318115 -0.163210347294807434 -0.125915184617042542 0.067714862525463104 0.088262200355529785 0.132453203201293945 -0.097344741225242615 0.188506796956062317 -0.148428395390510559 -0.045764122158288956 -0.145946264266967773 -0.060820564627647400 0.142974108457565308 -0.093385621905326843 -0.017601441591978073 -0.057576205581426620 0.165482282638549805 -0.035664603114128113 -0.124813839793205261 -0.065747059881687164 0.066487260162830353 -0.103928148746490479 0.022336877882480621 -0.126394510269165039 -0.176710724830627441 0.113902188837528229 -0.058722864836454391 0.139212742447853088 0.073843680322170258 0.110202863812446594 -0.134141728281974792 0.135040074586868286 -0.041100472211837769 0.093014523386955261 0.132399588823318481 -0.089221790432929993 0.117707952857017517 -0.117058537900447845 0.174581855535507202 -0.037037584930658340 -0.090024977922439575 0.019061233848333359 0.178254380822181702 0.167224794626235962 -0.122627034783363342 -0.074701569974422455 -0.102263644337654114 0.117058642208576202 -0.154387414455413818 0.088228464126586914 0.110723979771137238 0.142349272966384888 -0.062933899462223053 0.063396833837032318 -0.039453595876693726 -0.077567592263221741 0.090771310031414032 0.187918379902839661 -0.084820911288261414 0.025393135845661163 0.141684636473655701 0.111175484955310822 0.145088896155357361 0.029838008806109428 0.128888726234436035 0.107359819114208221 0.164904817938804626 0.040266998112201691 0.098966471850872040 0.128111630678176880 -0.183782368898391724 0.136994227766990662 0.077710427343845367 -0.046082179993391037 0.173673689365386963 0.027660684660077095 0.168024569749832153 -0.017220655456185341 0.061638887971639633 -0.085596397519111633 0.062285650521516800 0.004215283319354057 -0.164882183074951172 0.025143416598439217 0.177947506308555603 -0.085560716688632965 -0.172425076365470886 -0.084755450487136841 -0.026621719822287560 -0.083233661949634552 0.139380425214767456 -0.135588258504867554
-0.163768202066421509 0.130111962556838989 0.090496085584163666 0.105612173676490784 -0.102476589381694794 0.007032171357423067 0.138448804616928101 -0.133918493986129761 -0.015030798502266407 0.049433328211307526 0.038681738078594208 0.175997912883758545 0.136646986007690430 -0.005727935116738081 0.119792602956295013 -0.052540928125381470 0.147256135940551758 0.128024384379386902 -0.050119608640670776 -0.006113888695836067 0.075795792043209076 -0.094526007771492004 0.176749184727668762 -0.009792165830731392 -0.045296352356672287 0.185424551367759705 -0.016402577981352806 -0.106972306966781616 0.021026095375418663 -0.020328827202320099 0.088040225207805634 0.047068994492292404 -0.122419729828834534 0.089508369565010071 -0.095142409205436707 0.135341346263885498 -0.176368534564971924 0.035586647689342499 0.014960641041398048 -0.179682895541191101 0.009796346537768841 -0.048905257135629654 -0.129219427704811096 -0.028049793094396591 0.046912819147109985 0.195024505257606506 0.153824642300605774 0.065799780189990997 0.023043159395456314 0.148852333426475525 0.027441538870334625 -0.121592551469802856 -0.176210761070251465 0.091426886618137360 -0.141189157962799072 -0.031372144818305969 -0.025342613458633423 -0.140449106693267822 -0.101632721722126007 0.045922935009002686 -0.068036012351512909 0.156260311603546143 -0.150477141141891479 -0.078493386507034302 0.115176953375339508 -0.155003756284713745 -0.181779727339744568 0.065903075039386749 -0.105378821492195129 -0.065664626657962799 0.016692593693733215 -0.068168170750141144 0.074660725891590118 -0.140048071742057800 -0.012858096510171890 -0.091608047485351562 0.144908159971237183 -0.133261308073997498 0.078130513429641724 0.068221956491470337 0.028779271990060806 -0.093730226159095764 0.120758816599845886 0.035023666918277740 -0.109020553529262543 0.064156517386436462 -0.144667923450469971 -0.105408363044261932 -0.158933550119400024 -0.065197184681892395 -0.048712652176618576 0.131168037652969360 -0.004100867081433535 -0.063688002526760101 0.137203305959701538 0.078306496143341064 -0.006691817659884691 -0.002003598026931286 -0.149959772825241089 0.038346212357282639
-0.041189413517713547 0.085823588073253632 -0.000230463483603671 0.116053678095340729 -0.030488044023513794 -0.016610244289040565 -0.081449143588542938 -0.039553701877593994 -0.184754401445388794 -0.044979743659496307 -0.163181021809577942 -0.154853492975234985 -0.115621939301490784 -0.076462179422378540 0.108977399766445160 0.005130141507834196 0.041906084865331650 -0.111373156309127808 -0.107166714966297150 0.056414943188428879 0.022714028134942055 -0.163844004273414612 -0.020786842331290245 0.119216598570346832 -0.100207053124904633 -0.015553580597043037 -0.011241900734603405 -0.040929179638624191 -0.032106786966323853 0.027541477233171463 0.039994053542613983 -0.112688206136226654 -0.042154811322689056 -0.041764371097087860 0.026797875761985779 0.174233496189117432 -0.151060953736305237 -0.113461360335350037 -0.092830799520015717 -0.084125317633152008 0.132030844688415527 -0.045544326305389404 0.185004740953445435 -0.056216839700937271 -0.049490071833133698 0.090645678341388702 0.104895450174808502 -0.062778547406196594 -0.122186064720153809 -0.162831529974937439 -0.047714784741401672 -0.009372066706418991 -0.137862145900726318 0.068972863256931305 -0.024456959217786789 -0.163922727108001709 0.012110097333788872 0.130311861634254456 -0.106839187443256378 -0.035471267998218536 -0.175171539187431335 0.005720373243093491 -0.104939073324203491 -0.174955427646636963 0.153465777635574341 -0.174735829234123230 0.132725879549980164 -0.169693544507026672 -0.002584911650046706 -0.172045543789863586 -0.076529264450073242 -0.079265363514423370 -0.033241555094718933 0.043049119412899017 0.075931623578071594 -0.017245598137378693 0.058923076838254929 -0.093824841082096100 -0.123930633068084717 -0.123576477169990540 0.166259512305259705 -0.143003642559051514 -0.144975468516349792 0.170031771063804626 0.075697116553783417 0.121623404324054718 -0.032633155584335327 0.058890588581562042 -0.060699298977851868 0.154059991240501404 0.085098698735237122 -0.126921221613883972 -0.023307170718908310 0.048957034945487976 0.188542142510414124 0.088752016425132751 -0.149508252739906311 -0.048546101897954941 0.078648641705513000 -0.030971692875027657
-0.125337496399879456 0.123672597110271454 0.139659762382507324 0.026407461613416672 -0.027885535731911659 -0.048426680266857147 0.147573858499526978 0.002409814158454537 0.129180461168289185 -0.036037731915712357 0.045142762362957001 -0.149096995592117310 -0.117713667452335358 -0.171477988362312317 -0.137702569365501404 -0.154227957129478455 0.036301925778388977 0.032145991921424866 0.042085126042366028 -0.047660224139690399 -0.027217760682106018 0.162912100553512573 0.148497402667999268 0.120194822549819946 -0.045731697231531143 0.025954902172088623 -0.005104150157421827 0.137789100408554077 -0.086246110498905182 0.130801960825920105 -0.125928625464439392 0.044745218008756638 0.138566300272941589 0.008296360261738300 -0.173121988773345947 -0.143901601433753967 0.078647226095199585 0.112611055374145508 0.098840154707431793 -0.044879846274852753 -0.050498630851507187 -0.077600024640560150 0.118037916719913483 -0.144662037491798401 0.157970964908599854 0.119520455598831177 -0.045980166643857956 -0.161521896719932556 -0.159588769078254700 0.113475248217582703 0.042268652468919754 -0.002787307836115360 -0.114483051002025604 0.033980280160903931 -0.138886511325836182 0.098127387464046478 -0.065844297409057617 -0.186934068799018860 -0.163563966751098633 0.001395024009980261 0.093165963888168335 0.153771445155143738 0.152748003602027893 -0.043680950999259949 0.042641144245862961 -0.072078235447406769 0.092108316719532013 -0.020932465791702271 -0.012236801907420158 0.091154463589191437 0.007778137456625700 0.084448464214801788 0.136487320065498352 -0.112844370305538177 0.046812508255243301 0.030465269461274147 0.127296850085258484 0.091757416725158691 0.046883501112461090 0.007495407480746508 0.075169146060943604 -0.071607053279876709 0.096673212945461273 0.057296395301818848 0.009584337472915649 0.100918851792812347 -0.088637515902519226 -0.032227151095867157 -0.174104392528533936 -0.089446596801280975 0.083487622439861298 0.115225933492183685 0.159178450703620911 -0.034891705960035324 0.009342542849481106 -0.090086236596107483 -0.010790291242301464 -0.030250450596213341 -0.120261155068874359 0.167021840810775757
0.012463307008147240 0.076691038906574249 -0.031521826982498169 -0.044089935719966888 -0.047079231590032578 0.156172513961791992 -0.028070328757166862 0.152386665344238281 -0.094209529459476471 0.096115954220294952 -0.097123980522155762 -0.147020623087882996 -0.031968485563993454 -0.113743036985397339 0.076119653880596161 -0.020548932254314423 -0.176660820841789246 -0.154103532433509827 0.084093712270259857 0.140861958265304565 -0.140931665897369385 -0.095412313938140869 0.180815070867538452 -0.194306448101997375 0.031890816986560822 0.034445405006408691 -0.045844633132219315 0.056425374001264572 0.074245624244213104 0.048198241740465164 0.134245991706848145 0.129238948225975037 -0.107354171574115753 0.181019201874732971 -0.080728195607662201 0.172710880637168884 0.011061272583901882 -0.054847799241542816 -0.133510172367095947 0.010657960548996925 -0.152635291218757629 0.025347227230668068 0.091030836105346680 -0.117922134697437286 0.050747208297252655 0.005045908503234386 -0.082773089408874512 -0.093132130801677704 -0.123340286314487457 0.041475135833024979 0.030087994411587715 0.041915144771337509 -0.106977023184299469 0.155628263950347900 0.047453228384256363 -0.002139887074008584 0.013024033047258854 0.062174495309591293 0.170587003231048584 -0.081866346299648285 -0.068344183266162872 0.089970476925373077 -0.152921676635742188 0.104492530226707458 -0.149383962154388428 -0.099990993738174438 0.088841825723648071 0.026650002226233482 -0.112505018711090088 0.028741786256432533 -0.159535989165306091 0.115607857704162598 -0.043339528143405914 -0.123224176466464996 -0.094562143087387085 -0.172145441174507141 -0.141573280096054077 0.139966174960136414 0.122573360800743103 -0.166970342397689819 -0.074992373585700989 -0.080457173287868500 -0.092921860516071320 -0.001452515367418528 0.122758187353610992 0.096107706427574158 0.034492377191781998 0.103229746222496033 -0.112399615347385406 0.146348580718040466 0.119536980986595154 -0.044774103909730911 0.096064493060112000 0.161496326327323914 -0.020881203934550285 -0.151212513446807861 0.163957044482231140 -0.033595595508813858 -0.007233561016619205 -0.149701416492462158
-0.087079279124736786 -0.009572030045092106 -0.079494990408420563 -0.044869277626276016 -0.148812368512153625 -0.071672953665256500 0.091904848814010620 -0.150751799345016479 0.001704984693787992 0.151917278766632080 0.003476904006674886 -0.087197043001651764 0.118129864335060120 0.110144734382629395 -0.035197421908378601 0.148177027702331543 0.148555040359497070 -0.075573295354843140 -0.137752637267112732 -0.029557727277278900 0.119380734860897064 0.056320276111364365 -0.109113916754722595 -0.075642086565494537 -0.103757776319980621 0.002379347803071141 0.161292746663093567 -0.072828121483325958 -0.103099495172500610 -0.039292439818382263 -0.028594486415386200 -0.004175603855401278 -0.044015597552061081 -0.089660458266735077 -0.060239501297473907 -0.007397088222205639 0.029357880353927612 -0.047400984913110733 0.117276847362518311 0.019440105184912682 0.148713991045951843 0.019415169954299927 0.145772665739059448 0.126672625541687012 -0.032479308545589447 -0.159053564071655273 -0.046516649425029755 -0.014847999438643456 0.088199295103549957 -0.167800024151802063 0.144067972898483276 -0.042376652359962463 0.061999600380659103 0.100868903100490570 0.055074341595172882 0.117040239274501801 -0.046308867633342743 -0.013750225305557251 -0.137100175023078918 0.048529721796512604 -0.098921149969100952 0.157572612166404724 -0.103212699294090271 -0.069177113473415375 -0.129428520798683167 0.131324678659439087 0.046785544604063034 0.072617508471012115 -0.021660000085830688 -0.004152650944888592 0.060642201453447342 -0.153481781482696533 0.108569644391536713 0.042461581528186798 -0.017446238547563553 -0.021897170692682266 -0.026604007929563522 0.069581083953380585 0.017448835074901581 -0.091020874679088593 -0.024753738194704056 0.149953961372375488 -0.126372039318084717 0.051326252520084381 0.115838825702667236 0.037477366626262665 0.002205715980380774 0.015561792999505997 -0.122612513601779938 0.099210828542709351 0.176282197237014771 0.180579811334609985 -0.029163053259253502 0.098065339028835297 0.152905642986297607 -0.130840167403221130 0.012516554445028305 0.046925276517868042 -0.030061846598982811 0.040583219379186630
0.013339336030185223 0.173192337155342102 -0.018689209595322609 0.042616274207830429 0.083500273525714874 0.116344451904296875 -0.142718225717544556 -0.040562462061643600 0.074175253510475159 -0.079043932259082794 0.145267575979232788 0.056217122822999954 0.088042788207530975 0.086518131196498871 -0.133985310792922974 0.106879070401191711 0.147498473525047302 -0.140504211187362671 0.154454752802848816 -0.016737325116991997 0.091996185481548309 -0.024947395548224449 -0.064422532916069031 -0.042851530015468597 -0.114630006253719330 -0.078889042139053345 -0.119042851030826569 -0.098202392458915710 -0.179280430078506470 -0.002343003405258060 0.049110863357782364 -0.092207200825214386 0.043221566826105118 -0.060658201575279236 0.057925384491682053 0.076409943401813507 0.075287155807018280 0.034973561763763428 0.111627534031867981 0.152314469218254089 -0.178860992193222046 0.159726440906524658 0.114849105477333069 -0.156574591994285583 0.075229942798614502 -0.072229944169521332 0.085286177694797516 0.035298172384500504 0.120845079421997070 0.088707990944385529 -0.109186068177223206 -0.135442435741424561 0.015843121334910393 0.074350856244564056 0.190553709864616394 -0.176525533199310303 0.001338827772997320 -0.057736806571483612 -0.043866384774446487 -0.127875447273254395 0.157626539468765259 0.065329819917678833 0.104924201965332031 -0.008384113200008869 0.030156416818499565 0.119146600365638733 -0.044585391879081726 -0.149193823337554932 -0.156184971332550049 0.104677177965641022 -0.026478279381990433 0.189381346106529236 -0.084529131650924683 0.082924231886863708 0.002674123737961054 0.043685555458068848 -0.146576732397079468 0.145506843924522400 0.124693281948566437 -0.167752966284751892 0.106395229697227478 -0.126056045293807983 0.029052497819066048 -0.017034688964486122 -0.060329496860504150 -0.131322011351585388 -0.058800585567951202 -0.115485534071922302 -0.040684886276721954 -0.022877447307109833 -0.140986114740371704 -0.187642723321914673 -0.054285213351249695 0.128344014286994934 0.137775897979736328 0.032986726611852646 -0.157903060317039490 -0.064520329236984253 0.031980674713850021 -0.104505024850368500
0.099574476480484009 -0.111090674996376038 -0.127933830022811890 -0.041853714734315872 -0.121193595230579376 -0.011846765875816345 -0.004892650991678238 0.032264959067106247 0.083360381424427032 -0.109721541404724121 -0.111444592475891113 -0.037342384457588196 0.107186511158943176 0.006221738643944263 0.074950240552425385 0.166856542229652405 -0.011188721284270287 0.104328267276287079 -0.042352680116891861 -0.008985843509435654 -0.110700726509094238 -0.110371880233287811 -0.096574313938617706 -0.065345093607902527 0.076306767761707306 -0.028759179636836052 0.192374333739280701 -0.079725198447704315 0.126616567373275757 -0.073098652064800262 -0.169610530138015747 -0.084140643477439880 -0.001273298868909478 -0.165901914238929749 0.149424359202384949 0.121007964015007019 0.045864254236221313 0.100333191454410553 0.114920459687709808 0.166846036911010742 0.030556811019778252 0.006780746858566999 -0.183068946003913879 -0.056945174932479858 0.158591419458389282 0.064381889998912811 -0.078344516456127167 -0.178139358758926392 0.038317047059535980 0.177023306488990784 0.030562350526452065 0.014363396912813187 0.152648031711578369 -0.060967940837144852 0.104199081659317017 -0.169471397995948792 0.151097938418388367 0.147928774356842041 -0.039272189140319824 -0.033141501247882843 -0.024077666923403740 -0.050008453428745270 -0.021452046930789948 0.167286172509193420 -0.002720577875152230 0.044592097401618958 0.020602837204933167 0.059261601418256760 0.151697427034378052 0.155794858932495117 0.176662996411323547 -0.112826101481914520 -0.168312013149261475 0.034558910876512527 -0.139226451516151428 -0.039202529937028885 0.076223671436309814 -0.094324961304664612 0.057338327169418335 0.058605924248695374 0.026319710537791252 0.007945218123495579 0.082015670835971832 -0.014231599867343903 -0.081343859434127808 -0.125545904040336609 -0.147621199488639832 -0.152642577886581421 0.013064212165772915 0.103718802332878113 -0.020145226269960403 0.022671358659863472 0.048477422446012497 0.077096872031688690 -0.041374064981937408 0.089143902063369751 -0.094447150826454163 0.074255667626857758 -0.069116443395614624 0.002951686037704349
0.084058649837970734 0.064947023987770081 0.108578838407993317 -0.054778870195150375 -0.173303261399269104 -0.054303020238876343 -0.096750631928443909 0.143395662307739258 -0.164738222956657410 0.132108941674232483 -0.183921754360198975 0.076093986630439758 0.030736759305000305 0.023131979629397392 -0.151354715228080750 -0.127124309539794922 -0.158868387341499329 0.130580648779869080 0.132560446858406067 -0.084570609033107758 0.019749369472265244 0.104715436697006226 -0.049644604325294495 -0.027598986402153969 0.136438459157943726 0.169159650802612305 0.116239346563816071 -0.008936899714171886 -0.106462731957435608 -0.031345307826995850 -0.082511283457279205 -0.050890129059553146 -0.122307524085044861 -0.148926332592964172 -0.132450103759765625 -0.087380342185497284 0.124881274998188019 -0.032416205853223801 -0.029617721214890480 0.040612023323774338 -0.081589058041572571 0.043427851051092148 0.052418589591979980 0.039194121956825256 0.040135875344276428 0.061151105910539627 -0.183643490076065063 0.108351275324821472 0.114824123680591583 0.021702142432332039 -0.113291576504707336 -0.181152164936065674 -0.157870933413505554 -0.016347343102097511 -0.087627828121185303 0.050115514546632767 -0.131962373852729797 0.085715472698211670 0.032399043440818787 0.119387716054916382 -0.014051303267478943 0.128900572657585144 0.109414607286453247 -0.103727281093597412 -0.118473835289478302 0.108760684728622437 -0.130750745534896851 0.100327946245670319 -0.116202995181083679 -0.212953716516494751 -0.134460687637329102 -0.114318311214447021 0.036691952496767044 0.090112581849098206 0.095690190792083740 -0.103167474269866943 -0.167293027043342590 -0.062704391777515411 0.098387882113456726 -0.151255697011947632 0.141334071755409241 -0.131025269627571106 -0.171616032719612122 0.154822006821632385 -0.061804592609405518 0.139370694756507874 -0.080133415758609772 0.094711236655712128 -0.146684467792510986 -0.002048371825367212 0.083594508469104767 -0.066420599818229675 -0.163014397025108337 -0.064368396997451782 0.149247497320175171 -0.157046854496002197 -0.153860419988632202 0.006974938325583935 -0.137065574526786804 0.118078052997589111
0.124364651739597321 -0.093891605734825134 0.038933277130126953 -0.103847578167915344 -0.115127466619014740 0.125044152140617371 -0.063232317566871643 -0.156863674521446228 -0.070845015347003937 -0.088159956037998199 0.103615872561931610 -0.066787809133529663 0.166362032294273376 0.155954584479331970 0.071084313094615936 -0.020455457270145416 -0.061594154685735703 -0.085911445319652557 -0.069453053176403046 0.076237171888351440 0.139377772808074951 0.071612343192100525 0.148381456732749939 0.041351608932018280 -0.146437928080558777 -0.001631605671718717 -0.059373684227466583 -0.153488993644714355 -0.025379432365298271 0.109646901488304138 0.141381233930587769 -0.162501275539398193 -0.117193661630153656 0.127909526228904724 0.027373000979423523 0.081360973417758942 -0.064129084348678589 -0.015534124337136745 0.023317940533161163 -0.115339271724224091 0.179564610123634338 0.028635591268539429 -0.108086392283439636 -0.131128162145614624 0.150690183043479919 0.021550748497247696 -0.119617559015750885 -0.079718083143234253 -0.167786955833435059 -0.091851286590099335 -0.086373202502727509 -0.065541550517082214 -0.040729578584432602 0.079961232841014862 0.044506471604108810 0.115460984408855438 0.092862956225872040 -0.026148077100515366 -0.005445311311632395 -0.163047149777412415 0.104098848998546600 0.179429262876510620 -0.134834736585617065 0.008327352814376354 0.155914038419723511 -0.018498729914426804 -0.075128160417079926 -0.105977691709995270 0.030591132119297981 0.056934151798486710 0.051384974271059036 0.015922725200653076 -0.148446962237358093 0.052492428570985794 0.101472318172454834 0.002155808033421636 0.083250537514686584 -0.098722487688064575 0.107432402670383453 -0.085552461445331573 -0.051809925585985184 -0.103045597672462463 0.166578546166419983 -0.008746335282921791 0.096484720706939697 0.046750761568546295 0.010327949188649654 0.072200320661067963 0.161472201347351074 0.083325840532779694 -0.066575959324836731 -0.161443784832954407 -0.089650891721248627 -0.093251712620258331 -0.064046002924442291 0.133452951908111572 -0.145945847034454346 0.084696225821971893 0.134734168648719788 0.038587920367717743
-0.138312101364135742 -0.163873136043548584 -0.119341745972633362 0.124030739068984985 -0.037762749940156937 -0.125513374805450439 0.137160018086433411 0.277432203292846680 0.088289953768253326 -0.093643084168434143 -0.147166222333908081 0.169995009899139404 -0.098722502589225769 -0.073595747351646423 -0.149992689490318298 0.023232430219650269 -0.187183320522308350 -0.062529951333999634 0.069912910461425781 0.057990491390228271 -0.141774639487266541 -0.015867877751588821 -0.052991151809692383 -0.189141616225242615 0.085610762238502502 0.080504059791564941 -0.121236108243465424 -0.163761079311370850 -0.153350859880447388 0.150232166051864624 0.033996019512414932 -0.070264369249343872 -0.036729253828525543 0.006586808711290359 -0.069040216505527496 0.102739043533802032 -0.040420211851596832 0.105180703103542328 -0.138628587126731873 0.157221436500549316 0.022462887689471245 -0.147002741694450378 -0.004861028864979744 0.179915130138397217 -0.075186245143413544 -0.150681257247924805 -0.165647625923156738 0.066612951457500458 -0.125334069132804871 -0.133603230118751526 0.027690010145306587 0.115495890378952026 -0.157145991921424866 -0.113345898687839508 -0.121678061783313751 0.148764893412590027 0.099083296954631805 0.058057893067598343 0.065404012799263000 0.017994996160268784 0.142302975058555603 -0.024874823167920113 -0.019855657592415810 0.036106806248426437 0.171437218785285950 -0.110786490142345428 0.000456348003353924 0.016228074207901955 -0.156451910734176636 -0.186997041106224060 -0.155602470040321350 -0.104184359312057495 0.082016400992870331 -0.011360336095094681 -0.118902660906314850 -0.097837448120117188 -0.134524375200271606 -0.033300496637821198 0.002002630848437548 0.151937827467918396 -0.080246850848197937 -0.132998585700988770 -0.041007071733474731 0.034355212002992630 0.029377054423093796 -0.032552637159824371 -0.040598317980766296 -0.167721450328826904 0.030606182292103767 0.184243977069854736 0.028964258730411530 -0.054688703268766403 0.088679812848567963 -0.064610473811626434 -0.139876738190650940 0.100015074014663696 0.035936757922172546 0.090774789452552795 0.134955540299415588 0.103965476155281067
0.107891626656055450 -0.070703215897083282 -0.053835842758417130 0.114245772361755371 -0.027781084179878235 -0.101706862449645996 -0.022697795182466507 -0.201543956995010376 -0.125328779220581055 0.106998547911643982 -0.126736477017402649 -0.015464660711586475 0.072457082569599152 -0.161499738693237305 -0.035800557583570480 -0.146370053291320801 0.057816311717033386 -0.093640819191932678 0.150942027568817139 0.143376171588897705 -0.099813714623451233 0.093689084053039551 -0.031377799808979034 -0.117395304143428802 0.139778703451156616 -0.085740767419338226 0.057379562407732010 -0.152582511305809021 -0.012368481606245041 -0.173908129334449768 -0.050009720027446747 -0.055581241846084595 -0.137786760926246643 -0.043332133442163467 0.100134074687957764 0.052904214709997177 0.019352607429027557 -0.162320598959922791 -0.058400776237249374 0.151930376887321472 0.180215045809745789 0.109000928699970245 0.088410943746566772 0.083885580301284790 -0.116532266139984131 -0.172948449850082397 -0.119371771812438965 -0.043887853622436523 0.026590790599584579 -0.030539890751242638 -0.124126046895980835 0.037404134869575500 0.201422765851020813 -0.054631039500236511 -0.165715098381042480 0.041654918342828751 -0.049346346408128738 0.048484589904546738 0.077167451381683350 0.031697601079940796 0.012011596933007240 0.059260599315166473 -0.124451063573360443 -0.164419680833816528 0.112451218068599701 0.030564367771148682 0.040747500956058502 0.085019536316394806 -0.145877450704574585 0.056792095303535461 -0.125353291630744934 0.100966170430183411 0.038411095738410950 0.130184367299079895 -0.029446082189679146 0.042013511061668396 0.139100790023803711 0.023548984900116920 -0.099435888230800629 0.144264191389083862 -0.010654058307409286 -0.031327657401561737 0.030801840126514435 0.084075778722763062 -0.077332071959972382 -0.002587645780295134 0.066557593643665314 0.020643256604671478 0.004815240856260061 -0.127231374382972717 0.154689893126487732 0.000647663546260446 -0.147706061601638794 0.008821431547403336 -0.069688312709331512 0.101226747035980225 0.054858971387147903 -0.064183555543422699 -0.036224309355020523 0.111637331545352936
0.045583661645650864 -0.073259241878986359 -0.058300670236349106 0.022347087040543556 -0.146813139319419861 -0.042767934501171112 -0.126059144735336304 -0.188933208584785461 0.123922690749168396 -0.014909325167536736 -0.016070023179054260 0.087636865675449371 0.092187590897083282 -0.056026473641395569 0.001837895950302482 -0.068469084799289703 -0.090911448001861572 -0.104603551328182220 -0.071957074105739594 0.133871525526046753 0.065699785947799683 -0.125754237174987793 0.062509156763553619 -0.129952326416969299 -0.016073660925030708 0.092815861105918884 0.035824354737997055 -0.052015013992786407 -0.103532522916793823 -0.130930304527282715 0.135545358061790466 0.119730487465858459 -0.129260540008544922 -0.115564420819282532 0.174938678741455078 -0.010065406560897827 -0.153138518333435059 -0.054670657962560654 -0.092465162277221680 0.005203213542699814 -0.063333682715892792 -0.131852880120277405 -0.008539171889424324 0.149036064743995667 -0.033743187785148621 0.053402565419673920 0.117266088724136353 0.124543108046054840 0.092801026999950409 -0.012805029749870300 -0.011829551309347153 -0.124399699270725250 0.185370862483978271 0.169164806604385376 -0.148655906319618225 -0.112199701368808746 -0.030461667105555534 -0.125556647777557373 -0.066210910677909851 -0.115326508879661560 -0.068880148231983185 -0.082070015370845795 0.055958498269319534 -0.139031589031219482 0.085084162652492523 0.032109253108501434 0.140458688139915466 0.108764268457889557 0.122015446424484253 0.165796816349029541 0.058971479535102844 -0.019598724320530891 -0.009573501534759998 -0.159799024462699890 -0.083848580718040466 0.068837381899356842 -0.035976909101009369 0.166776031255722046 -0.021228451281785965 -0.082622088491916656 0.101309336721897125 -0.113830126821994781 0.024420866742730141 0.049138016998767853 0.036044262349605560 0.003346306039020419 -0.136910915374755859 0.026796502992510796 0.182318478822708130 -0.177027374505996704 0.095413640141487122 -0.028353534638881683 -0.088306538760662079 -0.129296287894248962 -0.159689262509346008 0.104705728590488434 0.146778151392936707 -0.010445278137922287 -0.101719461381435394 -0.070694200694561005
-0.163813248276710510 0.049514088779687881 0.188740193843841553 -0.092697009444236755 -0.163065493106842041 -0.100750520825386047 -0.022903734818100929 0.037499364465475082 0.082434833049774170 0.079634137451648712 -0.015369521453976631 0.185209780931472778 0.165409743785858154 -0.143035784363746643 -0.168973937630653381 0.126224622130393982 -0.115974545478820801 -0.173035055398941040 0.006851233076304197 0.083076328039169312 0.031328864395618439 0.123298585414886475 -0.121545717120170593 -0.142015725374221802 0.116574183106422424 -0.034704510122537613 0.037659823894500732 0.117372728884220123 0.007289821282029152 -0.082465142011642456 0.113761037588119507 -0.187088668346405029 -0.131722792983055115 0.075372993946075439 -0.068314246833324432 -0.049169842153787613 -0.082867749035358429 -0.005649156402796507 0.041286289691925049 -0.041990190744400024 -0.148655176162719727 -0.013696292415261269 0.169013157486915588 0.149770975112915039 0.170273169875144958 -0.135732293128967285 -0.002625531284138560 0.072593092918395996 -0.039114452898502350 -0.122677601873874664 -0.020468153059482574 -0.008394618518650532 -0.132811710238456726 -0.066327214241027832 0.019406713545322418 0.176916986703872681 -0.064826302230358124 0.102017037570476532 -0.064324088394641876 -0.123276270925998688 0.015650998800992966 -0.076963938772678375 0.040699556469917297 0.012260854244232178 0.019068857654929161 -0.105239570140838623 0.061129286885261536 -0.073470242321491241 -0.003860327415168285 -0.035451784729957581 0.066581070423126221 -0.152035430073738098 -0.137894183397293091 0.138225913047790527 -0.142704784870147705 0.019575696438550949 0.095810562372207642 0.146595910191535950 -0.070073395967483521 0.153356671333312988 0.163030058145523071 0.138758957386016846 -0.046374872326850891 -0.044633042067289352 0.025237899273633957 0.169740036129951477 0.031654551625251770 0.110053986310958862 0.123507387936115265 -0.088196136057376862 0.000276998645858839 0.204526558518409729 0.010092141106724739 -0.036671854555606842 -0.061431769281625748 -0.053706608712673187 -0.075432933866977692 0.121625594794750214 -0.077391393482685089 0.130173936486244202
0.065337836742401123 0.032697379589080811 -0.137671485543251038 0.170510992407798767 -0.147087410092353821 -0.007619324605911970 -0.067696087062358856 -0.065429337322711945 0.050953924655914307 -0.156307786703109741 0.135298952460289001 -0.099747143685817719 -0.021808790042996407 -0.108901001513004303 -0.042265605181455612 -0.041805945336818695 0.063370399177074432 -0.050361979752779007 -0.174544721841812134 0.152528479695320129 0.168769687414169312 0.072689436376094818 0.015917016193270683 -0.002606066642329097 0.118790559470653534 -0.069611959159374237 0.100579097867012024 -0.151690512895584106 -0.101333618164062500 -0.052163626998662949 -0.044185832142829895 0.127860456705093384 -0.090585932135581970 0.046050120145082474 0.086551725864410400 -0.144726336002349854 -0.136228352785110474 -0.054690353572368622 -0.047939028590917587 -0.087571330368518829 0.105361208319664001 0.173824325203895569 0.034571863710880280 0.036735925823450089 -0.072986930608749390 -0.182180702686309814 0.179365202784538269 -0.154653057456016541 -0.060322836041450500 -0.147583231329917908 -0.072386428713798523 0.177255406975746155 -0.007540526334196329 0.007320097647607327 -0.027091396972537041 -0.044770460575819016 0.091881141066551208 -0.141787528991699219 0.110285133123397827 0.178962260484695435 0.142079025506973267 0.031198056414723396 0.059851109981536865 0.069231785833835602 0.027796166017651558 0.069192431867122650 0.156683415174484253 0.077403657138347626 -0.113193318247795105 -0.132066875696182251 -0.054210931062698364 -0.126551672816276550 -0.105167470872402191 0.003203702624887228 0.102316446602344513 0.122577957808971405 -0.065716527402400970 0.090469874441623688 -0.075227491557598114 0.031798671931028366 0.139403492212295532 -0.139951482415199280 -0.140200898051261902 0.051734726876020432 -0.120744660496711731 -0.042610108852386475 0.053293164819478989 0.088027372956275940 -0.119852706789970398 -0.059060014784336090 -0.039014030247926712 -0.082766398787498474 0.147710904479026794 0.042425382882356644 -0.040554057806730270 0.056920703500509262 0.165861845016479492 -0.180165767669677734 -0.020430276170372963 0.120469711720943451
-0.030386956408619881 0.027380833402276039 -0.097677804529666901 0.035897873342037201 -0.034808460623025894 0.128747493028640747 -0.100256651639938354 -0.181738406419754028 0.214552909135818481 -0.127204895019531250 0.085977397859096527 -0.035240318626165390 -0.078504107892513275 -0.196478217840194702 -0.098637253046035767 0.134291335940361023 0.048811607062816620 -0.049711957573890686 -0.059448100626468658 -0.080932587385177612 0.081158317625522614 0.089089728891849518 -0.121294148266315460 0.066395021975040436 -0.073344014585018158 0.061205424368381500 0.198893934488296509 -0.187737792730331421 -0.147878527641296387 -0.198826640844345093 -0.219680026173591614 -0.005707219243049622 0.008558585308492184 -0.132349297404289246 0.106116235256195068 -0.005286183208227158 -0.001576839596964419 0.025251956656575203 -0.121866293251514435 -0.038655813783407211 -0.125851586461067200 -0.139568433165550232 -0.008812542073428631 0.134044378995895386 0.134988531470298767 -0.088415913283824921 0.067896552383899689 -0.163002312183380127 -0.019274605438113213 0.024446453899145126 -0.000286262482404709 0.115787997841835022 0.021603617817163467 0.068172574043273926 -0.111153431236743927 0.049518428742885590 -0.146443203091621399 -0.114246822893619537 0.106384932994842529 0.016295393928885460 0.158914953470230103 -0.149151444435119629 -0.176742702722549438 0.003872319823130965 0.012732829898595810 -0.139367669820785522 0.225842237472534180 0.162832170724868774 0.119548581540584564 0.113573230803012848 0.043276946991682053 -0.000390872446587309 0.100680835545063019 -0.180808559060096741 0.000531019992195070 0.134220272302627563 -0.135149985551834106 0.058257061988115311 0.039886053651571274 0.053202204406261444 -0.008596216328442097 0.008481930941343307 -0.107634790241718292 -0.169649586081504822 0.123494714498519897 -0.118483699858188629 -0.140850663185119629 0.029728740453720093 0.044074404984712601 -0.130314886569976807 0.007100421003997326 0.032329060137271881 0.122935824096202850 -0.018924929201602936 -0.008344608359038830 0.186645388603210449 -0.079049825668334961 -0.065819106996059418 0.141196414828300476 -0.020192831754684448
