#Layer 6 Biases:
0.024938991293311119 -0.056874722242355347 -0.003253131872043014 0.012037278153002262 0.009434349834918976 0.034826796501874924 -0.030167547985911369 0.020114857703447342 -0.071599096059799194 0.032650198787450790 -0.035396900027990341 0.077932707965373993 -0.022040141746401787 0.019091216847300529 0.002683887491002679 0.023047592490911484 -0.056572992354631424 0.017777981236577034 -0.006846458651125431 0.056386496871709824 -0.068524546921253204 -0.013195015490055084 -0.006534271407872438 0.024160066619515419 0.010750425048172474 0.036468643695116043 -0.061833351850509644 0.050523497164249420 0.004370945040136576 -0.049722064286470413 -0.033325262367725372 0.000468422396807000 0.043221335858106613 0.010056757368147373 -0.001976377796381712 0.010060860775411129 0.020599523559212685 0.007728465832769871 -0.005000373348593712 0.075057417154312134 0.057066891342401505 -0.059379309415817261 0.002654553391039371 -0.053413115441799164 -0.029663257300853729 -0.013578816317021847 0.021126814186573029 0.069246530532836914 0.043190132826566696 0.004786045756191015 -0.016233183443546295 0.049950979650020599 -0.010098722763359547 0.001916566630825400 0.029090639203786850 -0.021436804905533791 0.034816514700651169 -0.068778537213802338 0.000463951379060745 -0.030362633988261223 0.065650612115859985 0.085376173257827759 0.038245826959609985 0.003954973537474871 -0.031345013529062271 0.011155187152326107 0.024186694994568825 0.022477596998214722 0.021132437512278557 -0.034562323242425919 0.053732674568891525 -0.023181833326816559 0.012163636274635792 -0.010495408438146114 -0.036709301173686981 0.067750066518783569 0.005297855008393526 -0.037512373179197311 0.011455022729933262 0.052476543933153152 0.038201581686735153 -0.043640077114105225 0.023760318756103516 0.000987666076980531 -0.038348730653524399 0.013815165497362614 0.013169365003705025 0.012267268262803555 -0.021595487371087074 -0.050546474754810333 -0.007814442738890648 0.015730092301964760 0.028692411258816719 -0.014219148084521294 0.024894345551729202 -0.055712856352329254 0.018952978774905205 0.007551410701125860 -0.043828543275594711 -0.000999700045213103
