#Layer 2 Biases:
-0.076158024370670319 -0.048565868288278580 -0.117887958884239197 0.038921993225812912 -0.099896788597106934 -0.010146697051823139 -0.056464221328496933 -0.050640068948268890 0.045674350112676620 0.039350740611553192 -0.060828164219856262 -0.045570924878120422 0.089657247066497803 -0.007136822678148746 -0.017538553103804588 0.117854155600070953 -0.023058682680130005 -0.032381918281316757 -0.055869571864604950 -0.053992561995983124 -0.041140582412481308 -0.074878461658954620 0.020183881744742393 -0.067211233079433441 -0.037956107407808304 0.048826526850461960 -0.045342221856117249 0.005428697913885117 -0.048725076019763947 -0.034322846680879593 0.019479699432849884 -0.002846792805939913 0.011653940193355083 -0.091819398105144501 0.098157316446304321 0.078501299023628235 0.082141764461994171 0.047312904149293900 0.006091357208788395 0.076799832284450531 0.048947479575872421 -0.055604785680770874 -0.079465351998806000 0.029655741527676582 -0.070902004837989807 0.024971500039100647 -0.047825921326875687 0.016093591228127480 0.081886023283004761 0.000568957708310336 -0.029600668698549271 0.066753692924976349 -0.020609689876437187 0.007452772930264473 -0.199248045682907104 0.012012586928904057 -0.018821448087692261 -0.003108935197815299 -0.035200715065002441 0.121289499104022980 0.069744653999805450 0.105591036379337311 -0.054823596030473709 0.064213640987873077 0.063416436314582825 -0.052431926131248474 0.040141567587852478 0.088500164449214935 0.111182264983654022 -0.035071492195129395 0.011438602581620216 -0.015115396119654179 0.005672760773450136 -0.051965493708848953 0.025016810745000839 -0.030386790633201599 0.028962261974811554 0.021023133769631386 0.032490491867065430 0.016046920791268349 0.014905114658176899 -0.057208321988582611 0.063549764454364777 0.000516962958499789 -0.102382898330688477 0.085380464792251587 0.084684185683727264 -0.013953313231468201 0.080181337893009186 -0.056400567293167114 -0.033443711698055267 0.055094413459300995 -0.172900229692459106 0.048699304461479187 0.019141176715493202 0.060204349458217621 0.045603062957525253 0.052882023155689240 0.072773359715938568 0.005583004094660282
