#Layer 5 Biases:
0.045004419982433319 0.008368020877242088 0.018664781004190445 -0.021930525079369545 0.000556550105102360 0.005625011865049601 0.023634223267436028 -0.044919051229953766 0.048280708491802216 0.027524700388312340 0.020251564681529999 0.027228981256484985 0.031326852738857269 -0.100351445376873016 -0.072072327136993408 0.023812152445316315 0.025947749614715576 -0.010223029181361198 -0.034491837024688721 0.045947976410388947 -0.019945658743381500 0.010143689811229706 0.012747042812407017 -0.026085590943694115 -0.012216223403811455 0.005857368465512991 -0.001336709363386035 -0.011544851586222649 -0.002613352611660957 0.009360386058688164 0.030918968841433525 -0.048661321401596069 0.065344654023647308 -0.000645219522994012 0.018261739984154701 -0.030676193535327911 -0.038194384425878525 -0.037035599350929260 -0.001463284716010094 0.040637183934450150 -0.012604411691427231 0.000735571084078401 0.003306532744318247 -0.000841791450511664 0.002208228921517730 -0.023559665307402611 -0.014141653664410114 -0.057775225490331650 -0.044964682310819626 0.023964457213878632 -0.063310131430625916 0.034572038799524307 0.021347519010305405 -0.002670326270163059 0.023131147027015686 -0.020699245855212212 0.057528112083673477 0.049574013799428940 -0.020148498937487602 0.009958322159945965 -0.039841335266828537 0.034668210893869400 0.012054082006216049 -0.027448527514934540 -0.030413258820772171 0.034189913421869278 -0.038551669567823410 0.101196222007274628 0.021647930145263672 -0.053044416010379791 -0.038821827620267868 0.008613784797489643 0.008737118914723396 -0.021884480491280556 0.006827007047832012 0.030325200408697128 -0.031666774302721024 -0.059694822877645493 -0.022845830768346786 -0.077064119279384613 0.058695577085018158 0.016494616866111755 -0.014832832850515842 -0.005285764578729868 0.024587433785200119 0.039856445044279099 -0.037039805203676224 0.053223859518766403 -0.016332564875483513 -0.040801066905260086 0.037712614983320236 -0.022313263267278671 -0.040121708065271378 0.023745823651552200 0.026892639696598053 0.020976796746253967 0.038219127804040909 -0.023878222331404686 0.011328162625432014 -0.056154046207666397
