#Layer 3 Biases:
0.059662811458110809 -0.025591840967535973 -0.043949306011199951 -0.110719695687294006 0.001638008863665164 -0.107352748513221741 0.027339084073901176 0.038896527141332626 -0.023328451439738274 0.043758157640695572 0.040681254118680954 0.029806425794959068 0.011298105120658875 -0.031138103455305099 -0.065247811377048492 0.110324002802371979 -0.078073292970657349 -0.071017749607563019 -0.013988690450787544 0.030887750908732414 -0.032322175800800323 -0.124297611415386200 0.021639743819832802 -0.023324763402342796 -0.029812781140208244 0.049042455852031708 0.006530485581606627 0.068539425730705261 0.004560047760605812 -0.061366777867078781 -0.081617631018161774 -0.025943467393517494 -0.035283260047435760 -0.058779258280992508 0.049712400883436203 -0.043801080435514450 -0.026974873617291451 -0.072757177054882050 0.016319032758474350 0.029198128730058670 -0.082434356212615967 0.028019744902849197 0.055205821990966797 0.068489283323287964 0.038771681487560272 0.009381445124745369 -0.013504212722182274 0.073929369449615479 0.031257770955562592 -0.013301678001880646 -0.017579540610313416 0.047978650778532028 -0.000590499956160784 -0.038395024836063385 0.106488183140754700 -0.007818723097443581 0.030765721574425697 0.010245763696730137 -0.148529529571533203 -0.029253402724862099 -0.002709879307076335 0.060160648077726364 -0.008244951255619526 -0.011454030871391296 -0.013216495513916016 0.038588043302297592 -0.014483285136520863 -0.036276094615459442 0.007922843098640442 0.045162998139858246 0.134830772876739502 0.110877245664596558 -0.012433891184628010 -0.048310074955224991 -0.015291708521544933 -0.004787356127053499 -0.034190032631158829 0.002290941774845123 -0.048532798886299133 0.005258623976260424 -0.011908609420061111 -0.024135636165738106 -0.077825933694839478 -0.108386717736721039 -0.007361629512161016 0.099610716104507446 0.095639087259769440 -0.054257906973361969 -0.088782049715518951 0.061357002705335617 -0.006211641710251570 0.068756394088268280 0.114491157233715057 -0.007088573649525642 0.008585054427385330 0.050282720476388931 -0.086055934429168701 -0.072636075317859650 0.076874710619449615 0.004822868853807449
