#Layer 1 Biases:
0.112690165638923645 0.090450190007686615 -0.012930601835250854 -0.046526394784450531 0.128623500466346741 -0.003140470013022423 0.118047960102558136 0.107951499521732330 0.024791877716779709 -0.023405918851494789 -0.094533421099185944 0.042812120169401169 -0.105263926088809967 0.110983774065971375 -0.071957111358642578 0.020911129191517830 -0.098180785775184631 0.088798090815544128 -0.023941416293382645 0.072930932044982910 0.076798833906650543 0.058727957308292389 0.021356731653213501 0.077896609902381897 0.120626091957092285 0.099558897316455841 -0.056760024279356003 0.034338083118200302 -0.102954745292663574 -0.096757628023624420 0.090643346309661865 -0.078533925116062164 0.114014074206352234 -0.065827786922454834 -0.047297310084104538 -0.089819155633449554 -0.053537644445896149 -0.076064646244049072 0.105326138436794281 -0.064266003668308258 -0.121362358331680298 0.098907344043254852 0.052578445523977280 0.076445817947387695 0.120432592928409576 0.095972336828708649 0.084633767604827881 -0.050595972687005997 -0.073044203221797943 0.123750276863574982 0.063683234155178070 -0.100813157856464386 0.140980228781700134 -0.093716949224472046 -0.113470435142517090 -0.094086579978466034 -0.085219085216522217 -0.024543477222323418 -0.083680257201194763 -0.084324739873409271 0.007603713311254978 -0.099097259342670441 0.044359873980283737 -0.053327735513448715 -0.052869420498609543 0.066097110509872437 -0.064763590693473816 0.014753448776900768 -0.100603707134723663 0.051161538809537888 0.059860989451408386 -0.012672273442149162 -0.078354574739933014 0.107671596109867096 -0.075070887804031372 0.073105320334434509 -0.001552425674162805 0.096064001321792603 -0.052926402539014816 -0.008979145437479019 0.120308488607406616 -0.044866047799587250 0.101003184914588928 -0.017447274178266525 -0.025927755981683731 -0.106064088642597198 0.114580906927585602 0.119113303720951080 -0.082982987165451050 0.105081185698509216 0.065712720155715942 0.083528079092502594 -0.015870243310928345 0.013488865457475185 -0.053477961570024490 0.079768359661102295 -0.083646282553672791 0.085062280297279358 0.024898689240217209 -0.102968566119670868
