#Layer 4 Biases:
0.026162467896938324 -0.032776951789855957 -0.117865718901157379 -0.018673131242394447 0.037211272865533829 -0.018891887739300728 0.005243671126663685 0.007490859366953373 0.016514616087079048 -0.007536350749433041 -0.033684596419334412 0.012445965781807899 0.013060120865702629 -0.032094910740852356 -0.055363941937685013 0.003346194047480822 0.019470261409878731 -0.001336344284936786 -0.023869389668107033 -0.023877190425992012 0.015095374546945095 0.025046641007065773 0.039529848843812943 -0.023859649896621704 0.034794062376022339 0.044830579310655594 0.006411299575120211 0.042074326425790787 0.010729524306952953 -0.008127484470605850 -0.008005541749298573 -0.010921650566160679 -0.061713457107543945 0.010769309476017952 0.053312409669160843 0.003786642337217927 -0.112738616764545441 0.028405336663126945 0.008656482212245464 0.007101797033101320 0.012429292313754559 -0.013236707076430321 0.038367390632629395 0.068761073052883148 0.001847414649091661 0.011133793741464615 0.044610790908336639 -0.055199213325977325 0.003446677234023809 0.012155842036008835 0.018030693754553795 -0.010889549739658833 0.022042108699679375 -0.019586523994803429 -0.028608899563550949 -0.006201294250786304 -0.027146808803081512 -0.062768012285232544 -0.029612952843308449 -0.014443295076489449 0.027665691450238228 0.018909042701125145 -0.011753088794648647 0.062801159918308258 -0.009335475973784924 0.016084898263216019 -0.013805083930492401 -0.032865643501281738 -0.020426126196980476 -0.023115476593375206 0.010979312472045422 -0.016605682671070099 -0.051108848303556442 -0.029332019388675690 0.045673102140426636 0.096744492650032043 -0.026220638304948807 0.025374555960297585 -0.001745487446896732 -0.042715799063444138 -0.042987626045942307 0.046041492372751236 0.037495743483304977 0.034009408205747604 -0.007558569312095642 0.005663987249135971 -0.024008395150303841 0.025614364072680473 0.003758936189115047 0.020642630755901337 -0.068490371108055115 0.033918924629688263 0.002244851086288691 0.016102412715554237 0.076906464993953705 0.021704513579607010 0.018365627154707909 0.047582864761352539 -0.018304012715816498 -0.032282277941703796
