#Layer 0 Biases:
-0.068270824849605560 -0.062860056757926941 0.159080013632774353 -0.158602342009544373 0.059346955269575119 -0.158835038542747498 -0.164964735507965088 0.018200907856225967 -0.130893856287002563 -0.045661360025405884 0.101703166961669922 0.152444869279861450 -0.137277662754058838 -0.096080742776393890 0.079377308487892151 0.118356466293334961 0.189336687326431274 -0.086737401783466339 -0.049315501004457474 0.160096108913421631 -0.083017773926258087 0.012794695794582367 -0.018680432811379433 0.072969809174537659 0.017608916386961937 -0.131020933389663696 0.032609406858682632 0.058326944708824158 -0.096999600529670715 0.119693808257579803 0.032824736088514328 -0.139384090900421143 -0.136722207069396973 0.013938073068857193 -0.087209187448024750 0.085807159543037415 0.051746621727943420 -0.039156712591648102 -0.155664369463920593 0.062092479318380356 0.131736144423484802 0.012716395780444145 0.050830554217100143 0.141527488827705383 0.171526029706001282 -0.125874772667884827 -0.063649803400039673 -0.000789636746048927 -0.193549185991287231 -0.183946967124938965 -0.179759442806243896 0.095054335892200470 0.131956890225410461 0.017402213066816330 -0.169736757874488831 -0.032791025936603546 -0.082384705543518066 0.180544912815093994 0.092541106045246124 0.095153532922267914 0.122291497886180878 0.145723581314086914 -0.067358247935771942 0.047909379005432129 0.166104182600975037 -0.135893508791923523 -0.181956544518470764 0.192287802696228027 0.046138085424900055 0.100178256630897522 -0.102234505116939545 -0.041087377816438675 0.131328389048576355 0.009505932219326496 0.039060987532138824 0.041834913194179535 0.156886488199234009 -0.154920652508735657 -0.026656519621610641 0.054963402450084686 -0.049496024847030640 0.149668887257575989 0.044195462018251419 0.043864220380783081 0.133590146899223328 0.153845831751823425 0.086315371096134186 -0.150120466947555542 -0.132161334156990051 -0.042133443057537079 -0.130075812339782715 -0.060594446957111359 0.170272678136825562 -0.084183357656002045 -0.090401388704776764 -0.056338258087635040 0.161019846796989441 -0.189937666058540344 -0.102965772151947021 0.064835555851459503
