#Layer 8 Weights:
0.085490278899669647
0.071749009191989899
-0.195162922143936157
0.055711362510919571
-0.192962914705276489
0.020853085443377495
0.007627887651324272
0.141028493642807007
0.003084016963839531
0.056650251150131226
0.015875935554504395
0.027375102043151855
0.024413745850324631
0.122008889913558960
-0.027484739199280739
-0.182777702808380127
-0.235556960105895996
0.134282931685447693
-0.024317141622304916
-0.032060734927654266
0.175974279642105103
-0.115374878048896790
0.015396577306091785
0.063684888184070587
-0.160365045070648193
-0.080307304859161377
0.114099308848381042
-0.035560704767704010
0.139553591609001160
0.026731193065643311
0.172165855765342712
0.221992671489715576
-0.048532832413911819
-0.000794909254182130
0.005040708929300308
-0.031311661005020142
-0.103712789714336395
0.180311977863311768
0.225455954670906067
-0.138884097337722778
-0.154781341552734375
-0.102208085358142853
0.104829736053943634
-0.184567555785179138
-0.182848140597343445
-0.027687344700098038
-0.006054992321878672
-0.236841753125190735
0.064972154796123505
0.083503291010856628
0.064203411340713501
-0.166431963443756104
-0.133234500885009766
0.104760065674781799
0.096858970820903778
0.189343467354774475
0.059802230447530746
-0.098727121949195862
-0.208053201436996460
-0.047283809632062912
-0.108225770294666290
0.065420746803283691
0.159507662057876587
-0.034020394086837769
-0.226573199033737183
0.243117839097976685
0.059249930083751678
-0.197568148374557495
-0.106703132390975952
-0.121370837092399597
0.016726911067962646
0.040027827024459839
-0.157852545380592346
-0.204383447766304016
0.144829392433166504
-0.200491666793823242
-0.126561954617500305
0.242780715227127075
0.126346021890640259
-0.171461746096611023
-0.011727496050298214
-0.041713461279869080
-0.173326060175895691
-0.211079403758049011
-0.185449093580245972
0.022844541817903519
0.029963361099362373
0.065691135823726654
0.147504568099975586
0.081602148711681366
0.009593611583113670
0.250930786132812500
-0.139764070510864258
0.174244090914726257
0.032216325402259827
-0.057031609117984772
-0.204395294189453125
0.068829059600830078
0.127738133072853088
-0.135755330324172974
