#Layer 5 Weights:
0.116353832185268402 0.075322262942790985 -0.158576846122741699 0.108905307948589325 -0.087016105651855469 -0.013712105341255665 -0.030317088589072227 0.220826655626296997 -0.045185852795839310 0.054910376667976379 0.111622661352157593 -0.018509929999709129 -0.041234608739614487 0.257822334766387939 0.016186270862817764 -0.133111074566841125 -0.208391144871711731 0.084016382694244385 0.005355195607990026 -0.079372979700565338 0.114318385720252991 -0.024727618321776390 0.044525027275085449 0.131300166249275208 -0.100302457809448242 -0.150375887751579285 0.072808749973773956 -0.151683986186981201 0.131342172622680664 0.087525993585586548 0.125480383634567261 0.209538221359252930 -0.074904963374137878 0.011114479042589664 0.042997512966394424 -0.010714178904891014 -0.134881123900413513 0.085123769938945770 0.152840748429298401 -0.169886842370033264 -0.113324150443077087 -0.173849344253540039 0.063223443925380707 -0.226527646183967590 -0.087919801473617554 -0.052519742399454117 -0.055101100355386734 0.048206426203250885 0.079309955239295959 0.015736442059278488 0.233027726411819458 -0.127245947718620300 -0.085874535143375397 -0.029051098972558975 0.015602845698595047 0.179678812623023987 0.013359148986637592 -0.108517408370971680 -0.093446552753448486 0.013318556360900402 -0.084689818322658539 0.056865971535444260 0.026015568524599075 -0.082738302648067474 -0.251341432332992554 0.131533667445182800 0.034481000155210495 -0.323094069957733154 -0.029590589925646782 0.008074489422142506 0.004184203688055277 -0.086354278028011322 -0.145584285259246826 -0.163089066743850708 0.128553330898284912 -0.131005913019180298 -0.075804449617862701 0.173564642667770386 0.136391669511795044 -0.113241888582706451 -0.051948904991149902 -0.055363498628139496 -0.081826068460941315 -0.157190814614295959 -0.112621992826461792 -0.054126843810081482 0.020116405561566353 0.018115865066647530 0.123869724571704865 0.088124737143516541 0.074190527200698853 0.191605240106582642 -0.050002180039882660 0.117027327418327332 0.021422756835818291 -0.135148033499717712 -0.175312206149101257 0.020310223102569580 0.335385292768478394 -0.076792538166046143
-0.044024027884006500 0.020151885226368904 -0.043398436158895493 0.189649596810340881 -0.188597008585929871 0.146720930933952332 0.088306829333305359 -0.153225809335708618 0.048237703740596771 -0.075968429446220398 -0.041393790394067764 -0.148379772901535034 0.053773682564496994 0.000475132022984326 0.029546203091740608 0.183034956455230713 -0.113345876336097717 -0.116705760359764099 -0.023991283029317856 -0.265605956315994263 -0.157249718904495239 0.114690065383911133 0.029799362644553185 0.011581503786146641 0.203259810805320740 0.134075060486793518 -0.157259032130241394 0.108540028333663940 0.041366361081600189 -0.089231088757514954 -0.187078490853309631 0.159819707274436951 0.099105916917324066 0.274515539407730103 0.263430595397949219 0.052080128341913223 0.068882405757904053 -0.119437187910079956 0.126374155282974243 -0.125587090849876404 -0.071936376392841339 -0.077263467013835907 -0.110137768089771271 -0.069277897477149963 0.001454454264603555 0.052957408130168915 -0.132888898253440857 -0.120033971965312958 0.260286301374435425 0.023991525173187256 0.134925276041030884 0.054112467914819717 -0.161025196313858032 0.121320538222789764 0.013085313141345978 -0.184279352426528931 0.157552763819694519 -0.167381614446640015 0.022367037832736969 -0.140660390257835388 0.277824550867080688 -0.144247993826866150 -0.088996991515159607 0.154230043292045593 0.111300960183143616 -0.096438109874725342 0.157523632049560547 -0.129640728235244751 0.053506303578615189 -0.137805476784706116 0.067448794841766357 0.177993342280387878 -0.085386388003826141 -0.063881121575832367 -0.051650118082761765 -0.145258292555809021 -0.171288281679153442 0.054219227284193039 -0.029338927939534187 0.153103679418563843 -0.345271140336990356 -0.098529741168022156 0.197867259383201599 0.169946849346160889 0.015315189957618713 -0.068399295210838318 0.052596557885408401 0.084269680082798004 0.074658490717411041 -0.074918642640113831 0.101876392960548401 0.125793009996414185 -0.148274406790733337 -0.055279508233070374 -0.037543524056673050 0.186659380793571472 0.076001048088073730 0.165516868233680725 -0.139788940548896790 0.061481725424528122
0.195062443614006042 -0.058123107999563217 0.167011290788650513 0.145277202129364014 -0.193022444844245911 -0.080830030143260956 -0.056088022887706757 0.027830755338072777 -0.061093430966138840 -0.115894608199596405 0.078173041343688965 -0.093320749700069427 0.095431640744209290 -0.165939286351203918 0.129372686147689819 -0.099594414234161377 0.074169866740703583 -0.049392726272344589 -0.115634374320507050 -0.025091284886002541 -0.133130982518196106 -0.033638797700405121 -0.349293559789657593 -0.119642771780490875 0.009936609305441380 0.168645069003105164 0.159943148493766785 -0.010083305649459362 -0.069980837404727936 -0.009586470201611519 -0.013451262377202511 -0.039648026227951050 -0.217242836952209473 0.044230930507183075 -0.100324459373950958 -0.011532017029821873 0.069143287837505341 -0.133278518915176392 0.118610866367816925 -0.023837085813283920 -0.145062759518623352 0.205410957336425781 0.113014653325080872 0.029259048402309418 0.171364784240722656 -0.012448399327695370 0.126910775899887085 -0.258917093276977539 0.123365744948387146 0.004979497753083706 -0.060223340988159180 -0.161307111382484436 -0.027483925223350525 -0.131759017705917358 -0.078111909329891205 -0.032592151314020157 -0.175271049141883850 -0.179289087653160095 0.088342428207397461 -0.096690677106380463 -0.051734715700149536 0.152485743165016174 0.013507011346518993 -0.003964398521929979 -0.048575993627309799 -0.112784102559089661 -0.101730741560459137 0.555254399776458740 0.003000063588842750 0.066938713192939758 -0.062575794756412506 -0.128398045897483826 0.099333398044109344 0.156510129570960999 0.146829977631568909 -0.116382479667663574 -0.311883062124252319 0.069136753678321838 0.330411791801452637 -0.186727449297904968 -0.203644543886184692 0.090876922011375427 -0.090350434184074402 0.162264198064804077 0.109544008970260620 -0.177619934082031250 -0.017280315980315208 -0.063326105475425720 -0.051292587071657181 0.039620537310838699 -0.144592061638832092 0.119476936757564545 0.078972324728965759 0.101512596011161804 -0.081470586359500885 -0.079421639442443848 -0.043722327798604965 -0.130360320210456848 -0.217865109443664551 -0.083234399557113647
-0.122474357485771179 -0.071455873548984528 -0.116398379206657410 -0.280250787734985352 0.006059367675334215 0.031294927000999451 -0.108844056725502014 0.105214625597000122 -0.007372073829174042 0.095566496253013611 0.153090730309486389 0.167928904294967651 -0.148014634847640991 0.103744760155677795 0.129202842712402344 -0.100895471870899200 -0.090940169990062714 0.086798183619976044 -0.027950150892138481 0.137447327375411987 -0.207329660654067993 0.104413047432899475 0.100228980183601379 -0.008064590394496918 0.006639620754867792 0.191650971770286560 -0.048218190670013428 0.007834902964532375 0.125730738043785095 0.137241527438163757 -0.079978533089160919 0.088654883205890656 0.170832633972167969 -0.100342683494091034 0.141419291496276855 -0.113273344933986664 0.074714504182338715 0.149765789508819580 -0.225506275892257690 0.194490194320678711 -0.252845764160156250 0.072988376021385193 -0.279517531394958496 -0.033112149685621262 0.004323498345911503 -0.099014125764369965 0.233528047800064087 0.107626192271709442 -0.068319387733936310 -0.085114262998104095 -0.352478086948394775 0.095086202025413513 -0.095933556556701660 0.068163990974426270 0.040026638656854630 0.070355609059333801 0.165310889482498169 0.136308446526527405 0.002203445648774505 -0.139909893274307251 -0.147541046142578125 0.047385144978761673 0.074038550257682800 -0.005626797210425138 0.204808607697486877 -0.187161356210708618 0.024924192577600479 0.226452305912971497 0.094123959541320801 -0.251015901565551758 -0.039750818163156509 -0.148961365222930908 0.033181417733430862 -0.022139118984341621 0.012208485044538975 -0.097297497093677521 -0.156741067767143250 0.056020583957433701 0.039203856140375137 -0.160417392849922180 -0.673087298870086670 0.082128606736660004 -0.046909421682357788 0.023641694337129593 0.209551349282264709 -0.192217350006103516 -0.073883578181266785 -0.181333690881729126 -0.095109030604362488 -0.217521741986274719 -0.048543803393840790 0.071870863437652588 -0.105413697659969330 0.097072280943393707 -0.178244754672050476 -0.037769932299852371 -0.045125894248485565 -0.047300834208726883 -0.099877223372459412 -0.130534753203392029
0.009840184822678566 0.196473404765129089 -0.048091962933540344 0.059472143650054932 0.011048755608499050 0.164382159709930420 -0.104843750596046448 -0.043601959943771362 -0.022379940375685692 0.076545149087905884 0.040743861347436905 -0.025552915409207344 0.228609979152679443 -0.094433575868606567 -0.130261927843093872 0.198328554630279541 0.274245560169219971 -0.121090300381183624 -0.024352749809622765 0.215280100703239441 -0.136370182037353516 -0.086889997124671936 0.033105224370956421 -0.136960282921791077 -0.019910717383027077 0.066945955157279968 0.085638105869293213 0.164288029074668884 0.120312519371509552 -0.033181838691234589 -0.149887681007385254 0.025014922022819519 0.223946422338485718 -0.084437057375907898 0.144570946693420410 -0.034455187618732452 0.056417629122734070 -0.091415375471115112 0.085502088069915771 0.088684625923633575 -0.136189028620719910 0.031147154048085213 -0.013554787263274193 0.028876820579171181 0.138275355100631714 -0.079918704926967621 -0.193613961338996887 -0.451889216899871826 -0.076853662729263306 -0.109696067869663239 -0.338636994361877441 -0.124981343746185303 -0.085874937474727631 0.146014973521232605 -0.043396979570388794 -0.159408941864967346 0.018363509327173233 -0.061885956674814224 -0.132930189371109009 0.001944966847077012 -0.149018481373786926 0.065664179623126984 -0.056789577007293701 0.012106115929782391 0.003967510536313057 -0.009304553270339966 0.117996484041213989 0.409902900457382202 -0.288361340761184692 -0.111372768878936768 -0.032851405441761017 -0.171445220708847046 0.241717889904975891 0.072113119065761566 -0.098154507577419281 0.110981263220310211 -0.059973206371068954 -0.155226454138755798 0.082405313849449158 -0.008976432494819164 -0.152612760663032532 0.451268047094345093 0.089004501700401306 -0.179208755493164062 0.034079294651746750 -0.131470814347267151 0.041834041476249695 0.114441908895969391 0.089027166366577148 -0.291959077119827271 0.002938010729849339 0.089162915945053101 0.122346416115760803 0.015602689236402512 0.182183787226676941 0.209115564823150635 0.213990256190299988 0.212761133909225464 -0.192973688244819641 -0.089517481625080109
0.006093298550695181 0.081999115645885468 -0.076848097145557404 -0.200494766235351562 0.156629681587219238 -0.086904972791671753 0.197246357798576355 -0.040091659873723984 0.005927707999944687 0.079806327819824219 -0.076175794005393982 0.154751911759376526 0.138538807630538940 0.131867915391921997 0.153376534581184387 -0.093040183186531067 0.143276885151863098 -0.062844961881637573 0.102806180715560913 0.082283914089202881 0.205422729253768921 0.007504583336412907 -0.120300859212875366 -0.095181040465831757 -0.069468662142753601 -0.010526769794523716 0.102958910167217255 -0.091964274644851685 0.132222890853881836 0.025826821103692055 -0.065722264349460602 0.110645167529582977 0.055746078491210938 -0.005871044937521219 0.073805689811706543 -0.147318691015243530 0.086246103048324585 0.096475064754486084 -0.091355860233306885 -0.068317033350467682 0.047017529606819153 0.093285635113716125 -0.119871169328689575 -0.023209340870380402 0.061473675072193146 0.175798326730728149 0.032011002302169800 0.264362901449203491 -0.260438948869705200 0.183111235499382019 -0.242534384131431580 -0.091721236705780029 -0.002604281064122915 0.007687925361096859 -0.048549942672252655 0.100621759891510010 0.120463542640209198 -0.124037183821201324 -0.003352060215547681 -0.157753705978393555 0.003520659403875470 0.117844007909297943 0.111651681363582611 -0.081233672797679901 -0.011964609846472740 0.071114480495452881 -0.011717961169779301 -0.321986734867095947 -0.071463450789451599 -0.038429778069257736 -0.206246420741081238 0.006331800948828459 0.127708598971366882 -0.002477378351613879 0.059304032474756241 0.183358415961265564 0.207483068108558655 0.119847618043422699 0.032925050705671310 -0.058010522276163101 0.237910598516464233 0.227203503251075745 -0.024216456338763237 0.054775726050138474 0.132623180747032166 0.001035784953273833 0.035004246979951859 0.098980702459812164 -0.226137191057205200 0.059261895716190338 0.094747662544250488 0.056411005556583405 -0.005565129220485687 -0.129080578684806824 0.043543912470340729 -0.093647666275501251 0.150708317756652832 -0.108448199927806854 0.100605592131614685 -0.061636377125978470
-0.075823709368705750 -0.085708238184452057 0.049469210207462311 0.068276278674602509 0.002863040193915367 0.045878861099481583 0.148820504546165466 0.175933137536048889 0.108535006642341614 0.142025753855705261 0.106820493936538696 -0.034753490239381790 -0.330646693706512451 -0.094130650162696838 -0.036925230175256729 -0.046591687947511673 0.261383354663848877 0.003415077691897750 0.056496392935514450 -0.030117180198431015 -0.130169302225112915 0.186401411890983582 -0.054766137152910233 -0.125897064805030823 -0.030159279704093933 -0.026102676987648010 -0.059538137167692184 -0.210058763623237610 -0.057212769985198975 -0.126344054937362671 0.171111956238746643 -0.089473985135555267 0.180358752608299255 -0.149030312895774841 0.071492090821266174 -0.094768673181533813 0.122851066291332245 0.078623242676258087 -0.042028021067380905 0.122945189476013184 0.159586399793624878 -0.119464084506034851 -0.124002024531364441 -0.081624709069728851 -0.085465706884860992 -0.003537277923896909 -0.088538281619548798 -0.013090059161186218 0.100255280733108521 0.133971780538558960 -0.251412689685821533 0.038444824516773224 -0.161141574382781982 0.106406792998313904 -0.203824639320373535 -0.020733812823891640 0.167316600680351257 0.188252329826354980 0.174764111638069153 -0.189849555492401123 0.032992247492074966 0.132904097437858582 -0.151354074478149414 -0.048664480447769165 -0.086588069796562195 -0.091147720813751221 0.108706280589103699 0.212039962410926819 0.078591883182525635 -0.149433434009552002 0.107447691261768341 -0.296438843011856079 0.277773708105087280 -0.113575778901576996 0.121477179229259491 0.115656457841396332 -0.166811108589172363 -0.173504546284675598 0.037163790315389633 0.066577188670635223 0.167754188179969788 0.172509640455245972 0.038501195609569550 -0.130427017807960510 0.134142935276031494 -0.136923119425773621 0.000968258827924728 -0.016889853402972221 0.040589276701211929 0.015980347990989685 -0.083979755640029907 -0.053148332983255386 -0.141287446022033691 0.109519936144351959 -0.093808747828006744 0.100925482809543610 0.154243618249893188 0.043607085943222046 0.047792084515094757 0.027615278959274292
-0.045403316617012024 -0.158711597323417664 -0.179296627640724182 -0.180468663573265076 -0.116337552666664124 0.254411160945892334 0.106445409357547760 0.108339689671993256 0.192055448889732361 0.012589760124683380 -0.003384161973372102 -0.195450782775878906 -0.031738135963678360 -0.073253713548183441 0.177087768912315369 0.177171781659126282 -0.043377049267292023 -0.086105152964591980 -0.065972261130809784 0.072698153555393219 0.038698878139257431 0.033204950392246246 0.023369435220956802 0.046745423227548599 -0.034907687455415726 0.117225892841815948 0.033538427203893661 -0.123471587896347046 -0.061078272759914398 0.166018307209014893 -0.098966248333454132 -0.095348931849002838 0.011474824510514736 0.149455621838569641 0.022013194859027863 0.089080952107906342 0.004346986301243305 0.009198592044413090 -0.009718567132949829 0.136413350701332092 0.019932253286242485 0.149551138281822205 0.030615977942943573 0.029186526313424110 -0.139802142977714539 -0.119980521500110626 -0.166371107101440430 -0.020338453352451324 0.165445551276206970 -0.043428134173154831 0.036137919872999191 -0.200944498181343079 0.128132238984107971 0.192722186446189880 -0.269433885812759399 -0.000008736737072468 -0.167234033346176147 -0.035295311361551285 -0.129685923457145691 0.137168809771537781 0.065223552286624908 -0.059483248740434647 0.019315578043460846 -0.043721579015254974 0.005577113013714552 -0.087610311806201935 -0.040273535996675491 0.031372774392366409 -0.187784388661384583 0.013131929561495781 -0.049140948802232742 0.053267773240804672 0.080251932144165039 -0.143235310912132263 0.127852842211723328 -0.087839849293231964 -0.215263560414314270 -0.226882889866828918 0.200862899422645569 0.138648539781570435 -0.502337992191314697 0.189445242285728455 -0.063774406909942627 0.055692963302135468 0.150315269827842712 0.000849608331918716 0.073030896484851837 0.062393102794885635 0.048344854265451431 0.003242815611883998 -0.074519835412502289 0.047639109194278717 0.199014306068420410 0.179308637976646423 -0.128429502248764038 0.091546356678009033 0.173614308238029480 -0.036105725914239883 0.048079594969749451 -0.082522973418235779
0.110328786075115204 0.140120416879653931 0.013967094942927361 -0.321467757225036621 0.077314510941505432 -0.042990449815988541 -0.173058018088340759 0.076923690736293793 -0.061499781906604767 0.062767304480075836 0.215760886669158936 -0.170312002301216125 -0.046840392053127289 0.061098854988813400 -0.093258529901504517 0.133583843708038330 -0.107269302010536194 0.039117183536291122 0.036578226834535599 0.145857587456703186 0.042006444185972214 0.236407279968261719 -0.112282678484916687 -0.029415423050522804 0.096013501286506653 -0.069303885102272034 -0.267199277877807617 -0.156284213066101074 0.153170719742774963 -0.249500036239624023 -0.144175246357917786 -0.055166244506835938 0.063300035893917084 -0.071363538503646851 -0.024297120049595833 0.081323176622390747 0.109866313636302948 -0.205340117216110229 -0.001539142685942352 0.009005905129015446 0.133910536766052246 0.093762181699275970 -0.022286742925643921 -0.096371300518512726 0.178776308894157410 -0.070718675851821899 0.078996539115905762 0.028438165783882141 -0.018217245116829872 -0.089242838323116302 -0.169199705123901367 0.043095231056213379 -0.082309782505035400 0.443415403366088867 0.091679222881793976 0.119393140077590942 0.015756528824567795 0.159088253974914551 0.065633542835712433 -0.020108301192522049 0.132780641317367554 0.039261784404516220 -0.382586091756820679 -0.067159399390220642 -0.027630370110273361 0.152911067008972168 0.089187219738960266 0.057283692061901093 0.007557504344731569 0.147564932703971863 -0.044401295483112335 -0.237010836601257324 0.173933863639831543 -0.209362968802452087 0.194873154163360596 0.013355851173400879 -0.017132356762886047 -0.226998701691627502 -0.021269403398036957 -0.095928490161895752 0.248250246047973633 -0.094857782125473022 -0.115229763090610504 0.124577589333057404 0.018199129030108452 0.076881363987922668 -0.001390202553011477 -0.106927879154682159 -0.288329482078552246 -0.115944214165210724 0.208555981516838074 0.014638061635196209 0.079929709434509277 0.008061191067099571 0.036310605704784393 0.080308072268962860 -0.045740105211734772 0.166999965906143188 0.117408640682697296 -0.063020616769790649
0.004475170280784369 0.055892277508974075 0.098394952714443207 0.261246353387832642 -0.003853111062198877 0.177549287676811218 -0.125017881393432617 0.120625928044319153 -0.005629542283713818 -0.036747597157955170 -0.141104906797409058 0.241469860076904297 -0.029411900788545609 -0.136751964688301086 -0.150779068470001221 -0.077331237494945526 0.046156391501426697 0.264794021844863892 -0.023950532078742981 -0.013184067793190479 -0.092592783272266388 -0.098595008254051208 -0.038558661937713623 0.032785240560770035 -0.100656792521476746 -0.084706641733646393 -0.160714894533157349 -0.056824889034032822 0.107627853751182556 0.078071713447570801 -0.099231965839862823 0.238698422908782959 0.141273468732833862 0.044198088347911835 0.076355569064617157 -0.051538463681936264 0.016736248508095741 -0.082984626293182373 0.104413248598575592 0.015994120389223099 -0.146595150232315063 -0.104586392641067505 0.058857195079326630 0.045847997069358826 -0.117504268884658813 0.136754006147384644 0.199592247605323792 0.108070097863674164 0.035591263324022293 0.005973950494080782 0.243305772542953491 -0.137235209345817566 0.061823979020118713 -0.252096623182296753 0.092664681375026703 0.086234100162982941 0.013138067908585072 -0.098002761602401733 0.137603819370269775 0.036830138415098190 -0.156564608216285706 -0.135323390364646912 0.120483249425888062 -0.065003037452697754 0.049196057021617889 -0.205148249864578247 0.020965877920389175 0.123301312327384949 -0.008827100507915020 0.021377814933657646 -0.158061593770980835 -0.006913700606673956 -0.114281579852104187 -0.125002071261405945 -0.105029299855232239 -0.107200734317302704 0.009247764013707638 -0.063789598643779755 0.090594969689846039 0.003046195954084396 -0.195873096585273743 -0.127706602215766907 -0.082211628556251526 -0.163607612252235413 -0.082142829895019531 0.110501363873481750 0.027990115806460381 0.141969218850135803 0.060819853097200394 0.140119567513465881 -0.046974122524261475 -0.095873281359672546 0.171603351831436157 -0.113477222621440887 0.034745372831821442 -0.131581827998161316 -0.222786605358123779 -0.067818842828273773 -0.051676996052265167 0.170061454176902771
-0.022948402911424637 0.102631777524948120 0.207658454775810242 -0.155513599514961243 0.059698700904846191 -0.025730483233928680 0.006282025948166847 -0.037494339048862457 0.093892484903335571 -0.090633675456047058 -0.124547250568866730 -0.226347774267196655 -0.031681440770626068 0.297915220260620117 0.092271380126476288 0.072259642183780670 0.063350237905979156 0.087382011115550995 -0.012159722857177258 0.093468308448791504 0.104465484619140625 -0.130142524838447571 0.288534671068191528 -0.158165216445922852 0.084546387195587158 0.066323876380920410 -0.144006356596946716 -0.057880643755197525 -0.146495193243026733 -0.061007365584373474 -0.092243276536464691 0.041363317519426346 -0.046314582228660583 0.081456109881401062 0.077496260404586792 0.099228940904140472 -0.100494965910911560 -0.213329270482063293 -0.123701021075248718 -0.145335003733634949 -0.160102292895317078 -0.059862166643142700 -0.044582203030586243 -0.016675341874361038 0.120876178145408630 -0.081108383834362030 0.079633399844169617 -0.027060057967901230 -0.137584701180458069 0.084076955914497375 0.233980000019073486 0.128873720765113831 -0.040293361991643906 0.174839958548545837 0.036075871437788010 0.043766755610704422 -0.180571392178535461 -0.195242196321487427 0.105880357325077057 -0.054569032043218613 0.173700273036956787 0.170422911643981934 -0.037543158978223801 0.077487066388130188 -0.082447484135627747 -0.186850562691688538 -0.113423421978950500 -0.297511667013168335 -0.133867084980010986 0.150159403681755066 0.096925400197505951 0.032817047089338303 0.033697348088026047 0.054100856184959412 0.173542335629463196 -0.028412524610757828 0.012099655345082283 0.070897817611694336 -0.081073939800262451 -0.125979334115982056 0.066749766469001770 0.020968485623598099 0.149641469120979309 -0.145254984498023987 0.186279654502868652 0.033442355692386627 0.153873249888420105 -0.179796785116195679 -0.020259654149413109 -0.075690880417823792 0.091737665235996246 -0.061826258897781372 0.066738992929458618 -0.125471025705337524 -0.146457284688949585 0.016051966696977615 -0.028848595917224884 0.134293451905250549 -0.054516967386007309 -0.020871456712484360
-0.114485412836074829 0.181773543357849121 0.041120197623968124 0.294467180967330933 -0.087877459824085236 0.195144563913345337 -0.107458800077438354 -0.163615956902503967 0.171825811266899109 0.087717235088348389 -0.159423768520355225 -0.082043953239917755 -0.339361757040023804 0.115056544542312622 -0.049192033708095551 -0.172480106353759766 0.110754609107971191 0.112054869532585144 -0.095534525811672211 -0.085416704416275024 -0.117735244333744049 -0.086734816431999207 0.165176242589950562 0.009265656583011150 0.013540966436266899 0.064856648445129395 0.073291696608066559 0.155808433890342712 0.055580232292413712 0.063763134181499481 0.173577845096588135 0.158809199929237366 0.085610873997211456 -0.174748569726943970 -0.042984135448932648 0.017865369096398354 -0.170632749795913696 0.231951355934143066 -0.117700964212417603 -0.255097299814224243 -0.064142554998397827 -0.182511940598487854 -0.013777973130345345 -0.013568600639700890 0.047834224998950958 0.137922644615173340 0.267340153455734253 -0.093402318656444550 -0.133927375078201294 0.072223335504531860 0.435199081897735596 -0.001324794138781726 -0.021592454984784126 -0.126607537269592285 -0.037315614521503448 0.048189114779233932 -0.074877291917800903 0.003822973929345608 -0.049221724271774292 0.088651128113269806 -0.127337917685508728 0.044440481811761856 -0.007614380214363337 -0.164115533232688904 0.030060831457376480 0.025149572640657425 0.071661986410617828 -0.275523304939270020 0.118494659662246704 0.058128245174884796 0.068346023559570312 -0.133679643273353577 0.044099323451519012 0.143297299742698669 0.044610098004341125 0.189281925559043884 0.192914530634880066 0.097941115498542786 -0.099503085017204285 0.176809832453727722 0.113973669707775116 0.002808982972055674 -0.113352961838245392 -0.046013802289962769 0.030707566067576408 0.074051387608051300 -0.185246795415878296 -0.025728832930326462 0.100791610777378082 0.376686960458755493 -0.230236813426017761 -0.101352408528327942 0.086291380226612091 -0.180625781416893005 -0.182983249425888062 -0.164340913295745850 -0.134470582008361816 -0.086011208593845367 -0.175422504544258118 -0.064335517585277557
0.075431220233440399 -0.096593670547008514 -0.095121107995510101 0.203924134373664856 0.144630238413810730 0.034002959728240967 0.098788216710090637 0.089734524488449097 0.055562064051628113 -0.154035016894340515 0.103989832103252411 -0.055413331836462021 0.026092799380421638 -0.049354948103427887 0.216702312231063843 0.025136657059192657 -0.182861298322677612 -0.179188340902328491 0.165636241436004639 0.079985685646533966 0.178637444972991943 0.163101315498352051 -0.107327185571193695 0.077022917568683624 0.011576334945857525 -0.098462291061878204 0.102371469140052795 -0.100048229098320007 -0.020068740472197533 0.048095025122165680 -0.117254734039306641 0.053956534713506699 -0.148610964417457581 0.020176660269498825 0.048938110470771790 0.175247952342033386 -0.131411939859390259 0.105295114219188690 -0.155864715576171875 -0.095233835279941559 0.036634173244237900 -0.015966959297657013 0.088300302624702454 0.074032574892044067 0.106081329286098480 -0.100444108247756958 0.030200280249118805 0.530362904071807861 -0.046179000288248062 -0.145417720079421997 0.451734483242034912 0.070558920502662659 -0.108777076005935669 -0.004059585276991129 -0.065221786499023438 -0.160688593983650208 -0.118767380714416504 0.024295989423990250 -0.034737206995487213 0.044242672622203827 -0.019096959382295609 -0.152596965432167053 -0.085246056318283081 -0.032477557659149170 -0.086028479039669037 -0.245714783668518066 0.130331456661224365 -0.116343423724174500 0.380329132080078125 -0.069966040551662445 -0.020864067599177361 -0.108083330094814301 0.171380221843719482 -0.038401424884796143 0.084701590240001678 -0.040385954082012177 0.233925536274909973 -0.158520862460136414 -0.145532742142677307 0.157208800315856934 0.129272341728210449 0.000300341576803476 0.195334807038307190 -0.080581434071063995 -0.141678750514984131 -0.238377079367637634 0.025183731690049171 -0.028123330324888229 0.068739600479602814 0.131196409463882446 -0.019607389345765114 -0.113908194005489349 -0.011044541373848915 0.072008945047855377 -0.223116427659988403 -0.060234565287828445 -0.190209686756134033 -0.046377319842576981 0.060712397098541260 0.105910561978816986
-0.145147278904914856 -0.035644553601741791 -0.265170961618423462 0.007979840040206909 -0.129832997918128967 0.066021248698234558 -0.099697306752204895 -0.111473426222801208 -0.160299941897392273 -0.069149002432823181 0.123414978384971619 -0.296752929687500000 0.073082283139228821 -0.023875240236520767 -0.037142455577850342 0.072109244763851166 -0.224060744047164917 0.026437385007739067 -0.107053287327289581 -0.072809234261512756 -0.032855790108442307 -0.126503258943557739 -0.070653334259986877 -0.142966717481613159 -0.034392934292554855 0.038199201226234436 0.148641750216484070 0.130561068654060364 0.104935653507709503 0.090875275433063507 -0.060994029045104980 0.098431855440139771 -0.204890415072441101 0.039155926555395126 -0.010736260563135147 -0.159687429666519165 -0.105377227067947388 -0.226949512958526611 0.073926873505115509 0.033123660832643509 -0.063310764729976654 0.262132942676544189 0.044778138399124146 0.057163782417774200 0.004836399108171463 0.062692649662494659 -0.416011512279510498 -0.110410831868648529 0.368686974048614502 -0.040828753262758255 -0.296951770782470703 -0.121560558676719666 -0.103412903845310211 0.179422751069068909 -0.227101430296897888 0.145718514919281006 0.049010761082172394 0.008117016404867172 -0.027161080390214920 -0.054167594760656357 0.124935269355773926 0.037141349166631699 0.153448969125747681 0.133366599678993225 0.155830457806587219 0.125284910202026367 0.017547681927680969 0.131257489323616028 0.004873202648013830 0.068175494670867920 0.148641705513000488 0.062134124338626862 -0.105913959443569183 -0.160461425781250000 0.378732442855834961 -0.259692430496215820 0.028219196945428848 -0.082374453544616699 0.150567725300788879 -0.097525306046009064 -0.245479047298431396 -0.172962665557861328 -0.176424190402030945 0.201514095067977905 0.035025790333747864 0.136400997638702393 -0.045043338090181351 0.071221329271793365 0.101535603404045105 0.037568911910057068 0.096838653087615967 0.042384166270494461 0.106731697916984558 -0.136968567967414856 0.148679465055465698 0.125157445669174194 0.179670408368110657 -0.035990886390209198 0.021220261231064796 0.114080742001533508
-0.117519840598106384 0.039703946560621262 -0.104197010397911072 -0.018636876717209816 -0.077061355113983154 -0.076412074267864227 -0.069843135774135590 -0.124977201223373413 -0.043521214276552200 0.146043330430984497 -0.038459602743387222 0.185440927743911743 -0.044610202312469482 0.139172583818435669 0.058508187532424927 0.134659931063652039 -0.064299479126930237 0.158987924456596375 0.161606609821319580 0.025981448590755463 0.027853013947606087 -0.061240229755640030 0.158821970224380493 -0.011569602414965630 0.136394008994102478 -0.180728554725646973 0.030126111581921577 -0.021041097119450569 0.127325266599655151 0.150896355509757996 0.058447320014238358 0.088332690298557281 0.006694048177450895 -0.012519825249910355 -0.131189152598381042 -0.139992401003837585 0.147613286972045898 -0.043641101568937302 -0.103890709578990936 0.094177044928073883 -0.194629833102226257 0.152721181511878967 0.114348694682121277 0.015964573249220848 -0.089133881032466888 0.128931149840354919 -0.078937686979770660 0.104234814643859863 -0.284618586301803589 -0.011722248978912830 -0.059725366532802582 0.034394651651382446 -0.009264848195016384 0.023807495832443237 -0.012854753993451595 -0.085943505167961121 -0.088906407356262207 -0.019654318690299988 0.172135680913925171 -0.172724127769470215 -0.138527423143386841 0.158455699682235718 -0.024742679670453072 0.068172864615917206 0.080076083540916443 -0.141082644462585449 -0.065987847745418549 -0.399693280458450317 -0.098953820765018463 0.030367983505129814 0.137923344969749451 0.129867002367973328 0.045808628201484680 0.175523310899734497 0.147449672222137451 0.210006982088088989 -0.089130148291587830 0.025263942778110504 -0.124116592109203339 0.056471463292837143 0.345456659793853760 -0.136433333158493042 0.063577607274055481 0.038896173238754272 -0.029734984040260315 -0.049976397305727005 0.106727257370948792 -0.148232579231262207 -0.004162253346294165 0.203274697065353394 -0.007937251590192318 -0.018795210868120193 -0.182405054569244385 0.034652825444936752 0.023690698668360710 0.160151481628417969 -0.119551241397857666 -0.196309968829154968 0.110796459019184113 -0.097069814801216125
0.000328903726767749 -0.051810868084430695 -0.055389940738677979 0.150669291615486145 0.113775148987770081 0.249992564320564270 0.062521383166313171 0.060357995331287384 -0.021915242075920105 -0.087022230029106140 0.144197806715965271 -0.013348025269806385 -0.256656497716903687 -0.076430618762969971 -0.058473557233810425 0.015137484297156334 0.176111459732055664 0.063963212072849274 -0.115598253905773163 0.089027032256126404 -0.001457947189919651 -0.127432689070701599 0.203933581709861755 0.174320593476295471 -0.073858059942722321 0.109579414129257202 -0.176250994205474854 -0.074959971010684967 -0.076659731566905975 -0.032658971846103668 0.005273565649986267 -0.009046914055943489 -0.074692659080028534 -0.068059436976909637 0.027395661920309067 -0.010812573134899139 0.054614696651697159 0.003593961009755731 -0.003001702018082142 -0.128889352083206177 -0.077914662659168243 -0.186057582497596741 0.173851147294044495 -0.084032371640205383 0.081588007509708405 0.086734816431999207 -0.006691934075206518 0.239647716283798218 -0.080863155424594879 -0.206941351294517517 0.329299092292785645 -0.015540922991931438 -0.102324828505516052 0.013306060805916786 -0.175972983241081238 -0.150359719991683960 0.063845671713352203 -0.007442243397235870 -0.135710656642913818 -0.077578820288181305 0.039299171417951584 0.127954795956611633 0.071879900991916656 -0.037771165370941162 -0.143283247947692871 0.042951636016368866 0.061122953891754150 -0.018089296296238899 0.158070966601371765 0.132514894008636475 0.180930912494659424 0.087489396333694458 -0.083700388669967651 0.095144927501678467 0.010877205058932304 0.077625393867492676 -0.007926344871520996 -0.156017839908599854 0.188458487391471863 0.088971748948097229 0.112724438309669495 -0.062638729810714722 -0.104098320007324219 -0.103702895343303680 -0.055356200784444809 -0.182148054242134094 0.163828060030937195 0.010894767940044403 0.100274339318275452 0.091888889670372009 0.091632612049579620 -0.123221524059772491 -0.129057288169860840 0.099555954337120056 -0.120384432375431061 -0.122666284441947937 0.020334077998995781 0.027498409152030945 0.094411380589008331 0.113568328320980072
0.215106472373008728 0.159549817442893982 0.124510385096073151 -0.162366166710853577 0.147841528058052063 -0.033450867980718613 0.057013005018234253 -0.057486005127429962 0.008019195869565010 -0.004290681798011065 0.339738368988037109 0.123510576784610748 0.069324284791946411 -0.247258439660072327 -0.033786654472351074 0.123851083219051361 -0.174878761172294617 0.019875902682542801 -0.014585135504603386 -0.022326864302158356 0.017251411452889442 0.031654305756092072 0.027339685708284378 -0.156787276268005371 -0.252915143966674805 0.031433179974555969 -0.129048883914947510 0.128425702452659607 -0.121112070977687836 -0.057139780372381210 0.121760413050651550 -0.503032386302947998 0.174027189612388611 -0.118773207068443298 -0.204151049256324768 -0.190847665071487427 0.056552231311798096 0.000067831664637197 -0.095293372869491577 -0.075033612549304962 0.110048107802867889 0.032831959426403046 -0.053579468280076981 -0.030178317800164223 0.158658966422080994 0.114087864756584167 -0.179320886731147766 -0.083002060651779175 0.095327854156494141 0.104930922389030457 -0.257336169481277466 0.093582019209861755 0.108531162142753601 0.073613457381725311 -0.014370618388056755 0.050847224891185760 0.089489653706550598 0.051330968737602234 -0.101327612996101379 -0.129165545105934143 -0.169177055358886719 0.277801066637039185 0.128747299313545227 -0.080841414630413055 0.052162490785121918 -0.006540388334542513 -0.207621306180953979 0.379041403532028198 -0.087695688009262085 -0.036826673895120621 -0.114211484789848328 -0.147944927215576172 -0.039923086762428284 -0.136815950274467468 0.210583284497261047 0.031444437801837921 -0.210737824440002441 0.122182898223400116 -0.083202086389064789 -0.088610112667083740 -0.036781933158636093 0.105701200664043427 0.140401780605316162 -0.022328566759824753 -0.002104302402585745 0.201161503791809082 -0.149292483925819397 0.114534802734851837 -0.327128857374191284 -0.175718173384666443 0.614677786827087402 0.059426724910736084 -0.224342748522758484 -0.050890665501356125 -0.007830798625946045 -0.085683576762676239 0.237561538815498352 0.172353491187095642 -0.177133649587631226 0.094313219189643860
-0.072809569537639618 -0.080523006618022919 0.166960790753364563 0.256728708744049072 0.012975076213479042 -0.108706906437873840 -0.192992836236953735 -0.065213404595851898 0.018217556178569794 0.060730487108230591 -0.146454781293869019 -0.174260735511779785 0.136235058307647705 0.264381170272827148 -0.058333765715360641 -0.140250399708747864 0.089729413390159607 -0.108775869011878967 0.111966058611869812 -0.078052595257759094 -0.161211922764778137 -0.086214862763881683 0.069567099213600159 -0.118310108780860901 0.004580131266266108 0.203741848468780518 0.082756839692592621 -0.062404509633779526 -0.174497649073600769 -0.030541030690073967 -0.001994750462472439 0.087747909128665924 0.080351322889328003 0.056241367012262344 0.218822270631790161 -0.251270979642868042 0.143077298998832703 -0.022325754165649414 -0.079503983259201050 -0.222803071141242981 -0.107985757291316986 -0.173238605260848999 0.144290849566459656 -0.101593546569347382 0.049859642982482910 0.023224329575896263 0.018799630925059319 -0.042381506413221359 -0.034206032752990723 -0.004336038138717413 0.321202754974365234 0.046803317964076996 -0.036065045744180679 -0.063922956585884094 -0.077206365764141083 0.114174924790859222 0.080059841275215149 -0.104746952652931213 -0.014908921904861927 0.001771488459780812 -0.032429583370685577 0.004564573056995869 0.170216560363769531 0.011939789168536663 0.162393391132354736 -0.123036682605743408 0.127172499895095825 -0.042317096143960953 0.143366932868957520 0.073228798806667328 -0.180292442440986633 -0.147306591272354126 -0.132113277912139893 -0.091372393071651459 0.179937005043029785 -0.167603194713592529 0.148685067892074585 -0.026095228269696236 0.130101695656776428 -0.063328161835670471 -0.187807157635688782 -0.001747297006659210 0.139521211385726929 0.199645102024078369 -0.072360008955001831 -0.029101243242621422 -0.052085116505622864 -0.055855084210634232 0.195952817797660828 -0.158019855618476868 -0.046186439692974091 0.081850312650203705 0.171600222587585449 0.116501770913600922 -0.009712892584502697 -0.076451718807220459 0.031509809195995331 -0.150360539555549622 0.071750096976757050 0.109953522682189941
0.017958451062440872 -0.031291618943214417 0.097558744251728058 -0.074467182159423828 -0.122334674000740051 -0.046807449311017990 -0.180620491504669189 -0.085527323186397552 -0.094629772007465363 -0.038477230817079544 0.043276738375425339 -0.163140490651130676 0.009686442092061043 -0.109760701656341553 -0.022973990067839622 -0.042843125760555267 0.003749158233404160 -0.151262924075126648 0.134752750396728516 -0.227925285696983337 0.144674852490425110 0.107581272721290588 0.009865711443126202 -0.125356271862983704 0.043486870825290680 0.137461453676223755 0.035785853862762451 0.004583262372761965 -0.041372533887624741 0.043509442359209061 -0.099815808236598969 -0.059732809662818909 0.106859035789966583 0.093470759689807892 -0.172040849924087524 0.153031691908836365 0.087337672710418701 0.058228038251399994 0.131155788898468018 -0.096899569034576416 -0.050802253186702728 0.075643308460712433 -0.122533723711967468 -0.059479653835296631 -0.085964895784854889 -0.150449305772781372 0.040119536221027374 0.112984865903854370 0.026760464534163475 -0.183208107948303223 0.071741573512554169 -0.099254362285137177 0.088733382523059845 -0.147417694330215454 0.102734200656414032 0.069875158369541168 0.124782368540763855 -0.029246924445033073 0.106417864561080933 0.135453864932060242 -0.090922594070434570 -0.063225835561752319 -0.015722379088401794 0.238718628883361816 0.197982445359230042 -0.191446587443351746 0.075147353112697601 0.261026471853256226 -0.065388575196266174 -0.060753755271434784 -0.088780924677848816 0.128865793347358704 -0.117762893438339233 0.043558984994888306 0.145649701356887817 -0.325441390275955200 -0.199306875467300415 -0.088521033525466919 0.114144869148731232 -0.088662616908550262 -0.578891873359680176 -0.093627065420150757 -0.046200223267078400 0.142384424805641174 -0.003370410064235330 -0.101804137229919434 -0.138260900974273682 0.079618997871875763 -0.059698767960071564 -0.002403251361101866 0.015709800645709038 -0.125193238258361816 0.192158952355384827 0.073227100074291229 0.061735570430755615 -0.056699208915233612 -0.042342953383922577 -0.127776607871055603 -0.074100993573665619 0.126983821392059326
0.057241544127464294 -0.113729812204837799 -0.028101915493607521 -0.014298612251877785 0.062076970934867859 0.070054300129413605 0.151556953787803650 -0.076830521225929260 0.003124769311398268 0.171403750777244568 -0.040091983973979950 -0.265499591827392578 -0.005790247116237879 0.013516461476683617 0.121421135962009430 0.255417525768280029 -0.059576388448476791 -0.299377769231796265 0.012593466788530350 0.013888882473111153 0.010635374113917351 0.047785438597202301 -0.007670318242162466 0.048536617308855057 0.035156153142452240 0.104249350726604462 0.138414576649665833 0.139922976493835449 0.322340786457061768 -0.017879396677017212 -0.020658647641539574 0.101667039096355438 0.135740488767623901 0.367182046175003052 0.215562999248504639 0.051034927368164062 0.069921076297760010 -0.221735209226608276 0.147469803690910339 0.028846729546785355 -0.003731361590325832 0.109453737735748291 0.009839490056037903 -0.025248004123568535 -0.062387995421886444 -0.090749658644199371 -0.405225306749343872 -0.234701886773109436 0.052272368222475052 -0.422197163105010986 -0.070345714688301086 -0.070947691798210144 -0.147028967738151550 0.231481567025184631 -0.080961741507053375 0.115750439465045929 0.234981432557106018 0.086104318499565125 -0.064542151987552643 0.067246340215206146 0.223990887403488159 -0.193911179900169373 -0.015960020944476128 0.077707409858703613 -0.084676556289196014 -0.026347788050770760 -0.008421770296990871 0.179651230573654175 -0.025115149095654488 -0.024211879819631577 -0.164736241102218628 -0.079898796975612640 0.082004919648170471 -0.033889111131429672 0.040324728935956955 -0.031769156455993652 -0.162712723016738892 -0.037226408720016479 0.209058687090873718 0.111676953732967377 -0.073940835893154144 0.048065826296806335 0.158936724066734314 -0.111459434032440186 0.186020210385322571 -0.142363682389259338 -0.108156189322471619 0.092868790030479431 0.119869805872440338 -0.176114663481712341 0.031296733766794205 0.031145902350544930 0.196153715252876282 0.062038678675889969 0.068726167082786560 0.365092217922210693 0.305413693189620972 0.263309806585311890 -0.177559792995452881 -0.055905200541019440
-0.220306769013404846 -0.016535915434360504 0.125300630927085876 0.319565922021865845 -0.095935344696044922 -0.172902688384056091 -0.056031335145235062 0.038165010511875153 -0.266669273376464844 -0.103115983307361603 0.092072285711765289 0.065092548727989197 0.121025629341602325 -0.007930320687592030 0.161859333515167236 0.054811365902423859 -0.184546992182731628 -0.125962004065513611 0.103554606437683105 -0.157018333673477173 -0.063913658261299133 -0.166341289877891541 -0.107236936688423157 0.118858508765697479 0.056802846491336823 0.060689698904752731 -0.032689113169908524 0.024975728243589401 -0.141574561595916748 -0.127005681395530701 -0.241178989410400391 0.042577341198921204 0.096275046467781067 -0.010182514786720276 -0.069843918085098267 -0.056574575603008270 0.086325570940971375 -0.053349412977695465 -0.281456261873245239 -0.177485868334770203 0.057092335075139999 -0.185652464628219604 0.098186753690242767 -0.089052855968475342 0.173508018255233765 -0.037564005702733994 0.022120457142591476 0.141987636685371399 0.168493956327438354 0.134060844779014587 0.290574312210083008 -0.106154575943946838 -0.157536149024963379 -0.224132671952247620 0.224181622266769409 0.014872895553708076 0.023163018748164177 0.074405521154403687 0.096797175705432892 0.150922536849975586 0.126838847994804382 -0.199923440814018250 0.007240616716444492 0.105716764926910400 -0.097437627613544464 -0.059752490371465683 0.216553851962089539 0.015407718718051910 0.023507790639996529 0.019865412265062332 0.186232790350914001 0.115874350070953369 -0.084420815110206604 0.045216400176286697 0.026804516091942787 -0.183208763599395752 0.217619687318801880 0.210371106863021851 0.122462637722492218 0.114451222121715546 -0.033198475837707520 -0.098582699894905090 0.134351223707199097 -0.009965504519641399 -0.582904160022735596 0.062173124402761459 -0.055395700037479401 0.054950442165136337 0.242022782564163208 -0.106002122163772583 -0.171782299876213074 -0.035691972821950912 -0.084773957729339600 -0.045087523758411407 -0.122412011027336121 -0.109924517571926117 -0.185693487524986267 0.142995610833168030 0.007364060729742050 -0.113175816833972931
-0.144212201237678528 0.146498441696166992 -0.101025849580764771 0.168036758899688721 0.064255468547344208 0.104127384722232819 -0.121569626033306122 -0.029044743627309799 -0.067707136273384094 0.109893105924129486 -0.169713005423545837 0.003411392914131284 0.120846979320049286 -0.028756968677043915 0.123938985168933868 0.143271610140800476 -0.030916826799511909 -0.005307326093316078 0.091582655906677246 -0.057260897010564804 0.050156470388174057 0.074741579592227936 0.253925293684005737 0.148692235350608826 -0.122662514448165894 0.169061258435249329 0.086237795650959015 -0.003710669232532382 -0.175054892897605896 -0.085881881415843964 0.104499205946922302 0.122976876795291901 -0.052360601723194122 0.101490214467048645 0.027977814897894859 -0.118170775473117828 0.044591721147298813 0.150900110602378845 0.131461530923843384 -0.021600451320409775 -0.162113860249519348 0.092229247093200684 -0.046623967587947845 0.023699479177594185 0.100104413926601410 0.171792715787887573 0.167677119374275208 -0.193960458040237427 -0.040423527359962463 0.183205947279930115 0.022136941552162170 -0.062109082937240601 -0.047143034636974335 -0.048305556178092957 -0.118507392704486847 0.016810046508908272 0.157708138227462769 0.229488909244537354 0.098991803824901581 0.109037086367607117 -0.122931420803070068 -0.056049648672342300 0.094158321619033813 -0.047058217227458954 0.086572617292404175 -0.090866349637508392 0.030406942591071129 0.088738203048706055 -0.092338338494300842 0.016910869628190994 -0.071666486561298370 -0.170621693134307861 0.004787177313119173 -0.012329425662755966 0.011823865585029125 -0.004805947188287973 0.085515834391117096 0.112697847187519073 -0.145882070064544678 0.157552674412727356 0.177352309226989746 0.010016133077442646 0.052312195301055908 0.152248799800872803 0.172549903392791748 0.131236791610717773 -0.037441395223140717 -0.151830837130546570 -0.090908773243427277 0.056031528860330582 0.000432009052019566 -0.163927718997001648 -0.020951967686414719 -0.095695108175277710 -0.107225254178047180 0.068714365363121033 0.127206295728683472 -0.024470126256346703 -0.081464849412441254 0.001390165998600423
-0.019359664991497993 0.023685896769165993 0.162926852703094482 -0.038147557526826859 0.023801285773515701 0.094487793743610382 -0.039902307093143463 -0.166439011693000793 -0.100746035575866699 -0.125704124569892883 -0.147678107023239136 0.045350402593612671 0.003101898357272148 0.082815721631050110 -0.286131829023361206 -0.031869716942310333 0.160012915730476379 -0.072016134858131409 -0.179123878479003906 0.265411466360092163 -0.211947053670883179 -0.224973693490028381 -0.082365676760673523 -0.001736497506499290 -0.030593246221542358 0.043194279074668884 0.021099872887134552 -0.089647941291332245 0.096952989697456360 -0.045192889869213104 -0.144784092903137207 -0.076533615589141846 0.199189037084579468 0.104217574000358582 -0.149180904030799866 -0.134692013263702393 0.038773737847805023 -0.192035928368568420 -0.008477370254695415 -0.008485849015414715 -0.052266210317611694 0.110775589942932129 0.171284005045890808 0.066795751452445984 -0.041322976350784302 -0.036753594875335693 0.045294798910617828 -0.084949091076850891 -0.147183001041412354 0.130155310034751892 0.059710063040256500 0.247477218508720398 0.150111362338066101 0.043042246252298355 0.113185785710811615 0.060725070536136627 0.195016324520111084 0.263736099004745483 -0.008311288431286812 0.084791459143161774 0.115223035216331482 -0.013630220666527748 0.222551658749580383 -0.171596080064773560 -0.086919307708740234 0.249818265438079834 0.012430984526872635 0.124745689332485199 -0.000839464366436005 0.036607012152671814 0.072154588997364044 0.041910544037818909 -0.110925607383251190 -0.020445236936211586 -0.121245093643665314 -0.052366103976964951 0.205496072769165039 0.098434232175350189 -0.166970387101173401 -0.239710345864295959 0.143117159605026245 0.041255921125411987 0.209073349833488464 -0.059951145201921463 0.099358193576335907 0.192211851477622986 -0.028486838564276695 -0.067193962633609772 -0.041801419109106064 -0.090023420751094818 -0.099517181515693665 0.039242938160896301 -0.091351643204689026 -0.213440835475921631 -0.146892488002777100 0.101765371859073639 0.221298962831497192 -0.124782919883728027 0.000729968887753785 -0.136953622102737427
-0.250028550624847412 -0.033054694533348083 0.086150377988815308 0.266973495483398438 -0.230350628495216370 0.449211835861206055 0.069760911166667938 -0.482272386550903320 0.140480324625968933 0.119533218443393707 -0.706795215606689453 -0.046408064663410187 -0.039890494197607040 -0.367266863584518433 0.139263644814491272 -0.020887302234768867 -0.009214931167662144 0.132963716983795166 0.202720716595649719 -0.004771040752530098 0.010430049151182175 -0.153929442167282104 0.067125432193279266 -0.109169714152812958 0.129921600222587585 0.181455582380294800 -0.042465653270483017 0.159260153770446777 0.078839406371116638 0.132427766919136047 -0.086380019783973694 0.384780436754226685 0.120990462601184845 -0.079419054090976715 -0.143824234604835510 -0.106893196702003479 0.048615977168083191 0.048785384744405746 -0.099639855325222015 -0.218845337629318237 0.080741524696350098 -0.017402796074748039 0.269319325685501099 0.226269125938415527 -0.103511899709701538 0.225528806447982788 -0.076865740120410919 -0.400095313787460327 -0.016847059130668640 0.220151245594024658 0.553141832351684570 -0.067218855023384094 0.118815936148166656 -0.323286920785903931 -0.063120961189270020 -0.108029924333095551 -0.079446196556091309 0.022980619221925735 -0.198362782597541809 0.033272724598646164 -0.132515862584114075 0.065738253295421600 0.349829405546188354 -0.139670759439468384 0.327198147773742676 -0.076735131442546844 0.105418935418128967 -0.038156047463417053 -0.413435161113739014 -0.042465183883905411 0.159391045570373535 0.083540625870227814 0.018885277211666107 0.041690204292535782 -0.136048763990402222 -0.045988481491804123 0.050770588219165802 0.139223277568817139 0.134774893522262573 0.067904859781265259 0.076941765844821930 -0.062885284423828125 -0.085400275886058807 0.134335950016975403 -0.156521886587142944 -0.122763052582740784 -0.061653483659029007 -0.078418605029582977 0.194342613220214844 0.007425379008054733 -0.318316102027893066 0.151064395904541016 -0.041156478226184845 0.144255042076110840 -0.100761473178863525 0.078600831329822540 -0.151302993297576904 0.193051576614379883 -0.452257394790649414 0.020305965095758438
0.015671515837311745 0.073773033916950226 -0.065563052892684937 -0.201242417097091675 0.082316696643829346 0.067709609866142273 0.090917564928531647 -0.056214611977338791 0.114668853580951691 0.090992212295532227 0.078662447631359100 0.209349974989891052 0.053384337574243546 -0.082071714103221893 -0.050944082438945770 -0.006951817311346531 0.135540872812271118 0.160530015826225281 -0.201098889112472534 -0.112866431474685669 -0.127316594123840332 -0.016880329698324203 -0.148480549454689026 0.103761263191699982 -0.003199619241058826 0.063981086015701294 0.155938357114791870 -0.016980245709419250 -0.129885494709014893 -0.034581378102302551 0.115130715072154999 -0.250276833772659302 0.091833092272281647 -0.070095486938953400 0.089172817766666412 0.007189753465354443 0.008403693325817585 0.068205460906028748 0.046981204301118851 -0.039454035460948944 -0.071704991161823273 0.192730128765106201 -0.082412965595722198 -0.142654180526733398 0.044640623033046722 -0.206413641571998596 0.039853386580944061 -0.205865502357482910 -0.105615392327308655 0.164748489856719971 -0.201376780867576599 0.040503405034542084 0.137412533164024353 0.105127058923244476 0.107517354190349579 0.079514116048812866 -0.083076000213623047 -0.097678802907466888 -0.119082264602184296 -0.084621392190456390 0.246173024177551270 -0.131451517343521118 0.162004306912422180 0.174387305974960327 0.147827431559562683 -0.058838676661252975 0.123478569090366364 0.208210155367851257 0.136289477348327637 0.027451327070593834 -0.220925003290176392 0.155743047595024109 0.084504462778568268 -0.135930165648460388 -0.170929774641990662 0.123275481164455414 -0.239620000123977661 -0.018747780472040176 -0.023591686040163040 -0.221366584300994873 0.008234309963881969 0.191778540611267090 -0.156702354550361633 -0.158785969018936157 0.156549990177154541 0.206912517547607422 -0.012708515860140324 -0.045606348663568497 0.086861424148082733 -0.242093399167060852 -0.012991027906537056 -0.057389304041862488 -0.179158374667167664 0.143909931182861328 0.049326941370964050 0.085227258503437042 0.244440689682960510 -0.077974885702133179 0.065703846514225006 0.005243238527327776
0.155911415815353394 -0.083295702934265137 -0.174105867743492126 -0.067331761121749878 -0.012904768809676170 -0.164834171533584595 -0.105280347168445587 0.146840289235115051 -0.014394936151802540 -0.104177124798297882 0.110937274992465973 -0.090323425829410553 0.153823405504226685 -0.106785953044891357 0.179974198341369629 0.162687823176383972 0.178532853722572327 -0.154153198003768921 0.004771481268107891 -0.112168446183204651 -0.160143494606018066 -0.063040383160114288 -0.268224030733108521 -0.069354914128780365 -0.001235558651387691 0.096516050398349762 -0.110411256551742554 -0.135405674576759338 -0.002712187590077519 0.014684347435832024 -0.206261545419692993 0.105680987238883972 -0.039943490177392960 0.292780995368957520 0.336930900812149048 -0.026830043643712997 -0.026323232799768448 -0.162317320704460144 0.147412061691284180 -0.014572444371879101 -0.028815103694796562 0.168319746851921082 0.059611558914184570 -0.030931038782000542 -0.111892193555831909 -0.219231128692626953 -0.255287796258926392 0.093830399215221405 0.235222443938255310 -0.084254659712314606 -0.018124066293239594 0.001295010908506811 0.085488632321357727 -0.064502522349357605 -0.203796222805976868 0.093058302998542786 -0.070248626172542572 0.126602128148078918 -0.103226460516452789 0.173611074686050415 0.182399645447731018 -0.024828458204865456 -0.070570126175880432 0.099291175603866577 0.147337764501571655 0.039917591959238052 -0.038088705390691757 0.095066741108894348 0.077165737748146057 -0.050664164125919342 0.182198673486709595 0.036232795566320419 -0.046078015118837357 0.051270805299282074 0.112227261066436768 -0.236674904823303223 0.006849366705864668 0.041497129946947098 -0.009107743389904499 -0.077048562467098236 -0.186470851302146912 -0.103434450924396515 0.114518985152244568 -0.012792028486728668 -0.169629961252212524 -0.064276225864887238 0.167092368006706238 -0.142202123999595642 0.016980407759547234 0.041363511234521866 -0.163280308246612549 0.118401378393173218 0.068649098277091980 0.200043231248855591 -0.010345423594117165 0.197032809257507324 0.101422622799873352 -0.035585395991802216 0.086183555424213409 -0.031982999294996262
0.048161696642637253 0.088314615190029144 0.167438775300979614 0.029508564621210098 0.094854652881622314 -0.025954078882932663 0.000470312370453030 0.140736445784568787 -0.083434291183948517 0.057004924863576889 0.017021527513861656 -0.024648169055581093 -0.178969681262969971 -0.210986569523811340 0.001015632413327694 0.109717056155204773 -0.068549752235412598 0.139532059431076050 0.034739784896373749 0.195235699415206909 -0.006824451498687267 -0.016591109335422516 0.226913854479789734 0.070998050272464752 -0.130477339029312134 -0.102229602634906769 0.071014411747455597 -0.046358760446310043 -0.094246275722980499 0.166804045438766479 0.134901016950607300 -0.051326975226402283 -0.029841557145118713 -0.082736067473888397 -0.226354598999023438 0.154497250914573669 0.161407127976417542 -0.103015631437301636 -0.035814639180898666 0.097980022430419922 0.076818138360977173 -0.046856075525283813 0.212368607521057129 -0.198048263788223267 0.039052471518516541 0.109329618513584137 0.200573340058326721 -0.146998971700668335 0.046018350869417191 -0.077588953077793121 0.183148756623268127 -0.041702132672071457 0.156036123633384705 -0.034631785005331039 -0.060290157794952393 0.020273493602871895 -0.002458365866914392 -0.030204262584447861 0.212655857205390930 0.073487818241119385 -0.060993164777755737 -0.119679287075996399 0.057398773729801178 -0.142231985926628113 -0.120109550654888153 -0.054242189973592758 -0.181801617145538330 0.146897420287132263 0.078702531754970551 -0.082505248486995697 0.160899505019187927 0.119206205010414124 -0.082852981984615326 -0.097098998725414276 0.099583216011524200 -0.100093834102153778 0.125479936599731445 -0.022162459790706635 -0.204217866063117981 0.128141254186630249 0.055816836655139923 -0.094946347177028656 -0.131293118000030518 -0.078668616712093353 0.067233458161354065 0.062834143638610840 -0.154502421617507935 -0.143300905823707581 0.042491819709539413 0.112919278442859650 -0.181899666786193848 0.166506960988044739 -0.107653722167015076 -0.121694557368755341 0.057007022202014923 0.060844432562589645 0.151895359158515930 -0.039040021598339081 0.128378167748451233 -0.113996371626853943
-0.040432266891002655 -0.016568416729569435 0.134351402521133423 -0.005937372334301472 -0.136467859148979187 0.131809860467910767 0.074821457266807556 0.042388100177049637 0.202834203839302063 -0.018636716529726982 -0.101294077932834625 0.040588527917861938 0.218988656997680664 0.015014486387372017 -0.041186574846506119 -0.116370663046836853 0.071326963603496552 -0.130656793713569641 -0.053091280162334442 -0.065779849886894226 -0.109787538647651672 0.037090018391609192 -0.112236686050891876 0.058101572096347809 0.109620571136474609 -0.147491499781608582 0.119980961084365845 0.092761278152465820 -0.165407031774520874 0.154961526393890381 0.005986022762954235 -0.303605318069458008 0.178055852651596069 -0.040697380900382996 -0.045793183147907257 -0.128977745771408081 0.165144965052604675 0.054594431072473526 0.111642748117446899 0.056432448327541351 0.075654327869415283 -0.042741574347019196 -0.056530512869358063 0.141621455550193787 -0.090332530438899994 -0.051097974181175232 0.183333486318588257 0.170060336589813232 -0.118334136903285980 -0.110567674040794373 -0.318611979484558105 0.094216465950012207 0.083043023943901062 -0.055760547518730164 0.163256555795669556 0.052809849381446838 -0.070038184523582458 0.048167150467634201 -0.220443695783615112 0.050658814609050751 -0.140794858336448669 -0.126176849007606506 0.028840193524956703 -0.072356447577476501 -0.022624360397458076 0.186279445886611938 0.001090490142814815 -0.035047072917222977 -0.013966822065412998 -0.123921178281307220 -0.031889498233795166 -0.115967512130737305 0.056604228913784027 0.050034999847412109 0.027919391170144081 0.139953181147575378 0.148695006966590881 0.183023929595947266 -0.171005785465240479 -0.180983871221542358 0.609452724456787109 0.198588058352470398 0.134030759334564209 0.071999348700046539 -0.046813238412141800 0.142082601785659790 0.020756682381033897 0.116356544196605682 0.082413889467716217 -0.209426835179328918 0.064970634877681732 -0.103501886129379272 -0.126260086894035339 0.151943311095237732 0.004706373438239098 0.057119514793157578 -0.110665269196033478 -0.040338922291994095 -0.015419823117554188 -0.113866269588470459
0.117579706013202667 0.021715432405471802 0.145131945610046387 0.158148929476737976 0.177757546305656433 0.170230180025100708 0.000279093888821080 -0.059886228293180466 -0.132319927215576172 -0.348477989435195923 -0.261122018098831177 -0.128411382436752319 -0.008913128636777401 0.151572823524475098 0.039720449596643448 -0.084957368671894073 -0.014039177447557449 -0.048754166811704636 0.052954662591218948 -0.053517378866672516 -0.110430978238582611 0.031006699427962303 -0.103505954146385193 0.024007180705666542 -0.143519297242164612 -0.011345313861966133 0.066481009125709534 -0.044374123215675354 -0.129114776849746704 0.139949321746826172 0.132913872599601746 -0.085486866533756256 -0.087569497525691986 0.030557259917259216 0.032391287386417389 -0.128445804119110107 -0.209799736738204956 0.078641034662723541 -0.170593544840812683 -0.248079642653465271 -0.075237654149532318 -0.224551916122436523 0.041796561330556870 -0.007836280390620232 -0.057578179985284805 0.109782665967941284 0.220980599522590637 0.121610432863235474 0.042365152388811111 0.028322549536824226 0.289555639028549194 -0.005062832962721586 0.139209568500518799 -0.237857520580291748 0.003647793084383011 -0.045238893479108810 0.065965585410594940 -0.155728891491889954 0.035145167261362076 0.087814934551715851 -0.078367486596107483 -0.162547409534454346 -0.131646037101745605 0.048668362200260162 0.078544065356254578 -0.153001219034194946 -0.001786820474080741 -0.109745897352695465 0.133936449885368347 0.053576555103063583 0.117404401302337646 0.000124104626593180 0.049316197633743286 0.192825213074684143 0.218572840094566345 -0.229536607861518860 0.048881318420171738 -0.054054718464612961 0.027091836556792259 0.181550309062004089 0.081782400608062744 -0.050299882888793945 -0.081598564982414246 -0.014689484611153603 -0.171938270330429077 -0.130262807011604309 0.206192448735237122 -0.156335636973381042 -0.078372247517108917 0.081894919276237488 0.018716616556048393 -0.004584432113915682 -0.102225370705127716 -0.069424048066139221 -0.079574324190616608 -0.226173117756843567 -0.251564890146255493 -0.098369345068931580 0.000977732706815004 0.066597178578376770
-0.154650300741195679 0.003576295450329781 -0.192677006125450134 -0.104472808539867401 0.076392106711864471 0.207175552845001221 0.094738639891147614 -0.206386432051658630 0.114278540015220642 0.065620273351669312 -0.107323154807090759 0.200152307748794556 0.016630832105875015 -0.124978221952915192 0.136891692876815796 -0.105769373476505280 0.176679208874702454 0.115744359791278839 -0.025739232078194618 -0.009519102983176708 0.126169413328170776 0.087166443467140198 -0.111868910491466522 -0.066488951444625854 -0.206116974353790283 0.012814939022064209 -0.021463232114911079 0.183492183685302734 -0.094922274351119995 -0.097892209887504578 -0.104365751147270203 0.118553355336189270 0.036491889506578445 0.159012302756309509 0.059175580739974976 0.065003089606761932 -0.054703626781702042 0.125578224658966064 0.023882133886218071 -0.085418343544006348 -0.017385579645633698 0.153915584087371826 0.270761400461196899 0.050041843205690384 -0.014346425421535969 0.134805932641029358 0.117705650627613068 0.007781798951327801 -0.123333364725112915 0.163732841610908508 -0.026079924777150154 0.180597931146621704 -0.049665294587612152 0.064768336713314056 0.134916871786117554 -0.132601872086524963 -0.006579052191227674 -0.164858594536781311 0.048457834869623184 0.093688488006591797 -0.098768830299377441 0.133018955588340759 -0.043842613697052002 0.009503711014986038 0.232623308897018433 0.128226071596145630 0.100764386355876923 -0.050324767827987671 -0.070778660476207733 -0.151742473244667053 -0.229986444115638733 -0.148595735430717468 0.084069907665252686 0.182406425476074219 0.123085804283618927 -0.053089227527379990 -0.151165857911109924 0.113141588866710663 -0.013840399682521820 -0.073572203516960144 0.032421339303255081 -0.145655319094657898 0.089197672903537750 0.021704338490962982 0.071363963186740875 -0.056288387626409531 -0.205544471740722656 0.042225599288940430 0.003327253274619579 -0.125021487474441528 0.044747050851583481 -0.079644270241260529 -0.055412907153367996 -0.064926922321319580 0.061379104852676392 0.100639887154102325 -0.096344016492366791 -0.036902170628309250 0.061210781335830688 -0.113060206174850464
0.211008325219154358 0.140423893928527832 -0.271965742111206055 -0.124930351972579956 0.190228432416915894 0.012099715881049633 0.015757199376821518 0.215853631496429443 -0.086943700909614563 -0.044830098748207092 -0.255953758955001831 0.107803992927074432 -0.042322743684053421 0.133833006024360657 0.155131191015243530 -0.071210652589797974 -0.286753237247467041 -0.227874398231506348 -0.165873855352401733 -0.220566436648368835 0.038052935153245926 -0.050939138978719711 -0.069496557116508484 0.276259630918502808 0.310148775577545166 -0.058517955243587494 -0.195276394486427307 0.064970009028911591 -0.088234364986419678 0.063347503542900085 0.303896695375442505 0.118973985314369202 0.119294822216033936 -0.078402206301689148 0.111353382468223572 -0.151782855391502380 0.054821625351905823 -0.005816953722387552 -0.137029334902763367 -0.123429685831069946 0.088474057614803314 -0.208454683423042297 0.010100187733769417 -0.048569589853286743 0.242656916379928589 -0.110435642302036285 -0.156003147363662720 0.132197260856628418 -0.111852489411830902 -0.024507451802492142 0.076444789767265320 -0.029953613877296448 0.115000352263450623 -0.356694906949996948 -0.019281746819615364 0.240828931331634521 0.130566000938415527 0.075207062065601349 0.428010880947113037 0.120291225612163544 0.030813142657279968 -0.072924233973026276 -0.080336630344390869 0.076907537877559662 0.047542262822389603 0.060297265648841858 -0.201603263616561890 0.010809356346726418 0.249641790986061096 -0.023730861023068428 0.169806599617004395 0.118304856121540070 0.057216472923755646 -0.018572464585304260 0.169919371604919434 -0.031731408089399338 0.063940890133380890 0.007600130978971720 -0.041242603212594986 -0.120451435446739197 -0.318083733320236206 -0.050659123808145523 -0.229252249002456665 0.174187287688255310 -0.052166905254125595 -0.162184074521064758 0.062646619975566864 0.310610413551330566 0.088448099792003632 -0.015104451216757298 -0.416298806667327881 -0.119028180837631226 -0.138539865612983704 -0.046000745147466660 -0.218452379107475281 -0.099116377532482147 -0.089286290109157562 -0.381127059459686279 0.229232698678970337 0.134665578603744507
-0.048959486186504364 -0.185890182852745056 -0.023157209157943726 -0.205659314990043640 0.106606014072895050 0.025089532136917114 -0.053914196789264679 -0.093860499560832977 0.221471011638641357 -0.126435235142707825 0.215703010559082031 0.091021470725536346 0.016906552016735077 -0.120184391736984253 0.055401250720024109 0.166889041662216187 -0.216855093836784363 0.118203915655612946 0.131755948066711426 0.002472366904839873 -0.097582377493381500 -0.128066211938858032 -0.166526600718498230 0.111191660165786743 -0.133847296237945557 0.184972092509269714 0.035441294312477112 -0.008492113091051579 -0.072278842329978943 -0.096651859581470490 -0.106163978576660156 -0.200510263442993164 -0.196319416165351868 -0.053567737340927124 0.043665129691362381 0.205639392137527466 0.021522281691431999 0.099808022379875183 0.122539304196834564 0.107669733464717865 -0.097457960247993469 0.185425311326980591 -0.167871594429016113 -0.027004513889551163 0.143518298864364624 0.090650059282779694 -0.078337326645851135 -0.154435560107231140 0.299502015113830566 -0.176251471042633057 -0.129812896251678467 0.044080775231122971 0.151571124792098999 0.277739286422729492 -0.162974700331687927 0.039161868393421173 -0.034852769225835800 -0.194132342934608459 -0.051873505115509033 -0.156602486968040466 0.334601372480392456 0.005055752117186785 0.151505723595619202 0.111302286386489868 0.107308156788349152 0.006565284915268421 0.199140667915344238 0.142668932676315308 -0.172862321138381958 0.158519595861434937 -0.067949868738651276 0.177903056144714355 0.117025040090084076 -0.021391455084085464 0.119223400950431824 -0.286617606878280640 -0.253694653511047363 0.099240578711032867 0.174445658922195435 -0.022324789315462112 -0.214317575097084045 0.149196371436119080 -0.138619214296340942 0.037771947681903839 -0.003520200960338116 -0.083349280059337616 0.029399834573268890 -0.112099029123783112 -0.101608097553253174 0.041284028440713882 0.077901378273963928 0.056187499314546585 -0.098244518041610718 0.037986528128385544 -0.120745740830898285 -0.058136228471994400 -0.070711039006710052 -0.065354205667972565 -0.234729930758476257 -0.046121820807456970
0.200716078281402588 -0.212105065584182739 0.037834718823432922 -0.088699765503406525 -0.035854876041412354 0.102436408400535583 -0.209792315959930420 0.128391817212104797 -0.104230783879756927 -0.116100840270519257 0.048774588853120804 -0.176101908087730408 -0.224194288253784180 -0.054246213287115097 0.061324372887611389 0.131348282098770142 -0.132516071200370789 -0.101200222969055176 0.018388764932751656 -0.171121135354042053 -0.193192511796951294 -0.143789485096931458 -0.211565896868705750 0.168705329298973083 -0.028560549020767212 -0.113412998616695404 0.054119560867547989 0.093460045754909515 -0.093211993575096130 -0.042210415005683899 -0.227987974882125854 0.128025949001312256 -0.178210541605949402 0.042317446321249008 0.080644063651561737 0.044424958527088165 0.158989608287811279 0.085530623793601990 -0.079757824540138245 -0.071523882448673248 -0.004915879108011723 0.221460878849029541 -0.142702713608741760 0.012135897763073444 -0.100132040679454803 0.100137107074260712 -0.069377921521663666 -0.177416265010833740 0.096874043345451355 -0.114109076559543610 -0.082440190017223358 -0.199701845645904541 -0.220400214195251465 -0.043465133756399155 -0.258217096328735352 -0.035263240337371826 0.147037819027900696 0.066488437354564667 0.111413396894931793 0.010990312322974205 -0.161708697676658630 0.060009125620126724 -0.075103282928466797 -0.115594565868377686 0.187554419040679932 -0.182789549231529236 0.137429386377334595 0.970872640609741211 -0.057230617851018906 0.013819683343172073 -0.078758090734481812 0.068044781684875488 -0.095919884741306305 0.098947547376155853 -0.026259068399667740 -0.063641004264354706 -0.430357068777084351 -0.063769705593585968 0.271481633186340332 -0.127735704183578491 -0.065640613436698914 -0.072011992335319519 0.131573081016540527 -0.070528969168663025 0.157754272222518921 0.096976362168788910 -0.053407594561576843 -0.211319595575332642 0.150448113679885864 -0.085649840533733368 0.049288075417280197 0.172341629862785339 0.099808178842067719 -0.100759461522102356 -0.004056920763105154 0.185287207365036011 0.080896571278572083 -0.007939341478049755 -0.154113769531250000 -0.019092267379164696
0.002280662767589092 0.092051722109317780 -0.041931875050067902 -0.141805425286293030 -0.010229264385998249 -0.257181972265243530 0.029725151136517525 -0.037565741688013077 0.060504283756017685 0.183570772409439087 0.131121605634689331 -0.185455277562141418 0.077593863010406494 0.040915314108133316 0.091586120426654816 -0.165733918547630310 -0.084243014454841614 0.129849463701248169 0.062127858400344849 0.065237656235694885 -0.000146167862112634 0.134040504693984985 0.188333213329315186 -0.019598366692662239 0.326418220996856689 0.035314723849296570 0.105122163891792297 -0.148790448904037476 0.147771582007408142 0.116576291620731354 0.083353474736213684 0.022707177326083183 0.125530764460563660 -0.153605103492736816 -0.127555862069129944 0.009380890987813473 0.204917982220649719 -0.005597696173936129 -0.166311010718345642 -0.034663315862417221 -0.025251973420381546 0.115003883838653564 0.095613576471805573 -0.119154058396816254 -0.084481433033943176 -0.017623858526349068 0.024431837722659111 0.006873758044093847 0.116428591310977936 -0.025449709966778755 0.306678980588912964 -0.130348697304725647 0.036056637763977051 -0.073435202240943909 -0.303946375846862793 0.156715825200080872 -0.152426838874816895 0.105255179107189178 0.026407903060317039 -0.188855990767478943 0.270896255970001221 -0.099977396428585052 0.062561415135860443 -0.111048929393291473 -0.074565641582012177 -0.199641421437263489 -0.054498367011547089 -0.000764336611609906 0.099655292928218842 0.232114881277084351 -0.068958535790443420 -0.170077800750732422 0.083132602274417877 0.040762513875961304 0.009227843023836613 -0.355369210243225098 -0.130645543336868286 0.024440076202154160 -0.007546416483819485 0.298844337463378906 -0.123283050954341888 -0.044028509408235550 -0.071565717458724976 -0.088733874261379242 -0.066262491047382355 -0.146994993090629578 0.114084199070930481 0.037977464497089386 -0.061144217848777771 0.036195054650306702 -0.075047604739665985 0.066808283329010010 0.006225689779967070 -0.041120149195194244 0.054515860974788666 -0.123865082859992981 -0.020338533446192741 0.141047626733779907 -0.120926044881343842 -0.043852753937244415
0.247832328081130981 0.118682354688644409 0.063045501708984375 -0.028951877728104591 -0.071189492940902710 0.053413588553667068 0.155942052602767944 -0.123322539031505585 0.065015114843845367 0.385549157857894897 -0.091758742928504944 0.096128016710281372 0.233122661709785461 -0.281530052423477173 -0.052342418581247330 -0.008675409480929375 -0.028886809945106506 -0.169282451272010803 0.159016400575637817 -0.124568901956081390 -0.209380194544792175 0.039080988615751266 -0.334648221731185913 -0.060903124511241913 -0.191104769706726074 0.132137984037399292 -0.133004680275917053 0.128431349992752075 0.043196141719818115 -0.064424909651279449 0.112131312489509583 -0.155802607536315918 0.108603186905384064 0.114942170679569244 0.026984177529811859 -0.005872665904462337 -0.175942122936248779 0.109529651701450348 0.147679522633552551 -0.021893333643674850 0.090429186820983887 0.111135654151439667 0.026274699717760086 0.089448064565658569 0.098714865744113922 0.071297213435173035 -0.003033598186448216 -0.018979538232088089 0.160375803709030151 -0.137489870190620422 0.120390608906745911 0.140893712639808655 0.030460078269243240 0.033192627131938934 -0.124749049544334412 -0.204549118876457214 0.082899607717990875 0.051817871630191803 0.020248349756002426 -0.088560588657855988 -0.019421679899096489 -0.070921391248703003 0.232092812657356262 0.070580065250396729 0.116535991430282593 -0.043291501700878143 0.055559702217578888 0.454560011625289917 0.182889237999916077 -0.402394860982894897 0.049896601587533951 -0.077608637511730194 0.107667349278926849 0.026090517640113831 -0.068908810615539551 -0.051792524755001068 -0.235235914587974548 0.035542432218790054 -0.140531703829765320 -0.086966760456562042 -0.454184383153915405 0.089463129639625549 -0.088372923433780670 -0.144318431615829468 0.394229918718338013 0.083452627062797546 -0.216434016823768616 0.023371120914816856 0.095259226858615875 0.143845215439796448 0.035071901977062225 -0.150147557258605957 0.109463475644588470 -0.142713189125061035 -0.007954130880534649 0.144728347659111023 -0.009338409639894962 0.063529863953590393 -0.170860394835472107 -0.241692259907722473
-0.189637154340744019 -0.069432124495506287 0.183164760470390320 0.051472645252943039 0.088658668100833893 -0.222604036331176758 0.114117167890071869 0.192737728357315063 -0.079994142055511475 -0.008225062862038612 -0.196176990866661072 -0.150567695498466492 -0.052433345466852188 0.282439231872558594 0.064173653721809387 -0.082492880523204803 -0.232069626450538635 0.114842988550662994 0.192178472876548767 -0.000993051333352923 -0.072414055466651917 0.170682817697525024 -0.070999838411808014 -0.041843272745609283 -0.263739675283432007 0.047183759510517120 0.021167336031794548 -0.076347008347511292 -0.011451510712504387 -0.074165783822536469 0.099144801497459412 0.218679040670394897 0.038827110081911087 0.005852882750332355 0.020532958209514618 0.169349730014801025 -0.074454165995121002 0.032902646809816360 0.091606758534908295 -0.199252262711524963 0.123636379837989807 -0.218259394168853760 0.170321881771087646 0.046072211116552353 -0.045614749193191528 0.217447742819786072 -0.055945582687854767 -0.065162181854248047 -0.128728687763214111 0.072992719709873199 0.216218695044517517 -0.142087563872337341 -0.078809596598148346 -0.390090823173522949 -0.217778429388999939 -0.069448463618755341 -0.029247313737869263 -0.184670120477676392 0.202247440814971924 0.150805890560150146 -0.114828035235404968 -0.050788272172212601 -0.020012395456433296 -0.006982618011534214 -0.198978200554847717 0.084081269800662994 -0.004424944985657930 -0.334186464548110962 -0.128192022442817688 -0.068468280136585236 -0.019587757065892220 0.052081611007452011 0.035847809165716171 -0.044549487531185150 0.229269683361053467 -0.058150574564933777 -0.043867494910955429 -0.028139725327491760 0.133478403091430664 -0.088638432323932648 -0.011377385817468166 -0.168024912476539612 0.250250369310379028 -0.047038849443197250 -0.035117484629154205 0.005526272114366293 0.188810184597969055 -0.162588059902191162 0.065161213278770447 -0.051608789712190628 -0.163548603653907776 -0.136508867144584656 0.159067258238792419 -0.019207360222935677 -0.031133420765399933 -0.417277246713638306 -0.319599807262420654 -0.105436198413372040 0.030713988468050957 0.115572944283485413
-0.179940208792686462 -0.074881948530673981 -0.161832660436630249 0.092329934239387512 -0.134002730250358582 -0.124751918017864227 0.106983222067356110 0.111735649406909943 -0.179265901446342468 -0.009351219050586224 -0.065407127141952515 0.074606746435165405 -0.137185603380203247 0.027883818373084068 0.128011375665664673 0.112833179533481598 -0.154035300016403198 -0.106887854635715485 -0.079932250082492828 -0.168856143951416016 0.028304474428296089 0.067628554999828339 -0.078262522816658020 0.189301222562789917 -0.025012305006384850 0.086157739162445068 0.039121638983488083 0.108575984835624695 0.152713775634765625 0.112587645649909973 0.010940040461719036 0.023618241772055626 -0.138235375285148621 -0.073929503560066223 -0.007789509370923042 0.125920787453651428 -0.109448313713073730 -0.135596558451652527 0.005899561569094658 -0.219312861561775208 -0.100016951560974121 0.040542226284742355 0.168255746364593506 0.049890972673892975 0.057412222027778625 -0.067434683442115784 0.028000691905617714 -0.057412322610616684 0.087742611765861511 -0.073799185454845428 0.358975887298583984 0.126358196139335632 0.025143891572952271 0.050312280654907227 -0.188739106059074402 0.156352490186691284 -0.179670304059982300 -0.121213495731353760 0.113666355609893799 0.097560435533523560 0.068524911999702454 0.078969731926918030 -0.125827059149742126 0.146710768342018127 -0.156528145074844360 -0.017745334655046463 0.114693500101566315 0.020945858210325241 0.121085323393344879 0.187541157007217407 -0.095550686120986938 0.125606030225753784 -0.151079699397087097 0.060786277055740356 0.127788648009300232 0.032855190336704254 -0.079417124390602112 0.049416836351156235 -0.024229997768998146 0.118291378021240234 -0.021566476672887802 0.089321665465831757 0.007536722812801600 0.024942446500062943 0.095471918582916260 0.139735653996467590 -0.099889568984508514 0.119255177676677704 0.194673314690589905 0.087879180908203125 -0.039117112755775452 -0.012743268162012100 0.157824292778968811 0.026233347132802010 0.060746964067220688 -0.143649846315383911 0.114246651530265808 -0.135461017489433289 0.133707910776138306 0.034688744693994522
0.025515200570225716 -0.093322731554508209 0.063999757170677185 0.007200581952929497 0.067564338445663452 0.166184082627296448 0.178975939750671387 0.092477060854434967 -0.005285988096147776 0.073337294161319733 -0.161611512303352356 -0.062974348664283752 -0.028528125956654549 -0.270562946796417236 -0.160992294549942017 0.077083326876163483 -0.051292151212692261 -0.024010321125388145 0.004709214437752962 0.020079609006643295 0.046588536351919174 0.089845716953277588 0.070214152336120605 -0.134925812482833862 -0.049703139811754227 0.148317471146583557 0.130754292011260986 -0.141114622354507446 0.105282291769981384 -0.043005153536796570 0.174477547407150269 0.061323303729295731 -0.050361078232526779 -0.030157042667269707 -0.087808139622211456 0.063028983771800995 0.017010208219289780 0.145798683166503906 0.122907966375350952 -0.051794979721307755 -0.016471510753035545 0.052966065704822540 -0.144527405500411987 -0.014569622464478016 0.158485636115074158 0.091794244945049286 0.044317778199911118 -0.085633680224418640 -0.072726473212242126 0.015629196539521217 -0.188855871558189392 0.049586020410060883 0.003982361406087875 -0.138905629515647888 0.093410372734069824 -0.105178810656070709 0.138848036527633667 -0.057207744568586349 -0.073376752436161041 0.104650244116783142 -0.039217926561832428 0.139462828636169434 0.035555753856897354 -0.031818147748708725 -0.092776045203208923 0.217870473861694336 0.126073136925697327 0.048560723662376404 0.048004664480686188 -0.236249193549156189 0.081005267798900604 0.095217742025852203 0.018911838531494141 0.031997069716453552 0.120094865560531616 0.107359081506729126 0.035259265452623367 -0.154382467269897461 -0.068572558462619781 -0.231307730078697205 0.008515947498381138 0.021026743575930595 -0.111860580742359161 -0.118503108620643616 -0.120052874088287354 0.035804785788059235 -0.115414872765541077 -0.055506702512502670 -0.110956653952598572 -0.141091793775558472 -0.013189585879445076 0.051806885749101639 -0.130951181054115295 0.160207808017730713 0.135353162884712219 0.085209064185619354 -0.084678530693054199 0.127839744091033936 0.114340797066688538 -0.092489421367645264
-0.080147445201873779 0.021044131368398666 0.119661651551723480 0.038174755871295929 0.034499879926443100 -0.220632493495941162 -0.049001775681972504 0.358694672584533691 0.035430409014225006 0.095468968152999878 0.466112166643142700 0.063352160155773163 -0.218739464879035950 0.219718649983406067 0.068701565265655518 0.117760688066482544 -0.128142848610877991 -0.134848028421401978 -0.199782446026802063 -0.084588624536991119 0.009092240594327450 0.270630717277526855 0.174542441964149475 0.152895018458366394 0.195309951901435852 -0.328631490468978882 -0.177353292703628540 -0.249444440007209778 -0.126836106181144714 -0.028795903548598289 -0.046039633452892303 -0.004749252926558256 -0.050494346767663956 -0.084817804396152496 -0.120792560279369354 -0.114964701235294342 0.235832169651985168 -0.076150327920913696 -0.041979439556598663 -0.167249336838722229 0.164486810564994812 -0.162084221839904785 -0.003611060092225671 -0.018579512834548950 -0.143702387809753418 0.155469328165054321 0.052588421851396561 0.287346541881561279 0.040548611432313919 0.136618867516517639 0.137666732072830200 0.155825495719909668 0.062799505889415741 0.066238611936569214 -0.003447982016950846 0.057605739682912827 0.105875603854656219 -0.083794407546520233 0.155813395977020264 -0.116485200822353363 -0.025710133835673332 0.066540464758872986 -0.147459551692008972 -0.178285494446754456 -0.351588487625122070 -0.149554789066314697 -0.054261486977338791 -0.391282767057418823 0.392606228590011597 -0.091672033071517944 -0.209509357810020447 0.057649150490760803 0.054102081805467606 -0.189379289746284485 0.131251409649848938 0.019500192254781723 0.241991430521011353 -0.136430829763412476 -0.109609544277191162 -0.235947966575622559 -0.135208666324615479 -0.114858604967594147 0.218508481979370117 0.044421900063753128 -0.040811441838741302 0.049662500619888306 -0.060402948409318924 0.130112856626510620 -0.005606314167380333 -0.288077086210250854 -0.076598882675170898 -0.020982965826988220 0.066746190190315247 0.058493454009294510 -0.176161453127861023 0.021420868113636971 0.201930135488510132 -0.236589729785919189 0.316053926944732666 0.137760683894157410
-0.073445104062557220 -0.143181741237640381 -0.054529987275600433 0.115777358412742615 -0.060284726321697235 -0.103056065738201141 0.079890370368957520 0.058055866509675980 0.062185827642679214 0.099306687712669373 -0.056694541126489639 0.031044812873005867 -0.277764290571212769 -0.146312326192855835 -0.326109796762466431 0.229535952210426331 0.122191831469535828 -0.049648091197013855 0.029440427199006081 -0.027383225038647652 0.143831655383110046 -0.075144879519939423 0.071265734732151031 0.069519795477390289 0.070316009223461151 0.167396381497383118 0.042066950350999832 -0.127451851963996887 -0.080305464565753937 -0.002119911834597588 0.302179932594299316 0.005256220232695341 -0.131758928298950195 0.047098029404878616 -0.104751609265804291 0.052342545241117477 -0.030872920528054237 -0.048200190067291260 -0.027469146996736526 -0.162937000393867493 0.068173676729202271 0.024438410997390747 0.181163206696510315 -0.015378348529338837 0.196867153048515320 0.198412641882896423 -0.073551893234252930 0.266703784465789795 0.060741085559129715 -0.138817265629768372 0.101600244641304016 -0.143684685230255127 0.187427386641502380 -0.024681054055690765 0.191099360585212708 0.142122253775596619 0.162365227937698364 -0.162368491291999817 -0.020295418798923492 0.055673990398645401 -0.087418355047702789 -0.007381939329206944 -0.130182549357414246 -0.125251322984695435 0.089685723185539246 0.317487657070159912 0.134216353297233582 -1.396610856056213379 0.037102796137332916 -0.018293494358658791 -0.064202301204204559 -0.053320188075304031 -0.085555069148540497 -0.011293514631688595 0.069217018783092499 0.133806124329566956 0.162414267659187317 0.098367683589458466 -0.323297262191772461 0.069481752812862396 0.185748085379600525 0.166408881545066833 -0.054744102060794830 0.065231919288635254 -0.170035108923912048 0.197047755122184753 -0.117285676300525665 0.193260982632637024 -0.033424880355596542 0.239312410354614258 0.049077454954385757 -0.063537068665027618 0.043470252305269241 0.002201645169407129 0.162809655070304871 0.146141320466995239 -0.132887795567512512 -0.005090363789349794 -0.110947221517562866 0.005138151347637177
0.160630747675895691 -0.092075467109680176 -0.088290013372898102 0.072706185281276703 0.048595800995826721 -0.029284302145242691 0.006673598662018776 0.031900130212306976 0.111991010606288910 0.218948125839233398 0.067270718514919281 0.123532429337501526 -0.191065832972526550 -0.039391584694385529 0.045038666576147079 -0.104020029306411743 -0.099055029451847076 -0.051763478666543961 -0.160519078373908997 0.011088191531598568 0.087533198297023773 0.027279155328869820 0.264345854520797729 -0.125848293304443359 -0.210414499044418335 0.135975286364555359 0.151038482785224915 0.172054782509803772 -0.059374026954174042 -0.135730773210525513 0.064742416143417358 -0.146225810050964355 0.037224415689706802 -0.142974227666854858 0.122377119958400726 0.046325948089361191 0.112383842468261719 0.072588123381137848 0.047642774879932404 0.165393039584159851 -0.131154298782348633 0.084068730473518372 0.025245493277907372 0.062576666474342346 0.024201594293117523 -0.115548290312290192 -0.153711423277854919 0.108254827558994293 -0.253019750118255615 -0.067708566784858704 -0.137975230813026428 -0.079803168773651123 0.130134463310241699 0.074134461581707001 0.038809370249509811 0.067822381854057312 0.116366781294345856 0.121297366917133331 -0.125876858830451965 -0.106230348348617554 -0.118918225169181824 0.028062548488378525 -0.183029949665069580 -0.001578634371981025 0.122948378324508667 0.054837085306644440 -0.120727628469467163 -0.130286619067192078 0.120200000703334808 0.114963598549365997 -0.160484179854393005 0.058253221213817596 -0.058297373354434967 0.206331953406333923 -0.150633126497268677 -0.033287003636360168 -0.047326013445854187 0.012993944808840752 -0.072905763983726501 0.119742274284362793 0.257183998823165894 0.141674414277076721 -0.082545973360538483 -0.105268560349941254 -0.048771772533655167 0.136547192931175232 -0.127265274524688721 0.052518788725137711 0.060154538601636887 0.173628583550453186 -0.058177452534437180 -0.168096929788589478 0.124963395297527313 -0.145245566964149475 -0.083706945180892944 -0.098210193216800690 -0.100067250430583954 -0.163916632533073425 -0.129610553383827209 0.065156459808349609
0.007621790282428265 -0.058991931378841400 -0.188662469387054443 0.016751574352383614 0.107861422002315521 -0.024251420050859451 0.042931534349918365 -0.110201098024845123 -0.069986268877983093 -0.248024687170982361 -0.016844067722558975 -0.067636825144290924 -0.047666270285844803 -0.028407603502273560 0.012954747304320335 -0.125095322728157043 0.021059062331914902 -0.087389662861824036 0.104318708181381226 -0.154584422707557678 -0.120668575167655945 -0.029429454356431961 0.015446841716766357 0.028573777526617050 0.109843358397483826 -0.153785929083824158 -0.149078592658042908 0.215958759188652039 0.004453444853425026 -0.065415956079959869 0.060279637575149536 0.293590426445007324 -0.139565154910087585 -0.044202029705047607 0.029658218845725060 0.169145464897155762 0.035741146653890610 -0.069354683160781860 -0.048956803977489471 -0.015264714136719704 0.154163852334022522 -0.089295439422130585 0.424509376287460327 -0.365372717380523682 -0.226037919521331787 -0.149769589304924011 -0.102007664740085602 0.080658212304115295 0.120266757905483246 0.132605507969856262 0.488980978727340698 0.074222259223461151 -0.131307512521743774 -0.198632955551147461 -0.052737064659595490 0.139995768666267395 -0.136829495429992676 0.085499629378318787 -0.169729247689247131 0.092382922768592834 -0.057876124978065491 -0.146087452769279480 0.076087720692157745 0.043042436242103577 -0.065469227731227875 -0.001722610206343234 0.038045365363359451 -0.458611369132995605 0.089437343180179596 0.242899522185325623 -0.110534653067588806 0.071219101548194885 -0.106414258480072021 -0.136709526181221008 -0.028373554348945618 0.155178487300872803 0.310445010662078857 0.164345785975456238 -0.026229960843920708 0.051469836384057999 -0.073383539915084839 0.018228877335786819 -0.001699179410934448 0.098629765212535858 -0.382074803113937378 -0.008696325123310089 0.117507375776767731 -0.003585820319131017 0.014919570647180080 -0.067112460732460022 -0.003182356245815754 0.019062740728259087 0.178079128265380859 0.033271573483943939 0.025805201381444931 -0.126707091927528381 0.031271703541278839 0.072505369782447815 0.196484789252281189 0.241168648004531860
-0.014952281489968300 -0.033797960728406906 -0.157810524106025696 -0.090377323329448700 -0.142483323812484741 0.156902641057968140 0.168844297528266907 0.000220829431782477 0.061210539191961288 -0.125183552503585815 -0.039482120424509048 0.187857970595359802 -0.058305300772190094 -0.213328212499618530 0.036427740007638931 0.061370663344860077 -0.070183433592319489 0.113785639405250549 0.128613695502281189 -0.071633271872997284 -0.007758345454931259 0.015680519863963127 0.170449092984199524 0.021609053015708923 -0.166958913207054138 0.005684985313564539 0.009034328162670135 -0.099963523447513580 -0.121471703052520752 0.049252737313508987 -0.113687537610530853 -0.111527360975742340 0.046654060482978821 -0.107179939746856689 -0.203043401241302490 -0.336183607578277588 0.074501529335975647 0.117328494787216187 0.166884094476699829 0.159225597977638245 -0.166394785046577454 -0.058128766715526581 0.110658220946788788 0.005809042137116194 0.164290636777877808 -0.048793930560350418 0.285998702049255371 0.027102507650852203 -0.047449961304664612 0.139208942651748657 -0.047873783856630325 -0.132399350404739380 0.128364250063896179 -0.073769316077232361 -0.002666454529389739 0.125697568058967590 -0.023196548223495483 -0.008782013319432735 -0.036972943693399429 -0.116934120655059814 -0.161747291684150696 0.023255452513694763 -0.041126433759927750 0.049467977136373520 -0.085563458502292633 0.030588444322347641 0.008097571320831776 0.079941153526306152 0.049781970679759979 0.077028930187225342 -0.100622497498989105 -0.015284080989658833 0.159587100148200989 -0.116821616888046265 -0.093861788511276245 0.172881662845611572 0.131602615118026733 -0.029251432046294212 0.036215428262948990 -0.066643752157688141 0.554737925529479980 -0.065535031259059906 -0.000258254643995315 0.139829650521278381 -0.056152775883674622 -0.020269323140382767 0.047743905335664749 -0.105225063860416412 0.027064388617873192 0.104284673929214478 0.041554946452379227 -0.113206200301647186 -0.088143274188041687 0.074607208371162415 0.020938415080308914 -0.130738213658332825 0.093976333737373352 0.205162093043327332 0.040225017815828323 0.170070976018905640
0.049278467893600464 -0.145445793867111206 -0.062504827976226807 -0.410685271024703979 0.137937560677528381 -0.114690043032169342 0.150830745697021484 0.029471436515450478 0.099083058536052704 -0.036922965198755264 0.118609242141246796 0.171590909361839294 0.011688343249261379 -0.161565035581588745 0.076093569397926331 0.049125287681818008 0.032947797328233719 -0.139471024274826050 -0.042225386947393417 -0.109355270862579346 -0.047693911939859390 -0.149642437696456909 0.191492110490798950 -0.029849583283066750 0.100562691688537598 -0.058770265430212021 -0.071572184562683105 0.105064317584037781 -0.027002498507499695 -0.089304596185684204 -0.077010944485664368 -0.281150758266448975 0.216872364282608032 -0.006100813858211040 -0.164555221796035767 0.081657081842422485 0.069520466029644012 0.056431941688060760 -0.100016400218009949 0.194369137287139893 -0.124820604920387268 0.030257616192102432 -0.008261610753834248 0.190377593040466309 0.143968254327774048 0.126616910099983215 -0.129481077194213867 -0.196122571825981140 -0.187316700816154480 -0.068247638642787933 -0.606992840766906738 0.161218509078025818 0.116576433181762695 0.094608128070831299 0.149756282567977905 0.087030686438083649 0.180050045251846313 -0.006721373181790113 -0.117527909576892853 0.094858326017856598 0.119860738515853882 0.108393937349319458 0.080326870083808899 -0.149934813380241394 -0.100606761872768402 0.114818125963211060 0.053075749427080154 0.118984036147594452 -0.139492586255073547 0.041373580694198608 0.039193987846374512 -0.131908118724822998 0.079346574842929840 -0.071175560355186462 0.110169678926467896 0.032162409275770187 0.043040394783020020 0.015690149739384651 0.123992532491683960 -0.166165024042129517 0.118111811578273773 0.101248987019062042 -0.087289050221443176 0.091875724494457245 0.014483187347650528 0.102975219488143921 -0.113746128976345062 -0.079442590475082397 -0.267850756645202637 -0.042918615043163300 0.031007733196020126 0.081532232463359833 -0.130133748054504395 -0.134249567985534668 0.134953439235687256 0.001966827549040318 0.117076642811298370 0.072882026433944702 0.077643252909183502 -0.193290546536445618
0.056204997003078461 0.132622227072715759 -0.209981739521026611 0.069141767919063568 -0.209793001413345337 0.039243269711732864 0.042398776859045029 0.219501331448554993 0.010961117222905159 -0.206459745764732361 0.023889161646366119 -0.242371514439582825 0.133953526616096497 0.122046843171119690 0.043788623064756393 0.104921832680702209 0.107621617615222931 -0.095939569175243378 0.163440346717834473 -0.158735960721969604 -0.168209701776504517 0.150710716843605042 -0.043723512440919876 0.096776343882083893 0.149979472160339355 -0.078083783388137817 -0.082537747919559479 0.185565769672393799 0.006055205129086971 0.241248801350593567 -0.159727320075035095 0.407763510942459106 0.114372983574867249 0.102873072028160095 0.028204901143908501 -0.087464660406112671 0.008782430551946163 -0.209043949842453003 -0.069520220160484314 -0.162020519375801086 0.081711567938327789 -0.264328479766845703 0.364870309829711914 -0.068721018731594086 -0.038820795714855194 0.196220174431800842 0.027854481711983681 0.044361189007759094 0.037711530923843384 0.029928037896752357 0.222822546958923340 -0.177593365311622620 -0.048049263656139374 -0.352074176073074341 -0.009742343798279762 -0.049190830439329147 -0.127184778451919556 0.115120947360992432 -0.083360694348812103 -0.057117026299238205 -0.096074253320693970 -0.239101663231849670 0.104336403310298920 0.253744274377822876 -0.021703686565160751 0.099829368293285370 0.181609898805618286 0.115195810794830322 0.146346777677536011 0.142154127359390259 0.051512610167264938 0.002405545441433787 0.061418171972036362 0.112263739109039307 0.017461096867918968 0.058993980288505554 0.001759955775924027 0.128411009907722473 0.015406317077577114 0.034218199551105499 -0.314011931419372559 -0.007487873081117868 0.138794749975204468 0.343307465314865112 -0.147871255874633789 -0.208877399563789368 -0.096376277506351471 0.218529686331748962 0.334892481565475464 -0.029186233878135681 -0.130569338798522949 0.220122426748275757 0.289641469717025757 0.184851497411727905 -0.042975794523954391 0.021174289286136627 -0.045290719717741013 0.071788884699344635 0.272683709859848022 0.133558481931686401
-0.124483995139598846 -0.044625077396631241 0.128721669316291809 0.152141198515892029 -0.106158010661602020 0.221896886825561523 -0.009350232779979706 -0.330354243516921997 -0.154034942388534546 -0.145552083849906921 -0.424570977687835693 -0.146422117948532104 0.005305463448166847 -0.457966804504394531 -0.126817867159843445 -0.043271292001008987 -0.018427938222885132 -0.058767888695001602 0.078635059297084808 -0.107696942985057831 0.029958723112940788 -0.287416934967041016 0.071714006364345551 -0.236158266663551331 0.107455857098102570 0.112220250070095062 0.195421546697616577 0.389119952917098999 -0.100524157285690308 -0.126085087656974792 -0.062940113246440887 -0.070381432771682739 0.157000616192817688 -0.133397027850151062 -0.087881796061992645 0.001457489328458905 0.039693776518106461 0.047691509127616882 -0.019068753346800804 0.168764963746070862 0.141461372375488281 0.193186685442924500 0.136186018586158752 0.114644326269626617 -0.046486914157867432 -0.088802538812160492 0.010925910435616970 -0.282650172710418701 0.035405185073614120 0.014694165438413620 -0.076084904372692108 0.000222601054701954 0.141889482736587524 -0.090325310826301575 0.067695029079914093 0.024820512160658836 -0.177614256739616394 0.044947363436222076 -0.138927087187767029 -0.000037894191336818 -0.105891786515712738 -0.051070388406515121 0.182417035102844238 0.120720475912094116 0.131129786372184753 0.096310146152973175 -0.104163892567157745 0.443160593509674072 -0.056951545178890228 -0.250501871109008789 0.137886270880699158 0.203371375799179077 0.162825301289558411 0.148411870002746582 0.009597787633538246 0.066681928932666779 -0.134257674217224121 -0.031624414026737213 0.190468952059745789 0.108095012605190277 -0.098979271948337555 0.047269620001316071 0.012226607650518417 -0.163004264235496521 -0.010603322647511959 0.126985177397727966 -0.016542965546250343 -0.038920808583498001 -0.007961486466228962 0.156945779919624329 -0.027677211910486221 0.026749117299914360 -0.017179330810904503 0.199809446930885315 0.308408975601196289 0.249490439891815186 -0.006525104399770498 0.060003180056810379 -0.310897409915924072 0.148466572165489197
