#Layer 3 Biases:
-0.026762334629893303 0.025300478562712669 0.006517574191093445 0.054020155221223831 -0.063092343509197235 0.052578918635845184 -0.077608197927474976 0.114509910345077515 -0.034336309880018234 0.059862665832042694 -0.081131346523761749 0.080967418849468231 0.113290078938007355 0.008614694699645042 -0.031381510198116302 -0.032448399811983109 -0.125714942812919617 0.082202412188053131 0.017920816317200661 -0.024555979296565056 -0.098537750542163849 0.071275696158409119 0.075298666954040527 -0.076842769980430603 0.078677490353584290 0.132687583565711975 -0.022483391687273979 -0.014488946646451950 -0.021926250308752060 -0.089878395199775696 0.049292199313640594 -0.137036100029945374 -0.005754558369517326 -0.025885760784149170 -0.012200437486171722 0.063080683350563049 -0.046372175216674805 -0.074436724185943604 0.033864084631204605 -0.023488909006118774 -0.039616379886865616 0.125507608056068420 0.035796377807855606 0.026345137506723404 0.082951754331588745 -0.085905544459819794 0.083835244178771973 -0.009111088700592518 -0.071349099278450012 -0.082157887518405914 0.006398113444447517 0.016668174415826797 0.024383602663874626 -0.014933886006474495 0.105516515672206879 -0.062369078397750854 -0.041917990893125534 -0.081896796822547913 -0.122392922639846802 -0.089322112500667572 -0.057971548289060593 -0.013592192903161049 0.014540860429406166 -0.032501421868801117 0.040415059775114059 -0.039688393473625183 -0.113637991249561310 -0.132492721080780029 -0.102756120264530182 -0.077074989676475525 0.074818179011344910 0.031359802931547165 -0.157399058341979980 -0.116753250360488892 0.020876819267868996 -0.083715490996837616 0.003530077636241913 0.048336081206798553 0.023356594145298004 -0.008768213912844658 -0.003462909488007426 -0.100439012050628662 0.042784254997968674 0.028350068256258965 -0.029750049114227295 0.087694652378559113 -0.058346822857856750 -0.044376894831657410 -0.066358193755149841 -0.073059096932411194 0.040239613503217697 0.078043624758720398 0.027150118723511696 0.041880026459693909 -0.091649159789085388 0.016190964728593826 0.043617285788059235 0.042613614350557327 -0.064180411398410797 -0.100950993597507477
