#Layer 4 Biases:
-0.083414457738399506 -0.029850352555513382 -0.016777675598859787 0.096784368157386780 -0.049108989536762238 -0.037188693881034851 0.042316235601902008 -0.042598024010658264 0.039995186030864716 -0.011446756310760975 -0.034103307873010635 -0.097253136336803436 -0.108081139624118805 -0.017843892797827721 -0.067171439528465271 0.013789370656013489 0.035700425505638123 -0.150371581315994263 -0.059735763818025589 0.006352904252707958 0.070846021175384521 -0.004526330158114433 0.039481364190578461 -0.057016309350728989 -0.098155409097671509 -0.039655018597841263 0.082100220024585724 0.033112917095422745 -0.028359575197100639 0.066476017236709595 0.050992235541343689 0.049648571759462357 0.055771175771951675 -0.004643767606467009 -0.148805856704711914 0.052982941269874573 -0.083909586071968079 0.080826856195926666 -0.097118772566318512 -0.028854953125119209 -0.040691804140806198 -0.097769886255264282 -0.092346958816051483 0.003556787269189954 0.129096508026123047 -0.138136968016624451 -0.110597938299179077 0.015846911817789078 -0.004284208174794912 -0.042133647948503494 -0.007049584295600653 -0.036663275212049484 -0.012810319662094116 0.042071759700775146 -0.076924458146095276 0.049577925354242325 0.025854026898741722 -0.059217121452093124 0.056498330086469650 -0.072529166936874390 -0.015811890363693237 -0.003716863458976150 0.003859265940263867 -0.076604515314102173 0.062588870525360107 0.108359940350055695 -0.062227308750152588 0.050527289509773254 0.026643805205821991 0.096037805080413818 0.023799177259206772 -0.023538578301668167 -0.011121425777673721 -0.049280606210231781 0.055526532232761383 0.122622542083263397 0.085627205669879913 -0.019646687433123589 -0.032568167895078659 0.050695393234491348 -0.116952069103717804 0.030214248225092888 -0.082025460898876190 0.009288080967962742 -0.021405396983027458 0.035595443099737167 0.034559946507215500 -0.110820174217224121 0.080206893384456635 0.142872825264930725 0.017986608669161797 -0.008219195529818535 -0.014276130124926567 -0.052921183407306671 0.035097397863864899 0.041061446070671082 0.059610806405544281 0.018258195370435715 0.053312066942453384 0.021160723641514778
