#Layer 1 Biases:
0.045528285205364227 -0.035870425403118134 -0.050495885312557220 -0.031799819320440292 -0.068150341510772705 -0.053472124040126801 0.090789593756198883 -0.069306895136833191 -0.025874011218547821 0.081441931426525116 0.051141135394573212 -0.086162716150283813 -0.060893468558788300 -0.065970100462436676 -0.084028571844100952 -0.080515496432781219 0.049293771386146545 0.086190305650234222 0.100682802498340607 0.062111701816320419 0.077087447047233582 0.058805122971534729 0.032857105135917664 -0.069087564945220947 -0.022155642509460449 -0.054144058376550674 0.061053048819303513 -0.006073271855711937 0.081100061535835266 -0.066390290856361389 0.101335726678371429 0.064587458968162537 0.004510066006332636 0.029511349275708199 -0.018919453024864197 -0.055733598768711090 0.085775859653949738 -0.057481598109006882 0.015033986419439316 0.024888928979635239 -0.122893176972866058 0.059287708252668381 -0.134387448430061340 -0.095679543912410736 -0.086497552692890167 -0.114576555788516998 -0.005189125891774893 0.033761791884899139 0.033061411231756210 -0.024159634485840797 0.061296470463275909 -0.039822865277528763 0.031101662665605545 -0.087222695350646973 0.023100897669792175 -0.087424427270889282 -0.057959243655204773 -0.024265859276056290 -0.003294694237411022 -0.045729018747806549 -0.082073867321014404 -0.049569703638553619 -0.044298253953456879 -0.059781167656183243 -0.140844613313674927 -0.087820850312709808 -0.063799299299716949 -0.110153444111347198 -0.186195909976959229 0.007357098162174225 -0.051372211426496506 -0.061526756733655930 -0.067902140319347382 -0.001939357840456069 0.043768990784883499 -0.029904367402195930 -0.058862395584583282 -0.045177552849054337 -0.119229532778263092 0.071744784712791443 0.043341707438230515 -0.079189680516719818 -0.069580309092998505 0.022692374885082245 0.026018632575869560 0.131723791360855103 -0.058790013194084167 0.063703097403049469 -0.051526535302400589 -0.103030703961849213 0.036531768739223480 -0.087762624025344849 -0.084138303995132446 0.119747444987297058 0.107904374599456787 -0.103577680885791779 0.001336628803983331 0.023279007524251938 0.034113749861717224 -0.099682271480560303
