#Layer 2 Biases:
-0.060562886297702789 0.027783975005149841 0.017357051372528076 -0.148503437638282776 0.024867158383131027 -0.103478401899337769 -0.060005359351634979 0.061488911509513855 0.016198646277189255 -0.015781369060277939 0.021108219400048256 -0.048962339758872986 -0.010815906338393688 0.063312396407127380 0.020167209208011627 0.013096401467919350 -0.020366810262203217 -0.098395347595214844 -0.027514966204762459 -0.005958659574389458 -0.029979245737195015 0.026337321847677231 0.028876166790723801 0.034406498074531555 -0.080564171075820923 0.027821565046906471 -0.004773896653205156 0.049928840249776840 -0.046567711979150772 0.016069013625383377 -0.042796082794666290 0.059346228837966919 0.034971062093973160 0.009069495834410191 0.009969910606741905 0.025691781193017960 -0.056548893451690674 0.058225482702255249 0.041995458304882050 0.017366793006658554 0.053187903016805649 -0.023587901145219803 0.062364406883716583 0.127656966447830200 -0.039629101753234863 -0.030418358743190765 -0.014141343533992767 -0.013213745318353176 0.103629015386104584 0.037373539060354233 0.070070512592792511 -0.040396161377429962 0.064998231828212738 -0.037376951426267624 -0.020257849246263504 0.081624440848827362 0.012467069551348686 -0.132287532091140747 0.043556991964578629 -0.104956105351448059 0.015634475275874138 0.066456437110900879 0.016618318855762482 -0.045641027390956879 0.070794835686683655 -0.011842036619782448 -0.037320747971534729 0.105914026498794556 0.108413740992546082 0.066313147544860840 0.097532428801059723 0.110219493508338928 -0.008083709515631199 0.020901540294289589 0.046844270080327988 -0.037033572793006897 0.017759609967470169 -0.060047842562198639 0.007612175773829222 0.023039396852254868 -0.054174713790416718 0.102077491581439972 0.012673666700720787 0.065589092671871185 -0.023339947685599327 -0.048690371215343475 -0.065834999084472656 -0.009882965125143528 0.067839778959751129 0.072086542844772339 -0.051461070775985718 -0.060776229947805405 0.047695338726043701 -0.008004397153854370 -0.097583733499050140 -0.016768652945756912 0.105814814567565918 0.039872251451015472 0.082953587174415588 0.141742601990699768
