#Layer 6 Biases:
0.047739703208208084 0.055547121912240982 0.016377435997128487 0.042790591716766357 -0.090194121003150940 0.006551559548825026 -0.031213222071528435 -0.015092356130480766 -0.046170406043529510 0.045969869941473007 0.057814422994852066 -0.057493790984153748 0.012398684397339821 -0.012272492051124573 0.012725409120321274 0.032785829156637192 0.048456467688083649 -0.009435096755623817 -0.007039781659841537 -0.009531323798000813 0.014924202114343643 -0.002000503009185195 0.030631082132458687 0.006348885595798492 0.038799237459897995 -0.063082963228225708 0.007739200722426176 -0.028193000704050064 0.026236368343234062 -0.019341912120580673 -0.027635354548692703 -0.019766809418797493 -0.034599054604768753 0.056309524923563004 -0.001344211748801172 0.015466021373867989 0.014390925876796246 0.073425464332103729 0.018797630444169044 0.050498072057962418 0.050575602799654007 -0.049338672310113907 0.022514913231134415 -0.026688678190112114 0.041140455752611160 -0.022476959973573685 -0.009128958918154240 0.036965370178222656 0.019074546173214912 0.008136141113936901 0.030138278380036354 -0.023590577766299248 0.046440843492746353 -0.043480861932039261 0.113607406616210938 0.029699379578232765 0.020886654034256935 0.076752528548240662 -0.089242987334728241 0.011872389353811741 -0.071361050009727478 -0.060805741697549820 0.031484298408031464 0.002479037037119269 0.055828444659709930 -0.018937394022941589 0.018572272732853889 -0.021146498620510101 -0.030741302296519279 -0.067432530224323273 0.014868756756186485 -0.039287444204092026 0.007385542150586843 0.017221510410308838 -0.049533098936080933 -0.012899436987936497 0.032856028527021408 0.027067644521594048 -0.023744398728013039 0.059243056923151016 0.038819167762994766 -0.006896511651575565 -0.030989659950137138 0.041659478098154068 -0.044920369982719421 0.013519265688955784 -0.054646383970975876 0.033338457345962524 -0.012620605528354645 -0.060829162597656250 0.040114369243383408 0.012839298695325851 -0.016079083085060120 0.032036110758781433 0.026412548497319221 0.060602817684412003 -0.015621814876794815 -0.001465013017877936 0.061055336147546768 -0.037979673594236374
