#Layer 8 Weights:
-0.020481564104557037
-0.083652637898921967
0.105172067880630493
-0.078881517052650452
0.099733352661132812
-0.183199420571327209
0.114402063190937042
0.040839787572622299
0.180419117212295532
0.180047556757926941
0.024983644485473633
-0.169166535139083862
-0.121644258499145508
0.128137901425361633
-0.094664551317691803
-0.136839330196380615
-0.133530542254447937
-0.097390525043010712
-0.241987481713294983
0.173996046185493469
-0.123005665838718414
0.217513203620910645
0.080724969506263733
-0.003442096756771207
-0.180569753050804138
-0.006788153201341629
0.141940206289291382
0.176709637045860291
-0.201088458299636841
0.005716232117265463
0.084704786539077759
0.033003602176904678
-0.101463407278060913
-0.075963154435157776
0.121474869549274445
0.157512515783309937
0.001524619408883154
0.024372261017560959
-0.020942376926541328
-0.014878132380545139
-0.255700200796127319
0.217407435178756714
-0.187429681420326233
-0.080191589891910553
-0.177222281694412231
0.066468887031078339
0.179080381989479065
0.042399805039167404
0.203796714544296265
-0.151830554008483887
0.042310886085033417
0.160281196236610413
0.195118054747581482
-0.093023210763931274
0.022681975737214088
-0.187545582652091980
-0.196111068129539490
-0.017258968204259872
0.186667516827583313
0.158014208078384399
0.059300690889358521
-0.005801681429147720
-0.158864930272102356
-0.059584010392427444
0.017342375591397285
0.086539477109909058
0.103083521127700806
-0.028256045654416084
0.137997344136238098
-0.073635183274745941
-0.139021962881088257
-0.067745648324489594
0.020580762997269630
0.077306866645812988
0.116731576621532440
0.090300761163234711
-0.079488955438137054
-0.228667125105857849
0.012168496847152710
0.023727010935544968
-0.000765506061725318
-0.085214093327522278
-0.098126731812953949
-0.002775066997855902
-0.117333069443702698
0.129963263869285583
0.032780464738607407
0.181303098797798157
0.002398906508460641
0.084150619804859161
0.158148735761642456
0.198424801230430603
0.177937820553779602
0.059817094355821609
-0.034700341522693634
-0.202744841575622559
0.123080760240554810
0.038494210690259933
0.016169868409633636
-0.005036803893744946
