#Layer 0 Weights:
-0.011443505994975567 -0.120292052626609802 0.180490940809249878 -0.057356048375368118 0.042965728789567947 -0.231919258832931519 0.148245126008987427 0.138764798641204834 0.201857984066009521 0.213790461421012878 0.058912597596645355 -0.126410856842994690 -0.123515345156192780 0.214960768818855286 -0.099140971899032593 -0.131369620561599731 -0.222852647304534912 -0.010733115486800671 -0.185189127922058105 0.154251262545585632 -0.262019515037536621 0.183812707662582397 0.093193307518959045 0.052650451660156250 -0.120573572814464569 0.165039017796516418 0.109255187213420868 0.217426985502243042 -0.262021362781524658 -0.038616046309471130 0.030772190541028976 0.153937429189682007 -0.178942710161209106 -0.145659580826759338 0.054967466741800308 0.280773043632507324 0.107655540108680725 0.016367321833968163 -0.137724205851554871 0.150593698024749756 -0.124581679701805115 0.257837921380996704 -0.261208295822143555 -0.017217665910720825 -0.196513280272483826 -0.036353010684251785 0.263454496860504150 0.035600490868091583 0.294334143400192261 -0.250782132148742676 0.005216682329773903 0.163833990693092346 0.202618420124053955 0.026617126539349556 -0.090743049979209900 -0.185395970940589905 -0.225243330001831055 0.025718387216329575 0.279061079025268555 0.229349836707115173 0.175158217549324036 0.033342204988002777 -0.187471657991409302 -0.014806134626269341 -0.034469470381736755 0.213723614811897278 0.216641843318939209 -0.063164949417114258 0.182673111557960510 -0.038348130881786346 -0.203350454568862915 -0.112231537699699402 0.145244196057319641 0.159437179565429688 0.196578055620193481 0.204876139760017395 -0.172208055853843689 -0.156501308083534241 -0.033023905009031296 -0.023523082956671715 0.138384044170379639 -0.167330875992774963 -0.139976888895034790 -0.141554683446884155 -0.233589708805084229 0.060882501304149628 0.109633408486843109 0.239965662360191345 0.125636070966720581 0.220151096582412720 0.180014148354530334 0.118461310863494873 0.265579491853713989 0.185941636562347412 -0.185197100043296814 -0.145533427596092224 0.098349161446094513 0.018257923424243927 -0.076961301267147064 -0.157382994890213013
-0.168713077902793884 -0.022674594074487686 -0.093862943351268768 -0.078835949301719666 0.111932262778282166 0.043049626052379608 0.030273530632257462 -0.242536276578903198 -0.016684647649526596 -0.033417034894227982 0.148219719529151917 -0.096812553703784943 -0.025750907137989998 0.011333799920976162 -0.126818060874938965 -0.145802006125450134 0.145385086536407471 -0.017579857259988785 0.053547747433185577 0.121786288917064667 0.268975287675857544 0.071400359272956848 0.048386868089437485 -0.036012984812259674 -0.033923834562301636 -0.155306652188301086 0.119812950491905212 0.028868529945611954 0.084845818579196930 0.173085421323776245 0.149188727140426636 -0.070854023098945618 0.116403773427009583 0.231039926409721375 0.166211217641830444 -0.207884877920150757 0.014025820419192314 -0.197669431567192078 0.265485346317291260 -0.190265253186225891 -0.125944226980209351 -0.112981833517551422 0.215456724166870117 -0.194886997342109680 -0.054611574858427048 -0.007354282774031162 -0.153505027294158936 0.111870959401130676 -0.211645007133483887 0.134454011917114258 0.145698785781860352 -0.012774126604199409 0.182785466313362122 -0.054745603352785110 -0.000977703719399869 0.053847558796405792 0.009956817142665386 -0.206079870462417603 -0.202989652752876282 -0.029844092205166817 -0.059818305075168610 -0.216236889362335205 0.040473189204931259 -0.114917688071727753 0.135404869914054871 -0.149338081479072571 -0.137238815426826477 0.083203874528408051 -0.031868536025285721 0.055300887674093246 0.066361963748931885 0.022182147949934006 -0.213668316602706909 -0.063164517283439636 -0.059134129434823990 -0.105008751153945923 0.089079625904560089 -0.147836923599243164 0.159830346703529358 -0.074392914772033691 -0.186685517430305481 0.031905598938465118 0.024813339114189148 0.133587315678596497 0.163814678788185120 0.125976994633674622 -0.139403417706489563 -0.159339383244514465 -0.272080451250076294 -0.193451896309852600 -0.000928462541196495 0.101416237652301788 -0.196949109435081482 -0.253891617059707642 0.179323107004165649 -0.033981624990701675 0.121708601713180542 0.109811484813690186 0.008101837709546089 0.122501350939273834
