#Layer 1 Weights:
-0.435349971055984497 -0.449782580137252808 -0.251397430896759033 -0.215697646141052246 -0.144380480051040649 -0.107394151389598846 -0.122933141887187958 -2.324033737182617188 -0.500779926776885986 -2.137720346450805664 1.445373892784118652 -7.892203807830810547 -0.637494504451751709 -0.533726513385772705 -0.158857807517051697 -0.357369661331176758 -0.714581072330474854 -0.745353162288665771 -0.207530245184898376 -0.374547779560089111
-0.340148091316223145 -0.723780453205108643 0.065669327974319458 -1.100406169891357422 0.063226319849491119 4.136567115783691406 1.088581442832946777 -2.816224336624145508 0.316725432872772217 -2.565347671508789062 -0.749078750610351562 -0.475741207599639893 -0.277987539768218994 -0.394138604402542114 0.240995228290557861 -0.022306889295578003 -0.173150092363357544 -0.710322797298431396 0.297783643007278442 -0.188114136457443237
-0.732501149177551270 -0.097418412566184998 0.035177260637283325 -0.551399111747741699 -0.122486755251884460 -1.972593069076538086 -1.621277451515197754 0.911993980407714844 -0.003610107349231839 2.332928180694580078 -0.324053555727005005 -0.064669370651245117 -0.000584885070566088 -0.551632404327392578 0.249488443136215210 -0.304653078317642212 -0.425319463014602661 -0.896661221981048584 0.034930597990751266 -0.507664144039154053
-0.670870602130889893 0.788791000843048096 0.273173660039901733 -0.262647151947021484 4.249841213226318359 2.241393327713012695 1.217967987060546875 -0.938390672206878662 0.462904483079910278 -1.185474038124084473 -2.736660242080688477 -2.360847949981689453 3.581421375274658203 1.163306117057800293 2.813787937164306641 0.279682338237762451 0.680567145347595215 0.619018673896789551 0.733615040779113770 -0.612439632415771484
0.516923546791076660 -0.336735844612121582 0.312761902809143066 0.046676848083734512 -1.042397856712341309 -1.192250013351440430 -0.888051509857177734 0.949711859226226807 -0.202482610940933228 0.495818883180618286 -0.550916969776153564 -0.216936469078063965 -0.572850883007049561 0.099380098283290863 -0.742395162582397461 -0.339596956968307495 0.972211599349975586 0.463803112506866455 -0.088322840631008148 0.492393672466278076
0.004174683243036270 0.382841229438781738 0.548858106136322021 0.649147868156433105 7.481379985809326172 4.333980560302734375 4.673089504241943359 -3.904171943664550781 -0.240373626351356506 -4.239487171173095703 -3.812067270278930664 -6.427791118621826172 6.305100917816162109 3.661584854125976562 4.482253074645996094 0.321907818317413330 0.537476837635040283 0.713744759559631348 1.161407351493835449 -0.146720826625823975
-0.784726619720458984 -1.698197126388549805 -1.302567243576049805 -0.513461947441101074 -0.032178472727537155 -0.134248092770576477 -0.248613491654396057 -2.974750995635986328 -1.357284545898437500 -2.184074163436889648 0.855320692062377930 -0.802668452262878418 -0.681157767772674561 -0.068315207958221436 -0.115450054407119751 -1.880470752716064453 -0.685233175754547119 -0.723395109176635742 -0.485565274953842163 -0.497238099575042725
0.340956002473831177 -0.631534516811370850 0.322755187749862671 0.163887768983840942 6.001367092132568359 4.583688259124755859 2.196468591690063477 -2.891651391983032227 -0.248438119888305664 -2.529811143875122070 -0.881852865219116211 -0.564637303352355957 -0.062185090035200119 -0.460042566061019897 0.069042973220348358 0.051957760006189346 0.470291584730148315 -0.024671675637364388 -0.090772062540054321 0.004792005755007267
-0.572777271270751953 -0.040033373981714249 -0.475045174360275269 -0.724730849266052246 -1.851104140281677246 -4.475391864776611328 -1.778829813003540039 -0.443841248750686646 0.077756799757480621 -0.076856799423694611 -0.097440116107463837 0.070091314613819122 -3.644175529479980469 -1.210727691650390625 -1.592033267021179199 -0.412304461002349854 -0.065463051199913025 -0.183997616171836853 -0.762213110923767090 -0.251605272293090820
0.574605464935302734 0.671313583850860596 0.593072652816772461 -3.063320398330688477 -1.601796150207519531 -4.317692756652832031 -3.429101943969726562 0.593295574188232422 -0.526229202747344971 1.825523495674133301 0.559158384799957275 -0.394010961055755615 -1.428464055061340332 -3.387132406234741211 -1.291341304779052734 -0.066692411899566650 1.011711120605468750 0.574932038784027100 -0.196259379386901855 0.688388049602508545
0.420852631330490112 0.012573277577757835 0.740677773952484131 -0.669478476047515869 -0.755816698074340820 -2.268130540847778320 -1.554447054862976074 0.955466032028198242 0.183626502752304077 0.692969620227813721 1.029124855995178223 0.174302175641059875 -0.093599036335945129 -0.816989541053771973 -0.780659198760986328 0.371034175157546997 -0.282079100608825684 -0.640318810939788818 0.157659754157066345 -0.195188671350479126
0.062339749187231064 -2.905431270599365234 0.637335598468780518 0.697586894035339355 1.338037967681884766 2.219770193099975586 5.817050457000732422 -3.159182548522949219 0.114295721054077148 -3.679846048355102539 0.262353003025054932 -1.786838769912719727 3.349507570266723633 0.484027534723281860 1.552274942398071289 0.091760613024234772 -0.307250142097473145 -0.467011332511901855 0.589511215686798096 0.285684198141098022
0.249626576900482178 0.036361575126647949 0.419687539339065552 -0.565597355365753174 -0.012078739702701569 1.355369448661804199 0.685958027839660645 -0.021031377837061882 -0.039943121373653412 0.157762989401817322 -0.343700855970382690 -0.277527958154678345 0.282582104206085205 -0.458322286605834961 0.196597591042518616 0.124310687184333801 -0.361702978610992432 -0.343015551567077637 0.113081149756908417 -0.363834083080291748
-0.008535745553672314 -0.732761323451995850 -0.216714069247245789 -0.048225764185190201 3.568196773529052734 -0.061193618923425674 0.142965286970138550 -0.280479997396469116 -0.425911098718643188 -1.039389848709106445 -2.282523632049560547 -0.475579321384429932 -0.681818783283233643 -0.063227280974388123 2.569737195968627930 -0.579493939876556396 -0.715512633323669434 -0.592582464218139648 -0.318998932838439941 0.430682957172393799
-0.069292940199375153 -0.257109910249710083 -0.329951763153076172 -0.523647904396057129 -2.283399343490600586 -2.971192836761474609 -0.734823942184448242 2.089923858642578125 0.247340813279151917 1.533190965652465820 -1.023505687713623047 0.339726686477661133 -4.687466144561767578 -0.345985025167465210 -0.301694661378860474 -0.572649955749511719 -0.336920887231826782 -0.327691912651062012 -0.548053205013275146 -0.169626533985137939
-0.621749818325042725 -0.844148397445678711 -0.893353760242462158 0.070347912609577179 -0.244630128145217896 1.612645864486694336 -0.029775314033031464 -2.079820871353149414 0.136663749814033508 -1.071963787078857422 -1.301028966903686523 -0.740044891834259033 -0.219627544283866882 0.036982569843530655 0.317825555801391602 -0.545384287834167480 -0.155073553323745728 -0.003011041320860386 -0.288192838430404663 -0.318723678588867188
0.115688458085060120 -0.209809467196464539 -0.394967764616012573 0.265372484922409058 0.737757027149200439 -0.231489405035972595 -0.634041190147399902 -0.642429649829864502 -0.516793668270111084 -0.539626181125640869 -1.612003564834594727 -0.272031962871551514 -0.856670200824737549 -0.734999477863311768 0.058751814067363739 -0.256311476230621338 -0.279912918806076050 -0.638885855674743652 -0.291989743709564209 0.312642693519592285
-0.116365984082221985 -0.664191603660583496 -0.681265771389007568 -0.367460310459136963 0.278705090284347534 -0.080116011202335358 -0.450724035501480103 -0.709794819355010986 -0.737724184989929199 -0.507327258586883545 1.232978224754333496 -0.274686694145202637 -0.735979020595550537 -0.600084424018859863 0.817084968090057373 -0.859948635101318359 -0.887175202369689941 -0.747197151184082031 -0.225446045398712158 -0.468315780162811279
-0.750431478023529053 -0.916802048683166504 -0.895135045051574707 -0.281211823225021362 -0.582164049148559570 -0.496213465929031372 -0.691804409027099609 -0.254347413778305054 0.225134342908859253 -1.181627392768859863 -0.864057958126068115 -0.589982092380523682 -0.696533977985382080 -0.598925828933715820 0.190838649868965149 -0.792863190174102783 -0.633037984371185303 -0.274095416069030762 -1.033319473266601562 -0.164665162563323975
-0.080215223133563995 -0.347875058650970459 -0.635260343551635742 -0.094620198011398315 -0.870354771614074707 -0.577135205268859863 -0.158632129430770874 -0.719458937644958496 -0.886679768562316895 -0.384114891290664673 -0.269335687160491943 0.481567233800888062 -0.346842050552368164 -0.139532431960105896 -0.773781538009643555 -0.288181424140930176 -0.068301625549793243 -0.483253836631774902 -0.887187957763671875 -0.463981717824935913
