#Layer 1 Weights:
1.184532761573791504 2.168575048446655273 0.260459661483764648 0.805120825767517090 0.976285576820373535 1.313132166862487793 -2.676741361618041992 -0.134380698204040527 -0.573303341865539551 1.201087594032287598 0.949469208717346191 1.003844857215881348 -0.875886023044586182 -0.026645055040717125 1.274709224700927734 0.035162057727575302 -0.532525181770324707 0.948307812213897705 0.856322228908538818 1.155357480049133301
0.933262228965759277 2.009552955627441406 -0.681492149829864502 0.697701811790466309 1.137005090713500977 2.437109231948852539 -1.275664567947387695 -1.042711257934570312 -0.763274013996124268 0.901322484016418457 0.437279880046844482 1.002067089080810547 -0.417474985122680664 -1.038082003593444824 0.703577637672424316 0.282799303531646729 -1.084085106849670410 0.940290331840515137 0.954325079917907715 1.391691088676452637
-0.495443761348724365 -0.101239554584026337 -0.905339419841766357 0.588537335395812988 0.197077229619026184 -1.057158231735229492 0.004400707315653563 -0.716416597366333008 -0.765165030956268311 0.423422634601593018 0.412744402885437012 -0.772086143493652344 -0.801613867282867432 -0.981579005718231201 0.086129352450370789 -0.632964432239532471 -0.320097774267196655 -0.253471285104751587 0.291321814060211182 0.051107708364725113
0.879307329654693604 0.634478151798248291 -0.247438848018646240 -0.209008187055587769 -0.058336809277534485 1.924311637878417969 -0.901810407638549805 -0.541361153125762939 -0.086531713604927063 -0.041090127080678940 -0.340919375419616699 1.451904654502868652 -0.051674503833055496 -0.548265993595123291 -0.691205561161041260 -0.036458835005760193 -0.073068320751190186 0.011268753558397293 -0.062579527497291565 -0.302562713623046875
-1.860307574272155762 -1.292658686637878418 -0.207058101892471313 -0.463045269250869751 -1.344187021255493164 -1.232934474945068359 -0.310094118118286133 0.369384676218032837 0.607653737068176270 -1.577579975128173828 -0.778615772724151611 -1.471343517303466797 -0.290924459695816040 0.239268735051155090 -0.976968705654144287 -0.311949938535690308 0.257673710584640503 -1.507559895515441895 -0.435378015041351318 -1.274090409278869629
-0.950999796390533447 -1.995706200599670410 -0.177506670355796814 -0.808259725570678711 -0.635519087314605713 -1.605014085769653320 -1.307087421417236328 0.220665201544761658 0.153073757886886597 -3.981575727462768555 -0.977173089981079102 -0.963605046272277832 -0.139076367020606995 0.656229436397552490 0.191156744956970215 -0.566147148609161377 -0.299577623605728149 -0.386195540428161621 -0.361227929592132568 -3.773788452148437500
0.765097320079803467 1.745290517807006836 -0.393988788127899170 0.893727242946624756 0.565967202186584473 0.179359138011932373 -0.054807003587484360 -1.093643784523010254 -0.616285264492034912 1.337933778762817383 0.921114206314086914 1.031703829765319824 -0.387595742940902710 -1.034530639648437500 0.275982826948165894 -0.824500799179077148 -0.460476011037826538 0.221062019467353821 0.718995630741119385 1.363542199134826660
-0.035260912030935287 0.671298205852508545 -0.653919041156768799 0.750404298305511475 -0.054480984807014465 -0.353482425212860107 -0.045058835297822952 -0.565266668796539307 -0.518522858619689941 0.950800776481628418 0.910907864570617676 -0.338224202394485474 -0.702943861484527588 -0.874507963657379150 0.815716803073883057 -0.565874278545379639 -0.560877203941345215 0.003735304810106754 0.769724547863006592 -0.253028184175491333
0.718123912811279297 0.846228659152984619 -0.835041761398315430 0.305183202028274536 0.321603566408157349 -0.224526450037956238 0.318196475505828857 0.689399719238281250 -0.387598514556884766 2.782279253005981445 0.987668514251708984 1.024700045585632324 0.090513505041599274 0.084001012146472931 1.286680698394775391 -0.311221837997436523 0.097293667495250702 1.262500047683715820 0.652358949184417725 2.787551879882812500
0.107764318585395813 0.483037501573562622 -1.140086293220520020 0.281331866979598999 -1.046772718429565430 -0.149555072188377380 1.483823776245117188 -0.787964701652526855 -1.012305259704589844 -0.411957949399948120 -0.006281919777393341 0.964317619800567627 -1.152750968933105469 -0.712880134582519531 -0.359522223472595215 -1.842259168624877930 -1.042476177215576172 -1.137629866600036621 0.712203800678253174 -0.124205783009529114
0.817641437053680420 1.526003599166870117 -0.529872655868530273 0.436863809823989868 0.893628120422363281 1.481319308280944824 -1.116640448570251465 -0.664244592189788818 -0.596870839595794678 1.388609886169433594 0.982193768024444580 0.948711156845092773 -0.455682098865509033 -0.605198800563812256 0.741323053836822510 -0.090143509209156036 -0.596895217895507812 1.164863467216491699 1.100563168525695801 0.908758878707885742
-1.642795801162719727 -2.386229753494262695 -0.640199899673461914 -0.692318975925445557 -1.571942448616027832 -1.262876272201538086 -1.211555361747741699 -0.071073405444622040 -0.257359385490417480 -3.215099334716796875 -0.871786594390869141 -1.440034031867980957 -0.651421129703521729 0.146458119153976440 -0.564158260822296143 -1.482907891273498535 -0.882936716079711914 -0.882687032222747803 -0.923946857452392578 -3.584873199462890625
-0.940320491790771484 -0.457610875368118286 0.310585021972656250 -0.223671421408653259 -0.135852426290512085 -0.287465393543243408 -0.418053150177001953 0.022405721247196198 0.275678962469100952 -1.317889928817749023 -0.314790576696395874 -1.396105408668518066 -0.660603880882263184 0.755509674549102783 -0.228709653019905090 0.087140843272209167 -0.097300566732883453 -0.511605799198150635 -0.585335493087768555 -0.883474826812744141
-0.078503057360649109 0.292288035154342651 -0.612573444843292236 0.448088258504867554 0.242317736148834229 -0.846849620342254639 0.129565939307212830 -1.540770649909973145 -1.026078820228576660 1.213414072990417480 0.530698299407958984 -0.116464190185070038 -0.541553914546966553 -0.828680694103240967 0.818103373050689697 -0.812529206275939941 -0.538596570491790771 0.188178300857543945 0.241833671927452087 -0.475402802228927612
1.257284760475158691 1.496595025062561035 -0.158940583467483521 0.668521046638488770 1.166682481765747070 0.996568202972412109 -2.636717557907104492 -0.371354490518569946 -0.295877337455749512 0.986619174480438232 0.722915112972259521 0.742106199264526367 -0.397049665451049805 0.002932089148089290 0.868933320045471191 -0.472118288278579712 -0.712883949279785156 0.497493922710418701 0.784955263137817383 0.700200736522674561
-0.167973518371582031 1.168562531471252441 -0.645395040512084961 0.691824853420257568 -0.019472073763608932 0.025290768593549728 0.043240889906883240 0.336807429790496826 -0.103767730295658112 2.300122976303100586 0.599923849105834961 0.628679335117340088 0.618297398090362549 -0.343452841043472290 1.069167017936706543 -0.586837887763977051 0.223548427224159241 -0.355960190296173096 0.654674291610717773 0.430886358022689819
0.178203806281089783 0.165271624922752380 -0.943567574024200439 0.173472762107849121 0.565041303634643555 0.222325831651687622 -0.280983954668045044 -1.071527838706970215 -0.752730667591094971 1.635408759117126465 0.364267945289611816 1.168508172035217285 -0.357224822044372559 -1.243484616279602051 0.423057496547698975 -0.824847459793090820 -0.333348810672760010 -0.078904397785663605 0.344860464334487915 0.160334080457687378
-0.884995818138122559 -0.816284120082855225 0.048407401889562607 -0.762870430946350098 -0.867661058902740479 0.353788852691650391 -0.819674491882324219 0.451201945543289185 0.354086130857467651 -0.911807775497436523 -0.264691025018692017 -0.511818945407867432 0.598171710968017578 0.891524434089660645 -0.699553072452545166 0.662444233894348145 0.262920737266540527 -0.564356148242950439 -0.356958627700805664 -0.512801468372344971
-1.234754681587219238 -1.932455301284790039 -0.863449454307556152 -0.579198300838470459 -1.643826723098754883 -1.326406598091125488 -0.002410601591691375 0.097995258867740631 -0.300694167613983154 -2.247134923934936523 -0.822858810424804688 -1.574538230895996094 -0.582649350166320801 -0.178633138537406921 -0.785253047943115234 -1.541179180145263672 -0.512003719806671143 -1.255769848823547363 -0.473663479089736938 -2.497714519500732422
-0.531766712665557861 -0.500908613204956055 -0.104879006743431091 -0.357729405164718628 -0.278923690319061279 0.598400354385375977 -0.561657428741455078 0.415868520736694336 0.485241413116455078 -0.949601769447326660 -0.438263356685638428 0.480490624904632568 0.112044371664524078 0.716405689716339111 -0.450446456670761108 0.357693493366241455 0.386332660913467407 -0.854722559452056885 -0.699311137199401855 -0.660105884075164795
