#Layer 3 Biases:
-0.029598668217658997 0.018451582640409470 0.014860457740724087 0.058208186179399490 0.007299410644918680 -0.015940032899379730 -0.020131684839725494 0.020647419616580009 -0.010259186848998070 -0.035659458488225937 0.047078333795070648 -0.054043181240558624 0.127564176917076111 0.039982829242944717 -0.016131147742271423 -0.003919494803994894 0.029451878741383553 -0.054652687162160873 -0.049644332379102707 -0.042567990720272064 -0.002236870350316167 -0.015453499741852283 0.033774279057979584 -0.017660066485404968 0.010771707631647587 0.037733465433120728 -0.109743267297744751 0.039060905575752258 -0.041616171598434448 0.015526026487350464 0.074171416461467743 -0.045106388628482819 -0.051971491426229477 -0.049962595105171204 0.055964313447475433 0.001366713666357100 0.065624132752418518 0.007135326974093914 -0.036252159625291824 -0.042277559638023376 -0.018560130149126053 -0.026138741523027420 -0.010423813946545124 -0.035500463098287582 -0.001166654285043478 0.012106990441679955 -0.083227790892124176 -0.019711658358573914 0.036167494952678680 -0.029426388442516327 -0.043340668082237244 -0.036769375205039978 0.048597138375043869 0.014848624356091022 -0.034078061580657959 -0.011229261755943298 0.001175847719423473 0.077871054410934448 0.044329352676868439 0.087601065635681152 0.008497051894664764 -0.009677411988377571 -0.037332728505134583 0.036124095320701599 0.028975907713174820 0.032877422869205475 -0.030181717127561569 0.020553763955831528 -0.064793743193149567 -0.008717282675206661 -0.021844709292054176 -0.013751205988228321 0.049180567264556885 -0.001460422296077013 0.029224349185824394 0.005942176096141338 -0.011103682219982147 -0.022656166926026344 0.034983530640602112 0.099929966032505035 0.044266559183597565 0.001048361300490797 0.013406525366008282 -0.017646415159106255 -0.072965294122695923 -0.075811646878719330 -0.024242272600531578 -0.008575963787734509 -0.028962403535842896 -0.015617395751178265 -0.020006518810987473 -0.024465823546051979 0.020039934664964676 0.019270533695816994 0.025490829721093178 -0.030638052150607109 0.019267076626420021 -0.003336799331009388 -0.007738334126770496 -0.053607627749443054
