#Layer 6 Biases:
0.043976988643407822 0.012478156946599483 -0.094574287533760071 0.019944289699196815 0.080423988401889801 0.002885634778067470 0.073610126972198486 -0.015486002899706364 -0.045280046761035919 -0.096679672598838806 -0.024605156853795052 0.062712229788303375 0.030545519664883614 0.015479754656553268 -0.035731989890336990 -0.056093864142894745 -0.021851202473044395 0.061069101095199585 0.106950722634792328 -0.015147160738706589 -0.004456502851098776 -0.033655703067779541 0.071648500859737396 -0.044640742242336273 -0.001897835521958768 0.067161113023757935 0.031754981726408005 0.061331972479820251 0.004676715470850468 0.031701803207397461 0.126074030995368958 -0.023783067241311073 0.070853397250175476 0.006924238055944443 0.001134326448664069 -0.017891982570290565 -0.052676044404506683 -0.033048108220100403 -0.034938093274831772 0.014323833398520947 0.062505058944225311 0.032134756445884705 0.011494149453938007 0.006059765350073576 0.036872152239084244 0.003360392060130835 -0.031915165483951569 -0.076353967189788818 -0.009804475121200085 -0.015228037722408772 0.026343431323766708 0.047102004289627075 0.018147328868508339 -0.065706819295883179 -0.009082134813070297 0.017792124301195145 0.050063002854585648 -0.043327309191226959 -0.028417570516467094 -0.041511651128530502 -0.004112455062568188 0.017918063327670097 -0.026610737666487694 -0.017458736896514893 -0.103598736226558685 0.053589899092912674 -0.006319620180875063 -0.004290706478059292 0.019732583314180374 -0.033627387136220932 -0.055634833872318268 0.023542264476418495 0.068682432174682617 -0.010079217143356800 0.003173874225467443 -0.090478800237178802 0.005851679947227240 -0.065894104540348053 0.034229982644319534 -0.018774278461933136 -0.010456671006977558 0.036399457603693008 0.068435460329055786 0.044422373175621033 -0.004121653735637665 0.019672570750117302 0.113355949521064758 -0.004325218498706818 -0.059968721121549606 -0.121067956089973450 -0.117196485400199890 -0.073863133788108826 -0.025813115760684013 -0.009307336993515491 -0.045048657804727554 -0.002162961987778544 -0.115580134093761444 0.013344875536859035 0.024630432948470116 -0.035994570702314377
