#Layer 2 Biases:
-0.213475197553634644 0.001171183539554477 -0.010112877003848553 0.020637698471546173 -0.006268465425819159 0.017094830051064491 -0.017839023843407631 0.039148598909378052 0.106901742517948151 -0.048437200486660004 -0.030056755989789963 -0.009765173308551311 0.031748533248901367 0.010475658811628819 -0.023000679910182953 0.023509586229920387 -0.043554499745368958 0.011041554622352123 0.046154364943504333 0.002066771732643247 -0.040171165019273758 -0.048692338168621063 0.042844023555517197 0.024319278076291084 -0.147576451301574707 -0.014497173018753529 -0.037049192935228348 -0.021322330459952354 -0.021635305136442184 0.023957651108503342 -0.080788217484951019 0.017427958548069000 0.012693622149527073 -0.031129520386457443 0.008282198570668697 0.004192478023469448 0.117831096053123474 0.015697546303272247 -0.011139068752527237 -0.030143190175294876 -0.030777301639318466 0.041643157601356506 -0.012488625943660736 -0.003629331709817052 0.090048842132091522 0.025649441406130791 -0.105608858168125153 0.014315858483314514 0.047638740390539169 -0.042149499058723450 -0.021121462807059288 -0.022661959752440453 0.023272527381777763 -0.019854206591844559 0.016763530671596527 -0.014952810481190681 0.049642853438854218 -0.014678291045129299 -0.049994587898254395 0.044226720929145813 -0.021861404180526733 0.072584517300128937 0.170393720269203186 0.003741692053154111 0.002704067854210734 -0.017665201798081398 -0.011190002784132957 0.018681593239307404 -0.056404955685138702 -0.038596022874116898 0.067988522350788116 -0.020074583590030670 -0.031292606145143509 -0.001722102519124746 0.016196439042687416 -0.006364728789776564 0.008282964117825031 -0.013085927814245224 0.086380243301391602 0.097189970314502716 -0.025376997888088226 0.011652953922748566 0.022931024432182312 0.010660797357559204 -0.071904525160789490 -0.025498161092400551 -0.025842878967523575 -0.022414265200495720 -0.007360611576586962 0.035373467952013016 -0.014449409209191799 -0.004409494344145060 -0.016532652080059052 -0.065248489379882812 -0.027127988636493683 -0.001285964972339571 -0.006961968727409840 0.025411954149603844 -0.008758846670389175 0.000875276455190033
