#Layer 5 Biases:
-0.004169661551713943 0.018542686477303505 -0.012235219590365887 0.147647738456726074 0.011680592782795429 0.054665122181177139 0.171208783984184265 -0.031699277460575104 -0.042085122317075729 0.040912277996540070 0.023008042946457863 -0.047375302761793137 -0.011818286962807178 0.021069338545203209 -0.012308601289987564 -0.075222663581371307 -0.005576179828494787 -0.020974520593881607 -0.071101218461990356 0.027519145980477333 -0.044428493827581406 -0.009383435361087322 0.033233556896448135 -0.064614526927471161 -0.030969370156526566 -0.020556306466460228 0.001178622827865183 0.000598992686718702 -0.134462505578994751 0.039833996444940567 -0.013397902250289917 0.009898565709590912 0.001975129591301084 -0.002003187546506524 -0.006226983387023211 -0.018667168915271759 0.017124336212873459 0.050393830984830856 0.018412332981824875 0.042368017137050629 -0.033533737063407898 -0.084816358983516693 -0.183814153075218201 -0.050631098449230194 -0.037612482905387878 -0.003059291280806065 -0.066855005919933319 0.016128921881318092 -0.195485651493072510 -0.026034807786345482 0.095574900507926941 -0.158055365085601807 0.001957558561116457 -0.089523717761039734 0.012885090894997120 -0.005284051876515150 0.101582527160644531 -0.070300333201885223 -0.024897061288356781 0.005167840048670769 0.011374874971807003 -0.117476537823677063 0.029652886092662811 0.023540876805782318 0.032981202006340027 0.005397181026637554 0.003746055532246828 0.036526780575513840 0.000704492209479213 -0.049296390265226364 -0.074580073356628418 -0.004582479596138000 -0.009462472982704639 0.023652322590351105 0.057970307767391205 0.030818723142147064 -0.001571570639498532 -0.019603841006755829 -0.005545609164983034 0.056149613112211227 0.094941973686218262 0.010235005058348179 -0.041769124567508698 -0.010486730374395847 0.004335577599704266 -0.111955136060714722 0.133604496717453003 0.098318576812744141 -0.026578119024634361 -0.000639521284028888 0.012216479517519474 -0.061121225357055664 0.006775595247745514 0.008460381999611855 0.124830849468708038 -0.018369447439908981 -0.047164537012577057 0.017672657966613770 -0.032998189330101013 -0.102621756494045258
