#Layer 0 Biases:
-0.053729012608528137 -0.002079230500385165 0.105103090405464172 -0.058241985738277435 0.094115965068340302 0.165260121226310730 -0.036094784736633301 -0.023350561037659645 0.022497253492474556 0.101183794438838959 0.097418382763862610 -0.101485513150691986 0.035170268267393112 0.050180118530988693 -0.101108230650424957 -0.145596608519554138 -0.060107704252004623 -0.049842406064271927 0.135184273123741150 0.109353408217430115 0.060012076050043106 -0.116781570017337799 -0.002088156761601567 0.034982312470674515 0.087214432656764984 -0.163709312677383423 0.170469507575035095 0.199821904301643372 0.029206348583102226 0.016018150374293327 0.016122968867421150 -0.054244022816419601 0.003444682341068983 -0.044372148811817169 0.074267365038394928 -0.126307040452957153 0.004036982078105211 -0.177992746233940125 -0.079650796949863434 0.077113106846809387 -0.148650541901588440 0.020541008561849594 0.041917588561773300 -0.009212703444063663 0.051526837050914764 0.111322604119777679 -0.008865964598953724 0.101962544023990631 -0.036207728087902069 -0.180103585124015808 0.177980497479438782 0.001289890613406897 0.111405767500400543 -0.090369448065757751 0.075820744037628174 0.104150630533695221 -0.057003553956747055 -0.014780596829950809 0.075710587203502655 0.113066457211971283 0.042255971580743790 0.129010319709777832 0.113261669874191284 -0.176699131727218628 -0.170027673244476318 0.143085911870002747 0.171688511967658997 0.010326305404305458 0.012196532450616360 -0.127783685922622681 -0.104624122381210327 0.144270047545433044 0.068382181227207184 0.031059617176651955 -0.083884254097938538 0.099080450832843781 0.055391315370798111 -0.065281108021736145 -0.132439568638801575 0.022658362984657288 -0.078575819730758667 -0.045289006084203720 0.063173376023769379 0.129985421895980835 -0.025991443544626236 0.090933568775653839 -0.002323692664504051 -0.124535545706748962 0.060124229639768600 -0.099320694804191589 -0.026947949081659317 -0.116094648838043213 0.010379288345575333 0.016792111098766327 0.138643458485603333 0.169770196080207825 -0.147895723581314087 0.156938225030899048 -0.051862493157386780 0.076535969972610474
