#Layer 4 Biases:
0.063802763819694519 -0.015484449453651905 -0.026999568566679955 0.028072340413928032 -0.043224871158599854 0.006593193858861923 0.014416032470762730 0.006088656838983297 -0.147267013788223267 -0.059330753982067108 0.046128116548061371 -0.082311034202575684 0.008941615931689739 0.018531216308474541 0.061232656240463257 0.040608074516057968 0.002587101887911558 0.004371789284050465 0.034304991364479065 0.008274205029010773 0.016833752393722534 -0.000791643687989563 0.026770757511258125 -0.007924874313175678 0.015549769625067711 -0.035452868789434433 -0.065482050180435181 0.051891330629587173 -0.034899227321147919 0.058763176202774048 0.011800973676145077 0.078201770782470703 -0.054630167782306671 -0.028961254283785820 -0.007241952698677778 0.005769642069935799 0.084164090454578400 0.019891155883669853 -0.075388066470623016 -0.046048507094383240 -0.041493933647871017 -0.005898086354136467 -0.032297309488058090 -0.025451185181736946 0.000031795236282051 0.021990593522787094 -0.130703926086425781 0.107169188559055328 -0.025331793352961540 0.016026468947529793 -0.025643507018685341 -0.123519264161586761 0.076314389705657959 -0.003915591165423393 -0.059989392757415771 -0.131377160549163818 0.035434883087873459 0.042187806218862534 0.104602836072444916 -0.041666828095912933 0.057816274464130402 0.079192474484443665 -0.007335064932703972 0.014774146489799023 -0.000999540672637522 -0.087284028530120850 0.012216406874358654 0.035595033317804337 0.002117192372679710 0.058877509087324142 0.062209855765104294 0.054473284631967545 0.067160725593566895 -0.051658187061548233 0.076818257570266724 0.029178293421864510 -0.012076101265847683 0.015686878934502602 -0.032595772296190262 0.010282735340297222 0.058040518313646317 -0.017236774787306786 0.080524042248725891 -0.040114570409059525 0.039562344551086426 0.014033590443432331 0.022599481046199799 0.101692818105220795 -0.041861861944198608 0.154348552227020264 -0.142817214131355286 -0.015306310728192329 0.026985133066773415 -0.058073930442333221 0.107827305793762207 -0.037848755717277527 0.118664599955081940 -0.038968063890933990 -0.021413870155811310 0.023746704682707787
