#Layer 8 Weights:
-0.178697645664215088
0.100033521652221680
-0.206995159387588501
-0.009610325098037720
0.210526257753372192
-0.097943082451820374
0.193243548274040222
0.015438911505043507
-0.202348992228507996
-0.089416585862636566
-0.018094483762979507
0.077263802289962769
-0.236571624875068665
-0.098932683467864990
-0.158124133944511414
0.023677818477153778
0.016876140609383583
0.178018718957901001
0.033111613243818283
-0.224714860320091248
0.058031529188156128
0.123562484979629517
0.214137211441993713
-0.258230745792388916
-0.120235465466976166
0.021162124350667000
-0.038622282445430756
0.002270426135510206
-0.008081709034740925
-0.204033091664314270
-0.149695634841918945
0.126602977514266968
0.149080947041511536
0.064364589750766754
-0.043993461877107620
-0.020551787689328194
-0.073513276875019073
0.146704658865928650
0.237910702824592590
0.047751195728778839
-0.016977466642856598
-0.146642372012138367
-0.159477010369300842
0.128582298755645752
-0.068684682250022888
-0.174429222941398621
0.147050186991691589
-0.050960361957550049
-0.165568456053733826
0.075917698442935944
-0.106930889189243317
0.180641889572143555
-0.011933052912354469
0.100655302405357361
0.019575063139200211
-0.157020106911659241
0.141418561339378357
-0.105132333934307098
-0.169780597090721130
-0.110770665109157562
-0.084698751568794250
-0.080794170498847961
0.094642095267772675
0.064188458025455475
0.010246846824884415
0.003594213863834739
-0.093886926770210266
-0.035524066537618637
0.131625086069107056
-0.157741248607635498
-0.015813643112778664
-0.062050759792327881
-0.119162052869796753
0.155999094247817993
-0.149538934230804443
-0.181006133556365967
-0.070423468947410583
0.124065674841403961
0.154418691992759705
-0.136284753680229187
0.023701231926679611
0.001415226375684142
-0.069922506809234619
-0.145852670073509216
0.213033273816108704
-0.033589527010917664
-0.041089676320552826
-0.019264066591858864
-0.115444056689739227
-0.144880965352058411
0.012050320394337177
0.014567953534424305
-0.111614242196083069
0.188469111919403076
0.112927362322807312
-0.085022658109664917
0.186668723821640015
-0.022243997082114220
-0.162626907229423523
-0.230608820915222168
