#Layer 7 Biases:
-0.004440495278686285 -0.019029565155506134 0.000333913194481283 -0.000198184236069210 0.002017253311350942 0.004335918929427862 0.003543147584423423 0.000219946668948978 0.003037740942090750 -0.008702874183654785 0.010145185515284538 -0.011541781947016716 -0.013664632104337215 0.002822818001732230 -0.006147358566522598 0.001978384796530008 -0.005777258425951004 -0.011343560181558132 0.006828779354691505 -0.010780970565974712 -0.008173312991857529 0.004125006962567568 0.002052902011200786 -0.006725646555423737 0.014639483764767647 -0.009777364321053028 -0.002481997944414616 0.003343243151903152 -0.000140496253152378 -0.003827159991487861 -0.002557901199907064 0.001422148779965937 -0.029706390574574471 0.001435670536011457 0.001969462959095836 0.001653015147894621 0.003395063802599907 -0.002536147832870483 -0.000456920533906668 -0.007042543031275272 0.006211617495864630 0.003686492564156651 0.002353672403842211 -0.002000090666115284 0.001198415644466877 -0.004755106754601002 0.002429572632536292 0.003282624064013362 -0.003741898806765676 0.005461993161588907 0.002050130628049374 0.016196519136428833 0.007711866404861212 0.001790163223631680 0.009000693447887897 -0.001815890078432858 -0.008338655345141888 -0.001528662163764238 0.011298513039946556 0.001162341912277043 0.001924946671351790 0.002598399296402931 0.012166035361588001 0.007133241742849350 -0.001493914169259369 -0.004918320104479790 -0.006761969532817602 -0.007142125628888607 -0.000422839540988207 -0.007599173579365015 -0.000533763784915209 0.001496385317295790 0.002152794739231467 0.001865407102741301 0.000594396376982331 -0.007441327441483736 -0.001522761303931475 -0.001926354831084609 -0.000627766130492091 0.002684655133634806 -0.006934725679457188 0.001230417634360492 0.014665680937469006 0.006622207351028919 -0.003853134810924530 0.014142788015305996 -0.003218935104086995 0.005124263465404510 0.001908304519020021 0.009319736622273922 -0.004531746730208397 -0.005270872730761766 0.004365760833024979 0.017400179058313370 0.011474491097033024 0.002890409901738167 0.016730474308133125 0.002609074115753174 -0.002437754767015576 -0.011903900653123856
