#Layer 6 Biases:
0.000697960203979164 0.009264223277568817 -0.004063407424837351 0.011325964704155922 -0.003333378117531538 -0.012371033430099487 -0.011528830975294113 0.024867352098226547 -0.032775685191154480 0.009322513826191425 -0.021606450900435448 0.003884326666593552 -0.025662194937467575 -0.003913925494998693 0.002572479890659451 0.002015798119828105 0.000072618604463059 -0.003304368583485484 -0.013770397752523422 -0.005142753012478352 0.003722805064171553 -0.000545803515706211 -0.005226036999374628 -0.006387487053871155 -0.024153329432010651 0.003017873037606478 -0.017079662531614304 0.039552580565214157 -0.003411660902202129 -0.002418441465124488 0.011789768002927303 -0.014336438849568367 -0.014204037375748158 -0.005037561058998108 -0.006221341434866190 0.009070274420082569 -0.006962578278034925 -0.008632978424429893 -0.012230803258717060 -0.017039325088262558 0.018965691328048706 0.002028170507401228 -0.025526920333504677 -0.028141520917415619 0.021373199298977852 0.012004559859633446 -0.035148318856954575 -0.006932822987437248 0.005161853507161140 0.040111061185598373 0.000288519193418324 0.009284093044698238 -0.011021057143807411 -0.024652775377035141 0.004292722791433334 0.017658578231930733 0.030711401253938675 -0.032323256134986877 -0.011149855330586433 -0.008019918575882912 -0.011686168611049652 0.018243683502078056 0.020192507654428482 -0.004869001451879740 0.025129377841949463 0.013119093142449856 0.033690404146909714 0.002200784161686897 -0.034407019615173340 -0.004837758839130402 0.011962366290390491 -0.000939438934437931 0.000082093683886342 0.019801661372184753 -0.007510850206017494 -0.010542006231844425 -0.000608301721513271 0.017507502809166908 0.006979415658861399 -0.002895419718697667 0.000960724835749716 0.010065764188766479 -0.020499043166637421 0.013437811285257339 0.006756363902240992 -0.012144143693149090 0.019766272976994514 0.020897317677736282 0.001875896356068552 -0.017151724547147751 -0.005259914789348841 0.049798045307397842 0.002953426679596305 -0.010746682062745094 0.015057135373353958 0.009012166410684586 -0.026040395721793175 -0.009120975621044636 -0.022391285747289658 0.010219625197350979
