#Layer 2 Biases:
-0.027899893000721931 0.009650969877839088 0.031777676194906235 0.020179122686386108 0.016127066686749458 0.027179453521966934 0.006663130596280098 -0.019618635997176170 0.033178944140672684 0.028535570949316025 0.027748933061957359 -0.008210495114326477 0.028340347111225128 0.026008235290646553 -0.032727926969528198 -0.000353195762727410 0.023770349100232124 0.044012598693370819 -0.044754225760698318 -0.002285124268382788 -0.061842229217290878 0.059959679841995239 -0.016374599188566208 -0.038698151707649231 -0.054485950618982315 -0.021250067278742790 -0.022366022691130638 0.005145185161381960 0.004673360846936703 0.048431009054183960 0.043206673115491867 0.016184618696570396 0.012692041695117950 0.028645256534218788 -0.032351162284612656 0.038444552570581436 0.019966335967183113 0.024712659418582916 -0.048427298665046692 -0.015216075815260410 0.015006719157099724 -0.061889462172985077 0.043501868844032288 0.014368630945682526 -0.067275337874889374 0.007882823236286640 0.027550615370273590 -0.020462142303586006 -0.039383322000503540 0.028710158541798592 -0.042955618351697922 0.002203371841460466 0.002098974771797657 0.070068344473838806 0.001734282239340246 0.057341136038303375 0.070296145975589752 0.034774560481309891 -0.022406449541449547 -0.103406064212322235 -0.030041996389627457 0.089946351945400238 0.030557140707969666 0.007285986561328173 -0.028962733224034309 -0.013015974313020706 0.032402183860540390 0.018376704305410385 0.002084120409563184 0.006524754222482443 -0.059605490416288376 0.048362009227275848 -0.018815569579601288 -0.044206075370311737 -0.031699091196060181 0.023991709575057030 0.014144350774586201 -0.038616746664047241 0.020448055118322372 0.006293606944382191 -0.003222825704142451 0.010569774545729160 -0.003634006250649691 -0.060518555343151093 -0.013810350559651852 -0.059516027569770813 -0.024535967037081718 0.001798931625671685 -0.010376026853919029 0.012238082475960255 -0.087402530014514923 -0.014332263730466366 -0.030967121943831444 0.008053150027990341 -0.052048478275537491 0.013820691034197807 -0.008109937421977520 -0.008235536515712738 0.022423705086112022 -0.118821375072002411
