#Layer 0 Biases:
-0.002149934647604823 -0.050354611128568649 0.059781625866889954 0.049543410539627075 0.078414179384708405 0.060746122151613235 0.031279571354389191 -0.035018559545278549 0.118910208344459534 -0.013451666571199894 0.008237682282924652 0.083835408091545105 -0.071627818048000336 0.079417906701564789 -0.019817674532532692 0.038246154785156250 0.081357941031455994 -0.077557586133480072 -0.000349081499734893 0.008336472325026989 -0.051724735647439957 0.023328777402639389 0.025844553485512733 -0.033339466899633408 -0.060407426208257675 -0.080456711351871490 0.056656457483768463 0.043198529630899429 0.065493337810039520 -0.050407186150550842 0.017447071149945259 -0.017298324033617973 -0.033995050936937332 0.011080696247518063 -0.039980627596378326 0.093166485428810120 -0.090272203087806702 -0.109806217253208160 -0.008962425403296947 -0.101318620145320892 0.082700289785861969 0.056859854608774185 0.087286509573459625 -0.065380483865737915 0.032807901501655579 -0.105209492146968842 0.106065519154071808 -0.105512738227844238 0.042174912989139557 0.064558036625385284 -0.065506979823112488 0.066682249307632446 -0.068209938704967499 -0.064674690365791321 0.024080811068415642 -0.053573813289403915 -0.012101742438971996 -0.048904675990343094 -0.048968620598316193 -0.064164482057094574 -0.032143846154212952 -0.009917874820530415 -0.074178747832775116 -0.017502145841717720 0.071077264845371246 -0.068237416446208954 0.106578826904296875 -0.023351943120360374 -0.092115178704261780 -0.039369773119688034 -0.038497932255268097 0.051062781363725662 0.030803509056568146 0.061898108571767807 -0.067158155143260956 -0.130539387464523315 0.046749513596296310 -0.037269964814186096 -0.064224563539028168 0.104558013379573822 -0.094717122614383698 -0.027103815227746964 -0.135318756103515625 -0.025954073294997215 -0.088430270552635193 -0.078491061925888062 0.067093126475811005 0.053921733051538467 -0.029458509758114815 0.090134404599666595 -0.073718816041946411 -0.033822800964117050 0.036708481609821320 0.074191026389598846 -0.021964255720376968 0.005763995926827192 0.081850215792655945 -0.009892324917018414 -0.019774341955780983 -0.010730992071330547
