#Layer 0 Weights:
0.022625409066677094 0.055153787136077881 -0.082305997610092163 -0.176525056362152100 -0.180702790617942810 -0.125106781721115112 -0.117362253367900848 0.297369033098220825 -0.178163602948188782 0.083011791110038757 -0.034359101206064224 -0.038796283304691315 0.175852775573730469 -0.139570266008377075 0.180571764707565308 -0.114468276500701904 0.000345682143233716 0.134130746126174927 0.124775633215904236 -0.314332544803619385 0.101193509995937347 -0.314206689596176147 -0.064851202070713043 0.142182886600494385 0.077590256929397583 0.250961005687713623 -0.117876969277858734 -0.138736262917518616 -0.146982535719871521 0.057284776121377945 -0.048627141863107681 -0.233002126216888428 0.020155787467956543 -0.244115456938743591 -0.135603234171867371 -0.231285154819488525 0.079878076910972595 0.244727686047554016 -0.191828966140747070 0.200758263468742371 -0.160649865865707397 -0.088053651154041290 -0.250382602214813232 0.253220468759536743 -0.087315335869789124 0.165283188223838806 -0.150059908628463745 -0.043079484254121780 -0.053956881165504456 -0.211024492979049683 0.145168989896774292 -0.265145152807235718 0.007469463627785444 0.168158248066902161 0.185261711478233337 0.086639605462551117 0.040226910263299942 0.137245267629623413 0.290521889925003052 0.013735248707234859 0.019899915903806686 -0.183071538805961609 0.046912811696529388 -0.098835103213787079 -0.235866487026214600 0.193597123026847839 -0.150905564427375793 0.033506941050291061 0.198527306318283081 0.237639203667640686 -0.210076570510864258 -0.121032372117042542 -0.138403624296188354 -0.145672366023063660 0.204072982072830200 0.089695811271667480 0.029840894043445587 0.104525446891784668 0.287388294935226440 -0.181532457470893860 0.140277087688446045 0.133036896586418152 0.185000583529472351 0.024658229202032089 0.205990061163902283 0.231633782386779785 -0.204583749175071716 -0.298128217458724976 -0.036058131605386734 -0.198318988084793091 0.282951563596725464 0.261033117771148682 -0.012759516946971416 -0.199406936764717102 -0.071571424603462219 -0.162281990051269531 -0.163934230804443359 -0.145791560411453247 0.054802551865577698 0.024041848257184029
-0.015722382813692093 -0.129064202308654785 -0.172506794333457947 0.163472056388854980 0.066875301301479340 0.019550498574972153 -0.077350057661533356 0.087658025324344635 -0.155817762017250061 0.118296377360820770 -0.189641773700714111 -0.252438157796859741 0.145209535956382751 0.006397399585694075 -0.127631530165672302 -0.189239025115966797 0.188372045755386353 0.114930585026741028 0.157605409622192383 0.201586738228797913 0.047446321696043015 0.100691422820091248 -0.208492279052734375 0.048303943127393723 -0.149168983101844788 0.106085799634456635 0.014259036630392075 -0.078898146748542786 -0.137898668646812439 0.220602393150329590 -0.023166589438915253 0.115787066519260406 0.171068891882896423 0.223456799983978271 -0.161017715930938721 0.034982666373252869 -0.037487685680389404 0.237072870135307312 -0.058283302932977676 -0.190022498369216919 -0.231458827853202820 -0.078846596181392670 0.020364422351121902 0.107617914676666260 0.100447095930576324 -0.117243029177188873 0.075848437845706940 -0.233872875571250916 -0.080592654645442963 0.037587199360132217 -0.160444721579551697 -0.055900596082210541 0.243409067392349243 -0.104855567216873169 -0.194761037826538086 0.120025038719177246 0.221999347209930420 0.092535898089408875 -0.034373018890619278 -0.121521681547164917 0.078654132783412933 0.008763635531067848 0.102965004742145538 -0.166709721088409424 0.241094708442687988 0.011539655737578869 -0.190666258335113525 0.008408723399043083 -0.191812679171562195 0.102064780890941620 -0.147737205028533936 -0.074302680790424347 -0.120476238429546356 -0.100538328289985657 0.162361383438110352 -0.008685442619025707 -0.141476720571517944 0.225642696022987366 -0.203059136867523193 -0.143812865018844604 0.039687376469373703 0.167009577155113220 -0.026412928476929665 -0.093094266951084137 0.001241649268195033 0.236440271139144897 -0.251745283603668213 0.048631627112627029 0.123925909399986267 -0.061950094997882843 -0.197916597127914429 -0.031254909932613373 -0.089073918759822845 0.244617521762847900 -0.114500738680362701 0.241337999701499939 0.089743062853813171 0.053215932101011276 0.001748856389895082 -0.159772530198097229
