#Layer 8 Weights:
-0.000495109008625150
-0.000086822481534909
-0.051329057663679123
-0.125603258609771729
-0.136509746313095093
-0.028361607342958450
-0.012293354608118534
0.212726309895515442
-0.129776924848556519
0.116629779338836670
0.000223533890675753
0.000248664087848738
0.140635594725608826
-0.092988356947898865
0.153103455901145935
-0.070581346750259399
0.033058125525712967
0.092120736837387085
0.146296024322509766
-0.222880229353904724
0.034428413957357407
-0.193042963743209839
-0.033729463815689087
0.102335222065448761
-0.000017614805983612
0.219386681914329529
-0.090487062931060791
-0.103788547217845917
-0.060429297387599945
0.042081996798515320
-0.016006095334887505
-0.116695493459701538
0.000404137215809897
-0.106061302125453949
-0.143376767635345459
-0.174687340855598450
0.018695048987865448
0.195647925138473511
-0.151785358786582947
0.106685444712638855
-0.129172563552856445
-0.035221487283706665
-0.147140473127365112
0.208590671420097351
-0.066013276576995850
0.099235959351062775
-0.079363666474819183
-0.070492722094058990
-0.009175345301628113
-0.139997631311416626
0.043005947023630142
-0.225025549530982971
-0.020759571343660355
0.100623399019241333
0.156350240111351013
0.045162983238697052
0.054092593491077423
0.057102520018815994
0.226417854428291321
-0.009223518893122673
0.004458025563508272
-0.150488272309303284
0.000759112939704210
-0.127462610602378845
-0.186360999941825867
0.135672092437744141
-0.138368383049964905
0.068032339215278625
0.146076142787933350
0.200423821806907654
-0.189569398760795593
-0.039806123822927475
-0.051098901778459549
-0.077731750905513763
0.052696786820888519
0.052609190344810486
0.024468835443258286
0.062093269079923630
0.216465607285499573
-0.135511994361877441
0.111152693629264832
0.084952279925346375
0.150003805756568909
0.000480003887787461
0.131276950240135193
0.191454857587814331
-0.158197060227394104
-0.226530462503433228
-0.048169083893299103
-0.144121363759040833
0.224414512515068054
0.167826011776924133
0.000018746537534753
-0.156769499182701111
-0.079913571476936340
-0.113649994134902954
-0.133188918232917786
-0.075106672942638397
0.037583190947771072
0.007122946437448263
