#Layer 1 Weights:
0.008209011517465115 0.039132993668317795 -0.034146752208471298 -0.108418256044387817 -0.110541656613349915 -0.042753253132104874 -0.030622335150837898 0.140259802341461182 -0.105805478990077972 0.083213463425636292 -0.013254973106086254 -0.118764199316501617 0.125078156590461731 -0.048446360975503922 0.105366542935371399 -0.111025705933570862 0.026721429079771042 0.088279448449611664 0.096395134925842285 -0.156728789210319519 0.030933177098631859 -0.141112372279167175 -0.018886955454945564 0.098429158329963684 0.003752739168703556 0.167895019054412842 -0.056754127144813538 -0.092092022299766541 -0.076921582221984863 0.075247958302497864 0.070587947964668274 -0.115171402692794800 0.026945410296320915 -0.099006555974483490 -0.134508728981018066 -0.120811954140663147 0.052177529782056808 0.160739257931709290 -0.123566851019859314 0.114339806139469147 -0.100231595337390900 -0.034193094819784164 -0.130440324544906616 0.157362475991249084 -0.073159277439117432 0.181826174259185791 -0.068899996578693390 -0.054564341902732849 -0.032844651490449905 -0.112945683300495148 -0.042046930640935898 -0.158959120512008667 -0.012180062010884285 0.076430201530456543 0.126485943794250488 0.022086545825004578 0.042810671031475067 0.053309883922338486 0.180726379156112671 -0.021662481129169464 -0.008668326772749424 -0.118042349815368652 -0.006023860536515713 -0.103289134800434113 -0.148401662707328796 0.245596393942832947 -0.109730452299118042 0.050566293299198151 0.113947294652462006 0.157803282141685486 -0.149389699101448059 -0.052952710539102554 -0.077277146279811859 -0.114840909838676453 0.120895974338054657 0.032306835055351257 0.042524676769971848 0.037562780082225800 0.185190647840499878 -0.114377088844776154 0.080168567597866058 0.077854655683040619 0.111284449696540833 -0.003563326550647616 0.121784165501594543 0.149803191423416138 -0.129978403449058533 -0.207600027322769165 -0.046470612287521362 -0.103820487856864929 0.176353260874748230 0.144828096032142639 0.004952400922775269 -0.109442792832851410 -0.055755220353603363 -0.107953801751136780 -0.085651144385337830 -0.102969825267791748 0.042142152786254883 0.019402485340833664
-0.134621217846870422 -0.054982729256153107 -0.077359087765216827 0.106575727462768555 0.055764358490705490 0.031382560729980469 -0.058825477957725525 0.054732691496610641 -0.102939084172248840 0.162303090095520020 -0.151979193091392517 -0.326316744089126587 0.159356445074081421 0.038473505526781082 -0.097710900008678436 -0.196785315871238708 0.152349770069122314 0.086077131330966949 0.134787067770957947 0.170392796397209167 0.024461176246404648 0.086632400751113892 -0.106732480227947235 0.072350651025772095 -0.130751088261604309 0.097390867769718170 0.007664056029170752 -0.062839083373546600 -0.094814069569110870 0.141931101679801941 0.095365248620510101 0.085072889924049377 0.143339872360229492 0.122872799634933472 -0.148771047592163086 0.023633336648344994 -0.029318382963538170 0.172901511192321777 -0.032239507883787155 -0.125229164958000183 -0.156189337372779846 -0.062165588140487671 0.014543241821229458 0.079583615064620972 0.109310105443000793 0.033049322664737701 0.055106095969676971 -0.118296317756175995 -0.058881983160972595 0.028878545388579369 -0.248488709330558777 -0.019574409350752831 0.152198150753974915 -0.060735039412975311 -0.159308165311813354 0.086781799793243408 0.182675823569297791 0.063924871385097504 0.008800254203379154 -0.117435745894908905 0.046914927661418915 -0.004158687312155962 0.045294824987649918 -0.130681410431861877 0.166526287794113159 0.189116209745407104 -0.165016949176788330 0.034644987434148788 -0.148403272032737732 0.089317463338375092 -0.121846482157707214 -0.084604389965534210 -0.080778814852237701 -0.085185669362545013 0.101497516036033630 -0.021589087322354317 -0.088685438036918640 0.161149606108665466 -0.150850251317024231 -0.115146212279796600 0.014776537194848061 0.121570773422718048 -0.048335038125514984 -0.091640710830688477 -0.008310259319841862 0.183905795216560364 -0.161750286817550659 -0.002331186784431338 0.101543195545673370 -0.033283531665802002 -0.138262987136840820 -0.030093092471361160 -0.048962980508804321 0.162238687276840210 -0.092630572617053986 0.162661746144294739 0.068844124674797058 0.056857611984014511 0.017106272280216217 -0.123961716890335083
0.017983073368668556 0.005814248695969582 0.015651239082217216 0.139495685696601868 0.074853613972663879 -0.020709957927465439 -0.134301543235778809 0.004257332067936659 -0.004623039159923792 0.012169273570179939 -0.134019464254379272 -0.206701219081878662 0.158010527491569519 0.029649553820490837 -0.119510971009731293 -0.034733559936285019 0.002204377669841051 0.115855716168880463 0.151427000761032104 0.144826918840408325 0.094567418098449707 0.134512558579444885 -0.146808356046676636 -0.088759407401084900 0.109008051455020905 -0.019098652526736259 0.104252129793167114 -0.075107730925083160 -0.021830521523952484 0.027762616053223610 0.068727679550647736 0.077873647212982178 -0.142429620027542114 -0.032454233616590500 -0.118782117962837219 -0.000566910312045366 0.062518768012523651 0.087771110236644745 0.044359683990478516 0.182410314679145813 0.168973550200462341 0.026763005182147026 -0.003897769143804908 -0.149248749017715454 0.080517865717411041 -0.021320370957255363 -0.088779158890247345 0.144738584756851196 0.156233400106430054 0.011044924147427082 0.050614044070243835 0.044055882841348648 0.085385277867317200 -0.150075420737266541 0.110197409987449646 -0.183468386530876160 0.065183989703655243 0.065900728106498718 0.009739981964230537 -0.170678809285163879 -0.113627061247825623 0.006173613481223583 0.116506643593311310 0.084556467831134796 -0.144434630870819092 0.078731268644332886 0.133190900087356567 0.046471223235130310 -0.006418673321604729 -0.032565977424383163 -0.087633430957794189 -0.016078131273388863 -0.100739009678363800 0.083193555474281311 -0.028365110978484154 -0.139303237199783325 -0.032411117106676102 -0.004742119461297989 0.026693550869822502 -0.059565883129835129 -0.079474791884422302 -0.071249939501285553 0.136668533086776733 0.078713528811931610 0.084842272102832794 0.148273825645446777 -0.022766787558794022 -0.091267913579940796 0.109653234481811523 0.184610381722450256 0.139549911022186279 -0.033432912081480026 0.105917952954769135 -0.082746028900146484 -0.119210638105869293 0.130798086524009705 -0.018552839756011963 -0.018650976940989494 -0.028688646852970123 -0.004209959413856268
0.159825861454010010 -0.085671782493591309 -0.070243224501609802 -0.116808220744132996 -0.018517279997467995 0.030191853642463684 0.009867108426988125 0.064368322491645813 -0.073673874139785767 -0.153695076704025269 -0.077020235359668732 0.053609766066074371 -0.111888423562049866 -0.109673000872135162 0.020248131826519966 0.216036036610603333 0.086107760667800903 0.178321316838264465 0.121374331414699554 -0.110124595463275909 0.065055668354034424 -0.078063480556011200 -0.190216258168220520 -0.144586682319641113 -0.068471968173980713 -0.070555999875068665 0.042232912033796310 0.145395621657371521 -0.130541980266571045 0.026755392551422119 -0.250911355018615723 0.152137637138366699 -0.145968347787857056 0.226232260465621948 0.036084558814764023 0.173271775245666504 -0.003064002143219113 -0.046187754720449448 -0.115548282861709595 -0.014769418165087700 0.130319625139236450 0.148994341492652893 -0.137555599212646484 -0.065493896603584290 -0.149848103523254395 -0.070507451891899109 0.107438884675502777 -0.096686847507953644 0.198095500469207764 0.151398614048957825 0.196374371647834778 -0.045990362763404846 -0.105800524353981018 -0.118307158350944519 -0.096057727932929993 -0.070978671312332153 -0.164029836654663086 -0.120466545224189758 -0.001636220025829971 0.119124412536621094 0.108575597405433655 -0.189460933208465576 -0.021865541115403175 0.185661673545837402 -0.062415711581707001 -0.357231318950653076 0.150854051113128662 -0.100335180759429932 0.058368168771266937 0.127236217260360718 0.000128726140246727 0.102529279887676239 -0.164574980735778809 0.005602243822067976 -0.114394612610340118 -0.142919480800628662 0.130256146192550659 0.047159444540739059 0.158860519528388977 0.195017844438552856 -0.088462181389331818 0.053082440048456192 -0.056584928184747696 -0.073038689792156219 -0.020371459424495697 0.106814697384834290 -0.066114291548728943 0.085170909762382507 -0.033137593418359756 0.131617173552513123 -0.125936448574066162 -0.055992458015680313 0.090095698833465576 -0.000602553307544440 0.052186042070388794 -0.084707550704479218 0.172524422407150269 -0.024593485519289970 -0.031476788222789764 0.200331747531890869
-0.075175225734710693 0.013248984701931477 -0.084118291735649109 -0.065222539007663727 0.165641129016876221 -0.053869795054197311 0.092332385480403900 -0.206281796097755432 0.036763835698366165 -0.045227300375699997 -0.040510818362236023 0.096366174519062042 -0.180783614516258240 -0.045460995286703110 -0.121719412505626678 0.067700833082199097 0.135550335049629211 -0.109247028827667236 -0.052748341113328934 -0.154564648866653442 0.016415495425462723 0.097918510437011719 -0.211230963468551636 0.072373770177364349 -0.082735247910022736 -0.068843655288219452 -0.072127163410186768 0.146224036812782288 0.106510721147060394 0.018181553110480309 -0.109071291983127594 0.078514069318771362 0.108051694929599762 0.154847189784049988 0.123296819627285004 -0.061756413429975510 0.151496648788452148 0.002166815567761660 -0.117094494402408600 -0.103914394974708557 0.056429427117109299 -0.018913058564066887 0.016982017084956169 0.066197879612445831 0.089415602385997772 -0.173825755715370178 0.032122742384672165 -0.210924312472343445 0.021559836342930794 0.175407469272613525 -0.128389850258827209 0.077944681048393250 -0.076595328748226166 -0.113174155354499817 0.160809904336929321 -0.149693638086318970 0.060626018792390823 -0.165663942694664001 -0.208371326327323914 -0.144899830222129822 0.000119169882964343 0.060278840363025665 0.029215084388852119 -0.037836220115423203 -0.110408939421176910 0.014634420163929462 0.070772446691989899 0.192836761474609375 0.038850937038660049 0.082286417484283447 -0.030503276735544205 0.009079386480152607 0.017536932602524757 -0.132117509841918945 0.066512249410152435 -0.079017147421836853 0.035516973584890366 -0.073651202023029327 0.052490308880805969 0.138331711292266846 0.031636420637369156 -0.127683505415916443 0.034732066094875336 -0.100537657737731934 0.033156368881464005 -0.085611835122108459 0.075323298573493958 0.013075849041342735 0.026774294674396515 0.051313709467649460 -0.012574158608913422 0.099092550575733185 0.125476196408271790 0.115695431828498840 -0.155834481120109558 -0.111479580402374268 0.149615943431854248 -0.212449967861175537 0.115805655717849731 -0.035563994199037552
0.079298086464405060 -0.008955129422247410 0.100084468722343445 0.080780357122421265 0.091156102716922760 -0.125082805752754211 -0.122956141829490662 -0.089406974613666534 -0.083075597882270813 -0.061024341732263565 -0.197247803211212158 -0.038087226450443268 -0.221074163913726807 -0.216660216450691223 -0.007034147158265114 0.111838310956954956 0.192944914102554321 0.086159460246562958 0.092554599046707153 -0.084539487957954407 -0.021959897130727768 0.132958918809890747 0.088628150522708893 0.070574693381786346 -0.024232085794210434 -0.063361957669258118 0.109664313495159149 -0.090346194803714752 0.016276398673653603 0.152995616197586060 -0.189474970102310181 -0.077612437307834625 0.162925377488136292 0.227764487266540527 -0.197119191288948059 0.137477695941925049 0.154376238584518433 -0.110031686723232269 -0.040290519595146179 0.037568550556898117 -0.092008583247661591 0.227675765752792358 -0.040995907038450241 -0.074923366308212280 -0.097768850624561310 0.127212315797805786 -0.060934800654649734 -0.166924178600311279 -0.100866921246051788 0.224877879023551941 0.151423320174217224 0.044649150222539902 -0.104700550436973572 0.065295889973640442 -0.043495249003171921 -0.197077468037605286 0.048669267445802689 0.053397696465253830 -0.082171984016895294 -0.093712754547595978 0.003303808392956853 0.091082386672496796 -0.015188119374215603 -0.092007949948310852 0.029510762542486191 -0.226002052426338196 0.070106193423271179 -0.040567271411418915 -0.190387517213821411 -0.024314343929290771 0.140614777803421021 0.075387902557849884 -0.129645138978958130 0.149516820907592773 0.173876881599426270 -0.199568301439285278 -0.017252188175916672 0.105215363204479218 0.189369276165962219 0.042064759880304337 0.113859459757804871 0.080158621072769165 -0.011890939436852932 -0.168320968747138977 0.178036049008369446 -0.177791774272918701 -0.071089833974838257 -0.190758720040321350 -0.217193499207496643 -0.067566648125648499 0.037247128784656525 0.068923540413379669 -0.155353054404258728 -0.061880249530076981 -0.156427070498466492 0.053494695574045181 -0.034769311547279358 -0.243481457233428955 -0.116491504013538361 0.155845686793327332
-0.100925654172897339 -0.066494062542915344 0.157676503062248230 -0.014730130322277546 0.159305274486541748 0.138866156339645386 -0.131405100226402283 -0.072418399155139923 -0.059697959572076797 -0.044385552406311035 0.017002526670694351 -0.007347616832703352 0.037897709757089615 -0.141435220837593079 -0.099961802363395691 0.002526611788198352 -0.084020756185054779 -0.064800135791301727 0.075945161283016205 0.149262934923171997 0.027609158307313919 -0.062115609645843506 0.020423794165253639 0.182776913046836853 -0.184962674975395203 -0.077091969549655914 0.120006240904331207 0.095710694789886475 -0.053166348487138748 0.124533772468566895 -0.024129055440425873 0.154084637761116028 -0.035280663520097733 0.089720211923122406 -0.024197464808821678 0.005865645129233599 0.106794998049736023 -0.138538226485252380 0.026134934276342392 0.055386576801538467 -0.057900741696357727 0.087021283805370331 -0.108472026884555817 -0.148737013339996338 0.132633432745933533 0.071421600878238678 -0.063229851424694061 0.096987679600715637 0.078462205827236176 -0.004423732869327068 -0.132423862814903259 -0.176022842526435852 0.164020210504531860 0.047423914074897766 0.126705735921859741 0.033166147768497467 0.167124748229980469 -0.170900583267211914 -0.114140532910823822 -0.015906775370240211 0.136104658246040344 -0.060767512768507004 0.158140972256660461 0.147004261612892151 -0.005868376232683659 -0.072118841111660004 0.130879759788513184 -0.030692806467413902 0.142813146114349365 0.026681328192353249 0.052643980830907822 0.144085645675659180 -0.109811969101428986 0.091880865395069122 0.153953045606613159 0.002922106999903917 0.138639762997627258 0.096530817449092865 -0.011563075706362724 0.150888592004776001 -0.114518530666828156 -0.057797458022832870 -0.183532297611236572 0.107998587191104889 -0.131493106484413147 0.044526863843202591 -0.175818473100662231 -0.165255099534988403 -0.116217263042926788 -0.052112430334091187 0.006839628797024488 -0.122240021824836731 0.127611935138702393 -0.060628037899732590 0.160903900861740112 -0.132993534207344055 -0.113232091069221497 -0.083088427782058716 -0.066776745021343231 0.029518527910113335
0.161221563816070557 0.133267551660537720 -0.059985212981700897 -0.072846196591854095 0.107357226312160492 -0.024379121139645576 -0.063950687646865845 0.066348634660243988 0.018067594617605209 -0.117082893848419189 -0.047975409775972366 0.194398790597915649 0.151572391390800476 0.137142255902290344 -0.122525691986083984 -0.178120985627174377 -0.083541832864284515 0.003925791941583157 -0.180791184306144714 -0.001057149493135512 0.003571024397388101 -0.128055289387702942 0.134041503071784973 0.093339748680591583 0.007510181982070208 0.042208962142467499 0.084837332367897034 0.137063696980476379 0.136952757835388184 -0.163812756538391113 -0.166856437921524048 -0.084169305860996246 0.028997417539358139 -0.131627872586250305 -0.037256155163049698 0.052569285035133362 -0.193832784891128540 0.118197761476039886 0.061063382774591446 0.070897951722145081 -0.124617777764797211 -0.038895633071660995 -0.106187902390956879 -0.110151983797550201 0.026137098670005798 -0.119562081992626190 -0.050778809934854507 0.216261595487594604 0.008473240770399570 -0.095061920583248138 0.115698888897895813 -0.053539864718914032 -0.049588948488235474 -0.046345721930265427 0.146958068013191223 -0.122753091156482697 -0.110495656728744507 -0.051388390362262726 0.134065985679626465 -0.060828965157270432 0.129881680011749268 -0.146062776446342468 -0.020237600430846214 -0.046784888952970505 0.036600776016712189 -0.028674354776740074 -0.167671710252761841 -0.108249247074127197 -0.053391795605421066 0.092043012380599976 -0.024735162034630775 -0.173222661018371582 0.124248921871185303 0.111328557133674622 0.022977961227297783 0.099796965718269348 0.053859714418649673 -0.061036661267280579 -0.034671507775783539 -0.142291054129600525 0.095028810203075409 -0.106163918972015381 0.158004626631736755 0.099744379520416260 -0.119938991963863373 0.194544985890388489 0.001623230637051165 -0.071968704462051392 0.122047796845436096 -0.109098672866821289 -0.132792577147483826 0.155672833323478699 0.056938055902719498 0.092494234442710876 0.166256412863731384 0.166251465678215027 -0.033663880079984665 0.151181325316429138 -0.035793352872133255 -0.060463476926088333
0.039042882621288300 0.126925870776176453 -0.033152010291814804 -0.059853181242942810 0.134953677654266357 0.158724248409271240 -0.094924964010715485 -0.166481852531433105 -0.097061313688755035 0.027739230543375015 -0.159118056297302246 0.048692043870687485 0.045785475522279739 0.000216186817851849 -0.182456165552139282 0.094555214047431946 -0.116857320070266724 0.172968864440917969 0.178331315517425537 0.100705996155738831 -0.147561624646186829 0.194810763001441956 0.056204214692115784 -0.049020934849977493 -0.149372979998588562 0.092216052114963531 -0.047659285366535187 0.099522143602371216 0.103963747620582581 0.065693601965904236 0.184244617819786072 0.004764731507748365 -0.003560230368748307 -0.116407349705696106 -0.176581382751464844 0.053758922964334488 -0.023361660540103912 0.081274442374706268 -0.108285382390022278 -0.028145732358098030 -0.001455107936635613 0.090547196567058563 -0.117417424917221069 0.081262893974781036 -0.117818206548690796 0.058642502874135971 -0.007573601789772511 -0.055827021598815918 0.038459289819002151 -0.045207642018795013 -0.229056820273399353 -0.027363037690520287 -0.130399510264396667 0.052491128444671631 -0.037375830113887787 -0.189674898982048035 0.078041046857833862 0.078342162072658539 -0.133932650089263916 0.056016642600297928 -0.191043317317962646 -0.155936732888221741 0.014036188833415508 0.025893596932291985 0.164787366986274719 -0.036133460700511932 -0.130133047699928284 0.008051211945712566 0.099677041172981262 0.049413193017244339 -0.119977973401546478 0.090067535638809204 -0.005212591961026192 -0.082813419401645660 -0.133759379386901855 -0.055500447750091553 0.036807660013437271 -0.034773427993059158 0.083923131227493286 0.076436929404735565 0.010027336888015270 0.042158659547567368 -0.047605976462364197 -0.076217733323574066 -0.072597011923789978 -0.175898671150207520 0.127737417817115784 0.030154816806316376 -0.140168190002441406 -0.080902427434921265 0.044642042368650436 -0.031094927340745926 -0.023143421858549118 -0.154661893844604492 -0.109877154231071472 -0.182548567652702332 -0.070222847163677216 0.000542051915545017 -0.127341225743293762 0.007341117132455111
0.103302158415317535 0.009145983494818211 0.102225191891193390 0.090566158294677734 -0.120728284120559692 -0.034489721059799194 0.083049938082695007 0.107061401009559631 0.097956456243991852 0.082146696746349335 0.109192557632923126 0.001533955568447709 0.095783643424510956 0.161005273461341858 -0.149366617202758789 0.114855788648128510 0.140963122248649597 -0.086701966822147369 0.135304138064384460 -0.170907005667686462 -0.029459629207849503 0.095500513911247253 0.122873641550540924 0.066644355654716492 -0.142117530107498169 -0.001464908826164901 0.145614221692085266 -0.151907593011856079 0.090894132852554321 0.085275366902351379 -0.139956444501876831 -0.101354673504829407 0.126781925559043884 -0.118820160627365112 0.099422968924045563 0.043301295489072800 -0.127711132168769836 -0.029146920889616013 -0.017824405804276466 -0.040784277021884918 -0.126222014427185059 -0.043873429298400879 -0.049534708261489868 -0.007210747338831425 -0.123325936496257782 -0.085925295948982239 -0.062525853514671326 0.104352898895740509 -0.141687929630279541 0.023985417559742928 0.065506592392921448 -0.115608334541320801 -0.052409350872039795 -0.147923499345779419 0.013410828076303005 -0.084319025278091431 0.124179579317569733 -0.002662962069734931 0.089003659784793854 0.142881408333778381 -0.128744974732398987 -0.015767194330692291 0.147230282425880432 0.083154320716857910 0.103899843990802765 0.008495108224451542 -0.144810259342193604 0.065101414918899536 0.064051516354084015 0.005415870808064938 0.159456595778465271 -0.026149366050958633 0.044914003461599350 0.162988856434822083 0.065144799649715424 0.122859589755535126 -0.187267884612083435 0.020509473979473114 0.101497016847133636 0.067545972764492035 -0.136971727013587952 -0.141973733901977539 -0.075061753392219543 -0.000281373359030113 -0.030629709362983704 0.151745751500129700 0.030251430347561836 0.205549418926239014 -0.077926531434059143 -0.007244559470564127 0.028870914131402969 0.091392599046230316 0.123732089996337891 0.157273232936859131 0.060061819851398468 -0.033762145787477493 0.046682674437761307 -0.051682967692613602 0.005640752613544464 0.068832963705062866
-0.000896519573871046 0.048762813210487366 0.145352646708488464 0.104734666645526886 0.013248606584966183 -0.166135475039482117 0.104590788483619690 0.030128924176096916 0.104256540536880493 0.143268868327140808 0.078782074153423309 -0.131405815482139587 -0.144704431295394897 -0.036495625972747803 0.157419726252555847 0.133068561553955078 -0.133593261241912842 0.009492639452219009 0.080798231065273285 -0.139939978718757629 -0.024396058171987534 -0.135521635413169861 0.185715734958648682 -0.148092091083526611 0.003004183759912848 0.087799020111560822 0.150307312607765198 -0.051924105733633041 -0.040231879800558090 0.180877357721328735 0.248984709382057190 0.149338617920875549 -0.028859673067927361 0.176161050796508789 -0.069451250135898590 0.018582886084914207 -0.082853510975837708 0.107454657554626465 0.009093554690480232 0.005467440001666546 0.025980273261666298 -0.159870907664299011 -0.087398655712604523 0.015570810995995998 -0.022690834477543831 0.045000694692134857 0.123447194695472717 0.122463107109069824 0.020377749577164650 0.174637556076049805 -0.005938492715358734 0.119961351156234741 -0.163422778248786926 -0.027848888188600540 0.084271408617496490 -0.110877655446529388 0.070219613611698151 -0.169613480567932129 -0.043498139828443527 0.105624571442604065 -0.162006840109825134 0.111170485615730286 -0.076606266200542450 -0.061633057892322540 -0.131241604685783386 0.087917104363441467 0.089254751801490784 -0.031399320811033249 0.106423690915107727 0.128566458821296692 -0.079965822398662567 -0.093506202101707458 -0.079996459186077118 0.001888585858978331 0.141269981861114502 0.140105918049812317 -0.064322106540203094 -0.106094956398010254 -0.025666601955890656 -0.119712650775909424 0.007110813632607460 0.118596710264682770 0.109828293323516846 0.108765035867691040 -0.119124971330165863 0.110915005207061768 -0.107943773269653320 -0.049818709492683411 -0.026133870705962181 0.023571696132421494 0.073894217610359192 0.166084632277488708 0.060517467558383942 0.152336612343788147 0.176915377378463745 -0.120498292148113251 -0.031765710562467575 -0.162547633051872253 -0.129544645547866821 0.104135774075984955
-0.158759459853172302 0.119442060589790344 -0.036744639277458191 -0.069460190832614899 -0.005546960048377514 -0.075101338326931000 -0.068655475974082947 -0.085469938814640045 0.142283305525779724 -0.012501686811447144 0.056818682700395584 -0.103244379162788391 0.107393123209476471 -0.090891152620315552 -0.113730423152446747 0.035338748246431351 0.081820525228977203 0.096594028174877167 -0.145589768886566162 -0.128532961010932922 0.075570985674858093 0.079347036778926849 0.022459683939814568 0.076956003904342651 -0.096850894391536713 -0.023033732548356056 0.176417455077171326 0.131229579448699951 0.005454502534121275 -0.083724915981292725 0.132372409105300903 0.092929340898990631 -0.066677480936050415 -0.077248699963092804 0.033610336482524872 -0.013182998634874821 0.115805871784687042 0.021555069833993912 0.043765734881162643 0.187559917569160461 0.077473782002925873 0.124272033572196960 -0.073100626468658447 -0.147088363766670227 -0.028808683156967163 0.216260120272636414 -0.072238363325595856 -0.019527163356542587 -0.141250371932983398 0.077782861888408661 -0.124986663460731506 0.029831169173121452 0.167004123330116272 -0.047265142202377319 0.182811498641967773 -0.142196178436279297 0.103903442621231079 0.085569605231285095 0.127288669347763062 -0.076997078955173492 -0.019471453502774239 -0.182747185230255127 0.099501840770244598 0.019081285223364830 -0.050655383616685867 0.144911319017410278 -0.071879595518112183 -0.056378893554210663 0.130565792322158813 0.052208222448825836 -0.017449004575610161 0.145833656191825867 -0.026458708569407463 -0.201645478606224060 -0.085068039596080780 0.105561271309852600 -0.013288335874676704 -0.029875868931412697 -0.141855612397193909 0.003498350502923131 -0.041512586176395416 0.017927063629031181 0.082569770514965057 0.034296035766601562 0.126614555716514587 0.070249199867248535 -0.173832476139068604 -0.219232797622680664 -0.012285449542105198 0.067075900733470917 0.080450341105461121 -0.073374234139919281 -0.075235582888126373 -0.153794690966606140 0.112640701234340668 -0.040690872818231583 -0.084851197898387909 0.130313083529472351 0.124760925769805908 -0.018228063359856606
0.166253983974456787 -0.066006481647491455 0.102188773453235626 0.135629788041114807 -0.074372418224811554 -0.028413748368620872 -0.061619505286216736 0.216581985354423523 0.111517265439033508 0.113698296248912811 -0.112899079918861389 -0.054885331541299820 0.144622698426246643 0.144887015223503113 0.114440351724624634 -0.000195378161151893 -0.056719992309808731 -0.081903606653213501 0.147864922881126404 0.106932125985622406 0.067473091185092926 0.053939785808324814 0.107122331857681274 0.136448010802268982 0.101832062005996704 -0.020792789757251740 0.057715207338333130 -0.109446324408054352 0.177347064018249512 0.046411968767642975 0.027833344414830208 0.152791410684585571 -0.003815189003944397 -0.111952111124992371 -0.141713649034500122 0.110051445662975311 -0.123645856976509094 0.046281330287456512 -0.020700780674815178 0.060769382864236832 -0.003022137098014355 -0.103402592241764069 0.165475293993949890 0.117501199245452881 0.002421659184619784 -0.052008938044309616 -0.010594883002340794 0.147682726383209229 -0.008544363081455231 0.041241250932216644 0.122666627168655396 -0.154541596770286560 0.143807262182235718 0.019458943977952003 0.017178554087877274 0.111792005598545074 0.090415447950363159 0.065238550305366516 -0.128522723913192749 -0.008980871178209782 -0.049222346395254135 -0.016416540369391441 -0.166376903653144836 -0.123224303126335144 -0.134297102689743042 -0.195046916604042053 -0.140042781829833984 -0.171538695693016052 -0.122160680592060089 0.044020906090736389 0.121274113655090332 -0.047776844352483749 -0.075276672840118408 0.011175507679581642 0.081303246319293976 0.052512086927890778 -0.149389863014221191 -0.133489429950714111 0.005596850998699665 -0.178410410881042480 -0.099367707967758179 0.043948639184236526 0.082530364394187927 0.091724365949630737 0.032744079828262329 -0.144339233636856079 -0.039607692509889603 0.068468250334262848 0.116436026990413666 0.009045178070664406 0.083257995545864105 -0.083601132035255432 -0.081540733575820923 0.090827785432338715 -0.083231732249259949 0.056322872638702393 -0.008068751543760300 0.106054179370403290 0.089669428765773773 0.046312805265188217
0.037524759769439697 -0.028850836679339409 -0.121113345026969910 -0.006159627344459295 0.081248052418231964 0.175397396087646484 -0.083820372819900513 -0.174315482378005981 0.029971774667501450 -0.066553324460983276 -0.182729154825210571 -0.068876631557941437 -0.025539597496390343 -0.163467034697532654 -0.178875923156738281 0.157124295830726624 0.104285269975662231 0.212292969226837158 -0.070882648229598999 -0.157751232385635376 -0.163948521018028259 -0.037708207964897156 0.012290331535041332 -0.060807965695858002 0.075259447097778320 -0.113454297184944153 0.149570763111114502 -0.040202885866165161 0.088365830481052399 0.012665018439292908 -0.161100462079048157 -0.090575315058231354 -0.052308358252048492 0.159699082374572754 -0.133275508880615234 0.137511536478996277 -0.056404847651720047 -0.008742276579141617 -0.178047448396682739 0.170824900269508362 -0.154885798692703247 0.068753123283386230 0.088535800576210022 -0.174401029944419861 0.156442850828170776 -0.152106970548629761 0.152622967958450317 -0.100944928824901581 0.191526621580123901 -0.017759503796696663 -0.055052064359188080 -0.119506478309631348 -0.159443736076354980 -0.165286242961883545 -0.110447242856025696 0.008348316885530949 -0.089613549411296844 -0.148019194602966309 -0.248354405164718628 0.023732259869575500 -0.006451946683228016 -0.039553422480821609 0.092310458421707153 0.063811868429183960 0.001219156663864851 0.054251354187726974 0.146005049347877502 0.160379692912101746 -0.102323904633522034 0.079915814101696014 -0.050270844250917435 -0.077324636280536652 0.091058656573295593 -0.120107516646385193 0.028925718739628792 -0.206348314881324768 0.137560918927192688 -0.170602113008499146 0.009193856269121170 0.009192366153001785 0.052687015384435654 -0.019830038771033287 0.120057500898838043 -0.088764928281307220 0.079277023673057556 -0.000435663678217679 -0.163255974650382996 0.105842083692550659 -0.198966383934020996 0.057053349912166595 -0.046650428324937820 0.112921372056007385 0.133057162165641785 -0.110052295029163361 -0.061322715133428574 0.104882329702377319 0.028451316058635712 -0.240426748991012573 -0.166446670889854431 -0.090106688439846039
-0.029578689485788345 0.165279448032379150 0.131127089262008667 -0.077807947993278503 -0.147370398044586182 -0.175267636775970459 0.155039414763450623 0.175996989011764526 -0.088955037295818329 -0.028200691565871239 0.100876823067665100 0.024919798597693443 -0.024760771542787552 0.240425989031791687 -0.134772524237632751 -0.202137455344200134 -0.119481034576892853 -0.021788233891129494 0.033937256783246994 0.206096321344375610 0.098320692777633667 0.122355587780475616 0.092006601393222809 0.005721264053136110 -0.044547133147716522 0.119459375739097595 -0.123624265193939209 -0.035229641944169998 0.108772575855255127 0.086346365511417389 0.002013723598793149 0.151775658130645752 -0.026297371834516525 0.026268569752573967 0.054636824876070023 -0.187585651874542236 0.115816593170166016 0.016391187906265259 -0.162663072347640991 0.004919552709907293 0.091076977550983429 -0.087670646607875824 0.135320633649826050 0.064617991447448730 -0.086181282997131348 0.105089455842971802 -0.151012748479843140 0.000098373871878721 -0.018164288252592087 0.015835747122764587 0.073956742882728577 0.148971915245056152 -0.121664628386497498 0.111619956791400909 0.070181377232074738 -0.127528250217437744 0.149979963898658752 -0.051978748291730881 0.240636676549911499 -0.095182821154594421 -0.045500647276639938 0.089287623763084412 -0.022218350321054459 -0.207179948687553406 0.069468989968299866 0.073923118412494659 -0.029338875785470009 -0.190280392765998840 -0.038889065384864807 0.010407115332782269 -0.032816890627145767 -0.022710567340254784 -0.129222765564918518 -0.008014178834855556 0.101226612925529480 0.041492454707622528 0.014241840690374374 0.123377382755279541 0.126523539423942566 0.120492845773696899 -0.139013439416885376 0.056984629482030869 -0.129402995109558105 0.028777943924069405 -0.113217689096927643 -0.125924214720726013 -0.003285123500972986 -0.138548731803894043 -0.079055987298488617 0.178204208612442017 0.003380379173904657 0.185831099748611450 -0.135076254606246948 -0.058999702334403992 -0.044505234807729721 0.064272508025169373 0.047250270843505859 0.160380825400352478 0.042358927428722382 -0.125775665044784546
0.125050559639930725 0.133918493986129761 -0.135150477290153503 0.001456398516893387 0.003420973895117640 0.087417118251323700 0.000954483286477625 -0.006296781357377768 -0.136801749467849731 -0.022610336542129517 -0.008468000218272209 -0.014900914393365383 0.059297174215316772 0.143489122390747070 -0.007358491886407137 0.078669242560863495 0.169062182307243347 -0.037809573113918304 -0.062730066478252411 0.134139612317085266 0.082721330225467682 -0.012924082577228546 -0.084174372255802155 -0.025711219757795334 0.089167751371860504 -0.066840298473834991 -0.089809246361255646 0.088222935795783997 -0.025246541947126389 -0.067839093506336212 -0.050944630056619644 0.098625056445598602 0.123313784599304199 0.146714076399803162 -0.124887876212596893 -0.037319958209991455 0.076965548098087311 0.080884225666522980 -0.128056362271308899 0.074199639260768890 0.140525802969932556 -0.091827996075153351 0.047545187175273895 -0.111407063901424408 -0.026762185618281364 -0.048129457980394363 0.123018763959407806 -0.172497138381004333 0.133768349885940552 -0.155990853905677795 0.045046411454677582 0.072616308927536011 -0.015564221888780594 0.129030287265777588 0.103059373795986176 0.026999594643712044 0.172358602285385132 0.088357232511043549 -0.051885630935430527 -0.080443732440471649 -0.058828938752412796 0.122745767235755920 0.152098298072814941 0.011792866513133049 -0.042501963675022125 0.052771341055631638 0.026660202071070671 0.037421580404043198 -0.150915682315826416 0.183596000075340271 0.148560732603073120 -0.137609630823135376 -0.159566566348075867 0.041576176881790161 -0.015007779002189636 -0.140800163149833679 0.100601606070995331 0.070974536240100861 -0.148725524544715881 -0.118165530264377594 -0.013716341927647591 -0.023072779178619385 0.122731409966945648 0.118009701371192932 0.151067197322845459 -0.012730284593999386 -0.175803884863853455 -0.038934938609600067 0.139676705002784729 -0.087125167250633240 0.086528837680816650 0.111324265599250793 0.173743411898612976 0.112378798425197601 0.000388161686714739 -0.026577871292829514 -0.083011023700237274 0.008387762121856213 0.009975777938961983 0.113989993929862976
0.131612151861190796 0.053370200097560883 -0.066293440759181976 0.044734399765729904 0.010627336800098419 -0.154336690902709961 -0.013292321935296059 -0.133111163973808289 0.149743646383285522 -0.082331284880638123 -0.083051137626171112 -0.042403694242238998 0.126425698399543762 -0.017304666340351105 -0.007281768601387739 -0.011808005161583424 0.016402574256062508 -0.047803893685340881 -0.135946676135063171 -0.088015414774417877 -0.087862871587276459 0.093218304216861725 0.025073779746890068 -0.080642290413379669 -0.107562012970447540 0.124433144927024841 0.116178773343563080 0.018854510039091110 0.072148755192756653 -0.052519105374813080 -0.231834456324577332 -0.122313410043716431 0.158735841512680054 0.003654043655842543 -0.149375349283218384 0.130982100963592529 -0.081812791526317596 -0.153276920318603516 0.118576064705848694 0.140379875898361206 -0.130983442068099976 -0.084613122045993805 -0.026632305234670639 -0.036494478583335876 0.103624157607555389 -0.099222965538501740 -0.020414460450410843 -0.050414767116308212 -0.094505786895751953 -0.013060620054602623 0.170117586851119995 -0.121052652597427368 0.121574319899082184 0.025550868362188339 0.059375558048486710 -0.059244722127914429 0.137611418962478638 0.096725322306156158 0.103265918791294098 -0.002385968575254083 0.021471666172146797 -0.045143332332372665 0.141048893332481384 -0.016488021239638329 0.093093350529670715 -0.139207869768142700 -0.048709481954574585 0.173509642481803894 -0.113287061452865601 0.112117424607276917 0.005240016151219606 -0.135423794388771057 -0.130806624889373779 0.034070834517478943 -0.172431051731109619 0.148236602544784546 -0.080898307263851166 -0.010754562914371490 -0.084008835256099701 -0.107583530247211456 -0.079173706471920013 -0.005147628020495176 0.043815873563289642 0.020326750352978706 -0.073172539472579956 0.156372755765914917 0.172913447022438049 -0.112625502049922943 -0.052820105105638504 -0.041987139731645584 0.032201666384935379 -0.075442835688591003 -0.136416971683502197 0.043000571429729462 -0.009849176742136478 -0.023198310285806656 -0.147978276014328003 0.018347226083278656 0.118403136730194092 0.152531042695045471
0.153648585081100464 -0.088794551789760590 0.074523322284221649 0.119572445750236511 -0.045785143971443176 -0.022214567288756371 -0.096606366336345673 -0.079392306506633759 -0.082920797169208527 0.093519985675811768 -0.123762637376785278 0.150230959057807922 0.161117285490036011 0.023754827678203583 0.134947597980499268 -0.182718262076377869 0.131700634956359863 -0.088498458266258240 -0.044242512434720993 -0.133250594139099121 -0.069219104945659637 0.005737434606999159 0.088629908859729767 -0.184229940176010132 -0.026688249781727791 -0.008157642558217049 -0.001453336328268051 -0.149768799543380737 0.082245029509067535 -0.196210607886314392 0.136492043733596802 0.110667593777179718 0.007091874722391367 0.082009434700012207 -0.128578379750251770 0.110952891409397125 -0.155249759554862976 -0.089857615530490875 -0.069642901420593262 -0.025765834376215935 0.100213244557380676 0.061164960265159607 -0.141264602541923523 -0.117624387145042419 0.063335835933685303 -0.041769087314605713 0.085205882787704468 -0.000979087431915104 -0.045748021453619003 -0.034120839089155197 -0.072104193270206451 -0.107246115803718567 -0.068690612912178040 -0.000673688889946789 -0.068208381533622742 0.099901825189590454 -0.119344584643840790 0.080423034727573395 -0.031953904777765274 0.031907435506582260 0.144560039043426514 0.173381134867668152 0.064897410571575165 -0.110279835760593414 -0.046814411878585815 -0.056541904807090759 0.146587237715721130 -0.055233720690011978 0.094565920531749725 -0.025177119299769402 0.070659421384334564 -0.008172588422894478 0.129343241453170776 -0.024366786703467369 -0.103550948202610016 -0.136497274041175842 -0.165825337171554565 0.077875912189483643 0.049003802239894867 0.056968137621879578 0.034939065575599670 -0.160415083169937134 0.011801633983850479 0.032375827431678772 -0.169231146574020386 -0.096648104488849640 0.056269802153110504 0.101984865963459015 0.058004520833492279 -0.061238519847393036 -0.031026287004351616 -0.107122793793678284 0.053844232112169266 -0.033453997224569321 0.162211030721664429 -0.011389316990971565 -0.154261529445648193 0.169155701994895935 0.064750552177429199 -0.084997422993183136
-0.002338749822229147 -0.061806824058294296 0.075415976345539093 -0.053280927240848541 0.033255089074373245 -0.112382590770721436 -0.041939277201890945 0.005563653074204922 0.096940182149410248 -0.032547593116760254 -0.068442307412624359 0.263630956411361694 -0.019800668582320213 -0.073178671300411224 0.113271959125995636 -0.008587990887463093 -0.176219910383224487 0.168434694409370422 0.000793765240814537 0.139625549316406250 -0.153593108057975769 0.151554867625236511 -0.113217785954475403 -0.015713196247816086 0.048367939889431000 0.101583816111087799 -0.091737307608127594 -0.004059376195073128 0.097278222441673279 0.093567721545696259 -0.177612051367759705 -0.077864609658718109 -0.157897099852561951 -0.141495913267135620 0.163166686892509460 -0.123355910181999207 -0.205301061272621155 -0.143522769212722778 0.140266716480255127 -0.111791744828224182 0.171733587980270386 0.068342298269271851 -0.052419569343328476 0.127263426780700684 -0.094696298241615295 -0.172275990247726440 0.047602251172065735 0.001218345831148326 -0.157092079520225525 0.008576315827667713 0.017722802236676216 0.090352736413478851 -0.161679148674011230 0.113484509289264679 -0.024341184645891190 -0.042844355106353760 0.130827516317367554 -0.142817109823226929 -0.033958554267883301 0.076700046658515930 -0.085710600018501282 -0.045025348663330078 0.037846557796001434 0.037656586617231369 0.016423512250185013 0.025645222514867783 0.027749568223953247 0.024427372962236404 -0.006086884066462517 0.035598143935203552 0.070196561515331268 0.059921678155660629 0.023875528946518898 0.087718807160854340 0.083247058093547821 0.068162880837917328 -0.061950515955686569 -0.097593098878860474 0.152194261550903320 0.086797676980495453 -0.015432966873049736 -0.139004841446876526 -0.075356133282184601 0.162410289049148560 0.142350167036056519 -0.111130595207214355 0.170337483286857605 0.082734517753124237 -0.152711808681488037 -0.038807000964879990 -0.158022224903106689 -0.055192362517118454 0.059285286813974380 -0.103696301579475403 0.097556501626968384 -0.055109176784753799 0.146115019917488098 0.061563659459352493 0.162906929850578308 0.153971150517463684
0.108748853206634521 0.051691073924303055 -0.144479542970657349 0.046040590852499008 0.062381636351346970 0.196155294775962830 -0.137168169021606445 -0.161050364375114441 0.022225925698876381 0.104077965021133423 0.009495360776782036 0.152346685528755188 -0.289333581924438477 -0.263666480779647827 -0.177044078707695007 -0.043723389506340027 0.108058281242847443 -0.139796406030654907 0.136960551142692566 -0.020940789952874184 0.063750982284545898 -0.013902342878282070 -0.135107353329658508 0.157677844166755676 -0.172933995723724365 0.110485307872295380 0.044019281864166260 -0.061047449707984924 -0.052720230072736740 0.068850353360176086 -0.237762704491615295 0.096160575747489929 -0.015967840328812599 0.019580563530325890 0.010703276842832565 0.126142412424087524 -0.005383137147873640 -0.111034937202930450 -0.156526118516921997 0.125943481922149658 -0.126101955771446228 -0.089442722499370575 -0.155712634325027466 0.023995438590645790 -0.019175002351403236 -0.133666589856147766 -0.145675122737884521 -0.028154648840427399 0.076940625905990601 0.169531688094139099 0.155364543199539185 -0.100452557206153870 -0.120030499994754791 0.025874426588416100 0.197779938578605652 -0.055650796741247177 -0.047977495938539505 0.081715427339076996 -0.240088552236557007 0.185814797878265381 -0.099096596240997314 0.154571160674095154 -0.119725644588470459 -0.073284953832626343 0.238820701837539673 -0.015846736729145050 -0.110822126269340515 -0.091731734573841095 -0.197265684604644775 -0.121372088789939880 0.139594942331314087 0.022687332704663277 0.110982924699783325 -0.030268467962741852 0.040657006204128265 -0.200724661350250244 -0.132492795586585999 0.109622962772846222 -0.145469784736633301 0.114054590463638306 -0.137425199151039124 -0.033426545560359955 -0.006928615737706423 -0.034917399287223816 0.011336062103509903 -0.010525378398597240 -0.077641844749450684 -0.044099304825067520 -0.127305150032043457 -0.048194587230682373 0.133024930953979492 -0.195802673697471619 0.165561184287071228 -0.107638806104660034 -0.093869403004646301 -0.041633531451225281 0.010211184620857239 -0.155557855963706970 -0.127996370196342468 0.106381595134735107
0.086405768990516663 0.000225269133807160 -0.061657976359128952 0.064091429114341736 0.129794970154762268 -0.173350006341934204 0.061086617410182953 0.129247322678565979 -0.087507717311382294 0.132454812526702881 0.178026184439659119 0.158529087901115417 0.150941506028175354 0.082414604723453522 0.066253595054149628 0.005577223375439644 -0.048345748335123062 -0.017029073089361191 0.036242567002773285 -0.147017538547515869 0.139266416430473328 0.111733183264732361 0.123363912105560303 -0.161642804741859436 0.145814418792724609 0.117204114794731140 -0.092655241489410400 0.097121365368366241 0.030152469873428345 -0.108542032539844513 0.024156164377927780 -0.098709255456924438 -0.004866072442382574 0.116484425961971283 -0.031264044344425201 -0.132885366678237915 -0.141161724925041199 -0.138665899634361267 -0.055521752685308456 0.083848133683204651 -0.058338120579719543 -0.001168191549368203 -0.120755918323993683 0.080659389495849609 0.065673209726810455 -0.091282881796360016 -0.175448566675186157 -0.069911405444145203 -0.101523675024509430 -0.034424688667058945 0.127123594284057617 0.142481625080108643 0.147579878568649292 -0.072844520211219788 -0.063730768859386444 0.146779730916023254 -0.035445399582386017 0.027628604322671890 0.173116669058799744 0.143231511116027832 -0.137108698487281799 0.125977694988250732 -0.115822896361351013 0.102980583906173706 -0.125540062785148621 -0.174034893512725830 -0.131120145320892334 -0.175997346639633179 -0.012303928844630718 0.049948263913393021 0.072763703763484955 -0.016520466655492783 -0.012203637510538101 -0.146858885884284973 -0.019468389451503754 -0.079991102218627930 0.050799336284399033 0.142462372779846191 0.015368763357400894 -0.039949409663677216 -0.056228004395961761 -0.032395098358392715 0.109887249767780304 0.008303505368530750 0.060344550758600235 0.045757144689559937 -0.053746912628412247 -0.100669540464878082 -0.004641369450837374 0.105531848967075348 -0.158083081245422363 0.046839717775583267 0.156583413481712341 -0.023483911529183388 -0.066355891525745392 -0.086851365864276886 0.046290144324302673 -0.046933155506849289 0.143858700990676880 0.064307227730751038
-0.003282611025497317 -0.159138634800910950 -0.107642531394958496 -0.121724650263786316 0.000065121021179948 0.144535794854164124 -0.022553507238626480 0.041676491498947144 -0.013797216117382050 -0.035246361047029495 0.091343685984611511 0.187800332903862000 -0.070536956191062927 -0.004801397677510977 -0.157157674431800842 0.150289326906204224 0.108122609555721283 0.011704857461154461 0.117272108793258667 0.083429992198944092 0.020391499623656273 0.037848647683858871 0.138041824102401733 -0.008918086998164654 0.024378875270485878 0.158556714653968811 -0.069407552480697632 -0.157080247998237610 -0.052359208464622498 -0.014441655017435551 -0.158339932560920715 0.101995393633842468 -0.103785358369350433 0.233215600252151489 -0.187966778874397278 0.173924356698989868 0.110116429626941681 0.085622534155845642 0.133968427777290344 0.054665900766849518 0.034782890230417252 0.158843263983726501 -0.048519618809223175 0.013140613213181496 0.149057850241661072 -0.134972870349884033 0.189151465892791748 -0.153666287660598755 0.218153774738311768 -0.110553130507469177 0.105968236923217773 0.002840697299689054 0.146875008940696716 0.146794080734252930 -0.032742112874984741 0.123784594237804413 -0.071159370243549347 0.083072431385517120 -0.308601319789886475 0.072900757193565369 -0.147224232554435730 0.117598302662372589 0.026062140241265297 0.131145149469375610 0.010837402194738388 -0.036354169249534607 0.067865401506423950 0.215132668614387512 0.113194189965724945 0.077340438961982727 -0.068221010267734528 -0.033030390739440918 -0.045575998723506927 0.169382899999618530 0.059035170823335648 -0.006649315822869539 0.083445951342582703 -0.133255973458290100 -0.045876845717430115 0.125611767172813416 -0.133982583880424500 -0.010641796514391899 0.068915501236915588 -0.127926945686340332 0.138064280152320862 0.040648419409990311 0.032532021403312683 -0.035306278616189957 -0.148976206779479980 -0.014182182028889656 -0.109766505658626556 0.101702667772769928 0.127032071352005005 0.138871476054191589 -0.204318225383758545 -0.010825037956237793 0.196564361453056335 -0.081360459327697754 0.020595530048012733 0.135769143700599670
-0.145348846912384033 0.027368169277906418 0.125455975532531738 0.020679146051406860 -0.052259929478168488 -0.139381080865859985 -0.028874728828668594 -0.041936248540878296 0.123177215456962585 -0.002645648317411542 -0.120585821568965912 -0.240953847765922546 0.173259958624839783 0.071697786450386047 -0.113976493477821350 -0.181989252567291260 -0.030627908185124397 0.111525788903236389 -0.151193201541900635 -0.099832773208618164 0.113281428813934326 -0.083943195641040802 -0.134180158376693726 0.057943992316722870 -0.006847764365375042 0.087188407778739929 0.051426656544208527 -0.176690921187400818 -0.089579179883003235 -0.078082047402858734 0.037980236113071442 0.159909680485725403 0.068177364766597748 0.124875530600547791 -0.108626991510391235 0.146981149911880493 0.059910990297794342 -0.081110879778862000 0.104284800589084625 0.129846587777137756 0.093797974288463593 -0.048508670181035995 -0.048117063939571381 0.154843881726264954 -0.003734917845577002 0.214010223746299744 -0.103941321372985840 0.144196942448616028 -0.071055762469768524 -0.031913317739963531 -0.028730457648634911 -0.000244313210714608 0.141089737415313721 0.150082722306251526 0.053397223353385925 -0.177777305245399475 -0.115599229931831360 0.145565763115882874 0.022756550461053848 -0.151189610362052917 0.014263102784752846 -0.012245003134012222 -0.061150390654802322 0.002835449064150453 -0.016635483130812645 0.209278047084808350 -0.089536070823669434 0.100301794707775116 -0.141226068139076233 -0.096891090273857117 0.005200465675443411 -0.057916790246963501 -0.108102418482303619 0.062867119908332825 0.074731439352035522 -0.120493136346340179 0.111176393926143646 0.122767038643360138 -0.050219226628541946 -0.091059386730194092 -0.180572748184204102 0.006981489714235067 0.146115809679031372 0.010589249432086945 -0.050632897764444351 0.113716244697570801 -0.039667218923568726 -0.079755529761314392 -0.118091799318790436 -0.156196907162666321 -0.072526276111602783 0.061292741447687149 0.177200615406036377 -0.021182993426918983 0.162803217768669128 0.043840635567903519 -0.030463790521025658 -0.180862650275230408 0.104613311588764191 0.046268500387668610
-0.027972325682640076 -0.146974653005599976 0.043474778532981873 -0.152211889624595642 0.062947593629360199 0.134929105639457703 0.165900439023971558 -0.110629633069038391 -0.165497019886970520 0.079079732298851013 0.127149343490600586 -0.079826772212982178 0.212024435400962830 0.124475076794624329 -0.136979192495346069 -0.056870970875024796 -0.124467507004737854 0.102562129497528076 0.044958658516407013 -0.114755690097808838 -0.088598251342773438 0.072389185428619385 0.069444239139556885 -0.049974720925092697 0.121718280017375946 -0.146137699484825134 -0.021247146651148796 -0.082586415112018585 0.053219959139823914 0.132895082235336304 0.086224362254142761 0.080617472529411316 -0.113675527274608612 -0.104294002056121826 0.120448417961597443 0.111453257501125336 -0.178055256605148315 -0.022893058136105537 0.108489848673343658 -0.008438201621174812 -0.025739403441548347 0.014752273447811604 0.071969516575336456 -0.099181465804576874 -0.040576674044132233 -0.103539355099201202 -0.191193178296089172 0.019466230645775795 0.131059780716896057 0.114201024174690247 -0.106496721506118774 0.009640545584261417 0.142453223466873169 -0.149876400828361511 -0.160547509789466858 -0.011448297649621964 -0.010078380815684795 -0.107958145439624786 0.176554366946220398 0.018195549026131630 -0.071250580251216888 -0.146508097648620605 0.088766992092132568 0.033321041613817215 -0.184774160385131836 0.088494114577770233 -0.089092917740345001 -0.051087491214275360 -0.103060252964496613 0.026018546894192696 -0.074438296258449554 0.014488669112324715 0.037504244595766068 0.058824971318244934 -0.109046481549739838 0.187065437436103821 0.005906598642468452 0.011612633243203163 -0.194823533296585083 -0.037753108888864517 0.164960637688636780 0.091813735663890839 -0.143973261117935181 0.021241424605250359 -0.131257876753807068 0.080403409898281097 -0.017430322244763374 0.081094875931739807 0.045058265328407288 0.057278316468000412 0.102062180638313293 0.061652541160583496 0.045393623411655426 -0.135439798235893250 0.086500033736228943 0.171883746981620789 -0.043003607541322708 -0.014576542191207409 0.045726042240858078 0.070872433483600616
0.031493585556745529 0.102775789797306061 0.187249079346656799 0.045296829193830490 -0.086549684405326843 0.106850959360599518 -0.093879058957099915 -0.056765239685773849 -0.012270851060748100 0.055651303380727768 -0.061789076775312424 -0.123552650213241577 0.120453797280788422 0.040436629205942154 -0.038232155144214630 0.083446577191352844 -0.122081890702247620 -0.065114215016365051 0.110961027443408966 0.166032493114471436 0.155380919575691223 0.076081722974777222 0.096220485866069794 0.033003095537424088 0.058116849511861801 -0.116815127432346344 0.136918798089027405 0.017573868855834007 0.049556199461221695 -0.084590092301368713 0.229693442583084106 -0.160009160637855530 -0.113985843956470490 -0.097441904246807098 0.110310554504394531 0.178092941641807556 -0.006315283942967653 -0.107059009373188019 0.141224801540374756 -0.006196768954396248 -0.077257491648197174 0.080884888768196106 0.109170332551002502 0.153276756405830383 -0.051373720169067383 0.075519576668739319 -0.116629004478454590 -0.039895750582218170 0.068627513945102692 -0.064732544124126434 0.047943305224180222 -0.117841839790344238 -0.082422681152820587 -0.035643417388200760 0.013553172349929810 0.154569610953330994 0.151930257678031921 0.065104618668556213 0.108993642032146454 -0.147090315818786621 0.113602645695209503 0.084498643875122070 0.031665794551372528 0.097013972699642181 0.158031716942787170 0.312055826187133789 -0.116416327655315399 -0.042579401284456253 0.088720522820949554 0.137647986412048340 -0.078543655574321747 -0.159838110208511353 0.034631371498107910 0.161092773079872131 -0.089258871972560883 0.032075837254524231 -0.040466804057359695 0.036525435745716095 0.130254521965980530 -0.077720001339912415 0.049754321575164795 -0.121521353721618652 -0.174293354153633118 0.080903790891170502 0.069671586155891418 0.050424415618181229 0.094962440431118011 -0.024027969688177109 -0.068167656660079956 -0.013735476881265640 -0.058060586452484131 0.104708872735500336 0.023902092128992081 -0.177623569965362549 -0.137918323278427124 -0.018728282302618027 -0.105714708566665649 0.125031664967536926 -0.142805874347686768 -0.173054397106170654
0.049530148506164551 -0.131981596350669861 -0.179448515176773071 0.058962471783161163 0.061210405081510544 -0.031454987823963165 -0.078049287199974060 0.158991917967796326 -0.189901962876319885 0.113906338810920715 -0.116578027606010437 0.065847232937812805 -0.088090486824512482 0.108881555497646332 0.107307024300098419 -0.167469948530197144 0.022527374327182770 -0.133376404643058777 -0.144015386700630188 -0.050973746925592422 0.060388606041669846 0.069013245403766632 0.172176495194435120 -0.022691758349537849 0.205807462334632874 0.160164922475814819 -0.053804211318492889 0.081034556031227112 0.110522694885730743 -0.071570523083209991 0.077781088650226593 0.113886930048465729 -0.167519569396972656 -0.157813146710395813 -0.061505563557147980 -0.091291025280952454 -0.081589072942733765 -0.061321001499891281 0.170898929238319397 -0.077947072684764862 0.048157151788473129 -0.208129525184631348 -0.138678342103958130 0.132659405469894409 0.111058481037616730 -0.183541372418403625 0.011104087345302105 -0.013983821496367455 0.131170779466629028 -0.176078334450721741 0.089617595076560974 0.152478709816932678 0.147353708744049072 -0.154874578118324280 -0.083339899778366089 -0.029531829059123993 -0.129199013113975525 -0.112642467021942139 0.222281113266944885 0.103350691497325897 0.056406490504741669 -0.054080907255411148 -0.094535015523433685 -0.055892128497362137 -0.143065482378005981 -0.045565985143184662 -0.183533176779747009 -0.096111662685871124 -0.002924663247540593 -0.105396352708339691 -0.119619093835353851 -0.001002453966066241 -0.003491089679300785 0.162640362977981567 0.101465098559856415 0.046330872923135757 0.080161586403846741 0.026654230430722237 -0.178559437394142151 -0.112957924604415894 0.156672835350036621 -0.039998881518840790 0.002034661127254367 -0.032592423260211945 -0.092319972813129425 0.094859480857849121 0.117842875421047211 0.188335627317428589 0.157226562500000000 -0.155937895178794861 -0.056647427380084991 0.170056432485580444 -0.098301447927951813 -0.183900922536849976 0.061588391661643982 0.148524209856987000 -0.091643445193767548 0.144848659634590149 -0.048167649656534195 0.098180726170539856
0.030182849615812302 0.042473055422306061 -0.147421285510063171 -0.172877863049507141 0.034029737114906311 -0.016215447336435318 0.121660776436328888 -0.146418809890747070 -0.021470801904797554 0.016084719449281693 0.041614342480897903 0.161548614501953125 0.043436247855424881 -0.158366978168487549 -0.158143952488899231 0.116414315998554230 -0.038304682821035385 0.094910979270935059 -0.087167352437973022 0.116130955517292023 -0.148100987076759338 -0.017363091930747032 -0.155025318264961243 0.141662299633026123 0.084396444261074066 -0.147995784878730774 -0.051626235246658325 -0.098988063633441925 0.007055167574435472 0.106461308896541595 0.076945640146732330 -0.071864761412143707 0.140610992908477783 -0.035614207386970520 0.025790829211473465 -0.072274148464202881 0.145677670836448669 -0.095672391355037689 -0.176206782460212708 -0.012773670256137848 0.015088732354342937 0.007962587289512157 -0.092191517353057861 -0.081530280411243439 0.054843228310346603 -0.040779653936624527 0.132107019424438477 -0.094325259327888489 0.070461906492710114 0.085355632007122040 -0.059130389243364334 -0.048392534255981445 -0.090622611343860626 0.006900828797370195 -0.002361653139814734 -0.147079959511756897 0.051530554890632629 -0.064217157661914825 -0.219179108738899231 0.135867968201637268 -0.179540961980819702 0.035017166286706924 -0.019089497625827789 -0.010296805761754513 0.046198800206184387 -0.189795166254043579 0.057222634553909302 -0.021617770195007324 -0.112650878727436066 0.038521856069564819 -0.041540626436471939 0.075353413820266724 -0.199058040976524353 -0.009645005688071251 -0.099795043468475342 0.008553465828299522 0.140304982662200928 -0.005827528890222311 -0.037009771913290024 -0.010289313271641731 -0.086528152227401733 0.156999200582504272 -0.102669246494770050 -0.080340042710304260 0.075546391308307648 0.076632283627986908 -0.150146320462226868 -0.008547991514205933 -0.041184276342391968 0.173619493842124939 0.056238673627376556 -0.159749045968055725 -0.128643929958343506 0.111631214618682861 -0.032191392034292221 -0.073146767914295197 0.111855372786521912 0.013854655437171459 -0.028921023011207581 0.048848938196897507
0.168419763445854187 0.163333147764205933 0.192221596837043762 0.043704692274332047 0.047202724963426590 0.173526719212532043 -0.156529217958450317 -0.038732524961233139 -0.045511279255151749 0.061040483415126801 0.084323845803737640 -0.198754891753196716 0.112168990075588226 0.091899387538433075 -0.116403222084045410 -0.062265206128358841 -0.073595665395259857 0.087238334119319916 0.013301877304911613 0.100474037230014801 0.132093831896781921 0.156262665987014771 0.062371961772441864 0.071740962564945221 0.069307312369346619 0.085394516587257385 -0.106663830578327179 -0.078685857355594635 0.021369231864809990 -0.088954813778400421 -0.120120190083980560 -0.061845269054174423 0.086126543581485748 -0.002093018963932991 -0.142991125583648682 -0.072853885591030121 0.171881213784217834 -0.006865855772048235 -0.002558815991505980 0.109442666172981262 -0.126740545034408569 0.090120315551757812 -0.056042965501546860 -0.103266090154647827 0.149590224027633667 0.036466989666223526 -0.019839162006974220 0.098249591886997223 -0.092542245984077454 0.160089179873466492 -0.134409844875335693 0.038141340017318726 0.076396025717258453 0.162900596857070923 0.130273669958114624 -0.118670344352722168 0.155162513256072998 0.108027443289756775 -0.108823910355567932 -0.027742771431803703 -0.078456826508045197 -0.057537686079740524 0.020207177847623825 0.078984007239341736 0.071971289813518524 0.151527300477027893 0.020649302750825882 0.150176629424095154 0.045816469937562943 -0.149054795503616333 0.126459255814552307 0.117892518639564514 0.119087062776088715 -0.119975008070468903 0.129364907741546631 0.122790135443210602 -0.139421120285987854 -0.175585329532623291 0.168641090393066406 -0.084791898727416992 0.026342369616031647 0.064184248447418213 -0.114934392273426056 0.053997799754142761 0.016784401610493660 -0.134362801909446716 -0.156553119421005249 -0.026697903871536255 -0.121937207877635956 -0.085286319255828857 -0.014196420088410378 -0.019650023430585861 0.181948527693748474 0.083508782088756561 -0.053160682320594788 -0.076995797455310822 -0.042237877845764160 0.089719235897064209 -0.083934217691421509 -0.013174974359571934
-0.105809688568115234 -0.120710134506225586 0.055872134864330292 -0.074150256812572479 -0.072643093764781952 -0.107937090098857880 -0.158964306116104126 -0.113467380404472351 0.090774312615394592 -0.147279202938079834 0.063321307301521301 -0.139455005526542664 -0.132328540086746216 -0.138113096356391907 0.012635668739676476 -0.096433378756046295 -0.155173107981681824 0.052518203854560852 0.078696310520172119 0.024945227429270744 0.102673023939132690 -0.149759039282798767 0.024735974147915840 0.130031809210777283 -0.048422824591398239 0.053469281643629074 0.198797255754470825 0.048429876565933228 -0.018213955685496330 0.179649382829666138 -0.103122822940349579 -0.124694354832172394 -0.013110874220728874 0.053998410701751709 0.111441448330879211 -0.068414501845836639 0.033454500138759613 -0.164251372218132019 0.138794556260108948 -0.137446478009223938 -0.106597743928432465 0.174103304743766785 -0.038595624268054962 -0.051788322627544403 -0.134002715349197388 0.150332599878311157 0.112673155963420868 0.040686570107936859 0.016447002068161964 0.144718840718269348 -0.142133399844169617 -0.007600636687129736 0.158524304628372192 -0.033286884427070618 -0.026305206120014191 0.116247065365314484 0.173045054078102112 -0.013081167824566364 -0.123494960367679596 0.120151616632938385 -0.092315942049026489 -0.170364513993263245 0.022440817207098007 -0.049540512263774872 -0.072552248835563660 -0.049163445830345154 -0.032128836959600449 0.095859609544277191 0.019642116501927376 0.075014218688011169 -0.029720280319452286 0.048504088073968887 0.116897463798522949 0.129471689462661743 -0.151314541697502136 0.104012548923492432 0.160207420587539673 -0.107878103852272034 0.172087103128433228 -0.069702163338661194 -0.068114474415779114 0.059360500425100327 0.052743084728717804 0.022946450859308243 -0.112759053707122803 -0.125055819749832153 0.050725117325782776 0.132932916283607483 -0.075832493603229523 -0.035286378115415573 -0.016552869230508804 0.132647365331649780 -0.079920157790184021 0.111823402345180511 -0.148243054747581482 -0.041586492210626602 0.019184617325663567 -0.139799594879150391 -0.006949069444090128 -0.082844398915767670
0.098976634442806244 -0.189259693026542664 0.001563779078423977 0.167145535349845886 -0.117658779025077820 -0.142521545290946960 0.184106871485710144 0.200066640973091125 0.093514427542686462 0.009852884337306023 0.153360843658447266 0.116441704332828522 -0.087901063263416290 -0.107026644051074982 -0.086649581789970398 -0.056345898658037186 -0.164413079619407654 0.028775835409760475 0.169791668653488159 -0.163090601563453674 0.153540134429931641 0.070034921169281006 -0.160323962569236755 -0.062883615493774414 0.077259048819541931 0.149903297424316406 0.086869008839130402 -0.059198342263698578 0.053316410630941391 0.110033378005027771 0.031722575426101685 -0.120365627110004425 0.026844004169106483 0.019072921946644783 -0.143800973892211914 0.052017997950315475 0.141925171017646790 -0.157599672675132751 0.082737118005752563 -0.172508955001831055 0.109156124293804169 0.134355783462524414 -0.013552983291447163 0.173401787877082825 0.074858091771602631 -0.225986674427986145 -0.035764366388320923 -0.009972071275115013 -0.119228012859821320 0.047815375030040741 0.136651620268821716 0.176360920071601868 0.013617763295769691 0.115945018827915192 -0.001744226668961346 -0.030088672414422035 0.081383593380451202 -0.022257771342992783 0.149872973561286926 -0.150616392493247986 0.025562679395079613 0.152310371398925781 -0.008949104696512222 -0.175154149532318115 0.076183356344699860 -0.289782196283340454 -0.033353328704833984 -0.159185722470283508 0.134504884481430054 0.140402227640151978 -0.058068700134754181 0.132028341293334961 0.016776056960225105 0.023584809154272079 -0.027340864762663841 0.017001999542117119 0.033708892762660980 -0.042031053453683853 -0.131564274430274963 0.132448077201843262 0.019383292645215988 0.122177943587303162 0.055965848267078400 -0.141633272171020508 -0.134930819272994995 -0.094379797577857971 0.150012597441673279 -0.054078862071037292 -0.040370039641857147 0.100811369717121124 -0.142147004604339600 -0.141932606697082520 0.005516623146831989 0.082801148295402527 -0.124969534575939178 0.115165516734123230 -0.186582058668136597 -0.134244948625564575 -0.132415354251861572 0.113594338297843933
-0.013119027018547058 -0.054994944483041763 0.095943599939346313 0.096677176654338837 0.137261644005775452 -0.158103480935096741 -0.118159480392932892 -0.004136121366173029 0.113692425191402435 0.016908103600144386 -0.001169829163700342 -0.184157535433769226 -0.029547380283474922 -0.147546350955963135 0.091434560716152191 -0.104690261185169220 -0.003110819030553102 -0.105465173721313477 -0.044677861034870148 -0.063864111900329590 -0.055514033883810043 -0.060824256390333176 0.107918098568916321 -0.087464176118373871 0.139200702309608459 -0.051847606897354126 0.090593032538890839 -0.155667424201965332 0.146453171968460083 0.056548990309238434 0.193343192338943481 -0.164837941527366638 -0.006880014669150114 -0.015884893015027046 -0.133356794714927673 -0.103029586374759674 -0.082181550562381744 -0.014594938606023788 -0.124632164835929871 -0.162277743220329285 0.178802758455276489 0.135953515768051147 -0.045478262007236481 0.012378542684018612 -0.044478338211774826 -0.034961968660354614 -0.035397652536630630 0.005678683519363403 0.105882115662097931 0.075645193457603455 0.076900213956832886 -0.050239238888025284 0.145385310053825378 0.167807474732398987 -0.134217113256454468 -0.081177778542041779 -0.083808302879333496 0.046260967850685120 -0.127802342176437378 0.086348176002502441 -0.151732772588729858 0.037065431475639343 -0.081378988921642303 0.077633135020732880 0.083921156823635101 -0.049383204430341721 0.014993825927376747 -0.073441609740257263 0.047308597713708878 -0.054511528462171555 0.010134859010577202 -0.025283711031079292 -0.126295357942581177 -0.014115214347839355 0.039683260023593903 -0.163298889994621277 -0.099808380007743835 -0.023026226088404655 0.185661494731903076 -0.142750963568687439 -0.106103934347629547 -0.120120547711849213 0.130256175994873047 -0.112634941935539246 0.100513517856597900 0.039689429104328156 0.128686502575874329 0.008673869073390961 -0.002324983011931181 -0.000968622276559472 0.057155624032020569 -0.108925178647041321 0.099565424025058746 -0.087011471390724182 -0.107380993664264679 0.150594234466552734 -0.143721356987953186 -0.060314588248729706 0.126717478036880493 -0.006817896384745836
0.163550227880477905 0.098127782344818115 0.073870316147804260 -0.062597639858722687 0.103438362479209900 -0.009286496788263321 0.016708236187696457 0.108388096094131470 -0.021289849653840065 0.132049918174743652 -0.062227558344602585 0.155371084809303284 -0.266943782567977905 -0.274702459573745728 -0.137557834386825562 0.150783643126487732 0.197610437870025635 0.088600710034370422 0.167851045727729797 0.038816597312688828 -0.130214080214500427 -0.140624165534973145 0.020244631916284561 -0.125714272260665894 0.007705094292759895 0.039428632706403732 0.203610002994537354 -0.163462191820144653 -0.006576482206583023 -0.038640696555376053 -0.192974433302879333 0.038668394088745117 0.066137157380580902 0.019410979002714157 -0.147227093577384949 -0.076774902641773224 0.104167051613330841 -0.153082907199859619 0.048040390014648438 0.077318131923675537 0.034460790455341339 -0.028336061164736748 -0.121516861021518707 -0.134851083159446716 -0.144949018955230713 0.064817428588867188 0.017204049974679947 -0.236293181777000427 0.109133541584014893 0.010010176338255405 -0.140862286090850830 0.021933767944574356 0.024294180795550346 -0.111006148159503937 0.042491592466831207 -0.187528267502784729 0.085218854248523712 0.155982002615928650 -0.329091131687164307 0.215960174798965454 -0.127828508615493774 0.036680769175291061 -0.032518636435270309 0.063820019364356995 0.038146529346704483 0.127117052674293518 -0.082539036870002747 0.173866093158721924 -0.011400544084608555 -0.014205220155417919 0.125903382897377014 0.154327988624572754 -0.002161506563425064 0.228488504886627197 0.111613146960735321 -0.102147601544857025 -0.003970145247876644 -0.007635225076228380 -0.012078744359314442 -0.037070121616125107 0.028112327679991722 0.078419499099254608 0.093681529164314270 0.093521505594253540 0.070100285112857819 0.057791966944932938 0.073729336261749268 0.148636624217033386 0.060561079531908035 -0.021997399628162384 0.181162789463996887 -0.190293788909912109 0.150679811835289001 -0.078220024704933167 -0.211214482784271240 -0.023931136354804039 0.085599757730960846 -0.076845772564411163 0.049966622143983841 0.097045443952083588
-0.004917730577290058 -0.100113138556480408 -0.076497465372085571 -0.062938019633293152 -0.043348699808120728 0.018688792362809181 -0.081800177693367004 -0.010715721175074577 0.142319902777671814 -0.103080429136753082 -0.093703880906105042 0.107178792357444763 -0.078537225723266602 -0.006592164281755686 0.175268381834030151 -0.134275734424591064 0.059941153973340988 -0.130855128169059753 -0.055344108492136002 -0.139661401510238647 -0.127109616994857788 -0.179542869329452515 -0.054628346115350723 -0.066642343997955322 0.196587309241294861 0.075665079057216644 0.015740100294351578 -0.051933195441961288 0.095217511057853699 0.067304298281669617 -0.206595763564109802 -0.015194865874946117 -0.086905702948570251 0.004770830273628235 0.067383013665676117 0.084341548383235931 0.144453987479209900 0.144811376929283142 0.108534567058086395 -0.095444910228252411 0.145342230796813965 -0.064930446445941925 0.059019930660724640 -0.133961021900177002 0.017017725855112076 -0.098693065345287323 -0.058874022215604782 -0.120378330349922180 0.001402971334755421 0.077988445758819580 0.210406810045242310 0.063657157123088837 0.030208192765712738 0.086626492440700531 -0.053202647715806961 0.115298517048358917 -0.019999228417873383 -0.101935468614101410 0.012878396548330784 -0.130880340933799744 0.004897436592727900 0.051027059555053711 -0.035551540553569794 -0.155113548040390015 -0.038637526333332062 -0.014537869021296501 -0.151526972651481628 0.103908173739910126 0.159770444035530090 0.108802065253257751 0.062212776392698288 0.115863181650638580 -0.118920691311359406 -0.042966309934854507 -0.068565614521503448 0.098085656762123108 -0.063505455851554871 0.031343318521976471 0.045526962727308273 -0.089758217334747314 0.174285769462585449 0.014897697605192661 0.073214054107666016 -0.144955545663833618 -0.136995479464530945 0.019758893176913261 0.118023887276649475 -0.099946811795234680 0.148042380809783936 -0.058516718447208405 -0.061186473816633224 -0.166151687502861023 0.044355452060699463 -0.062650129199028015 0.042799673974514008 -0.144929289817810059 0.103830620646476746 0.126693353056907654 0.062006361782550812 0.175861045718193054
-0.002441467018797994 -0.033329412341117859 -0.006916379090398550 0.024123024195432663 0.076567120850086212 0.059013489633798599 -0.106881856918334961 0.177033945918083191 -0.036427941173315048 0.031911022961139679 -0.182123616337776184 0.293888807296752930 0.002646703738719225 -0.234671160578727722 -0.154656112194061279 0.140064626932144165 0.106987901031970978 0.105572596192359924 -0.108696646988391876 -0.092425845563411713 -0.072895325720310211 -0.173327609896659851 0.034173686057329178 -0.167048692703247070 -0.064488306641578674 0.031053878366947174 0.045893080532550812 0.017286861315369606 -0.118341140449047089 -0.086484983563423157 -0.072980538010597229 -0.034752093255519867 -0.014133553951978683 0.131429776549339294 -0.074596107006072998 0.016771363094449043 0.166473522782325745 -0.030346160754561424 -0.024298237636685371 0.086639024317264557 -0.000043238524085609 0.073441334068775177 -0.086573600769042969 -0.135408222675323486 -0.108404725790023804 -0.219935402274131775 -0.145134747028350830 -0.098164737224578857 0.189557343721389771 0.055963583290576935 0.098540350794792175 -0.120629511773586273 0.044477645307779312 0.189071163535118103 0.122249811887741089 -0.076830819249153137 -0.103754669427871704 0.135574728250503540 -0.089903861284255981 0.165398150682449341 -0.063232317566871643 0.025560731068253517 -0.095705673098564148 0.080786302685737610 0.037857644259929657 -0.192619159817695618 0.136951163411140442 0.068464532494544983 -0.105390258133411407 0.109448127448558807 -0.079464681446552277 0.137568742036819458 -0.069769188761711121 0.174120739102363586 -0.059547450393438339 -0.124855436384677887 0.117245368659496307 0.175264805555343628 0.144476532936096191 0.079732477664947510 -0.075890153646469116 -0.143741726875305176 0.035908665508031845 -0.140518859028816223 -0.007426169700920582 0.023196235299110413 0.080572977662086487 0.078157469630241394 0.037150938063859940 0.032968167215585709 0.147300690412521362 -0.167752444744110107 -0.136064857244491577 0.044725604355335236 0.023564077913761139 0.049496423453092575 -0.157196745276451111 -0.099710494279861450 -0.069037117063999176 0.150185048580169678
0.063280381262302399 0.160430714488029480 -0.129229485988616943 -0.053082652390003204 0.086036063730716705 -0.009891806170344353 0.028522880747914314 -0.056923005729913712 0.150489494204521179 0.052384264767169952 0.140223547816276550 -0.259327381849288940 0.122047647833824158 0.067536436021327972 0.099081777036190033 -0.041467733681201935 0.058465491980314255 -0.105118595063686371 0.067455910146236420 0.173223018646240234 0.040822494775056839 0.099147394299507141 -0.074570640921592712 0.039814095944166183 -0.024087741971015930 0.169012054800987244 0.037413816899061203 -0.098575778305530548 -0.175783455371856689 -0.094932079315185547 0.084577530622482300 -0.039699517190456390 -0.120733276009559631 0.178299918770790100 0.026610957458615303 0.005368693731725216 -0.082592934370040894 -0.017922716215252876 -0.088902994990348816 -0.109493963420391083 0.081924512982368469 -0.000393533788155764 0.100077509880065918 0.101520366966724396 0.035715863108634949 -0.026193592697381973 0.124961212277412415 0.046762734651565552 0.013360965065658092 -0.002504829782992601 -0.208389282226562500 0.065898023545742035 0.120511129498481750 -0.089902609586715698 0.005651799961924553 0.063407152891159058 -0.092868186533451080 -0.169249609112739563 0.099288694560527802 0.143721386790275574 0.104853101074695587 0.048726826906204224 0.031079374253749847 0.002554594539105892 0.033494003117084503 0.205219358205795288 -0.145782336592674255 0.091552741825580597 -0.137422010302543640 -0.045246820896863937 -0.099514491856098175 0.084682732820510864 -0.114879697561264038 0.118653625249862671 0.188441678881645203 0.038610368967056274 0.047361109405755997 0.011436989530920982 0.107167154550552368 -0.163852199912071228 0.025702962651848793 -0.126739725470542908 0.148166686296463013 -0.002549584489315748 0.148276746273040771 -0.041591517627239227 0.045236721634864807 -0.102822475135326385 -0.091370083391666412 -0.017527742311358452 -0.026372501626610756 0.129424825310707092 0.111158080399036407 -0.114833094179630280 -0.156178757548332214 -0.119325883686542511 0.171119481325149536 0.081271640956401825 -0.010615565814077854 0.024248735979199409
-0.151515081524848938 -0.089342609047889709 -0.147296831011772156 0.130271300673484802 0.165597841143608093 -0.133807361125946045 0.107972390949726105 0.002672524191439152 -0.035448886454105377 -0.017617858946323395 -0.215635761618614197 -0.006820519454777241 -0.096895806491374969 -0.023568674921989441 0.001824860810302198 0.180716738104820251 0.142711266875267029 0.004105495288968086 0.033866204321384430 -0.168267831206321716 0.074178598821163177 0.061564195901155472 -0.093699350953102112 0.148952722549438477 -0.224665418267250061 -0.145261302590370178 0.025355171412229538 0.023626748472452164 -0.118360124528408051 0.018121732398867607 -0.036996182054281235 -0.104841299355030060 0.112517230212688446 0.143066123127937317 -0.024395370855927467 0.055677235126495361 -0.012646253220736980 -0.050233483314514160 -0.091736264526844025 0.112138077616691589 0.131712511181831360 0.179766193032264709 -0.080518536269664764 -0.208602741360664368 0.019130401313304901 -0.164795830845832825 -0.076871499419212341 -0.238309696316719055 -0.108116552233695984 0.210603877902030945 0.100054197013378143 -0.159655347466468811 0.124144926667213440 0.080474242568016052 0.144518300890922546 -0.010827679187059402 0.043621871620416641 -0.035843111574649811 0.014057239517569542 0.093157105147838593 0.033311385661363602 0.036859370768070221 -0.080856986343860626 0.108273468911647797 -0.103587217628955841 -0.157873511314392090 -0.006860395893454552 0.129968911409378052 -0.149613365530967712 -0.115531548857688904 0.110144421458244324 0.050468537956476212 0.101906053721904755 0.100585773587226868 0.020898886024951935 0.029590932652354240 -0.002175655914470553 0.100060440599918365 0.122112169861793518 0.152789562940597534 -0.177644297480583191 0.143219485878944397 0.096559852361679077 -0.192744046449661255 0.035677812993526459 -0.033342331647872925 0.042800210416316986 -0.164654120802879333 -0.181897684931755066 0.099930696189403534 0.030808364972472191 0.100857444107532501 -0.135107532143592834 -0.111840419471263885 -0.117740817368030548 0.068510137498378754 -0.049311012029647827 -0.222953915596008301 0.148509278893470764 0.099499531090259552
0.081647582352161407 -0.171024903655052185 -0.055736500769853592 0.095970384776592255 -0.168633595108985901 0.010678634047508240 0.193889349699020386 0.242864787578582764 -0.104512959718704224 0.161811634898185730 0.145238950848579407 -0.299945056438446045 -0.031980652362108231 -0.048695500940084457 0.137234553694725037 -0.262551993131637573 -0.074744611978530884 0.123121753334999084 -0.195499524474143982 0.169424146413803101 0.083628058433532715 -0.086149737238883972 0.208718925714492798 0.089603163301944733 0.033288091421127319 0.162999287247657776 0.052610252052545547 -0.225197657942771912 0.122798994183540344 -0.074259728193283081 0.242063328623771667 -0.099744670093059540 -0.064536303281784058 0.002909231465309858 -0.014943050220608711 -0.093257971107959747 -0.120327532291412354 0.132921561598777771 0.005717818159610033 -0.186665847897529602 0.137274846434593201 -0.026715161278843880 -0.066433884203433990 0.101855888962745667 -0.171353429555892944 -0.029247645288705826 0.082677207887172699 -0.046808838844299316 0.054999180138111115 -0.081327006220817566 -0.202299967408180237 -0.102917253971099854 -0.055270042270421982 -0.114619195461273193 0.066703066229820251 0.050320778042078018 0.148185774683952332 -0.133298739790916443 0.009244078770279884 0.074999362230300903 0.082157865166664124 0.202854573726654053 -0.010549453087151051 0.037670906633138657 -0.146970212459564209 0.078585155308246613 -0.146022468805313110 -0.079150170087814331 -0.021568328142166138 -0.094630755484104156 0.059490654617547989 -0.233938664197921753 -0.000442183401901275 -0.075378827750682831 0.102472484111785889 -0.061126168817281723 0.010034662671387196 0.159288033843040466 -0.038381170481443405 -0.044156908988952637 -0.078048259019851685 -0.001404404058121145 -0.030066655948758125 -0.062994554638862610 -0.151518970727920532 0.138951778411865234 -0.072815947234630585 -0.013444847427308559 0.100793205201625824 -0.039232008159160614 -0.064483113586902618 -0.105192676186561584 0.006615537684410810 -0.178688138723373413 0.018886741250753403 0.108431510627269745 -0.146900698542594910 0.171966359019279480 0.097224481403827667 0.139537736773490906
0.007708978839218616 -0.134016647934913635 0.006837653461843729 0.175674811005592346 -0.007385762874037027 -0.114886365830898285 0.152572616934776306 -0.085636928677558899 0.017600905150175095 0.124920248985290527 0.067138426005840302 0.222203716635704041 0.180306822061538696 -0.072391070425510406 -0.141211315989494324 0.051421869546175003 0.045275799930095673 -0.153388053178787231 0.036746792495250702 0.127625629305839539 -0.099044837057590485 -0.056848514825105667 -0.136739954352378845 0.056951317936182022 -0.061415314674377441 -0.153254657983779907 0.110973164439201355 0.059205330908298492 0.086294792592525482 -0.046110708266496658 0.108733318746089935 0.156330361962318420 -0.125507876276969910 -0.097945310175418854 0.005402942653745413 0.148958370089530945 -0.154293268918991089 -0.066665783524513245 0.165911734104156494 -0.125314205884933472 0.000084789709944744 -0.165492743253707886 -0.058212649077177048 -0.003428007476031780 0.132236674427986145 -0.141909360885620117 0.103429503738880157 0.095434665679931641 0.136295720934867859 -0.149053409695625305 0.218822434544563293 0.145552709698677063 -0.167765662074089050 0.055397324264049530 -0.132670342922210693 0.180019378662109375 0.139003679156303406 0.140978574752807617 0.022019710391759872 -0.064737729728221893 0.155992195010185242 0.157786041498184204 -0.001251730020157993 -0.018766691908240318 -0.042429164052009583 -0.055511448532342911 0.102731190621852875 -0.086018763482570648 -0.110514052212238312 -0.159023284912109375 -0.124077640473842621 -0.080169305205345154 -0.060576919466257095 -0.140752494335174561 -0.104451298713684082 0.143404468894004822 -0.180204048752784729 -0.116889894008636475 0.041604164987802505 -0.114265941083431244 0.187465950846672058 -0.034554056823253632 0.058548051863908768 0.058321606367826462 -0.108653880655765533 0.100958772003650665 0.047621347010135651 0.090967148542404175 -0.114462152123451233 -0.156030192971229553 0.018199648708105087 0.070798531174659729 -0.046079363673925400 -0.138276249170303345 -0.140749156475067139 0.028692068532109261 0.141988515853881836 0.027359310537576675 0.144071519374847412 -0.000953921815380454
-0.157378882169723511 0.005998812150210142 0.050663124769926071 -0.044845379889011383 -0.008419057354331017 -0.042878434062004089 -0.020316960290074348 -0.024134557694196701 0.040249325335025787 -0.022090224549174309 0.024126810953021049 -0.166027992963790894 -0.093777991831302643 -0.185823142528533936 -0.132071673870086670 0.198443979024887085 -0.032512675970792770 0.031801413744688034 0.162566348910331726 -0.014429869130253792 -0.127654194831848145 0.147866636514663696 -0.024821026250720024 -0.110906451940536499 0.130415171384811401 -0.029726849868893623 0.025289488956332207 -0.093896903097629547 -0.084667421877384186 0.067254140973091125 -0.043762885034084320 0.096536070108413696 0.107096016407012939 0.003521522739902139 0.001626048004254699 0.047684941440820694 -0.029527457430958748 -0.151653066277503967 0.091896131634712219 -0.146375089883804321 -0.109526470303535461 -0.074443139135837555 0.073529869318008423 0.075958825647830963 -0.020526364445686340 0.115558549761772156 0.061114937067031860 -0.007860707119107246 0.156853094696998596 0.019213771447539330 -0.054540582001209259 -0.092258527874946594 0.029715284705162048 0.022605504840612411 0.151899412274360657 0.050849482417106628 -0.088071830570697784 -0.120649002492427826 -0.063166812062263489 0.176356315612792969 0.141332581639289856 0.121364422142505646 -0.039566054940223694 -0.097717925906181335 -0.096888795495033264 0.179066285490989685 0.059215176850557327 0.192038372159004211 -0.166691124439239502 0.129284754395484924 0.161314412951469421 -0.145504489541053772 0.127516835927963257 -0.150013044476509094 0.157344013452529907 -0.196132466197013855 0.114345796406269073 -0.108476281166076660 0.031141197308897972 -0.092877492308616638 -0.128219291567802429 0.062159404158592224 -0.039401281625032425 0.130694434046745300 0.029793744906783104 0.043540269136428833 -0.208090186119079590 -0.110947959125041962 0.072007402777671814 -0.088500604033470154 -0.052166853100061417 -0.183307245373725891 -0.069159626960754395 -0.097787670791149139 -0.096423014998435974 -0.038152977824211121 0.016572436317801476 -0.067921847105026245 0.092276714742183685 -0.021615328267216682
-0.064913295209407806 -0.046295940876007080 0.176315262913703918 -0.094254314899444580 -0.021559482440352440 0.032768812030553818 -0.063807822763919830 -0.095751672983169556 -0.028536519035696983 0.039960946887731552 0.152012482285499573 -0.242093622684478760 -0.009008741937577724 0.034997548907995224 0.049836829304695129 0.059078466147184372 -0.184627145528793335 -0.059797469526529312 0.051991749554872513 0.148264244198799133 0.049339458346366882 -0.074380762875080109 0.138737648725509644 -0.081315986812114716 -0.130581706762313843 0.192905798554420471 -0.069171465933322906 -0.052193365991115570 0.149278432130813599 -0.116079770028591156 0.271586745977401733 0.019405523315072060 0.018396712839603424 -0.003792533185333014 -0.138284474611282349 0.158640354871749878 -0.155365899205207825 0.073034308850765228 -0.042043045163154602 0.150093093514442444 0.024939671158790588 -0.154925227165222168 -0.079931177198886871 0.191086590290069580 0.119382798671722412 0.283263176679611206 0.104331642389297485 0.045712213963270187 0.079860173165798187 0.112002849578857422 -0.197032287716865540 0.161111608147621155 -0.090059854090213776 -0.022708712145686150 -0.053999256342649460 0.089392006397247314 0.087801292538642883 0.085243627429008484 0.175386771559715271 -0.019038803875446320 -0.043110918253660202 0.187007650732994080 -0.030229829251766205 -0.148870438337326050 -0.102177046239376068 0.245119184255599976 0.091860108077526093 -0.064919561147689819 -0.084735073149204254 0.094632580876350403 -0.046579655259847641 -0.138372048735618591 0.148194506764411926 0.032216228544712067 -0.012367491610348225 0.020965080708265305 -0.099919423460960388 -0.088540300726890564 0.121843859553337097 -0.036066789180040359 0.079397007822990417 -0.009282230399549007 0.096264198422431946 0.055618710815906525 0.061214089393615723 0.116235777735710144 0.199133843183517456 0.076602198183536530 0.042112562805414200 0.127052411437034607 -0.064155034720897675 -0.083195731043815613 0.150460183620452881 0.091901533305644989 0.173923924565315247 -0.019697180017828941 -0.169991895556449890 0.167659312486648560 0.117917314171791077 0.020982118323445320
0.087179921567440033 0.074690043926239014 0.077050723135471344 0.068710327148437500 0.030492277815937996 -0.037957429885864258 -0.075959324836730957 -0.160961270332336426 -0.107906699180603027 -0.116838790476322174 -0.109613656997680664 -0.217945933341979980 0.036587055772542953 -0.154637023806571960 -0.150545999407768250 0.069117359817028046 0.075449541211128235 0.093134865164756775 -0.160550460219383240 -0.065199047327041626 0.114623360335826874 -0.096806988120079041 0.011446007527410984 0.055111791938543320 -0.165920853614807129 -0.136455237865447998 0.178429916501045227 0.120838090777397156 -0.000040158087358577 0.166607350111007690 0.134704306721687317 -0.037109382450580597 0.122125707566738129 -0.059385582804679871 -0.155510127544403076 -0.036099351942539215 0.138595223426818848 -0.060324087738990784 -0.011005274951457977 0.080125324428081512 0.015843942761421204 -0.126619234681129456 0.003676880383864045 -0.088431224226951599 0.190949231386184692 0.162621557712554932 -0.080502755939960480 -0.182408660650253296 -0.152631461620330811 -0.019095614552497864 -0.113487467169761658 -0.077527254819869995 0.033231336623430252 0.029214423149824142 0.163290798664093018 -0.087544851005077362 -0.050843004137277603 -0.087699942290782928 0.020811060443520546 -0.106254860758781433 0.042098682373762131 0.113746769726276398 0.118219345808029175 0.089545711874961853 0.079702623188495636 0.077110633254051208 -0.057931039482355118 0.080452628433704376 0.069789521396160126 -0.003201769432052970 0.137856826186180115 -0.167539745569229126 -0.164593532681465149 0.048075299710035324 -0.125484555959701538 0.145774260163307190 0.088807128369808197 0.115696869790554047 -0.122434139251708984 -0.059641331434249878 -0.076999895274639130 0.084460541605949402 0.145110622048377991 0.132919207215309143 0.156153425574302673 0.108588211238384247 -0.054332714527845383 -0.181887462735176086 -0.009416225366294384 -0.028593588620424271 -0.115683220326900482 0.049649052321910858 -0.130119889974594116 0.000808239041361958 -0.104833856225013733 0.112370952963829041 0.185304850339889526 -0.189494207501411438 0.121731087565422058 -0.157383471727371216
-0.060210350900888443 0.147283464670181274 -0.126700341701507568 -0.042509820312261581 0.048332270234823227 -0.029970875009894371 0.105269387364387512 -0.113404653966426849 -0.069438487291336060 -0.153384223580360413 -0.110448956489562988 -0.066595301032066345 0.147304996848106384 0.099604777991771698 -0.143886938691139221 -0.037301879376173019 0.093697786331176758 -0.042939025908708572 0.148003146052360535 -0.134730502963066101 -0.095366418361663818 0.115810051560401917 0.023806212469935417 0.106835417449474335 0.076053366065025330 -0.074220851063728333 0.051939655095338821 0.103119999170303345 -0.068158715963363647 0.170520752668380737 -0.062792897224426270 0.088121481239795685 0.063273951411247253 0.066147640347480774 -0.076353326439857483 0.180253237485885620 0.113956347107887268 -0.090035244822502136 -0.008982295170426369 0.075421929359436035 0.028741098940372467 -0.032922990620136261 0.132722496986389160 -0.003422029316425323 -0.025559389963746071 0.063842676579952240 -0.100056044757366180 -0.143947213888168335 0.099585592746734619 0.047568842768669128 0.068050943315029144 0.081136934459209442 0.035948112607002258 -0.074084401130676270 -0.111025899648666382 -0.000026770761905937 0.117856092751026154 -0.172498762607574463 0.107092499732971191 0.118495956063270569 -0.113318897783756256 0.003804556559771299 0.167410939931869507 0.146094694733619690 -0.057050976902246475 0.159707859158515930 -0.054138336330652237 0.144938215613365173 -0.159717112779617310 0.069992370903491974 -0.162869468331336975 0.092547930777072906 -0.129799738526344299 -0.173230588436126709 0.116518281400203705 0.035220324993133545 0.084546253085136414 0.011113877408206463 0.082208260893821716 -0.107166580855846405 -0.128599777817726135 -0.110496595501899719 0.011564327403903008 0.078742727637290955 0.108079932630062103 0.127584308385848999 -0.123000472784042358 -0.117579869925975800 0.077454321086406708 -0.061621993780136108 -0.063060015439987183 -0.118172712624073029 -0.074753947556018829 -0.052150491625070572 -0.177959948778152466 -0.033521682024002075 -0.000468530575744808 -0.083135269582271576 -0.038395684212446213 0.119736954569816589
0.087214328348636627 0.139553561806678772 0.011265668086707592 0.090396791696548462 -0.040077880024909973 0.185596928000450134 0.099618226289749146 -0.078304439783096313 0.158873692154884338 -0.051401607692241669 -0.225483253598213196 -0.061807509511709213 -0.191633701324462891 -0.089161224663257599 -0.093726068735122681 -0.012643842957913876 0.071539551019668579 0.145494475960731506 0.169255018234252930 -0.053023241460323334 0.134026914834976196 0.117064863443374634 -0.012964431196451187 0.173781186342239380 -0.189904421567916870 -0.201598092913627625 -0.008735635317862034 0.163983866572380066 -0.038937769830226898 0.108829319477081299 0.002449231920763850 -0.115398906171321869 0.082335241138935089 -0.072448588907718658 -0.066582761704921722 -0.157642185688018799 -0.067179359495639801 -0.095726914703845978 -0.091387085616588593 -0.041822876781225204 -0.150970742106437683 0.067286081612110138 0.005185007583349943 0.001202757353894413 0.044760886579751968 -0.159900486469268799 -0.126358821988105774 -0.117954708635807037 0.136566475033760071 0.069969885051250458 0.116541326045989990 -0.208739548921585083 0.155762419104576111 -0.027820425108075142 0.004198537208139896 -0.086604446172714233 0.058580461889505386 0.087345488369464874 -0.274526804685592651 -0.022911300882697105 -0.172803178429603577 0.117735341191291809 0.171863690018653870 0.213805809617042542 0.175761356949806213 -0.170131295919418335 0.128372907638549805 0.110649682581424713 -0.130611941218376160 0.062830805778503418 0.034638568758964539 0.190183430910110474 -0.070462368428707123 -0.006244672928005457 -0.139288559556007385 -0.090218909084796906 -0.041462194174528122 -0.120373651385307312 -0.134931743144989014 -0.124953091144561768 -0.063284337520599365 0.101761773228645325 -0.121935822069644928 -0.008246294222772121 0.186446890234947205 -0.188437581062316895 -0.191442117094993591 0.061303965747356415 0.083517901599407196 -0.143902465701103210 0.198361054062843323 -0.199020072817802429 0.058795008808374405 -0.104044228792190552 -0.093171156942844391 -0.145332917571067810 0.140879064798355103 -0.120253115892410278 -0.109084695577621460 -0.069287434220314026
0.006486590486019850 0.129361465573310852 -0.177045106887817383 -0.025187890976667404 -0.102584339678287506 -0.048026535660028458 -0.029895560815930367 0.013054379262030125 -0.001557845156639814 0.124197833240032196 0.114525854587554932 -0.075771808624267578 -0.037625290453433990 0.106976382434368134 0.154311910271644592 0.055509127676486969 0.019126495346426964 -0.083693124353885651 -0.091115385293960571 0.029178157448768616 0.132168903946876526 0.032911594957113266 0.055166639387607574 0.027865342795848846 0.134066283702850342 -0.126824542880058289 -0.183173269033432007 -0.018384942784905434 0.094336278736591339 0.037719607353210449 0.140852019190788269 0.058940835297107697 -0.063366740942001343 -0.152253851294517517 0.180215597152709961 -0.145804479718208313 0.047959994524717331 -0.040434889495372772 -0.151490584015846252 -0.102633982896804810 -0.078266106545925140 -0.081152424216270447 0.017440719529986382 -0.134698271751403809 0.118588857352733612 -0.168494954705238342 0.045699249953031540 0.098103605210781097 -0.031333405524492264 -0.125131532549858093 -0.089843899011611938 0.090981073677539825 -0.092851020395755768 -0.144378870725631714 0.013896836899220943 0.030274286866188049 -0.072595998644828796 -0.123962491750717163 -0.082078874111175537 -0.168821915984153748 -0.019828846678137779 0.162266403436660767 -0.159274294972419739 -0.123765788972377777 0.069089420139789581 -0.049724124372005463 0.028722882270812988 0.092181518673896790 0.101426161825656891 0.023799266666173935 -0.171370148658752441 0.130020886659622192 -0.069114767014980316 0.007199527230113745 -0.107159964740276337 -0.040963884443044662 -0.178671687841415405 -0.117589674890041351 0.057627961039543152 -0.173834562301635742 -0.086390048265457153 0.122468754649162292 0.149853155016899109 0.149878159165382385 0.149216055870056152 0.063889458775520325 0.088520437479019165 0.069238595664501190 0.000054239480959950 -0.164389953017234802 0.124264270067214966 -0.074853450059890747 -0.116239860653877258 0.033631160855293274 -0.003784665837883949 -0.117493622004985809 0.057520113885402679 0.149039551615715027 -0.091685727238655090 0.050926569849252701
-0.039695665240287781 -0.010597079060971737 -0.144136652350425720 -0.090353980660438538 -0.118128336966037750 -0.023604899644851685 0.182457849383354187 0.009366123937070370 0.004502414725720882 0.008425765670835972 -0.113423354923725128 0.330749720335006714 -0.232519805431365967 0.061279986053705215 -0.036333438009023666 0.088292859494686127 -0.031963229179382324 0.047642186284065247 -0.117024026811122894 -0.036040280014276505 -0.130162030458450317 -0.173226207494735718 -0.091703511774539948 0.134789183735847473 0.109163045883178711 -0.024115545675158501 -0.118944853544235229 -0.102062851190567017 -0.170224621891975403 0.085120514035224915 -0.192932382225990295 0.105367250740528107 0.046828679740428925 0.073181606829166412 0.070081494748592377 -0.021481661126017570 -0.095667853951454163 -0.040780548006296158 -0.003753459313884377 -0.017994975671172142 0.111048899590969086 -0.071111276745796204 0.122682794928550720 -0.001253920141607523 -0.057038951665163040 -0.286039769649505615 0.122714072465896606 0.110681347548961639 -0.077563278377056122 0.023318974301218987 0.192183881998062134 0.141465291380882263 0.048904873430728912 -0.084584452211856842 0.078189425170421600 0.089531108736991882 0.102648340165615082 0.073295205831527710 0.017526231706142426 -0.130458235740661621 -0.009115216322243214 0.054116874933242798 0.082253247499465942 0.143676757812500000 0.012645674869418144 -0.284233093261718750 0.040549516677856445 -0.039743259549140930 -0.032605733722448349 -0.150489300489425659 -0.046947207301855087 0.180608034133911133 -0.058540195226669312 -0.120688728988170624 -0.068868026137351990 0.042586468160152435 -0.111648157238960266 -0.112413272261619568 -0.051667455583810806 -0.104009084403514862 -0.061990078538656235 -0.045755024999380112 0.087517462670803070 0.076484620571136475 -0.093890763819217682 -0.178376764059066772 -0.099983870983123779 0.116366140544414520 -0.156367436051368713 0.061847373843193054 -0.086057685315608978 0.011721442453563213 -0.105993546545505524 -0.136615604162216187 -0.040149316191673279 0.158585220575332642 0.056719951331615448 0.026165584102272987 0.100402258336544037 -0.050698809325695038
-0.074006237089633942 -0.053831972181797028 -0.085943378508090973 0.080590099096298218 0.138346940279006958 0.075369335711002350 -0.000740759831387550 0.169060617685317993 -0.182379975914955139 -0.117589689791202545 -0.102014660835266113 -0.042587365955114365 0.067039698362350464 0.127943873405456543 -0.158474981784820557 -0.003697879379615188 0.140083476901054382 -0.029231807217001915 0.085945233702659607 -0.086594924330711365 -0.015148590318858624 0.124463409185409546 0.193724751472473145 -0.070818588137626648 -0.116395823657512665 0.161903992295265198 -0.021514857187867165 -0.150721520185470581 0.157024130225181580 -0.077608235180377960 0.202507257461547852 0.186452656984329224 0.112843319773674011 0.018243851140141487 0.076515346765518188 0.023790115490555763 -0.155110642313957214 -0.126828119158744812 0.082548946142196655 -0.134695947170257568 0.077177926898002625 0.018921421840786934 0.090187333524227142 -0.104579597711563110 -0.015739627182483673 -0.010533832944929600 -0.126400962471961975 0.211545929312705994 0.047936290502548218 -0.121490553021430969 -0.050362303853034973 0.143160745501518250 -0.084287941455841064 0.044203303754329681 -0.157456293702125549 0.206681549549102783 0.160293027758598328 0.087936259806156158 0.184351578354835510 0.081560447812080383 0.106168530881404877 0.216967314481735229 0.044522166252136230 0.059449918568134308 0.030112253502011299 0.217854216694831848 -0.088874876499176025 -0.159068018198013306 0.094049431383609772 -0.150319755077362061 0.017549401149153709 0.017706330865621567 0.178834855556488037 -0.067845977842807770 -0.103659115731716156 0.034774422645568848 -0.031103013083338737 0.077904775738716125 -0.190188363194465637 -0.009071404114365578 -0.036753270775079727 -0.074791267514228821 0.002986965002492070 0.179090261459350586 0.152160778641700745 -0.119747579097747803 0.128483176231384277 -0.106871210038661957 -0.071799315512180328 -0.172471418976783752 -0.074942007660865784 0.183601543307304382 0.069389283657073975 -0.177038177847862244 0.006731658242642879 -0.004806286189705133 0.090945981442928314 -0.013143518939614296 0.003135196864604950 -0.024855168536305428
