#Layer 4 Biases:
0.038414746522903442 -0.006119133904576302 0.021077314391732216 0.005285378079861403 -0.013747693970799446 -0.024287318810820580 0.025856649503111839 0.000109195636468939 0.005838210228830576 -0.002098139375448227 0.005244647618383169 0.011783899739384651 0.003937663510441780 0.008078671060502529 -0.012039082124829292 -0.005108857061713934 -0.005173032172024250 -0.005020479205995798 -0.007745412643998861 0.011515031568706036 -0.002355087082833052 0.011138169094920158 0.013282109051942825 -0.011775930412113667 0.012402750551700592 -0.013137418776750565 0.032920159399509430 -0.006408168468624353 -0.008518503047525883 -0.013660614378750324 0.033435400575399399 -0.009316534735262394 -0.055792488157749176 -0.015968849882483482 -0.011068344116210938 0.012367045506834984 -0.001896856818348169 -0.000888191687408835 -0.024566568434238434 0.003543643280863762 -0.026327459141612053 -0.016398578882217407 0.075799658894538879 0.034206733107566833 0.007169633172452450 -0.036053352057933807 -0.033018745481967926 -0.009190611541271210 -0.066260680556297302 -0.013566900044679642 0.019385304301977158 -0.023308727890253067 -0.006723728496581316 -0.014367955736815929 0.006817265879362822 0.021345240995287895 0.012595763429999352 -0.003200688632205129 -0.008437452837824821 -0.018669933080673218 -0.008175964467227459 0.027054248377680779 -0.016674829646945000 -0.006231215316802263 -0.020009653642773628 -0.001453093951568007 -0.010893001221120358 0.038248531520366669 -0.022291818633675575 0.002153211040422320 -0.006510392297059298 0.002802582224830985 0.007675720378756523 0.050447180867195129 -0.015613086521625519 0.011587695218622684 -0.003198128193616867 -0.032283548265695572 0.000985559076070786 -0.012734426185488701 -0.024872966110706329 0.016564005985856056 0.015303324908018112 -0.013586813583970070 -0.016577694565057755 -0.032756686210632324 -0.011060100980103016 -0.034320689737796783 0.022898986935615540 0.020956249907612801 -0.015616388060152531 -0.007467360701411963 -0.097552739083766937 -0.019258538261055946 -0.000923328043427318 -0.019459756091237068 0.014284820295870304 0.049234651029109955 0.011071419343352318 0.029113991186022758
