#Layer 5 Biases:
-0.000796171545516700 -0.015018206089735031 0.004297530744224787 0.002275113714858890 -0.000342719053151086 -0.004129839129745960 0.013609683141112328 -0.017067544162273407 0.006578047759830952 0.013216888532042503 0.013730786740779877 -0.000045562559535028 -0.026547931134700775 0.015689162537455559 -0.015341124497354031 -0.009111736901104450 0.045259322971105576 -0.020636223256587982 -0.005758805200457573 0.020235076546669006 -0.043928954750299454 0.016349427402019501 -0.001894021406769753 0.000336677621817216 0.031661793589591980 0.034157805144786835 0.022594803944230080 0.026666162535548210 0.043938245624303818 -0.039964683353900909 -0.013185363262891769 0.016435340046882629 0.031198199838399887 0.008953047916293144 0.009224084205925465 0.034909229725599289 0.001848342362791300 0.001888507744297385 -0.020750280469655991 -0.000479267939226702 -0.009442327544093132 0.004983833059668541 0.003147369483485818 0.001462948275730014 -0.001410689670592546 -0.005224469117820263 -0.007674261927604675 0.000980078824795783 0.012819684110581875 -0.023527083918452263 0.003291211789473891 -0.008074503391981125 0.008393503725528717 -0.009044914506375790 -0.014457183890044689 0.004497599322348833 0.010785969905555248 -0.014803494326770306 -0.009036240167915821 -0.057322673499584198 -0.022600635886192322 -0.050522834062576294 0.002293682191520929 0.008755809627473354 -0.011809705756604671 -0.010869129560887814 0.012565024197101593 0.014824495650827885 -0.002359907375648618 0.031925920397043228 0.003756737569347024 0.011300776153802872 0.019300268962979317 -0.015589467249810696 -0.041724167764186859 -0.003787202760577202 0.010779254138469696 0.020129889249801636 -0.028118126094341278 0.011186705902218819 -0.002448054030537605 0.007280275691300631 0.002466230886057019 0.075688093900680542 -0.014072887599468231 -0.022881701588630676 -0.001220722217112780 0.013991323299705982 -0.004563495051115751 0.020750829949975014 -0.009514629840850830 0.037723336368799210 0.009767099283635616 -0.002361617051064968 -0.012838896363973618 -0.008368156850337982 0.012088567949831486 -0.023808995261788368 0.032106172293424606 0.013617743737995625
