#Layer 2 Biases:
-0.025919899344444275 -0.027564184740185738 0.027756970375776291 0.019603632390499115 -0.015495691448450089 -0.044287886470556259 -0.003958515357226133 0.025092206895351410 0.024134049192070961 -0.047891497611999512 -0.027143474668264389 0.039361707866191864 0.033580437302589417 0.000064540159655735 -0.004314043093472719 0.020213596522808075 0.040791127830743790 -0.028297340497374535 -0.054057914763689041 -0.043735597282648087 -0.027023021131753922 0.044855255633592606 -0.087763316929340363 -0.035515524446964264 -0.023607634007930756 -0.006500110961496830 0.007470135111361742 -0.038068819791078568 -0.069907449185848236 0.044157139956951141 0.035140652209520340 0.011936408467590809 0.060058768838644028 -0.026944767683744431 0.031978625804185867 0.043789733201265335 0.013100479729473591 0.033427551388740540 0.021102972328662872 0.042097758501768112 -0.038259286433458328 -0.008006267249584198 -0.037555091083049774 0.060178268700838089 0.055436350405216217 0.009695081971585751 0.051100112497806549 0.037818085402250290 -0.051034968346357346 0.022894212976098061 0.006370995193719864 0.012432213872671127 0.034690577536821365 -0.053797870874404907 0.080911889672279358 0.004220305010676384 -0.042217317968606949 -0.058141205459833145 -0.024124965071678162 0.024657553061842918 0.004281242843717337 -0.031935151666402817 0.026000555604696274 0.008444963954389095 0.057636160403490067 0.040161665529012680 -0.016232870519161224 0.011229537427425385 0.055275425314903259 -0.114714525640010834 0.044443801045417786 -0.055084545165300369 -0.037904530763626099 0.050509709864854813 -0.051128644496202469 -0.118403226137161255 0.051933687180280685 -0.001312116160988808 0.039857476949691772 -0.051321309059858322 -0.029841091483831406 -0.010759261436760426 -0.058384664356708527 -0.031989127397537231 -0.006912008393555880 0.012044089846313000 0.056559249758720398 0.058087605983018875 0.053178593516349792 0.008319495245814323 0.013512288220226765 0.017464393749833107 -0.012768357060849667 0.026807371526956558 0.024051088839769363 -0.002211828483268619 0.064462229609489441 -0.000755922053940594 0.029273612424731255 0.021135443821549416
