#Layer 3 Biases:
0.006813047453761101 -0.026954829692840576 0.080368712544441223 -0.022127315402030945 -0.006887110415846109 0.024277172982692719 -0.007440958637744188 0.052880868315696716 -0.020201494917273521 -0.015833316370844841 -0.060335915535688400 -0.015007155947387218 -0.033631522208452225 -0.017556503415107727 -0.006621975917369127 -0.015378464944660664 0.001954501960426569 0.023627242073416710 -0.041025441139936447 0.016423735767602921 0.002674074377864599 0.028179500252008438 -0.013128079473972321 -0.003817133838310838 0.011114963330328465 0.018098112195730209 0.036741547286510468 -0.020041136071085930 -0.016179980710148811 -0.042661555111408234 -0.050707042217254639 -0.009583663195371628 0.038462497293949127 0.021667374297976494 -0.013730655424296856 0.009874384850263596 -0.001966491807252169 -0.016587067395448685 -0.044078834354877472 0.023368773981928825 -0.003828068962320685 -0.005914989858865738 -0.022006403654813766 -0.007586910855025053 -0.056978743523359299 -0.009363982826471329 -0.022246096283197403 -0.005983980838209391 -0.006805887911468744 -0.081841789186000824 0.033203713595867157 0.081336110830307007 -0.019067294895648956 -0.038362201303243637 0.013885965570807457 0.000908937363419682 -0.001419844571501017 0.020123114809393883 0.016566334292292595 -0.006102904211729765 0.034299768507480621 0.016598770394921303 0.015257986262440681 0.032497096806764603 -0.036287374794483185 0.024270759895443916 -0.013496882282197475 -0.001475343713536859 0.016949342563748360 0.046712420880794525 0.026726899668574333 0.020328847691416740 -0.067793652415275574 -0.038716528564691544 0.017928628250956535 0.059264022856950760 -0.013525485992431641 0.057955194264650345 -0.004829064942896366 0.046618849039077759 0.007445493247359991 0.048255242407321930 0.068598307669162750 -0.052973128855228424 -0.035604685544967651 -0.003858965123072267 -0.004773094784468412 0.019562494009733200 -0.060112297534942627 -0.020842786878347397 -0.010441771708428860 -0.026727493852376938 0.016543887555599213 0.009851325303316116 0.007943662814795971 0.025660226121544838 0.004116338212043047 -0.022755635902285576 0.000274964520940557 0.003842493752017617
