#Layer 6 Biases:
0.008653644472360611 -0.004180829506367445 -0.076515264809131622 0.035551495850086212 -0.033625937998294830 0.015223927795886993 0.004004597198218107 0.025451617315411568 0.039523113518953323 0.012289823964238167 0.019847201183438301 0.023221233859658241 0.002869804855436087 0.000512835395056754 -0.011672579683363438 -0.029874220490455627 -0.001413581194356084 -0.004773499909788370 -0.001516737276688218 -0.011951779946684837 -0.019651893526315689 0.003826393047347665 0.018856925889849663 -0.045832265168428421 0.014365540817379951 0.032928831875324249 -0.002557354979217052 -0.012779063545167446 0.014016239903867245 -0.004808977711945772 0.007359098177403212 -0.031354751437902451 0.011678618378937244 -0.005967279896140099 -0.004319652915000916 0.029830435290932655 0.006023880559951067 -0.001998629420995712 0.017863061279058456 0.001581903430633247 0.009452727623283863 -0.017559656873345375 -0.001562425168231130 0.020572943612933159 0.006099943537265062 0.011715924367308617 0.005778580438345671 -0.017300179228186607 0.046758569777011871 -0.002857323968783021 0.015651658177375793 -0.005596768576651812 0.001927488599903882 0.041211124509572983 -0.012956726364791393 -0.012467516586184502 0.038996133953332901 -0.018631955608725548 0.047949038445949554 0.013943122699856758 -0.025056187063455582 0.072448410093784332 -0.015157794579863548 -0.071452751755714417 0.010151474736630917 0.008457598276436329 0.021316375583410263 0.142976194620132446 0.007885786704719067 -0.002526015741750598 -0.043323099613189697 0.036071103066205978 -0.001335786306299269 0.006233299151062965 -0.003817925695329905 0.018991934135556221 0.012187421321868896 -0.007659287657588720 0.004757418762892485 0.028613772243261337 -0.034039869904518127 0.008669110946357250 0.003114853985607624 0.000379574456019327 0.001128925010561943 -0.017540803179144859 -0.010974307544529438 -0.014839117415249348 -0.023224361240863800 0.018134882673621178 -0.002674039686098695 0.000328400288708508 -0.010757602751255035 -0.000016959027561825 0.002722301054745913 -0.004881296306848526 0.019261699169874191 -0.011985219083726406 0.012937797233462334 -0.032879855483770370
