#Layer 0 Biases:
0.023516999557614326 0.063931830227375031 -0.044629238545894623 0.103982985019683838 -0.014063372276723385 0.086862981319427490 -0.103857651352882385 -0.037055544555187225 -0.080660782754421234 -0.087556816637516022 -0.094149217009544373 0.046786550432443619 0.058764565736055374 0.001208104076795280 0.041424456983804703 0.114113070070743561 0.089687518775463104 -0.080357737839221954 0.051122196018695831 -0.093153491616249084 0.027454230934381485 -0.077815994620323181 -0.101837530732154846 -0.003350217826664448 -0.016007807105779648 -0.028481783345341682 -0.056519236415624619 -0.048942726105451584 0.101326234638690948 -0.061127968132495880 -0.016554303467273712 -0.080435171723365784 0.044131260365247726 -0.001706534530967474 -0.058738209307193756 -0.071119092404842377 -0.096193216741085052 0.094209820032119751 -0.070174962282180786 0.025468902662396431 0.044654909521341324 -0.106044046580791473 0.086303189396858215 0.041105352342128754 0.151217892765998840 0.001753557007759809 -0.104180902242660522 -0.018469726666808128 -0.056085281074047089 0.034199208021163940 -0.071317680180072784 -0.029659781605005264 -0.038937833160161972 0.054047405719757080 0.020695164799690247 0.031718827784061432 0.110430493950843811 0.082691729068756104 -0.058468088507652283 -0.082299545407295227 -0.113546058535575867 0.056186340749263763 0.064616031944751740 0.046608261764049530 0.074951291084289551 -0.080393351614475250 -0.014426343142986298 -0.012612097896635532 0.005603362806141376 -0.071389667689800262 0.103153951466083527 0.057555381208658218 -0.057574778795242310 -0.045680876821279526 -0.129303589463233948 -0.029413495212793350 0.084444597363471985 0.089144922792911530 0.011739250272512436 0.006084393244236708 -0.079718738794326782 0.068649210035800934 0.073223091661930084 0.062628559768199921 0.091433390974998474 0.104437343776226044 -0.048145417124032974 -0.079599462449550629 0.053746502846479416 -0.050092477351427078 0.017354547977447510 -0.045893214643001556 -0.100686334073543549 -0.037300549447536469 0.093594945967197418 0.002641506958752871 -0.073718585073947906 0.018842479214072227 -0.051858596503734589 0.080480299890041351
