#Layer 7 Weights:
-0.021343937143683434 -0.039416525512933731 0.108679309487342834 -0.050164390355348587 0.079979181289672852 -0.138610303401947021 0.086626142263412476 0.025393532589077950 0.107988372445106506 0.133060455322265625 0.031063605099916458 -0.106486432254314423 -0.042940136045217514 0.163732185959815979 -0.086854226887226105 -0.079007893800735474 -0.080914758145809174 -0.070890299975872040 -0.098372437059879303 0.153125390410423279 -0.054933987557888031 0.151972353458404541 0.059453617781400681 0.043486651033163071 -0.100034862756729126 0.016560873016715050 0.068470083177089691 0.149046555161476135 -0.120120204985141754 0.009332529269158840 0.081887297332286835 0.014095532707870007 -0.080552220344543457 -0.001267006504349411 0.094798497855663300 0.138710394501686096 -0.000210614845855162 0.016569966450333595 -0.013003878295421600 -0.000000198759252612 -0.132243260741233826 0.149857610464096069 -0.125531554222106934 -0.075251132249832153 -0.095906436443328857 0.025736229494214058 0.142455503344535828 0.085685506463050842 0.142554849386215210 -0.147022888064384460 -0.020734507590532303 0.110364690423011780 0.156557336449623108 -0.038072001188993454 -0.036677494645118713 -0.126714617013931274 -0.120473347604274750 -0.015754433348774910 0.116220787167549133 0.121639378368854523 0.052514139562845230 -0.028458775952458382 -0.078458942472934723 -0.085339181125164032 0.041345432400703430 0.093868829309940338 0.050350952893495560 0.045554347336292267 0.091963537037372589 -0.059613171964883804 -0.068347498774528503 -0.060845758765935898 0.025656457990407944 0.076462507247924805 0.107210904359817505 0.107114933431148529 -0.062995739281177521 -0.154303431510925293 0.024059539660811424 -0.001330342143774033 0.019773922860622406 -0.067817054688930511 -0.061068888753652573 -0.004049842245876789 -0.059950113296508789 0.094623535871505737 0.033665128052234650 0.105524197220802307 0.004670157097280025 0.062398925423622131 0.140619590878486633 0.095807015895843506 0.132437005639076233 0.055566184222698212 -0.071162417531013489 -0.150882333517074585 0.102770000696182251 0.004606822505593300 -0.007979261688888073 -0.066404171288013458
-0.091660112142562866 0.026838447898626328 -0.030323125422000885 -0.036629132926464081 0.056836564093828201 0.054428134113550186 0.027202697470784187 -0.131168708205223083 0.012381364591419697 0.012194845825433731 0.077508993446826935 -0.097736306488513947 -0.017139803618192673 0.016243992373347282 -0.064494110643863678 -0.118233799934387207 0.110842593014240265 -0.047416031360626221 -0.009587046690285206 0.134664207696914673 0.174579232931137085 0.084372386336326599 0.037385653704404831 0.040611248463392258 -0.070241883397102356 -0.191188827157020569 0.111222490668296814 0.034361798316240311 0.042537074536085129 0.091488562524318695 0.112630724906921387 -0.096036784350872040 0.102001987397670746 0.128400713205337524 0.097764499485492706 -0.180511668324470520 -0.010864910669624805 -0.155668437480926514 0.180640622973442078 -0.135709241032600403 -0.168908104300498962 -0.057243701070547104 0.107629455626010895 -0.157194867730140686 -0.067738369107246399 0.081370450556278229 -0.112126357853412628 0.076542697846889496 -0.116947412490844727 0.055679012089967728 0.071179457008838654 0.019499041140079498 0.155347302556037903 -0.136836946010589600 0.056326944380998611 -0.032608948647975922 0.000117952113214415 -0.115001641213893890 -0.134196788072586060 -0.050098642706871033 -0.047569826245307922 -0.095792435109615326 0.024368071928620338 -0.159759283065795898 0.126282230019569397 -0.104835651814937592 -0.143678873777389526 0.107905514538288116 -0.007829390466213226 0.043323531746864319 0.017647039145231247 0.068877510726451874 -0.154987379908561707 -0.037823293358087540 -0.060738343745470047 -0.077522166073322296 0.134197592735290527 -0.072507828474044800 0.058894846588373184 -0.027123659849166870 -0.098778136074542999 0.045549031347036362 -0.028938904404640198 0.170684874057769775 0.131873294711112976 0.074036829173564911 -0.072968572378158569 -0.102521844208240509 -0.143275678157806396 -0.218695551156997681 0.027307096868753433 0.115146242082118988 -0.063945338129997253 -0.167763501405715942 0.156001776456832886 -0.101497329771518707 0.161065533757209778 0.046398542821407318 0.043499175459146500 0.101920150220394135
0.181153059005737305 -0.052662156522274017 -0.012219741940498352 0.003866659244522452 -0.174610748887062073 0.028530113399028778 -0.007766894530504942 -0.120466627180576324 -0.036392640322446823 0.025038409978151321 0.071133911609649658 0.146587625145912170 -0.088190846145153046 -0.075059592723846436 -0.047213472425937653 -0.051554348319768906 0.094984062016010284 0.063564509153366089 -0.065852731466293335 0.066192291676998138 0.160587430000305176 -0.050030134618282318 0.127191528677940369 -0.025713477283716202 0.139330953359603882 0.066045887768268585 0.175615996122360229 0.096494778990745544 0.153893485665321350 -0.022199735045433044 -0.141340374946594238 -0.010410397313535213 -0.087297432124614716 -0.161308050155639648 -0.154609173536300659 -0.012189561501145363 -0.005747093819081783 -0.111987456679344177 -0.139760121703147888 -0.007776750251650810 -0.123478405177593231 0.096311613917350769 0.178440466523170471 0.121306993067264557 0.132790461182594299 -0.077111132442951202 -0.132304519414901733 -0.002171362983062863 -0.030191969126462936 -0.175366818904876709 -0.010597678832709789 -0.083013519644737244 0.116261810064315796 -0.135092750191688538 -0.027465743944048882 -0.072344087064266205 -0.031470201909542084 0.062878429889678955 -0.065914966166019440 -0.073689080774784088 0.128149464726448059 -0.065526992082595825 -0.050823293626308441 0.178976237773895264 -0.119105525314807892 0.018467443063855171 -0.105794608592987061 0.091147862374782562 -0.003235473530367017 0.070990964770317078 -0.109719946980476379 0.024716487154364586 -0.082040451467037201 -0.033717941492795944 0.098435238003730774 0.015111532062292099 0.024966923519968987 -0.063761763274669647 -0.128799542784690857 0.027018653228878975 0.075592614710330963 -0.025832211598753929 0.122680507600307465 0.146387249231338501 -0.066278919577598572 -0.185497909784317017 -0.132137879729270935 0.000346710614394397 0.148774817585945129 -0.008884032256901264 0.150123804807662964 -0.016222538426518440 -0.178559288382530212 0.164828747510910034 0.166498064994812012 0.038030352443456650 0.171544000506401062 -0.054400607943534851 0.119966320693492889 0.115305401384830475
0.013699953444302082 -0.063876882195472717 -0.165085241198539734 -0.060858193784952164 0.010508049279451370 0.085935562849044800 -0.158453002572059631 -0.162804603576660156 0.041514560580253601 -0.089938759803771973 0.064029723405838013 -0.128337100148200989 0.012030051089823246 -0.047566577792167664 -0.045635711401700974 -0.133123368024826050 -0.085386559367179871 0.161260619759559631 0.065193362534046173 0.118573211133480072 0.123897790908813477 0.076772168278694153 -0.095030255615711212 -0.100475996732711792 0.053976923227310181 0.033631689846515656 -0.057411883026361465 0.158604174852371216 0.069586321711540222 -0.143228486180305481 0.035103168338537216 -0.045996401458978653 0.138099908828735352 0.145807415246963501 0.176817089319229126 -0.014673927798867226 -0.005594953428953886 0.127236768603324890 -0.131290748715400696 -0.148979082703590393 -0.174579665064811707 -0.128969818353652954 0.013891896232962608 -0.179031774401664734 -0.011742661707103252 0.130559995770454407 -0.060036048293113708 0.113859295845031738 0.106602884829044342 0.033902317285537720 -0.156919986009597778 0.146952539682388306 -0.100074224174022675 0.048962008208036423 -0.136784449219703674 0.077785164117813110 -0.022488623857498169 -0.048965606838464737 -0.096296899020671844 -0.077338032424449921 0.132423713803291321 -0.016587248072028160 -0.032896727323532104 0.090591892600059509 0.073629133403301239 0.175993666052818298 0.039205700159072876 0.164348408579826355 -0.103957094252109528 0.164415016770362854 0.014127385802567005 0.133448168635368347 0.178317382931709290 0.106321126222610474 -0.061463117599487305 0.114382103085517883 -0.039798811078071594 -0.151844695210456848 -0.060863833874464035 -0.125410139560699463 -0.136414363980293274 -0.098057411611080170 0.033310450613498688 0.155305087566375732 0.165488705039024353 -0.122902326285839081 -0.164525508880615234 0.092345327138900757 0.111746676266193390 0.070985198020935059 -0.129386723041534424 0.089330077171325684 0.173451870679855347 -0.139923200011253357 0.158817812800407410 -0.154928192496299744 -0.146336749196052551 -0.147782102227210999 0.022975604981184006 0.133135944604873657
-0.053927589207887650 -0.024957783520221710 -0.088650465011596680 -0.039831571280956268 -0.021175762638449669 0.117657080292701721 -0.098981313407421112 0.028872519731521606 0.018865721300244331 0.013454010710120201 0.108288072049617767 -0.170127838850021362 0.141792610287666321 -0.129135861992835999 -0.016729781404137611 -0.154260203242301941 -0.093907512724399567 -0.135038718581199646 -0.007234392222017050 -0.022240307182073593 -0.058037843555212021 0.008025390096008778 -0.001758502097800374 -0.101210922002792358 0.103122808039188385 -0.086048923432826996 -0.136477485299110413 0.119735024869441986 -0.130042046308517456 0.029491569846868515 -0.021504431962966919 0.045813847333192825 0.017402669414877892 0.010472828522324562 -0.031203582882881165 0.066867098212242126 0.111324653029441833 -0.110449947416782379 0.080252759158611298 -0.076467074453830719 0.029320405796170235 0.036417074501514435 0.143645003437995911 0.075419068336486816 0.022837912663817406 0.065367348492145538 0.122649982571601868 -0.146009147167205811 0.047714818269014359 0.119950972497463226 -0.087817728519439697 0.029355732724070549 -0.161346957087516785 0.079337231814861298 0.037985060364007950 0.114833682775497437 -0.025819184258580208 0.157873302698135376 -0.013104644604027271 0.116596177220344543 -0.031876463443040848 -0.085627250373363495 -0.081014819443225861 -0.166947141289710999 0.071657709777355194 -0.144257009029388428 0.139607533812522888 0.124155625700950623 0.036558061838150024 0.048174325376749039 0.035191133618354797 0.067921645939350128 0.052367985248565674 -0.003327587852254510 -0.129201143980026245 0.134437471628189087 0.133078858256340027 0.171443387866020203 0.104910008609294891 0.120429910719394684 0.173301041126251221 -0.039852507412433624 -0.205143168568611145 0.009587688371539116 -0.053736362606287003 -0.105868555605411530 -0.034321736544370651 -0.094520069658756256 -0.053255338221788406 0.105303697288036346 0.114649847149848938 -0.000440225849160925 0.147090166807174683 0.163762003183364868 0.152042910456657410 0.000147791608469561 0.031392239034175873 0.032385747879743576 -0.142982378602027893 0.090051360428333282
0.074993506073951721 -0.163272157311439514 -0.077763646841049194 0.101609021425247192 -0.124751232564449310 -0.106343850493431091 0.050541978329420090 -0.092821374535560608 0.027640098705887794 -0.033187832683324814 -0.046880990266799927 -0.147243484854698181 0.011833666823804379 0.012908076867461205 -0.001598046510480344 0.173981562256813049 0.089217819273471832 -0.070405691862106323 -0.017412507906556129 -0.069608218967914581 0.107048973441123962 0.113520771265029907 0.120945908129215240 0.088748678565025330 -0.101532332599163055 -0.149830073118209839 0.093828558921813965 -0.091632038354873657 -0.075510792434215546 0.063125960528850555 -0.069248303771018982 0.045397005975246429 -0.152823746204376221 -0.117491349577903748 -0.028236404061317444 -0.056817416101694107 -0.185963824391365051 0.085300549864768982 0.018812213093042374 0.122501425445079803 -0.127596721053123474 0.099279463291168213 -0.130266219377517700 0.085900649428367615 -0.143647417426109314 0.040683545172214508 -0.014058117754757404 -0.074389696121215820 0.022012140601873398 0.080769188702106476 0.084396012127399445 -0.045854970812797546 -0.208375930786132812 -0.023503920063376427 0.138557165861129761 0.005026867147535086 -0.077695406973361969 -0.107158504426479340 -0.084530778229236603 0.163673207163810730 -0.155112698674201965 0.140881493687629700 0.020131351426243782 -0.047494217753410339 0.186005383729934692 -0.043709557503461838 0.119462832808494568 0.101391516625881195 -0.165766209363937378 0.169852450489997864 -0.134607538580894470 0.001979409018531442 0.144205033779144287 0.009763576090335846 0.079131767153739929 0.100050136446952820 -0.146132752299308777 -0.066997028887271881 0.014884185045957565 -0.132094442844390869 0.081816114485263824 -0.152472481131553650 0.011907708831131458 0.039802923798561096 0.070480264723300934 0.016446083784103394 0.059283174574375153 0.003359578782692552 -0.103492692112922668 0.017644049599766731 0.146249562501907349 0.194649115204811096 0.012373171746730804 -0.072265215218067169 -0.136449858546257019 0.038891039788722992 -0.183929532766342163 0.058966148644685745 -0.064271613955497742 -0.038710787892341614
0.103019788861274719 0.039641164243221283 -0.119315154850482941 -0.008722436614334583 0.079878836870193481 -0.042708810418844223 0.104404225945472717 -0.032061297446489334 -0.083563089370727539 -0.117644280195236206 -0.120896518230438232 0.138709694147109985 0.146604716777801514 0.156662136316299438 0.073699690401554108 0.166648522019386292 -0.047632187604904175 -0.165913537144660950 -0.058798696845769882 0.106239236891269684 -0.161256581544876099 -0.070374988019466400 -0.161125212907791138 -0.004268623422831297 -0.081358656287193298 0.096354231238365173 -0.090007297694683075 0.200589627027511597 0.135731175541877747 -0.126435518264770508 0.112282834947109222 0.049911413341760635 -0.038901511579751968 0.086578883230686188 0.015477760694921017 0.148509606719017029 -0.147224023938179016 0.039234537631273270 -0.023643152788281441 0.116590961813926697 0.158288091421127319 0.199414104223251343 0.003909507766366005 -0.100749969482421875 -0.149273127317428589 -0.029670834541320801 -0.132724761962890625 -0.016633655875921249 -0.112203992903232574 0.083604842424392700 0.085531719028949738 -0.059938199818134308 -0.032803475856781006 -0.005239179823547602 -0.035829205065965652 -0.078007228672504425 -0.079965159296989441 0.091947972774505615 0.028675531968474388 0.110330149531364441 0.120533443987369537 -0.090688161551952362 0.148713573813438416 -0.133975356817245483 0.093270920217037201 -0.015948940068483353 0.102598451077938080 -0.068943344056606293 -0.023475667461752892 0.139967709779739380 -0.092810802161693573 0.169842511415481567 0.084016978740692139 -0.161701187491416931 -0.033140666782855988 -0.099076397716999054 0.096582956612110138 0.112311527132987976 0.084654957056045532 0.173150658607482910 0.162524044513702393 0.099556788802146912 0.154677003622055054 0.093612477183341980 0.176048681139945984 0.016335109248757362 -0.067329511046409607 0.022177331149578094 0.080552048981189728 0.027102513238787651 -0.098557509481906891 -0.090155430138111115 -0.121723942458629608 0.093477174639701843 0.118495762348175049 0.127319216728210449 -0.045792069286108017 0.028544550761580467 -0.141084700822830200 -0.161321014165878296
-0.025562250986695290 -0.063394106924533844 0.027313603088259697 -0.084951855242252350 -0.017088573426008224 -0.013846749439835548 0.066792249679565430 -0.174646958708763123 -0.014384018257260323 0.056939162313938141 0.078281953930854797 0.000507530698087066 -0.039060764014720917 0.032766293734312057 -0.151100829243659973 0.078986771404743195 -0.053169723600149155 0.150102123618125916 -0.090842433273792267 0.021047241985797882 0.086401715874671936 -0.065328866243362427 -0.080905020236968994 -0.155291005969047546 -0.017949249595403671 -0.092577621340751648 0.019068151712417603 0.192760422825813293 0.191029161214828491 -0.141021013259887695 0.157655417919158936 0.104732535779476166 0.152672067284584045 0.095628306269645691 -0.083812117576599121 0.080930106341838837 -0.059474937617778778 -0.138506874442100525 -0.105479896068572998 0.095366276800632477 -0.160690292716026306 0.138546779751777649 0.008056836202740669 -0.026322200894355774 0.081276975572109222 0.149437621235847473 0.069240324199199677 -0.020015221089124680 -0.126461520791053772 0.013824169524013996 0.056581553071737289 -0.005355235189199448 -0.144307076930999756 0.120918229222297668 0.146722480654716492 0.095952711999416351 0.058936484158039093 0.020738907158374786 0.115375339984893799 -0.119584850966930389 -0.062201008200645447 0.171309217810630798 0.117054663598537445 0.058399334549903870 -0.069885395467281342 -0.030375938862562180 -0.168370768427848816 -0.024359101429581642 -0.001341515337117016 -0.149820581078529358 -0.183248803019523621 0.178089484572410583 -0.134589329361915588 -0.105819433927536011 -0.121652856469154358 0.044911034405231476 -0.173217609524726868 0.086843647062778473 -0.025911381468176842 -0.109117686748504639 -0.001799434539861977 0.097137778997421265 -0.081500053405761719 0.036923639476299286 -0.076291523873806000 0.089328795671463013 0.083544597029685974 -0.176919743418693542 -0.114627428352832794 -0.011345524340867996 0.104202024638652802 -0.123967133462429047 0.086650930345058441 -0.009335413575172424 0.055546499788761139 0.023371316492557526 -0.012563185766339302 0.123952820897102356 -0.067467734217643738 -0.009981290437281132
0.023041263222694397 0.003960046917200089 0.019353069365024567 -0.128319397568702698 0.093263961374759674 0.138988956809043884 0.173136740922927856 -0.034746248275041580 0.120023496448993683 -0.101689375936985016 -0.138631969690322876 0.029308397322893143 0.116392701864242554 0.069651722908020020 0.016308970749378204 -0.029593037441372871 0.115469671785831451 -0.070044666528701782 -0.003874417161568999 0.088399909436702728 -0.080514624714851379 0.168233886361122131 -0.167710483074188232 -0.019575580954551697 0.157844707369804382 0.045085523277521133 0.040535695850849152 -0.078728996217250824 -0.036847848445177078 -0.141703680157661438 0.126963153481483459 0.016950484365224838 0.137134075164794922 0.101033754646778107 0.052615970373153687 0.139644846320152283 0.095678322017192841 0.097226284444332123 0.134685203433036804 -0.070320405066013336 -0.103772170841693878 0.071373999118804932 -0.033105384558439255 -0.133631676435470581 0.068918786942958832 0.111290410161018372 -0.078508518636226654 0.121480844914913177 0.025596132501959801 0.138716876506805420 -0.103589236736297607 0.053101122379302979 -0.028438596054911613 0.100336581468582153 0.015941267833113670 0.099089637398719788 0.082478195428848267 0.037731751799583435 -0.129184663295745850 -0.071244657039642334 0.014732027426362038 0.102324977517127991 -0.092237964272499084 -0.000041364772187080 0.093422271311283112 0.042399954050779343 0.008927360177040100 0.039799053221940994 0.087169989943504333 -0.164855003356933594 -0.024728002026677132 0.040686763823032379 -0.130324721336364746 0.023153521120548248 -0.048542942851781845 0.049308948218822479 0.054348640143871307 0.108689419925212860 0.191183790564537048 -0.017552176490426064 -0.057296726852655411 -0.117865256965160370 0.128175556659698486 0.014506545849144459 0.142458692193031311 -0.010681502521038055 0.146830096840858459 -0.164499625563621521 -0.123126052320003510 0.073057360947132111 0.120340228080749512 0.027476914227008820 0.013041161000728607 0.146835729479789734 -0.051823146641254425 0.089532136917114258 -0.160727635025978088 -0.118827164173126221 0.066637687385082245 0.134196251630783081
-0.134653747081756592 -0.151935756206512451 -0.136272370815277100 0.178229644894599915 0.055228546261787415 0.125487044453620911 0.176642775535583496 -0.109119422733783722 0.179108887910842896 -0.143813461065292358 -0.084042355418205261 -0.126478433609008789 -0.149472519755363464 0.054680656641721725 0.120031811296939850 0.032982289791107178 0.151091024279594421 -0.146769553422927856 0.024566886946558952 -0.152984365820884705 0.044988200068473816 -0.006894313730299473 0.167339697480201721 -0.172481104731559753 0.024546019732952118 0.020664313808083534 -0.043704938143491745 0.093917429447174072 -0.099428787827491760 0.014015876688063145 -0.142698213458061218 -0.077499575912952423 0.144328668713569641 -0.078756362199783325 0.177519932389259338 0.113184548914432526 -0.104296647012233734 0.174725368618965149 0.146302998065948486 0.096303172409534454 -0.066854767501354218 0.170633405447006226 0.135502934455871582 0.076250821352005005 0.143654987215995789 0.019557600840926170 -0.077460594475269318 0.027890473604202271 -0.010612871497869492 0.106556445360183716 -0.150387793779373169 -0.151833176612854004 -0.103038959205150604 -0.029079876840114594 -0.137589544057846069 0.150142177939414978 0.010539864189922810 -0.171772569417953491 -0.168169513344764709 0.121726036071777344 -0.098875969648361206 0.109691783785820007 -0.051691550761461258 0.017266597598791122 0.041875794529914856 -0.145292922854423523 -0.018515383824706078 0.000181036288267933 -0.157590731978416443 -0.155711978673934937 0.079138562083244324 -0.047867190092802048 -0.065925106406211853 -0.025685347616672516 0.074967540800571442 0.031699590384960175 -0.124901801347732544 -0.167829811573028564 -0.028694093227386475 -0.113408580422401428 -0.139012888073921204 -0.112029202282428741 -0.003784168045967817 0.013578396290540695 0.016127999871969223 0.156590923666954041 0.170395821332931519 0.043612178415060043 0.115039244294166565 0.087230846285820007 -0.137433946132659912 0.172964096069335938 0.157760635018348694 0.120186850428581238 0.128908932209014893 -0.182287812232971191 0.012773910537362099 -0.107727646827697754 0.152127012610435486 -0.134072527289390564
0.065188862383365631 0.129934668540954590 0.040447864681482315 0.176929309964179993 0.094556808471679688 -0.178814917802810669 -0.125288322567939758 0.133950635790824890 -0.113082490861415863 0.112306788563728333 -0.162522628903388977 0.130522087216377258 0.131849154829978943 0.198148459196090698 0.089342385530471802 0.171375766396522522 0.145207926630973816 -0.090146787464618683 0.126252278685569763 -0.099650688469409943 -0.047631826251745224 0.171573594212532043 0.172799572348594666 0.002846030984073877 -0.109550751745700836 0.140411213040351868 -0.147168710827827454 -0.053760468959808350 0.091984540224075317 -0.113025665283203125 -0.103963084518909454 0.153543755412101746 0.037947826087474823 0.120103992521762848 0.115240372717380524 -0.006493838969618082 0.000809142191428691 -0.055864538997411728 0.134807184338569641 0.060783043503761292 -0.026222247630357742 -0.019073104485869408 0.095549948513507843 0.107392378151416779 -0.046866081655025482 -0.095649197697639465 0.168447360396385193 -0.016826467588543892 0.152598083019256592 0.016462815925478935 -0.050680492073297501 -0.040245454758405685 -0.035976272076368332 0.098181381821632385 -0.000433769717346877 0.088129036128520966 -0.132352948188781738 -0.026983041316270828 -0.127743214368820190 0.065096862614154816 -0.125812560319900513 -0.143883138895034790 0.133458077907562256 0.157354444265365601 0.031696707010269165 0.158769950270652771 0.134127199649810791 -0.051521126180887222 0.086019165813922882 -0.057797692716121674 -0.220134884119033813 -0.090440273284912109 0.016012635082006454 -0.152839645743370056 0.037994258105754852 -0.138548225164413452 -0.173085182905197144 0.020373014733195305 -0.001586346421390772 -0.176511496305465698 0.113898605108261108 0.148514375090599060 -0.133039772510528564 -0.060270048677921295 0.027982827275991440 -0.050447162240743637 0.106512166559696198 -0.137588828802108765 0.061909120529890060 -0.002280601765960455 0.084605522453784943 0.154388457536697388 0.014253573492169380 -0.103158794343471527 -0.054959021508693695 -0.192150950431823730 0.063522271811962128 -0.066971682012081146 -0.151071056723594666 -0.056212414056062698
0.064595878124237061 -0.101683720946311951 -0.130004972219467163 0.202092081308364868 0.045008756220340729 -0.097540900111198425 -0.121830031275749207 0.150175914168357849 -0.023722261190414429 -0.119429349899291992 0.132769122719764709 0.036684855818748474 -0.068427525460720062 -0.081159487366676331 0.058379702270030975 0.051609326153993607 -0.109488062560558319 0.017860462889075279 -0.147150263190269470 0.063764333724975586 -0.113244190812110901 0.139655545353889465 -0.118111208081245422 -0.179734706878662109 -0.024060836061835289 0.040685366839170456 -0.188933700323104858 -0.052198827266693115 0.044367700815200806 0.026971956714987755 -0.072742938995361328 0.039041418582201004 0.063931256532669067 -0.004143727011978626 -0.051295641809701920 -0.014334684237837791 0.107243031263351440 0.133402481675148010 -0.083203107118606567 -0.105760596692562103 -0.027518592774868011 0.098397508263587952 -0.136058971285820007 0.146150812506675720 0.085519328713417053 -0.037706330418586731 0.176213011145591736 0.060188077390193939 -0.061736524105072021 -0.107260085642337799 0.097679562866687775 0.045692626386880875 0.002355789300054312 -0.095057733356952667 -0.092432834208011627 0.143129050731658936 0.154115617275238037 0.046317089349031448 0.118098698556423187 0.108761988580226898 0.006206443067640066 -0.098151445388793945 0.106375604867935181 0.056297753006219864 -0.177787944674491882 0.124919869005680084 0.083135426044464111 -0.036753609776496887 -0.156501635909080505 0.128911674022674561 0.090810738503932953 0.086095027625560760 0.131729677319526672 0.055157363414764404 0.056546110659837723 -0.119523935019969940 -0.011748290620744228 -0.052502010017633438 -0.107096210122108459 0.209035500884056091 -0.046243652701377869 0.048106592148542404 -0.132315486669540405 -0.110448695719242096 -0.000342533166985959 0.150408312678337097 0.129089653491973877 -0.049865707755088806 -0.002743758726865053 -0.207039937376976013 0.128460288047790527 -0.057081680744886398 -0.046021055430173874 0.116630718111991882 0.098873741924762726 -0.121489711105823517 -0.044026009738445282 0.050869990140199661 -0.031695906072854996 -0.123075753450393677
0.200834408402442932 -0.173000589013099670 -0.020468801259994507 -0.157050639390945435 -0.029352555051445961 -0.059032581746578217 -0.002575884107500315 0.169350028038024902 -0.094701535999774933 0.064687266945838928 -0.118849612772464752 -0.155398964881896973 -0.140796005725860596 -0.174394592642784119 0.087621375918388367 -0.009482812136411667 -0.086908914148807526 -0.073940627276897430 0.008147348649799824 0.163097292184829712 -0.095001295208930969 0.070515178143978119 0.049877267330884933 -0.101852566003799438 -0.118651017546653748 -0.142387747764587402 0.115795530378818512 -0.128114044666290283 0.155197486281394958 -0.022106559947133064 -0.137702882289886475 0.051870007067918777 -0.023023499175906181 -0.152705207467079163 0.044380828738212585 -0.154062211513519287 0.045964561402797699 -0.024222780019044876 -0.078465215861797333 -0.026744233444333076 -0.161951586604118347 -0.152346536517143250 0.062834285199642181 0.060767833143472672 0.124161176383495331 0.020673207938671112 0.130758643150329590 -0.152136743068695068 0.082488067448139191 -0.068848498165607452 -0.088800653815269470 -0.073334559798240662 -0.134183481335639954 -0.078369617462158203 0.072358779609203339 0.045722048729658127 0.021291999146342278 0.136140123009681702 -0.012826483696699142 -0.033003505319356918 0.087009310722351074 -0.104326203465461731 0.095080249011516571 0.094325184822082520 -0.167363360524177551 0.108819767832756042 -0.174364894628524780 -0.115818455815315247 -0.026109486818313599 0.041121829301118851 0.087960354983806610 -0.096778139472007751 0.027809819206595421 -0.112810373306274414 0.035211171954870224 0.129161685705184937 -0.121108733117580414 0.066592141985893250 0.122088611125946045 -0.008544417098164558 0.093843862414360046 0.141475915908813477 0.081636033952236176 -0.010121334344148636 0.178055331110954285 0.155391335487365723 -0.115576125681400299 -0.012195770628750324 -0.048257987946271896 -0.128268480300903320 -0.006835202220827341 0.145112410187721252 0.007766512222588062 -0.013111250475049019 -0.036916404962539673 -0.121413484215736389 -0.161871254444122314 -0.048430055379867554 0.032390307635068893 -0.107119835913181305
0.147482573986053467 0.149663105607032776 -0.011412696912884712 -0.076473392546176910 0.001155067700892687 0.049644611775875092 -0.060264647006988525 -0.039384540170431137 -0.024727921932935715 0.011202188208699226 0.022890133783221245 -0.063219077885150909 0.067033611238002777 0.113967046141624451 0.171677082777023315 -0.065122157335281372 0.086627542972564697 0.085538737475872040 0.144939690828323364 -0.046067364513874054 -0.055166535079479218 0.025692431256175041 0.006581132300198078 0.155190303921699524 0.122439265251159668 -0.027517698705196381 -0.025933587923645973 0.148552700877189636 0.140289410948753357 -0.079186856746673584 0.120815783739089966 -0.130490645766258240 -0.096628703176975250 -0.040329027920961380 -0.131235718727111816 -0.075436823070049286 0.076361857354640961 -0.020597750321030617 -0.102942071855068207 -0.071677431464195251 -0.049119103699922562 -0.125212669372558594 -0.098892509937286377 0.049634475260972977 0.080863177776336670 -0.039075803011655807 -0.037614617496728897 -0.140519708395004272 0.175413608551025391 -0.049897648394107819 -0.060643933713436127 -0.122761815786361694 0.145673319697380066 0.137484028935432434 0.028107549995183945 0.093455076217651367 0.139418944716453552 -0.008162233978509903 -0.112338915467262268 -0.100008450448513031 -0.088827364146709442 0.158812224864959717 -0.125202834606170654 -0.102394372224807739 -0.024655560031533241 -0.059413846582174301 -0.156312793493270874 0.041626214981079102 -0.116613380610942841 -0.002514105523005128 0.184905663132667542 0.175709053874015808 -0.084682784974575043 -0.204477205872535706 -0.131283178925514221 0.058367460966110229 0.033719591796398163 -0.111504599452018738 -0.049822047352790833 0.150547787547111511 -0.054501846432685852 -0.013248596340417862 -0.182557716965675354 -0.137791559100151062 0.079683728516101837 -0.072920843958854675 0.054665062576532364 0.008726508356630802 -0.062986411154270172 -0.150376930832862854 -0.072298035025596619 0.154636889696121216 0.052299022674560547 -0.040085621178150177 -0.068877577781677246 0.069518722593784332 0.021632358431816101 -0.010170105844736099 -0.068019337952136993 -0.090454332530498505
-0.035529781132936478 0.146614670753479004 -0.012549191713333130 -0.157233566045761108 -0.057897079735994339 -0.031990692019462585 -0.036058608442544937 -0.121851801872253418 -0.114788092672824860 0.054707225412130356 -0.133915603160858154 -0.090570107102394104 0.106780402362346649 0.176159486174583435 0.092851243913173676 0.005655076354742050 -0.021766075864434242 0.028839951381087303 0.046322058886289597 -0.010969712398946285 -0.106101945042610168 0.008802871219813824 -0.094709619879722595 -0.032069947570562363 0.125898793339729309 -0.052075572311878204 -0.048804715275764465 0.116666220128536224 0.118855036795139313 -0.064477577805519104 0.025227786973118782 -0.059252966195344925 0.124660402536392212 0.011576389893889427 -0.115573525428771973 0.013769836165010929 -0.022413918748497963 -0.048030011355876923 0.108424521982669830 0.133330360054969788 -0.110410518944263458 0.028691586107015610 -0.157753393054008484 -0.129919990897178650 -0.111183479428291321 0.087923891842365265 0.037753116339445114 0.028084028512239456 -0.114735476672649384 -0.057199917733669281 0.046814810484647751 0.014235982671380043 -0.032826252281665802 0.084340147674083710 0.082242369651794434 0.156871035695075989 -0.084346778690814972 -0.045362133532762527 -0.003405458992347121 0.198344171047210693 0.024935232475399971 -0.164643421769142151 -0.122400209307670593 -0.048666939139366150 0.071862474083900452 -0.022498451173305511 0.009734672494232655 -0.077038384974002838 -0.037154577672481537 -0.111649706959724426 -0.017788762226700783 -0.178639546036720276 -0.104215547442436218 -0.141319066286087036 0.117000363767147064 -0.059677213430404663 -0.147217601537704468 -0.084779962897300720 0.126697167754173279 -0.135202154517173767 0.074565581977367401 -0.044922564178705215 0.147041797637939453 -0.037558585405349731 0.161184266209602356 0.114209406077861786 -0.130171388387680054 0.066835612058639526 0.087902881205081940 -0.114962607622146606 -0.147247284650802612 -0.156045392155647278 -0.099247641861438751 -0.045766126364469528 -0.187450766563415527 0.025103161111474037 0.153769403696060181 0.080787904560565948 0.035758886486291885 -0.164938643574714661
-0.034752849489450455 -0.122608460485935211 -0.095129348337650299 -0.067971646785736084 -0.146541506052017212 0.011819260194897652 -0.010002270340919495 0.091183252632617950 -0.021953675895929337 0.044837482273578644 0.071009382605552673 -0.019817017018795013 -0.175685092806816101 0.002306436887010932 0.158332571387290955 -0.176514387130737305 -0.055136520415544510 0.110352642834186554 0.038415141403675079 0.157600060105323792 0.051324829459190369 -0.096980385482311249 0.170031681656837463 0.135725200176239014 -0.171086013317108154 0.051103942096233368 0.022258518263697624 -0.158010289072990417 -0.083745054900646210 -0.051151949912309647 -0.075717441737651825 0.047976668924093246 0.106273159384727478 -0.076258242130279541 -0.067632898688316345 -0.029004419222474098 0.169879481196403503 -0.041337829083204269 -0.049188017845153809 -0.029939383268356323 0.058888830244541168 -0.156555995345115662 0.135710701346397400 0.017582129687070847 -0.173845797777175903 -0.098354712128639221 0.063727550208568573 0.099688403308391571 0.064906597137451172 -0.102738693356513977 -0.088159538805484772 0.141241535544395447 0.002806362928822637 -0.027960883453488350 -0.110167369246482849 0.017746178433299065 0.035519275814294815 -0.036645960062742233 0.033455323427915573 -0.077212303876876831 -0.028936354443430901 -0.067507691681385040 0.133609309792518616 -0.085053466260433197 -0.019162362441420555 -0.025903241708874702 -0.166728720068931580 -0.032333243638277054 -0.102297544479370117 0.071314364671707153 0.008219020441174507 -0.018272016197443008 -0.043837696313858032 0.088276773691177368 -0.042932033538818359 -0.129410028457641602 -0.159500271081924438 0.138494893908500671 0.024050610139966011 0.078362777829170227 0.048510838299989700 0.111196592450141907 0.130560442805290222 0.021015128120779991 0.021552983671426773 0.045266743749380112 0.054712463170289993 -0.124092176556587219 0.038201417773962021 -0.126572236418724060 0.117820881307125092 -0.061307627707719803 -0.072832174599170685 0.152788564562797546 0.059702336788177490 -0.077862955629825592 0.168295085430145264 0.001057559275068343 -0.059482913464307785 0.138269647955894470
0.224470525979995728 -0.145540043711662292 0.087433539330959320 -0.126303032040596008 0.047872178256511688 -0.086405545473098755 -0.007694829721003771 0.163825392723083496 0.172378033399581909 0.056362085044384003 -0.111154653131961823 -0.090296886861324310 0.049242876470088959 0.042712993919849396 0.203315183520317078 0.175511449575424194 -0.034049283713102341 -0.021270221099257469 0.077024735510349274 0.139383167028427124 -0.086279749870300293 -0.069973297417163849 -0.110324278473854065 0.039810709655284882 0.039130412042140961 0.061518561094999313 0.056709613651037216 -0.039839547127485275 0.150691881775856018 0.000661517085973173 -0.182661816477775574 0.054671410471200943 0.043852198868989944 -0.019771669059991837 0.072733856737613678 -0.119134932756423950 0.087139122188091278 0.003932684659957886 -0.076182641088962555 0.006754197180271149 -0.136049777269363403 -0.082074061036109924 0.115259721875190735 -0.106123290956020355 -0.106717467308044434 0.140381559729576111 0.081542655825614929 0.073145031929016113 -0.129912078380584717 -0.006270858924835920 0.115089781582355499 0.139203071594238281 0.097413994371891022 -0.033171497285366058 0.110072679817676544 0.049049369990825653 0.016473889350891113 -0.103684119880199432 0.044619303196668625 0.086023591458797455 0.073187410831451416 -0.039053734391927719 0.075514130294322968 0.015707267448306084 -0.043749444186687469 0.107680164277553558 -0.132900357246398926 -0.054593376815319061 -0.159903600811958313 0.112509489059448242 -0.104398585855960846 0.121812969446182251 0.109960108995437622 -0.001428789109922945 0.078415162861347198 0.012029713019728661 0.029342824593186378 0.190929636359214783 0.032889325171709061 0.038317415863275528 0.022863784804940224 -0.066374301910400391 -0.088873818516731262 0.137492567300796509 0.092195242643356323 0.071307711303234100 -0.158206671476364136 0.167628601193428040 -0.146575182676315308 -0.195942357182502747 -0.140054970979690552 0.065318927168846130 -0.009976898320019245 -0.194918900728225708 0.059114616364240646 -0.011256812140345573 0.022748930379748344 0.163142964243888855 -0.060790393501520157 -0.047867387533187866
-0.060570683330297470 0.187598511576652527 0.059170857071876526 0.165387436747550964 0.038966942578554153 -0.109269276261329651 -0.049522601068019867 0.050534203648567200 0.049417637288570404 -0.097543768584728241 0.064438574016094208 -0.112677887082099915 0.186125621199607849 -0.091705091297626495 -0.090601265430450439 0.043395180255174637 0.107156276702880859 0.121927700936794281 0.052934799343347549 0.006846440490335226 -0.137451425194740295 -0.031054856255650520 -0.064248263835906982 0.121676765382289886 0.110978566110134125 -0.221178472042083740 0.028547190129756927 0.102362446486949921 -0.111041963100433350 0.037851009517908096 -0.098290398716926575 -0.116716235876083374 0.016673794016242027 0.015585357323288918 0.049103170633316040 -0.102827355265617371 0.124499864876270294 -0.058691989630460739 -0.107754252851009369 -0.168220296502113342 -0.137647822499275208 -0.008851392194628716 0.107576608657836914 0.080212362110614777 -0.040375698357820511 -0.115262329578399658 0.115345343947410583 0.098535358905792236 -0.079520545899868011 0.114862978458404541 -0.093313530087471008 -0.054616279900074005 -0.097092702984809875 0.059300746768712997 0.131029471755027771 -0.043925784528255463 0.098656997084617615 -0.113187126815319061 0.105158597230911255 -0.123002000153064728 0.039263520389795303 0.118354208767414093 -0.005476519931107759 0.121439993381500244 0.156395599246025085 -0.032246816903352737 -0.206482887268066406 -0.079092472791671753 0.070519804954528809 0.008880561217665672 -0.180897518992424011 -0.001783913583494723 0.034250129014253616 -0.190350249409675598 -0.154677629470825195 -0.073104515671730042 0.072509028017520905 0.045749407261610031 -0.091519206762313843 -0.070695459842681885 -0.195709779858589172 -0.022880837321281433 -0.016947496682405472 -0.111285373568534851 -0.033670686185359955 -0.043833427131175995 0.018000783398747444 -0.068362683057785034 0.036248207092285156 -0.024906007573008537 0.053519722074270248 -0.059803191572427750 -0.039081145077943802 0.063852056860923767 0.132359653711318970 -0.172691926360130310 0.113940760493278503 -0.052932657301425934 0.104575566947460175 0.007529963739216328
-0.124826513230800629 -0.001507077366113663 -0.078480765223503113 0.068389050662517548 -0.130694627761840820 0.063802719116210938 -0.082406356930732727 0.072101354598999023 0.156151890754699707 0.007818696089088917 0.145490467548370361 -0.144275844097137451 -0.051601707935333252 0.086300119757652283 0.165261209011077881 0.093174308538436890 -0.038658779114484787 0.158670812845230103 -0.042712718248367310 -0.114582940936088562 0.034096281975507736 -0.087095089256763458 0.065017268061637878 0.008209313265979290 -0.074398793280124664 0.003611308056861162 -0.098813459277153015 0.018821269273757935 -0.053315423429012299 0.099479831755161285 0.110535621643066406 -0.035846162587404251 0.153957679867744446 0.015444934368133545 0.145019620656967163 0.014738671481609344 -0.051411725580692291 0.127376571297645569 -0.003655778011307120 -0.061720080673694611 -0.023210421204566956 -0.046614758670330048 -0.184675112366676331 0.141798570752143860 -0.138756290078163147 -0.079851865768432617 0.127930507063865662 -0.015434470027685165 -0.082417964935302734 0.027918122708797455 -0.121560655534267426 -0.160206839442253113 -0.104536853730678558 0.041905030608177185 -0.071235395967960358 -0.065825685858726501 -0.091105535626411438 0.028382977470755577 0.040742699056863785 -0.099997960031032562 0.071334004402160645 -0.131000474095344543 -0.039204269647598267 -0.160021573305130005 -0.144595384597778320 0.034114118665456772 -0.105046324431896210 0.035754736512899399 0.157519638538360596 0.077899426221847534 0.161660417914390564 0.033755276352167130 -0.132295489311218262 0.052981924265623093 0.101797647774219513 0.013734525069594383 -0.100192956626415253 0.030499551445245743 0.035012517124414444 -0.129227250814437866 -0.082238011062145233 -0.027937225997447968 -0.067388251423835754 0.046152289956808090 0.084193170070648193 0.123820848762989044 -0.027312010526657104 -0.042302358895540237 0.112600103020668030 0.014290687628090382 0.052151788026094437 -0.035576716065406799 0.093155510723590851 -0.012302924878895283 -0.073339134454727173 -0.161401167511940002 0.003470143303275108 -0.123148120939731598 -0.024408714845776558 0.147148475050926208
0.082818016409873962 -0.169781327247619629 -0.121241047978401184 0.119950436055660248 0.127659663558006287 0.119074963033199310 0.081364534795284271 -0.022242473438382149 -0.070902548730373383 -0.016237786039710045 0.080753505229949951 -0.005838708952069283 -0.016413038596510887 0.086270935833454132 0.069387577474117279 0.022121867164969444 -0.085018858313560486 -0.026034759357571602 -0.166124552488327026 -0.149642527103424072 -0.076711818575859070 0.033516969531774521 -0.142513170838356018 0.082260847091674805 -0.075565174221992493 0.001539312186650932 0.061646539717912674 0.079577192664146423 -0.142173662781715393 0.190441682934761047 -0.050556324422359467 -0.047493543475866318 0.032219022512435913 0.139959529042243958 0.147058442234992981 0.070229649543762207 0.141656920313835144 -0.109345532953739166 -0.024596998468041420 -0.023175794631242752 0.151662364602088928 0.009883234277367592 0.147613957524299622 0.110517002642154694 0.167149916291236877 0.024283256381750107 0.061712585389614105 -0.117202036082744598 0.014314956031739712 0.029577367007732391 0.128298029303550720 -0.123032443225383759 -0.002422636142000556 -0.051460437476634979 0.072834193706512451 0.135579988360404968 0.025134049355983734 -0.128210082650184631 -0.137785151600837708 -0.118724204599857330 0.136685371398925781 0.118285797536373138 -0.144398912787437439 -0.146533533930778503 -0.046550370752811432 0.038674559444189072 -0.112269759178161621 0.165491431951522827 0.029013343155384064 -0.134398847818374634 0.165100365877151489 -0.044471364468336105 0.155963301658630371 0.130550354719161987 -0.003610317828133702 0.092165045440196991 0.096470467746257782 0.168789207935333252 -0.026557860895991325 0.062774293124675751 -0.068611212074756622 0.059243705123662949 -0.098883077502250671 0.106077849864959717 -0.017220333218574524 0.060468696057796478 -0.166808366775512695 0.087015651166439056 -0.103385686874389648 -0.085266835987567902 -0.148329049348831177 0.055692501366138458 -0.066409006714820862 0.015059834346175194 0.066996060311794281 -0.015141626819968224 -0.041941992938518524 0.081585928797721863 -0.047506801784038544 0.157416716217994690
0.050229992717504501 -0.013892048038542271 0.016735529527068138 -0.078462116420269012 -0.127475589513778687 -0.103561885654926300 0.080840282142162323 -0.124571621417999268 0.146280065178871155 0.010172590613365173 0.022113407030701637 0.022642947733402252 -0.054042696952819824 -0.009025266394019127 0.071249254047870636 0.043565578758716583 -0.006522437091916800 -0.014147462323307991 0.066780470311641693 -0.080163568258285522 -0.099489301443099976 -0.017643388360738754 -0.037824053317308426 0.091709248721599579 -0.019833756610751152 -0.012104388326406479 -0.058788459748029709 0.053083624690771103 -0.104152046144008636 0.059546396136283875 0.102831922471523285 -0.011226619593799114 -0.045512199401855469 -0.004608918447047472 0.083482168614864349 0.026969715952873230 0.113687902688980103 -0.151867270469665527 0.035050213336944580 0.018566539511084557 -0.134045839309692383 -0.167667731642723083 0.137180149555206299 0.178924977779388428 -0.090912126004695892 0.034849375486373901 -0.101094238460063934 0.128803923726081848 0.013713294640183449 -0.145352020859718323 -0.124779865145683289 -0.107831001281738281 0.126669928431510925 0.156989187002182007 0.022716790437698364 0.085080489516258240 -0.175511658191680908 0.145636767148971558 0.123525880277156830 0.119885176420211792 -0.103576622903347015 0.090382359921932220 0.074348434805870056 -0.017138704657554626 -0.029097408056259155 0.010779137723147869 0.000108113657915965 0.063373886048793793 0.106852553784847260 -0.097094282507896423 0.011094874702394009 -0.145724684000015259 0.128341749310493469 0.020050672814249992 -0.182500287890434265 -0.182573482394218445 -0.040637820959091187 -0.050517171621322632 0.118362039327621460 -0.173314511775970459 0.015825090929865837 0.123529568314552307 0.171716511249542236 -0.062448695302009583 0.072124786674976349 -0.119838595390319824 0.036401569843292236 0.184263885021209717 -0.133280858397483826 -0.112643711268901825 -0.095830768346786499 -0.186897769570350647 0.164826914668083191 0.072968021035194397 0.039799351245164871 0.155592575669288635 0.096293352544307709 -0.068088889122009277 0.026847394183278084 0.132326036691665649
0.031418904662132263 -0.141728475689888000 0.020676342770457268 -0.039400212466716766 0.116062253713607788 0.140089347958564758 0.028722383081912994 0.013312023133039474 -0.173358634114265442 -0.156693473458290100 -0.152520537376403809 -0.107695445418357849 0.132016062736511230 0.001401124754920602 -0.019251715391874313 0.016017146408557892 -0.130626171827316284 -0.111640587449073792 0.126099973917007446 -0.018176296725869179 -0.033762045204639435 -0.019634945318102837 -0.112900368869304657 0.121744297444820404 -0.144863009452819824 -0.130699679255485535 0.065285339951515198 0.154740050435066223 -0.037878543138504028 -0.017399750649929047 0.053078178316354752 -0.103157840669155121 -0.001445260131731629 0.062541492283344269 -0.088322825729846954 -0.040716204792261124 0.063962042331695557 -0.154887422919273376 0.011176647618412971 0.136464998126029968 0.172704651951789856 -0.035222321748733521 -0.128520116209983826 0.129890456795692444 -0.148114040493965149 0.019887592643499374 -0.002423799363896251 -0.033370926976203918 -0.099520869553089142 -0.093496792018413544 -0.112521059811115265 -0.044919598847627640 0.034705076366662979 0.008786830119788647 -0.159483969211578369 -0.161207184195518494 -0.019080441445112228 -0.082928940653800964 -0.074523478746414185 -0.186830088496208191 0.088041745126247406 0.007458917330950499 0.021308977156877518 -0.051645826548337936 -0.057728853076696396 0.054060731083154678 -0.201496466994285583 0.028185760602355003 0.020247539505362511 0.151093035936355591 -0.069288432598114014 0.151466414332389832 -0.077850781381130219 -0.100156053900718689 0.044325940310955048 0.112957566976547241 0.074538707733154297 0.103985458612442017 -0.129140213131904602 -0.056498438119888306 -0.000230587946134619 -0.132549270987510681 0.175762742757797241 -0.073267355561256409 0.006753146648406982 0.084646701812744141 -0.075183965265750885 0.066676728427410126 -0.101131513714790344 0.050562474876642227 -0.157003194093704224 0.135154619812965393 0.032876227051019669 0.026511784642934799 -0.014864770695567131 0.006744594313204288 0.167985320091247559 0.042966503649950027 0.022237872704863548 0.069734670221805573
-0.122444383800029755 -0.024904187768697739 -0.030772943049669266 -0.028307536616921425 0.036241121590137482 -0.177689552307128906 0.146976888179779053 -0.054843042045831680 -0.107581101357936859 0.072317600250244141 -0.003560153534635901 -0.104930236935615540 -0.053916838020086288 0.155203074216842651 -0.180647298693656921 0.102723695337772369 0.155054509639739990 -0.098689503967761993 0.181929454207420349 -0.073681466281414032 0.184781789779663086 0.147284403443336487 0.093534365296363831 0.016781736165285110 0.048302412033081055 -0.105956517159938812 -0.143456026911735535 0.002918135141953826 -0.006933536380529404 -0.025589928030967712 0.083634980022907257 -0.155612111091613770 0.116633154451847076 -0.110147006809711456 0.187924459576606750 -0.035605594515800476 0.080099642276763916 -0.112229570746421814 0.136889442801475525 0.023037273436784744 0.014783917926251888 -0.075756922364234924 0.034758530557155609 0.035136286169290543 0.160431653261184692 -0.029886623844504356 -0.124800935387611389 -0.004037173930555582 -0.126204907894134521 0.165982767939567566 -0.148451775312423706 -0.048999298363924026 0.142711043357849121 0.158582091331481934 -0.136039793491363525 0.148204281926155090 0.152984067797660828 0.076642081141471863 -0.124256663024425507 -0.142582014203071594 -0.076774396002292633 -0.039091546088457108 0.151493579149246216 -0.050079226493835449 0.093331709504127502 0.087013520300388336 0.018476344645023346 0.014586862176656723 -0.049339633435010910 -0.146151825785636902 -0.037271134555339813 -0.199417144060134888 -0.113144576549530029 -0.005739154759794474 0.181896299123764038 0.146047338843345642 0.027713339775800705 -0.005395866464823484 0.101005434989929199 -0.098518908023834229 -0.135562255978584290 0.018805943429470062 -0.125203549861907959 0.121976010501384735 0.071105346083641052 -0.121337279677391052 0.135232672095298767 0.037093184888362885 0.009880244731903076 0.174036070704460144 -0.078322976827621460 0.081966154277324677 0.038179762661457062 0.022165015339851379 0.001375001389533281 -0.188519418239593506 -0.042160116136074066 -0.099048130214214325 -0.160929575562477112 0.150809258222579956
-0.089183524250984192 0.072565712034702301 -0.149009510874748230 0.055225998163223267 -0.114662364125251770 0.088370159268379211 0.113792642951011658 0.183306470513343811 -0.099363669753074646 0.127228394150733948 0.049659289419651031 -0.013835446909070015 -0.197276547551155090 -0.163414597511291504 -0.070114634931087494 -0.053531315177679062 -0.019326185807585716 -0.089361906051635742 0.116124592721462250 0.003543822327628732 0.150104075670242310 -0.079655773937702179 -0.035285439342260361 -0.109220266342163086 -0.010911649093031883 -0.081377565860748291 0.173942342400550842 -0.135261699557304382 -0.183972030878067017 -0.019081246107816696 0.156364023685455322 0.192868009209632874 -0.183358564972877502 -0.011167211458086967 -0.045700620859861374 0.060887292027473450 -0.094254501163959503 -0.017421079799532890 -0.131464987993240356 0.134657338261604309 -0.092780418694019318 -0.106302976608276367 0.088452361524105072 0.101849183440208435 -0.181299880146980286 0.113481141626834869 -0.169986411929130554 -0.136665999889373779 -0.136017918586730957 0.103941462934017181 -0.041045088320970535 0.163328677415847778 0.027477512136101723 0.107668988406658173 0.146064460277557373 -0.122704669833183289 -0.101885251700878143 0.006188499275594950 -0.042093031108379364 -0.099918223917484283 0.143814221024513245 -0.140115737915039062 0.053138300776481628 -0.160283342003822327 -0.031452260911464691 -0.036738764494657516 -0.051041565835475922 -0.006299530621618032 -0.149223476648330688 -0.041015874594449997 0.013329019770026207 0.113074772059917450 0.006871066987514496 -0.111268058419227600 -0.024834869429469109 0.100043624639511108 0.034500010311603546 -0.155559077858924866 -0.011983400210738182 0.028726315125823021 -0.000740413786843419 -0.036311540752649307 0.052770379930734634 0.043937280774116516 -0.084353692829608917 -0.086649656295776367 -0.152832522988319397 0.063105531036853790 -0.092981457710266113 0.036844834685325623 0.071082919836044312 -0.015065413899719715 -0.158692449331283569 0.098716758191585541 -0.026322694495320320 0.087058492004871368 -0.088388450443744659 0.002066190121695399 -0.059963185340166092 0.101810567080974579
0.141540080308914185 0.060673039406538010 -0.078700713813304901 0.081468813121318817 -0.110872983932495117 -0.115076601505279541 0.167668625712394714 0.055751442909240723 0.121990785002708435 -0.059278897941112518 -0.102721489965915680 0.080933950841426849 0.060429375618696213 -0.043909605592489243 -0.065110750496387482 0.059427458792924881 0.143600940704345703 0.068318270146846771 -0.026761448010802269 0.117665693163871765 0.050598483532667160 -0.163686931133270264 0.122402019798755646 0.123372033238410950 0.117527514696121216 0.073874600231647491 0.138175576925277710 0.138891145586967468 0.101629674434661865 0.096805222332477570 -0.068689048290252686 -0.146090403199195862 0.095960110425949097 0.094135656952857971 -0.122369803488254547 0.020638205111026764 -0.058963660150766373 0.035657908767461777 -0.012357229366898537 -0.071783185005187988 0.070298388600349426 0.045276101678609848 0.056786239147186279 -0.067538730800151825 0.155165731906890869 -0.163522675633430481 0.161682695150375366 0.083507888019084930 -0.010090566240251064 0.078682549297809601 -0.145125895738601685 -0.123655058443546295 0.177651256322860718 0.108078800141811371 -0.022152427583932877 -0.090254530310630798 0.000339574238751084 -0.021511193364858627 0.095700390636920929 0.127044290304183960 0.014357176609337330 -0.082861073315143585 0.135877579450607300 -0.154424354434013367 0.006016207393258810 0.114094346761703491 -0.128920808434486389 0.111471578478813171 -0.112800963222980499 -0.061193961650133133 -0.082655169069766998 0.149676561355590820 -0.129287302494049072 -0.099880792200565338 0.130395367741584778 0.167031466960906982 -0.164411306381225586 -0.012571278959512711 -0.104273818433284760 -0.095473878085613251 -0.169573694467544556 0.166862323880195618 -0.125012964010238647 -0.089440926909446716 0.050694338977336884 -0.076031535863876343 -0.146741852164268494 0.068194501101970673 0.000996267655864358 0.073532521724700928 0.014809962362051010 -0.159492552280426025 -0.027407517656683922 -0.068924464285373688 -0.014579482376575470 -0.152194887399673462 0.078514441847801208 -0.039258334785699844 -0.163581162691116333 0.131893873214721680
0.004981001373380423 0.058066021651029587 0.023011127486824989 0.117980733513832092 0.114182122051715851 0.023149458691477776 0.104670599102973938 0.126212924718856812 0.178452983498573303 0.132495656609535217 -0.105508744716644287 -0.113347738981246948 0.063247948884963989 -0.150263741612434387 -0.097193978726863861 0.132408842444419861 -0.157014071941375732 -0.049268808215856552 0.148297131061553955 -0.011015702039003372 -0.001798081444576383 -0.157174274325370789 -0.025374075397849083 0.138397723436355591 0.089392453432083130 -0.052930470556020737 -0.007421875838190317 -0.044553063809871674 0.056054223328828812 0.152681261301040649 -0.027163088321685791 0.110396608710289001 -0.051835525780916214 -0.105681285262107849 -0.148579999804496765 -0.164700061082839966 0.059114377945661545 0.108692586421966553 -0.136953875422477722 0.092220045626163483 -0.228186696767807007 -0.051796860992908478 -0.064780153334140778 -0.069582454860210419 0.169161558151245117 -0.103625670075416565 0.179061561822891235 -0.088438130915164948 -0.061025321483612061 -0.123127445578575134 0.092228226363658905 0.011454155668616295 0.117864497005939484 0.191013202071189880 0.145190581679344177 0.198766335844993591 0.123567618429660797 -0.115648567676544189 -0.042423609644174576 -0.060075357556343079 -0.097702488303184509 0.005813652183860540 0.175863862037658691 -0.127575710415840149 0.063586473464965820 0.103593342006206512 0.034025661647319794 0.126268610358238220 0.012142701074481010 -0.061845134943723679 -0.258010745048522949 0.110049821436405182 -0.019266692921519279 -0.081795997917652130 -0.009128657169640064 0.120793506503105164 -0.100139662623405457 -0.085337713360786438 -0.002734092297032475 0.097413696348667145 -0.085707068443298340 -0.111919894814491272 -0.026969913393259048 0.136872425675392151 0.122959852218627930 -0.004156176466494799 -0.023021416738629341 -0.178338304162025452 -0.153518259525299072 -0.063719041645526886 -0.028091479092836380 -0.093192547559738159 0.162498176097869873 -0.003147471928969026 -0.178215757012367249 -0.182413682341575623 -0.200071647763252258 -0.084302067756652832 0.093001976609230042 -0.106989555060863495
0.119984135031700134 0.036074176430702209 0.130551189184188843 -0.120461478829383850 -0.016275130212306976 -0.072363227605819702 0.004635759629309177 -0.021604107692837715 -0.002847354859113693 -0.010201193392276764 0.065682411193847656 0.037697352468967438 0.038755800575017929 0.180394068360328674 -0.181306913495063782 0.020250553265213966 -0.054015882313251495 0.046010568737983704 -0.108230926096439362 -0.086170271039009094 -0.073027215898036957 0.037768285721540451 0.125270336866378784 -0.056508414447307587 0.037354744970798492 -0.001857848488725722 0.044297020882368088 -0.077553220093250275 0.094199381768703461 -0.029083469882607460 -0.062660358846187592 0.128303647041320801 -0.136259064078330994 -0.114509187638759613 0.010587403550744057 0.025099197402596474 -0.134810686111450195 0.011787381023168564 -0.121395163238048553 0.074507907032966614 0.161058828234672546 0.046981893479824066 0.000645617372356355 0.127377122640609741 -0.020140221342444420 -0.093415930867195129 -0.068103611469268799 0.045541308820247650 -0.011736468411982059 0.037589360028505325 0.012284356169402599 -0.047983679920434952 0.026887545362114906 0.026765191927552223 -0.115605108439922333 0.002648724243044853 -0.082530878484249115 -0.048974767327308655 -0.055587794631719589 0.016130214557051659 -0.032143734395503998 -0.032131027430295944 0.101932980120182037 -0.038238689303398132 0.009176980704069138 -0.112550549209117889 0.049139082431793213 0.201283797621726990 0.023193078115582466 0.167202427983283997 0.065023802220821381 0.015350460074841976 0.161318868398666382 -0.019805990159511566 0.051330149173736572 0.060229115188121796 -0.070793062448501587 0.125809535384178162 0.145273014903068542 -0.056741431355476379 -0.126801297068595886 0.156837880611419678 0.117709979414939880 0.124113604426383972 -0.006911875680088997 -0.046138562262058258 -0.134953483939170837 -0.169871911406517029 -0.173698395490646362 0.083404101431369781 -0.127942383289337158 0.179301321506500244 -0.162885427474975586 -0.142990887165069580 -0.085123747587203979 0.145825251936912537 -0.160023450851440430 -0.044105641543865204 -0.151678606867790222 -0.069487467408180237
0.107718750834465027 0.116146177053451538 -0.048468869179487228 0.167626678943634033 -0.141403108835220337 0.049990091472864151 -0.147809550166130066 0.007987012155354023 -0.006918331142514944 0.085438214242458344 -0.020954577252268791 0.109465442597866058 -0.147678002715110779 0.056820806115865707 -0.039016749709844589 0.062399458140134811 -0.187665283679962158 0.032140612602233887 0.007594361901283264 -0.006374245509505272 -0.059311043471097946 -0.129605904221534729 -0.109523825347423553 0.034177716821432114 0.135361403226852417 0.150172203779220581 -0.050370294600725174 0.123693071305751801 -0.080979831516742706 -0.132412090897560120 0.010706927627325058 -0.014391620643436909 0.019255664199590683 0.130306452512741089 0.107383586466312408 0.085433609783649445 -0.165473908185958862 -0.180409982800483704 0.134316071867942810 -0.014430087991058826 0.122504994273185730 0.155434295535087585 -0.081688724458217621 -0.026141654700040817 0.127170205116271973 0.153640463948249817 -0.107112854719161987 0.029364332556724548 -0.064745448529720306 -0.090962417423725128 -0.066744603216648102 0.164514690637588501 0.095328658819198608 0.121882535517215729 -0.132490515708923340 0.142546489834785461 -0.066479176282882690 -0.111965000629425049 -0.082711704075336456 -0.057133264839649200 0.169456943869590759 0.116676568984985352 -0.118567474186420441 -0.013226026669144630 0.080828167498111725 -0.053927771747112274 0.126630306243896484 0.047140952199697495 0.083048604428768158 -0.079553328454494476 0.174350574612617493 0.096882827579975128 0.031085787340998650 -0.158733800053596497 0.032588168978691101 -0.045675203204154968 0.107215553522109985 0.060018107295036316 0.150331437587738037 0.010500919073820114 0.084614552557468414 0.034728698432445526 0.052103098481893539 -0.026970753446221352 -0.151573941111564636 -0.081981800496578217 0.065532334148883820 0.012738917954266071 0.114186964929103851 -0.020829780027270317 0.087112605571746826 -0.136202782392501831 0.006628062110394239 0.073016546666622162 -0.143535479903221130 0.033823084086179733 0.179888278245925903 0.023486159741878510 -0.170314952731132507 -0.109435006976127625
0.149156749248504639 -0.061003923416137695 -0.198252514004707336 -0.093749076128005981 -0.019524797797203064 0.032169517129659653 0.050703421235084534 -0.081711009144783020 -0.180331602692604065 0.163293421268463135 0.014776393771171570 -0.074798010289669037 -0.048219036310911179 0.024399299174547195 0.035921901464462280 -0.019142938777804375 0.077301077544689178 -0.024999035522341728 0.044024132192134857 0.155375108122825623 0.038234487175941467 0.105689205229282379 0.097721092402935028 0.114129900932312012 0.119229763746261597 -0.171155110001564026 -0.121567405760288239 0.135372892022132874 0.043537098914384842 0.128855168819427490 -0.195689201354980469 0.157305657863616943 0.185665890574455261 0.034910488873720169 -0.021294090896844864 -0.167542144656181335 -0.074999727308750153 -0.103254750370979309 0.190987631678581238 -0.159964695572853088 -0.067287735641002655 -0.187510013580322266 0.086914025247097015 0.123917564749717712 -0.055479280650615692 -0.108341433107852936 -0.103523969650268555 -0.013248664326965809 0.081334270536899567 0.148703470826148987 -0.061195187270641327 -0.158217146992683411 0.067987322807312012 0.071343414485454559 -0.049999080598354340 0.030853165313601494 -0.014754908159375191 0.022116322070360184 -0.018156679347157478 0.112558759748935699 0.005594058427959681 0.211239993572235107 0.168205723166465759 -0.082219868898391724 -0.055777993053197861 -0.120711818337440491 -0.035518307238817215 0.076000988483428955 0.128239229321479797 0.145261839032173157 -0.154608845710754395 0.003305338090285659 0.119060717523097992 0.184862971305847168 0.087032549083232880 0.096353061497211456 -0.113708704710006714 0.088713027536869049 0.157881721854209900 0.090113893151283264 0.150510400533676147 -0.105406098067760468 -0.109378702938556671 -0.036154162138700485 0.154022097587585449 0.090205475687980652 0.161651507019996643 -0.023621004074811935 0.077701136469841003 0.141209363937377930 -0.096180930733680725 -0.094216488301753998 0.083437569439411163 0.078233309090137482 -0.098640903830528259 -0.002794287633150816 0.087915092706680298 0.063954137265682220 -0.036003638058900833 0.023380147293210030
-0.118714973330497742 -0.073472879827022552 -0.028224049136042595 -0.139819115400314331 0.026897445321083069 0.015493915416300297 0.047056492418050766 -0.110775269567966461 -0.154987066984176636 -0.067588441073894501 -0.102560758590698242 0.070232383906841278 -0.014905664138495922 0.006642611231654882 -0.080047905445098877 -0.164069473743438721 0.102522164583206177 -0.001436488935723901 -0.164125204086303711 0.024275070056319237 -0.119871221482753754 -0.012216414324939251 -0.101921990513801575 0.178141966462135315 0.147671923041343689 -0.075652830302715302 0.102457880973815918 0.154586032032966614 0.095543324947357178 0.064275220036506653 -0.005013725254684687 0.106823183596134186 0.123892739415168762 0.151323601603507996 -0.000960071338340640 -0.077018871903419495 0.055042073130607605 -0.093543268740177155 0.032448455691337585 0.125456795096397400 0.147068262100219727 0.132249414920806885 -0.022859079763293266 0.049391657114028931 0.094502218067646027 0.029559189453721046 -0.137623578310012817 0.029788330197334290 -0.116262584924697876 -0.024401938542723656 -0.077607870101928711 -0.078384675085544586 -0.039488855749368668 -0.053053259849548340 0.049729030579328537 -0.185953080654144287 -0.029571631923317909 0.163449242711067200 -0.017277484759688377 0.102944903075695038 0.044454287737607956 -0.035054679960012436 -0.164984345436096191 0.022891726344823837 -0.007900388911366463 0.117384701967239380 0.132690012454986572 -0.219893261790275574 0.029232436791062355 -0.187259718775749207 0.114365540444850922 0.124212987720966339 -0.116699643433094025 -0.052186790853738785 -0.029288360849022865 0.131309017539024353 -0.081296421587467194 -0.016669068485498428 0.034335907548666000 0.138993740081787109 0.157298400998115540 0.099612303078174591 0.072383701801300049 -0.020300140604376793 -0.081756159663200378 0.070620194077491760 0.187142893671989441 0.039126720279455185 -0.097985513508319855 -0.059754054993391037 0.089189812541007996 -0.140384256839752197 -0.012712504714727402 -0.134226277470588684 0.193684592843055725 0.145935729146003723 0.096167549490928650 0.015200290828943253 0.026535687968134880 0.161535426974296570
0.059925500303506851 0.002145751379430294 -0.140716791152954102 -0.095563493669033051 -0.170484408736228943 0.056777477264404297 0.000137535636895336 0.063194692134857178 0.123601660132408142 0.083359725773334503 -0.132785841822624207 -0.034693505614995956 -0.098962284624576569 0.073574766516685486 0.146124064922332764 0.151885822415351868 -0.139591678977012634 0.116216510534286499 -0.094082750380039215 0.151947945356369019 0.042587082833051682 0.032711870968341827 -0.139786958694458008 -0.104063898324966431 0.086677193641662598 0.036311585456132889 0.132033377885818481 0.072062104940414429 -0.088727556169033051 -0.146843135356903076 -0.014746213331818581 0.081088766455650330 0.209034323692321777 -0.063880786299705505 -0.017798673361539841 -0.029702451080083847 0.136224403977394104 0.093063786625862122 -0.062964439392089844 0.029029592871665955 0.152648225426673889 0.086754307150840759 -0.000110725108243059 -0.046636831015348434 0.067948766052722931 -0.170922756195068359 0.148366436362266541 0.108133248984813690 0.131556212902069092 -0.053051192313432693 0.009925899095833302 -0.164013251662254333 -0.038567390292882919 -0.126645311713218689 0.045333184301853180 -0.105091974139213562 -0.074671313166618347 0.186102464795112610 0.117281787097454071 -0.200927287340164185 0.100338168442249298 -0.074390769004821777 0.092942707240581512 -0.058790825307369232 -0.134404808282852173 0.130180552601814270 -0.171494662761688232 0.132480129599571228 0.143519192934036255 -0.096317678689956665 0.136190459132194519 0.157639950513839722 0.032391112297773361 -0.000095104398496915 0.077744826674461365 0.089127346873283386 0.161860838532447815 0.074093848466873169 -0.133102640509605408 -0.103060565888881683 -0.067996919155120850 -0.116182632744312286 0.083138614892959595 0.030241904780268669 -0.080517858266830444 -0.067932255566120148 0.037431556731462479 -0.005194216500967741 0.024832742288708687 -0.157215848565101624 -0.102503769099712372 -0.056706335395574570 0.123920381069183350 -0.160610780119895935 -0.139520570635795593 0.179098725318908691 0.146447017788887024 0.047931294888257980 -0.035773541778326035 0.147881612181663513
-0.059883937239646912 -0.057930763810873032 0.014501826837658882 -0.152972087264060974 -0.014591240324079990 0.130714237689971924 -0.135918349027633667 0.128182306885719299 -0.143991723656654358 0.143608495593070984 -0.104360572993755341 -0.028481535613536835 0.148089200258255005 0.137953743338584900 0.127438217401504517 -0.063909217715263367 -0.072447098791599274 0.167977079749107361 -0.155725806951522827 0.033079773187637329 -0.066157042980194092 0.113959491252899170 -0.077727846801280975 0.178487494587898254 0.047486796975135803 0.156273111701011658 0.084905609488487244 -0.046550236642360687 -0.071390733122825623 -0.128811195492744446 0.129738420248031616 -0.010988193564116955 0.086325913667678833 -0.083458982408046722 -0.171170011162757874 0.124314874410629272 -0.078990004956722260 0.013587650842964649 -0.156965941190719604 0.132182598114013672 0.103893518447875977 0.063087046146392822 -0.024269038811326027 -0.031291857361793518 -0.008197991177439690 -0.149880498647689819 -0.118211172521114349 -0.095035448670387268 -0.118371643126010895 -0.041273441165685654 -0.048397619277238846 0.017870888113975525 0.150189429521560669 0.110535889863967896 -0.014715429395437241 0.098188854753971100 0.089762955904006958 -0.145703375339508057 0.023411909118294716 0.080835379660129547 0.088543631136417389 0.074194863438606262 -0.052754253149032593 -0.124888263642787933 -0.057970643043518066 0.137080922722816467 -0.108998253941535950 -0.192139729857444763 0.132424846291542053 -0.081531189382076263 0.025221602991223335 0.059087801724672318 0.165583536028862000 -0.040348187088966370 -0.085743725299835205 -0.084082029759883881 -0.053619183599948883 0.139892101287841797 0.040826279670000076 -0.133142545819282532 -0.069952838122844696 0.106661714613437653 0.046184722334146500 0.118977852165699005 0.061606641858816147 0.105251051485538483 -0.044420316815376282 -0.022071056067943573 -0.043820500373840332 -0.174629434943199158 -0.119391933083534241 -0.138400852680206299 -0.002304672263562679 -0.170598059892654419 0.022464979439973831 0.201427266001701355 0.188195660710334778 -0.147438108921051025 0.143480777740478516 0.171470791101455688
0.154702574014663696 -0.004005480092018843 0.085123270750045776 -0.001989992335438728 0.109453715384006500 0.119545273482799530 0.015925152227282524 -0.101487465202808380 0.107961408793926239 -0.044268395751714706 -0.063287563621997833 -0.116370536386966705 0.149472445249557495 0.101741969585418701 0.033197659999132156 0.157214820384979248 0.120266586542129517 -0.171804219484329224 -0.109766900539398193 -0.078367978334426880 0.148538306355476379 -0.103262394666671753 -0.076201915740966797 -0.089278347790241241 -0.170907407999038696 0.124743781983852386 0.136405467987060547 -0.076717734336853027 -0.064049907028675079 -0.052410960197448730 0.118997387588024139 0.001754277735017240 -0.066992007195949554 -0.058368846774101257 -0.115297302603721619 -0.161266341805458069 -0.159367278218269348 -0.009455753490328789 -0.117758929729461670 -0.048672448843717575 0.013568087480962276 -0.036265775561332703 -0.186171144247055054 -0.145639628171920776 0.104446835815906525 0.187060981988906860 -0.057082850486040115 0.118040598928928375 -0.050149470567703247 0.044953208416700363 0.137841939926147461 -0.156626433134078979 0.098872609436511993 -0.141528174281120300 0.037786126136779785 0.039568614214658737 0.167232275009155273 0.015713769942522049 -0.052202854305505753 0.135578081011772156 0.136735081672668457 0.152932420372962952 -0.037192065268754959 -0.003163884626701474 0.007484168745577335 0.174051910638809204 -0.033080786466598511 0.029336808249354362 -0.125615835189819336 0.018933787941932678 -0.098665840923786163 0.185959890484809875 -0.128389537334442139 0.141891673207283020 0.103755891323089600 0.073189377784729004 0.089516185224056244 0.110139809548854828 0.032126542180776596 0.129286989569664001 -0.029589150100946426 -0.155896797776222229 -0.189952448010444641 0.028451381251215935 -0.091355629265308380 0.024189319461584091 0.024097092449665070 -0.126526877284049988 -0.033164210617542267 -0.144216626882553101 -0.037033651024103165 -0.076873980462551117 -0.081301003694534302 0.003844388760626316 0.097338370978832245 0.080580182373523712 0.055220462381839752 -0.074975848197937012 -0.093270651996135712 -0.001038628863170743
0.071028560400009155 0.164122566580772400 0.149939045310020447 -0.041484504938125610 -0.112518630921840668 -0.122006483376026154 -0.092195279896259308 -0.064083039760589600 0.089414976537227631 -0.171737879514694214 0.093600474298000336 0.061293158680200577 0.018897287547588348 0.053945772349834442 0.075356259942054749 -0.137969568371772766 -0.002778861206024885 -0.023764101788401604 -0.017116682603955269 -0.138727664947509766 -0.143606752157211304 0.028836274519562721 0.153379127383232117 0.059003550559282303 -0.126561611890792847 0.151991710066795349 0.190476253628730774 -0.051193609833717346 -0.091331370174884796 0.116188630461692810 0.151695579290390015 0.030043052509427071 0.153579935431480408 0.180854156613349915 0.143374234437942505 0.116991773247718811 -0.136800378561019897 0.045116666704416275 0.037682186812162399 -0.059455018490552902 0.164744362235069275 0.078101016581058502 0.164146691560745239 0.057994604110717773 0.008950312621891499 0.080921985208988190 -0.090856403112411499 -0.147081285715103149 -0.076433107256889343 0.120662219822406769 -0.024505332112312317 0.197962015867233276 -0.078703328967094421 0.043466359376907349 -0.051128800958395004 -0.051220268011093140 0.043746627867221832 -0.105907887220382690 0.112195976078510284 -0.030048459768295288 0.080379471182823181 -0.093298010528087616 -0.048234019428491592 0.021199826151132584 0.161076456308364868 -0.072045184671878815 -0.083806268870830536 -0.001883392338640988 -0.111350648105144501 0.122915133833885193 -0.040096823126077652 -0.143434524536132812 -0.058534704148769379 0.145688623189926147 0.092501848936080933 -0.115259282290935516 -0.038202822208404541 0.150280043482780457 -0.003644140204414725 -0.124117255210876465 -0.063213355839252472 0.142387151718139648 -0.022278197109699249 0.065986000001430511 -0.134547635912895203 0.113350950181484222 -0.131907135248184204 0.142869651317596436 -0.073345839977264404 -0.117579527199268341 -0.147473543882369995 -0.080274641513824463 0.037952844053506851 0.185838922858238220 -0.110741116106510162 0.033978328108787537 -0.023756610229611397 -0.056681472808122635 0.001953471917659044 0.107731908559799194
0.130094856023788452 0.011448993347585201 0.113412812352180481 -0.091889269649982452 0.125460311770439148 0.096068449318408966 0.173781245946884155 0.041745491325855255 -0.034020479768514633 0.173114508390426636 -0.084706872701644897 -0.041963133960962296 0.076945304870605469 0.113981075584888458 -0.104957312345504761 -0.089387089014053345 -0.069860599935054779 -0.012336727231740952 -0.015471812337636948 -0.136275246739387512 0.071875639259815216 -0.128742590546607971 -0.091862872242927551 -0.033285301178693771 -0.043881710618734360 0.051994066685438156 0.074212066829204559 -0.086722858250141144 0.134152472019195557 -0.170991480350494385 -0.071158297359943390 0.153994724154472351 -0.161765173077583313 -0.122202955186367035 -0.138619154691696167 -0.088429935276508331 0.055411018431186676 -0.063709847629070282 0.109906576573848724 0.056447714567184448 0.077005475759506226 -0.059601407498121262 0.051394764333963394 -0.059882279485464096 -0.026630664244294167 -0.052502531558275223 0.096879065036773682 -0.054001852869987488 0.028128402307629585 0.019115097820758820 -0.021495597437024117 -0.051881819963455200 0.036787901073694229 0.129612624645233154 0.022534146904945374 0.055828157812356949 -0.047514669597148895 0.050627335906028748 0.116937227547168732 0.017326425760984421 0.186414256691932678 -0.041904103010892868 0.042742468416690826 0.046638317406177521 -0.055410791188478470 -0.062328536063432693 0.106581412255764008 0.080584004521369934 0.050543107092380524 -0.051995798945426941 0.064742088317871094 0.126176893711090088 0.045831151306629181 -0.114580832421779633 0.202147692441940308 -0.102473922073841095 -0.122790984809398651 0.092858836054801941 0.033635213971138000 -0.162905216217041016 -0.104114130139350891 -0.104399293661117554 0.087396383285522461 0.040100224316120148 -0.053124558180570602 -0.101333856582641602 -0.153766512870788574 0.203463613986968994 0.169444963335990906 -0.026156265288591385 -0.115107409656047821 0.103814944624900818 -0.087616115808486938 0.165794327855110168 -0.093559011816978455 -0.077017083764076233 0.028868231922388077 0.016868062317371368 -0.137279033660888672 0.022435085847973824
-0.018460951745510101 0.086373813450336456 -0.048996720463037491 0.123008236289024353 -0.123995833098888397 0.105798505246639252 0.063718937337398529 0.150897786021232605 -0.044201783835887909 -0.008371943607926369 -0.123426027595996857 0.115069180727005005 -0.016049703583121300 0.066609300673007965 -0.119337685406208038 0.077920444309711456 -0.141942650079727173 -0.007555543445050716 -0.118565052747726440 0.139329507946968079 0.106606848537921906 -0.004960235208272934 0.126922801136970520 -0.119830675423145294 0.115773744881153107 0.124529503285884857 0.041862599551677704 -0.031214317306876183 0.179202765226364136 0.010831578634679317 0.045869242399930954 0.057562932372093201 0.063717670738697052 -0.163082510232925415 0.182562932372093201 -0.072513431310653687 0.016808794811367989 -0.017075709998607635 0.056818816810846329 -0.101952172815799713 0.180147513747215271 0.020631188526749611 -0.017794644460082054 -0.156764894723892212 0.074144117534160614 -0.128371641039848328 -0.096024677157402039 0.011607056483626366 0.088892675936222076 -0.001293387031182647 -0.148041263222694397 -0.064868472516536713 -0.091588012874126434 0.168280631303787231 -0.117197856307029724 0.074401386082172394 -0.091106981039047241 -0.078291580080986023 -0.092566572129726410 0.124871872365474701 0.036047089844942093 0.038538943976163864 -0.071214526891708374 0.104706741869449615 0.089910097420215607 0.159598559141159058 -0.009498701430857182 -0.041589602828025818 0.012387817725539207 0.139486983418464661 -0.040191546082496643 -0.103890888392925262 0.077933862805366516 -0.144524589180946350 -0.052054602652788162 0.069831170141696930 -0.058213252574205399 0.151897385716438293 -0.032345898449420929 0.178267106413841248 -0.056340754032135010 0.008992906659841537 0.150493413209915161 -0.125041410326957703 -0.012289995327591896 -0.154121726751327515 0.121587172150611877 0.022684760391712189 -0.094076357781887054 -0.001805131207220256 0.068937174975872040 -0.079331248998641968 0.146417573094367981 0.138690099120140076 -0.122501775622367859 -0.080973498523235321 0.001992928097024560 0.076190233230590820 -0.143747851252555847 -0.048275399953126907
-0.105626516044139862 -0.049667265266180038 0.125168219208717346 0.024142934009432793 0.082965679466724396 0.027621820569038391 0.107544779777526855 0.058463294059038162 -0.060781601816415787 -0.128068834543228149 0.068951427936553955 -0.146693736314773560 0.108863957226276398 -0.093421936035156250 -0.101995117962360382 0.157021537423133850 -0.128818780183792114 -0.044373419135808945 0.168276190757751465 -0.166921854019165039 -0.071345865726470947 -0.053725603967905045 -0.035041388124227524 -0.117021948099136353 -0.027872968465089798 0.071677647531032562 0.105672091245651245 -0.009312865324318409 0.114003457129001617 -0.003954337909817696 -0.133200079202651978 0.050748430192470551 -0.132882818579673767 -0.061195969581604004 -0.021728837862610817 0.139129161834716797 0.131518363952636719 0.056106530129909515 -0.096867643296718597 -0.163669124245643616 0.155730232596397400 -0.165600642561912537 -0.075453117489814758 -0.064236998558044434 0.101230718195438385 -0.094744153320789337 -0.125216588377952576 0.092626422643661499 0.128526613116264343 -0.122664138674736023 0.115511909127235413 -0.173662006855010986 0.157517075538635254 0.070798523724079132 -0.049325730651617050 -0.114980623126029968 -0.023756131529808044 -0.148731902241706848 0.060415338724851608 0.108562432229518890 -0.010999741032719612 0.135009244084358215 0.050336040556430817 -0.057795211672782898 0.126609951257705688 -0.050630349665880203 -0.132871508598327637 0.006269490811973810 0.057833962142467499 0.054194871336221695 -0.125243231654167175 0.058942671865224838 -0.168684616684913635 0.086157806217670441 -0.115283079445362091 -0.056470170617103577 -0.144303381443023682 -0.113476358354091644 0.072711616754531860 -0.101900264620780945 0.016458211466670036 -0.100939810276031494 0.185654431581497192 0.041742566972970963 0.147792011499404907 -0.107633762061595917 -0.057065386325120926 0.038788404315710068 -0.172073081135749817 -0.140692904591560364 -0.117140054702758789 -0.134926185011863708 -0.039446372538805008 0.038133148103952408 -0.025568667799234390 -0.120904482901096344 -0.125720679759979248 0.007089311722666025 -0.156708687543869019 -0.045692760497331619
0.130657330155372620 0.102042540907859802 0.005314246285706758 -0.060142971575260162 0.076217383146286011 -0.008565621450543404 -0.107820764183998108 -0.097710326313972473 -0.119600005447864532 -0.068274624645709991 -0.167082682251930237 0.044601637870073318 -0.030438831076025963 -0.142456650733947754 -0.113294810056686401 -0.033458940684795380 -0.054616890847682953 -0.038668487221002579 0.055110570043325424 -0.156493842601776123 0.094254866242408752 -0.080184951424598694 -0.132967635989189148 -0.154696568846702576 -0.093055114150047302 -0.036561429500579834 -0.144131839275360107 0.187463596463203430 0.141818374395370483 -0.163619980216026306 0.026747332885861397 -0.161271438002586365 0.018987691029906273 -0.056106388568878174 0.169106408953666687 0.072163887321949005 -0.074646018445491791 0.023177379742264748 0.141339063644409180 -0.121181569993495941 -0.029253181070089340 0.189862743020057678 0.124618947505950928 -0.097806453704833984 -0.113333575427532196 0.155123829841613770 -0.147959932684898376 -0.035258233547210693 0.049128003418445587 -0.054424393922090530 -0.156246140599250793 -0.077080667018890381 -0.177247539162635803 -0.148668125271797180 -0.011585737578570843 0.016835758462548256 0.131712242960929871 0.057010520249605179 -0.108590088784694672 0.097461089491844177 0.040761303156614304 -0.000075779375038110 -0.058339171111583710 -0.143717080354690552 0.034224115312099457 0.063011251389980316 0.089647278189659119 0.145732268691062927 -0.105203583836555481 0.158512115478515625 -0.112000420689582825 -0.029863366857171059 -0.152866765856742859 -0.055273074656724930 0.102927029132843018 0.023071583360433578 0.061181541532278061 -0.092083513736724854 0.026622923091053963 0.157122015953063965 0.066767737269401550 -0.166686028242111206 -0.065486758947372437 -0.079858615994453430 -0.041798017919063568 -0.032249357551336288 -0.079667970538139343 -0.127939134836196899 -0.127429202198982239 0.020451188087463379 0.016303684562444687 0.101393543183803558 0.180751353502273560 -0.058209598064422607 -0.065070874989032745 0.133281275629997253 0.108176112174987793 0.100833423435688019 -0.029975442215800285 -0.055686820298433304
0.087268933653831482 -0.083446450531482697 0.095945648849010468 -0.080264814198017120 -0.098251380026340485 -0.035600356757640839 0.020993268117308617 0.109536908566951752 -0.153599470853805542 -0.156870707869529724 0.080287821590900421 0.055539313703775406 -0.006444176193326712 0.102976381778717041 -0.062391791492700577 -0.179770246148109436 -0.143579885363578796 0.086678087711334229 -0.138645306229591370 0.060335364192724228 0.088742971420288086 -0.086357697844505310 -0.107357934117317200 0.142809137701988220 -0.094935797154903412 -0.066708788275718689 0.105763174593448639 0.064144320785999298 0.087506592273712158 0.069436274468898773 -0.156090483069419861 0.078956849873065948 -0.083701856434345245 -0.063145242631435394 -0.049461904913187027 0.093475274741649628 -0.070753864943981171 -0.052631314843893051 -0.098058298230171204 0.050660129636526108 -0.002217102563008666 -0.009318934753537178 -0.154973581433296204 -0.131137713789939880 0.128922775387763977 0.058153238147497177 0.130902066826820374 0.121243566274642944 -0.144020497798919678 0.082365237176418304 0.089484050869941711 -0.031826067715883255 0.004400379024446011 -0.004807858727872372 0.140173450112342834 -0.099593803286552429 -0.072249583899974823 -0.140312895178794861 0.163328438997268677 -0.138622581958770752 0.142057776451110840 0.165935605764389038 0.109197579324245453 0.099762618541717529 -0.189647510647773743 0.114213384687900543 0.004143803380429745 -0.159428879618644714 -0.045065756887197495 0.099469535052776337 0.102327868342399597 0.061476860195398331 -0.088532358407974243 -0.145884647965431213 0.147875517606735229 -0.178050562739372253 0.182993993163108826 0.208047717809677124 0.143220081925392151 -0.087460644543170929 -0.043922334909439087 -0.004563336260616779 0.064748384058475494 -0.059962660074234009 -0.021751280874013901 0.151049748063087463 0.069158308207988739 -0.010006654076278210 0.127139508724212646 0.046886082738637924 0.026215380057692528 0.112329311668872833 0.042814720422029495 -0.000644641520921141 0.145473957061767578 0.151256978511810303 -0.031576797366142273 0.034035507589578629 -0.100158959627151489 -0.050181217491626740
0.070319041609764099 0.024700317531824112 0.005104169715195894 0.025971524417400360 0.079171814024448395 -0.139413118362426758 0.147754698991775513 0.044014330953359604 -0.118198759853839874 0.069804459810256958 -0.114134192466735840 0.100027762353420258 0.034076709300279617 0.107401400804519653 -0.136333554983139038 -0.165776789188385010 -0.087648250162601471 0.055662069469690323 0.096804507076740265 0.007986578159034252 0.136862963438034058 0.113753251731395721 -0.075145564973354340 0.151337459683418274 0.159580707550048828 0.139616414904594421 0.099344253540039062 0.081527560949325562 0.172622993588447571 -0.033590406179428101 -0.088406190276145935 0.015524677000939846 0.171416237950325012 -0.140395537018775940 -0.116022177040576935 -0.113882794976234436 0.146955013275146484 0.167332649230957031 0.037599634379148483 0.137963101267814636 -0.132561489939689636 -0.107385069131851196 -0.135700643062591553 -0.112746402621269226 0.109689690172672272 -0.128694131970405579 0.027391474694013596 0.179451301693916321 -0.050412748008966446 -0.041145902127027512 0.001086652162484825 0.150068536400794983 0.042453769594430923 0.155596032738685608 0.204940348863601685 0.129829362034797668 -0.032902337610721588 0.098183482885360718 -0.108168520033359528 -0.089689552783966064 -0.052059661597013474 -0.145221263170242310 -0.164515748620033264 -0.074273660778999329 0.191735818982124329 -0.132443577051162720 -0.053736206144094467 0.132935702800750732 -0.119246326386928558 0.163089990615844727 -0.076198503375053406 -0.011939746327698231 0.139720112085342407 0.126384451985359192 0.008917586877942085 0.205171003937721252 0.078105263411998749 0.180840551853179932 -0.025315878912806511 0.120213158428668976 0.031729776412248611 -0.089660927653312683 0.040799021720886230 -0.111539788544178009 0.015710713341832161 -0.105524405837059021 -0.127231478691101074 -0.162335515022277832 -0.100462675094604492 -0.068962201476097107 0.041725344955921173 0.030836602672934532 0.163651719689369202 -0.074880063533782959 0.015224482864141464 -0.148914262652397156 0.168709844350814819 0.092179767787456512 -0.168757334351539612 0.008430136367678642
0.085627473890781403 0.070768512785434723 -0.067219749093055725 0.134775117039680481 -0.144801050424575806 0.119686603546142578 0.105550982058048248 -0.004952929913997650 -0.001523131737485528 0.000324416731018573 -0.183131664991378784 0.095111496746540070 -0.063050113618373871 0.058362081646919250 0.206675037741661072 -0.024417221546173096 -0.031047280877828598 -0.033117648214101791 0.106600947678089142 0.014236563816666603 0.106814526021480560 -0.105646595358848572 -0.059313457459211349 0.026901893317699432 0.079439036548137665 -0.120156638324260712 0.087729305028915405 -0.062632754445075989 -0.014393447898328304 0.051341477781534195 0.155293107032775879 0.121337234973907471 0.115238614380359650 -0.021460287272930145 0.113191679120063782 -0.013443476520478725 0.042106177657842636 -0.144115477800369263 0.036138314753770828 0.088178269565105438 -0.043526116758584976 0.171120703220367432 -0.168113484978675842 -0.147601723670959473 0.143735915422439575 -0.080305472016334534 0.053628709167242050 0.154154807329177856 -0.008267484605312347 0.098618052899837494 -0.128446221351623535 -0.044016633182764053 -0.049545489251613617 -0.128811329603195190 -0.109623253345489502 -0.074195846915245056 0.011084528639912605 0.058739896863698959 -0.114774055778980255 0.051130566745996475 -0.042057584971189499 -0.085409343242645264 -0.143399387598037720 -0.061614174395799637 0.140522167086601257 0.055610626935958862 0.028128987178206444 0.069479674100875854 0.001377853332087398 0.141226857900619507 0.063425511121749878 -0.136651352047920227 -0.068334467709064484 0.107364155352115631 -0.124744445085525513 -0.006693898700177670 0.044368591159582138 0.097512461245059967 -0.021452667191624641 -0.071678884327411652 0.017290310934185982 -0.119286261498928070 -0.048435837030410767 -0.072257377207279205 -0.082548514008522034 0.078667208552360535 -0.066873565316200256 0.033805608749389648 -0.125842362642288208 0.043324153870344162 0.089455574750900269 0.073393799364566803 -0.024533996358513832 -0.169457599520683289 0.083802737295627594 -0.113060377538204193 -0.101326085627079010 -0.089889459311962128 0.152074187994003296 0.040895696729421616
0.032032269984483719 -0.051566012203693390 -0.004853123798966408 0.141950726509094238 -0.015070931985974312 -0.126192897558212280 -0.123341187834739685 0.041573807597160339 -0.020183132961392403 0.095726884901523590 0.000222433212911710 -0.068677209317684174 -0.169287070631980896 0.071686863899230957 -0.035725258290767670 0.016790833324193954 -0.118254363536834717 0.075250133872032166 0.061379343271255493 -0.088999800384044647 -0.098216496407985687 -0.121613934636116028 0.111314356327056885 0.057707630097866058 -0.120702244341373444 -0.009490752592682838 0.035027921199798584 -0.188536480069160461 0.013495823368430138 0.102932259440422058 -0.105936087667942047 -0.103935644030570984 0.067343093454837799 0.077014125883579254 0.051974017173051834 0.004233979620039463 0.154799997806549072 0.137012064456939697 -0.125440806150436401 -0.034316420555114746 0.063732065260410309 -0.057060666382312775 -0.100043907761573792 0.086387880146503448 0.006022006738930941 -0.054707836359739304 0.035801902413368225 -0.008068653754889965 -0.019447088241577148 -0.085173785686492920 -0.072502888739109039 -0.030108416453003883 -0.160195529460906982 0.043555773794651031 -0.125557512044906616 0.082002043724060059 -0.159480944275856018 0.003466839203611016 0.178854525089263916 0.053640872240066528 -0.091135874390602112 -0.079276055097579956 -0.027169045060873032 -0.100412368774414062 -0.149709939956665039 -0.133418619632720947 -0.060420401394367218 0.105200193822383881 -0.052030168473720551 -0.044411957263946533 0.178834915161132812 -0.011071226559579372 0.054957322776317596 0.151388585567474365 -0.142002239823341370 -0.022424230352044106 0.125081688165664673 -0.124799005687236786 0.167718440294265747 0.115709282457828522 -0.149342641234397888 0.061843205243349075 -0.003265106817707419 -0.014537408016622066 0.023666134104132652 0.058467328548431396 -0.025148922577500343 0.086724333465099335 -0.140235915780067444 0.158383116126060486 -0.146809354424476624 -0.023880593478679657 -0.148599237203598022 -0.122996315360069275 0.206558838486671448 -0.060910690575838089 0.089806541800498962 -0.067131333053112030 0.044273119419813156 0.014552281238138676
0.009735005907714367 0.014948961324989796 -0.061589516699314117 0.023520654067397118 -0.133514001965522766 -0.136621788144111633 0.070898115634918213 -0.138565436005592346 0.115152232348918915 0.096236295998096466 -0.051166918128728867 0.103976875543594360 -0.168976262211799622 0.048951443284749985 -0.010380156338214874 0.041472449898719788 0.008599388413131237 -0.063144393265247345 -0.172097653150558472 -0.189875036478042603 -0.120941638946533203 -0.097523495554924011 -0.113378122448921204 0.150793313980102539 0.136659681797027588 -0.015851993113756180 0.022385492920875549 0.061010610312223434 -0.134704083204269409 -0.132832959294319153 -0.012642240151762962 -0.010631472803652287 -0.097447350621223450 0.084375441074371338 -0.071154870092868805 0.084667615592479706 0.099048323929309845 0.089895203709602356 0.163112297654151917 0.127398267388343811 0.043686535209417343 -0.177166119217872620 0.141047939658164978 0.116944886744022369 0.108635000884532928 0.019598873332142830 0.000903736916370690 -0.122984141111373901 0.117191664874553680 -0.072158358991146088 -0.154185235500335693 -0.062500439584255219 -0.165872842073440552 0.137517169117927551 -0.013997911475598812 0.018905464559793472 -0.048582676798105240 0.113116383552551270 -0.041885018348693848 -0.017124736681580544 0.142889723181724548 -0.059558589011430740 -0.177284464240074158 -0.083280362188816071 0.079150930047035217 0.129291817545890808 0.020469494163990021 -0.165411889553070068 0.112596124410629272 0.098311185836791992 -0.168450579047203064 -0.022074325010180473 -0.141574263572692871 0.154898047447204590 -0.163003370165824890 -0.107800804078578949 -0.061985723674297333 -0.144116804003715515 -0.072269476950168610 -0.079599454998970032 0.169946819543838501 -0.050856735557317734 0.178651615977287292 0.149463921785354614 -0.138247281312942505 0.028671335428953171 -0.070434980094432831 0.099415287375450134 -0.146448746323585510 -0.137988910079002380 0.036563336849212646 -0.058109071105718613 0.061499565839767456 -0.061198577284812927 0.167884230613708496 -0.100514240562915802 0.067999213933944702 -0.105384275317192078 -0.066279083490371704 -0.025322156026959419
0.024057373404502869 -0.140999570488929749 0.029511870816349983 0.108913451433181763 -0.116383679211139679 -0.163682565093040466 -0.117942184209823608 0.037163812667131424 -0.047042217105627060 -0.108138911426067352 -0.106470510363578796 0.097803510725498199 0.155631020665168762 -0.051319718360900879 -0.097062878310680389 -0.124413095414638519 -0.162872329354286194 -0.172354385256767273 0.153063789010047913 0.073484554886817932 -0.066361978650093079 0.184271752834320068 0.034707847982645035 0.057534057646989822 0.092161983251571655 0.061994887888431549 0.092685587704181671 -0.113723188638687134 0.021120633929967880 0.057044152170419693 0.037235826253890991 -0.166125267744064331 0.126873716711997986 0.024193953722715378 -0.158747896552085876 0.138776436448097229 0.056080993264913559 0.090361565351486206 -0.132580712437629700 0.058617357164621353 0.018892822787165642 0.188221022486686707 0.008636781945824623 -0.065810270607471466 -0.012728000059723854 0.114252582192420959 -0.068058297038078308 -0.127588421106338501 0.058012686669826508 0.056930240243673325 -0.020706906914710999 -0.130655482411384583 -0.117184922099113464 0.015237607061862946 -0.174617737531661987 -0.126728743314743042 -0.029358025640249252 -0.136173650622367859 0.071014203131198883 -0.147862881422042847 0.154801860451698303 -0.158043548464775085 -0.111605063080787659 0.035412881523370743 -0.125717893242835999 0.173972278833389282 0.095546998083591461 -0.088195562362670898 -0.048842620104551315 0.063516952097415924 -0.065766490995883942 0.135210260748863220 0.051731601357460022 -0.177602589130401611 -0.089347280561923981 0.143651187419891357 -0.019030775874853134 0.120431207120418549 0.015691960230469704 0.122429795563220978 0.127280399203300476 -0.117145210504531860 0.142292380332946777 0.063724599778652191 0.178282991051673889 -0.094763405621051788 0.001838976400904357 -0.154050543904304504 0.086409710347652435 -0.087870046496391296 0.019465144723653793 0.163483634591102600 0.137466371059417725 0.044545195996761322 -0.190885469317436218 0.142146512866020203 -0.075862996280193329 -0.037146124988794327 -0.146723940968513489 -0.067101217806339264
-0.011440615169703960 0.111388862133026123 -0.001115035731345415 0.087294436991214752 0.178178489208221436 0.134666919708251953 -0.007854090072214603 0.046237394213676453 0.073354788124561310 0.021061671897768974 -0.133637949824333191 0.037588935345411301 0.008941829204559326 0.090754605829715729 0.032728549093008041 0.133440032601356506 0.174482688307762146 -0.016477083787322044 -0.146659284830093384 0.116997130215167999 -0.067856550216674805 -0.001663653412833810 0.066729001700878143 -0.051565468311309814 -0.034627668559551239 -0.086847700178623199 -0.075149215757846832 -0.109209522604942322 0.113217607140541077 -0.177569955587387085 0.038144860416650772 -0.161908715963363647 0.139411807060241699 0.164097860455513000 -0.007778972852975130 0.045640688389539719 0.116368010640144348 -0.094043456017971039 -0.128761544823646545 -0.155675917863845825 0.022666158154606819 -0.037211969494819641 -0.129474714398384094 -0.036942727863788605 -0.111424371600151062 0.097676143050193787 -0.092016704380512238 0.112967319786548615 0.017773125320672989 0.040015969425439835 0.078332625329494476 -0.089969635009765625 -0.083747476339340210 0.062531739473342896 -0.112043291330337524 0.188746258616447449 0.113347850739955902 -0.137234598398208618 0.101576648652553558 0.106198884546756744 -0.030326897278428078 0.069746077060699463 0.041667822748422623 0.162810131907463074 -0.004263184033334255 -0.011139118112623692 0.102937206625938416 -0.057262297719717026 -0.089515656232833862 0.037360183894634247 0.054120484739542007 0.035664215683937073 -0.070729836821556091 -0.041037619113922119 0.150628477334976196 0.150064200162887573 -0.040639296174049377 0.173799037933349609 -0.043968785554170609 0.151945561170578003 -0.040377721190452576 0.044605907052755356 -0.048590097576379776 0.037197563797235489 0.105491012334823608 0.055230733007192612 0.087364636361598969 0.033104501664638519 0.009829658083617687 0.046106107532978058 0.046534463763237000 0.075426481664180756 0.050639715045690536 -0.147601976990699768 -0.095330730080604553 0.161760956048965454 0.124636523425579071 -0.138085976243019104 0.032096508890390396 -0.201058745384216309
0.103131279349327087 -0.102233015000820160 -0.164120018482208252 -0.030312014743685722 0.032291069626808167 0.124790698289871216 0.162990763783454895 -0.090678542852401733 -0.078020319342613220 -0.097496375441551208 0.063636489212512970 0.028614006936550140 -0.100933842360973358 -0.158415824174880981 0.051074363291263580 0.067744463682174683 -0.185501575469970703 -0.055587969720363617 -0.056297544389963150 -0.135366782546043396 0.026084871962666512 -0.150191262364387512 0.061440180987119675 0.037695340812206268 0.162483647465705872 -0.151876732707023621 -0.116267018020153046 -0.167978122830390930 -0.068789735436439514 -0.169835746288299561 -0.105857178568840027 -0.100904859602451324 0.018808908760547638 0.064128778874874115 0.093475162982940674 0.120814740657806396 0.183181285858154297 -0.119304783642292023 -0.132316142320632935 -0.008660213090479374 0.091126196086406708 -0.061208605766296387 -0.027627974748611450 0.053449723869562149 0.065757043659687042 -0.188024848699569702 0.010222918353974819 0.055421501398086548 -0.036116223782300949 -0.088422998785972595 0.016115393489599228 -0.120693616569042206 0.105628222227096558 -0.120542347431182861 -0.085447348654270172 0.002465173369273543 -0.029470788314938545 0.007627967279404402 0.067924231290817261 0.146965801715850830 0.134480878710746765 0.183994308114051819 -0.161136850714683533 -0.002029544441029429 0.010023403912782669 -0.067795991897583008 0.055651336908340454 -0.169806823134422302 -0.054465748369693756 0.035275824368000031 0.135769501328468323 -0.153663516044616699 -0.104018270969390869 0.126534953713417053 0.114377222955226898 0.103709861636161804 0.009704798460006714 -0.073800712823867798 0.110734403133392334 0.016138266772031784 0.012427621521055698 -0.094167999923229218 -0.055761661380529404 -0.038775846362113953 0.049191009253263474 -0.009634254500269890 -0.082429751753807068 -0.118605248630046844 0.044493556022644043 0.019827865064144135 -0.141099974513053894 -0.134023711085319519 -0.133871719241142273 0.151875331997871399 0.196919426321983337 0.185760602355003357 0.074559912085533142 -0.054035995155572891 -0.017263911664485931 -0.084665097296237946
