#Layer 8 Weights:
-0.027140447869896889
-0.035968650132417679
0.099072933197021484
-0.077612191438674927
0.126227587461471558
-0.184165984392166138
0.128524973988533020
0.036735318601131439
0.141191244125366211
0.209534183144569397
0.054355595260858536
-0.191570580005645752
-0.117738068103790283
0.207624152302742004
-0.101158000528812408
-0.153997257351875305
-0.109050139784812927
-0.073930330574512482
-0.201420113444328308
0.181570217013359070
-0.150992706418037415
0.214618369936943054
0.059069897979497910
0.073297642171382904
-0.196496799588203430
0.000037481495382963
0.115871004760265350
0.203499525785446167
-0.218080565333366394
-0.000011013414223271
0.093382768332958221
0.060149632394313812
-0.083380088210105896
0.000008147839253070
0.130898475646972656
0.177596613764762878
0.036683037877082825
-0.027685981243848801
-0.017572510987520218
-0.000033627500670264
-0.238628759980201721
0.222812235355377197
-0.182599961757659912
-0.108703449368476868
-0.198933526873588562
0.077494524419307709
0.182992398738861084
0.122981093823909760
0.218192532658576965
-0.237246647477149963
0.000017942555132322
0.173501089215278625
0.232930943369865417
-0.083719916641712189
0.000194813415873796
-0.179900154471397400
-0.209373146295547485
-0.025680243968963623
0.214254513382911682
0.143134027719497681
0.093690119683742523
0.000076586991781369
-0.155880331993103027
-0.097460940480232239
0.060769025236368179
0.109536625444889069
0.122944705188274384
-0.005053207743912935
0.134108424186706543
-0.094133712351322174
-0.157331258058547974
-0.066660985350608826
-0.000072644463216420
0.117326959967613220
0.141178503632545471
0.155984789133071899
-0.094039924442768097
-0.190828666090965271
-0.000075045798439533
-0.004306014161556959
0.000005704173418053
-0.014307600446045399
-0.126943677663803101
0.000038844220398460
-0.129499152302742004
0.111604213714599609
0.028382044285535812
0.181741133332252502
-0.000039088903577067
0.063928991556167603
0.214704826474189758
0.154555767774581909
0.206766724586486816
0.017030723392963409
-0.085761830210685730
-0.209079161286354065
0.138680517673492432
-0.000004865276878263
-0.040490116924047470
-0.066374979913234711
