#Layer 0 Weights:
-0.059664018452167511 -0.126352772116661072 0.206118479371070862 -0.087912909686565399 0.093361668288707733 -0.248276904225349426 0.171687334775924683 0.134653806686401367 0.224980145692825317 0.279110342264175415 0.082286231219768524 -0.224383994936943054 -0.149627402424812317 0.280778706073760986 -0.165695264935493469 -0.166184470057487488 -0.207382082939147949 -0.117012888193130493 -0.247771039605140686 0.265197068452835083 -0.231700167059898376 0.226809561252593994 0.161522522568702698 0.131459027528762817 -0.209907203912734985 0.044849026948213577 0.160042762756347656 0.233748808503150940 -0.245016291737556458 0.020535159856081009 0.117360860109329224 0.102299563586711884 -0.158381089568138123 -0.097263112664222717 0.167940735816955566 0.234700411558151245 0.083428859710693359 -0.059431478381156921 -0.047442093491554260 0.081027157604694366 -0.226061895489692688 0.251975446939468384 -0.224370211362838745 -0.154011517763137817 -0.222407147288322449 0.115591496229171753 0.277049422264099121 0.095065459609031677 0.276471525430679321 -0.284696370363235474 0.028936324641108513 0.231361001729965210 0.293098747730255127 -0.147404313087463379 0.009462033398449421 -0.272574335336685181 -0.240767970681190491 -0.057099431753158569 0.255156785249710083 0.235973119735717773 0.123435720801353455 -0.065538242459297180 -0.190672323107719421 -0.167463600635528564 0.046142846345901489 0.166671678423881531 0.178526580333709717 0.052758656442165375 0.179813578724861145 -0.124359488487243652 -0.205109044909477234 -0.141983985900878906 0.045952819287776947 0.171553000807762146 0.199283018708229065 0.161510095000267029 -0.135841161012649536 -0.239769607782363892 -0.014533922076225281 -0.033136382699012756 0.077674306929111481 -0.164311677217483521 -0.158321410417556763 -0.035877600312232971 -0.203927978873252869 0.125430449843406677 0.128373995423316956 0.227061107754707336 0.078273132443428040 0.160975918173789978 0.237253531813621521 0.180664211511611938 0.258815288543701172 0.170002445578575134 -0.110791422426700592 -0.274724572896957397 0.166893512010574341 0.008969836868345737 -0.062621153891086578 -0.074637174606323242
-0.197249606251716614 0.005464178044348955 -0.017664873972535133 -0.102479919791221619 0.015914322808384895 0.016246704384684563 0.076835714280605316 -0.211954548954963684 -0.000412544584833086 0.039180744439363480 0.146692693233489990 -0.147288233041763306 -0.016907345503568649 -0.002793131163343787 -0.147738307714462280 -0.199771448969841003 0.153881520032882690 -0.086562402546405792 -0.027187731117010117 0.211587771773338318 0.261814832687377930 0.134135991334915161 0.081674240529537201 0.044841434806585312 -0.109959065914154053 -0.186059117317199707 0.172521278262138367 0.033196721225976944 0.038305491209030151 0.151765868067741394 0.170844987034797668 -0.098630987107753754 0.070857785642147064 0.296258330345153809 0.176546916365623474 -0.214648216962814331 0.011653618887066841 -0.256293475627899170 0.274834215641021729 -0.324877321720123291 -0.200500309467315674 -0.066332168877124786 0.158383250236511230 -0.209037572145462036 -0.159558072686195374 0.106624655425548553 -0.118866167962551117 0.104620367288589478 -0.184856802225112915 0.072702199220657349 0.109588205814361572 0.019903648644685745 0.227898150682449341 -0.208280757069587708 0.029049791395664215 -0.055791750550270081 -0.029388545081019402 -0.200519293546676636 -0.172237902879714966 0.006892705336213112 -0.060444984585046768 -0.219238474965095520 0.003736082697287202 -0.235148385167121887 0.170743167400360107 -0.127145424485206604 -0.348348528146743774 0.154229983687400818 -0.050246227532625198 -0.006400888320058584 0.058053676038980484 0.013169868849217892 -0.205652028322219849 -0.005758573301136494 -0.023729853332042694 -0.179992616176605225 0.104748919606208801 -0.208751648664474487 0.001075785141438246 -0.063113413751125336 -0.120059743523597717 0.056063015013933182 -0.056308358907699585 0.148164719343185425 0.161656320095062256 0.060961179435253143 -0.048138383775949478 -0.128564879298210144 -0.289471924304962158 -0.230828985571861267 0.053538523614406586 0.136678457260131836 -0.085813045501708984 -0.216387182474136353 0.179027110338211060 -0.110431909561157227 0.244546562433242798 -0.000738701201044023 0.096874691545963287 0.179968446493148804
